~o
<STREAMINFO> 1 39
<VECSIZE> 39<NULLD><MFCC_D_A_0><DIAGC>
~s "silst"
<MEAN> 39
 -1.700549e+01 -8.791888e-01 -2.734709e+00 3.770255e+00 1.311652e+00 5.621592e+00 3.810542e+00 4.747031e+00 3.922343e+00 2.949616e+00 4.290266e+00 5.188681e+00 6.457667e+01 -1.518220e-01 -3.517947e-01 3.221628e-01 -5.546620e-02 -4.120551e-01 -7.762247e-02 -2.264675e-01 -3.531426e-02 3.952677e-01 -2.616100e-01 2.232059e-01 -2.019430e-01 4.031848e-01 -2.077214e-02 -7.125846e-02 8.007069e-02 -1.754733e-02 -7.146689e-02 -3.854860e-02 -6.479579e-02 -3.992230e-02 1.071780e-01 -7.323066e-02 2.348986e-02 -1.880373e-02 9.319982e-02
<VARIANCE> 39
 8.024732e+00 1.742998e+01 1.852754e+01 1.620058e+01 1.717959e+01 1.328284e+01 1.576355e+01 1.473598e+01 1.399112e+01 1.387975e+01 1.153990e+01 1.097128e+01 9.656116e+00 6.839890e-01 1.659049e+00 1.658057e+00 1.415618e+00 2.265821e+00 1.496585e+00 1.834035e+00 1.508812e+00 2.181389e+00 1.580967e+00 1.524797e+00 1.136898e+00 9.659316e-01 1.131040e-01 3.132167e-01 2.914886e-01 2.472418e-01 3.805748e-01 2.743397e-01 3.102832e-01 2.927253e-01 3.915189e-01 2.949287e-01 2.673013e-01 2.200775e-01 1.684177e-01
<GCONST> 9.314813e+01
~h "b"
<BEGINHMM>
<NUMSTATES> 5
<STATE> 2
<MEAN> 39
 -4.372436e+00 4.295885e+00 5.765206e+00 1.228231e+01 6.628349e+00 3.844838e+00 -6.168078e+00 7.706112e-01 5.100508e+00 -2.275547e+00 -3.996639e+00 -1.543765e+00 7.496783e+01 -1.130116e+00 1.637788e+00 4.332810e-01 7.322960e-01 5.952399e-01 6.540569e-01 2.009806e+00 1.003235e+00 4.482630e-02 1.248513e+00 5.695605e-01 -1.398479e-01 -1.666051e+00 -1.519091e-01 -1.122985e-02 6.723747e-02 -9.900610e-02 -1.315165e-02 1.811148e-01 1.859378e-01 -4.021216e-02 -1.355846e-01 -4.369350e-02 2.065262e-01 1.725236e-01 -6.756216e-02
<VARIANCE> 39
 3.361216e+01 4.260126e+01 2.466981e+01 5.178775e+01 4.151378e+01 4.358755e+01 9.861261e+01 5.140296e+01 2.309763e+01 2.322416e+01 2.539214e+01 1.287394e+01 2.633636e+01 1.509157e+00 3.116393e+00 2.201619e+00 2.187155e+00 1.911471e+00 3.395199e+00 4.519185e+00 2.922196e+00 1.558069e+00 3.369604e+00 2.655311e+00 1.765001e+00 1.476117e+00 1.910134e-01 4.023474e-01 3.958910e-01 5.197706e-01 4.441625e-01 3.185229e-01 6.127416e-01 5.832935e-01 2.546417e-01 2.406086e-01 2.339182e-01 3.673852e-01 1.188437e-01
<GCONST> 1.141293e+02
<STATE> 3
<MEAN> 39
 -7.265644e+00 9.886230e+00 4.301645e+00 9.217504e+00 5.259905e+00 5.616672e+00 3.215372e+00 6.123191e+00 5.037904e+00 1.732441e+00 -8.517810e-01 -1.142513e+00 6.940136e+01 -1.370071e+00 1.302727e+00 8.756377e-01 4.950588e-01 8.039714e-01 1.076082e+00 1.727361e+00 2.006687e-01 -2.372466e-01 1.109559e+00 8.865275e-01 4.271392e-02 -1.461559e+00 3.575453e-01 -5.250181e-01 1.859837e-02 4.395313e-02 -6.886967e-02 -2.810200e-01 -6.878998e-01 -3.603902e-01 -2.255155e-01 -6.325686e-01 -2.073406e-01 -1.589757e-02 5.335718e-01
<VARIANCE> 39
 2.926651e+01 2.168564e+01 1.056597e+01 2.033382e+01 1.626566e+01 1.802887e+01 1.229105e+01 1.115840e+01 1.037804e+01 1.315201e+01 1.650455e+01 1.644693e+01 8.842278e+00 2.242508e+00 2.784018e+00 2.023764e+00 3.860863e+00 3.076331e+00 4.242240e+00 2.787643e+00 2.696955e+00 1.398994e+00 2.130499e+00 2.283343e+00 2.137549e+00 1.274278e+00 1.421258e-01 3.841684e-01 2.661818e-01 2.689408e-01 3.206328e-01 4.669907e-01 3.846247e-01 3.313673e-01 1.976600e-01 2.769034e-01 2.621857e-01 2.066548e-01 9.827013e-02
<GCONST> 1.005510e+02
<STATE> 4
<MEAN> 39
 -9.025443e+00 1.176160e+01 7.265833e+00 1.179858e+01 7.650613e+00 8.232395e+00 5.809141e+00 5.813459e+00 3.220506e+00 1.224653e+00 -2.891111e-01 -8.836436e-01 6.779112e+01 3.499269e-01 -3.925734e-01 -8.906798e-02 -2.054895e-02 -2.732060e-01 -7.091462e-02 -8.148316e-02 -2.448569e-01 -2.207815e-01 -2.235058e-01 -4.292125e-02 -7.447209e-04 4.390518e-01 3.848772e-01 -3.953021e-01 -2.564177e-01 -2.016727e-01 -2.769135e-01 -2.807178e-01 -4.536848e-01 -2.264266e-01 -2.403523e-02 -2.073427e-01 -1.384559e-01 6.763819e-04 4.399385e-01
<VARIANCE> 39
 1.111145e+01 1.188552e+01 8.657720e+00 8.110629e+00 8.661839e+00 1.280238e+01 9.643233e+00 8.516450e+00 7.929166e+00 1.229976e+01 1.474807e+01 1.341371e+01 5.200703e+00 1.361435e+00 2.861978e+00 1.036474e+00 8.089335e-01 1.839854e+00 1.322942e+00 1.534664e+00 1.514245e+00 9.454624e-01 1.240679e+00 1.015710e+00 7.562603e-01 1.613978e+00 1.806496e-01 3.089524e-01 1.421514e-01 1.428961e-01 2.838936e-01 3.279224e-01 3.789508e-01 3.310146e-01 1.703349e-01 2.841002e-01 2.333408e-01 1.546256e-01 2.002462e-01
<GCONST> 8.554542e+01
<TRANSP> 5
 0.000000e+00 1.000000e+00 0.000000e+00 0.000000e+00 0.000000e+00
 0.000000e+00 4.158880e-01 5.841120e-01 0.000000e+00 0.000000e+00
 0.000000e+00 0.000000e+00 3.828826e-01 6.171175e-01 0.000000e+00
 0.000000e+00 0.000000e+00 0.000000e+00 8.688830e-01 1.311171e-01
 0.000000e+00 0.000000e+00 0.000000e+00 0.000000e+00 0.000000e+00
<ENDHMM>
~h "d"
<BEGINHMM>
<NUMSTATES> 5
<STATE> 2
<MEAN> 39
 6.748009e-02 5.280956e-01 -3.343011e+00 6.136915e+00 8.227422e+00 7.419536e+00 -6.596877e+00 -3.531775e+00 -3.318543e-01 -5.693284e+00 -2.074311e+00 7.221770e-02 7.750591e+01 8.954509e-02 -2.240403e-01 3.894858e-02 7.044989e-02 -1.151423e-01 2.222005e-01 1.834262e-01 -2.610154e-01 -4.437980e-01 -3.627025e-01 -2.381273e-01 3.774462e-01 1.066141e-01 -3.107972e-01 2.796242e-01 2.786131e-01 1.161526e-01 -1.628530e-01 -1.387942e-01 2.997983e-01 3.758522e-01 2.476211e-01 2.456734e-01 -8.846549e-03 7.425157e-02 -3.286181e-01
<VARIANCE> 39
 3.407508e+01 3.585392e+01 4.043631e+01 6.628855e+01 4.703656e+01 3.947282e+01 1.047560e+02 5.203561e+01 5.462465e+01 4.030084e+01 3.730124e+01 2.620373e+01 3.123806e+01 4.484422e+00 5.406425e+00 3.083902e+00 3.191565e+00 2.720587e+00 5.438299e+00 1.512666e+01 3.805958e+00 4.330527e+00 5.032693e+00 3.259365e+00 1.971322e+00 5.713262e+00 5.331938e-01 8.069956e-01 6.921302e-01 6.302311e-01 4.298740e-01 7.941189e-01 1.838863e+00 7.550255e-01 8.985867e-01 8.866695e-01 6.515717e-01 3.806462e-01 6.109174e-01
<GCONST> 1.352055e+02
<STATE> 3
<MEAN> 39
 -2.233779e+00 3.161341e+00 -9.181926e-01 7.672698e+00 9.075160e+00 9.169047e+00 -4.006747e+00 -2.693557e+00 -2.712638e-01 -4.413470e+00 -2.545353e+00 1.078509e+00 7.453255e+01 -1.441160e+00 5.402340e-01 6.891583e-01 5.428600e-01 -4.242330e-01 3.479166e-02 1.884771e+00 1.200068e+00 1.212809e-01 8.349434e-01 4.311168e-01 5.426221e-01 -1.358342e+00 -8.997057e-03 -1.372736e-01 1.660748e-02 -4.946966e-02 -1.986571e-01 -3.325333e-01 -2.752266e-01 1.786797e-02 1.320099e-01 4.418008e-02 2.085899e-01 3.332160e-04 9.779681e-02
<VARIANCE> 39
 2.764632e+01 3.289314e+01 2.713374e+01 3.599082e+01 5.498148e+01 3.742218e+01 1.039562e+02 4.285631e+01 4.390410e+01 3.008727e+01 2.855250e+01 2.683488e+01 2.640203e+01 1.939558e+00 3.190397e+00 1.814928e+00 3.673849e+00 5.080983e+00 3.793458e+00 7.598225e+00 2.409374e+00 3.843433e+00 4.250577e+00 2.985183e+00 2.785408e+00 2.107919e+00 2.478583e-01 5.143304e-01 2.571489e-01 4.764172e-01 7.749801e-01 7.133393e-01 1.771932e+00 4.559870e-01 4.616874e-01 6.940286e-01 3.958425e-01 3.776683e-01 4.148370e-01
<GCONST> 1.248655e+02
<STATE> 4
<MEAN> 39
 -8.149707e+00 5.961269e+00 6.233910e-01 8.366375e+00 8.316016e+00 8.737952e+00 9.029102e-01 -7.393202e-01 -8.944846e-01 -5.566455e-01 7.391391e-01 2.645686e+00 6.894509e+01 -7.592977e-01 -1.374819e-01 2.672033e-01 5.435263e-02 -5.069342e-01 -4.724283e-01 3.533742e-01 5.485232e-01 1.943441e-01 3.079581e-01 3.085407e-01 1.951208e-01 -4.665005e-01 3.118422e-01 -3.415042e-01 -1.850470e-01 -7.386732e-02 -1.441574e-01 -2.580133e-01 -3.997668e-01 -1.052918e-01 7.118908e-02 -1.747731e-01 -8.687879e-02 -1.291697e-01 3.826172e-01
<VARIANCE> 39
 3.176929e+01 2.225821e+01 1.572249e+01 2.410265e+01 4.281197e+01 2.714327e+01 4.228476e+01 2.141255e+01 2.382842e+01 2.628222e+01 2.345653e+01 1.696892e+01 2.555339e+01 1.221573e+00 1.678617e+00 1.366051e+00 1.649452e+00 2.057241e+00 2.122166e+00 2.855309e+00 1.871961e+00 1.894524e+00 1.962252e+00 1.350982e+00 1.357027e+00 1.110521e+00 2.334087e-01 3.626129e-01 1.697338e-01 2.231747e-01 3.581969e-01 3.585390e-01 7.201185e-01 3.592560e-01 3.332568e-01 4.606746e-01 2.753147e-01 2.429852e-01 3.092773e-01
<GCONST> 1.055146e+02
<TRANSP> 5
 0.000000e+00 1.000000e+00 0.000000e+00 0.000000e+00 0.000000e+00
 0.000000e+00 5.875628e-01 4.124373e-01 0.000000e+00 0.000000e+00
 0.000000e+00 0.000000e+00 4.127719e-01 5.872281e-01 0.000000e+00
 0.000000e+00 0.000000e+00 0.000000e+00 6.571092e-01 3.428908e-01
 0.000000e+00 0.000000e+00 0.000000e+00 0.000000e+00 0.000000e+00
<ENDHMM>
~h "f"
<BEGINHMM>
<NUMSTATES> 5
<STATE> 2
<MEAN> 39
 -1.626513e+01 -6.409408e+00 -9.361904e-01 4.301456e+00 1.740703e+00 5.644848e+00 5.605586e+00 3.320793e+00 4.744673e+00 7.981346e-01 4.669669e+00 8.952613e-01 7.374261e+01 -6.845374e-01 -3.626415e-01 -1.717113e-01 -3.813203e-01 -3.993430e-01 -1.655549e-02 5.086774e-01 1.551055e-01 4.793582e-01 3.120323e-01 3.536441e-01 7.591738e-02 -1.689270e-01 4.137629e-01 5.976392e-02 2.014212e-02 1.183980e-01 8.330622e-02 -3.732023e-02 -4.192648e-01 -2.565919e-01 -1.515511e-01 -3.108561e-01 -2.727087e-01 -6.102150e-02 1.702540e-01
<VARIANCE> 39
 2.116034e+01 5.640065e+01 7.681583e+00 1.531252e+01 1.541532e+01 1.722859e+01 1.659879e+01 2.085286e+01 1.180766e+01 2.292004e+01 1.566115e+01 2.813430e+01 8.425583e+01 2.903101e+00 3.935423e+00 1.130366e+00 1.968027e+00 1.739025e+00 1.928549e+00 3.748685e+00 2.192541e+00 1.909420e+00 1.483653e+00 2.480076e+00 1.142459e+00 1.206143e+00 4.142489e-01 7.115211e-01 2.212069e-01 3.416113e-01 3.367831e-01 3.671164e-01 8.488617e-01 4.834552e-01 3.741542e-01 3.672580e-01 3.488322e-01 2.668364e-01 3.443853e-01
<GCONST> 1.076925e+02
<STATE> 3
<MEAN> 39
 -1.645084e+01 -4.062796e+00 -1.508094e+00 5.102869e+00 2.392813e+00 6.611161e+00 5.700800e+00 4.276614e+00 5.479134e+00 2.207377e+00 3.936691e+00 3.173726e+00 6.892688e+01 3.242781e+00 -9.589823e-01 -1.341077e-01 1.477738e+00 1.198094e+00 -5.834876e-01 -4.093113e+00 -2.222000e+00 -2.904769e-01 -2.238420e+00 -1.922404e+00 -1.242545e+00 2.777815e+00 9.834161e-01 -1.750054e-01 3.335601e-01 6.612855e-01 5.585409e-01 -2.609985e-01 -1.348179e+00 -4.997007e-01 -5.842362e-02 -5.392210e-01 -4.208445e-01 -5.243688e-01 1.011574e+00
<VARIANCE> 39
 1.237840e+01 4.256284e+01 1.175492e+01 1.225254e+01 3.401923e+01 2.038425e+01 4.333687e+01 1.940217e+01 1.308815e+01 1.460012e+01 1.270857e+01 3.061920e+01 6.509357e+01 3.997486e+00 6.315231e+00 1.142362e+00 4.852184e+00 3.722818e+00 1.340302e+00 9.738505e+00 3.942719e+00 2.027784e+00 3.266737e+00 2.435686e+00 2.831277e+00 7.386025e+00 4.339259e-01 8.006629e-01 2.066339e-01 6.125495e-01 3.923098e-01 1.947907e-01 1.732022e+00 6.314236e-01 3.963377e-01 3.575784e-01 3.943934e-01 6.834599e-01 1.019774e+00
<GCONST> 1.187490e+02
<STATE> 4
<MEAN> 39
 -8.093228e+00 -9.292884e+00 1.200778e+00 1.094805e+01 7.911213e+00 7.306685e+00 -2.351421e+00 -4.364104e+00 3.650543e+00 -4.024885e+00 1.422736e+00 -1.709867e+00 8.236075e+01 2.560432e-01 -3.239024e-01 3.934052e-02 -9.221239e-02 8.496593e-02 1.064124e-01 2.601686e-01 -6.921061e-02 -1.533315e-01 8.704951e-02 1.534726e-01 -2.573784e-01 5.929236e-01 -2.151836e-01 2.014000e-01 -7.014815e-04 -8.362876e-02 -1.190422e-01 -2.800283e-02 1.841896e-01 2.360321e-01 7.528401e-02 2.365025e-01 7.341339e-02 1.217563e-01 -3.714035e-01
<VARIANCE> 39
 6.518163e+01 2.552131e+01 2.031131e+01 5.181884e+01 7.099017e+01 1.593826e+01 1.520833e+02 2.979754e+01 2.267994e+01 2.622761e+01 4.239064e+01 2.014074e+01 2.887741e+01 7.326950e+00 3.598593e+00 2.140236e+00 4.824809e+00 6.559703e+00 1.737738e+00 1.745628e+01 4.211359e+00 3.153379e+00 3.922595e+00 3.704146e+00 3.124641e+00 6.338131e+00 9.110948e-01 7.607526e-01 4.306146e-01 7.473357e-01 8.780335e-01 3.750679e-01 3.201260e+00 6.695396e-01 6.797340e-01 8.370690e-01 7.026975e-01 5.768064e-01 9.130343e-01
<GCONST> 1.337457e+02
<TRANSP> 5
 0.000000e+00 1.000000e+00 0.000000e+00 0.000000e+00 0.000000e+00
 0.000000e+00 8.417371e-01 1.582629e-01 0.000000e+00 0.000000e+00
 0.000000e+00 0.000000e+00 3.605345e-01 6.394655e-01 0.000000e+00
 0.000000e+00 0.000000e+00 0.000000e+00 8.838629e-01 1.161372e-01
 0.000000e+00 0.000000e+00 0.000000e+00 0.000000e+00 0.000000e+00
<ENDHMM>
~h "g"
<BEGINHMM>
<NUMSTATES> 5
<STATE> 2
<MEAN> 39
 -1.083125e+01 4.733218e+00 2.331614e+00 1.130402e+01 8.364928e+00 7.648915e+00 2.726545e+00 3.217038e+00 2.137260e+00 7.905564e-01 -1.142219e+00 -1.784558e+00 6.820271e+01 2.102087e-02 -1.149624e+00 -4.919790e-01 -6.786108e-01 -1.382953e+00 -7.798118e-01 3.804093e-01 7.396246e-01 3.018476e-01 -2.081148e-01 3.966716e-01 4.222250e-01 5.641637e-01 5.956469e-01 -6.159322e-01 -1.330965e-01 -3.573949e-01 -6.151490e-01 -5.329808e-01 -3.702393e-01 1.086489e-01 1.136905e-01 -5.041022e-01 -7.754135e-02 -7.689760e-02 8.326967e-01
<VARIANCE> 39
 1.940769e+01 2.847180e+01 2.399870e+01 2.819143e+01 1.797084e+01 1.180304e+01 2.463012e+01 2.027575e+01 1.574031e+01 1.621560e+01 1.822046e+01 1.636066e+01 1.702766e+01 3.638152e+00 5.761606e+00 3.224240e+00 3.908562e+00 6.352901e+00 3.528239e+00 2.994187e+00 2.946742e+00 2.587030e+00 2.947528e+00 2.707772e+00 1.486721e+00 5.322278e+00 4.819225e-01 6.404359e-01 5.885512e-01 5.765847e-01 9.072852e-01 5.680544e-01 5.445799e-01 6.134343e-01 4.134731e-01 5.862596e-01 5.027145e-01 2.982475e-01 6.007184e-01
<GCONST> 1.182736e+02
<STATE> 3
<MEAN> 39
 -3.460423e+00 -6.585277e+00 -2.253358e-01 5.875190e+00 -5.668889e+00 -2.182943e+00 7.988895e-01 7.536520e+00 4.446070e+00 -5.126875e+00 5.522678e-01 -1.228943e+00 7.983082e+01 2.227415e+00 -1.574792e-01 1.645423e+00 1.257735e-01 -7.207096e-01 -1.002526e+00 -2.419736e+00 -4.053461e-01 7.057863e-01 -1.746773e+00 -1.351407e+00 -1.213098e+00 2.386945e+00 -2.853402e-01 1.400921e+00 6.847630e-01 5.196750e-01 1.391763e+00 8.259054e-01 -6.797827e-01 -7.394729e-01 9.279124e-02 4.565544e-01 -4.041679e-01 -1.680258e-01 -8.042206e-01
<VARIANCE> 39
 1.095949e+01 4.585176e+01 3.281962e+01 6.073398e+01 9.208239e+01 3.965871e+01 5.946810e+01 5.172739e+01 3.931363e+01 3.416061e+01 2.733088e+01 1.864535e+01 2.251079e+01 1.626202e+00 8.170718e+00 3.634431e+00 5.164965e+00 1.285286e+01 6.595839e+00 7.310637e+00 4.305603e+00 2.723056e+00 4.150491e+00 2.683734e+00 1.822391e+00 4.087652e+00 3.278941e-01 6.759156e-01 8.474118e-01 8.560717e-01 1.086755e+00 5.420412e-01 1.347197e+00 6.258892e-01 5.923324e-01 9.955900e-01 5.610141e-01 6.046814e-01 3.523570e-01
<GCONST> 1.319280e+02
<STATE> 4
<MEAN> 39
 5.283194e-01 1.440417e+00 5.051942e+00 7.218018e+00 3.529546e+00 5.603804e+00 -8.402982e+00 -1.477802e+00 8.016883e+00 -3.377797e+00 -6.146957e+00 -5.279803e+00 8.031777e+01 3.848136e-01 4.486406e-01 -9.649266e-02 -1.941717e-01 8.203290e-01 5.856034e-01 -9.610171e-01 -1.009695e+00 -1.061391e-01 9.009324e-02 -2.930408e-01 3.565456e-02 4.663770e-02 -1.436108e-01 -1.879148e-01 -2.764085e-01 -1.054217e-01 -7.322484e-02 -7.494179e-02 1.920542e-01 1.250543e-01 -1.327305e-01 3.946263e-03 2.388869e-01 1.892690e-01 -8.605209e-02
<VARIANCE> 39
 1.208452e+01 4.582869e+01 2.565217e+01 5.784618e+01 6.923742e+01 1.114952e+02 5.853722e+01 8.300330e+01 3.316022e+01 4.047147e+01 2.557972e+01 1.842122e+01 1.677448e+01 1.349342e+00 3.405194e+00 2.004126e+00 2.844480e+00 2.128515e+00 3.811512e+00 8.788187e+00 3.423948e+00 3.487466e+00 3.351624e+00 2.417310e+00 2.656232e+00 7.729520e-01 1.658016e-01 5.529365e-01 4.953015e-01 5.535517e-01 4.221689e-01 5.444198e-01 1.130703e+00 5.439237e-01 6.289314e-01 5.218022e-01 4.394399e-01 4.482094e-01 1.573664e-01
<GCONST> 1.215093e+02
<TRANSP> 5
 0.000000e+00 1.000000e+00 0.000000e+00 0.000000e+00 0.000000e+00
 0.000000e+00 8.183499e-01 1.816500e-01 0.000000e+00 0.000000e+00
 0.000000e+00 0.000000e+00 6.792635e-01 3.207365e-01 0.000000e+00
 0.000000e+00 0.000000e+00 0.000000e+00 8.190092e-01 1.809907e-01
 0.000000e+00 0.000000e+00 0.000000e+00 0.000000e+00 0.000000e+00
<ENDHMM>
~h "k"
<BEGINHMM>
<NUMSTATES> 5
<STATE> 2
<MEAN> 39
 -1.275412e+01 2.096894e-01 -6.513599e-01 7.388488e+00 2.250077e+00 3.020839e+00 1.401033e+00 3.123829e+00 1.940722e+00 9.965519e-01 2.213153e+00 2.761557e+00 6.738522e+01 1.623549e-01 -1.341388e+00 -1.176076e+00 -1.231178e+00 -1.309922e+00 -4.838015e-01 7.350353e-01 7.269498e-01 -7.196674e-02 -4.127901e-01 7.860082e-01 2.832700e-01 9.055871e-01 5.580346e-01 -4.085816e-01 3.632355e-02 -1.453563e-01 -3.246597e-01 -2.405188e-01 -3.083754e-01 4.248074e-02 5.488977e-02 -4.597675e-01 -1.199328e-01 -1.493417e-01 7.606264e-01
<VARIANCE> 39
 1.990946e+01 3.337236e+01 2.308712e+01 5.771173e+01 5.084485e+01 2.583150e+01 2.969916e+01 2.461301e+01 2.397088e+01 3.412952e+01 2.192809e+01 2.315234e+01 3.016418e+01 5.045464e+00 6.338405e+00 2.171560e+00 3.745840e+00 5.125894e+00 3.780305e+00 4.270171e+00 3.484953e+00 2.181956e+00 5.018759e+00 2.585860e+00 2.447058e+00 9.153757e+00 3.637719e-01 9.143218e-01 6.590925e-01 6.409196e-01 6.105196e-01 4.428424e-01 6.819000e-01 5.046250e-01 3.878943e-01 5.528439e-01 3.687210e-01 3.633983e-01 8.604426e-01
<GCONST> 1.251298e+02
<STATE> 3
<MEAN> 39
 -6.083931e+00 -9.419074e+00 -3.078933e+00 3.921167e+00 -5.409386e+00 -1.506624e+00 1.200312e+00 5.857966e+00 1.548590e+00 -5.885581e+00 2.874258e+00 1.061408e+00 7.905572e+01 1.115763e+00 -3.943616e-02 1.148566e+00 6.224970e-01 1.340864e-01 1.061018e-01 -7.873061e-01 -3.369533e-01 7.586548e-02 -6.442083e-01 -7.281731e-01 -5.159042e-01 1.016389e+00 -3.766814e-01 1.227144e+00 4.530170e-01 4.622399e-01 9.990349e-01 6.004768e-01 -4.549971e-01 -4.911572e-01 1.807492e-01 6.028780e-01 -2.728091e-01 1.187915e-01 -1.087379e+00
<VARIANCE> 39
 2.363002e+01 5.979279e+01 3.642294e+01 5.788641e+01 6.476675e+01 4.963858e+01 5.548513e+01 6.825919e+01 3.481987e+01 4.177013e+01 2.468194e+01 2.527793e+01 2.905329e+01 3.622604e+00 9.457334e+00 3.804958e+00 3.302507e+00 5.545802e+00 5.332817e+00 5.967716e+00 3.839185e+00 2.214282e+00 4.413805e+00 2.332864e+00 2.068812e+00 8.162058e+00 5.626720e-01 1.252547e+00 9.138647e-01 6.848316e-01 9.810408e-01 9.360488e-01 9.267461e-01 9.116968e-01 5.147568e-01 9.043537e-01 7.977791e-01 3.803868e-01 8.215851e-01
<GCONST> 1.352976e+02
<STATE> 4
<MEAN> 39
 -1.257630e+01 1.960066e-01 -1.380574e+00 4.844543e+00 1.094453e+00 4.888436e+00 3.691656e+00 5.474230e+00 2.288978e+00 -4.832525e-01 1.815904e+00 3.534966e+00 6.811890e+01 -4.134827e-01 5.887088e-01 3.007720e-01 1.973120e-01 5.557597e-01 2.687754e-01 -4.543955e-01 -3.520985e-01 2.691734e-01 5.209675e-01 6.334063e-02 2.445344e-02 -6.216729e-01 1.438493e-01 -1.865207e-01 -1.187074e-01 -8.007854e-02 -1.026890e-01 -1.312976e-01 -1.061365e-01 -1.100670e-02 -5.783964e-02 -1.714969e-01 3.737646e-02 2.447182e-02 2.272093e-01
<VARIANCE> 39
 4.067327e+01 2.925849e+01 1.669623e+01 2.363694e+01 1.997127e+01 2.120275e+01 5.014554e+01 2.614627e+01 1.792438e+01 2.340059e+01 1.760497e+01 2.823032e+01 4.097221e+01 2.421981e+00 3.243848e+00 1.983324e+00 1.725429e+00 2.609117e+00 2.211901e+00 3.488868e+00 2.217684e+00 1.755060e+00 3.448222e+00 1.803476e+00 1.396432e+00 2.178788e+00 2.445227e-01 4.596541e-01 3.050797e-01 3.884675e-01 3.869450e-01 3.334915e-01 5.571803e-01 2.991711e-01 2.969277e-01 4.523630e-01 2.524482e-01 2.777952e-01 4.028064e-01
<GCONST> 1.107857e+02
<TRANSP> 5
 0.000000e+00 1.000000e+00 0.000000e+00 0.000000e+00 0.000000e+00
 0.000000e+00 7.576624e-01 2.423376e-01 0.000000e+00 0.000000e+00
 0.000000e+00 0.000000e+00 6.600156e-01 3.399844e-01 0.000000e+00
 0.000000e+00 0.000000e+00 0.000000e+00 7.782301e-01 2.217699e-01
 0.000000e+00 0.000000e+00 0.000000e+00 0.000000e+00 0.000000e+00
<ENDHMM>
~h "l"
<BEGINHMM>
<NUMSTATES> 5
<STATE> 2
<MEAN> 39
 3.446785e+00 -2.631276e+00 -6.572057e-01 9.659787e+00 7.510896e+00 4.094630e+00 -1.160659e+01 -3.045542e+00 -1.574365e+00 -1.233153e+01 -4.451923e+00 1.463547e+00 8.150608e+01 1.407772e-01 -2.505601e-01 1.418892e-01 -4.663784e-02 -2.365859e-02 2.945081e-01 -1.902243e-01 -4.768198e-01 -5.865642e-01 -5.951210e-01 1.241713e-01 4.591784e-01 2.418730e-01 -3.072054e-01 1.503215e-01 1.391486e-01 -3.855447e-02 -1.449125e-01 1.746384e-01 4.505787e-01 1.168782e-01 7.129026e-02 3.453381e-01 1.099022e-01 -2.353014e-02 -2.833591e-01
<VARIANCE> 39
 8.162267e+00 2.090218e+01 1.706787e+01 3.717798e+01 3.428820e+01 3.497652e+01 3.764047e+01 4.488086e+01 2.355279e+01 4.276616e+01 3.150546e+01 3.149144e+01 9.231639e+00 6.577961e-01 1.269683e+00 1.183632e+00 1.429540e+00 1.776108e+00 2.025040e+00 4.875947e+00 2.682361e+00 2.844818e+00 2.591380e+00 2.850728e+00 2.149890e+00 7.964797e-01 1.548894e-01 2.516024e-01 2.300049e-01 2.403793e-01 3.504706e-01 3.429292e-01 6.939698e-01 5.152887e-01 4.979612e-01 4.666020e-01 5.786199e-01 5.118051e-01 1.409153e-01
<GCONST> 1.076853e+02
<STATE> 3
<MEAN> 39
 8.529319e-01 8.540693e-02 3.618649e+00 9.699881e+00 5.026717e+00 8.133438e+00 -5.275554e+00 -2.285302e+00 -3.294453e+00 -1.329592e+01 -6.430852e+00 2.009987e+00 7.884032e+01 -5.301156e-01 3.552266e-01 3.212493e-01 3.502780e-01 1.273057e-01 2.422181e-01 8.428242e-01 2.339857e-01 4.243390e-02 5.038897e-01 -2.438596e-01 -1.634893e-01 -6.037598e-01 -4.180660e-02 1.757373e-02 -1.185579e-01 -6.889489e-02 6.783162e-03 -1.641054e-01 -9.216625e-02 9.168495e-02 1.814064e-01 1.871890e-01 1.073755e-01 -7.435195e-02 -3.154150e-02
<VARIANCE> 39
 1.406717e+01 2.631361e+01 2.780586e+01 2.962114e+01 2.517439e+01 2.357845e+01 3.291808e+01 2.997285e+01 2.991744e+01 3.527828e+01 1.637398e+01 1.751445e+01 1.381788e+01 4.470750e-01 5.719014e-01 1.089019e+00 1.086290e+00 1.093129e+00 1.290806e+00 1.901832e+00 1.597860e+00 1.296116e+00 1.701276e+00 1.249608e+00 1.284980e+00 3.337582e-01 4.872359e-02 1.088575e-01 1.772766e-01 1.545545e-01 1.681295e-01 2.095173e-01 3.723109e-01 3.502713e-01 3.283178e-01 2.322535e-01 2.505713e-01 2.488809e-01 4.562420e-02
<GCONST> 9.060334e+01
<STATE> 4
<MEAN> 39
 -1.360420e+01 2.423034e+00 -2.985867e-01 6.027784e+00 4.515536e+00 6.887965e+00 3.202037e+00 3.641092e+00 1.054112e+00 -7.921672e-02 1.241838e+00 3.185832e+00 6.564845e+01 -4.816192e-01 -1.003391e-01 -2.282228e-01 -2.917020e-01 -1.806917e-01 -9.283864e-02 1.715136e-01 1.866654e-01 3.522110e-01 6.912035e-01 4.882615e-01 1.079526e-01 -3.371041e-01 8.090904e-02 -3.491096e-02 2.091424e-02 4.921144e-02 -5.013679e-03 -3.672063e-02 -9.451544e-02 -4.488159e-02 3.408092e-02 -5.015615e-02 -2.232227e-02 -2.770509e-02 8.925696e-02
<VARIANCE> 39
 4.818911e+01 1.191126e+01 1.713124e+01 2.082596e+01 1.388647e+01 1.285025e+01 2.984699e+01 2.762420e+01 2.157158e+01 3.686393e+01 2.763944e+01 1.382406e+01 4.264994e+01 7.285367e-01 8.059464e-01 1.008086e+00 9.500266e-01 8.480738e-01 1.020354e+00 1.232058e+00 9.780559e-01 1.346681e+00 1.734174e+00 1.267739e+00 1.036805e+00 4.159996e-01 1.045892e-01 1.765105e-01 1.900098e-01 2.036397e-01 1.688977e-01 1.898954e-01 2.525469e-01 2.220008e-01 2.076140e-01 2.599078e-01 2.050103e-01 1.940508e-01 5.988956e-02
<GCONST> 8.936972e+01
<TRANSP> 5
 0.000000e+00 1.000000e+00 0.000000e+00 0.000000e+00 0.000000e+00
 0.000000e+00 7.530475e-01 2.469525e-01 0.000000e+00 0.000000e+00
 0.000000e+00 0.000000e+00 8.200062e-01 1.799939e-01 0.000000e+00
 0.000000e+00 0.000000e+00 0.000000e+00 8.179268e-01 1.820732e-01
 0.000000e+00 0.000000e+00 0.000000e+00 0.000000e+00 0.000000e+00
<ENDHMM>
~h "m"
<BEGINHMM>
<NUMSTATES> 5
<STATE> 2
<MEAN> 39
 1.409727e+00 4.172390e+00 1.960657e+00 6.890250e-01 4.542663e-01 7.215856e+00 -1.058160e+01 -4.151693e+00 8.204385e+00 -1.838572e+00 -1.983075e+00 1.328170e+00 7.843778e+01 -3.026259e-01 2.377821e-01 1.503428e-01 4.886330e-01 6.380543e-01 4.986555e-01 2.734104e-01 -1.361983e-01 -3.542386e-03 2.782866e-01 -1.048739e-01 -5.185032e-01 -3.801312e-01 -4.606177e-03 -7.717473e-02 -4.721746e-02 3.460103e-02 3.558382e-02 -4.706153e-02 1.701555e-02 7.463537e-02 -1.978936e-02 -2.353681e-02 -1.537831e-02 2.566296e-02 2.060612e-02
<VARIANCE> 39
 1.263213e+01 2.380505e+01 1.376341e+01 3.510652e+01 5.759245e+01 4.783297e+01 6.491769e+01 3.343538e+01 2.967738e+01 3.897496e+01 3.041065e+01 3.412635e+01 1.291539e+01 4.462578e-01 9.853771e-01 7.017659e-01 1.666305e+00 2.764439e+00 2.825237e+00 3.838536e+00 1.961152e+00 2.184181e+00 1.669277e+00 1.097023e+00 2.444236e+00 5.391303e-01 5.945591e-02 1.688669e-01 1.284572e-01 2.468283e-01 3.887724e-01 4.141491e-01 5.001350e-01 3.096195e-01 3.407879e-01 3.110285e-01 2.058378e-01 3.733510e-01 5.557321e-02
<GCONST> 1.013510e+02
<STATE> 3
<MEAN> 39
 -4.502841e+00 7.484491e+00 2.609016e+00 7.157105e+00 9.003990e+00 1.236467e+01 -1.460527e+00 -2.217394e-02 6.169528e+00 2.727670e-01 -4.312085e+00 -3.532501e+00 7.171761e+01 -6.865866e-01 -1.536112e-02 -3.089134e-02 1.203883e-01 6.218868e-02 -7.889320e-02 6.006185e-01 4.657752e-01 -1.532375e-01 3.123032e-01 4.997018e-01 2.556885e-01 -5.326486e-01 4.292472e-03 -6.645525e-02 -5.782878e-02 -1.305106e-01 -2.689790e-01 -2.512897e-01 -1.130382e-01 -2.405537e-02 -6.792145e-02 -6.638283e-02 9.452127e-02 2.201568e-01 3.062905e-02
<VARIANCE> 39
 1.576057e+01 9.091247e+00 1.287395e+01 1.192910e+01 1.874500e+01 3.172862e+01 2.418723e+01 2.008698e+01 2.757683e+01 2.809748e+01 2.381612e+01 1.638199e+01 1.262942e+01 4.503466e-01 5.060166e-01 6.915951e-01 8.924995e-01 1.191811e+00 1.386288e+00 1.204686e+00 8.988131e-01 9.793745e-01 1.271088e+00 1.363232e+00 9.257166e-01 2.255275e-01 4.553927e-02 6.295939e-02 1.088847e-01 1.750063e-01 2.036293e-01 1.947871e-01 2.055117e-01 1.440782e-01 2.037535e-01 2.341339e-01 2.039220e-01 1.885561e-01 2.453253e-02
<GCONST> 8.041748e+01
<STATE> 4
<MEAN> 39
 -1.566164e+01 2.938622e+00 -2.008212e+00 3.523066e+00 2.187610e+00 5.270769e+00 4.058732e+00 5.437712e+00 4.050259e+00 3.254282e+00 2.790021e+00 3.624991e+00 6.439893e+01 -1.426188e-01 -1.118731e-01 -7.231186e-02 -1.008834e-01 -1.843454e-01 -1.147500e-01 8.916437e-02 1.052898e-01 7.939601e-03 5.897402e-02 1.261256e-01 1.628158e-01 -6.882365e-02 7.219607e-02 3.031371e-02 4.698399e-02 4.465690e-02 4.534872e-02 2.538882e-02 -5.198192e-02 -3.161036e-02 8.475847e-03 -4.418539e-02 -6.480920e-02 -4.902220e-02 5.192730e-02
<VARIANCE> 39
 1.707540e+01 6.319059e+00 1.188061e+01 1.166147e+01 1.301782e+01 1.292960e+01 1.254505e+01 1.123856e+01 1.075261e+01 1.225783e+01 1.134830e+01 1.175705e+01 1.313628e+01 4.478991e-01 4.174524e-01 4.780509e-01 7.015194e-01 1.032845e+00 1.024791e+00 7.538562e-01 7.684594e-01 9.871475e-01 8.680501e-01 9.844725e-01 7.930716e-01 2.461535e-01 7.940370e-02 9.345333e-02 9.492498e-02 1.305429e-01 1.911689e-01 1.938893e-01 1.859335e-01 1.750642e-01 1.886050e-01 1.743826e-01 1.931971e-01 1.657220e-01 4.643239e-02
<GCONST> 7.271207e+01
<TRANSP> 5
 0.000000e+00 1.000000e+00 0.000000e+00 0.000000e+00 0.000000e+00
 0.000000e+00 8.431304e-01 1.568696e-01 0.000000e+00 0.000000e+00
 0.000000e+00 0.000000e+00 8.498973e-01 1.501028e-01 0.000000e+00
 0.000000e+00 0.000000e+00 0.000000e+00 9.041918e-01 9.580825e-02
 0.000000e+00 0.000000e+00 0.000000e+00 0.000000e+00 0.000000e+00
<ENDHMM>
~h "n"
<BEGINHMM>
<NUMSTATES> 5
<STATE> 2
<MEAN> 39
 1.452013e+00 2.168890e-01 -8.718621e-01 4.901072e+00 7.220547e+00 8.232699e+00 -1.233571e+01 -6.142332e+00 1.292439e+00 -7.029226e+00 3.160405e-01 3.437589e+00 7.998544e+01 -1.057429e-01 9.291199e-01 3.090210e-01 6.536548e-02 7.236790e-01 1.731393e+00 8.025959e-01 -5.255365e-01 9.272638e-02 4.124648e-01 -7.092483e-01 -1.113279e+00 -6.795620e-01 -2.308034e-01 4.487542e-02 9.170948e-02 2.917815e-02 -3.296562e-03 3.610148e-02 2.535999e-01 1.783517e-01 9.683433e-02 1.953834e-01 -9.667213e-02 -2.526589e-01 -1.416861e-01
<VARIANCE> 39
 2.059064e+01 1.994797e+01 3.147664e+01 3.632282e+01 2.372059e+01 3.316718e+01 5.042106e+01 3.127705e+01 3.147809e+01 4.019605e+01 2.794322e+01 2.780757e+01 2.063968e+01 2.006961e+00 2.127246e+00 1.391229e+00 2.276633e+00 2.247544e+00 2.922763e+00 5.522612e+00 3.136636e+00 2.800228e+00 2.843229e+00 2.916085e+00 2.586505e+00 2.068525e+00 2.015339e-01 3.027560e-01 2.040122e-01 3.221292e-01 3.197268e-01 4.438943e-01 7.521682e-01 5.323682e-01 4.638542e-01 4.201545e-01 4.719523e-01 4.079589e-01 2.143645e-01
<GCONST> 1.145450e+02
<STATE> 3
<MEAN> 39
 -1.071326e+00 4.428585e+00 1.927588e+00 6.358613e+00 1.126308e+01 1.546286e+01 -7.460516e+00 -5.971158e+00 3.306744e+00 -4.587044e+00 -3.861435e+00 -3.156058e+00 7.622563e+01 -4.252611e-01 4.642739e-01 4.277922e-01 2.834185e-01 4.867015e-02 8.493307e-02 5.620404e-01 3.100306e-01 1.901992e-01 4.416126e-01 -3.613103e-01 -6.622365e-01 -4.774388e-01 2.756838e-02 -2.490367e-01 -9.501285e-02 -5.989226e-03 -3.302385e-01 -5.909379e-01 -4.939562e-02 2.560114e-01 -9.398949e-02 -8.181050e-02 2.846768e-01 4.050243e-01 1.451767e-01
<VARIANCE> 39
 8.684117e+00 1.378421e+01 1.298746e+01 1.301215e+01 1.200529e+01 1.901352e+01 1.803200e+01 1.641982e+01 2.256690e+01 1.903160e+01 2.247682e+01 1.608613e+01 1.092124e+01 4.814103e-01 7.361174e-01 8.967146e-01 1.138208e+00 1.185341e+00 2.058986e+00 1.796040e+00 1.483868e+00 1.299452e+00 1.504116e+00 1.504057e+00 1.647846e+00 4.435089e-01 8.615503e-02 1.844818e-01 1.508013e-01 2.550892e-01 2.395181e-01 3.166838e-01 4.787734e-01 3.072802e-01 3.189400e-01 2.581055e-01 3.374874e-01 2.941565e-01 1.078253e-01
<GCONST> 8.974776e+01
<STATE> 4
<MEAN> 39
 -1.266246e+00 3.522868e+00 2.274072e+00 6.638278e+00 7.361607e+00 9.340444e+00 -7.322861e+00 -2.509452e+00 3.976253e+00 -4.408405e+00 -2.813105e+00 -8.081868e-01 7.667661e+01 -3.035886e-01 -5.093939e-01 -7.747816e-02 1.453543e-01 -9.335092e-01 -1.439967e+00 3.646309e-01 1.012589e+00 5.734001e-02 3.127214e-01 6.164275e-01 6.376577e-01 -7.169735e-02 -8.628494e-02 -1.672300e-01 -4.669500e-02 -1.200031e-01 -1.678323e-01 -8.841140e-02 -5.313412e-02 -4.268758e-03 8.886315e-02 1.083525e-01 1.196665e-01 1.472182e-01 2.618480e-02
<VARIANCE> 39
 2.095266e+01 2.910785e+01 1.718093e+01 3.716545e+01 2.843631e+01 3.034128e+01 6.679372e+01 2.614361e+01 3.953363e+01 2.740230e+01 3.153596e+01 3.221057e+01 2.968501e+01 1.411927e+00 2.598280e+00 1.497656e+00 3.882020e+00 2.369672e+00 2.677733e+00 5.308919e+00 3.183351e+00 3.393242e+00 2.807518e+00 3.341508e+00 2.118216e+00 1.896319e+00 1.433337e-01 5.904164e-01 2.311917e-01 5.465574e-01 4.423060e-01 4.493281e-01 6.488475e-01 5.024080e-01 5.317549e-01 4.901647e-01 6.724585e-01 4.158933e-01 2.876868e-01
<GCONST> 1.175236e+02
<TRANSP> 5
 0.000000e+00 1.000000e+00 0.000000e+00 0.000000e+00 0.000000e+00
 0.000000e+00 6.567965e-01 3.432036e-01 0.000000e+00 0.000000e+00
 0.000000e+00 0.000000e+00 7.891005e-01 2.108995e-01 0.000000e+00
 0.000000e+00 0.000000e+00 0.000000e+00 6.235680e-01 3.764320e-01
 0.000000e+00 0.000000e+00 0.000000e+00 0.000000e+00 0.000000e+00
<ENDHMM>
~h "p"
<BEGINHMM>
<NUMSTATES> 5
<STATE> 2
<MEAN> 39
 -6.417882e+00 2.469329e+00 3.907550e-01 1.018140e+01 6.172778e+00 5.646524e+00 5.223169e-01 1.634750e+00 7.473872e-01 -1.412326e+00 7.557305e-01 2.479830e+00 7.188757e+01 -1.703737e+00 6.439772e-01 -4.444914e-01 -1.680340e-01 7.164588e-01 7.553768e-01 1.202576e+00 4.289455e-01 1.788394e-01 9.064159e-01 4.874536e-01 3.849712e-01 -1.726193e+00 -1.528619e-01 -4.587225e-01 5.428468e-02 -4.170636e-01 -4.155128e-01 -1.897936e-01 -5.181584e-01 -1.888554e-01 2.526107e-01 -6.604201e-02 -6.002364e-02 -5.477068e-02 2.080117e-01
<VARIANCE> 39
 4.500221e+01 3.064914e+01 2.335936e+01 4.661685e+01 4.267849e+01 2.631711e+01 3.865010e+01 3.705994e+01 2.944226e+01 6.491817e+01 2.033765e+01 1.009794e+01 2.667336e+01 8.610587e+00 4.283603e+00 1.145300e+00 3.453661e+00 2.192909e+00 2.170314e+00 8.649696e+00 4.963795e+00 2.865917e+00 4.837451e+00 2.052407e+00 1.330848e+00 7.279941e+00 5.828294e-01 4.804498e-01 2.467639e-01 4.298849e-01 4.302779e-01 3.711492e-01 6.411996e-01 4.492496e-01 5.222530e-01 6.382138e-01 4.021576e-01 2.261397e-01 4.685667e-01
<GCONST> 1.214266e+02
<STATE> 3
<MEAN> 39
 -1.350402e+01 1.709993e+00 -7.987720e-02 8.018857e+00 4.008293e+00 4.120924e+00 1.119462e+00 2.007149e+00 1.700113e+00 1.416070e+00 1.845888e+00 2.889240e+00 6.732681e+01 -9.024724e-01 -2.645934e-01 -4.021071e-01 -7.619528e-01 -2.891467e-01 2.096155e-01 2.155842e-01 -5.334383e-02 -1.081607e-01 9.131221e-02 5.109313e-02 2.727870e-02 -6.048880e-01 3.669599e-01 -9.771067e-02 9.205384e-02 4.777533e-02 -1.198640e-01 -6.630015e-02 -8.364294e-02 4.084677e-02 9.462378e-02 -1.061609e-01 -5.269464e-02 -4.199947e-02 3.809803e-01
<VARIANCE> 39
 2.193338e+01 1.700975e+01 2.011085e+01 3.421824e+01 2.198517e+01 1.369389e+01 3.231670e+01 1.659967e+01 1.790553e+01 2.588955e+01 1.670081e+01 1.204547e+01 1.466494e+01 1.864504e+00 1.190516e+00 7.601939e-01 1.610762e+00 1.395498e+00 1.600317e+00 2.317868e+00 1.123421e+00 1.066636e+00 8.829890e-01 1.325540e+00 1.224297e+00 1.120843e+00 2.940691e-01 3.762836e-01 1.465016e-01 3.113964e-01 3.528353e-01 2.441063e-01 4.848858e-01 3.842553e-01 2.511723e-01 2.853775e-01 1.753880e-01 2.075809e-01 2.610456e-01
<GCONST> 9.684003e+01
<STATE> 4
<MEAN> 39
 -1.278477e+01 7.513103e-01 -7.594614e-01 6.559305e+00 2.524475e+00 4.923463e+00 3.008907e+00 3.143081e+00 1.987768e+00 1.495205e+00 2.160849e+00 2.725186e+00 6.818375e+01 1.473610e+00 -6.231797e-01 1.242943e-01 6.603366e-02 -2.290699e-01 1.370808e-01 -5.536839e-01 -5.483388e-01 -1.811538e-01 -6.369107e-01 -3.454949e-01 -3.530115e-01 1.528390e+00 5.735120e-01 -4.080855e-02 1.158228e-01 8.659005e-02 -1.464669e-02 -1.966814e-01 -4.513075e-01 -2.243933e-01 -1.029225e-01 -2.829292e-01 -1.805206e-01 -1.699617e-01 5.008150e-01
<VARIANCE> 39
 4.216724e+01 1.687250e+01 8.892908e+00 1.732202e+01 1.638095e+01 9.502589e+00 3.357852e+01 1.936939e+01 1.736732e+01 2.647183e+01 1.587767e+01 1.719314e+01 4.243040e+01 5.188600e+00 2.378616e+00 9.309394e-01 1.495358e+00 2.301395e+00 1.441220e+00 3.910774e+00 1.651228e+00 1.530665e+00 2.435261e+00 1.411971e+00 1.823506e+00 4.798399e+00 7.977189e-01 4.059530e-01 1.833926e-01 2.992347e-01 4.234501e-01 2.979048e-01 7.344642e-01 2.257318e-01 2.389892e-01 3.887280e-01 2.936158e-01 3.506155e-01 6.939602e-01
<GCONST> 1.071202e+02
<TRANSP> 5
 0.000000e+00 1.000000e+00 0.000000e+00 0.000000e+00 0.000000e+00
 0.000000e+00 4.331493e-01 5.668507e-01 0.000000e+00 0.000000e+00
 0.000000e+00 0.000000e+00 6.394436e-01 3.605564e-01 0.000000e+00
 0.000000e+00 0.000000e+00 0.000000e+00 7.721708e-01 2.278292e-01
 0.000000e+00 0.000000e+00 0.000000e+00 0.000000e+00 0.000000e+00
<ENDHMM>
~h "r"
<BEGINHMM>
<NUMSTATES> 5
<STATE> 2
<MEAN> 39
 4.085077e+00 -1.877001e+00 -2.296630e+00 5.642707e+00 7.598392e+00 4.940977e+00 -1.502932e+01 -7.811437e+00 1.648813e+00 -6.449481e+00 -9.008874e-01 1.426201e+00 8.228838e+01 -9.571739e-03 1.148725e-01 2.099453e-01 3.987975e-01 6.254326e-01 -1.837474e-01 -1.292526e+00 -2.308335e-01 6.111467e-01 -5.086023e-02 1.817347e-02 4.404236e-02 -9.469494e-03 -1.205756e-01 8.546603e-02 8.910562e-02 3.708731e-02 -8.022915e-02 1.007167e-01 2.256128e-01 8.042378e-02 1.212369e-01 4.976797e-02 -6.514581e-02 -4.183089e-02 -1.200014e-01
<VARIANCE> 39
 1.685753e+01 2.948997e+01 6.229994e+01 5.910696e+01 4.801730e+01 2.446572e+01 6.566486e+01 3.274761e+01 7.554485e+01 5.951998e+01 2.446334e+01 1.857655e+01 1.182740e+01 4.938722e-01 1.073503e+00 1.257470e+00 1.658333e+00 1.885123e+00 2.102865e+00 5.133555e+00 1.592075e+00 1.989370e+00 2.014149e+00 1.629178e+00 8.982572e-01 5.270053e-01 4.703465e-02 2.049039e-01 1.876840e-01 2.137923e-01 2.450559e-01 2.918416e-01 6.959464e-01 2.888807e-01 3.992770e-01 3.570456e-01 2.932051e-01 1.422463e-01 4.073220e-02
<GCONST> 1.021212e+02
<STATE> 3
<MEAN> 39
 -1.375476e+00 3.234208e+00 1.827309e+00 5.464930e+00 6.916301e+00 8.526080e+00 -9.108850e+00 -4.162510e+00 3.891234e+00 -4.133396e+00 -1.297000e+00 -2.227460e-01 7.695854e+01 -2.572066e-01 1.868831e-01 -4.397877e-01 2.274854e-01 3.910412e-01 2.312213e-01 7.931524e-01 5.871181e-01 5.792685e-02 2.504065e-02 -3.588952e-01 -1.034290e-02 -4.760837e-01 -3.967644e-02 -1.489240e-01 -5.452079e-02 6.286666e-02 -1.060879e-02 -8.027762e-02 1.997272e-01 5.164750e-02 -7.386803e-02 1.744276e-01 -9.251309e-02 -2.873689e-02 -4.323230e-02
<VARIANCE> 39
 3.950786e+01 6.220978e+01 4.681218e+01 2.854445e+01 5.041687e+01 5.644047e+01 9.551294e+01 3.082121e+01 2.761249e+01 4.321814e+01 1.954058e+01 1.828928e+01 2.627267e+01 9.345010e-01 1.490822e+00 1.427763e+00 1.175224e+00 9.822485e-01 1.702930e+00 4.727715e+00 2.616926e+00 1.278068e+00 1.506395e+00 1.130253e+00 1.110018e+00 5.472158e-01 1.039643e-01 2.739508e-01 1.853823e-01 2.507634e-01 1.836866e-01 3.729025e-01 8.003181e-01 3.546485e-01 8.461699e-02 2.630687e-01 2.437530e-01 2.131843e-01 1.322663e-01
<GCONST> 1.036602e+02
<STATE> 4
<MEAN> 39
 2.795292e-01 1.564801e+00 8.174419e-02 7.613545e+00 9.157120e+00 9.313120e+00 -8.377119e+00 -5.131081e+00 1.084770e+00 -6.014312e+00 -4.281389e+00 -1.430483e-01 7.800697e+01 9.742603e-04 1.597915e-01 2.008121e-01 -1.135207e-01 -3.311646e-01 -8.034628e-03 1.657398e-01 1.293883e-02 4.093856e-02 1.376466e-01 -3.450352e-01 -7.393809e-02 -1.024466e-01 1.565280e-02 -8.715747e-02 1.565102e-01 -2.559610e-02 -1.908636e-01 -1.830677e-01 -2.763602e-01 -7.669395e-04 1.164911e-01 -9.135059e-02 6.608692e-02 -2.948155e-02 1.017139e-01
<VARIANCE> 39
 2.406170e+01 3.266774e+01 4.028481e+01 3.252181e+01 4.042598e+01 3.279379e+01 9.955727e+01 4.697027e+01 2.034438e+01 4.741331e+01 2.337451e+01 2.545635e+01 2.537432e+01 2.717875e+00 3.737130e+00 1.551827e+00 2.606719e+00 2.459509e+00 2.921199e+00 1.083166e+01 5.657638e+00 2.241575e+00 4.829206e+00 1.700511e+00 1.928447e+00 3.022066e+00 3.560435e-01 6.127238e-01 2.127971e-01 3.914940e-01 2.920780e-01 5.366052e-01 1.999852e+00 1.191768e+00 2.998022e-01 7.106779e-01 2.568250e-01 3.396907e-01 5.387064e-01
<GCONST> 1.225384e+02
<TRANSP> 5
 0.000000e+00 1.000000e+00 0.000000e+00 0.000000e+00 0.000000e+00
 0.000000e+00 8.183541e-01 1.816460e-01 0.000000e+00 0.000000e+00
 0.000000e+00 0.000000e+00 5.203087e-01 4.796914e-01 0.000000e+00
 0.000000e+00 0.000000e+00 0.000000e+00 7.591274e-01 2.408726e-01
 0.000000e+00 0.000000e+00 0.000000e+00 0.000000e+00 0.000000e+00
<ENDHMM>
~h "s"
<BEGINHMM>
<NUMSTATES> 5
<STATE> 2
<MEAN> 39
 -9.063349e+00 -1.028397e+01 6.742252e+00 8.632338e+00 9.258687e-01 5.225360e+00 2.779439e+00 -1.958161e-01 -1.429475e+00 -2.797902e-01 5.073680e+00 -3.776441e-01 7.981573e+01 -2.693581e+00 -3.465266e+00 1.093266e+00 -9.425447e-01 -1.330186e+00 -4.985913e-01 2.204740e+00 4.091437e-01 -2.921501e-01 8.348075e-01 1.693860e+00 5.990759e-02 1.115635e+00 -4.886368e-02 1.647331e-01 -1.158837e-01 -3.817623e-01 -8.327007e-02 -2.516609e-01 -3.713067e-01 5.675567e-02 2.181600e-01 -3.977428e-01 -1.675673e-01 1.040522e-01 2.410608e-02
<VARIANCE> 39
 5.389079e+01 6.114042e+01 3.947339e+01 4.362185e+01 2.220378e+01 2.667450e+01 4.104227e+01 2.892961e+01 3.718533e+01 2.590126e+01 2.772074e+01 2.252635e+01 1.683515e+01 3.746109e+00 4.645799e+00 3.020072e+00 4.332086e+00 2.220797e+00 3.177845e+00 5.167917e+00 2.271026e+00 3.025405e+00 3.373996e+00 2.297065e+00 2.116635e+00 1.931110e+00 7.508630e-01 1.278942e+00 6.099471e-01 6.942334e-01 4.963503e-01 5.393646e-01 7.251584e-01 4.055541e-01 5.410829e-01 5.127571e-01 4.632673e-01 3.880742e-01 3.786137e-01
<GCONST> 1.238191e+02
<STATE> 3
<MEAN> 39
 -1.744000e+01 -1.900213e+01 8.378622e+00 2.957627e+00 -3.908201e+00 2.243009e+00 7.338484e+00 -5.480015e-02 -2.372570e+00 -7.983733e-01 9.269230e+00 5.030030e-02 8.303976e+01 5.593470e-01 1.702885e-01 -5.397509e-01 3.237707e-01 1.760899e-01 1.527107e-01 -1.456124e-01 2.214382e-01 1.623684e-02 -4.400334e-01 -1.607245e-01 4.060506e-01 -2.479205e-01 6.739215e-01 6.882531e-01 -2.925989e-01 3.408632e-01 2.725787e-01 2.560128e-01 -3.347926e-01 6.803839e-02 4.074162e-02 -6.027102e-02 -3.682091e-01 1.057776e-01 -3.728569e-01
<VARIANCE> 39
 1.510777e+01 1.634902e+01 1.684836e+01 1.663013e+01 1.334274e+01 2.142940e+01 1.704271e+01 2.781853e+01 2.549907e+01 2.225518e+01 1.363017e+01 1.766528e+01 4.920393e+00 3.980610e+00 2.167128e+00 1.648322e+00 1.862216e+00 1.585310e+00 1.639462e+00 1.832764e+00 1.823774e+00 2.169901e+00 1.513162e+00 1.692956e+00 1.778078e+00 1.076543e+00 3.411788e-01 5.397772e-01 3.310370e-01 3.414539e-01 3.042235e-01 3.014672e-01 3.273740e-01 3.462011e-01 3.153736e-01 3.922671e-01 3.273333e-01 3.116094e-01 1.955310e-01
<GCONST> 1.014175e+02
<STATE> 4
<MEAN> 39
 -1.171366e+01 -1.204813e+01 1.527725e+00 7.547152e+00 -9.734161e-01 5.226874e+00 5.408152e+00 3.086092e+00 -9.507130e-01 -1.830701e+00 4.610728e+00 4.045561e+00 7.542734e+01 1.031317e+00 2.818171e+00 -7.154698e-01 3.170761e-01 4.552781e-01 1.911395e-01 -7.358930e-01 2.647153e-01 3.913864e-01 -3.918515e-02 -1.003075e+00 3.850876e-01 -1.598578e+00 -6.212390e-02 7.372341e-02 1.239876e-01 -2.031201e-01 -1.137586e-01 -3.426657e-01 -1.361901e-01 -9.211946e-02 -4.015793e-02 -2.593011e-02 3.918272e-02 -1.691080e-01 1.797118e-01
<VARIANCE> 39
 2.377607e+01 6.083569e+01 3.418925e+01 2.953121e+01 1.513406e+01 2.332666e+01 2.885048e+01 2.642495e+01 4.447815e+01 2.122533e+01 2.146101e+01 1.348431e+01 3.177665e+01 4.436521e+00 4.411694e+00 2.874461e+00 1.415271e+00 1.857184e+00 2.032377e+00 3.068276e+00 1.331343e+00 2.576512e+00 3.233802e+00 2.219977e+00 1.821945e+00 1.835066e+00 2.257378e-01 8.467823e-01 4.153783e-01 3.321160e-01 3.050826e-01 4.321116e-01 4.895348e-01 3.246536e-01 6.815526e-01 3.061605e-01 3.937860e-01 3.544772e-01 2.576448e-01
<GCONST> 1.131952e+02
<TRANSP> 5
 0.000000e+00 1.000000e+00 0.000000e+00 0.000000e+00 0.000000e+00
 0.000000e+00 7.134559e-01 2.865441e-01 0.000000e+00 0.000000e+00
 0.000000e+00 0.000000e+00 8.183530e-01 1.816470e-01 0.000000e+00
 0.000000e+00 0.000000e+00 0.000000e+00 7.235924e-01 2.764076e-01
 0.000000e+00 0.000000e+00 0.000000e+00 0.000000e+00 0.000000e+00
<ENDHMM>
~h "t"
<BEGINHMM>
<NUMSTATES> 5
<STATE> 2
<MEAN> 39
 -8.002619e+00 3.309473e+00 -1.101063e+00 9.026454e+00 1.001308e+01 8.791574e+00 -1.982771e+00 -3.517178e+00 -1.267399e+00 -4.461640e-01 1.265021e+00 2.107146e+00 6.985909e+01 -1.607059e+00 5.388297e-02 2.835669e-01 2.241121e-01 -3.064569e-01 2.103105e-01 1.371353e+00 6.525457e-01 -4.999024e-02 7.595396e-01 1.629100e-01 3.110341e-01 -1.441306e+00 2.707667e-01 -4.122420e-01 -1.736430e-01 -1.650349e-01 -2.535353e-01 -3.313621e-01 -3.651963e-01 6.819055e-02 1.581560e-01 -2.867660e-01 -7.465252e-02 -1.346110e-02 4.545829e-01
<VARIANCE> 39
 4.027617e+01 2.454433e+01 1.869161e+01 3.393420e+01 4.482116e+01 2.657942e+01 4.790989e+01 5.435854e+01 2.954279e+01 2.242633e+01 1.861196e+01 1.976013e+01 2.859850e+01 1.944748e+00 2.185183e+00 1.570264e+00 2.158428e+00 1.658585e+00 1.864398e+00 3.910911e+00 2.225493e+00 1.748762e+00 2.542163e+00 1.663487e+00 1.186401e+00 2.045281e+00 4.148152e-01 4.054795e-01 2.486434e-01 3.243029e-01 3.516965e-01 4.033383e-01 6.845831e-01 6.067249e-01 3.395897e-01 4.688278e-01 3.411388e-01 2.190605e-01 4.128877e-01
<GCONST> 1.121300e+02
<STATE> 3
<MEAN> 39
 -8.432014e+00 -2.415322e+00 -2.061203e+00 8.261467e+00 4.198036e+00 4.629665e+00 -3.049807e-01 -1.990637e-01 -6.664560e-01 -1.549002e+00 1.607565e+00 3.628368e+00 7.220227e+01 7.416780e-01 -7.266648e-01 -5.316417e-01 -1.349320e-01 -3.587898e-01 -5.955007e-01 -3.698214e-01 -2.667619e-02 -1.383160e-01 -3.552997e-01 9.538059e-02 5.015811e-01 8.045241e-01 1.306787e-01 2.672156e-01 8.024360e-02 -1.356933e-01 5.945327e-02 -2.296041e-02 -2.247188e-01 -1.456331e-02 1.372968e-01 -8.013466e-02 -7.003336e-02 -1.106071e-01 5.197445e-02
<VARIANCE> 39
 4.634143e+01 6.183401e+01 2.684074e+01 2.643645e+01 3.630423e+01 3.183948e+01 4.285634e+01 4.775378e+01 4.002404e+01 2.977069e+01 3.177437e+01 3.121103e+01 6.454906e+01 8.133280e+00 8.355219e+00 2.686318e+00 2.607358e+00 4.207134e+00 3.294603e+00 5.112724e+00 5.633458e+00 4.252931e+00 4.277462e+00 2.481819e+00 2.512416e+00 1.037780e+01 1.527359e+00 1.696395e+00 4.864602e-01 4.101175e-01 6.203762e-01 5.962746e-01 9.288359e-01 1.008615e+00 8.066081e-01 7.892503e-01 5.581813e-01 5.187578e-01 2.114087e+00
<GCONST> 1.355926e+02
<STATE> 4
<MEAN> 39
 -1.500498e+01 2.013942e+00 -2.034183e+00 5.107504e+00 3.720206e+00 5.554990e+00 3.046489e+00 3.722819e+00 2.298336e+00 2.737545e+00 3.970975e+00 5.704153e+00 6.488850e+01 1.331798e-01 -2.786451e-01 -3.943639e-02 -5.398853e-02 -1.524470e-01 -8.883016e-02 -4.958007e-02 6.951552e-02 1.190504e-01 -1.274077e-01 -1.109689e-01 -2.113803e-01 2.648997e-01 3.595661e-01 -1.384140e-01 5.403830e-02 9.781985e-02 4.628580e-03 -7.428496e-02 -1.917268e-01 -9.903628e-02 -5.667877e-02 -2.790449e-01 -1.688659e-01 -1.553944e-01 3.941922e-01
<VARIANCE> 39
 2.313989e+01 1.034693e+01 9.172255e+00 1.390445e+01 1.402803e+01 1.160455e+01 2.278871e+01 2.160175e+01 1.688570e+01 2.031354e+01 1.712987e+01 1.529037e+01 2.050110e+01 2.677181e+00 2.336395e+00 1.078983e+00 1.242281e+00 1.607557e+00 1.449383e+00 1.883721e+00 1.854975e+00 1.660480e+00 2.160577e+00 1.756969e+00 1.277609e+00 2.793108e+00 4.085494e-01 3.086699e-01 1.716470e-01 1.960407e-01 2.386867e-01 2.271009e-01 4.149394e-01 3.038112e-01 2.730872e-01 3.392727e-01 2.981893e-01 2.217966e-01 4.074948e-01
<GCONST> 9.861721e+01
<TRANSP> 5
 0.000000e+00 1.000000e+00 0.000000e+00 0.000000e+00 0.000000e+00
 0.000000e+00 6.715464e-01 3.284536e-01 0.000000e+00 0.000000e+00
 0.000000e+00 0.000000e+00 6.226353e-01 3.773648e-01 0.000000e+00
 0.000000e+00 0.000000e+00 0.000000e+00 8.052811e-01 1.947189e-01
 0.000000e+00 0.000000e+00 0.000000e+00 0.000000e+00 0.000000e+00
<ENDHMM>
~h "v"
<BEGINHMM>
<NUMSTATES> 5
<STATE> 2
<MEAN> 39
 1.541577e+00 3.061217e+00 1.000769e+00 8.238713e+00 6.544747e+00 3.910577e+00 -1.164739e+01 -2.555694e+00 4.448665e+00 -8.498558e+00 -6.721195e+00 7.186431e-01 7.883269e+01 -5.423487e-02 1.189026e+00 -9.602815e-03 -8.683647e-01 -7.843081e-01 3.111003e-01 1.553400e+00 9.610057e-01 5.613232e-02 -2.624741e-01 -8.642588e-01 -4.066423e-01 -6.586120e-01 -1.638736e-01 -5.919923e-02 2.406900e-01 5.870975e-02 -1.846164e-01 -1.696614e-01 1.264664e-01 1.988670e-01 1.231676e-01 3.137782e-01 1.570561e-01 -1.938987e-01 -2.222324e-02
<VARIANCE> 39
 1.369427e+01 2.212348e+01 3.363844e+01 3.472655e+01 5.246370e+01 5.074972e+01 4.088478e+01 5.002028e+01 3.315388e+01 4.427357e+01 3.329489e+01 1.427428e+01 1.402191e+01 5.368757e-01 1.198906e+00 1.172236e+00 2.140686e+00 2.055697e+00 1.337718e+00 3.545292e+00 2.540046e+00 1.813626e+00 1.710447e+00 1.535464e+00 1.634133e+00 4.685252e-01 7.602262e-02 1.607655e-01 1.790866e-01 2.333662e-01 2.401801e-01 1.579478e-01 3.784457e-01 4.168295e-01 2.345198e-01 3.851103e-01 3.680990e-01 2.889037e-01 3.865415e-02
<GCONST> 1.004462e+02
<STATE> 3
<MEAN> 39
 1.790118e+00 4.219468e+00 3.829737e-01 6.129577e+00 3.254285e+00 2.858687e+00 -7.144590e+00 -3.664990e-01 3.839412e+00 -8.547801e+00 -8.404110e+00 -2.312754e+00 7.709064e+01 -1.813455e-01 -8.564042e-02 4.318910e-01 5.176238e-02 -2.173426e-01 2.709190e-01 5.247670e-02 -2.719164e-01 -3.077892e-01 2.253971e-01 5.492286e-01 8.355824e-02 2.746487e-03 1.770011e-02 -3.364342e-01 -2.629988e-02 1.293387e-01 1.781624e-01 3.480034e-02 -2.516326e-01 -1.413204e-01 -9.221234e-02 -1.133740e-01 2.628385e-01 2.933789e-01 2.002660e-01
<VARIANCE> 39
 1.076749e+01 1.360853e+01 1.774433e+01 1.822974e+01 2.529566e+01 5.239780e+01 4.773326e+01 4.849155e+01 2.950727e+01 3.035617e+01 1.844891e+01 1.220706e+01 9.324656e+00 9.991593e-01 1.526548e+00 9.125208e-01 1.787380e+00 1.632486e+00 3.344264e+00 5.068528e+00 2.960532e+00 1.839647e+00 2.739705e+00 1.535221e+00 1.935247e+00 8.570679e-01 1.831875e-01 2.603281e-01 1.559897e-01 2.919633e-01 2.449600e-01 6.583175e-01 7.963702e-01 5.271333e-01 3.503732e-01 4.563294e-01 2.710540e-01 3.265216e-01 1.297586e-01
<GCONST> 1.045717e+02
<STATE> 4
<MEAN> 39
 2.253138e-01 1.524792e+00 3.823550e+00 5.812736e+00 3.629195e+00 4.493489e+00 -1.055159e+01 -4.980499e-01 4.245830e+00 -8.583150e+00 -4.826219e+00 4.340230e-02 7.907475e+01 -3.806250e-01 -8.501863e-01 5.753518e-02 -1.521497e-01 -7.055763e-02 1.863292e-01 1.305005e-01 3.816528e-01 -1.575122e-01 -4.282120e-01 9.174943e-01 6.588503e-01 2.611111e-01 -5.854002e-02 4.707184e-02 -1.384982e-01 -1.349942e-02 -8.728236e-03 8.967747e-02 1.496682e-01 -2.492076e-02 1.355842e-01 1.929019e-01 -8.039580e-02 -1.277093e-01 -7.276055e-02
<VARIANCE> 39
 2.589428e+01 4.047829e+01 2.333255e+01 2.592882e+01 2.245181e+01 2.763721e+01 8.165472e+01 2.480170e+01 5.383476e+01 4.556140e+01 4.268382e+01 2.986076e+01 2.011784e+01 2.160276e+00 4.405262e+00 1.838750e+00 3.087709e+00 1.863757e+00 4.538452e+00 9.041776e+00 3.232470e+00 5.040709e+00 3.301221e+00 4.384438e+00 2.456772e+00 1.239131e+00 1.718458e-01 8.353386e-01 2.382734e-01 6.531716e-01 2.499065e-01 7.596566e-01 1.714407e+00 6.276134e-01 1.043441e+00 6.657919e-01 1.002346e+00 5.765676e-01 2.569084e-01
<GCONST> 1.242799e+02
<TRANSP> 5
 0.000000e+00 1.000000e+00 0.000000e+00 0.000000e+00 0.000000e+00
 0.000000e+00 7.371417e-01 2.628583e-01 0.000000e+00 0.000000e+00
 0.000000e+00 0.000000e+00 7.639776e-01 2.360224e-01 0.000000e+00
 0.000000e+00 0.000000e+00 0.000000e+00 6.745654e-01 3.254346e-01
 0.000000e+00 0.000000e+00 0.000000e+00 0.000000e+00 0.000000e+00
<ENDHMM>
~h "w"
<BEGINHMM>
<NUMSTATES> 5
<STATE> 2
<MEAN> 39
 -9.900750e-01 3.370237e-01 -1.237684e+00 6.787415e+00 5.813932e+00 4.171767e+00 -6.422954e+00 3.240954e-01 3.174712e+00 -5.140180e+00 -2.951455e+00 -3.877995e-01 7.753889e+01 1.670031e+00 8.538864e-01 1.832332e-01 -7.009357e-01 -6.959244e-01 -7.342631e-01 4.227476e-01 1.201483e+00 -2.859899e-01 -1.311965e+00 -1.364416e+00 -1.138893e+00 1.054385e+00 6.960221e-02 2.579675e-01 1.158330e-01 -1.564412e-01 -2.009933e-01 -2.235793e-01 -1.930595e-01 1.943560e-01 1.671701e-01 -2.857376e-02 -9.772386e-02 -1.982538e-01 -6.264053e-02
<VARIANCE> 39
 4.044086e+01 4.612921e+01 2.066549e+01 2.655293e+01 4.072292e+01 2.521609e+01 9.189756e+01 5.245821e+01 2.259890e+01 4.753555e+01 3.313184e+01 1.971587e+01 3.674469e+01 4.278170e+00 3.374909e+00 1.430143e+00 2.724397e+00 3.997193e+00 2.819865e+00 7.278729e+00 3.402038e+00 2.048790e+00 3.886433e+00 3.792244e+00 3.300136e+00 5.076370e+00 4.165779e-01 9.661033e-01 3.188272e-01 2.660750e-01 4.209058e-01 3.634544e-01 9.126109e-01 6.004639e-01 4.483289e-01 7.681503e-01 5.557671e-01 4.885221e-01 5.304099e-01
<GCONST> 1.250241e+02
<STATE> 3
<MEAN> 39
 1.418721e+00 4.768871e+00 4.595063e-01 3.388061e+00 2.585896e+00 2.823098e+00 -4.957499e+00 4.310188e+00 3.593665e+00 -6.986655e+00 -5.621322e+00 -3.443079e+00 7.781084e+01 5.908667e-01 9.736953e-01 3.926153e-01 -5.853803e-01 -6.890624e-01 -1.082587e+00 -6.989385e-01 8.047261e-01 3.864117e-01 -2.665471e-02 -4.108400e-01 -9.432725e-01 1.371612e-02 -2.525943e-01 -1.090699e-01 -1.008769e-01 2.087528e-01 1.545813e-01 -7.841022e-02 -3.116382e-01 -2.463593e-01 7.110680e-02 3.443949e-01 4.172150e-01 3.022713e-01 -2.076258e-01
<VARIANCE> 39
 1.990031e+01 3.324237e+01 2.318951e+01 2.569505e+01 2.621316e+01 2.901514e+01 6.099481e+01 2.750508e+01 2.022206e+01 4.179635e+01 2.173910e+01 1.447364e+01 2.083265e+01 2.192803e+00 4.505072e+00 1.515711e+00 2.544484e+00 2.553336e+00 2.922781e+00 7.122509e+00 3.699427e+00 2.285767e+00 3.428590e+00 2.745123e+00 2.184224e+00 2.790252e+00 4.355361e-01 5.037779e-01 1.983380e-01 3.997042e-01 3.780282e-01 4.270769e-01 1.117384e+00 4.846335e-01 4.436315e-01 9.306300e-01 5.892316e-01 4.887353e-01 5.639733e-01
<GCONST> 1.187553e+02
<STATE> 4
<MEAN> 39
 3.748303e+00 8.034008e+00 1.285138e+00 3.542053e+00 -1.642500e+00 -5.981962e+00 -1.074562e+01 6.117218e+00 6.221530e+00 -6.096177e+00 -4.895315e+00 -3.505350e+00 7.762504e+01 2.743195e-02 -9.209570e-02 -2.174049e-01 4.445364e-02 -8.435749e-02 -1.480900e-01 -5.645558e-02 -2.116933e-01 -3.120863e-01 -9.815807e-02 1.802988e-01 2.950013e-01 1.542518e-02 -6.555088e-02 -2.066721e-01 -6.439988e-02 8.327217e-02 1.647374e-01 2.701568e-01 8.091585e-02 -2.207860e-01 -1.154349e-01 -5.343414e-02 4.581632e-02 1.390292e-01 4.169928e-02
<VARIANCE> 39
 8.042389e+00 2.829221e+01 2.079384e+01 1.480535e+01 2.307569e+01 8.545052e+01 4.233640e+01 2.904448e+01 2.785978e+01 5.122440e+01 2.011007e+01 3.368059e+01 1.006889e+01 6.567490e-01 1.758904e+00 1.190191e+00 9.184656e-01 1.756857e+00 4.605258e+00 4.239090e+00 1.893732e+00 1.888056e+00 3.393611e+00 1.907369e+00 3.073999e+00 8.226035e-01 9.297761e-02 1.814311e-01 1.764716e-01 1.728964e-01 2.236856e-01 4.999050e-01 6.479174e-01 3.520021e-01 2.892355e-01 4.468169e-01 3.817596e-01 5.703584e-01 9.517576e-02
<GCONST> 1.043006e+02
<TRANSP> 5
 0.000000e+00 1.000000e+00 0.000000e+00 0.000000e+00 0.000000e+00
 0.000000e+00 3.503914e-01 6.496086e-01 0.000000e+00 0.000000e+00
 0.000000e+00 0.000000e+00 5.173285e-01 4.826716e-01 0.000000e+00
 0.000000e+00 0.000000e+00 0.000000e+00 8.550014e-01 1.449986e-01
 0.000000e+00 0.000000e+00 0.000000e+00 0.000000e+00 0.000000e+00
<ENDHMM>
~h "y"
<BEGINHMM>
<NUMSTATES> 5
<STATE> 2
<MEAN> 39
 -1.568068e+00 -8.756607e+00 3.016672e+00 1.772912e+01 1.038034e+01 6.211710e+00 -9.210115e+00 -4.466705e+00 3.287477e+00 -3.848359e+00 -3.939836e+00 -2.980537e+00 8.017913e+01 8.672966e-01 8.522446e-02 -1.811604e-01 5.416768e-01 6.768740e-01 -1.026022e-01 -1.461568e+00 -7.380041e-01 2.821896e-01 -6.344342e-01 -3.792953e-01 3.120027e-01 4.162500e-01 -7.564537e-02 1.455337e-02 -1.361366e-01 -3.425215e-01 -1.038059e-01 2.178422e-02 -1.033636e-01 -1.017050e-01 4.860121e-03 -8.196071e-02 1.141933e-01 1.975512e-01 3.221133e-02
<VARIANCE> 39
 2.875323e+01 7.042984e+01 2.031478e+01 4.544535e+01 4.591200e+01 4.663849e+01 8.267854e+01 4.800285e+01 4.643224e+01 5.012171e+01 3.866900e+01 2.457265e+01 3.088275e+01 3.030691e+00 6.649304e+00 2.174313e+00 5.562184e+00 4.343299e+00 7.658907e+00 9.339387e+00 5.000190e+00 2.294549e+00 4.911446e+00 4.710179e+00 2.789160e+00 2.540704e+00 4.171397e-01 7.929502e-01 4.033934e-01 7.471202e-01 5.759851e-01 1.495661e+00 1.479801e+00 1.095814e+00 4.257853e-01 1.023617e+00 5.459967e-01 5.613881e-01 3.729157e-01
<GCONST> 1.339166e+02
<STATE> 3
<MEAN> 39
 3.447535e+00 -4.383944e+00 -3.172559e-02 1.243456e+01 1.062054e+01 6.004098e+00 -1.814960e+01 -7.131629e+00 4.892141e+00 -1.223440e+01 -6.733154e+00 1.081772e+00 8.286713e+01 2.786103e-01 4.209573e-01 -3.028903e-01 -8.497422e-01 -5.025660e-01 8.655863e-03 1.624141e-01 2.680343e-01 -1.595230e-01 -6.434365e-01 -5.592402e-01 9.306472e-02 -1.495111e-02 -8.191192e-02 1.203176e-01 4.059200e-02 -1.207102e-01 -1.800290e-01 -2.719508e-02 3.358288e-01 2.440872e-01 5.029506e-03 1.368698e-01 -4.298836e-04 -1.661200e-01 -9.897467e-02
<VARIANCE> 39
 5.801558e+00 2.526551e+01 1.983065e+01 3.939105e+01 3.727407e+01 5.966897e+01 2.523685e+01 5.889680e+01 3.219450e+01 4.641053e+01 5.526593e+01 2.244217e+01 5.102427e+00 2.497041e-01 7.130830e-01 8.149933e-01 2.078856e+00 2.797548e+00 2.786672e+00 2.531218e+00 4.485147e+00 2.385958e+00 3.590390e+00 1.622996e+00 2.468450e+00 2.160024e-01 3.846910e-02 8.063059e-02 1.377164e-01 2.433515e-01 2.785193e-01 5.809026e-01 4.962537e-01 6.340294e-01 4.343660e-01 5.327719e-01 2.895276e-01 3.750059e-01 3.665198e-02
<GCONST> 1.005473e+02
<STATE> 4
<MEAN> 39
 1.045796e+00 4.573371e-01 -2.242879e+00 5.448683e+00 3.376774e+00 1.495863e+00 -9.662667e+00 4.126041e-01 6.315840e+00 -5.216300e+00 -7.035069e+00 -4.507808e+00 7.914356e+01 -3.526734e-01 7.751251e-01 -1.243302e-01 -4.869511e-01 -6.802554e-01 -5.405130e-01 1.164430e+00 8.499221e-01 5.701683e-03 1.010062e+00 4.965671e-01 -3.546252e-01 -6.166959e-01 -1.543773e-01 -2.139517e-02 1.005533e-01 1.586881e-01 8.798715e-02 5.621506e-02 6.608582e-02 -5.663121e-02 -4.406165e-02 1.295031e-01 1.855091e-01 1.461601e-01 -1.163535e-01
<VARIANCE> 39
 3.600149e+01 9.453397e+01 4.678576e+01 3.382615e+01 8.911806e+01 8.439701e+01 4.946491e+01 5.386309e+01 3.454858e+01 9.346278e+01 5.347270e+01 3.317868e+01 1.983484e+01 9.996629e-01 4.506369e+00 2.483110e+00 1.430761e+00 3.280532e+00 5.279255e+00 4.254869e+00 2.774198e+00 2.387843e+00 3.042143e+00 1.306220e+00 1.689156e+00 1.942956e+00 1.686673e-01 6.851991e-01 5.098863e-01 2.727078e-01 7.422056e-01 8.116527e-01 6.522425e-01 3.576657e-01 3.441218e-01 4.547514e-01 2.328861e-01 2.633335e-01 2.627236e-01
<GCONST> 1.219937e+02
<TRANSP> 5
 0.000000e+00 1.000000e+00 0.000000e+00 0.000000e+00 0.000000e+00
 0.000000e+00 8.028924e-01 1.971076e-01 0.000000e+00 0.000000e+00
 0.000000e+00 0.000000e+00 8.994320e-01 1.005680e-01 0.000000e+00
 0.000000e+00 0.000000e+00 0.000000e+00 7.518715e-01 2.481285e-01
 0.000000e+00 0.000000e+00 0.000000e+00 0.000000e+00 0.000000e+00
<ENDHMM>
~h "z"
<BEGINHMM>
<NUMSTATES> 5
<STATE> 2
<MEAN> 39
 -5.568607e+00 -5.652840e+00 7.958565e+00 1.427219e+01 7.121870e+00 8.227282e+00 -4.532797e+00 -5.054935e+00 1.641993e+00 -9.352323e-01 9.045297e-02 -3.281624e+00 7.960328e+01 -8.102314e-01 -1.357145e+00 1.084098e+00 -3.211703e-01 -1.059070e+00 -2.202553e-01 1.556253e+00 -1.338188e-01 -1.041584e+00 4.478324e-01 1.089298e+00 -5.822474e-01 8.078893e-01 -3.798490e-01 -2.006106e-01 6.080003e-02 -2.729798e-01 -6.294828e-02 -1.099855e-01 2.402512e-01 2.336963e-01 -1.776863e-02 -7.325016e-03 2.667296e-01 1.413530e-01 1.706606e-02
<VARIANCE> 39
 2.562795e+01 4.984122e+01 3.947438e+01 3.023086e+01 4.559002e+01 3.819525e+01 6.459584e+01 4.760698e+01 4.087639e+01 2.906097e+01 2.556750e+01 2.292108e+01 3.959358e+01 4.086897e+00 8.587222e+00 3.714569e+00 3.540885e+00 5.381718e+00 4.260820e+00 7.999685e+00 4.214685e+00 3.030525e+00 4.200490e+00 3.378868e+00 2.213561e+00 5.135429e+00 4.503538e-01 1.332669e+00 4.736554e-01 6.988890e-01 9.348534e-01 7.001086e-01 1.112092e+00 7.711521e-01 4.442134e-01 4.391012e-01 6.126255e-01 2.646925e-01 9.960898e-01
<GCONST> 1.318660e+02
<STATE> 3
<MEAN> 39
 -1.219069e+01 -1.034877e+01 1.543961e+01 9.756427e+00 2.486737e+00 7.887547e+00 4.298411e+00 -2.527435e+00 -3.363992e+00 -1.396732e-01 6.012615e+00 -4.026050e+00 8.168869e+01 -2.293289e+00 -1.763239e+00 1.280317e-01 -1.227037e+00 -7.467983e-01 -8.571420e-01 1.572580e+00 1.171148e+00 5.055213e-02 6.380404e-01 1.455666e+00 3.057950e-01 2.652109e-01 4.745960e-01 2.344756e-01 -7.249333e-01 -1.719735e-02 2.141816e-01 -6.138055e-02 -7.459115e-01 -8.211511e-02 3.440323e-01 -3.051018e-01 -4.138182e-01 2.760256e-01 -8.484646e-02
<VARIANCE> 39
 3.332719e+01 1.935107e+01 1.909868e+01 2.496482e+01 2.344669e+01 1.546690e+01 2.713874e+01 2.233238e+01 3.506618e+01 1.245232e+01 1.367039e+01 1.258796e+01 6.205686e+00 2.964775e+00 2.402503e+00 4.471344e+00 2.513762e+00 1.750831e+00 1.734846e+00 3.234597e+00 2.232683e+00 2.352640e+00 1.678331e+00 1.543025e+00 1.188625e+00 5.295547e-01 5.190763e-01 5.000558e-01 5.802509e-01 3.302532e-01 4.667699e-01 4.314907e-01 4.087416e-01 4.278176e-01 4.607977e-01 3.681330e-01 2.720682e-01 2.352191e-01 1.465867e-01
<GCONST> 1.056912e+02
<STATE> 4
<MEAN> 39
 -1.640822e+01 -1.146344e+01 5.309707e+00 4.825249e+00 3.454169e-01 5.944212e+00 5.891529e+00 1.573172e+00 -1.147467e+00 1.326308e+00 7.509627e+00 1.778166e+00 7.689496e+01 2.212442e-01 6.453953e-01 -6.407838e-01 1.012103e-02 1.760056e-01 1.062467e-01 -1.507900e-01 1.395307e-02 1.703428e-01 4.679203e-02 -2.887990e-01 3.064277e-01 -5.463889e-01 1.395219e-01 2.171580e-01 5.056224e-02 1.054921e-01 7.231244e-02 5.579332e-02 -7.790518e-02 -4.126520e-02 2.850644e-03 -4.467238e-02 -1.287970e-01 -6.029765e-02 -7.797903e-02
<VARIANCE> 39
 2.784458e+01 6.242371e+01 4.569562e+01 3.073140e+01 2.005364e+01 2.386818e+01 1.430772e+01 2.285983e+01 5.198611e+01 2.580989e+01 1.455339e+01 2.122549e+01 5.745496e+01 1.454595e+00 2.564803e+00 2.325385e+00 1.167000e+00 1.276956e+00 1.220559e+00 1.373695e+00 1.175934e+00 1.872966e+00 1.458456e+00 1.318784e+00 1.059047e+00 1.168307e+00 2.545116e-01 5.034683e-01 4.155271e-01 2.495984e-01 2.227543e-01 2.459069e-01 2.512822e-01 2.196102e-01 2.918659e-01 2.438385e-01 2.394261e-01 2.159064e-01 1.684300e-01
<GCONST> 1.025561e+02
<TRANSP> 5
 0.000000e+00 1.000000e+00 0.000000e+00 0.000000e+00 0.000000e+00
 0.000000e+00 6.652302e-01 3.347698e-01 0.000000e+00 0.000000e+00
 0.000000e+00 0.000000e+00 7.419426e-01 2.580574e-01 0.000000e+00
 0.000000e+00 0.000000e+00 0.000000e+00 9.046882e-01 9.531173e-02
 0.000000e+00 0.000000e+00 0.000000e+00 0.000000e+00 0.000000e+00
<ENDHMM>
~h "aa"
<BEGINHMM>
<NUMSTATES> 5
<STATE> 2
<MEAN> 39
 -1.568417e+00 -2.677922e+00 -3.056998e+00 -2.034552e+00 -4.108366e+00 5.046826e+00 -4.269961e-01 5.138542e-02 3.920059e+00 -5.514264e-01 4.458350e+00 3.059436e+00 8.190257e+01 1.320005e+00 1.278529e-01 -5.296367e-01 -1.210997e+00 -7.664260e-01 -3.093204e-01 -7.093428e-01 -1.969929e-01 6.218727e-01 6.832216e-01 -2.445112e-01 -3.466102e-01 1.059577e+00 -2.480050e-01 2.251222e-01 2.427154e-02 7.058436e-02 1.963459e-01 2.065689e-01 1.144206e-01 -1.392416e-02 1.950618e-01 2.974136e-01 -2.477644e-01 -1.417755e-01 -3.453770e-01
<VARIANCE> 39
 5.566069e+01 2.705137e+01 3.201510e+01 3.940625e+01 2.735076e+01 1.875268e+01 4.659384e+01 5.068245e+01 3.916146e+01 4.761352e+01 4.000570e+01 2.684544e+01 3.049182e+01 5.405313e+00 4.258374e+00 4.340948e+00 5.325621e+00 4.650224e+00 2.649920e+00 5.827559e+00 5.826077e+00 3.975621e+00 6.244597e+00 4.695121e+00 2.987566e+00 5.595376e+00 5.261061e-01 9.884672e-01 1.015885e+00 6.999364e-01 6.843905e-01 5.323546e-01 1.247744e+00 8.588678e-01 5.460196e-01 1.137670e+00 6.631122e-01 3.967526e-01 6.094542e-01
<GCONST> 1.337151e+02
<STATE> 3
<MEAN> 39
 6.445342e+00 -2.430112e+00 -7.251540e+00 -3.982051e+00 -5.130125e+00 4.452899e+00 -5.304452e+00 2.222498e-01 8.936010e+00 2.391397e+00 -4.358917e+00 -5.587172e-01 8.349883e+01 9.329010e-03 1.015716e-01 -2.277165e-02 -3.883354e-02 -5.145458e-02 2.745954e-01 -1.681466e-01 -5.473958e-01 5.815530e-01 4.271376e-01 -5.368369e-01 -1.793641e-01 -6.688204e-02 -2.538597e-01 4.252590e-02 2.336661e-01 2.263392e-01 2.310102e-01 1.921690e-01 1.592555e-01 9.727646e-03 -2.683189e-01 -2.497896e-01 1.566783e-01 1.723995e-03 -1.963770e-01
<VARIANCE> 39
 1.084445e+01 2.428267e+01 2.371015e+01 4.702119e+01 6.504279e+01 6.428919e+01 5.316810e+01 4.038384e+01 2.663708e+01 3.320407e+01 3.229330e+01 4.584372e+01 7.891172e+00 4.809192e-01 1.746888e+00 1.956271e+00 2.580005e+00 3.600143e+00 3.505366e+00 4.363922e+00 2.938299e+00 2.740476e+00 2.748124e+00 2.973012e+00 2.616950e+00 4.602381e-01 1.523168e-01 2.329696e-01 1.837681e-01 4.551033e-01 3.412397e-01 6.168909e-01 7.324335e-01 9.190958e-01 5.315481e-01 3.002726e-01 6.079867e-01 5.678157e-01 9.285632e-02
<GCONST> 1.132048e+02
<STATE> 4
<MEAN> 39
 4.668472e+00 7.095665e-01 -4.551287e+00 -7.529785e+00 -8.468190e+00 5.118628e+00 -2.516951e+00 -1.403316e+00 7.288398e+00 4.168729e+00 -1.429345e+00 -1.112147e+00 8.470188e+01 -3.305824e-01 8.219613e-02 3.204485e-01 4.945183e-01 8.119554e-01 9.010895e-02 -2.210170e-02 2.744343e-01 -7.104412e-01 -8.147022e-01 4.366812e-01 2.590724e-01 -2.724684e-01 -1.626289e-01 -6.991322e-02 7.217196e-02 2.232062e-01 1.419677e-01 -8.239476e-04 1.474192e-01 3.151273e-02 -1.337291e-01 -7.758977e-02 9.458563e-02 3.682526e-02 -9.575292e-02
<VARIANCE> 39
 5.143776e+00 1.176571e+01 1.292903e+01 1.973332e+01 4.907912e+01 2.158138e+01 3.569827e+01 1.762935e+01 3.553601e+01 4.472364e+01 4.050174e+01 2.632758e+01 3.636150e+00 5.141732e-01 7.812310e-01 7.204907e-01 1.927402e+00 2.018484e+00 9.684634e-01 2.684957e+00 1.633159e+00 1.158345e+00 2.549179e+00 1.164969e+00 1.868751e+00 3.724856e-01 8.536978e-02 1.929796e-01 1.120840e-01 2.313249e-01 2.642064e-01 1.927288e-01 5.438229e-01 2.466538e-01 2.070021e-01 3.919237e-01 1.656648e-01 2.612332e-01 7.439544e-02
<GCONST> 9.180879e+01
<TRANSP> 5
 0.000000e+00 1.000000e+00 0.000000e+00 0.000000e+00 0.000000e+00
 0.000000e+00 8.386948e-01 1.613052e-01 0.000000e+00 0.000000e+00
 0.000000e+00 0.000000e+00 8.102307e-01 1.897693e-01 0.000000e+00
 0.000000e+00 0.000000e+00 0.000000e+00 8.933802e-01 1.066198e-01
 0.000000e+00 0.000000e+00 0.000000e+00 0.000000e+00 0.000000e+00
<ENDHMM>
~h "ae"
<BEGINHMM>
<NUMSTATES> 5
<STATE> 2
<MEAN> 39
 -1.383535e+01 -4.966777e-01 -1.652060e+00 5.884387e+00 2.982280e+00 5.188137e+00 2.031176e+00 3.764076e+00 3.928516e+00 3.304652e+00 4.515709e+00 5.459099e+00 6.750586e+01 4.376815e-01 -2.163310e-01 -4.337035e-01 -2.998763e-01 1.315366e-01 -5.608687e-02 -5.826289e-01 -1.091539e-01 6.106695e-02 -1.100751e-01 3.160995e-01 4.091136e-01 3.708527e-01 3.446015e-01 -2.853363e-03 -9.049404e-02 -9.939887e-02 -8.791601e-03 -1.317457e-01 -3.542152e-01 -1.689066e-01 -5.345897e-02 -1.023825e-01 -4.469912e-02 -1.433542e-02 2.705905e-01
<VARIANCE> 39
 4.394871e+01 2.963963e+01 1.326507e+01 2.712058e+01 2.033449e+01 1.733828e+01 3.911419e+01 1.872595e+01 1.498735e+01 3.560385e+01 1.796985e+01 1.453777e+01 4.509058e+01 3.161943e+00 2.539886e+00 1.425868e+00 1.519461e+00 1.023340e+00 1.441437e+00 4.637285e+00 2.341527e+00 1.362006e+00 1.437372e+00 1.698392e+00 1.461661e+00 2.241232e+00 4.181558e-01 3.654374e-01 2.101916e-01 3.394853e-01 2.056409e-01 1.816726e-01 7.044769e-01 3.122008e-01 3.073153e-01 2.979045e-01 3.028156e-01 2.859636e-01 3.426120e-01
<GCONST> 1.056396e+02
<STATE> 3
<MEAN> 39
 2.592554e+00 -3.087527e+00 -5.348042e+00 2.368082e+00 5.042828e+00 1.394477e+00 -1.420164e+01 -2.939775e+00 1.888591e+00 -5.045140e+00 5.151106e+00 7.322185e+00 8.202951e+01 2.036395e+00 -4.725888e-01 -1.284973e+00 -1.199721e+00 1.219463e-02 -4.439321e-01 -2.020202e+00 -2.564114e-01 2.856447e-01 -5.927056e-01 5.212660e-01 8.168649e-01 1.871502e+00 -7.014762e-01 3.283368e-02 1.701373e-01 1.332306e-01 9.623808e-02 4.945562e-01 8.971596e-01 1.885871e-01 2.255543e-01 4.464963e-01 -8.021671e-02 -2.927069e-01 -4.897861e-01
<VARIANCE> 39
 1.870476e+01 1.914313e+01 4.777266e+01 2.469550e+01 1.827606e+01 3.179878e+01 3.056071e+01 4.740984e+01 3.530463e+01 3.697247e+01 1.865500e+01 1.781805e+01 2.684212e+01 4.301625e+00 2.931080e+00 1.638016e+00 2.028180e+00 2.802028e+00 2.177699e+00 7.111678e+00 3.551588e+00 2.581180e+00 2.068403e+00 1.880678e+00 1.810653e+00 4.080114e+00 3.460783e-01 5.062740e-01 4.273536e-01 2.992486e-01 3.458977e-01 4.870889e-01 7.783306e-01 7.562073e-01 5.103192e-01 3.021375e-01 4.278772e-01 3.497733e-01 2.931510e-01
<GCONST> 1.165188e+02
<STATE> 4
<MEAN> 39
 4.301292e+00 -3.595193e+00 -7.046793e+00 -2.719759e+00 3.071781e+00 4.646099e+00 -1.281588e+01 -4.133293e+00 5.635572e+00 -2.352751e+00 6.204621e+00 5.607230e+00 8.506994e+01 -1.040886e-01 5.165477e-01 6.067972e-02 2.357996e-01 6.097144e-01 5.521169e-01 2.697237e-01 -4.889164e-01 -2.062915e-01 1.163548e-02 -2.982332e-01 -4.123732e-01 -4.085501e-01 -2.657525e-01 1.931702e-01 2.645022e-01 2.342128e-01 -1.010964e-02 1.301266e-01 3.814761e-01 3.597258e-02 -1.924941e-01 6.717914e-02 -1.402071e-01 -1.255886e-01 -3.688945e-01
<VARIANCE> 39
 8.367455e+00 1.582810e+01 2.566424e+01 2.485646e+01 4.750647e+01 3.030808e+01 4.243219e+01 2.774814e+01 3.385409e+01 3.504548e+01 2.045943e+01 1.828110e+01 1.133043e+01 7.062336e-01 1.174997e+00 1.594208e+00 1.797483e+00 1.809666e+00 2.726322e+00 3.118371e+00 2.250026e+00 2.249039e+00 1.421519e+00 1.772882e+00 1.315674e+00 1.232686e+00 1.825241e-01 2.026292e-01 2.344928e-01 2.097077e-01 3.353480e-01 3.130334e-01 7.274781e-01 4.162570e-01 3.519712e-01 2.825633e-01 3.322205e-01 2.852823e-01 1.399640e-01
<GCONST> 1.030354e+02
<TRANSP> 5
 0.000000e+00 1.000000e+00 0.000000e+00 0.000000e+00 0.000000e+00
 0.000000e+00 8.357874e-01 1.642126e-01 0.000000e+00 0.000000e+00
 0.000000e+00 0.000000e+00 6.481470e-01 3.518530e-01 0.000000e+00
 0.000000e+00 0.000000e+00 0.000000e+00 8.507456e-01 1.492544e-01
 0.000000e+00 0.000000e+00 0.000000e+00 0.000000e+00 0.000000e+00
<ENDHMM>
~h "ah"
<BEGINHMM>
<NUMSTATES> 5
<STATE> 2
<MEAN> 39
 -5.104951e+00 -3.019702e+00 8.409679e-03 6.271125e+00 8.231938e-01 2.318448e+00 -9.120879e-01 1.555867e+00 -1.621770e-01 -2.950071e+00 1.386812e+00 1.837585e+00 7.641864e+01 2.451770e+00 -8.644840e-01 -7.592095e-01 -8.037642e-01 -5.646308e-01 -1.004131e+00 -2.040705e+00 -5.154930e-02 -7.240489e-03 -1.414661e+00 -3.999003e-01 -1.510751e-01 2.319522e+00 8.352269e-02 2.284627e-01 3.398934e-02 -1.895092e-01 2.710070e-01 8.923748e-02 -4.355399e-01 -5.368256e-02 1.496513e-01 -2.708809e-02 3.821599e-02 2.829286e-02 6.833826e-02
<VARIANCE> 39
 5.905172e+01 7.501868e+01 2.958556e+01 4.176170e+01 4.649144e+01 4.760223e+01 5.706887e+01 5.047840e+01 3.944092e+01 3.929682e+01 2.986597e+01 2.927295e+01 7.246755e+01 4.496298e+00 1.141527e+01 4.335749e+00 5.903921e+00 6.668100e+00 4.957119e+00 8.583507e+00 4.941376e+00 3.415765e+00 4.868396e+00 2.873403e+00 3.341106e+00 5.632577e+00 9.089040e-01 2.055742e+00 6.970419e-01 9.257734e-01 1.143555e+00 9.648017e-01 1.123909e+00 7.911881e-01 6.245952e-01 8.603746e-01 5.014414e-01 4.701653e-01 1.325737e+00
<GCONST> 1.408749e+02
<STATE> 3
<MEAN> 39
 4.972723e+00 -1.933163e+00 -3.756090e+00 1.774171e+00 1.677091e+00 -1.041508e+00 -1.167964e+01 1.216976e+00 -1.338129e+00 -9.462193e+00 3.966782e-01 2.052629e+00 8.349622e+01 -4.019561e-01 7.867634e-01 -4.118402e-02 1.738212e-01 5.927501e-01 5.277549e-01 1.878336e-01 1.338909e-01 4.636751e-01 3.404902e-01 1.629317e-02 8.955054e-02 -8.718814e-01 -7.351469e-01 5.564094e-05 2.461658e-01 1.694609e-01 -1.409278e-01 2.688477e-01 8.775030e-01 2.157024e-02 9.086399e-02 4.733991e-01 5.259053e-02 2.366545e-02 -5.377550e-01
<VARIANCE> 39
 1.859565e+01 1.948469e+01 4.297548e+01 5.852231e+01 4.496973e+01 2.712005e+01 6.500632e+01 4.320341e+01 4.365626e+01 3.229132e+01 2.739660e+01 2.468452e+01 1.511395e+01 3.611347e+00 2.122397e+00 4.656550e+00 3.528769e+00 2.073693e+00 3.428622e+00 1.083691e+01 2.560146e+00 2.752543e+00 4.499883e+00 2.145781e+00 1.946050e+00 2.398925e+00 3.927999e-01 4.551302e-01 7.856995e-01 7.287309e-01 4.708030e-01 5.431851e-01 1.459507e+00 4.555699e-01 5.313389e-01 7.860903e-01 4.660673e-01 3.675498e-01 2.788200e-01
<GCONST> 1.239056e+02
<STATE> 4
<MEAN> 39
 -9.255438e-01 -3.612357e-01 -4.784581e-01 5.442931e+00 2.918118e+00 1.141039e+00 -8.917059e+00 -2.292804e+00 2.350713e+00 -6.001975e+00 -8.811995e-01 3.094829e+00 7.795849e+01 -7.445146e-01 3.799021e-01 -2.608274e-02 -6.285299e-02 -1.233716e-01 2.998261e-01 4.842469e-01 -1.135735e-01 5.526899e-02 6.322413e-01 1.125874e-01 3.918430e-01 -9.100261e-01 2.206954e-02 -1.437955e-01 -1.942363e-02 1.060358e-01 1.170134e-01 7.763883e-02 -1.585027e-02 3.560601e-02 -1.071665e-01 -1.184565e-01 -7.784901e-02 -8.399625e-02 8.623806e-02
<VARIANCE> 39
 3.646040e+01 3.633574e+01 2.887845e+01 5.592463e+01 5.780941e+01 3.342994e+01 6.205339e+01 5.297843e+01 4.173389e+01 3.414758e+01 3.397197e+01 3.893435e+01 3.842641e+01 2.072794e+00 1.669167e+00 1.973582e+00 2.100322e+00 2.494498e+00 3.900779e+00 5.403163e+00 2.946980e+00 2.599183e+00 2.510211e+00 2.334955e+00 2.662426e+00 1.944031e+00 2.919382e-01 3.266309e-01 2.931325e-01 4.121830e-01 3.825338e-01 5.571689e-01 9.798939e-01 5.680055e-01 4.548367e-01 4.899818e-01 4.884091e-01 5.735445e-01 2.824583e-01
<GCONST> 1.214565e+02
<TRANSP> 5
 0.000000e+00 1.000000e+00 0.000000e+00 0.000000e+00 0.000000e+00
 0.000000e+00 6.884819e-01 3.115182e-01 0.000000e+00 0.000000e+00
 0.000000e+00 0.000000e+00 7.599482e-01 2.400518e-01 0.000000e+00
 0.000000e+00 0.000000e+00 0.000000e+00 7.291250e-01 2.708751e-01
 0.000000e+00 0.000000e+00 0.000000e+00 0.000000e+00 0.000000e+00
<ENDHMM>
~h "ao"
<BEGINHMM>
<NUMSTATES> 5
<STATE> 2
<MEAN> 39
 -1.661163e+01 1.396773e+00 -1.543237e+00 4.384858e+00 2.471396e+00 5.673865e+00 4.510704e+00 6.038961e+00 4.018459e+00 3.366597e+00 3.755064e+00 4.083591e+00 6.461330e+01 1.161178e-01 1.303640e-01 3.591138e-02 -3.077400e-02 -9.706572e-02 -1.157524e-01 -1.090577e-01 -4.522560e-02 3.615519e-02 1.123618e-01 -3.352458e-03 -1.121590e-02 1.683415e-02 1.858494e-01 3.754494e-02 -2.924636e-03 5.976102e-03 -3.625840e-02 -1.003164e-01 -1.396732e-01 -9.690546e-02 -2.481436e-02 -4.950157e-02 -9.738148e-02 -7.372026e-02 1.199366e-01
<VARIANCE> 39
 1.863348e+01 1.262089e+01 7.088509e+00 1.071756e+01 1.200522e+01 1.574063e+01 1.655024e+01 1.158016e+01 1.133383e+01 1.493152e+01 1.195525e+01 1.522742e+01 1.913493e+01 1.043362e+00 7.568248e-01 4.889816e-01 9.199489e-01 1.410383e+00 1.584745e+00 1.676575e+00 1.442984e+00 1.265402e+00 1.292423e+00 1.049090e+00 9.649529e-01 4.762479e-01 1.873596e-01 1.134601e-01 1.053031e-01 1.654287e-01 2.597099e-01 3.409134e-01 3.005932e-01 2.396239e-01 2.180129e-01 2.266216e-01 1.849816e-01 1.943710e-01 9.424458e-02
<GCONST> 8.401610e+01
<STATE> 3
<MEAN> 39
 6.607624e-01 4.726559e+00 -2.044807e+00 1.990329e+00 -5.546935e+00 -5.865358e+00 -6.421128e+00 1.729798e+00 5.536789e+00 2.853530e+00 -2.080391e+00 -3.040451e+00 7.658632e+01 2.237226e+00 -5.582859e-02 -4.927374e-01 -6.501567e-01 -1.538638e+00 -2.112203e+00 -1.355032e+00 3.873092e-01 7.527738e-01 1.483323e-01 -4.054455e-01 -4.842766e-01 1.706634e+00 -3.418114e-01 -1.325950e-01 -2.079139e-02 -5.143611e-02 9.096489e-02 2.580239e-01 3.300748e-01 2.811881e-01 1.133176e-01 1.508221e-04 1.746336e-01 2.203886e-01 -1.668214e-01
<VARIANCE> 39
 4.254321e+01 2.517484e+01 1.964210e+01 1.776392e+01 8.735033e+01 1.500153e+02 4.656932e+01 3.002042e+01 2.792665e+01 9.288807e+01 2.156622e+01 2.692257e+01 2.824158e+01 3.714729e+00 2.119125e+00 1.694828e+00 2.039429e+00 3.527093e+00 6.129470e+00 4.471320e+00 3.396761e+00 2.222851e+00 3.357669e+00 2.059442e+00 3.026901e+00 1.909473e+00 4.833712e-01 4.015513e-01 2.670187e-01 2.866192e-01 5.158896e-01 1.060928e+00 7.806901e-01 5.846944e-01 4.371104e-01 4.440849e-01 3.006945e-01 3.102589e-01 2.909684e-01
<GCONST> 1.215400e+02
<STATE> 4
<MEAN> 39
 6.076298e+00 3.987319e+00 -4.540344e+00 -2.768239e+00 -7.550603e+00 -6.679906e+00 -8.507484e+00 5.864783e+00 7.702553e+00 -3.220097e+00 -4.554022e+00 -2.351353e+00 8.122759e+01 -3.078417e-01 4.251588e-03 -5.654860e-02 -1.327325e-02 5.971715e-01 1.052902e+00 6.700301e-01 -1.586139e-01 -6.571137e-01 -4.469467e-01 1.867091e-02 1.814362e-01 -2.458701e-01 -1.703699e-01 -2.402850e-02 7.287792e-02 1.718711e-01 1.992136e-01 2.612453e-01 1.997391e-01 -1.052179e-01 -1.634338e-01 9.025492e-03 6.471621e-02 5.356632e-02 -1.348765e-01
<VARIANCE> 39
 7.079558e+00 2.111990e+01 1.796472e+01 3.499399e+01 2.618438e+01 7.373467e+01 4.450475e+01 2.010259e+01 4.964803e+01 5.583018e+01 1.472707e+01 2.849943e+01 8.297552e+00 7.886007e-01 1.499664e+00 1.173443e+00 1.656653e+00 2.091713e+00 3.503233e+00 2.757436e+00 1.799244e+00 3.000886e+00 3.371377e+00 1.592879e+00 1.901360e+00 6.899763e-01 1.251573e-01 2.938618e-01 2.017578e-01 2.533687e-01 2.311282e-01 4.784748e-01 4.726915e-01 3.302306e-01 3.924149e-01 4.321213e-01 2.959306e-01 2.924668e-01 1.216187e-01
<GCONST> 1.043862e+02
<TRANSP> 5
 0.000000e+00 1.000000e+00 0.000000e+00 0.000000e+00 0.000000e+00
 0.000000e+00 9.257808e-01 7.421917e-02 0.000000e+00 0.000000e+00
 0.000000e+00 0.000000e+00 8.015890e-01 1.984110e-01 0.000000e+00
 0.000000e+00 0.000000e+00 0.000000e+00 9.118562e-01 8.814381e-02
 0.000000e+00 0.000000e+00 0.000000e+00 0.000000e+00 0.000000e+00
<ENDHMM>
~h "aw"
<BEGINHMM>
<NUMSTATES> 5
<STATE> 2
<MEAN> 39
 6.725954e+00 6.000970e+00 -2.763556e+00 8.234059e-01 -9.660526e+00 -1.575617e+01 -1.163080e+01 8.552238e+00 7.934548e+00 -1.868795e+00 -4.939972e+00 -6.316940e+00 8.030949e+01 -1.286072e-01 4.483849e-01 2.037983e-01 1.722918e-01 2.557874e-01 -2.409717e-01 -4.792407e-01 7.010573e-02 3.739072e-01 1.153953e-01 -3.018366e-01 -4.183985e-01 -2.960698e-01 -9.670033e-02 3.904729e-02 9.234560e-02 4.113072e-02 1.339217e-01 3.047569e-01 1.234957e-01 -1.169874e-01 -7.191655e-02 -3.645654e-02 1.496398e-02 2.758022e-02 -6.640315e-02
<VARIANCE> 39
 3.652310e+00 2.000192e+01 2.166743e+01 1.635102e+01 1.459775e+01 3.073488e+01 3.266931e+01 1.936050e+01 2.586118e+01 3.091908e+01 1.507433e+01 1.519471e+01 5.486341e+00 2.736976e-01 6.633784e-01 1.130733e+00 8.011231e-01 1.406453e+00 2.773459e+00 1.860115e+00 1.174466e+00 1.704879e+00 9.896730e-01 9.958140e-01 1.274826e+00 2.983404e-01 3.993794e-02 7.533571e-02 1.495136e-01 1.597584e-01 1.926809e-01 2.944942e-01 3.309170e-01 2.011903e-01 2.793330e-01 1.393297e-01 1.596478e-01 2.097798e-01 3.131752e-02
<GCONST> 8.287894e+01
<STATE> 3
<MEAN> 39
 1.839103e+00 1.358027e+01 1.650927e+00 6.292616e-01 -3.021117e+00 -3.754771e+00 -7.582771e+00 3.960175e+00 6.554575e+00 -8.168808e-02 -4.948271e+00 -8.601048e+00 7.423475e+01 -1.593910e+00 3.624294e-01 6.354665e-01 3.161220e-01 5.755250e-01 2.565681e+00 2.826281e+00 -3.524128e-01 -8.115761e-01 3.026758e-01 6.677572e-01 1.049220e+00 -1.229986e+00 -3.398887e-01 -4.616247e-01 -9.629555e-02 2.963600e-01 -9.794435e-02 -2.769547e-01 3.443199e-01 3.920480e-01 7.870308e-02 1.074546e-01 1.361732e-01 3.361460e-01 -1.140520e-01
<VARIANCE> 39
 9.154576e+00 8.730519e+00 1.542272e+01 7.796093e+00 1.245596e+01 2.489170e+01 3.484598e+01 1.204240e+01 1.406284e+01 3.675928e+01 2.550853e+01 1.707653e+01 7.016721e+00 1.115342e+00 1.424186e+00 9.198248e-01 1.394454e+00 1.391065e+00 2.574771e+00 2.335596e+00 2.414447e+00 1.174541e+00 1.716812e+00 1.274636e+00 1.875916e+00 4.895089e-01 1.054172e-01 1.143821e-01 1.657452e-01 1.463448e-01 2.848411e-01 5.397340e-01 7.128764e-01 3.379867e-01 2.556843e-01 2.510535e-01 2.987792e-01 3.609854e-01 5.097124e-02
<GCONST> 9.209061e+01
<STATE> 4
<MEAN> 39
 -1.317185e+01 5.527427e+00 -1.677665e+00 2.940843e+00 1.439216e+00 4.274754e+00 4.071718e+00 6.236357e+00 3.982964e+00 2.226550e+00 5.472959e-01 6.135128e-01 6.703362e+01 -8.203259e-01 -6.045598e-01 -2.092784e-01 8.997372e-02 1.042671e-01 8.945917e-02 2.176626e-01 6.286623e-02 2.178259e-02 1.815559e-01 2.499736e-01 3.505506e-01 -4.303317e-01 2.123511e-01 -2.629243e-02 -9.062029e-02 -7.851037e-02 -2.948114e-02 -1.195923e-01 -2.491067e-01 -1.434245e-01 -8.309481e-02 -1.323491e-01 -8.787052e-02 -4.028263e-02 1.613823e-01
<VARIANCE> 39
 1.861184e+01 1.769028e+01 1.818419e+01 1.141995e+01 1.260954e+01 1.725976e+01 1.241455e+01 7.565086e+00 1.121460e+01 2.251201e+01 1.976771e+01 1.719732e+01 6.395344e+00 1.212685e+00 1.125277e+00 9.733436e-01 7.248636e-01 8.639666e-01 1.213901e+00 1.370821e+00 1.287179e+00 8.078669e-01 1.030744e+00 1.102533e+00 1.068373e+00 4.029968e-01 1.297313e-01 1.934019e-01 2.096463e-01 1.590445e-01 1.929950e-01 2.612308e-01 3.062718e-01 2.346135e-01 1.710123e-01 2.827488e-01 2.759874e-01 2.115405e-01 7.343018e-02
<GCONST> 8.441214e+01
<TRANSP> 5
 0.000000e+00 1.000000e+00 0.000000e+00 0.000000e+00 0.000000e+00
 0.000000e+00 9.398773e-01 6.012278e-02 0.000000e+00 0.000000e+00
 0.000000e+00 0.000000e+00 7.955343e-01 2.044658e-01 0.000000e+00
 0.000000e+00 0.000000e+00 0.000000e+00 8.997125e-01 1.002875e-01
 0.000000e+00 0.000000e+00 0.000000e+00 0.000000e+00 0.000000e+00
<ENDHMM>
~h "ax"
<BEGINHMM>
<NUMSTATES> 5
<STATE> 2
<MEAN> 39
 6.549259e-01 -1.777397e+00 -1.219896e+00 6.673488e+00 4.126650e+00 3.494946e+00 -7.337543e+00 6.690970e-02 7.221799e-01 -8.413054e+00 -3.315223e+00 1.755027e+00 7.879913e+01 1.823651e+00 3.802532e-01 1.212854e-01 1.711624e-01 8.045851e-02 -1.127659e+00 -1.863883e+00 4.641424e-01 1.746029e-01 -1.869919e+00 -1.056914e+00 -1.932662e-01 1.190097e+00 -6.270386e-01 3.786179e-01 2.450821e-01 2.663693e-02 -3.446092e-02 -2.136291e-02 2.755560e-01 2.244443e-01 1.865291e-01 3.975616e-01 2.835860e-01 -1.089465e-01 -5.576332e-01
<VARIANCE> 39
 3.517876e+01 3.099913e+01 3.770935e+01 4.251741e+01 3.524570e+01 3.531728e+01 7.908068e+01 3.910627e+01 3.273915e+01 5.696170e+01 3.768605e+01 2.213418e+01 3.445012e+01 6.467709e+00 3.662263e+00 2.799618e+00 2.193093e+00 3.747356e+00 3.811455e+00 1.020093e+01 4.029463e+00 2.866578e+00 6.388748e+00 3.862832e+00 3.350391e+00 6.289192e+00 6.240476e-01 7.203208e-01 5.397414e-01 4.578095e-01 5.661342e-01 4.765096e-01 1.494477e+00 5.272914e-01 4.623474e-01 7.991958e-01 4.566357e-01 3.842756e-01 6.514742e-01
<GCONST> 1.307633e+02
<STATE> 3
<MEAN> 39
 3.596130e+00 3.119833e-01 -5.597283e-01 6.739345e+00 3.548943e+00 -4.598141e-01 -1.277818e+01 2.333790e+00 1.748692e+00 -1.459585e+01 -6.064126e+00 1.095340e+00 8.020016e+01 -5.117838e-01 7.613395e-01 2.587090e-02 2.490725e-01 1.205089e-01 2.156244e-02 8.523529e-01 2.733798e-01 -2.197340e-03 6.041855e-01 7.871512e-02 -2.551916e-01 -7.343109e-01 -4.262325e-01 6.236292e-03 3.957477e-02 4.794675e-02 2.144057e-02 3.286149e-01 6.155917e-01 -1.272118e-01 -5.747024e-02 5.677752e-01 2.688903e-01 2.341805e-03 -3.001714e-01
<VARIANCE> 39
 1.828451e+01 2.267017e+01 3.005288e+01 4.342946e+01 3.507575e+01 5.065976e+01 4.037228e+01 4.288510e+01 3.808729e+01 5.793893e+01 2.993701e+01 2.643102e+01 1.540631e+01 1.500171e+00 1.490137e+00 1.833571e+00 1.751909e+00 1.742098e+00 2.986706e+00 5.676967e+00 2.724138e+00 1.662535e+00 3.262088e+00 2.025050e+00 1.768658e+00 1.423960e+00 2.241485e-01 2.842576e-01 2.629210e-01 3.371751e-01 3.753228e-01 3.761658e-01 8.574825e-01 4.282931e-01 3.238407e-01 5.430546e-01 3.955790e-01 3.088942e-01 1.828182e-01
<GCONST> 1.129294e+02
<STATE> 4
<MEAN> 39
 -5.719910e+00 4.432909e+00 8.878767e-01 8.058318e+00 5.175051e+00 4.491392e+00 -1.783625e+00 2.810351e+00 1.781342e+00 -3.606903e+00 -2.519901e+00 -4.029138e-01 7.192229e+01 -1.118942e+00 2.182165e-01 6.898080e-02 4.700067e-02 1.532531e-01 5.387481e-01 1.101191e+00 1.005483e-01 5.926918e-03 9.234915e-01 5.189236e-01 1.060682e-01 -9.305017e-01 1.802272e-01 -2.558925e-01 -1.720250e-02 -1.250988e-01 -8.214375e-02 5.423887e-02 -1.928186e-01 -1.341846e-01 4.156951e-02 -1.102438e-01 -9.670731e-03 -3.222130e-02 2.600766e-01
<VARIANCE> 39
 5.208497e+01 2.353454e+01 1.937808e+01 3.956059e+01 3.537360e+01 4.231773e+01 5.958110e+01 3.139564e+01 3.299353e+01 4.734337e+01 2.488021e+01 1.753189e+01 4.285323e+01 2.283664e+00 2.356728e+00 2.033093e+00 2.716141e+00 1.803497e+00 2.270567e+00 4.696128e+00 2.217718e+00 1.982728e+00 2.747876e+00 1.698823e+00 1.325616e+00 1.738512e+00 4.113163e-01 3.766779e-01 2.767342e-01 4.561114e-01 3.825963e-01 4.182714e-01 7.766123e-01 4.317642e-01 2.926056e-01 4.544216e-01 3.341896e-01 2.367115e-01 3.085275e-01
<GCONST> 1.150802e+02
<TRANSP> 5
 0.000000e+00 1.000000e+00 0.000000e+00 0.000000e+00 0.000000e+00
 0.000000e+00 4.143540e-01 5.856460e-01 0.000000e+00 0.000000e+00
 0.000000e+00 0.000000e+00 6.639314e-01 3.360686e-01 0.000000e+00
 0.000000e+00 0.000000e+00 0.000000e+00 6.191753e-01 3.808247e-01
 0.000000e+00 0.000000e+00 0.000000e+00 0.000000e+00 0.000000e+00
<ENDHMM>
~h "ay"
<BEGINHMM>
<NUMSTATES> 5
<STATE> 2
<MEAN> 39
 -1.261128e+01 -1.907708e+00 -1.141498e+00 5.130462e+00 2.542406e+00 7.854321e+00 3.287339e+00 3.048464e+00 3.826458e+00 1.728022e+00 1.212024e+00 3.490140e+00 6.867179e+01 4.702055e-01 -9.794728e-02 -2.331450e-01 -6.284020e-01 -1.037714e+00 -8.935952e-01 -1.774087e-01 3.513182e-01 -1.767817e-01 -1.286471e-01 4.051847e-01 2.586491e-01 4.355723e-01 5.003130e-01 -3.538840e-01 -2.423396e-01 -2.372181e-01 -1.161718e-01 -1.407809e-01 -3.352475e-01 -2.255894e-01 -2.484410e-02 -2.158459e-01 8.507233e-02 1.450027e-02 6.311179e-01
<VARIANCE> 39
 4.555503e+01 6.819105e+01 3.304826e+01 3.306979e+01 3.434717e+01 4.033457e+01 4.114558e+01 3.505844e+01 3.012830e+01 3.190297e+01 3.205822e+01 2.263344e+01 5.502059e+01 2.159213e+00 6.001848e+00 2.463498e+00 4.907959e+00 4.246155e+00 5.518556e+00 3.646266e+00 3.073082e+00 2.730462e+00 3.387255e+00 3.570322e+00 1.726540e+00 2.503884e+00 6.139989e-01 1.285370e+00 4.874002e-01 1.193653e+00 6.983407e-01 8.707604e-01 7.739272e-01 8.723702e-01 6.515220e-01 9.679685e-01 5.565264e-01 3.750974e-01 8.397730e-01
<GCONST> 1.304008e+02
<STATE> 3
<MEAN> 39
 -6.889914e+00 -2.471938e+00 -1.910318e+00 3.682055e+00 -8.003027e-01 3.996079e+00 1.950525e+00 1.653399e+00 1.666314e+00 -6.975723e-03 3.530538e+00 2.655723e+00 7.506479e+01 3.771659e+00 -1.999321e+00 -1.353786e+00 -1.898100e+00 -2.200345e+00 -1.389435e+00 -1.702072e+00 -1.275110e+00 -4.297546e-01 -1.128662e+00 5.352771e-01 -1.964657e-01 4.225749e+00 4.378663e-01 2.172497e-01 -6.202230e-02 -1.731263e-01 4.178329e-01 3.602359e-01 -6.656904e-01 -3.819439e-01 1.377842e-01 -9.713914e-02 6.095817e-02 1.104588e-01 3.582180e-01
<VARIANCE> 39
 6.853252e+01 5.050809e+01 2.651802e+01 3.543290e+01 4.049370e+01 2.934451e+01 3.824377e+01 3.549593e+01 2.151213e+01 3.919472e+01 1.877738e+01 1.880887e+01 8.764739e+01 4.051987e+00 6.002760e+00 3.072690e+00 3.767268e+00 3.471745e+00 3.087343e+00 4.712161e+00 5.367498e+00 2.704285e+00 5.701998e+00 3.516579e+00 4.032046e+00 5.281660e+00 1.071544e+00 1.341658e+00 4.968571e-01 7.174405e-01 1.062238e+00 6.576860e-01 4.999356e-01 5.723952e-01 5.683805e-01 5.936888e-01 4.179700e-01 3.993085e-01 1.414234e+00
<GCONST> 1.315292e+02
<STATE> 4
<MEAN> 39
 3.685824e+00 -3.755738e+00 -1.820195e+00 9.378064e-01 2.704792e+00 3.830110e+00 -1.401004e+01 -4.689840e+00 3.296339e+00 -5.913297e+00 3.677404e+00 4.808322e+00 8.554314e+01 3.056103e-02 1.436801e-01 5.832828e-01 7.646707e-01 9.534380e-01 2.056178e-01 -1.234687e+00 -7.056120e-01 2.197942e-01 -4.133087e-01 -2.818514e-01 3.583387e-02 1.593921e-02 -3.213500e-01 1.544475e-01 1.046618e-01 2.501278e-01 1.266387e-01 1.235265e-01 3.759404e-01 1.290665e-01 -2.383628e-02 1.608425e-01 -1.231491e-01 -9.681430e-02 -3.996835e-01
<VARIANCE> 39
 8.821524e+00 1.945954e+01 3.823940e+01 6.410601e+01 4.445638e+01 3.312218e+01 7.779263e+01 4.968501e+01 3.318820e+01 4.186896e+01 3.018581e+01 2.265431e+01 9.110349e+00 1.429915e+00 1.593795e+00 2.413016e+00 3.797507e+00 2.054078e+00 1.886870e+00 4.607525e+00 2.310783e+00 2.576237e+00 2.601081e+00 2.455111e+00 2.179977e+00 1.961148e+00 2.814049e-01 3.361403e-01 3.874443e-01 4.612375e-01 4.691072e-01 3.477619e-01 6.753332e-01 5.301943e-01 5.637617e-01 5.096396e-01 5.027403e-01 3.585046e-01 3.212750e-01
<GCONST> 1.161512e+02
<TRANSP> 5
 0.000000e+00 1.000000e+00 0.000000e+00 0.000000e+00 0.000000e+00
 0.000000e+00 5.619656e-01 4.380344e-01 0.000000e+00 0.000000e+00
 0.000000e+00 0.000000e+00 5.360888e-01 4.639113e-01 0.000000e+00
 0.000000e+00 0.000000e+00 0.000000e+00 9.027302e-01 9.726982e-02
 0.000000e+00 0.000000e+00 0.000000e+00 0.000000e+00 0.000000e+00
<ENDHMM>
~h "ch"
<BEGINHMM>
<NUMSTATES> 5
<STATE> 2
<MEAN> 39
 -1.160886e+01 -1.067493e+01 -3.693838e-01 8.382154e+00 -1.402313e+00 1.174028e+00 5.994356e-01 2.694866e+00 4.925795e+00 1.277280e+00 9.199172e-01 1.648560e+00 7.308641e+01 1.722854e-01 -3.397282e+00 2.917241e-01 5.746571e-01 -6.668208e-01 -8.542415e-01 -2.002663e-01 -1.893920e-01 5.976368e-01 -1.975189e-01 -7.788190e-02 -8.717474e-01 2.333217e+00 2.005470e-01 1.197675e-02 3.519917e-01 5.599131e-02 1.692640e-01 1.149607e-01 -2.482555e-01 -1.998865e-01 -2.254896e-01 -3.437917e-01 -8.347168e-02 1.833682e-02 2.953825e-01
<VARIANCE> 39
 1.344050e+01 1.463779e+02 3.063243e+01 2.134953e+01 2.967835e+01 4.520696e+01 2.595793e+01 2.820623e+01 1.924595e+01 2.563015e+01 1.386177e+01 2.567641e+01 7.445610e+01 2.433075e+00 1.384344e+01 5.630969e+00 2.824656e+00 3.007415e+00 5.236697e+00 3.793198e+00 4.204070e+00 2.734025e+00 2.973949e+00 1.862178e+00 2.102074e+00 7.868298e+00 4.502027e-01 3.587106e+00 8.433299e-01 4.272352e-01 6.404194e-01 1.314772e+00 8.527975e-01 9.228905e-01 5.854775e-01 4.402066e-01 3.576669e-01 4.409743e-01 1.741334e+00
<GCONST> 1.296602e+02
<STATE> 3
<MEAN> 39
 -8.598437e+00 -2.282689e+01 3.456017e+00 1.056241e+01 -1.242007e+00 1.095416e+00 -3.017330e+00 -1.992143e+00 3.054035e+00 -3.456023e+00 -1.927137e-01 -9.872122e-01 8.412092e+01 2.087035e+00 2.533535e+00 -4.934034e-01 -1.314570e-01 9.826983e-01 9.151607e-01 -1.542810e+00 -1.014317e+00 -1.351897e+00 -1.173159e+00 -1.106874e+00 4.327508e-01 -3.963807e-01 4.798246e-01 1.311876e+00 -6.761004e-01 -2.488040e-01 -4.677616e-03 -5.082226e-02 -2.957576e-01 2.929071e-01 2.237626e-01 9.855433e-02 -2.694536e-01 1.852866e-01 -7.112988e-01
<VARIANCE> 39
 2.923372e+01 5.802724e+01 1.501708e+01 1.087394e+01 1.201196e+01 2.763173e+01 2.832600e+01 2.365627e+01 2.904272e+01 2.238337e+01 2.052961e+01 1.582273e+01 7.327690e+00 3.353907e+00 8.647594e+00 1.701268e+00 1.439250e+00 1.641492e+00 2.153698e+00 7.022887e+00 2.853339e+00 2.053981e+00 1.726325e+00 1.735408e+00 1.133244e+00 1.548157e+00 6.133588e-01 1.704459e+00 4.733340e-01 3.425583e-01 3.869304e-01 6.278906e-01 1.009933e+00 5.318561e-01 6.242063e-01 3.009805e-01 3.014455e-01 2.031291e-01 4.591675e-01
<GCONST> 1.126212e+02
<STATE> 4
<MEAN> 39
 -5.176632e+00 -7.232957e+00 -3.727099e-01 1.275757e+01 3.387386e+00 3.543737e+00 -6.328576e+00 -3.845929e+00 1.326706e+00 -3.725312e+00 -4.032106e+00 7.996315e-01 7.511362e+01 -1.780093e-01 1.919385e+00 -2.967694e-01 -5.219295e-02 6.402248e-01 1.307581e-02 -1.597009e-01 3.395984e-01 4.498011e-01 5.018100e-01 -1.408988e-01 1.827917e-01 -1.246841e+00 -2.921004e-01 -3.390996e-01 1.152756e-01 -1.130039e-01 -6.488395e-02 -1.043318e-01 1.973448e-01 1.861563e-01 1.513627e-01 1.575500e-01 2.080928e-01 -9.557456e-02 9.595239e-02
<VARIANCE> 39
 4.634552e+01 6.666147e+01 2.247934e+01 2.236597e+01 3.318385e+01 2.894885e+01 8.443450e+01 2.300417e+01 1.271457e+01 3.116006e+01 1.556834e+01 9.621702e+00 4.804669e+01 3.882169e+00 3.412823e+00 2.206390e+00 1.695742e+00 1.357010e+00 1.782877e+00 6.469707e+00 2.035999e+00 2.087945e+00 2.731738e+00 1.697615e+00 9.450637e-01 1.555283e+00 4.022421e-01 6.350586e-01 2.729971e-01 2.081233e-01 2.205670e-01 2.955265e-01 9.557074e-01 3.486458e-01 4.650661e-01 4.315769e-01 3.504089e-01 1.401158e-01 2.403271e-01
<GCONST> 1.111484e+02
<TRANSP> 5
 0.000000e+00 1.000000e+00 0.000000e+00 0.000000e+00 0.000000e+00
 0.000000e+00 8.528191e-01 1.471809e-01 0.000000e+00 0.000000e+00
 0.000000e+00 0.000000e+00 7.240932e-01 2.759068e-01 0.000000e+00
 0.000000e+00 0.000000e+00 0.000000e+00 7.942197e-01 2.057803e-01
 0.000000e+00 0.000000e+00 0.000000e+00 0.000000e+00 0.000000e+00
<ENDHMM>
~h "dh"
<BEGINHMM>
<NUMSTATES> 5
<STATE> 2
<MEAN> 39
 -1.071877e+01 5.352397e+00 3.204237e+00 9.738176e+00 6.874873e+00 7.928004e+00 1.901289e+00 1.410426e+00 1.542078e+00 -4.488920e-02 3.855426e-01 1.850806e+00 6.785300e+01 -2.725241e-01 3.586092e-01 2.722630e-01 5.084475e-01 7.352117e-02 1.973363e-01 1.044780e+00 5.163100e-01 -1.937979e-01 3.006385e-01 1.867609e-01 -1.595278e-01 -3.238197e-01 1.738778e-01 -5.228385e-01 -4.234549e-02 -1.611049e-01 -2.953281e-01 -1.058224e-01 -2.450704e-01 -1.268204e-01 2.633920e-02 -1.148602e-01 4.209418e-02 -7.832329e-02 4.353393e-01
<VARIANCE> 39
 2.830919e+01 3.784634e+01 2.132293e+01 2.053306e+01 2.088575e+01 1.338238e+01 3.779488e+01 2.794963e+01 1.996752e+01 2.134187e+01 1.505558e+01 1.542607e+01 2.955672e+01 1.831747e+00 3.277133e+00 1.893340e+00 1.517659e+00 1.809124e+00 1.348260e+00 4.118032e+00 2.201554e+00 1.484789e+00 2.123566e+00 1.776168e+00 1.477381e+00 1.915147e+00 2.449500e-01 7.027101e-01 3.050945e-01 2.874292e-01 3.518562e-01 3.358457e-01 6.618668e-01 4.381337e-01 2.708684e-01 3.482161e-01 3.049562e-01 2.810328e-01 4.034302e-01
<GCONST> 1.076344e+02
<STATE> 3
<MEAN> 39
 -8.616707e+00 -6.590896e-01 4.457930e+00 1.033514e+01 2.628220e+00 7.748489e+00 4.343233e+00 1.855628e+00 1.474549e+00 2.831274e-01 1.437590e+00 -7.132117e-01 7.365691e+01 1.604186e+00 -3.169599e+00 5.377452e-02 -7.991074e-01 -1.772700e+00 -7.737306e-01 -1.974983e+00 -1.655266e+00 -2.049681e-01 -9.358420e-01 3.280521e-01 -4.660849e-01 3.217327e+00 7.380175e-01 1.962312e-01 1.053251e-02 -1.209426e-01 5.108546e-01 -3.577891e-02 -1.501897e+00 -7.035642e-01 -4.893782e-02 -8.388807e-01 -2.666826e-01 2.768407e-01 4.699534e-01
<VARIANCE> 39
 1.690510e+01 7.165240e+01 2.416113e+01 2.881510e+01 4.228815e+01 2.485974e+01 2.775276e+01 2.608955e+01 1.505503e+01 1.544300e+01 1.921635e+01 1.402282e+01 4.574234e+01 2.031141e+00 4.271937e+00 3.004025e+00 3.566596e+00 4.179856e+00 2.248296e+00 5.791001e+00 3.064943e+00 1.754215e+00 2.985272e+00 2.098453e+00 1.964131e+00 2.393220e+00 2.537978e-01 1.332585e+00 5.769839e-01 7.451354e-01 1.030780e+00 6.369314e-01 8.347295e-01 6.179770e-01 4.100763e-01 4.992369e-01 5.816962e-01 4.190914e-01 8.026136e-01
<GCONST> 1.210985e+02
<STATE> 4
<MEAN> 39
 -1.135563e-01 -4.179846e+00 6.266244e+00 9.573912e+00 4.572717e+00 7.357687e+00 -1.132180e+01 -8.419661e+00 4.473431e-01 -7.594603e+00 -3.146006e-01 -2.186900e-01 8.306789e+01 1.631653e+00 3.591900e-02 -2.525970e-01 -2.780573e-01 1.026026e+00 -2.398416e-01 -3.551732e+00 -9.928686e-01 3.946346e-02 -2.138953e+00 -6.588035e-01 8.413827e-01 1.197471e+00 -4.217723e-01 6.011877e-01 -3.363440e-01 1.194857e-02 2.309920e-01 -1.035658e-01 6.660632e-01 7.781253e-01 1.117535e-01 2.872683e-01 7.779610e-02 1.762401e-01 -7.169390e-01
<VARIANCE> 39
 1.180593e+01 1.712604e+01 2.098707e+01 3.813066e+01 3.099403e+01 1.448068e+01 5.612502e+01 3.016189e+01 2.854165e+01 3.480813e+01 2.131587e+01 2.497904e+01 1.104805e+01 2.083484e+00 2.518486e+00 1.861992e+00 2.555344e+00 3.136797e+00 2.437155e+00 8.164915e+00 4.435236e+00 2.370361e+00 4.183858e+00 2.884705e+00 2.185003e+00 2.729591e+00 1.573740e-01 6.094760e-01 2.607122e-01 2.583207e-01 8.014849e-01 3.336461e-01 1.061091e+00 4.611329e-01 3.165287e-01 5.343007e-01 3.054704e-01 4.325379e-01 2.279975e-01
<GCONST> 1.144181e+02
<TRANSP> 5
 0.000000e+00 1.000000e+00 0.000000e+00 0.000000e+00 0.000000e+00
 0.000000e+00 8.098744e-01 1.901256e-01 0.000000e+00 0.000000e+00
 0.000000e+00 0.000000e+00 6.557763e-01 3.442236e-01 0.000000e+00
 0.000000e+00 0.000000e+00 0.000000e+00 6.732247e-01 3.267753e-01
 0.000000e+00 0.000000e+00 0.000000e+00 0.000000e+00 0.000000e+00
<ENDHMM>
~h "ea"
<BEGINHMM>
<NUMSTATES> 5
<STATE> 2
<MEAN> 39
 -7.391330e+00 -2.793995e-01 2.593855e-01 6.215729e+00 3.197216e+00 4.507828e+00 -2.881577e+00 1.071307e+00 3.293610e+00 -1.702413e+00 2.116229e-01 1.528084e+00 7.316100e+01 -8.549295e-03 6.045978e-03 9.986501e-03 -5.830497e-03 -9.514267e-03 -1.506619e-03 -1.506659e-03 -3.180315e-03 6.676455e-03 -5.438070e-03 4.050421e-03 -4.468870e-03 -5.404587e-04 -3.875157e-05 3.997293e-04 3.423740e-04 6.946201e-05 -2.319832e-04 -6.938387e-04 -4.412478e-05 -4.860927e-04 1.315680e-03 -9.365405e-04 -4.231212e-04 2.471485e-04 -2.932212e-04
<VARIANCE> 39
 8.975014e+01 5.484237e+01 3.303328e+01 4.558641e+01 4.748297e+01 5.002078e+01 9.481474e+01 4.729189e+01 3.321279e+01 5.181567e+01 3.966083e+01 2.784256e+01 7.606396e+01 2.211436e+00 2.785441e+00 1.626260e+00 1.902343e+00 2.248548e+00 2.452049e+00 4.360876e+00 2.359010e+00 2.040265e+00 2.571942e+00 1.964578e+00 1.676181e+00 2.222835e+00 2.912704e-01 4.665184e-01 2.795431e-01 3.127733e-01 3.728060e-01 3.948886e-01 6.864723e-01 4.205315e-01 3.711796e-01 4.366302e-01 3.409353e-01 2.969837e-01 3.289974e-01
<GCONST> 1.202872e+02
<STATE> 3
<MEAN> 39
 -7.391330e+00 -2.793995e-01 2.593855e-01 6.215729e+00 3.197216e+00 4.507828e+00 -2.881577e+00 1.071307e+00 3.293610e+00 -1.702413e+00 2.116229e-01 1.528084e+00 7.316100e+01 -8.549295e-03 6.045978e-03 9.986501e-03 -5.830497e-03 -9.514267e-03 -1.506619e-03 -1.506659e-03 -3.180315e-03 6.676455e-03 -5.438070e-03 4.050421e-03 -4.468870e-03 -5.404587e-04 -3.875157e-05 3.997293e-04 3.423740e-04 6.946201e-05 -2.319832e-04 -6.938387e-04 -4.412478e-05 -4.860927e-04 1.315680e-03 -9.365405e-04 -4.231212e-04 2.471485e-04 -2.932212e-04
<VARIANCE> 39
 8.975014e+01 5.484237e+01 3.303328e+01 4.558641e+01 4.748297e+01 5.002078e+01 9.481474e+01 4.729189e+01 3.321279e+01 5.181567e+01 3.966083e+01 2.784256e+01 7.606396e+01 2.211436e+00 2.785441e+00 1.626260e+00 1.902343e+00 2.248548e+00 2.452049e+00 4.360876e+00 2.359010e+00 2.040265e+00 2.571942e+00 1.964578e+00 1.676181e+00 2.222835e+00 2.912704e-01 4.665184e-01 2.795431e-01 3.127733e-01 3.728060e-01 3.948886e-01 6.864723e-01 4.205315e-01 3.711796e-01 4.366302e-01 3.409353e-01 2.969837e-01 3.289974e-01
<GCONST> 1.202872e+02
<STATE> 4
<MEAN> 39
 -7.391330e+00 -2.793995e-01 2.593855e-01 6.215729e+00 3.197216e+00 4.507828e+00 -2.881577e+00 1.071307e+00 3.293610e+00 -1.702413e+00 2.116229e-01 1.528084e+00 7.316100e+01 -8.549295e-03 6.045978e-03 9.986501e-03 -5.830497e-03 -9.514267e-03 -1.506619e-03 -1.506659e-03 -3.180315e-03 6.676455e-03 -5.438070e-03 4.050421e-03 -4.468870e-03 -5.404587e-04 -3.875157e-05 3.997293e-04 3.423740e-04 6.946201e-05 -2.319832e-04 -6.938387e-04 -4.412478e-05 -4.860927e-04 1.315680e-03 -9.365405e-04 -4.231212e-04 2.471485e-04 -2.932212e-04
<VARIANCE> 39
 8.975014e+01 5.484237e+01 3.303328e+01 4.558641e+01 4.748297e+01 5.002078e+01 9.481474e+01 4.729189e+01 3.321279e+01 5.181567e+01 3.966083e+01 2.784256e+01 7.606396e+01 2.211436e+00 2.785441e+00 1.626260e+00 1.902343e+00 2.248548e+00 2.452049e+00 4.360876e+00 2.359010e+00 2.040265e+00 2.571942e+00 1.964578e+00 1.676181e+00 2.222835e+00 2.912704e-01 4.665184e-01 2.795431e-01 3.127733e-01 3.728060e-01 3.948886e-01 6.864723e-01 4.205315e-01 3.711796e-01 4.366302e-01 3.409353e-01 2.969837e-01 3.289974e-01
<GCONST> 1.202872e+02
<TRANSP> 5
 0.000000e+00 1.000000e+00 0.000000e+00 0.000000e+00 0.000000e+00
 0.000000e+00 6.000000e-01 4.000000e-01 0.000000e+00 0.000000e+00
 0.000000e+00 0.000000e+00 6.000000e-01 4.000000e-01 0.000000e+00
 0.000000e+00 0.000000e+00 0.000000e+00 7.000000e-01 3.000000e-01
 0.000000e+00 0.000000e+00 0.000000e+00 0.000000e+00 0.000000e+00
<ENDHMM>
~h "eh"
<BEGINHMM>
<NUMSTATES> 5
<STATE> 2
<MEAN> 39
 3.323095e+00 -3.480332e+00 4.759510e-01 3.773269e+00 5.188884e+00 4.849717e+00 -1.586588e+01 -5.936991e+00 -1.996676e+00 -1.263206e+01 2.421595e+00 4.334843e+00 8.480213e+01 9.697262e-01 1.912335e-01 -1.090250e+00 -1.070079e+00 5.551696e-01 -7.496454e-01 -2.548694e+00 -2.400698e-01 1.368408e-01 -8.881784e-01 8.822953e-01 1.525340e+00 6.625270e-01 -5.649753e-01 7.049404e-03 6.426621e-03 1.883441e-01 -1.213105e-01 4.558800e-02 1.043242e+00 5.452959e-01 2.258475e-01 6.893229e-01 1.791124e-02 -1.516086e-01 -5.096059e-01
<VARIANCE> 39
 8.930913e+00 1.634188e+01 3.117191e+01 1.882953e+01 3.765011e+01 2.962077e+01 5.963400e+01 3.940516e+01 3.019874e+01 2.317173e+01 2.571303e+01 1.709412e+01 7.315726e+00 1.400260e+00 2.359764e+00 1.285697e+00 1.104809e+00 2.312000e+00 2.167416e+00 4.925758e+00 4.010481e+00 2.584002e+00 3.482993e+00 1.605578e+00 1.715445e+00 1.238756e+00 1.428967e-01 5.004336e-01 2.590475e-01 2.901215e-01 4.427891e-01 4.183711e-01 8.578448e-01 7.000675e-01 5.344743e-01 3.904795e-01 2.802244e-01 3.328846e-01 1.660298e-01
<GCONST> 1.088499e+02
<STATE> 3
<MEAN> 39
 3.911314e+00 -1.830549e+00 -1.822139e+00 1.508335e+00 5.273591e+00 5.481873e+00 -1.657205e+01 -5.265766e+00 -1.868102e-01 -1.180274e+01 3.280235e+00 6.815718e+00 8.385942e+01 -1.859803e-01 6.904402e-01 -2.094459e-01 2.669380e-01 2.678148e-01 5.527786e-01 1.032495e+00 7.104621e-02 1.983046e-01 5.406913e-01 -4.454672e-01 -3.188687e-01 -7.754959e-01 -2.340094e-01 2.062123e-01 2.385119e-01 3.313707e-01 1.528362e-01 3.529418e-01 5.521806e-01 -6.810710e-02 1.363724e-02 2.576504e-01 -3.392989e-01 -5.175856e-01 -3.313490e-01
<VARIANCE> 39
 8.106578e+00 1.438890e+01 3.127385e+01 1.905332e+01 4.803653e+01 3.950577e+01 4.758389e+01 3.192924e+01 2.978004e+01 3.835801e+01 3.857453e+01 2.449574e+01 1.254363e+01 5.336796e-01 1.398688e+00 1.099280e+00 1.458737e+00 1.439709e+00 2.596230e+00 3.750818e+00 2.883580e+00 2.235741e+00 2.517140e+00 3.068966e+00 2.665528e+00 9.566646e-01 1.189971e-01 2.190265e-01 2.253577e-01 2.162279e-01 3.161965e-01 4.162753e-01 6.487275e-01 5.458614e-01 4.289202e-01 6.017969e-01 5.382749e-01 4.453116e-01 1.120016e-01
<GCONST> 1.070798e+02
<STATE> 4
<MEAN> 39
 3.473503e-01 6.032235e+00 2.397409e+00 6.086224e+00 2.025130e+00 3.323170e+00 -7.054776e+00 -9.011286e-01 5.023923e+00 -3.107349e+00 -3.967082e+00 -1.963227e+00 7.626583e+01 -7.718447e-01 5.869199e-01 4.002076e-01 5.203877e-01 4.107201e-01 5.350943e-01 1.142061e+00 2.586507e-01 1.216064e-01 8.442293e-01 -2.596334e-01 -7.626090e-01 -9.661686e-01 -1.101784e-01 -1.738811e-01 5.027854e-02 -4.653757e-02 -5.955352e-03 8.561670e-02 -5.358083e-02 -5.168783e-02 5.046593e-02 6.719734e-02 7.400867e-02 4.653407e-02 3.628286e-02
<VARIANCE> 39
 2.671625e+01 3.320006e+01 2.711032e+01 1.957000e+01 7.878253e+01 9.614631e+01 5.528646e+01 4.099069e+01 5.228548e+01 5.548696e+01 5.706594e+01 4.017505e+01 2.726551e+01 2.255561e+00 1.771606e+00 1.340384e+00 1.902459e+00 3.278085e+00 4.753997e+00 4.356963e+00 2.813019e+00 2.646856e+00 4.215074e+00 3.938076e+00 3.444767e+00 2.388077e+00 2.328953e-01 3.740690e-01 2.424548e-01 3.189330e-01 3.240672e-01 4.800771e-01 4.664933e-01 3.611895e-01 4.348956e-01 4.950806e-01 4.310930e-01 3.245327e-01 2.104344e-01
<GCONST> 1.201743e+02
<TRANSP> 5
 0.000000e+00 1.000000e+00 0.000000e+00 0.000000e+00 0.000000e+00
 0.000000e+00 6.527960e-01 3.472041e-01 0.000000e+00 0.000000e+00
 0.000000e+00 0.000000e+00 7.902444e-01 2.097556e-01 0.000000e+00
 0.000000e+00 0.000000e+00 0.000000e+00 6.924286e-01 3.075713e-01
 0.000000e+00 0.000000e+00 0.000000e+00 0.000000e+00 0.000000e+00
<ENDHMM>
~h "er"
<BEGINHMM>
<NUMSTATES> 5
<STATE> 2
<MEAN> 39
