~o
<STREAMINFO> 1 39
<VECSIZE> 39<NULLD><MFCC_D_A_0><DIAGC>
~s "silst"
<MEAN> 39
 -1.695169e+01 -4.012564e-01 -2.883673e+00 4.290776e+00 2.047409e+00 5.360835e+00 3.970325e+00 5.080418e+00 3.788184e+00 3.299722e+00 3.970333e+00 4.897135e+00 6.420122e+01 -1.402719e-01 -3.827249e-01 2.957385e-01 1.970835e-02 -3.393757e-01 -7.047980e-02 -2.469768e-01 -6.704002e-02 3.351393e-01 -2.435870e-01 2.066534e-01 -1.787511e-01 3.847299e-01 -1.906177e-02 -9.539055e-02 1.063114e-01 -2.653233e-02 -9.897067e-02 -2.371144e-02 -9.779155e-02 -5.658839e-02 1.237600e-01 -1.039149e-01 4.076512e-02 -1.867419e-02 1.331332e-01
<VARIANCE> 39
 6.644714e+00 1.436618e+01 1.603068e+01 1.559019e+01 1.511107e+01 1.201964e+01 1.424187e+01 1.325505e+01 1.192733e+01 1.202031e+01 1.008406e+01 1.002554e+01 8.521028e+00 6.318853e-01 1.475878e+00 1.485543e+00 1.418191e+00 2.182058e+00 1.319401e+00 1.712946e+00 1.441592e+00 1.841498e+00 1.435467e+00 1.375098e+00 1.076989e+00 8.336431e-01 1.068826e-01 2.810644e-01 2.483940e-01 2.307152e-01 3.265061e-01 2.512965e-01 3.046743e-01 2.769426e-01 3.169286e-01 2.509052e-01 2.299993e-01 2.073706e-01 1.336984e-01
<GCONST> 8.881901e+01
~h "b"
<BEGINHMM>
<NUMSTATES> 5
<STATE> 2
<MEAN> 39
 -1.933069e+00 7.902657e+00 4.116792e+00 7.654781e+00 1.615204e+00 1.753175e+00 -3.508139e+00 2.469121e+00 5.349761e+00 -2.032238e-01 -3.726969e+00 -3.379641e+00 7.417609e+01 -1.492346e+00 1.870361e+00 5.462611e-01 8.637941e-01 1.023310e+00 7.714983e-01 2.081504e+00 1.029915e+00 -2.576545e-02 1.314007e+00 9.294781e-01 2.094378e-01 -1.981819e+00 -2.217876e-01 -1.866448e-01 1.029701e-01 8.440575e-02 1.661499e-01 2.284628e-01 1.702768e-01 3.630117e-02 -1.654330e-01 -2.280280e-01 1.255417e-01 1.531920e-01 -4.459658e-02
<VARIANCE> 39
 3.809061e+01 3.184733e+01 1.494449e+01 4.449216e+01 7.340691e+01 1.057011e+02 5.162821e+01 6.657502e+01 1.590524e+01 2.065214e+01 2.002443e+01 1.848631e+01 1.976564e+01 1.680307e+00 2.526699e+00 1.860649e+00 2.163855e+00 1.548533e+00 6.368296e+00 3.272767e+00 2.930402e+00 9.116070e-01 2.738960e+00 2.290195e+00 1.558720e+00 1.296059e+00 1.440917e-01 3.825819e-01 3.228624e-01 3.022161e-01 3.976197e-01 4.645175e-01 4.541547e-01 4.274284e-01 1.950515e-01 2.152786e-01 2.062535e-01 2.948909e-01 1.127981e-01
<GCONST> 1.101984e+02
<STATE> 3
<MEAN> 39
 -8.223956e+00 9.971415e+00 3.562949e+00 8.283266e+00 5.214214e+00 5.289247e+00 2.796274e+00 5.450058e+00 5.033737e+00 2.074572e+00 -7.987417e-01 -1.353777e+00 6.843707e+01 -1.188354e+00 6.280596e-01 8.200123e-01 7.298467e-01 7.524648e-01 8.163859e-01 1.336016e+00 3.779474e-01 -3.037902e-01 5.177082e-01 7.005034e-01 1.077197e-01 -1.052173e+00 4.381040e-01 -3.179838e-01 -2.404336e-02 -5.854410e-02 -2.165330e-01 -3.103240e-01 -5.570974e-01 -2.217256e-01 -8.491511e-02 -4.986375e-01 -3.216598e-01 -7.677601e-02 4.880774e-01
<VARIANCE> 39
 3.222773e+01 1.994599e+01 1.226546e+01 1.352726e+01 1.299768e+01 1.575359e+01 9.307581e+00 1.386427e+01 9.519481e+00 1.155091e+01 1.108541e+01 1.073401e+01 9.720396e+00 1.924034e+00 2.353994e+00 1.438938e+00 1.922075e+00 2.564801e+00 3.732529e+00 2.347638e+00 2.140990e+00 1.016105e+00 1.603735e+00 1.564123e+00 1.371948e+00 1.060557e+00 1.011425e-01 4.078099e-01 2.095154e-01 1.830783e-01 3.250295e-01 5.189260e-01 3.167151e-01 3.640320e-01 1.864118e-01 2.936187e-01 2.241653e-01 1.559133e-01 9.197211e-02
<GCONST> 9.386765e+01
<STATE> 4
<MEAN> 39
 -8.693926e+00 1.246007e+01 7.939072e+00 1.221315e+01 7.880567e+00 8.552635e+00 6.183476e+00 5.986888e+00 3.069290e+00 8.836206e-01 -6.195542e-01 -1.264381e+00 6.786153e+01 3.624726e-01 -4.086590e-01 -1.411743e-01 -6.256221e-02 -3.137211e-01 -1.027127e-01 -1.121015e-01 -2.633333e-01 -2.082861e-01 -2.060947e-01 -3.600078e-02 2.393205e-02 4.437640e-01 3.884967e-01 -4.381498e-01 -2.977512e-01 -2.240734e-01 -2.870197e-01 -2.859134e-01 -4.772600e-01 -2.642765e-01 -1.969613e-02 -1.607879e-01 -1.018738e-01 1.643343e-02 4.529052e-01
<VARIANCE> 39
 6.412831e+00 6.338890e+00 4.906872e+00 6.404065e+00 8.257702e+00 1.154585e+01 8.708591e+00 7.216975e+00 7.461871e+00 1.156392e+01 1.350850e+01 1.067661e+01 5.313777e+00 1.218764e+00 2.835886e+00 9.316615e-01 7.216411e-01 1.798066e+00 1.309758e+00 1.556153e+00 1.428013e+00 9.534584e-01 1.172114e+00 9.225975e-01 7.457609e-01 1.473786e+00 1.919286e-01 2.660392e-01 1.103527e-01 1.310848e-01 2.760796e-01 3.330233e-01 4.066987e-01 3.076847e-01 1.605523e-01 2.488580e-01 2.122025e-01 1.472390e-01 2.024594e-01
<GCONST> 8.129184e+01
<TRANSP> 5
 0.000000e+00 1.000000e+00 0.000000e+00 0.000000e+00 0.000000e+00
 0.000000e+00 3.694959e-01 6.305041e-01 0.000000e+00 0.000000e+00
 0.000000e+00 0.000000e+00 5.877108e-01 4.122892e-01 0.000000e+00
 0.000000e+00 0.000000e+00 0.000000e+00 8.524213e-01 1.475787e-01
 0.000000e+00 0.000000e+00 0.000000e+00 0.000000e+00 0.000000e+00
<ENDHMM>
~h "d"
<BEGINHMM>
<NUMSTATES> 5
<STATE> 2
<MEAN> 39
 -1.241755e+00 5.412363e-01 -3.070911e+00 6.111352e+00 7.517289e+00 7.289201e+00 -5.452492e+00 -3.288809e+00 -5.946214e-01 -4.426541e+00 -1.175380e+00 6.449740e-01 7.644276e+01 3.231761e-01 -3.527954e-01 6.081607e-03 -5.557343e-02 -3.068109e-01 -1.107829e-01 -2.020532e-01 -4.389568e-01 -5.234911e-01 -5.378870e-01 -2.822247e-01 4.130966e-01 3.793973e-01 -2.771621e-01 2.757990e-01 3.032506e-01 1.479719e-01 -1.029950e-01 -9.212977e-02 3.007428e-01 3.912055e-01 2.133538e-01 1.468874e-01 3.731679e-04 3.466205e-02 -2.991093e-01
<VARIANCE> 39
 4.232023e+01 3.983552e+01 4.046874e+01 6.217834e+01 4.780714e+01 4.330291e+01 9.916970e+01 6.011506e+01 5.294576e+01 4.371843e+01 3.329308e+01 2.752666e+01 3.648793e+01 4.500185e+00 6.220752e+00 3.674057e+00 3.022409e+00 2.654243e+00 5.622195e+00 1.496984e+01 4.600367e+00 3.819621e+00 5.324789e+00 2.967706e+00 2.195506e+00 6.259311e+00 5.929468e-01 8.451232e-01 6.959467e-01 5.930468e-01 5.272985e-01 8.096935e-01 1.741503e+00 9.773514e-01 8.799454e-01 9.575449e-01 6.064783e-01 4.462669e-01 7.257822e-01
<GCONST> 1.371321e+02
<STATE> 3
<MEAN> 39
 -1.710415e+00 3.369294e+00 -1.246336e+00 7.487797e+00 9.244227e+00 9.774929e+00 -4.035732e+00 -3.544874e+00 -1.096355e+00 -4.869517e+00 -2.566531e+00 1.272944e+00 7.467272e+01 -1.588470e+00 7.368939e-01 8.321936e-01 6.731046e-01 -2.298087e-01 2.690579e-01 2.444937e+00 1.445879e+00 -3.548665e-02 1.019206e+00 5.390878e-01 4.834527e-01 -1.546172e+00 -7.964242e-02 -1.965595e-01 6.358773e-02 3.688382e-02 -1.754490e-01 -3.568274e-01 -2.014960e-01 1.161091e-01 1.628580e-01 2.506392e-02 1.794252e-01 -1.068208e-02 8.755767e-02
<VARIANCE> 39
 2.781788e+01 2.942817e+01 2.371832e+01 3.441153e+01 5.138383e+01 3.393774e+01 8.602245e+01 4.396324e+01 4.137005e+01 3.278675e+01 2.616154e+01 2.798246e+01 2.677766e+01 1.970880e+00 2.633035e+00 1.870434e+00 3.076685e+00 3.727091e+00 3.458854e+00 7.129834e+00 2.671766e+00 3.680903e+00 4.519630e+00 3.440122e+00 2.376164e+00 2.146124e+00 2.060676e-01 5.073776e-01 2.730597e-01 3.416620e-01 6.587548e-01 5.298917e-01 1.371869e+00 4.546778e-01 4.363243e-01 8.179247e-01 3.897320e-01 4.112807e-01 4.106928e-01
<GCONST> 1.225582e+02
<STATE> 4
<MEAN> 39
 -8.273906e+00 6.375856e+00 9.644446e-01 9.068307e+00 9.538248e+00 9.408291e+00 1.226789e+00 -6.060795e-01 -9.889274e-01 -2.199848e-01 1.106438e+00 2.813133e+00 6.873783e+01 -7.497954e-01 -1.661374e-01 3.176315e-01 1.794730e-01 -4.259638e-01 -4.236678e-01 4.859219e-01 6.211282e-01 1.852412e-01 1.941054e-01 2.273859e-01 1.568723e-01 -4.356366e-01 3.687132e-01 -4.167438e-01 -2.261542e-01 -1.409223e-01 -2.298701e-01 -3.181641e-01 -4.957015e-01 -1.781657e-01 5.368200e-02 -2.431935e-01 -1.122410e-01 -1.151543e-01 4.639535e-01
<VARIANCE> 39
 3.111855e+01 2.040578e+01 1.364827e+01 2.160019e+01 3.905447e+01 2.404601e+01 4.359277e+01 2.176241e+01 2.210087e+01 2.634318e+01 2.541194e+01 1.684090e+01 2.500556e+01 1.117857e+00 1.948138e+00 1.369857e+00 1.754312e+00 2.505025e+00 2.200466e+00 2.252510e+00 1.659169e+00 2.113183e+00 2.163547e+00 1.541718e+00 1.560004e+00 1.140320e+00 2.000128e-01 3.928343e-01 1.489779e-01 2.272401e-01 3.276913e-01 3.648027e-01 7.527398e-01 3.353764e-01 3.290718e-01 4.594367e-01 3.122050e-01 2.173177e-01 3.378038e-01
<GCONST> 1.052763e+02
<TRANSP> 5
 0.000000e+00 1.000000e+00 0.000000e+00 0.000000e+00 0.000000e+00
 0.000000e+00 4.858165e-01 5.141835e-01 0.000000e+00 0.000000e+00
 0.000000e+00 0.000000e+00 3.513309e-01 6.486691e-01 0.000000e+00
 0.000000e+00 0.000000e+00 0.000000e+00 6.608954e-01 3.391047e-01
 0.000000e+00 0.000000e+00 0.000000e+00 0.000000e+00 0.000000e+00
<ENDHMM>
~h "f"
<BEGINHMM>
<NUMSTATES> 5
<STATE> 2
<MEAN> 39
 -1.577564e+01 -9.892890e+00 -2.251507e-01 3.646875e+00 1.345046e+00 5.886758e+00 6.601040e+00 2.192876e+00 4.398739e+00 -2.058242e+00 4.990171e+00 -1.791731e+00 7.933831e+01 -6.950288e-01 -3.777430e-01 -2.113524e-01 -4.391643e-01 -6.190155e-01 -1.254642e-01 2.429408e-01 1.738369e-01 4.377064e-01 2.590544e-01 3.021422e-01 -1.072694e-01 -3.256196e-01 4.846630e-01 2.779719e-01 8.513689e-03 1.543287e-01 1.130159e-01 -4.249212e-02 -3.668412e-01 -1.698482e-01 -1.422359e-01 -1.700218e-01 -2.759261e-01 4.404402e-02 -4.187338e-03
<VARIANCE> 39
 1.879924e+01 4.034921e+01 8.451995e+00 1.776633e+01 1.530183e+01 1.830282e+01 2.037141e+01 2.074385e+01 1.194546e+01 1.847239e+01 1.373284e+01 1.499732e+01 4.155891e+01 3.440986e+00 2.680945e+00 9.159670e-01 1.701584e+00 1.674055e+00 1.468218e+00 3.856665e+00 2.024446e+00 1.385599e+00 1.440604e+00 2.188587e+00 8.982201e-01 1.377184e+00 3.091222e-01 5.400441e-01 2.108683e-01 2.570571e-01 2.434252e-01 3.448578e-01 8.751433e-01 5.187088e-01 2.597954e-01 3.155791e-01 2.751363e-01 1.807877e-01 3.014999e-01
<GCONST> 1.020868e+02
<STATE> 3
<MEAN> 39
 -1.564814e+01 -5.858470e+00 -1.220473e+00 4.013702e+00 -6.011546e-03 6.265576e+00 6.157436e+00 3.827538e+00 5.896902e+00 7.509432e-01 4.172317e+00 1.744060e+00 7.183927e+01 2.439264e+00 3.314733e-01 5.010552e-02 6.547336e-01 4.540222e-01 -4.116804e-01 -2.314838e+00 -1.208709e+00 -7.586420e-01 -1.642100e+00 -1.542548e+00 -2.815504e-01 1.224330e+00 9.520640e-01 -3.871626e-02 1.719162e-01 5.214914e-01 5.911018e-01 -3.322986e-01 -1.201500e+00 -3.960369e-01 -2.227695e-01 -5.675926e-01 -2.848516e-01 -3.229542e-01 8.424107e-01
<VARIANCE> 39
 1.547292e+01 4.431831e+01 9.181797e+00 8.136596e+00 2.649428e+01 1.765365e+01 1.857031e+01 2.300605e+01 1.186441e+01 2.381238e+01 1.553675e+01 3.269112e+01 7.107391e+01 3.940746e+00 8.775044e+00 8.643283e-01 2.897561e+00 1.825744e+00 2.918978e+00 7.365961e+00 4.049106e+00 1.238388e+00 3.602332e+00 2.783762e+00 3.080125e+00 6.377541e+00 3.915240e-01 9.227573e-01 2.779114e-01 7.085146e-01 3.391057e-01 3.616104e-01 1.406113e+00 6.003464e-01 4.475723e-01 6.699008e-01 4.584344e-01 7.047420e-01 7.376384e-01
<GCONST> 1.183413e+02
<STATE> 4
<MEAN> 39
 -8.896172e+00 -9.430381e+00 6.937629e-01 9.271289e+00 6.230897e+00 6.769909e+00 -7.620771e-01 -3.006886e+00 3.396986e+00 -3.572970e+00 2.372374e+00 -1.140717e+00 8.136881e+01 9.056879e-01 -7.986642e-02 -8.370803e-02 1.590378e-01 4.595579e-01 -8.332418e-02 -4.128389e-01 -1.998604e-01 -2.680548e-01 2.561687e-01 9.222403e-03 -1.841168e-01 5.387043e-01 -1.227555e-01 1.766171e-01 -2.254466e-02 -4.748262e-03 -5.184509e-02 -4.766490e-02 4.406746e-02 2.026933e-01 1.479161e-01 2.690514e-01 3.913579e-02 7.756335e-02 -3.147676e-01
<VARIANCE> 39
 5.955486e+01 3.347500e+01 1.954559e+01 5.119927e+01 7.398242e+01 1.489027e+01 1.100660e+02 1.999846e+01 2.562375e+01 2.747698e+01 3.553120e+01 1.766928e+01 3.467415e+01 7.554285e+00 5.250533e+00 2.178354e+00 4.654231e+00 7.362747e+00 2.225136e+00 1.581966e+01 2.787745e+00 3.865368e+00 4.109392e+00 3.773409e+00 3.487393e+00 5.917615e+00 9.048946e-01 8.158486e-01 4.267619e-01 7.454290e-01 1.014488e+00 3.943732e-01 2.942559e+00 4.373985e-01 7.707161e-01 8.442082e-01 7.697172e-01 5.970541e-01 9.231309e-01
<GCONST> 1.337300e+02
<TRANSP> 5
 0.000000e+00 1.000000e+00 0.000000e+00 0.000000e+00 0.000000e+00
 0.000000e+00 8.704568e-01 1.295432e-01 0.000000e+00 0.000000e+00
 0.000000e+00 0.000000e+00 3.383939e-01 6.616061e-01 0.000000e+00
 0.000000e+00 0.000000e+00 0.000000e+00 8.128630e-01 1.871370e-01
 0.000000e+00 0.000000e+00 0.000000e+00 0.000000e+00 0.000000e+00
<ENDHMM>
~h "g"
<BEGINHMM>
<NUMSTATES> 5
<STATE> 2
<MEAN> 39
 -1.143595e+01 5.012490e+00 2.821280e+00 1.164874e+01 8.551306e+00 7.954909e+00 3.091761e+00 3.561098e+00 2.457295e+00 9.437297e-01 -1.077776e+00 -1.650410e+00 6.778508e+01 -4.744868e-02 -1.152528e+00 -5.394633e-01 -6.745349e-01 -1.294755e+00 -6.533539e-01 4.191047e-01 5.391217e-01 1.070393e-01 -8.510779e-02 5.426310e-01 5.705297e-01 4.828653e-01 6.311792e-01 -6.603214e-01 -1.971600e-01 -4.150190e-01 -6.883417e-01 -5.607455e-01 -3.247618e-01 1.218669e-01 1.010178e-01 -4.652739e-01 -6.419528e-02 -8.446294e-02 8.644674e-01
<VARIANCE> 39
 1.461310e+01 2.659287e+01 1.942796e+01 2.938660e+01 1.736568e+01 1.203982e+01 2.223739e+01 1.579502e+01 1.319088e+01 1.319265e+01 1.468108e+01 1.405329e+01 1.060592e+01 3.082757e+00 5.908248e+00 2.627095e+00 3.615918e+00 6.462273e+00 3.818153e+00 2.370516e+00 2.390611e+00 2.244628e+00 2.159271e+00 1.606861e+00 1.272400e+00 4.639538e+00 3.756928e-01 5.553239e-01 4.085949e-01 4.828165e-01 8.081075e-01 5.385083e-01 4.312427e-01 5.006930e-01 3.798697e-01 4.783888e-01 3.517495e-01 2.577478e-01 4.762761e-01
<GCONST> 1.115603e+02
<STATE> 3
<MEAN> 39
 -3.734367e+00 -7.451195e+00 -1.208314e+00 5.094823e+00 -6.485715e+00 -2.232031e+00 2.380996e+00 7.200854e+00 3.299378e+00 -4.039481e+00 1.543576e+00 -8.332407e-01 7.978257e+01 2.252443e+00 -6.073698e-01 1.365381e+00 -8.213595e-02 -1.105269e+00 -1.250771e+00 -2.051021e+00 -2.859117e-01 5.177416e-01 -1.711404e+00 -1.175338e+00 -1.161757e+00 2.560300e+00 -1.933298e-01 1.496378e+00 8.375394e-01 6.846411e-01 1.595437e+00 9.143184e-01 -9.276779e-01 -7.724382e-01 2.260251e-01 2.993223e-01 -6.021720e-01 -2.894569e-01 -7.853373e-01
<VARIANCE> 39
 1.129839e+01 4.532123e+01 2.816253e+01 5.317116e+01 8.105129e+01 4.216285e+01 3.940752e+01 5.695389e+01 3.276138e+01 3.732935e+01 2.239302e+01 1.761979e+01 2.432314e+01 1.619055e+00 7.689848e+00 3.703977e+00 5.509642e+00 1.289735e+01 6.358647e+00 7.138862e+00 4.303576e+00 2.736864e+00 3.996935e+00 3.107124e+00 1.775898e+00 3.631316e+00 2.769001e-01 6.246186e-01 7.123169e-01 6.503208e-01 7.485368e-01 4.644449e-01 8.866196e-01 5.677463e-01 5.464530e-01 9.614199e-01 4.091259e-01 5.522507e-01 3.452868e-01
<GCONST> 1.286559e+02
<STATE> 4
<MEAN> 39
 3.899595e-01 2.722813e+00 5.127370e+00 6.952201e+00 2.117501e+00 2.917387e+00 -8.182979e+00 1.817938e+00 7.250067e+00 -4.567420e+00 -5.976600e+00 -5.342017e+00 7.990639e+01 5.530307e-01 9.557089e-01 2.727566e-01 -1.331683e-01 1.153955e+00 6.521508e-01 -1.681092e+00 -1.232348e+00 2.723454e-01 -7.148950e-02 -6.321233e-01 -1.864437e-01 8.060507e-02 -2.386486e-01 -2.416892e-01 -4.422661e-01 -1.812766e-01 -1.270477e-01 -1.302418e-01 3.054320e-01 1.298975e-01 -2.026183e-01 1.130038e-01 3.961546e-01 3.147236e-01 -1.442046e-01
<VARIANCE> 39
 1.199121e+01 3.905660e+01 3.146598e+01 6.249422e+01 8.467874e+01 1.243579e+02 6.075590e+01 8.748528e+01 3.027470e+01 4.411580e+01 2.027119e+01 1.684970e+01 1.351420e+01 1.869823e+00 3.193699e+00 3.052301e+00 2.515569e+00 2.330837e+00 3.818800e+00 9.878361e+00 3.590429e+00 3.793305e+00 3.848106e+00 2.548330e+00 2.754440e+00 8.263693e-01 2.554623e-01 5.121206e-01 5.710785e-01 5.852218e-01 4.590677e-01 4.298790e-01 1.168460e+00 5.883326e-01 6.477175e-01 5.563788e-01 3.614464e-01 3.483358e-01 1.753839e-01
<GCONST> 1.229430e+02
<TRANSP> 5
 0.000000e+00 1.000000e+00 0.000000e+00 0.000000e+00 0.000000e+00
 0.000000e+00 8.210436e-01 1.789564e-01 0.000000e+00 0.000000e+00
 0.000000e+00 0.000000e+00 6.554733e-01 3.445267e-01 0.000000e+00
 0.000000e+00 0.000000e+00 0.000000e+00 7.478138e-01 2.521862e-01
 0.000000e+00 0.000000e+00 0.000000e+00 0.000000e+00 0.000000e+00
<ENDHMM>
~h "k"
<BEGINHMM>
<NUMSTATES> 5
<STATE> 2
<MEAN> 39
 -1.328565e+01 1.485655e+00 -9.806327e-02 7.752683e+00 3.055254e+00 3.134952e+00 7.127346e-01 2.813260e+00 2.349339e+00 1.558865e+00 1.643509e+00 2.552472e+00 6.642577e+01 -3.381510e-01 -9.047598e-01 -9.196382e-01 -9.404145e-01 -7.682891e-01 -9.483731e-02 7.702227e-01 4.742660e-01 -1.743756e-01 -7.494520e-02 5.975284e-01 2.729251e-01 1.898419e-01 5.123176e-01 -4.553975e-01 -1.512393e-04 -1.104605e-01 -3.015175e-01 -1.919799e-01 -2.670536e-01 3.550735e-02 1.070756e-02 -4.478339e-01 -8.540286e-02 -1.160085e-01 7.160774e-01
<VARIANCE> 39
 2.126230e+01 2.134110e+01 1.868718e+01 5.123529e+01 3.816550e+01 2.182198e+01 2.440004e+01 2.098624e+01 1.888665e+01 2.897254e+01 2.662624e+01 2.214317e+01 2.181271e+01 3.996225e+00 5.006516e+00 2.186817e+00 3.307923e+00 3.731713e+00 3.208419e+00 3.999167e+00 2.855559e+00 2.128082e+00 3.958101e+00 2.508159e+00 2.050552e+00 6.504011e+00 2.777515e-01 5.882745e-01 4.789639e-01 6.036102e-01 5.039200e-01 4.350034e-01 6.247243e-01 4.591811e-01 3.595037e-01 5.221311e-01 4.018949e-01 3.266568e-01 5.466765e-01
<GCONST> 1.187968e+02
<STATE> 3
<MEAN> 39
 -7.089210e+00 -1.151310e+01 -2.936300e+00 3.985946e+00 -6.413420e+00 -9.075911e-01 2.723963e+00 6.874830e+00 6.551615e-01 -6.164542e+00 3.609033e+00 1.388429e+00 7.911492e+01 1.359069e+00 -5.818284e-01 1.272344e+00 4.592051e-01 -5.733787e-01 -1.324995e-01 -5.316307e-01 -6.584613e-02 -9.153895e-02 -1.188942e+00 -5.023028e-01 -3.989305e-01 1.690566e+00 -4.181956e-01 1.468421e+00 5.081533e-01 4.913585e-01 1.100620e+00 5.566228e-01 -4.396996e-01 -5.079870e-01 2.436702e-01 6.652301e-01 -3.357782e-01 1.356149e-01 -1.237137e+00
<VARIANCE> 39
 1.578014e+01 4.231676e+01 4.271824e+01 5.918213e+01 6.376387e+01 5.287542e+01 5.829673e+01 6.811549e+01 3.570904e+01 4.780044e+01 2.149387e+01 2.699924e+01 2.477366e+01 3.523068e+00 9.744080e+00 4.162334e+00 3.955521e+00 7.167055e+00 5.148932e+00 6.508005e+00 4.649044e+00 2.223705e+00 5.705170e+00 2.511197e+00 2.075903e+00 8.689349e+00 5.276541e-01 7.987774e-01 1.054326e+00 7.673063e-01 8.210133e-01 8.630479e-01 8.643761e-01 8.792089e-01 5.061072e-01 9.878916e-01 6.954970e-01 3.949206e-01 6.355598e-01
<GCONST> 1.350175e+02
<STATE> 4
<MEAN> 39
 -1.300465e+01 -5.457029e-01 -2.266035e+00 4.149917e+00 3.813088e-01 4.732729e+00 5.265430e+00 6.660856e+00 1.830723e+00 -1.225170e+00 1.825939e+00 4.002289e+00 6.807776e+01 -3.725021e-01 8.448703e-01 2.691627e-01 2.716429e-01 7.786301e-01 3.376648e-01 -5.221381e-01 -4.202625e-01 3.916942e-01 6.655768e-01 -4.689588e-02 -5.985003e-02 -7.559227e-01 8.189537e-02 -1.282765e-01 -1.295723e-01 -9.775071e-02 -6.690734e-02 -8.728173e-02 -8.086500e-02 -1.438017e-02 -5.019872e-02 -1.165523e-01 5.494915e-02 2.217825e-02 1.477464e-01
<VARIANCE> 39
 3.241821e+01 2.721093e+01 1.886185e+01 2.365816e+01 2.291367e+01 2.107274e+01 4.494257e+01 2.811773e+01 1.810430e+01 2.719994e+01 1.550186e+01 2.195929e+01 4.074035e+01 2.328723e+00 2.529360e+00 1.930831e+00 1.437342e+00 2.430448e+00 2.107772e+00 2.884933e+00 1.888832e+00 1.552487e+00 2.820563e+00 1.838902e+00 1.251369e+00 1.604442e+00 2.053324e-01 3.062655e-01 3.162288e-01 3.169082e-01 3.922519e-01 2.927904e-01 4.602365e-01 2.692958e-01 2.940150e-01 3.447073e-01 2.564030e-01 2.547350e-01 3.011670e-01
<GCONST> 1.069880e+02
<TRANSP> 5
 0.000000e+00 1.000000e+00 0.000000e+00 0.000000e+00 0.000000e+00
 0.000000e+00 8.504148e-01 1.495852e-01 0.000000e+00 0.000000e+00
 0.000000e+00 0.000000e+00 6.957662e-01 3.042338e-01 0.000000e+00
 0.000000e+00 0.000000e+00 0.000000e+00 7.862916e-01 2.137084e-01
 0.000000e+00 0.000000e+00 0.000000e+00 0.000000e+00 0.000000e+00
<ENDHMM>
~h "l"
<BEGINHMM>
<NUMSTATES> 5
<STATE> 2
<MEAN> 39
 3.547788e+00 -3.806437e+00 -8.790479e-01 1.007951e+01 8.137502e+00 5.226602e+00 -1.215431e+01 -4.204316e+00 -1.463983e+00 -1.205315e+01 -4.424296e+00 1.833120e+00 8.176172e+01 8.854224e-02 -1.399719e-01 1.418397e-01 -1.080341e-02 2.461611e-02 3.781190e-01 -6.984400e-02 -3.722270e-01 -4.544634e-01 -3.900996e-01 1.309245e-01 3.728178e-01 1.344011e-01 -2.662365e-01 1.509583e-01 1.495897e-01 -7.161568e-02 -1.343030e-01 1.365295e-01 3.553169e-01 1.367903e-01 8.824434e-02 2.735057e-01 7.074986e-02 -4.658615e-02 -2.466071e-01
<VARIANCE> 39
 5.219899e+00 2.032957e+01 2.239830e+01 3.644361e+01 3.467550e+01 3.345113e+01 4.127602e+01 4.053314e+01 2.854494e+01 3.687444e+01 2.808912e+01 2.973009e+01 6.186159e+00 6.845742e-01 1.172083e+00 1.251169e+00 1.406512e+00 1.707447e+00 2.248735e+00 4.836776e+00 3.057931e+00 2.405179e+00 2.777491e+00 2.698225e+00 2.342683e+00 7.773644e-01 1.497600e-01 2.339136e-01 1.962797e-01 2.382513e-01 3.681264e-01 3.543941e-01 7.582064e-01 5.506974e-01 4.738891e-01 4.519798e-01 5.719489e-01 4.996167e-01 1.319572e-01
<GCONST> 1.067664e+02
<STATE> 3
<MEAN> 39
 4.697264e-01 3.862962e-01 4.192735e+00 1.004330e+01 5.291376e+00 8.594256e+00 -4.815756e+00 -2.257689e+00 -3.154385e+00 -1.295559e+01 -6.804743e+00 1.580759e+00 7.848680e+01 -5.599343e-01 3.750253e-01 3.089544e-01 2.848466e-01 1.688269e-01 1.815350e-01 6.994169e-01 3.043940e-01 1.569266e-01 5.079510e-01 -1.917780e-01 -1.777823e-01 -6.141948e-01 -4.646715e-02 -3.330777e-02 -1.569914e-01 -9.746434e-02 -2.491015e-02 -1.716148e-01 -1.069592e-01 5.517086e-02 1.514380e-01 1.738035e-01 1.656182e-01 -3.499795e-02 -7.044261e-03
<VARIANCE> 39
 1.367969e+01 2.744571e+01 2.725575e+01 3.248476e+01 2.297571e+01 2.193121e+01 2.977446e+01 2.676261e+01 2.959611e+01 3.626574e+01 1.472003e+01 1.789419e+01 1.322160e+01 4.963665e-01 6.102237e-01 1.031693e+00 1.071732e+00 1.045673e+00 1.136580e+00 1.620846e+00 1.434210e+00 1.273409e+00 1.894028e+00 1.229699e+00 1.246932e+00 3.693767e-01 5.755984e-02 1.239527e-01 2.008681e-01 1.590266e-01 1.605270e-01 1.885594e-01 3.346001e-01 3.464450e-01 3.053294e-01 2.582116e-01 2.310643e-01 2.663111e-01 4.191707e-02
<GCONST> 9.012311e+01
<STATE> 4
<MEAN> 39
 -1.376170e+01 2.090328e+00 -5.588381e-01 5.769400e+00 4.396453e+00 6.943488e+00 3.181772e+00 3.798610e+00 1.201266e+00 1.752136e-01 1.641842e+00 3.332386e+00 6.552735e+01 -3.889205e-01 -1.026495e-01 -2.507056e-01 -2.575639e-01 -1.547534e-01 -1.348318e-01 9.444197e-02 1.770322e-01 3.472498e-01 5.924665e-01 4.711085e-01 1.150547e-01 -2.613525e-01 8.076615e-02 -1.484588e-02 4.821120e-02 6.776641e-02 1.852336e-02 -3.091451e-02 -1.026745e-01 -5.565489e-02 2.567114e-02 -5.917699e-02 -4.913392e-02 -3.534618e-02 8.698340e-02
<VARIANCE> 39
 4.995546e+01 1.011167e+01 1.615842e+01 2.180730e+01 1.289854e+01 1.348312e+01 3.205926e+01 2.691804e+01 2.009916e+01 3.653066e+01 2.607441e+01 1.364717e+01 4.486534e+01 6.204847e-01 7.693332e-01 9.471408e-01 9.686692e-01 7.868678e-01 9.413498e-01 1.305555e+00 1.056888e+00 1.441046e+00 1.585653e+00 1.298369e+00 9.414936e-01 3.659421e-01 9.732196e-02 1.596755e-01 1.759455e-01 2.123601e-01 1.575018e-01 1.854550e-01 2.449351e-01 2.271173e-01 2.085875e-01 2.907428e-01 1.948331e-01 1.948844e-01 5.293037e-02
<GCONST> 8.829460e+01
<TRANSP> 5
 0.000000e+00 1.000000e+00 0.000000e+00 0.000000e+00 0.000000e+00
 0.000000e+00 7.875239e-01 2.124761e-01 0.000000e+00 0.000000e+00
 0.000000e+00 0.000000e+00 8.209782e-01 1.790217e-01 0.000000e+00
 0.000000e+00 0.000000e+00 0.000000e+00 8.063322e-01 1.936677e-01
 0.000000e+00 0.000000e+00 0.000000e+00 0.000000e+00 0.000000e+00
<ENDHMM>
~h "m"
<BEGINHMM>
<NUMSTATES> 5
<STATE> 2
<MEAN> 39
 7.185639e-01 5.403657e+00 2.693642e+00 4.704079e-01 -7.150793e-02 8.029182e+00 -8.782589e+00 -3.883967e+00 8.630631e+00 7.819067e-02 -1.180668e+00 1.693373e-01 7.756388e+01 -3.772960e-01 1.408311e-01 1.492539e-01 5.674630e-01 8.077089e-01 7.701975e-01 4.388642e-01 -5.767130e-02 1.924307e-01 3.757165e-01 -2.433843e-01 -7.339067e-01 -4.119553e-01 -1.340928e-02 -1.670912e-01 -8.427583e-02 7.571679e-02 6.281108e-02 -7.321974e-02 2.355519e-02 9.899895e-02 -6.499663e-02 -3.758304e-02 1.632636e-03 6.900693e-02 5.078252e-02
<VARIANCE> 39
 1.460673e+01 1.814840e+01 1.159894e+01 4.156817e+01 6.059697e+01 5.218888e+01 5.470427e+01 2.754072e+01 2.547459e+01 2.891473e+01 3.219614e+01 2.613786e+01 1.052257e+01 5.099065e-01 8.723551e-01 5.946544e-01 1.968425e+00 2.773114e+00 2.955297e+00 3.817684e+00 1.973444e+00 1.886363e+00 1.863131e+00 1.349550e+00 2.595323e+00 5.569847e-01 4.634644e-02 1.799833e-01 1.221720e-01 2.639147e-01 3.504866e-01 4.583017e-01 4.846695e-01 3.026955e-01 3.430582e-01 2.801129e-01 2.394992e-01 3.280801e-01 5.011683e-02
<GCONST> 1.000501e+02
<STATE> 3
<MEAN> 39
 -4.627427e+00 7.068908e+00 2.074211e+00 7.127437e+00 9.293135e+00 1.302091e+01 -6.294234e-01 5.355762e-01 6.683577e+00 6.194614e-01 -4.469876e+00 -3.437138e+00 7.166210e+01 -7.032924e-01 -6.925921e-02 -8.381157e-02 1.113109e-01 7.043228e-02 -1.087165e-01 5.564706e-01 4.596142e-01 -1.929891e-01 3.123507e-01 5.129783e-01 2.680274e-01 -5.240405e-01 1.781943e-02 -5.300407e-02 -3.243497e-02 -1.388612e-01 -3.024994e-01 -2.910360e-01 -1.559843e-01 -4.834720e-02 -7.030160e-02 -7.840190e-02 1.072790e-01 2.198852e-01 4.084284e-02
<VARIANCE> 39
 1.769119e+01 6.054862e+00 1.063057e+01 1.025806e+01 1.359558e+01 2.243196e+01 1.919641e+01 1.777781e+01 2.283990e+01 2.542131e+01 2.610948e+01 1.771203e+01 1.476023e+01 4.442418e-01 4.169838e-01 5.991144e-01 9.196613e-01 1.271900e+00 1.325506e+00 1.213784e+00 9.391762e-01 1.019610e+00 1.266504e+00 1.279770e+00 9.426159e-01 2.206070e-01 4.613221e-02 5.709265e-02 9.919842e-02 1.759959e-01 2.041122e-01 1.778886e-01 1.963723e-01 1.403455e-01 1.954410e-01 2.380743e-01 1.993000e-01 2.018238e-01 2.514605e-02
<GCONST> 7.823309e+01
<STATE> 4
<MEAN> 39
 -1.580881e+01 3.164685e+00 -1.524550e+00 4.044197e+00 2.989247e+00 6.016731e+00 3.886175e+00 5.044034e+00 3.969067e+00 3.443737e+00 2.892365e+00 3.347672e+00 6.394564e+01 -1.659887e-01 -1.331642e-01 -6.278589e-02 -9.507489e-02 -2.108722e-01 -1.769541e-01 4.737437e-02 7.343218e-02 -8.659485e-02 -1.305733e-02 1.428485e-01 1.652712e-01 -7.889265e-02 9.099647e-02 3.478767e-02 4.589113e-02 4.645942e-02 5.679544e-02 3.241977e-02 -6.073568e-02 -4.168979e-02 9.003712e-03 -5.988768e-02 -7.591415e-02 -4.936888e-02 6.616762e-02
<VARIANCE> 39
 2.127464e+01 5.042316e+00 8.590584e+00 8.677462e+00 8.566947e+00 1.188110e+01 1.187195e+01 9.722143e+00 1.033110e+01 1.203575e+01 1.264292e+01 1.103776e+01 1.479397e+01 3.161604e-01 3.535279e-01 3.934441e-01 5.623242e-01 8.814725e-01 9.569908e-01 6.448494e-01 7.704856e-01 1.006104e+00 8.532419e-01 1.053301e+00 7.859572e-01 1.639334e-01 5.074766e-02 8.062746e-02 7.725428e-02 1.176446e-01 1.676785e-01 1.799625e-01 1.631086e-01 1.673086e-01 1.849967e-01 1.735759e-01 2.033682e-01 1.774096e-01 3.005051e-02
<GCONST> 6.820493e+01
<TRANSP> 5
 0.000000e+00 1.000000e+00 0.000000e+00 0.000000e+00 0.000000e+00
 0.000000e+00 8.100163e-01 1.899837e-01 0.000000e+00 0.000000e+00
 0.000000e+00 0.000000e+00 8.324687e-01 1.675313e-01 0.000000e+00
 0.000000e+00 0.000000e+00 0.000000e+00 8.729192e-01 1.270808e-01
 0.000000e+00 0.000000e+00 0.000000e+00 0.000000e+00 0.000000e+00
<ENDHMM>
~h "n"
<BEGINHMM>
<NUMSTATES> 5
<STATE> 2
<MEAN> 39
 2.122495e+00 -1.320993e-01 -5.239032e-01 4.187829e+00 6.889510e+00 8.439129e+00 -1.330896e+01 -6.273834e+00 2.431081e+00 -7.551520e+00 -9.004468e-01 4.133634e+00 8.108725e+01 -1.964739e-01 8.689449e-01 2.491209e-01 7.346767e-02 7.002729e-01 1.436695e+00 8.495288e-01 -2.916473e-01 -8.734532e-02 3.954459e-01 -3.803282e-01 -8.991509e-01 -6.880660e-01 -2.383105e-01 8.898557e-02 1.028707e-01 6.455493e-02 7.720659e-03 8.319367e-02 3.092937e-01 1.662018e-01 8.500450e-02 1.932003e-01 -1.093163e-01 -3.029565e-01 -1.887801e-01
<VARIANCE> 39
 1.408978e+01 1.900419e+01 3.581776e+01 3.653849e+01 2.645926e+01 2.739993e+01 5.395691e+01 3.208842e+01 4.406176e+01 3.414885e+01 3.038271e+01 2.535723e+01 1.672441e+01 1.486677e+00 2.008465e+00 1.326674e+00 2.329931e+00 2.182658e+00 3.084211e+00 4.902098e+00 2.719762e+00 2.936656e+00 2.536796e+00 2.683985e+00 2.776914e+00 1.722729e+00 1.648832e-01 3.089519e-01 1.733686e-01 3.130228e-01 3.629612e-01 4.197629e-01 6.704851e-01 4.606556e-01 4.289657e-01 3.851733e-01 4.018911e-01 3.818603e-01 1.846317e-01
<GCONST> 1.122359e+02
<STATE> 3
<MEAN> 39
 -1.021520e+00 4.743106e+00 2.213274e+00 6.308527e+00 1.112371e+01 1.536155e+01 -7.640190e+00 -6.047859e+00 3.297616e+00 -4.552860e+00 -3.830841e+00 -3.349943e+00 7.609177e+01 -4.841334e-01 5.104874e-01 4.613131e-01 3.326904e-01 1.247161e-01 2.105861e-01 6.303784e-01 2.643700e-01 1.895076e-01 4.892786e-01 -4.017817e-01 -7.439665e-01 -5.683169e-01 2.172230e-02 -2.419241e-01 -9.207001e-02 1.011061e-02 -2.851380e-01 -5.498191e-01 -6.929626e-02 2.175753e-01 -7.884119e-02 -8.314747e-02 2.346424e-01 3.855756e-01 1.413015e-01
<VARIANCE> 39
 6.981605e+00 1.346276e+01 1.273996e+01 1.185654e+01 1.097496e+01 1.766962e+01 1.663387e+01 1.618569e+01 2.243061e+01 1.961220e+01 2.153215e+01 1.574377e+01 1.015257e+01 3.474936e-01 5.649076e-01 7.728693e-01 1.055410e+00 1.110078e+00 2.048564e+00 1.646894e+00 1.464199e+00 1.300501e+00 1.375198e+00 1.476080e+00 1.603709e+00 3.381575e-01 6.899168e-02 1.765369e-01 1.411477e-01 2.306130e-01 2.201969e-01 3.125832e-01 4.450914e-01 2.987089e-01 3.077154e-01 2.525019e-01 3.147998e-01 2.700802e-01 9.305294e-02
<GCONST> 8.663895e+01
<STATE> 4
<MEAN> 39
 -3.222145e+00 3.887511e+00 1.998116e+00 8.210702e+00 8.938078e+00 1.085647e+01 -3.907523e+00 -1.798330e+00 2.740868e+00 -4.122055e+00 -4.131954e+00 -2.713587e+00 7.428725e+01 -4.245161e-01 -7.646958e-01 -2.560664e-01 6.186701e-02 -1.193860e+00 -1.668159e+00 5.757636e-01 1.184157e+00 -1.433254e-01 1.725252e-01 8.308679e-01 9.298673e-01 -2.845839e-02 -2.549174e-02 -2.430445e-01 -4.716593e-02 -1.549606e-01 -2.815577e-01 -2.922433e-01 -2.356206e-01 -1.261244e-02 1.031082e-01 7.337540e-02 2.469074e-01 2.792167e-01 1.169143e-01
<VARIANCE> 39
 2.494149e+01 2.549595e+01 2.065729e+01 2.171422e+01 1.854886e+01 2.972004e+01 3.064823e+01 2.590660e+01 2.756935e+01 2.562982e+01 3.119728e+01 2.143010e+01 2.522994e+01 2.079571e+00 2.809753e+00 2.154710e+00 3.992220e+00 2.330329e+00 2.549989e+00 4.645125e+00 3.058795e+00 2.953107e+00 2.923233e+00 3.585165e+00 1.651673e+00 2.172224e+00 2.557868e-01 7.312164e-01 3.628585e-01 6.100652e-01 4.090098e-01 4.755859e-01 7.424411e-01 5.516759e-01 5.164221e-01 4.935843e-01 7.790784e-01 3.600047e-01 3.521883e-01
<GCONST> 1.171883e+02
<TRANSP> 5
 0.000000e+00 1.000000e+00 0.000000e+00 0.000000e+00 0.000000e+00
 0.000000e+00 7.005726e-01 2.994275e-01 0.000000e+00 0.000000e+00
 0.000000e+00 0.000000e+00 7.922726e-01 2.077274e-01 0.000000e+00
 0.000000e+00 0.000000e+00 0.000000e+00 6.196676e-01 3.803325e-01
 0.000000e+00 0.000000e+00 0.000000e+00 0.000000e+00 0.000000e+00
<ENDHMM>
~h "p"
<BEGINHMM>
<NUMSTATES> 5
<STATE> 2
<MEAN> 39
 -6.300455e+00 3.981723e+00 1.350955e+00 1.035107e+01 6.776815e+00 6.342803e+00 4.792361e-01 1.532149e+00 1.609999e+00 -8.933674e-01 -4.165756e-01 2.253049e+00 7.182185e+01 -2.504358e+00 7.728785e-01 -6.208102e-01 -5.309634e-01 3.768081e-01 5.537496e-01 2.107490e+00 1.255083e+00 1.014278e-01 1.273957e+00 6.467829e-01 3.546634e-01 -2.435174e+00 -2.365894e-01 -5.399956e-01 4.491270e-02 -3.266240e-01 -4.448595e-01 -2.446574e-01 -4.416806e-01 -8.362177e-02 1.941955e-01 -1.303268e-01 8.412188e-02 -2.625074e-02 1.502587e-01
<VARIANCE> 39
 4.553800e+01 1.887687e+01 2.329054e+01 5.559536e+01 4.174152e+01 1.757335e+01 4.163984e+01 3.806450e+01 2.973346e+01 5.399706e+01 2.206328e+01 1.095130e+01 3.333199e+01 2.475558e+00 3.240349e+00 1.510247e+00 2.312858e+00 1.828955e+00 1.639792e+00 3.720812e+00 2.579912e+00 2.935958e+00 2.300227e+00 1.552269e+00 1.556424e+00 1.808182e+00 5.439903e-01 4.145010e-01 3.080620e-01 3.766959e-01 3.850521e-01 3.309361e-01 7.454206e-01 4.264553e-01 4.592331e-01 5.642681e-01 3.018569e-01 1.636795e-01 4.118355e-01
<GCONST> 1.139238e+02
<STATE> 3
<MEAN> 39
 -1.525045e+01 2.105934e+00 -7.826036e-01 6.278413e+00 2.845517e+00 4.122451e+00 2.721762e+00 3.584435e+00 2.499844e+00 2.961019e+00 2.541490e+00 3.566086e+00 6.559748e+01 -6.370438e-01 -2.129898e-01 -1.775192e-01 -3.313236e-01 -1.807092e-01 1.286306e-01 2.597261e-01 4.053691e-02 -1.349580e-02 2.408198e-01 3.280961e-01 1.968564e-01 -4.165410e-01 4.956459e-01 -1.072837e-01 1.031309e-01 1.905636e-01 -1.159411e-02 1.180193e-02 -9.778776e-02 -1.228824e-01 -1.329837e-02 -1.892165e-01 -9.675311e-02 -1.109403e-01 4.623652e-01
<VARIANCE> 39
 6.157440e+00 8.661063e+00 1.189596e+01 2.612873e+01 1.224989e+01 1.006446e+01 1.360781e+01 1.147120e+01 1.813111e+01 1.470298e+01 1.379778e+01 1.474502e+01 5.333213e+00 5.299591e-01 5.534962e-01 5.974882e-01 9.789337e-01 9.763480e-01 7.394105e-01 1.147835e+00 1.089483e+00 7.728481e-01 6.302233e-01 8.044049e-01 8.708070e-01 2.344601e-01 1.869717e-01 2.454740e-01 1.015228e-01 1.713610e-01 1.912443e-01 1.582810e-01 2.496557e-01 2.818148e-01 2.162673e-01 2.243031e-01 1.746155e-01 2.057148e-01 1.860589e-01
<GCONST> 7.812344e+01
<STATE> 4
<MEAN> 39
 -1.031763e+01 -1.129955e+00 -1.257500e+00 7.014642e+00 2.873082e+00 5.755991e+00 2.197821e+00 1.694454e+00 1.433568e+00 2.685192e-01 2.870678e+00 2.566899e+00 7.077884e+01 3.117831e+00 -1.457838e+00 2.307650e-01 7.897049e-01 4.900643e-02 -2.653053e-02 -1.652402e+00 -1.458397e+00 -7.772279e-01 -1.917464e+00 -8.894489e-01 -8.678468e-01 3.225115e+00 5.669830e-01 9.679806e-02 1.472018e-01 1.036564e-03 1.074674e-01 -2.558519e-01 -7.205141e-01 -2.601423e-01 -8.691880e-02 -3.213054e-01 -2.819904e-01 -1.393614e-01 4.483447e-01
<VARIANCE> 39
 6.703001e+01 2.616256e+01 1.214673e+01 1.569083e+01 2.128385e+01 9.496930e+00 6.052227e+01 3.492534e+01 1.847404e+01 4.111986e+01 1.491504e+01 1.659805e+01 7.190028e+01 3.704630e+00 2.943024e+00 1.987007e+00 2.284888e+00 3.127426e+00 1.881959e+00 5.624615e+00 1.719835e+00 1.863207e+00 2.589250e+00 1.597925e+00 1.894084e+00 3.386774e+00 1.405202e+00 6.381755e-01 2.904142e-01 3.673482e-01 6.574532e-01 3.644995e-01 1.173976e+00 4.426169e-01 4.078281e-01 6.342416e-01 3.495623e-01 4.734556e-01 1.246383e+00
<GCONST> 1.182657e+02
<TRANSP> 5
 0.000000e+00 1.000000e+00 0.000000e+00 0.000000e+00 0.000000e+00
 0.000000e+00 5.360364e-01 4.639637e-01 0.000000e+00 0.000000e+00
 0.000000e+00 0.000000e+00 8.069084e-01 1.930917e-01 0.000000e+00
 0.000000e+00 0.000000e+00 0.000000e+00 6.805797e-01 3.194203e-01
 0.000000e+00 0.000000e+00 0.000000e+00 0.000000e+00 0.000000e+00
<ENDHMM>
~h "r"
<BEGINHMM>
<NUMSTATES> 5
<STATE> 2
<MEAN> 39
 4.540273e+00 -1.614707e+00 -4.042984e+00 4.046272e+00 7.429959e+00 6.088058e+00 -1.336400e+01 -7.727181e+00 -8.153781e-01 -7.074949e+00 -1.001100e-01 1.887434e+00 8.244990e+01 1.022113e-01 7.447794e-02 9.788908e-02 3.062069e-01 7.764302e-01 -2.206768e-01 -1.496663e+00 -2.507223e-01 4.956179e-01 -2.275068e-01 -2.013594e-02 1.686507e-01 6.013343e-02 -1.585557e-01 4.552546e-02 1.410995e-01 5.816230e-02 -9.554075e-02 6.557431e-02 2.033855e-01 1.018803e-01 1.983163e-01 7.208978e-02 -6.027519e-02 -4.550205e-02 -1.232227e-01
<VARIANCE> 39
 1.256773e+01 2.394823e+01 4.349651e+01 4.622936e+01 5.238302e+01 1.567716e+01 6.794308e+01 3.933583e+01 4.588366e+01 6.106472e+01 1.916300e+01 2.015742e+01 9.900122e+00 6.929341e-01 1.157347e+00 1.284997e+00 1.679048e+00 1.905541e+00 1.521431e+00 4.965293e+00 1.383160e+00 2.198808e+00 1.927849e+00 1.612533e+00 1.167594e+00 5.083912e-01 7.845078e-02 2.345777e-01 2.183709e-01 2.067576e-01 3.022105e-01 2.736961e-01 7.875780e-01 2.494234e-01 4.612478e-01 4.147311e-01 3.084734e-01 1.627999e-01 6.369074e-02
<GCONST> 1.021076e+02
<STATE> 3
<MEAN> 39
 1.491199e+00 1.744510e+00 5.277547e-01 5.641139e+00 6.886831e+00 5.656042e+00 -1.291510e+01 -5.658561e+00 1.758063e+00 -6.386791e+00 -2.920509e-01 2.155002e+00 7.948708e+01 -4.322100e-01 3.954325e-01 -3.288544e-01 1.707993e-01 2.751277e-01 4.591222e-01 1.121018e+00 6.515356e-01 5.906847e-02 1.942806e-01 -2.636277e-01 -1.355778e-01 -6.559212e-01 -1.366995e-01 -1.691729e-03 2.620572e-02 3.098520e-03 -1.629620e-01 8.296232e-02 5.273466e-01 1.430051e-01 -5.541658e-02 3.110701e-01 -1.485409e-02 -1.587995e-01 -1.254155e-01
<VARIANCE> 39
 1.865377e+01 5.385789e+01 5.297703e+01 3.442118e+01 6.300800e+01 2.401798e+01 8.866521e+01 4.224871e+01 2.624001e+01 5.229379e+01 3.087996e+01 1.628763e+01 1.741702e+01 4.000999e-01 2.321934e+00 3.392292e+00 2.344838e+00 1.280504e+00 2.115410e+00 3.503810e+00 2.394709e+00 2.125975e+00 1.996286e+00 2.159784e+00 1.739491e+00 3.885603e-01 2.432461e-01 4.160100e-01 2.874422e-01 3.242134e-01 3.765885e-01 3.309918e-01 1.051984e+00 3.691238e-01 1.828869e-01 3.100194e-01 3.998171e-01 2.454224e-01 1.848638e-01
<GCONST> 1.103266e+02
<STATE> 4
<MEAN> 39
 4.093660e-01 1.325050e+00 -3.400528e-01 6.759973e+00 7.815429e+00 9.065151e+00 -7.091144e+00 -4.302374e+00 1.971085e-01 -6.344057e+00 -3.576205e+00 4.051701e-01 7.813997e+01 -2.240044e-01 2.765498e-01 2.801903e-01 8.902346e-02 -3.015196e-01 -7.585217e-02 4.924422e-01 3.765607e-01 1.555812e-01 1.801213e-01 -2.759894e-01 -1.969146e-01 -3.108875e-01 -4.373039e-02 -5.234241e-02 1.599326e-01 9.011507e-03 -1.669223e-01 -2.452031e-01 -2.363929e-01 5.795741e-02 1.951326e-01 1.028745e-02 5.157717e-02 -5.170340e-02 3.951015e-02
<VARIANCE> 39
 1.862899e+01 3.460716e+01 4.338278e+01 3.633268e+01 4.013446e+01 3.165751e+01 9.612981e+01 5.797007e+01 2.053702e+01 4.383863e+01 2.580363e+01 3.234077e+01 2.026246e+01 2.445984e+00 4.272476e+00 2.382608e+00 2.656315e+00 2.488329e+00 3.279850e+00 1.050821e+01 6.150298e+00 2.331046e+00 4.517168e+00 1.934309e+00 1.930424e+00 3.050874e+00 4.029561e-01 7.579793e-01 4.337090e-01 5.036703e-01 3.538317e-01 5.798383e-01 1.773276e+00 1.180301e+00 3.265298e-01 7.383162e-01 2.826315e-01 3.518031e-01 4.758437e-01
<GCONST> 1.250408e+02
<TRANSP> 5
 0.000000e+00 1.000000e+00 0.000000e+00 0.000000e+00 0.000000e+00
 0.000000e+00 7.806744e-01 2.193256e-01 0.000000e+00 0.000000e+00
 0.000000e+00 0.000000e+00 2.991939e-01 7.008060e-01 0.000000e+00
 0.000000e+00 0.000000e+00 0.000000e+00 7.338894e-01 2.661106e-01
 0.000000e+00 0.000000e+00 0.000000e+00 0.000000e+00 0.000000e+00
<ENDHMM>
~h "s"
<BEGINHMM>
<NUMSTATES> 5
<STATE> 2
<MEAN> 39
 -7.660467e+00 -8.808707e+00 6.163913e+00 9.063174e+00 1.464276e+00 5.569560e+00 1.705067e+00 -3.559710e-01 -1.321617e+00 -9.935887e-01 4.113934e+00 -2.506399e-02 7.941263e+01 -2.688036e+00 -3.569072e+00 1.042977e+00 -7.074389e-01 -1.202190e+00 -3.404116e-01 2.289319e+00 3.617321e-01 -3.531983e-01 9.621848e-01 1.716243e+00 -6.985096e-02 1.047639e+00 -1.767691e-01 -1.812982e-02 -4.052295e-02 -4.352205e-01 -1.769625e-01 -3.238913e-01 -2.888456e-01 7.604089e-02 2.204567e-01 -3.279477e-01 -8.685739e-02 3.953992e-02 1.181775e-01
<VARIANCE> 39
 5.361685e+01 6.395462e+01 4.113842e+01 4.439856e+01 2.238368e+01 2.583224e+01 4.389804e+01 3.015516e+01 3.945377e+01 2.919183e+01 2.836958e+01 2.288102e+01 1.693226e+01 3.330918e+00 4.359278e+00 2.739759e+00 4.510168e+00 2.495536e+00 3.376812e+00 5.319462e+00 2.382808e+00 3.109195e+00 3.560906e+00 2.390765e+00 2.212074e+00 2.144826e+00 6.679989e-01 1.301536e+00 6.155308e-01 6.688104e-01 4.887080e-01 4.944232e-01 7.891945e-01 4.087660e-01 5.400010e-01 5.857551e-01 4.742720e-01 4.064538e-01 3.357362e-01
<GCONST> 1.244554e+02
<STATE> 3
<MEAN> 39
 -1.781448e+01 -1.883986e+01 8.636017e+00 2.350113e+00 -4.031140e+00 2.125206e+00 7.471344e+00 -1.213148e-01 -2.555826e+00 -2.235283e-01 9.202796e+00 -5.138462e-01 8.293812e+01 1.960594e-01 -1.302992e-01 -3.645278e-01 3.514725e-02 -5.364237e-02 -6.513043e-02 2.948412e-02 1.729608e-01 -7.875364e-02 -3.703538e-01 5.956657e-02 3.062741e-01 -5.034111e-03 6.650934e-01 6.144345e-01 -2.997111e-01 3.684277e-01 2.799728e-01 2.619623e-01 -2.720497e-01 5.673876e-02 2.820038e-02 -8.865705e-02 -3.328028e-01 1.446169e-01 -3.315997e-01
<VARIANCE> 39
 1.533625e+01 1.422583e+01 1.590373e+01 1.600765e+01 1.268802e+01 2.006407e+01 1.537665e+01 2.677457e+01 2.332436e+01 2.153505e+01 1.337192e+01 1.707851e+01 5.257247e+00 3.558499e+00 1.421677e+00 1.847830e+00 2.040454e+00 1.523768e+00 1.587046e+00 1.741881e+00 1.729915e+00 1.760135e+00 1.231439e+00 1.500551e+00 1.592789e+00 6.602384e-01 3.397791e-01 4.655632e-01 2.823924e-01 3.156328e-01 2.832962e-01 2.659718e-01 3.311471e-01 3.038378e-01 2.912885e-01 3.492807e-01 3.195365e-01 2.758048e-01 1.697068e-01
<GCONST> 9.800432e+01
<STATE> 4
<MEAN> 39
 -1.215679e+01 -1.228802e+01 2.091112e+00 7.756549e+00 -8.389758e-01 5.289887e+00 5.489233e+00 3.245557e+00 -5.864719e-01 -1.444571e+00 4.779142e+00 4.254204e+00 7.562347e+01 1.083896e+00 2.925471e+00 -6.805931e-01 4.543557e-01 5.419844e-01 3.134767e-01 -7.331786e-01 2.854908e-01 3.779613e-01 -4.192993e-02 -1.035664e+00 4.976593e-01 -1.754587e+00 1.081601e-04 2.023171e-01 1.095612e-01 -2.062989e-01 -1.196883e-01 -3.225872e-01 -2.058337e-01 -1.253826e-01 -5.906836e-02 -4.159279e-02 -1.594935e-02 -1.931383e-01 1.091680e-01
<VARIANCE> 39
 2.269117e+01 6.686378e+01 3.834032e+01 2.979972e+01 1.516375e+01 2.551600e+01 2.947994e+01 2.762980e+01 4.809932e+01 2.204233e+01 2.317690e+01 1.398947e+01 3.971820e+01 4.824188e+00 4.110087e+00 2.878700e+00 1.599281e+00 1.975312e+00 2.128334e+00 2.886651e+00 1.578733e+00 3.037982e+00 3.293471e+00 2.067451e+00 2.009538e+00 1.883863e+00 2.563601e-01 1.071793e+00 4.845888e-01 3.304396e-01 3.276498e-01 4.652845e-01 4.903229e-01 3.817679e-01 7.074386e-01 3.427656e-01 4.071205e-01 3.820770e-01 3.565851e-01
<GCONST> 1.159717e+02
<TRANSP> 5
 0.000000e+00 1.000000e+00 0.000000e+00 0.000000e+00 0.000000e+00
 0.000000e+00 7.037027e-01 2.962973e-01 0.000000e+00 0.000000e+00
 0.000000e+00 0.000000e+00 8.321171e-01 1.678828e-01 0.000000e+00
 0.000000e+00 0.000000e+00 0.000000e+00 7.485150e-01 2.514850e-01
 0.000000e+00 0.000000e+00 0.000000e+00 0.000000e+00 0.000000e+00
<ENDHMM>
~h "t"
<BEGINHMM>
<NUMSTATES> 5
<STATE> 2
<MEAN> 39
 -8.465748e+00 3.815001e+00 -1.099183e+00 8.620770e+00 9.457761e+00 8.546794e+00 -1.448598e+00 -2.837047e+00 -1.179652e+00 -4.819862e-01 1.096734e+00 1.943715e+00 6.943254e+01 -1.681697e+00 -1.519164e-02 2.279575e-01 1.115694e-01 -4.699459e-01 6.574825e-02 1.319424e+00 6.450863e-01 1.057712e-02 8.075625e-01 2.079615e-01 3.417040e-01 -1.462298e+00 3.369341e-01 -4.413941e-01 -2.130080e-01 -1.765870e-01 -2.360548e-01 -3.341379e-01 -4.084737e-01 4.268503e-02 1.582794e-01 -2.816588e-01 -5.532564e-02 -1.019134e-02 5.051086e-01
<VARIANCE> 39
 3.643861e+01 2.446766e+01 1.658359e+01 3.576667e+01 4.432615e+01 2.638313e+01 3.924064e+01 4.778210e+01 2.701579e+01 2.019845e+01 1.972492e+01 1.978247e+01 2.455110e+01 1.901505e+00 1.975228e+00 1.367897e+00 2.327495e+00 1.687580e+00 1.834966e+00 3.932639e+00 2.138819e+00 1.847706e+00 2.662103e+00 1.673175e+00 1.138741e+00 1.970895e+00 4.188701e-01 3.861836e-01 2.360044e-01 3.159624e-01 3.409915e-01 4.460755e-01 6.931401e-01 5.431078e-01 3.460743e-01 4.939061e-01 3.221021e-01 2.090927e-01 4.077437e-01
<GCONST> 1.109439e+02
<STATE> 3
<MEAN> 39
 -8.550083e+00 -2.649063e+00 -2.202402e+00 8.055993e+00 3.558731e+00 4.283975e+00 4.241811e-02 1.996097e-01 -2.732476e-01 -1.500376e+00 1.367290e+00 3.533737e+00 7.215556e+01 9.798575e-01 -6.410860e-01 -6.000402e-01 -2.442922e-01 -3.125311e-01 -5.990903e-01 -4.737119e-01 1.676824e-02 -2.004452e-01 -5.221022e-01 -2.543896e-03 5.108360e-01 9.346074e-01 1.289962e-01 2.995190e-01 1.081916e-01 -1.163848e-01 9.477315e-02 -7.401565e-04 -2.295851e-01 1.422025e-02 1.274412e-01 -1.076219e-01 -7.843657e-02 -9.894691e-02 3.243131e-02
<VARIANCE> 39
 4.573241e+01 6.301999e+01 2.434440e+01 2.981227e+01 3.730684e+01 3.216762e+01 3.915136e+01 4.286925e+01 4.253847e+01 3.245241e+01 3.471323e+01 3.278119e+01 6.443785e+01 8.145542e+00 8.380861e+00 2.707649e+00 2.126040e+00 4.140881e+00 2.864324e+00 4.749604e+00 5.298185e+00 4.406969e+00 4.329487e+00 2.586560e+00 2.507032e+00 1.044131e+01 1.610432e+00 1.662020e+00 4.756319e-01 4.059138e-01 6.189345e-01 5.271025e-01 9.174328e-01 9.360847e-01 8.306266e-01 8.547126e-01 5.786172e-01 5.370159e-01 2.226173e+00
<GCONST> 1.353719e+02
<STATE> 4
<MEAN> 39
 -1.506625e+01 2.181702e+00 -2.024495e+00 5.007659e+00 3.830066e+00 5.684099e+00 3.056332e+00 3.534692e+00 2.010466e+00 2.529474e+00 3.858972e+00 5.611405e+00 6.482611e+01 1.186876e-01 -2.984808e-01 -4.590020e-02 -8.528647e-02 -1.636670e-01 -8.573377e-02 -7.358870e-03 1.848630e-01 1.787841e-01 -8.354180e-02 -9.849472e-02 -1.994168e-01 2.636780e-01 3.491129e-01 -1.448102e-01 5.779364e-02 1.014862e-01 -1.052237e-02 -7.542918e-02 -1.710397e-01 -8.923765e-02 -2.620550e-02 -2.403159e-01 -1.638655e-01 -1.613302e-01 3.906689e-01
<VARIANCE> 39
 2.290586e+01 7.610309e+00 8.823436e+00 1.336498e+01 1.515104e+01 1.261320e+01 2.256917e+01 2.264612e+01 1.836628e+01 2.096106e+01 1.731190e+01 1.508455e+01 1.909267e+01 2.354160e+00 2.605882e+00 1.110983e+00 1.083871e+00 1.565361e+00 1.521636e+00 1.749614e+00 1.621456e+00 1.435583e+00 1.782684e+00 1.723967e+00 1.317140e+00 2.617370e+00 4.263287e-01 2.674387e-01 1.520976e-01 1.783266e-01 2.177661e-01 2.174731e-01 4.058738e-01 2.908292e-01 2.626757e-01 3.434049e-01 2.921457e-01 2.218369e-01 4.299770e-01
<GCONST> 9.724586e+01
<TRANSP> 5
 0.000000e+00 1.000000e+00 0.000000e+00 0.000000e+00 0.000000e+00
 0.000000e+00 6.972662e-01 3.027338e-01 0.000000e+00 0.000000e+00
 0.000000e+00 0.000000e+00 6.218294e-01 3.781706e-01 0.000000e+00
 0.000000e+00 0.000000e+00 0.000000e+00 7.926418e-01 2.073583e-01
 0.000000e+00 0.000000e+00 0.000000e+00 0.000000e+00 0.000000e+00
<ENDHMM>
~h "v"
<BEGINHMM>
<NUMSTATES> 5
<STATE> 2
<MEAN> 39
 1.916416e+00 8.253971e-01 -4.220321e-01 1.011522e+01 9.833655e+00 5.133901e+00 -1.273336e+01 -5.352629e+00 1.694485e+00 -9.900165e+00 -6.879399e+00 5.473146e-01 7.952003e+01 -1.483206e-01 1.659864e+00 -1.290300e-01 -1.295159e+00 -9.901273e-01 3.125633e-01 2.384922e+00 1.295652e+00 -5.963503e-01 -5.084605e-01 -7.548085e-01 -2.047448e-01 -9.252417e-01 -2.675858e-01 -5.709825e-03 3.979371e-01 4.094819e-02 -3.632620e-01 -1.794514e-01 3.555978e-01 3.521550e-01 3.110039e-01 4.319123e-01 7.211822e-02 -2.683232e-01 -8.477417e-02
<VARIANCE> 39
 1.759018e+01 2.044233e+01 2.122336e+01 2.538553e+01 3.908995e+01 3.660152e+01 4.505750e+01 3.587315e+01 1.440433e+01 4.343501e+01 2.564834e+01 1.412653e+01 1.051594e+01 7.082777e-01 9.048347e-01 1.508022e+00 1.950883e+00 1.791226e+00 1.343890e+00 2.535097e+00 2.782274e+00 2.039103e+00 1.761731e+00 1.852367e+00 2.013907e+00 3.393403e-01 8.664231e-02 2.150100e-01 1.491601e-01 2.695682e-01 2.358301e-01 1.856399e-01 3.842539e-01 4.625812e-01 2.021758e-01 4.678330e-01 4.770146e-01 3.077525e-01 3.314807e-02
<GCONST> 9.843386e+01
<STATE> 3
<MEAN> 39
 1.330856e+00 4.621736e+00 5.670537e-01 6.030507e+00 3.244975e+00 3.015753e+00 -5.759469e+00 -1.941033e-01 3.110556e+00 -7.908523e+00 -8.091652e+00 -2.759727e+00 7.650751e+01 -2.683158e-01 -1.214550e-02 5.465464e-01 -8.041403e-02 -4.302077e-01 1.766405e-01 2.257787e-01 5.863182e-02 -1.426151e-01 2.504911e-01 4.636855e-01 -8.827934e-02 -8.534050e-02 6.617337e-02 -3.897500e-01 -3.386177e-02 1.086812e-01 1.736787e-01 -3.758132e-03 -4.190838e-01 -1.541387e-01 -5.675843e-02 -1.886528e-01 2.477784e-01 3.306817e-01 2.694911e-01
<VARIANCE> 39
 1.397495e+01 1.538600e+01 1.353740e+01 1.509911e+01 2.208781e+01 4.637652e+01 4.487277e+01 5.045982e+01 2.566400e+01 3.392286e+01 1.952788e+01 1.015120e+01 7.988315e+00 1.162342e+00 1.560022e+00 8.219181e-01 1.686652e+00 1.559404e+00 3.369627e+00 5.142061e+00 3.474549e+00 2.073582e+00 2.990307e+00 1.704474e+00 1.971221e+00 8.729754e-01 1.792851e-01 2.211045e-01 1.343864e-01 2.993756e-01 2.311420e-01 6.200942e-01 6.669372e-01 5.802889e-01 3.530625e-01 4.817189e-01 3.138853e-01 2.872581e-01 1.091317e-01
<GCONST> 1.038003e+02
<STATE> 4
<MEAN> 39
 -3.140259e+00 -8.538736e-01 4.119155e+00 4.111875e+00 2.164593e+00 5.206464e+00 -7.727320e+00 1.552002e+00 3.446939e+00 -8.391236e+00 -2.279143e+00 -9.995166e-01 7.826737e+01 -8.053863e-02 -9.847851e-01 -1.903352e-01 -2.204799e-01 -2.228745e-01 -1.061581e-01 -3.934053e-01 5.002626e-01 1.895776e-01 -5.305249e-01 6.532581e-01 8.167259e-01 4.504506e-01 1.168318e-01 2.147405e-01 -2.103781e-01 6.612247e-02 5.523136e-02 3.289296e-02 1.571969e-01 -9.729489e-02 3.800346e-02 2.037538e-01 -1.721170e-01 -3.210073e-02 -8.344977e-02
<VARIANCE> 39
 7.135837e+01 7.172358e+01 2.405309e+01 2.073355e+01 2.153407e+01 2.604556e+01 9.002319e+01 2.377141e+01 5.140102e+01 4.511232e+01 6.743354e+01 3.258172e+01 2.003834e+01 1.875852e+00 3.112458e+00 1.748473e+00 1.839815e+00 1.667529e+00 2.223165e+00 7.032430e+00 2.344169e+00 4.344422e+00 3.309454e+00 4.775177e+00 2.751058e+00 1.175524e+00 2.250909e-01 6.301212e-01 2.063492e-01 4.105159e-01 2.300552e-01 3.344737e-01 1.557086e+00 5.111334e-01 9.678297e-01 5.783659e-01 1.028037e+00 4.981305e-01 2.617463e-01
<GCONST> 1.215131e+02
<TRANSP> 5
 0.000000e+00 1.000000e+00 0.000000e+00 0.000000e+00 0.000000e+00
 0.000000e+00 6.502948e-01 3.497052e-01 0.000000e+00 0.000000e+00
 0.000000e+00 0.000000e+00 7.642486e-01 2.357514e-01 0.000000e+00
 0.000000e+00 0.000000e+00 0.000000e+00 5.811004e-01 4.188997e-01
 0.000000e+00 0.000000e+00 0.000000e+00 0.000000e+00 0.000000e+00
<ENDHMM>
~h "w"
<BEGINHMM>
<NUMSTATES> 5
<STATE> 2
<MEAN> 39
 -3.232215e-01 5.115808e-01 -8.660238e-01 7.079082e+00 5.753223e+00 4.630467e+00 -5.716212e+00 5.996827e-01 3.304246e+00 -6.059690e+00 -4.082575e+00 -9.424222e-01 7.777952e+01 1.375046e+00 1.221004e+00 4.589113e-01 -1.027485e+00 -1.162374e+00 -6.429324e-01 8.326327e-01 1.267601e+00 -2.730146e-01 -1.219034e+00 -1.101025e+00 -1.157640e+00 7.875019e-01 1.767911e-02 2.181252e-01 1.616358e-01 -9.100634e-02 -1.854548e-01 -2.215573e-01 -3.807018e-01 9.684758e-02 2.552373e-01 1.417149e-01 2.242270e-02 -1.163001e-01 -1.060557e-01
<VARIANCE> 39
 3.595095e+01 4.349679e+01 1.928455e+01 2.750360e+01 3.948583e+01 3.442610e+01 8.616470e+01 5.431116e+01 2.128621e+01 4.255063e+01 3.471950e+01 1.729125e+01 2.957801e+01 3.716591e+00 2.546489e+00 1.292095e+00 2.374240e+00 3.572540e+00 2.757934e+00 6.494933e+00 3.802478e+00 2.129727e+00 3.370175e+00 4.390727e+00 3.686319e+00 4.257528e+00 3.041102e-01 7.405916e-01 2.531046e-01 2.466842e-01 4.108830e-01 3.507299e-01 8.945516e-01 5.947199e-01 3.982637e-01 6.834005e-01 5.105820e-01 4.846182e-01 5.212976e-01
<GCONST> 1.224495e+02
<STATE> 3
<MEAN> 39
 1.731454e+00 5.752873e+00 3.287881e-01 2.502021e+00 1.883240e+00 3.378962e+00 -4.411238e+00 4.042298e+00 3.314168e+00 -6.643803e+00 -5.734246e+00 -3.965795e+00 7.740601e+01 2.955988e-01 1.080529e+00 5.642267e-01 -2.654293e-01 -6.136599e-01 -8.908812e-01 -7.301131e-01 4.806475e-01 5.970296e-01 4.883718e-01 -9.212122e-02 -7.090703e-01 -2.764962e-01 -2.284511e-01 -2.590102e-01 -1.291611e-01 2.540684e-01 1.963103e-01 -7.878371e-02 -2.841686e-01 -2.431426e-01 6.277209e-02 2.673517e-01 3.861832e-01 3.823567e-01 -1.006830e-01
<VARIANCE> 39
 1.808506e+01 2.437743e+01 2.047289e+01 3.168261e+01 2.797633e+01 2.838356e+01 5.648587e+01 2.310505e+01 2.518320e+01 3.300587e+01 1.915886e+01 1.278054e+01 1.537151e+01 1.985460e+00 3.228818e+00 9.368993e-01 2.692630e+00 2.309020e+00 2.216474e+00 6.215994e+00 3.289813e+00 2.386357e+00 3.247205e+00 2.461661e+00 2.195890e+00 1.848829e+00 3.737532e-01 3.906232e-01 1.777231e-01 4.147209e-01 3.788452e-01 3.395931e-01 9.559428e-01 3.766418e-01 4.527916e-01 8.107092e-01 5.929838e-01 4.145081e-01 4.451367e-01
<GCONST> 1.140128e+02
<STATE> 4
<MEAN> 39
 3.030028e+00 8.896677e+00 1.891661e+00 3.767628e+00 -1.390585e+00 -4.770480e+00 -9.876346e+00 4.895930e+00 6.764071e+00 -4.351723e+00 -4.280197e+00 -3.088263e+00 7.689500e+01 7.230639e-02 -1.793338e-01 -2.578690e-01 9.838085e-02 -1.502057e-01 -3.896053e-01 -1.536595e-01 -1.263157e-01 -1.885542e-01 -8.614849e-02 1.084218e-01 2.503787e-01 9.070314e-02 -1.822226e-04 -3.107770e-01 -1.350923e-01 5.166665e-02 1.913536e-01 2.137571e-01 -3.089761e-02 -1.712536e-01 -1.425526e-01 -1.799296e-01 -3.246730e-03 6.859498e-02 1.374327e-01
<VARIANCE> 39
 8.231487e+00 2.469057e+01 1.787439e+01 1.537663e+01 2.294994e+01 8.904748e+01 4.785933e+01 2.684021e+01 2.331988e+01 3.726682e+01 2.104273e+01 3.871288e+01 9.519369e+00 7.941216e-01 1.762924e+00 1.101936e+00 1.063653e+00 1.755731e+00 4.039536e+00 4.269985e+00 1.475660e+00 1.673012e+00 3.568273e+00 1.919022e+00 3.278815e+00 9.353044e-01 9.241187e-02 1.893293e-01 1.428206e-01 2.020700e-01 2.404883e-01 5.104855e-01 6.751488e-01 3.231602e-01 2.969477e-01 4.212216e-01 3.977355e-01 6.607985e-01 9.645294e-02
<GCONST> 1.040012e+02
<TRANSP> 5
 0.000000e+00 1.000000e+00 0.000000e+00 0.000000e+00 0.000000e+00
 0.000000e+00 3.383811e-01 6.616190e-01 0.000000e+00 0.000000e+00
 0.000000e+00 0.000000e+00 5.510084e-01 4.489916e-01 0.000000e+00
 0.000000e+00 0.000000e+00 0.000000e+00 8.165662e-01 1.834338e-01
 0.000000e+00 0.000000e+00 0.000000e+00 0.000000e+00 0.000000e+00
<ENDHMM>
~h "y"
<BEGINHMM>
<NUMSTATES> 5
<STATE> 2
<MEAN> 39
 -1.665572e+00 -7.573287e+00 3.033669e+00 1.832825e+01 1.188947e+01 5.868319e+00 -1.067997e+01 -4.477512e+00 4.656903e+00 -2.829882e+00 -4.681521e+00 -3.737728e+00 7.924214e+01 8.413097e-01 1.164265e-01 -6.152558e-02 7.395582e-01 1.022679e+00 1.200955e-02 -1.851687e+00 -9.357244e-01 4.308973e-01 -4.177263e-01 -5.573125e-01 3.446285e-01 3.862276e-01 -5.754926e-02 7.294618e-02 -1.189617e-01 -4.933073e-01 -2.581438e-01 1.576529e-01 6.568548e-02 -1.028101e-01 -6.721539e-02 -2.420657e-01 5.506181e-02 2.353442e-01 3.910314e-02
<VARIANCE> 39
 2.685669e+01 7.220512e+01 2.108667e+01 4.171687e+01 4.658429e+01 4.913041e+01 7.413620e+01 4.859973e+01 5.295061e+01 4.901648e+01 4.159624e+01 1.994150e+01 1.967959e+01 2.683390e+00 5.829189e+00 1.922956e+00 5.308121e+00 3.828864e+00 7.279884e+00 6.401585e+00 4.654404e+00 2.257435e+00 5.319614e+00 4.570062e+00 2.112845e+00 1.599777e+00 3.301776e-01 6.883351e-01 3.407752e-01 6.499075e-01 5.059878e-01 1.598931e+00 1.255068e+00 1.059523e+00 4.591008e-01 1.102689e+00 5.978536e-01 4.195581e-01 2.011537e-01
<GCONST> 1.299487e+02
<STATE> 3
<MEAN> 39
 3.454718e+00 -4.225295e+00 -1.025648e-01 1.171639e+01 1.055621e+01 7.207060e+00 -1.806773e+01 -7.912084e+00 4.688902e+00 -1.261721e+01 -6.929381e+00 1.676079e+00 8.282106e+01 2.791719e-01 4.491057e-01 -2.359077e-01 -1.035601e+00 -8.369104e-01 7.340569e-02 4.479270e-01 3.199351e-01 -2.155837e-01 -8.783534e-01 -6.044310e-01 1.044617e-01 2.021591e-02 -7.741195e-02 1.234289e-01 6.800162e-02 -3.432193e-02 -1.723171e-01 -2.022212e-01 2.629791e-01 3.689182e-01 7.950199e-02 1.440088e-01 -2.681292e-02 -2.483010e-01 -9.439152e-02
<VARIANCE> 39
 6.013901e+00 2.541688e+01 2.166330e+01 3.673993e+01 3.469262e+01 5.502431e+01 2.680679e+01 5.142815e+01 3.235967e+01 3.629420e+01 6.071609e+01 2.021834e+01 4.011250e+00 2.527579e-01 6.021592e-01 9.081574e-01 2.016228e+00 2.604184e+00 2.205552e+00 1.790689e+00 4.088864e+00 2.400332e+00 3.285654e+00 1.581097e+00 2.474819e+00 1.830682e-01 3.062289e-02 5.404038e-02 1.202411e-01 1.788229e-01 2.255814e-01 3.210277e-01 4.058543e-01 4.492131e-01 4.276394e-01 4.218807e-01 2.541240e-01 3.567774e-01 2.661572e-02
<GCONST> 9.562238e+01
<STATE> 4
<MEAN> 39
 2.974025e-01 -1.601550e+00 -3.230108e+00 5.890098e+00 3.593141e+00 1.801939e+00 -9.035419e+00 -8.223829e-01 5.425217e+00 -3.367592e+00 -4.972567e+00 -3.588972e+00 7.881215e+01 -5.371702e-01 6.882554e-01 -2.321670e-01 -5.015262e-01 -4.760606e-01 -3.078586e-01 1.201440e+00 1.013317e+00 2.050352e-02 6.438057e-01 3.878573e-01 -1.416610e-01 -7.436360e-01 -6.636069e-02 -1.110249e-02 2.878633e-02 1.150568e-01 1.299047e-01 9.458244e-03 -7.476050e-02 -1.281873e-01 -7.644298e-02 1.299224e-01 1.516730e-01 4.204790e-02 -5.328435e-02
<VARIANCE> 39
 4.332880e+01 8.146386e+01 4.071601e+01 4.527756e+01 9.477736e+01 8.845148e+01 6.575777e+01 4.583326e+01 2.959670e+01 1.003589e+02 4.702879e+01 3.624024e+01 3.083599e+01 1.733050e+00 5.280460e+00 2.774306e+00 1.597404e+00 4.046560e+00 6.121341e+00 5.022867e+00 3.001772e+00 2.454041e+00 2.932528e+00 1.391580e+00 2.441378e+00 2.620495e+00 1.991925e-01 7.705365e-01 6.121278e-01 3.155801e-01 8.304703e-01 9.757692e-01 8.654966e-01 4.499631e-01 3.727540e-01 5.241343e-01 2.769881e-01 3.321140e-01 3.517103e-01
<GCONST> 1.273266e+02
<TRANSP> 5
 0.000000e+00 1.000000e+00 0.000000e+00 0.000000e+00 0.000000e+00
 0.000000e+00 8.209832e-01 1.790167e-01 0.000000e+00 0.000000e+00
 0.000000e+00 0.000000e+00 8.774164e-01 1.225837e-01 0.000000e+00
 0.000000e+00 0.000000e+00 0.000000e+00 7.309823e-01 2.690177e-01
 0.000000e+00 0.000000e+00 0.000000e+00 0.000000e+00 0.000000e+00
<ENDHMM>
~h "z"
<BEGINHMM>
<NUMSTATES> 5
<STATE> 2
<MEAN> 39
 -5.797543e+00 -5.546968e+00 9.601620e+00 1.267743e+01 5.555850e+00 8.749951e+00 -2.911299e+00 -4.872841e+00 -4.088115e-01 -1.009087e+00 1.006281e+00 -2.666608e+00 7.937723e+01 -1.477902e+00 -1.692605e+00 1.164072e+00 -6.977246e-01 -1.424952e+00 -4.360145e-01 2.689688e+00 2.041981e-01 -1.413782e+00 8.462718e-01 1.591380e+00 -4.327409e-01 7.587817e-01 -4.386114e-01 -3.786425e-01 4.364426e-02 -2.468271e-01 3.633779e-02 -2.350190e-01 7.788017e-03 2.460098e-01 1.316876e-01 -6.839378e-02 2.299699e-01 1.166895e-01 1.549103e-01
<VARIANCE> 39
 2.482527e+01 4.665680e+01 3.508905e+01 2.088860e+01 4.176679e+01 4.324814e+01 4.880854e+01 5.298132e+01 3.435570e+01 2.539618e+01 2.624294e+01 2.119613e+01 3.004898e+01 3.181288e+00 7.998294e+00 3.670578e+00 3.117552e+00 4.857999e+00 4.717400e+00 4.480199e+00 4.013759e+00 2.873066e+00 3.468564e+00 2.816772e+00 2.003225e+00 3.000672e+00 3.020272e-01 9.781505e-01 4.264675e-01 6.598446e-01 8.548663e-01 7.339368e-01 5.903157e-01 6.717207e-01 3.551119e-01 2.735228e-01 4.812632e-01 2.407633e-01 4.913857e-01
<GCONST> 1.249288e+02
<STATE> 3
<MEAN> 39
 -1.345199e+01 -1.112236e+01 1.560022e+01 8.947677e+00 2.023752e+00 7.475549e+00 4.857833e+00 -2.094851e+00 -3.141719e+00 1.433768e-01 6.648591e+00 -4.113523e+00 8.186646e+01 -2.057352e+00 -1.614242e+00 -1.643781e-01 -1.154868e+00 -6.518829e-01 -7.984673e-01 1.246641e+00 1.044001e+00 2.275046e-01 5.590693e-01 1.273007e+00 4.019885e-01 2.166215e-01 6.132946e-01 3.354896e-01 -7.388375e-01 6.837554e-02 2.516105e-01 1.596279e-02 -7.291862e-01 -1.296576e-01 2.793642e-01 -3.229293e-01 -4.599302e-01 2.853948e-01 -1.224264e-01
<VARIANCE> 39
 3.247216e+01 1.823760e+01 2.116408e+01 2.702579e+01 2.370944e+01 1.434852e+01 2.344522e+01 2.032133e+01 3.601449e+01 1.233271e+01 1.280372e+01 1.311986e+01 6.440836e+00 3.382515e+00 1.982805e+00 4.588852e+00 2.534898e+00 1.689984e+00 1.531102e+00 2.674056e+00 2.107796e+00 1.904243e+00 1.747103e+00 1.541757e+00 1.159769e+00 5.398679e-01 4.266111e-01 4.125401e-01 6.490664e-01 3.358598e-01 4.623769e-01 4.175634e-01 4.555259e-01 4.380324e-01 4.974187e-01 3.624075e-01 2.689090e-01 2.278964e-01 1.593247e-01
<GCONST> 1.048329e+02
<STATE> 4
<MEAN> 39
 -1.597392e+01 -1.064315e+01 4.387539e+00 5.379191e+00 6.493058e-01 6.215008e+00 5.896645e+00 2.071330e+00 -9.126459e-01 1.140992e+00 7.180498e+00 2.463724e+00 7.587453e+01 2.499841e-01 7.680160e-01 -6.341664e-01 5.427337e-02 2.523179e-01 2.000257e-01 -1.434794e-01 3.415986e-02 2.215474e-01 8.064333e-02 -3.202143e-01 3.193562e-01 -6.373392e-01 8.683123e-02 1.903861e-01 7.818961e-02 7.641144e-02 6.596502e-02 4.716542e-02 -7.574014e-02 -4.745028e-02 -9.094577e-04 -4.248824e-02 -1.029096e-01 -8.891851e-02 -5.924389e-02
<VARIANCE> 39
 2.701582e+01 6.376991e+01 4.306309e+01 2.837660e+01 1.903671e+01 2.308873e+01 1.471311e+01 2.429823e+01 5.208812e+01 2.783490e+01 1.663204e+01 1.926811e+01 6.072160e+01 1.489507e+00 2.774699e+00 2.308341e+00 1.150414e+00 1.264014e+00 1.195634e+00 1.470938e+00 1.311569e+00 1.924629e+00 1.579174e+00 1.463932e+00 9.919530e-01 1.211593e+00 2.269539e-01 5.336019e-01 4.014833e-01 2.373555e-01 2.203373e-01 2.515804e-01 2.646888e-01 2.299662e-01 2.922649e-01 2.686985e-01 2.726864e-01 2.044384e-01 1.809747e-01
<GCONST> 1.032056e+02
<TRANSP> 5
 0.000000e+00 1.000000e+00 0.000000e+00 0.000000e+00 0.000000e+00
 0.000000e+00 6.126934e-01 3.873066e-01 0.000000e+00 0.000000e+00
 0.000000e+00 0.000000e+00 7.400088e-01 2.599912e-01 0.000000e+00
 0.000000e+00 0.000000e+00 0.000000e+00 9.012332e-01 9.876682e-02
 0.000000e+00 0.000000e+00 0.000000e+00 0.000000e+00 0.000000e+00
<ENDHMM>
~h "aa"
<BEGINHMM>
<NUMSTATES> 5
<STATE> 2
<MEAN> 39
 -1.020792e+00 -2.592095e+00 -2.406752e+00 -1.023014e+00 -4.805326e+00 2.915417e+00 -3.713883e-01 2.183905e+00 1.596765e+00 -2.891800e+00 3.551566e+00 3.298161e+00 8.170374e+01 2.784983e+00 8.626605e-02 -9.141243e-01 -2.448203e+00 -1.991381e+00 -6.972731e-01 -1.477363e+00 -5.161310e-01 1.211357e+00 1.040231e+00 4.343554e-02 -2.355935e-01 2.518623e+00 -3.751067e-01 2.337434e-01 -6.038102e-02 -4.338899e-03 2.396240e-01 4.399415e-01 2.845799e-01 -4.686954e-02 3.613075e-01 5.444030e-01 -3.353210e-01 -2.136286e-01 -4.599262e-01
<VARIANCE> 39
 5.042387e+01 3.473185e+01 2.075702e+01 2.662316e+01 2.971480e+01 1.014346e+01 6.556208e+01 3.868531e+01 4.385896e+01 4.979327e+01 3.334120e+01 3.036659e+01 3.595240e+01 3.388122e+00 5.694628e+00 2.481037e+00 1.981018e+00 5.366208e+00 2.780768e+00 4.866804e+00 4.672404e+00 5.215175e+00 8.519325e+00 4.366384e+00 3.933902e+00 4.701214e+00 5.525954e-01 1.201106e+00 5.144911e-01 3.913761e-01 1.083382e+00 3.609451e-01 1.069635e+00 5.561715e-01 6.155235e-01 1.099300e+00 4.929639e-01 5.214767e-01 6.496130e-01
<GCONST> 1.301112e+02
<STATE> 3
<MEAN> 39
 7.174671e+00 -3.179169e+00 -8.064406e+00 -6.262286e+00 -9.336678e+00 3.002131e+00 -3.634542e+00 1.034968e+00 9.312572e+00 4.323009e+00 -2.334314e+00 1.245187e+00 8.477476e+01 1.491737e-01 -2.002266e-01 -5.118776e-01 -6.450052e-01 -5.011886e-01 6.590521e-01 3.893236e-01 -8.168650e-01 5.813233e-01 9.274228e-01 -4.993973e-01 -1.926320e-01 1.273814e-01 -3.146571e-01 8.105243e-02 3.086996e-01 3.639188e-01 4.026594e-01 1.032525e-01 6.090316e-02 3.488274e-02 -2.542381e-01 -3.407575e-01 9.229308e-02 -1.167449e-01 -2.669073e-01
<VARIANCE> 39
 8.762964e+00 1.424812e+01 2.085404e+01 2.314195e+01 1.414691e+01 4.197031e+01 3.627789e+01 3.412164e+01 2.592057e+01 2.809377e+01 2.188050e+01 3.095920e+01 3.574701e+00 3.017066e-01 9.629750e-01 9.756601e-01 9.499130e-01 2.738181e+00 1.533185e+00 2.915886e+00 2.182600e+00 2.194830e+00 2.363030e+00 1.527936e+00 1.613802e+00 2.347356e-01 1.487997e-01 1.980216e-01 7.511260e-02 2.428503e-01 1.570111e-01 4.324546e-01 4.815009e-01 8.630618e-01 3.929949e-01 2.617487e-01 4.149809e-01 3.612379e-01 7.414857e-02
<GCONST> 9.577621e+01
<STATE> 4
<MEAN> 39
 4.940275e+00 4.650869e-01 -5.268387e+00 -8.368936e+00 -8.943021e+00 5.425973e+00 -2.176085e+00 -2.068166e+00 7.576023e+00 4.573495e+00 -1.159744e+00 -1.100111e+00 8.515824e+01 -2.406849e-01 9.301045e-02 3.062770e-01 4.228532e-01 8.633010e-01 1.743449e-02 -2.430925e-01 2.637759e-01 -6.021803e-01 -8.325199e-01 3.176712e-01 2.730033e-01 -2.328655e-01 -1.674113e-01 -4.608482e-02 1.158451e-01 3.045891e-01 2.130205e-01 1.028310e-02 8.046729e-02 7.768621e-02 -1.411607e-01 -1.460529e-01 8.247767e-02 7.520901e-02 -1.233728e-01
<VARIANCE> 39
 4.040733e+00 1.006404e+01 1.068438e+01 1.453253e+01 3.936842e+01 1.905928e+01 3.330401e+01 1.801420e+01 3.440097e+01 3.842009e+01 3.726514e+01 2.342547e+01 2.311676e+00 3.833850e-01 6.844158e-01 8.547985e-01 1.833172e+00 1.719607e+00 7.392924e-01 2.279078e+00 1.628192e+00 1.118858e+00 2.387253e+00 1.413765e+00 1.583504e+00 3.025402e-01 7.993982e-02 1.576440e-01 1.178344e-01 2.326647e-01 2.222168e-01 1.580773e-01 4.981365e-01 2.383403e-01 2.018268e-01 3.529569e-01 1.998728e-01 2.433263e-01 6.599645e-02
<GCONST> 8.766339e+01
<TRANSP> 5
 0.000000e+00 1.000000e+00 0.000000e+00 0.000000e+00 0.000000e+00
 0.000000e+00 7.182533e-01 2.817467e-01 0.000000e+00 0.000000e+00
 0.000000e+00 0.000000e+00 7.648201e-01 2.351799e-01 0.000000e+00
 0.000000e+00 0.000000e+00 0.000000e+00 8.946733e-01 1.053267e-01
 0.000000e+00 0.000000e+00 0.000000e+00 0.000000e+00 0.000000e+00
<ENDHMM>
~h "ae"
<BEGINHMM>
<NUMSTATES> 5
<STATE> 2
<MEAN> 39
 -1.400942e+01 -4.107615e-01 -1.536481e+00 6.186091e+00 2.946691e+00 5.109930e+00 2.176365e+00 3.522685e+00 3.935951e+00 3.356679e+00 4.231874e+00 5.430376e+00 6.732391e+01 3.815213e-01 -1.657636e-01 -3.645402e-01 -3.205408e-01 4.077462e-02 -5.111317e-02 -5.411130e-01 -1.428749e-01 9.874573e-02 -1.929652e-02 2.761999e-01 3.331465e-01 3.277787e-01 3.116085e-01 -3.393533e-02 -1.102800e-01 -1.239619e-01 -2.187397e-02 -1.139543e-01 -3.179550e-01 -1.257315e-01 -5.657510e-02 -1.145203e-01 -3.593331e-02 -1.187909e-02 2.484036e-01
<VARIANCE> 39
 3.796415e+01 2.930988e+01 1.455932e+01 2.600423e+01 2.054708e+01 1.703457e+01 3.406134e+01 2.031936e+01 1.738354e+01 3.240157e+01 1.918690e+01 1.493671e+01 4.027273e+01 3.412188e+00 2.541511e+00 1.307907e+00 1.670172e+00 1.157085e+00 1.408034e+00 4.933820e+00 2.607737e+00 1.437817e+00 1.514234e+00 1.688236e+00 1.450730e+00 2.321211e+00 4.506362e-01 3.563783e-01 2.392128e-01 3.248735e-01 2.020415e-01 1.908340e-01 6.779692e-01 3.780954e-01 2.956969e-01 2.822569e-01 2.895640e-01 2.807025e-01 3.210028e-01
<GCONST> 1.060835e+02
<STATE> 3
<MEAN> 39
 2.001100e+00 -3.361673e+00 -4.591519e+00 2.614548e+00 4.912459e+00 2.863048e+00 -1.418873e+01 -4.645382e+00 3.415915e+00 -3.739748e+00 4.478573e+00 6.961223e+00 8.230580e+01 2.287523e+00 -6.223749e-01 -1.168252e+00 -1.442816e+00 -2.507988e-01 -2.412552e-01 -2.279551e+00 -4.417149e-01 4.067680e-01 -6.835536e-01 4.235000e-01 6.827292e-01 2.302613e+00 -7.857685e-01 -2.727514e-03 8.379026e-02 1.231134e-01 1.273949e-01 3.878495e-01 9.301833e-01 3.847637e-01 1.852902e-01 4.625932e-01 5.375955e-02 -2.727143e-01 -5.567870e-01
<VARIANCE> 39
 1.610898e+01 1.777412e+01 4.711713e+01 2.536366e+01 1.954286e+01 2.939384e+01 3.067961e+01 3.109792e+01 2.773621e+01 2.657605e+01 1.710285e+01 1.622982e+01 2.506828e+01 3.819114e+00 2.531332e+00 1.473153e+00 1.868028e+00 2.373521e+00 2.384025e+00 6.528558e+00 3.327876e+00 2.203584e+00 2.143261e+00 1.870066e+00 2.033234e+00 3.112471e+00 3.348643e-01 5.897615e-01 4.186870e-01 3.261940e-01 2.840872e-01 4.354004e-01 7.077364e-01 5.114123e-01 4.510745e-01 3.070331e-01 4.308504e-01 3.713487e-01 3.308221e-01
<GCONST> 1.135661e+02
<STATE> 4
<MEAN> 39
 4.540397e+00 -3.511576e+00 -6.274001e+00 -3.829808e+00 2.180574e+00 5.473879e+00 -1.241976e+01 -4.488329e+00 6.159191e+00 -1.626969e+00 5.842573e+00 5.015411e+00 8.591716e+01 -2.566217e-02 5.134820e-01 -3.360645e-02 2.208143e-01 6.112507e-01 3.246374e-01 9.790619e-02 -4.042758e-01 -2.444837e-01 -1.636625e-01 -2.635356e-01 -3.359523e-01 -4.082775e-01 -2.141343e-01 1.828507e-01 2.646353e-01 2.799926e-01 6.063610e-02 1.315911e-01 3.034187e-01 1.190793e-02 -2.090587e-01 7.610075e-03 -1.293866e-01 -1.108699e-01 -3.483449e-01
<VARIANCE> 39
 5.672936e+00 1.294516e+01 2.366063e+01 2.915819e+01 4.664433e+01 3.233718e+01 4.445852e+01 2.643270e+01 2.229570e+01 3.704728e+01 2.084653e+01 1.770555e+01 5.112772e+00 3.059327e-01 9.804910e-01 1.441733e+00 1.685936e+00 1.499797e+00 2.254107e+00 2.317245e+00 1.840806e+00 2.061027e+00 1.252616e+00 1.678959e+00 1.221489e+00 6.734830e-01 1.024571e-01 1.652149e-01 1.804147e-01 1.932317e-01 3.029602e-01 2.636975e-01 6.927598e-01 3.955994e-01 3.380838e-01 2.623147e-01 3.047557e-01 2.954741e-01 1.017253e-01
<GCONST> 9.640936e+01
<TRANSP> 5
 0.000000e+00 1.000000e+00 0.000000e+00 0.000000e+00 0.000000e+00
 0.000000e+00 8.499037e-01 1.500963e-01 0.000000e+00 0.000000e+00
 0.000000e+00 0.000000e+00 6.465711e-01 3.534289e-01 0.000000e+00
 0.000000e+00 0.000000e+00 0.000000e+00 8.602114e-01 1.397886e-01
 0.000000e+00 0.000000e+00 0.000000e+00 0.000000e+00 0.000000e+00
<ENDHMM>
~h "ah"
<BEGINHMM>
<NUMSTATES> 5
<STATE> 2
<MEAN> 39
 -4.393249e+00 -3.052900e+00 6.797013e-01 6.679821e+00 3.327713e-01 1.864533e+00 -1.353861e+00 5.851656e-01 -1.151988e+00 -3.229351e+00 2.306594e+00 2.157873e+00 7.707511e+01 2.288488e+00 -9.842055e-01 -9.540502e-01 -1.055592e+00 -6.198943e-01 -6.611669e-01 -2.119901e+00 -4.745019e-01 1.402287e-01 -1.248908e+00 -2.800949e-01 -2.135956e-01 2.175235e+00 3.815690e-02 2.704966e-01 -7.869294e-02 -2.979789e-01 3.072807e-01 1.367737e-01 -3.691983e-01 1.124604e-01 2.823319e-01 4.448270e-02 1.055632e-03 3.978061e-02 1.377444e-02
<VARIANCE> 39
 5.844207e+01 8.077616e+01 2.652513e+01 3.774650e+01 4.159716e+01 4.237653e+01 6.189700e+01 6.090579e+01 4.370396e+01 3.982538e+01 2.780370e+01 3.562904e+01 6.810583e+01 4.336506e+00 1.134774e+01 3.180921e+00 4.341751e+00 6.944859e+00 5.165311e+00 8.322829e+00 5.169458e+00 3.447388e+00 5.179665e+00 2.601166e+00 3.790702e+00 5.320995e+00 7.326891e-01 2.040177e+00 4.318128e-01 6.926875e-01 1.076700e+00 8.976133e-01 1.380217e+00 9.124117e-01 5.786372e-01 7.361157e-01 3.893227e-01 5.627960e-01 1.120181e+00
<GCONST> 1.391759e+02
<STATE> 3
<MEAN> 39
 6.139378e+00 -2.166968e+00 -4.865248e+00 7.749140e-03 8.842877e-01 -1.223846e+00 -1.271843e+01 1.423588e-01 -5.484562e-01 -1.003556e+01 5.748246e-01 2.981540e+00 8.463397e+01 1.767603e-02 8.338572e-01 -2.197573e-01 -3.073849e-02 6.080685e-01 3.088250e-01 -2.328797e-01 2.906871e-01 3.088166e-01 7.290442e-02 -1.571424e-01 -7.258827e-03 -5.775313e-01 -8.015963e-01 1.068764e-02 4.879127e-01 3.802305e-01 -4.180416e-03 4.110754e-01 1.024765e+00 2.667902e-02 -2.631244e-02 5.294148e-01 6.903563e-03 -1.416199e-01 -5.578451e-01
<VARIANCE> 39
 7.769126e+00 1.800875e+01 3.358374e+01 3.347439e+01 3.600558e+01 2.787164e+01 4.147880e+01 4.808095e+01 4.051488e+01 3.387252e+01 3.015396e+01 3.281766e+01 7.415016e+00 2.797048e+00 1.749683e+00 5.078128e+00 3.256677e+00 1.674880e+00 3.369618e+00 8.954444e+00 2.770145e+00 2.689841e+00 4.190357e+00 2.111856e+00 1.973804e+00 1.773286e+00 2.363120e-01 4.938267e-01 4.848567e-01 4.604730e-01 4.403920e-01 4.860198e-01 7.989933e-01 4.486253e-01 5.437445e-01 7.474188e-01 5.009724e-01 3.522697e-01 1.984564e-01
<GCONST> 1.175680e+02
<STATE> 4
<MEAN> 39
 -2.608296e+00 4.493843e-01 -6.967878e-02 4.568100e+00 1.589519e+00 3.630389e+00 -4.156496e+00 -1.559103e-01 1.507001e-01 -3.915807e+00 6.752434e-01 1.651420e+00 7.582838e+01 -1.706181e+00 2.825266e-01 8.788883e-02 6.193187e-02 -2.550994e-01 7.092274e-01 1.374515e+00 6.831615e-02 4.935825e-01 1.366044e+00 4.399447e-01 6.859931e-01 -1.675231e+00 1.491627e-01 -1.871546e-01 -3.373407e-01 -2.156276e-01 -3.462826e-02 -1.545146e-01 -4.026087e-01 5.380324e-02 1.029801e-01 -2.055618e-01 -4.138177e-02 1.530870e-01 1.826229e-01
<VARIANCE> 39
 3.224314e+01 3.467208e+01 2.798707e+01 3.430456e+01 3.491134e+01 1.989208e+01 5.297248e+01 2.568296e+01 4.080553e+01 3.822737e+01 2.800292e+01 3.940460e+01 2.713423e+01 3.132035e+00 2.201253e+00 2.010169e+00 2.623995e+00 2.953798e+00 4.551533e+00 7.167856e+00 2.599688e+00 2.012266e+00 3.919613e+00 2.736045e+00 3.291655e+00 2.984882e+00 3.245575e-01 4.310597e-01 3.964562e-01 6.923701e-01 5.280545e-01 6.897132e-01 1.133240e+00 5.508638e-01 3.814677e-01 6.294986e-01 6.293558e-01 7.022081e-01 2.969931e-01
<GCONST> 1.232574e+02
<TRANSP> 5
 0.000000e+00 1.000000e+00 0.000000e+00 0.000000e+00 0.000000e+00
 0.000000e+00 6.243082e-01 3.756917e-01 0.000000e+00 0.000000e+00
 0.000000e+00 0.000000e+00 7.815961e-01 2.184039e-01 0.000000e+00
 0.000000e+00 0.000000e+00 0.000000e+00 6.281157e-01 3.718843e-01
 0.000000e+00 0.000000e+00 0.000000e+00 0.000000e+00 0.000000e+00
<ENDHMM>
~h "ao"
<BEGINHMM>
<NUMSTATES> 5
<STATE> 2
<MEAN> 39
 -1.634903e+01 1.530253e+00 -2.227449e+00 3.744556e+00 1.667681e+00 4.950947e+00 4.684791e+00 6.308247e+00 4.303426e+00 3.463665e+00 3.501229e+00 4.545773e+00 6.483229e+01 -3.566834e-02 9.579608e-02 7.409171e-02 -7.092639e-03 -4.750087e-02 -3.668210e-02 9.560149e-03 4.422829e-02 9.052023e-02 1.380408e-01 1.022671e-01 8.702390e-02 -6.162890e-02 1.133597e-01 2.985616e-02 1.004679e-02 1.441657e-02 3.333291e-03 -3.887992e-02 -1.039351e-01 -8.617862e-02 -3.326822e-02 -5.400229e-02 -6.875680e-02 -5.876654e-02 7.618285e-02
<VARIANCE> 39
 1.683285e+01 7.598929e+00 9.619944e+00 1.181151e+01 1.314695e+01 1.404886e+01 1.471195e+01 1.081620e+01 1.123588e+01 1.410170e+01 1.136147e+01 1.252157e+01 1.530342e+01 5.463305e-01 5.834340e-01 4.830709e-01 8.760301e-01 1.187716e+00 1.168989e+00 1.177344e+00 1.136749e+00 1.207620e+00 1.066073e+00 8.150131e-01 7.320253e-01 3.111297e-01 1.450156e-01 1.103839e-01 1.017544e-01 1.540182e-01 2.424425e-01 2.827822e-01 2.659586e-01 2.465945e-01 2.093367e-01 1.996612e-01 1.672184e-01 1.648764e-01 7.376219e-02
<GCONST> 7.841801e+01
<STATE> 3
<MEAN> 39
 -3.155489e+00 4.313788e+00 -1.498224e+00 3.211576e+00 -1.174342e+00 -3.509667e-01 -4.069834e+00 1.717004e+00 3.957554e+00 9.248639e-01 -1.539388e+00 -1.333571e+00 7.356423e+01 2.640885e+00 1.355240e-01 -3.745939e-01 -8.114835e-01 -1.666421e+00 -2.208820e+00 -1.776183e+00 -1.040170e-01 6.133734e-01 9.297833e-02 -6.616791e-01 -7.028759e-01 1.967690e+00 -1.266618e-01 -1.073022e-01 -4.702087e-02 -1.044235e-01 -1.043891e-01 7.893696e-03 1.964225e-01 2.882247e-01 2.073026e-01 9.693231e-02 1.172787e-01 1.812443e-01 -2.774642e-02
<VARIANCE> 39
 6.259826e+01 1.881851e+01 1.766930e+01 2.132923e+01 8.704977e+01 1.505565e+02 4.907214e+01 3.077590e+01 2.937466e+01 7.032767e+01 2.551780e+01 2.551947e+01 4.067299e+01 3.101814e+00 2.208229e+00 1.598938e+00 2.063346e+00 4.176628e+00 6.834177e+00 4.444641e+00 4.509295e+00 2.791644e+00 3.676114e+00 2.290172e+00 3.520799e+00 1.636485e+00 7.344660e-01 3.388242e-01 2.535198e-01 3.078203e-01 6.482009e-01 1.316690e+00 9.508438e-01 6.172282e-01 4.581748e-01 5.015480e-01 3.502045e-01 4.209856e-01 4.035608e-01
<GCONST> 1.247495e+02
<STATE> 4
<MEAN> 39
 6.335066e+00 4.254842e+00 -4.127326e+00 -2.545317e+00 -8.580984e+00 -8.314765e+00 -9.556083e+00 5.379357e+00 8.645418e+00 -1.370652e+00 -4.216898e+00 -3.015537e+00 8.146161e+01 -1.394037e-01 -2.191824e-02 -2.213451e-01 -1.285689e-01 5.049875e-01 8.994491e-01 5.193922e-01 -1.005224e-01 -5.237575e-01 -5.598719e-01 -1.340612e-01 1.726069e-01 -1.197552e-01 -1.878996e-01 -2.603238e-02 3.658764e-02 1.500151e-01 2.381294e-01 3.141228e-01 2.371677e-01 -9.931917e-02 -2.310206e-01 -6.092799e-02 5.491279e-02 6.704251e-02 -1.514996e-01
<VARIANCE> 39
 3.876587e+00 2.221361e+01 1.974338e+01 3.433338e+01 2.577005e+01 6.352788e+01 3.916924e+01 2.227083e+01 4.134068e+01 7.091263e+01 1.430673e+01 2.961539e+01 6.831255e+00 6.334471e-01 1.089681e+00 9.187347e-01 1.345981e+00 2.056346e+00 3.614719e+00 2.669887e+00 1.809592e+00 2.832487e+00 2.990478e+00 1.329864e+00 1.792350e+00 6.607558e-01 9.888376e-02 2.141592e-01 1.707601e-01 2.180212e-01 1.804976e-01 3.856324e-01 4.064560e-01 3.368974e-01 2.971298e-01 3.967712e-01 2.758411e-01 2.933949e-01 1.031161e-01
<GCONST> 1.000684e+02
<TRANSP> 5
 0.000000e+00 1.000000e+00 0.000000e+00 0.000000e+00 0.000000e+00
 0.000000e+00 9.383748e-01 6.162519e-02 0.000000e+00 0.000000e+00
 0.000000e+00 0.000000e+00 8.072659e-01 1.927341e-01 0.000000e+00
 0.000000e+00 0.000000e+00 0.000000e+00 9.192702e-01 8.072985e-02
 0.000000e+00 0.000000e+00 0.000000e+00 0.000000e+00 0.000000e+00
<ENDHMM>
~h "aw"
<BEGINHMM>
<NUMSTATES> 5
<STATE> 2
<MEAN> 39
 6.721730e+00 6.015472e+00 -2.694548e+00 9.075947e-01 -9.746171e+00 -1.599422e+01 -1.167893e+01 8.654795e+00 7.977520e+00 -1.918357e+00 -4.979630e+00 -6.334526e+00 8.030313e+01 -1.325876e-01 4.354565e-01 2.212331e-01 2.086001e-01 2.483592e-01 -2.701502e-01 -5.002843e-01 6.119763e-02 3.855033e-01 1.098414e-01 -3.051234e-01 -3.931592e-01 -2.918065e-01 -8.681402e-02 4.433006e-02 9.210078e-02 2.876465e-02 1.337179e-01 3.131362e-01 1.124936e-01 -1.233476e-01 -7.503004e-02 -3.796722e-02 1.061020e-02 2.481532e-02 -6.002035e-02
<VARIANCE> 39
 3.699704e+00 2.008784e+01 2.165831e+01 1.585819e+01 1.383202e+01 2.812810e+01 3.165968e+01 1.884291e+01 2.535675e+01 3.077613e+01 1.429385e+01 1.448323e+01 5.359067e+00 2.667806e-01 6.649095e-01 1.117545e+00 7.195207e-01 1.354893e+00 2.525595e+00 1.840435e+00 1.131663e+00 1.684122e+00 9.928948e-01 1.012052e+00 1.245660e+00 2.990227e-01 3.584472e-02 7.075363e-02 1.486198e-01 1.506133e-01 1.890260e-01 2.949424e-01 3.257393e-01 2.004234e-01 2.753196e-01 1.337530e-01 1.514607e-01 1.996222e-01 2.983448e-02
<GCONST> 8.170113e+01
<STATE> 3
<MEAN> 39
 1.786651e+00 1.352604e+01 1.611687e+00 8.159294e-01 -2.935776e+00 -3.873387e+00 -7.632705e+00 4.100350e+00 6.696969e+00 8.129054e-02 -4.867477e+00 -8.465264e+00 7.410065e+01 -1.612891e+00 3.392386e-01 6.155245e-01 2.928721e-01 6.387118e-01 2.619364e+00 2.811921e+00 -3.126204e-01 -7.811745e-01 3.050729e-01 6.293963e-01 9.779826e-01 -1.237119e+00 -3.288625e-01 -4.427627e-01 -9.656509e-02 2.754089e-01 -9.695094e-02 -2.753693e-01 3.263787e-01 3.717128e-01 6.840593e-02 8.030469e-02 1.385687e-01 3.335893e-01 -1.108464e-01
<VARIANCE> 39
 1.042705e+01 9.102489e+00 1.641090e+01 8.900395e+00 1.207713e+01 2.576639e+01 3.722366e+01 1.274384e+01 1.511128e+01 3.682045e+01 2.739872e+01 1.844522e+01 8.199700e+00 1.132007e+00 1.460223e+00 9.051797e-01 1.433797e+00 1.544557e+00 2.747240e+00 2.205728e+00 2.446520e+00 1.194557e+00 1.627179e+00 1.215284e+00 2.020927e+00 4.826583e-01 1.052191e-01 1.227127e-01 1.662965e-01 1.494267e-01 2.784660e-01 5.248093e-01 7.444181e-01 3.548033e-01 2.702088e-01 2.688480e-01 3.228013e-01 3.745538e-01 5.214251e-02
<GCONST> 9.350877e+01
<STATE> 4
<MEAN> 39
 -1.334844e+01 5.281996e+00 -1.827955e+00 2.928740e+00 1.567777e+00 4.479403e+00 4.271764e+00 6.333409e+00 3.942284e+00 2.122100e+00 5.490629e-01 7.224222e-01 6.713049e+01 -7.877571e-01 -5.812677e-01 -2.122699e-01 8.713900e-02 1.075985e-01 7.413734e-02 1.983603e-01 7.574308e-02 5.481536e-02 2.233456e-01 2.706547e-01 3.136976e-01 -4.161293e-01 1.883050e-01 5.965592e-03 -6.980128e-02 -8.688180e-02 -4.207261e-02 -1.067042e-01 -2.327901e-01 -1.571906e-01 -9.135192e-02 -1.058314e-01 -7.671911e-02 -3.629609e-02 1.333301e-01
<VARIANCE> 39
 1.770178e+01 1.615615e+01 1.795820e+01 1.134127e+01 1.240579e+01 1.671520e+01 1.183072e+01 7.163888e+00 1.095402e+01 2.267214e+01 2.025761e+01 1.740426e+01 6.204680e+00 1.089944e+00 1.141621e+00 9.765310e-01 7.136065e-01 8.219578e-01 1.131317e+00 1.247383e+00 1.201117e+00 7.648492e-01 9.996082e-01 1.070620e+00 1.029140e+00 3.394083e-01 1.109970e-01 1.704618e-01 2.042059e-01 1.556517e-01 1.944847e-01 2.650672e-01 3.008840e-01 2.124633e-01 1.663847e-01 2.718278e-01 2.692225e-01 2.144863e-01 4.960991e-02
<GCONST> 8.248348e+01
<TRANSP> 5
 0.000000e+00 1.000000e+00 0.000000e+00 0.000000e+00 0.000000e+00
 0.000000e+00 9.385247e-01 6.147533e-02 0.000000e+00 0.000000e+00
 0.000000e+00 0.000000e+00 8.075063e-01 1.924937e-01 0.000000e+00
 0.000000e+00 0.000000e+00 0.000000e+00 8.948315e-01 1.051685e-01
 0.000000e+00 0.000000e+00 0.000000e+00 0.000000e+00 0.000000e+00
<ENDHMM>
~h "ax"
<BEGINHMM>
<NUMSTATES> 5
<STATE> 2
<MEAN> 39
 1.450008e+00 -2.026620e+00 -1.702989e+00 6.010782e+00 3.513972e+00 2.590674e+00 -7.523640e+00 6.925991e-01 3.238941e-01 -9.495927e+00 -3.540613e+00 1.826484e+00 7.978187e+01 2.142516e+00 3.521339e-01 -3.811653e-02 -3.422324e-01 -7.486269e-02 -1.228843e+00 -2.474364e+00 5.175869e-01 1.715480e-01 -2.406545e+00 -9.444377e-01 -4.734485e-02 1.503234e+00 -7.087875e-01 4.016873e-01 2.798741e-01 -1.160803e-02 -6.722088e-02 7.313721e-02 4.002911e-01 1.719051e-01 1.981148e-01 5.129868e-01 3.470816e-01 -1.048388e-01 -6.117666e-01
<VARIANCE> 39
 3.062239e+01 2.824874e+01 3.742867e+01 3.854107e+01 3.418312e+01 4.114172e+01 7.007765e+01 4.636077e+01 2.949772e+01 5.128503e+01 3.741103e+01 2.042883e+01 2.986932e+01 4.517612e+00 4.201960e+00 3.841293e+00 3.027343e+00 3.509032e+00 3.355407e+00 6.502803e+00 4.166591e+00 3.216845e+00 4.321704e+00 3.586130e+00 3.511735e+00 4.691324e+00 5.429353e-01 9.591663e-01 6.460127e-01 6.172468e-01 6.182836e-01 5.253500e-01 1.534990e+00 6.266186e-01 4.695792e-01 7.867832e-01 5.237638e-01 4.597746e-01 6.534225e-01
<GCONST> 1.306994e+02
<STATE> 3
<MEAN> 39
 4.384037e+00 5.747685e-01 -6.951529e-01 5.722312e+00 2.971494e+00 -1.559105e+00 -1.402172e+01 2.271655e+00 1.506142e+00 -1.506756e+01 -5.194522e+00 1.321210e+00 8.106656e+01 -3.853810e-01 7.389778e-01 5.647864e-02 1.234429e-01 9.580775e-02 1.874313e-01 7.792672e-01 2.780840e-02 -6.196813e-02 5.642887e-01 -7.757481e-03 -9.722843e-02 -6.530673e-01 -4.295257e-01 4.034540e-02 9.001489e-02 1.576354e-01 4.133657e-02 3.862611e-01 7.726356e-01 -1.375535e-01 -7.367510e-02 6.175305e-01 1.702908e-01 -1.794282e-02 -3.342239e-01
<VARIANCE> 39
 1.012570e+01 2.403760e+01 2.801320e+01 3.500423e+01 3.608378e+01 4.810904e+01 2.929441e+01 6.294596e+01 4.375378e+01 4.386604e+01 3.534801e+01 2.748117e+01 1.126666e+01 8.237185e-01 1.326569e+00 1.482306e+00 1.349301e+00 1.677016e+00 3.240402e+00 3.892875e+00 2.985748e+00 1.875028e+00 2.724130e+00 1.718570e+00 1.658822e+00 9.810911e-01 1.518294e-01 2.168709e-01 2.525804e-01 2.210635e-01 3.417808e-01 3.881239e-01 5.919201e-01 5.074931e-01 3.140235e-01 4.269168e-01 3.576624e-01 3.089627e-01 1.142673e-01
<GCONST> 1.075834e+02
<STATE> 4
<MEAN> 39
 -3.548452e+00 4.693371e+00 1.136043e+00 8.343888e+00 5.388135e+00 5.116820e+00 -2.421133e+00 1.332379e+00 6.780628e-01 -4.736364e+00 -2.912410e+00 3.698217e-01 7.309216e+01 -1.517785e+00 4.538535e-01 1.712969e-01 2.997727e-01 1.548968e-01 7.594280e-01 1.960983e+00 3.223118e-01 6.521264e-02 1.577287e+00 6.758108e-01 -6.063854e-02 -1.335959e+00 1.046899e-01 -3.554178e-01 -2.464078e-02 -1.697927e-01 -7.292044e-02 -1.547943e-02 -3.557397e-01 -9.492792e-02 8.325484e-02 -1.803509e-01 6.787450e-02 -1.556241e-02 2.592526e-01
<VARIANCE> 39
 4.148394e+01 2.746456e+01 3.040628e+01 4.474068e+01 3.458631e+01 4.256211e+01 5.420404e+01 3.384888e+01 3.676728e+01 3.714135e+01 2.537262e+01 2.051422e+01 3.607012e+01 2.568656e+00 2.189044e+00 2.285446e+00 3.356574e+00 2.172817e+00 2.941144e+00 6.600151e+00 3.073954e+00 2.077688e+00 3.155370e+00 2.084817e+00 1.482978e+00 2.204413e+00 4.619323e-01 3.401439e-01 3.635533e-01 6.105921e-01 4.889614e-01 5.002136e-01 1.015466e+00 6.307607e-01 3.780341e-01 4.921009e-01 3.532630e-01 2.502952e-01 3.098559e-01
<GCONST> 1.197397e+02
<TRANSP> 5
 0.000000e+00 1.000000e+00 0.000000e+00 0.000000e+00 0.000000e+00
 0.000000e+00 5.006407e-01 4.993593e-01 0.000000e+00 0.000000e+00
 0.000000e+00 0.000000e+00 7.642679e-01 2.357322e-01 0.000000e+00
 0.000000e+00 0.000000e+00 0.000000e+00 5.701967e-01 4.298033e-01
 0.000000e+00 0.000000e+00 0.000000e+00 0.000000e+00 0.000000e+00
<ENDHMM>
~h "ay"
<BEGINHMM>
<NUMSTATES> 5
<STATE> 2
<MEAN> 39
 -9.732197e+00 2.047447e+00 1.291397e+00 6.398382e+00 3.147762e+00 6.876772e+00 1.328485e+00 9.463397e-01 1.923742e+00 1.109512e+00 2.174189e+00 3.508105e+00 7.053323e+01 1.643412e+00 -8.731329e-01 -8.528665e-01 -1.244941e+00 -2.223456e+00 -2.140342e+00 -7.029216e-01 1.310309e-01 -2.138907e-01 -2.121107e-01 8.677040e-01 1.525820e-01 1.734406e+00 9.235637e-01 -6.862880e-01 -4.498817e-01 -4.140966e-01 -2.247035e-01 -1.756449e-01 -6.538559e-01 -3.588080e-01 5.528748e-02 -3.838676e-01 9.978904e-02 -4.559653e-02 1.163335e+00
<VARIANCE> 39
 5.534102e+01 5.841632e+01 1.780663e+01 2.217896e+01 4.111811e+01 2.797111e+01 3.069551e+01 3.212385e+01 3.003587e+01 3.969336e+01 1.706724e+01 2.062320e+01 5.565331e+01 3.340504e+00 9.906844e+00 1.962575e+00 2.702992e+00 4.083995e+00 4.182372e+00 3.106456e+00 3.556313e+00 2.718075e+00 2.722407e+00 3.263162e+00 2.413936e+00 4.267035e+00 7.736423e-01 1.366900e+00 3.535421e-01 6.639689e-01 7.781332e-01 6.636807e-01 3.790914e-01 8.280689e-01 6.887398e-01 9.171339e-01 3.142141e-01 3.578737e-01 8.871330e-01
<GCONST> 1.265919e+02
<STATE> 3
<MEAN> 39
 3.429737e-01 -3.885728e+00 -4.633901e+00 5.165429e-01 -3.954326e+00 1.793067e+00 -1.757118e+00 -1.681462e-01 2.025490e+00 -8.534808e-01 3.900767e+00 1.901486e+00 8.145663e+01 3.373063e+00 -1.181475e+00 -1.571429e+00 -2.099780e+00 -1.191529e+00 -6.537050e-01 -2.094578e+00 -9.299948e-01 1.336876e-01 -9.595281e-01 6.802314e-01 2.297450e-01 3.658823e+00 -5.431272e-01 5.355030e-01 2.340697e-01 1.023108e-01 8.844094e-01 6.397338e-01 -2.793969e-01 -1.461551e-03 3.003201e-01 6.446553e-02 -2.406710e-02 3.054093e-01 -5.835224e-01
<VARIANCE> 39
 5.049291e+01 5.116058e+01 3.698597e+01 4.639379e+01 3.137776e+01 5.507931e+01 4.421064e+01 4.441772e+01 3.209321e+01 5.063203e+01 2.977334e+01 3.288572e+01 5.737463e+01 4.621968e+00 4.979663e+00 3.386495e+00 4.224113e+00 5.459190e+00 4.222953e+00 3.800667e+00 4.737211e+00 3.532507e+00 5.383278e+00 3.037758e+00 4.343776e+00 6.101453e+00 1.122965e+00 1.204872e+00 6.354465e-01 9.223575e-01 8.462726e-01 8.263857e-01 8.717413e-01 8.430495e-01 7.246431e-01 7.992709e-01 5.806946e-01 5.418320e-01 1.294957e+00
<GCONST> 1.371661e+02
<STATE> 4
<MEAN> 39
 3.259250e+00 -2.899831e+00 -4.006342e-01 2.494791e+00 4.342222e+00 3.917620e+00 -1.591869e+01 -5.652803e+00 3.913883e+00 -6.145597e+00 2.714154e+00 4.671631e+00 8.488672e+01 -3.592915e-01 2.666611e-01 7.048333e-01 1.064019e+00 9.940452e-01 3.042492e-01 -6.681160e-01 -5.165434e-01 5.716511e-02 -2.043554e-01 -4.235733e-01 -1.091033e-01 -4.873999e-01 -1.783240e-01 9.607811e-02 1.048252e-02 1.390640e-01 -2.948935e-02 5.058590e-02 4.402928e-01 1.605241e-01 -9.914563e-02 1.489923e-01 -5.347850e-02 -1.322894e-01 -2.552011e-01
<VARIANCE> 39
 7.533437e+00 1.757262e+01 3.703224e+01 6.709575e+01 3.938194e+01 3.037908e+01 5.654121e+01 5.095931e+01 2.933558e+01 3.445716e+01 3.092255e+01 1.940019e+01 8.849603e+00 4.780391e-01 1.351276e+00 1.787322e+00 2.532418e+00 1.673856e+00 1.631512e+00 5.760895e+00 2.643865e+00 2.376607e+00 2.451000e+00 2.463264e+00 1.811673e+00 7.670134e-01 1.133549e-01 1.890485e-01 3.209273e-01 3.899003e-01 3.333667e-01 2.582947e-01 6.004415e-01 4.771346e-01 4.766814e-01 4.025442e-01 5.031009e-01 2.942163e-01 1.222225e-01
<GCONST> 1.074363e+02
<TRANSP> 5
 0.000000e+00 1.000000e+00 0.000000e+00 0.000000e+00 0.000000e+00
 0.000000e+00 3.966672e-01 6.033328e-01 0.000000e+00 0.000000e+00
 0.000000e+00 0.000000e+00 6.398604e-01 3.601396e-01 0.000000e+00
 0.000000e+00 0.000000e+00 0.000000e+00 9.150284e-01 8.497161e-02
 0.000000e+00 0.000000e+00 0.000000e+00 0.000000e+00 0.000000e+00
<ENDHMM>
~h "ch"
<BEGINHMM>
<NUMSTATES> 5
<STATE> 2
<MEAN> 39
 -1.169151e+01 -9.330564e+00 -8.110379e-01 8.139660e+00 -9.461321e-01 1.877920e+00 6.707708e-01 2.713680e+00 4.789077e+00 1.393799e+00 8.973424e-01 2.186564e+00 7.204532e+01 1.329207e-01 -3.294523e+00 1.544408e-01 4.676772e-01 -7.503105e-01 -8.162425e-01 -1.384296e-01 -9.112721e-02 7.505479e-01 8.612208e-03 -4.562718e-02 -8.665138e-01 2.171197e+00 1.966921e-01 -1.852962e-01 4.115420e-01 1.178119e-01 1.056933e-01 -1.409901e-02 -2.155477e-01 -1.447051e-01 -2.342768e-01 -3.916943e-01 -6.091611e-02 -5.761666e-02 4.452996e-01
<VARIANCE> 39
 1.428477e+01 1.372246e+02 2.757485e+01 2.362719e+01 3.154190e+01 4.283141e+01 2.823204e+01 2.914948e+01 1.917182e+01 2.651440e+01 1.473111e+01 2.700452e+01 6.381674e+01 2.353391e+00 1.405397e+01 5.280972e+00 3.168963e+00 2.864502e+00 5.257699e+00 3.645833e+00 4.068356e+00 2.321749e+00 2.932596e+00 1.902253e+00 2.113437e+00 8.210817e+00 4.408190e-01 3.076861e+00 7.374899e-01 4.362301e-01 6.292269e-01 1.233402e+00 8.238178e-01 9.182550e-01 5.267096e-01 4.301892e-01 3.166368e-01 4.322216e-01 1.503866e+00
<GCONST> 1.287448e+02
<STATE> 3
<MEAN> 39
 -1.026613e+01 -2.500089e+01 3.779260e+00 1.016790e+01 -2.104204e+00 2.255070e-01 -1.687487e+00 -8.047119e-01 3.842643e+00 -2.940243e+00 5.163620e-01 -1.260275e+00 8.463833e+01 1.602999e+00 1.776963e+00 -4.051913e-02 1.972176e-02 9.870556e-01 9.844592e-01 -1.026939e+00 -1.098017e+00 -1.689477e+00 -1.211684e+00 -7.741558e-01 4.237563e-01 -1.279303e-01 6.407624e-01 1.704467e+00 -7.001528e-01 -1.873745e-01 1.552253e-01 1.855290e-01 -4.158824e-01 7.786731e-02 6.292464e-02 7.369698e-02 -3.534700e-01 2.550071e-01 -9.137722e-01
<VARIANCE> 39
 1.437504e+01 2.559958e+01 1.633306e+01 9.535475e+00 1.084508e+01 3.314414e+01 1.308433e+01 2.350734e+01 2.760730e+01 2.108041e+01 2.110755e+01 1.644592e+01 7.465859e+00 3.070983e+00 8.601788e+00 1.825235e+00 1.149761e+00 1.646936e+00 1.820061e+00 5.635221e+00 2.720579e+00 1.312163e+00 1.547130e+00 1.474832e+00 1.262092e+00 2.113259e+00 3.866605e-01 1.381113e+00 4.836085e-01 3.140935e-01 3.564139e-01 7.484415e-01 7.672052e-01 4.532988e-01 6.263043e-01 2.808110e-01 3.239660e-01 2.338734e-01 4.305696e-01
<GCONST> 1.083436e+02
<STATE> 4
<MEAN> 39
 -3.795009e+00 -7.244544e+00 -3.491101e-02 1.285491e+01 4.144271e+00 4.569825e+00 -6.717716e+00 -5.439732e+00 5.035818e-01 -3.567956e+00 -4.283768e+00 -3.017771e-02 7.675278e+01 4.071219e-01 2.418271e+00 -4.270850e-01 1.600990e-02 7.575041e-01 1.836135e-01 -4.190759e-01 9.811524e-02 4.819818e-01 4.068355e-01 -3.443194e-01 1.610124e-01 -1.123347e+00 -3.181801e-01 -3.098299e-01 2.896871e-02 -1.694643e-01 -1.022700e-01 -1.500722e-01 2.176046e-01 3.036013e-01 3.458961e-01 1.904204e-01 1.739490e-01 -5.730389e-02 6.167270e-02
<VARIANCE> 39
 3.487355e+01 7.565050e+01 2.561307e+01 2.875593e+01 5.041799e+01 2.804238e+01 8.613661e+01 2.355690e+01 9.226500e+00 2.502285e+01 1.392816e+01 8.856540e+00 3.773369e+01 4.565470e+00 4.777187e+00 3.054893e+00 1.879741e+00 1.609597e+00 1.737964e+00 6.904269e+00 2.062628e+00 1.372543e+00 3.002597e+00 2.404022e+00 8.880147e-01 1.570485e+00 2.981995e-01 7.167134e-01 3.914302e-01 2.972043e-01 3.285223e-01 3.130533e-01 8.697455e-01 3.809664e-01 3.112597e-01 4.050326e-01 2.726652e-01 1.562439e-01 2.646142e-01
<GCONST> 1.124252e+02
<TRANSP> 5
 0.000000e+00 1.000000e+00 0.000000e+00 0.000000e+00 0.000000e+00
 0.000000e+00 8.536569e-01 1.463432e-01 0.000000e+00 0.000000e+00
 0.000000e+00 0.000000e+00 7.244755e-01 2.755245e-01 0.000000e+00
 0.000000e+00 0.000000e+00 0.000000e+00 7.484636e-01 2.515363e-01
 0.000000e+00 0.000000e+00 0.000000e+00 0.000000e+00 0.000000e+00
<ENDHMM>
~h "dh"
<BEGINHMM>
<NUMSTATES> 5
<STATE> 2
<MEAN> 39
 -1.202070e+01 5.608794e+00 2.507807e+00 9.288346e+00 6.551795e+00 7.567588e+00 2.896709e+00 2.335581e+00 1.467635e+00 6.603928e-01 7.273899e-01 1.998742e+00 6.638781e+01 -2.051617e-01 3.387976e-01 3.094599e-01 4.322673e-01 7.377993e-02 1.117247e-01 7.967572e-01 4.146300e-01 -1.705747e-01 2.099934e-01 1.267212e-01 -1.438199e-01 -2.325868e-01 1.572041e-01 -4.924718e-01 -1.754340e-03 -1.505882e-01 -2.519422e-01 -5.582738e-02 -2.466618e-01 -1.395656e-01 2.479389e-02 -1.231017e-01 9.185895e-03 -8.044628e-02 4.074611e-01
<VARIANCE> 39
 2.612605e+01 2.765755e+01 2.205412e+01 2.193901e+01 1.847716e+01 1.222050e+01 1.990795e+01 1.915957e+01 1.757824e+01 1.721795e+01 1.295930e+01 1.478016e+01 1.776246e+01 1.587440e+00 2.350831e+00 1.588355e+00 1.302709e+00 1.625551e+00 1.253554e+00 3.115827e+00 1.859340e+00 1.490561e+00 1.877895e+00 1.525833e+00 1.403965e+00 1.335285e+00 2.082416e-01 5.855461e-01 2.651545e-01 2.431048e-01 3.330824e-01 2.951047e-01 5.353113e-01 3.719575e-01 2.640198e-01 3.224427e-01 2.690648e-01 2.711029e-01 3.428372e-01
<GCONST> 1.013113e+02
<STATE> 3
<MEAN> 39
 -8.531364e+00 4.192001e-02 4.625975e+00 1.030569e+01 3.054614e+00 8.328612e+00 4.585763e+00 1.953651e+00 1.146286e+00 5.566141e-02 1.038934e+00 -6.843570e-01 7.319254e+01 1.578104e+00 -3.355782e+00 -1.798956e-02 -9.665576e-01 -2.017746e+00 -9.083948e-01 -1.932447e+00 -1.588236e+00 -2.439165e-01 -9.053075e-01 4.259724e-01 -4.978757e-01 3.315016e+00 7.901619e-01 1.194694e-01 -1.597362e-02 -1.437962e-01 4.544922e-01 -1.106133e-01 -1.589657e+00 -7.554631e-01 -3.397392e-02 -8.541967e-01 -2.105682e-01 2.803563e-01 5.699332e-01
<VARIANCE> 39
 1.668425e+01 7.047563e+01 2.166177e+01 2.949696e+01 4.316510e+01 2.438811e+01 2.295378e+01 2.404828e+01 1.813819e+01 1.705603e+01 1.650605e+01 1.438591e+01 4.003709e+01 2.031110e+00 3.678635e+00 2.835974e+00 3.269537e+00 3.404807e+00 1.944931e+00 5.698505e+00 3.035875e+00 1.784497e+00 2.826694e+00 1.722404e+00 2.036610e+00 2.101503e+00 2.259469e-01 1.301672e+00 5.647845e-01 7.167416e-01 1.047771e+00 5.782824e-01 8.244874e-01 5.878896e-01 4.399616e-01 4.767157e-01 5.092843e-01 4.666401e-01 7.227805e-01
<GCONST> 1.192920e+02
<STATE> 4
<MEAN> 39
 -4.145046e-01 -4.852954e+00 5.805779e+00 9.381493e+00 3.217087e+00 7.075582e+00 -8.418865e+00 -7.272694e+00 -8.650383e-01 -7.008186e+00 4.434252e-01 -2.289948e-01 8.287424e+01 2.341263e+00 -1.219843e-01 -2.669152e-01 -3.772237e-01 1.356303e+00 -3.672634e-01 -4.973791e+00 -1.806459e+00 -8.055756e-02 -2.963341e+00 -7.148715e-01 1.078279e+00 1.919669e+00 -4.014999e-01 8.970734e-01 -3.373971e-01 8.900101e-02 5.216780e-01 -7.612679e-02 3.753719e-01 8.727048e-01 2.641669e-01 1.218646e-01 -2.994931e-02 2.970389e-01 -8.838099e-01
<VARIANCE> 39
 9.891869e+00 1.699878e+01 1.749614e+01 2.572726e+01 2.820112e+01 1.692185e+01 4.750330e+01 2.533507e+01 2.108294e+01 2.831670e+01 2.093450e+01 1.932940e+01 9.180655e+00 1.667214e+00 3.334733e+00 2.198546e+00 3.333049e+00 3.403940e+00 3.035231e+00 3.656799e+00 3.973047e+00 2.610974e+00 3.003828e+00 3.210454e+00 2.431183e+00 2.555189e+00 1.749427e-01 5.901896e-01 2.749758e-01 3.046943e-01 8.022896e-01 3.823031e-01 1.102081e+00 4.625083e-01 3.019636e-01 5.106080e-01 3.946277e-01 3.847424e-01 1.797321e-01
<GCONST> 1.124790e+02
<TRANSP> 5
 0.000000e+00 1.000000e+00 0.000000e+00 0.000000e+00 0.000000e+00
 0.000000e+00 8.350723e-01 1.649276e-01 0.000000e+00 0.000000e+00
 0.000000e+00 0.000000e+00 6.544502e-01 3.455498e-01 0.000000e+00
 0.000000e+00 0.000000e+00 0.000000e+00 5.198643e-01 4.801358e-01
 0.000000e+00 0.000000e+00 0.000000e+00 0.000000e+00 0.000000e+00
<ENDHMM>
~h "ea"
<BEGINHMM>
<NUMSTATES> 5
<STATE> 2
<MEAN> 39
 -7.391330e+00 -2.793995e-01 2.593855e-01 6.215729e+00 3.197216e+00 4.507828e+00 -2.881577e+00 1.071307e+00 3.293610e+00 -1.702413e+00 2.116229e-01 1.528084e+00 7.316100e+01 -8.549295e-03 6.045978e-03 9.986501e-03 -5.830497e-03 -9.514267e-03 -1.506619e-03 -1.506659e-03 -3.180315e-03 6.676455e-03 -5.438070e-03 4.050421e-03 -4.468870e-03 -5.404587e-04 -3.875157e-05 3.997293e-04 3.423740e-04 6.946201e-05 -2.319832e-04 -6.938387e-04 -4.412478e-05 -4.860927e-04 1.315680e-03 -9.365405e-04 -4.231212e-04 2.471485e-04 -2.932212e-04
<VARIANCE> 39
 8.975014e+01 5.484237e+01 3.303328e+01 4.558641e+01 4.748297e+01 5.002078e+01 9.481474e+01 4.729189e+01 3.321279e+01 5.181567e+01 3.966083e+01 2.784256e+01 7.606396e+01 2.211436e+00 2.785441e+00 1.626260e+00 1.902343e+00 2.248548e+00 2.452049e+00 4.360876e+00 2.359010e+00 2.040265e+00 2.571942e+00 1.964578e+00 1.676181e+00 2.222835e+00 2.912704e-01 4.665184e-01 2.795431e-01 3.127733e-01 3.728060e-01 3.948886e-01 6.864723e-01 4.205315e-01 3.711796e-01 4.366302e-01 3.409353e-01 2.969837e-01 3.289974e-01
<GCONST> 1.202872e+02
<STATE> 3
<MEAN> 39
 -7.391330e+00 -2.793995e-01 2.593855e-01 6.215729e+00 3.197216e+00 4.507828e+00 -2.881577e+00 1.071307e+00 3.293610e+00 -1.702413e+00 2.116229e-01 1.528084e+00 7.316100e+01 -8.549295e-03 6.045978e-03 9.986501e-03 -5.830497e-03 -9.514267e-03 -1.506619e-03 -1.506659e-03 -3.180315e-03 6.676455e-03 -5.438070e-03 4.050421e-03 -4.468870e-03 -5.404587e-04 -3.875157e-05 3.997293e-04 3.423740e-04 6.946201e-05 -2.319832e-04 -6.938387e-04 -4.412478e-05 -4.860927e-04 1.315680e-03 -9.365405e-04 -4.231212e-04 2.471485e-04 -2.932212e-04
<VARIANCE> 39
 8.975014e+01 5.484237e+01 3.303328e+01 4.558641e+01 4.748297e+01 5.002078e+01 9.481474e+01 4.729189e+01 3.321279e+01 5.181567e+01 3.966083e+01 2.784256e+01 7.606396e+01 2.211436e+00 2.785441e+00 1.626260e+00 1.902343e+00 2.248548e+00 2.452049e+00 4.360876e+00 2.359010e+00 2.040265e+00 2.571942e+00 1.964578e+00 1.676181e+00 2.222835e+00 2.912704e-01 4.665184e-01 2.795431e-01 3.127733e-01 3.728060e-01 3.948886e-01 6.864723e-01 4.205315e-01 3.711796e-01 4.366302e-01 3.409353e-01 2.969837e-01 3.289974e-01
<GCONST> 1.202872e+02
<STATE> 4
<MEAN> 39
 -7.391330e+00 -2.793995e-01 2.593855e-01 6.215729e+00 3.197216e+00 4.507828e+00 -2.881577e+00 1.071307e+00 3.293610e+00 -1.702413e+00 2.116229e-01 1.528084e+00 7.316100e+01 -8.549295e-03 6.045978e-03 9.986501e-03 -5.830497e-03 -9.514267e-03 -1.506619e-03 -1.506659e-03 -3.180315e-03 6.676455e-03 -5.438070e-03 4.050421e-03 -4.468870e-03 -5.404587e-04 -3.875157e-05 3.997293e-04 3.423740e-04 6.946201e-05 -2.319832e-04 -6.938387e-04 -4.412478e-05 -4.860927e-04 1.315680e-03 -9.365405e-04 -4.231212e-04 2.471485e-04 -2.932212e-04
<VARIANCE> 39
 8.975014e+01 5.484237e+01 3.303328e+01 4.558641e+01 4.748297e+01 5.002078e+01 9.481474e+01 4.729189e+01 3.321279e+01 5.181567e+01 3.966083e+01 2.784256e+01 7.606396e+01 2.211436e+00 2.785441e+00 1.626260e+00 1.902343e+00 2.248548e+00 2.452049e+00 4.360876e+00 2.359010e+00 2.040265e+00 2.571942e+00 1.964578e+00 1.676181e+00 2.222835e+00 2.912704e-01 4.665184e-01 2.795431e-01 3.127733e-01 3.728060e-01 3.948886e-01 6.864723e-01 4.205315e-01 3.711796e-01 4.366302e-01 3.409353e-01 2.969837e-01 3.289974e-01
<GCONST> 1.202872e+02
<TRANSP> 5
 0.000000e+00 1.000000e+00 0.000000e+00 0.000000e+00 0.000000e+00
 0.000000e+00 6.000000e-01 4.000000e-01 0.000000e+00 0.000000e+00
 0.000000e+00 0.000000e+00 6.000000e-01 4.000000e-01 0.000000e+00
 0.000000e+00 0.000000e+00 0.000000e+00 7.000000e-01 3.000000e-01
 0.000000e+00 0.000000e+00 0.000000e+00 0.000000e+00 0.000000e+00
<ENDHMM>
~h "eh"
<BEGINHMM>
<NUMSTATES> 5
<STATE> 2
<MEAN> 39
 3.514736e+00 -2.957457e+00 8.996708e-01 3.741027e+00 5.982760e+00 4.998988e+00 -1.725745e+01 -6.101421e+00 -1.314706e+00 -1.291282e+01 1.828432e+00 3.724794e+00 8.493954e+01 9.160775e-01 2.441731e-02 -1.273286e+00 -1.101246e+00 5.525621e-01 -9.455903e-01 -2.536751e+00 -7.201504e-02 2.359479e-01 -1.036012e+00 8.868323e-01 1.545744e+00 7.103362e-01 -5.540621e-01 -6.972210e-02 -2.411673e-02 2.059162e-01 -2.418601e-01 1.734047e-02 1.196933e+00 5.559576e-01 1.465498e-01 7.641680e-01 6.505300e-02 -9.633408e-02 -4.845521e-01
<VARIANCE> 39
 7.781958e+00 1.349106e+01 3.067150e+01 1.896854e+01 2.929448e+01 3.009713e+01 3.508247e+01 4.402635e+01 2.958816e+01 2.285778e+01 2.623969e+01 1.681093e+01 6.196553e+00 8.945279e-01 1.974608e+00 1.224253e+00 1.221655e+00 2.035849e+00 2.198971e+00 4.802212e+00 3.602757e+00 2.487216e+00 3.045776e+00 1.714640e+00 1.570870e+00 6.641918e-01 1.347394e-01 4.100505e-01 2.528292e-01 2.560927e-01 3.712213e-01 4.024937e-01 7.122689e-01 7.628075e-01 4.765629e-01 3.804092e-01 2.856567e-01 2.763120e-01 1.475435e-01
<GCONST> 1.048744e+02
<STATE> 3
<MEAN> 39
 4.507833e+00 -2.799263e+00 -2.112947e+00 1.631135e+00 5.832264e+00 4.298699e+00 -1.832181e+01 -4.476280e+00 3.264613e-02 -1.298071e+01 4.314981e+00 7.637215e+00 8.508834e+01 -1.137100e-01 7.064270e-01 -3.053816e-01 1.950768e-01 2.180206e-01 6.629613e-01 1.107454e+00 -9.923188e-02 8.949637e-02 5.518126e-01 -4.321581e-01 -9.769452e-02 -7.631972e-01 -2.696944e-01 2.903763e-01 2.537785e-01 3.767834e-01 1.670600e-01 4.450979e-01 6.897801e-01 -1.460192e-01 4.394411e-02 3.994030e-01 -4.418750e-01 -6.152914e-01 -4.144069e-01
<VARIANCE> 39
 5.805100e+00 1.189435e+01 2.860767e+01 2.098025e+01 5.086957e+01 2.420408e+01 2.704704e+01 3.077931e+01 2.737156e+01 2.888505e+01 2.530403e+01 1.179015e+01 5.915923e+00 3.597820e-01 1.053291e+00 5.585609e-01 1.483271e+00 1.413407e+00 2.652037e+00 2.455295e+00 2.952457e+00 1.716681e+00 1.958451e+00 3.016621e+00 2.474193e+00 7.616069e-01 1.005436e-01 1.445377e-01 1.307199e-01 1.859881e-01 3.042296e-01 4.102939e-01 4.294090e-01 5.166343e-01 3.695926e-01 4.498895e-01 4.443047e-01 2.588502e-01 5.846455e-02
<GCONST> 9.706122e+01
<STATE> 4
<MEAN> 39
 -1.234242e+00 3.271379e+00 -2.643228e-03 5.433838e+00 1.100408e+00 2.802380e+00 -7.030896e+00 -2.711068e+00 3.634142e+00 -2.493515e+00 -1.420417e+00 9.307721e-01 7.576854e+01 -6.488863e-01 4.395818e-01 1.789900e-01 4.467449e-01 4.103248e-01 6.307971e-01 1.018667e+00 2.381859e-02 2.599806e-01 9.412603e-01 -3.544116e-01 -7.019293e-01 -8.144346e-01 -1.042429e-01 -1.128455e-01 1.230873e-01 -9.161707e-03 3.118105e-02 1.076998e-01 -4.623278e-02 1.743522e-02 5.289292e-02 5.180540e-02 4.410524e-02 -6.414634e-02 2.561236e-02
<VARIANCE> 39
 4.578025e+01 4.005910e+01 3.753217e+01 2.431155e+01 7.274018e+01 8.896194e+01 6.376470e+01 5.874265e+01 6.335500e+01 6.354970e+01 8.656079e+01 5.488432e+01 3.933945e+01 2.253285e+00 3.147790e+00 2.148916e+00 2.174567e+00 2.927046e+00 4.822385e+00 5.098554e+00 3.414646e+00 3.155840e+00 4.242600e+00 4.463261e+00 3.574107e+00 3.070386e+00 2.797350e-01 5.412567e-01 4.561739e-01 4.151877e-01 4.011199e-01 5.613571e-01 5.021241e-01 5.869052e-01 4.433569e-01 5.430064e-01 4.804056e-01 4.409851e-01 3.169730e-01
<GCONST> 1.285517e+02
<TRANSP> 5
 0.000000e+00 1.000000e+00 0.000000e+00 0.000000e+00 0.000000e+00
 0.000000e+00 5.927200e-01 4.072801e-01 0.000000e+00 0.000000e+00
 0.000000e+00 0.000000e+00 7.609696e-01 2.390304e-01 0.000000e+00
 0.000000e+00 0.000000e+00 0.000000e+00 6.826245e-01 3.173755e-01
 0.000000e+00 0.000000e+00 0.000000e+00 0.000000e+00 0.000000e+00
<ENDHMM>
~h "er"
<BEGINHMM>
<NUMSTATES> 5
<STATE> 2
<MEAN> 39
