~o
<STREAMINFO> 1 39
<VECSIZE> 39<NULLD><MFCC_D_A_0><DIAGC>
~h "b"
<BEGINHMM>
<NUMSTATES> 5
<STATE> 2
<MEAN> 39
 -3.450560e+00 3.796124e+00 4.717205e+00 1.167915e+01 6.585854e+00 4.924155e+00 -5.665942e+00 -1.669587e-01 3.516014e+00 -3.258878e+00 -3.714102e+00 -1.238044e+00 7.535918e+01 -1.024026e+00 1.375620e+00 5.132000e-01 6.302916e-01 4.589027e-01 5.031418e-01 1.669902e+00 7.501320e-01 3.233865e-01 1.365203e+00 4.068513e-01 -2.813928e-01 -1.400119e+00 -1.373336e-01 8.361742e-03 4.822198e-02 -7.794875e-02 -5.751504e-03 7.506825e-02 1.017998e-01 -1.537801e-02 -9.098457e-02 6.584428e-03 2.022763e-01 1.938051e-01 -7.508941e-02
<VARIANCE> 39
 3.188696e+01 3.483650e+01 2.351955e+01 4.837297e+01 3.394569e+01 4.333023e+01 9.081260e+01 6.440576e+01 2.832914e+01 3.636354e+01 2.262438e+01 1.539896e+01 2.641385e+01 1.878945e+00 3.392754e+00 1.822097e+00 2.188874e+00 2.236709e+00 3.392147e+00 6.643221e+00 3.638912e+00 2.324775e+00 3.381702e+00 2.262057e+00 1.569349e+00 2.400413e+00 3.375151e-01 4.917354e-01 3.262522e-01 5.459312e-01 4.987084e-01 4.192780e-01 1.109206e+00 7.772123e-01 3.937759e-01 5.094352e-01 2.595679e-01 3.159936e-01 3.625060e-01
<GCONST> 1.200546e+02
<STATE> 3
<MEAN> 39
 -7.147449e+00 9.065233e+00 4.171988e+00 9.530703e+00 5.584803e+00 5.933403e+00 3.149603e+00 6.012611e+00 4.799830e+00 1.154428e+00 -9.912450e-01 -9.136267e-01 6.976708e+01 -1.381212e+00 1.630557e+00 7.718081e-01 3.126107e-01 7.896660e-01 1.028599e+00 1.732420e+00 4.069952e-01 -1.442787e-01 1.214260e+00 9.736414e-01 1.087741e-01 -1.631969e+00 2.498391e-01 -5.294415e-01 5.279240e-02 4.030820e-02 -9.342061e-02 -2.554502e-01 -6.000646e-01 -3.548800e-01 -2.015500e-01 -5.040238e-01 -5.575275e-02 3.491524e-02 4.775619e-01
<VARIANCE> 39
 3.055671e+01 2.271830e+01 1.118551e+01 2.682583e+01 2.439551e+01 2.949587e+01 2.237950e+01 1.468746e+01 1.307369e+01 1.713783e+01 2.136372e+01 2.270389e+01 1.044522e+01 2.470762e+00 3.018651e+00 2.290668e+00 3.900190e+00 2.531720e+00 3.507144e+00 3.146677e+00 3.146759e+00 1.909405e+00 2.804748e+00 2.730140e+00 2.223829e+00 1.584437e+00 1.973012e-01 3.881337e-01 2.555783e-01 2.745249e-01 3.876253e-01 4.656486e-01 4.274656e-01 2.822112e-01 1.865096e-01 2.798432e-01 2.500041e-01 2.547592e-01 1.524907e-01
<GCONST> 1.062170e+02
<STATE> 4
<MEAN> 39
 -8.942233e+00 1.134147e+01 6.821166e+00 1.155880e+01 7.394091e+00 7.904056e+00 5.512584e+00 5.764824e+00 3.356650e+00 1.279787e+00 -1.918102e-01 -7.570428e-01 6.784045e+01 3.169080e-01 -4.073337e-01 -1.095392e-01 -4.855190e-02 -2.962074e-01 -1.433914e-01 -1.306937e-01 -2.747135e-01 -2.623091e-01 -2.141961e-01 -1.081772e-02 2.577491e-02 4.182486e-01 4.117259e-01 -3.666371e-01 -2.315877e-01 -1.908193e-01 -2.628650e-01 -3.103694e-01 -4.912352e-01 -2.154024e-01 -3.052988e-02 -2.487930e-01 -1.667687e-01 -5.468442e-03 4.532570e-01
<VARIANCE> 39
 1.370421e+01 1.549188e+01 1.071259e+01 9.620730e+00 1.039843e+01 1.327351e+01 9.923248e+00 9.004510e+00 7.884449e+00 1.286606e+01 1.609041e+01 1.509119e+01 5.977538e+00 1.780604e+00 2.997714e+00 1.176736e+00 1.046724e+00 2.071793e+00 1.662610e+00 2.079152e+00 1.667345e+00 9.904215e-01 1.581128e+00 1.156322e+00 7.942068e-01 1.981211e+00 1.690538e-01 3.469818e-01 1.689126e-01 1.478032e-01 3.153794e-01 3.796647e-01 4.148982e-01 3.422145e-01 1.929500e-01 3.031648e-01 2.501599e-01 1.756045e-01 2.018084e-01
<GCONST> 9.023550e+01
<TRANSP> 5
 0.000000e+00 1.000000e+00 0.000000e+00 0.000000e+00 0.000000e+00
 0.000000e+00 5.145919e-01 4.854080e-01 0.000000e+00 0.000000e+00
 0.000000e+00 0.000000e+00 2.042065e-01 7.957935e-01 0.000000e+00
 0.000000e+00 0.000000e+00 0.000000e+00 8.731841e-01 1.268159e-01
 0.000000e+00 0.000000e+00 0.000000e+00 0.000000e+00 0.000000e+00
<ENDHMM>
~h "d"
<BEGINHMM>
<NUMSTATES> 5
<STATE> 2
<MEAN> 39
 1.195933e+00 9.515154e-01 -3.759398e+00 5.712803e+00 8.624314e+00 7.348348e+00 -7.836591e+00 -4.405716e+00 -1.239390e+00 -6.783325e+00 -1.785121e+00 8.718586e-01 7.814732e+01 -6.758147e-02 -2.623606e-02 1.999712e-01 3.220131e-01 1.193358e-01 3.204351e-01 2.564056e-01 -1.873911e-01 -3.719305e-01 -3.789249e-01 -1.877326e-01 3.341940e-01 -8.793151e-02 -3.057343e-01 1.054316e-01 2.114208e-01 1.441749e-01 -1.730194e-01 -1.385471e-01 3.404322e-01 4.175312e-01 3.040603e-01 2.800472e-01 1.678672e-02 4.778036e-02 -2.696430e-01
<VARIANCE> 39
 2.919094e+01 3.068959e+01 3.511938e+01 5.670667e+01 4.332642e+01 4.188748e+01 9.924859e+01 4.345722e+01 4.588900e+01 3.911567e+01 3.592063e+01 3.009296e+01 2.801616e+01 3.906648e+00 3.707405e+00 2.107274e+00 2.925907e+00 2.961942e+00 5.541018e+00 1.369030e+01 3.513453e+00 4.158329e+00 4.878591e+00 3.150927e+00 2.241105e+00 4.800304e+00 4.614964e-01 6.723785e-01 5.017103e-01 5.677198e-01 4.823780e-01 7.995383e-01 1.833842e+00 5.709158e-01 6.996664e-01 8.501307e-01 6.178951e-01 4.085035e-01 5.734916e-01
<GCONST> 1.316674e+02
<STATE> 3
<MEAN> 39
 -1.323500e+00 3.048018e+00 -9.282980e-01 6.700906e+00 7.953321e+00 8.869097e+00 -3.844482e+00 -2.030348e+00 -3.589878e-01 -4.987002e+00 -2.056593e+00 1.112270e+00 7.518026e+01 -1.207955e+00 2.777183e-01 7.332669e-01 5.599894e-01 -3.199783e-01 4.818228e-02 1.344317e+00 1.046343e+00 4.952811e-01 6.066992e-01 2.928616e-01 3.779448e-01 -1.032424e+00 2.682731e-04 -8.137993e-02 -1.801465e-02 -1.004723e-01 -2.102329e-01 -2.815397e-01 -2.436239e-01 1.262028e-02 1.947047e-01 8.431073e-02 1.110373e-01 -6.011610e-02 7.639485e-02
<VARIANCE> 39
 2.791963e+01 3.599321e+01 2.758281e+01 3.651690e+01 4.561893e+01 4.203082e+01 1.020596e+02 4.505461e+01 4.843826e+01 3.723400e+01 3.079705e+01 3.153436e+01 3.010044e+01 1.987960e+00 2.949221e+00 1.726900e+00 3.600596e+00 5.071064e+00 4.113280e+00 8.251307e+00 3.508311e+00 3.378270e+00 4.044148e+00 3.183307e+00 2.934038e+00 2.442784e+00 3.136830e-01 4.284361e-01 2.433628e-01 4.731187e-01 5.559714e-01 7.814283e-01 1.701946e+00 4.566434e-01 4.508844e-01 7.703001e-01 4.875126e-01 4.168481e-01 4.395471e-01
<GCONST> 1.262916e+02
<STATE> 4
<MEAN> 39
 -6.730832e+00 4.791986e+00 -6.674105e-02 7.081453e+00 6.997699e+00 8.310055e+00 -7.087026e-01 -6.396216e-01 6.838621e-01 -1.249326e+00 6.058064e-01 2.892586e+00 7.036663e+01 -7.101941e-01 -6.518854e-02 2.651250e-01 1.031918e-01 -3.951575e-01 -4.138808e-01 2.643551e-01 5.292931e-01 3.990439e-01 4.132213e-01 2.705036e-01 1.615942e-01 -4.797665e-01 1.969241e-01 -1.739561e-01 -1.103523e-01 -5.209925e-02 -1.135915e-01 -2.083836e-01 -2.533365e-01 -5.100345e-02 1.821754e-02 -7.800140e-02 -8.102271e-02 -1.101292e-01 2.270980e-01
<VARIANCE> 39
 4.559734e+01 2.857840e+01 1.715936e+01 2.691459e+01 3.994278e+01 3.033453e+01 7.070233e+01 2.921675e+01 4.169982e+01 3.350274e+01 2.858126e+01 2.382256e+01 4.668787e+01 1.247393e+00 1.571081e+00 1.235958e+00 1.788930e+00 2.104999e+00 2.663097e+00 3.661843e+00 2.117463e+00 2.436335e+00 2.040417e+00 1.559333e+00 1.721722e+00 1.132936e+00 2.472937e-01 3.230822e-01 1.639276e-01 2.184979e-01 3.407182e-01 4.152091e-01 7.534341e-01 3.559121e-01 4.234625e-01 4.754826e-01 3.258834e-01 3.126221e-01 2.876444e-01
<GCONST> 1.110203e+02
<TRANSP> 5
 0.000000e+00 1.000000e+00 0.000000e+00 0.000000e+00 0.000000e+00
 0.000000e+00 6.414984e-01 3.585016e-01 0.000000e+00 0.000000e+00
 0.000000e+00 0.000000e+00 3.994801e-01 6.005199e-01 0.000000e+00
 0.000000e+00 0.000000e+00 0.000000e+00 6.270009e-01 3.729991e-01
 0.000000e+00 0.000000e+00 0.000000e+00 0.000000e+00 0.000000e+00
<ENDHMM>
~h "f"
<BEGINHMM>
<NUMSTATES> 5
<STATE> 2
<MEAN> 39
 -1.535734e+01 -2.072814e+00 -9.862025e-01 5.541116e+00 2.562158e+00 5.364940e+00 5.213067e+00 3.881114e+00 4.978752e+00 2.931164e+00 4.428582e+00 3.442612e+00 6.853837e+01 -5.199850e-01 -4.491716e-01 -1.147858e-01 -1.957133e-01 -3.399033e-01 -1.969728e-01 2.514794e-01 1.814680e-01 3.799126e-01 3.062237e-01 3.119783e-01 2.157832e-01 -7.168594e-02 5.173251e-01 -3.801143e-02 2.726476e-02 3.439670e-02 1.265677e-02 -1.168160e-01 -6.075579e-01 -3.536625e-01 -2.141427e-01 -4.552423e-01 -2.795064e-01 -1.688793e-01 4.374833e-01
<VARIANCE> 39
 2.598700e+01 4.015137e+01 7.637414e+00 1.555402e+01 2.286138e+01 1.842590e+01 1.554304e+01 1.895205e+01 1.706134e+01 1.688324e+01 1.854279e+01 1.864615e+01 4.232410e+01 3.975269e+00 5.410645e+00 8.948669e-01 1.966519e+00 1.847245e+00 2.030340e+00 3.261263e+00 2.935227e+00 2.315180e+00 1.827698e+00 2.557606e+00 1.234923e+00 2.521230e+00 5.664026e-01 8.957940e-01 1.830933e-01 4.740399e-01 3.986482e-01 4.486589e-01 6.871200e-01 5.470137e-01 3.907788e-01 4.211797e-01 3.707822e-01 2.732538e-01 6.398757e-01
<GCONST> 1.107569e+02
<STATE> 3
<MEAN> 39
 -1.472400e+01 -2.151762e+00 -1.158818e+00 5.693997e+00 2.472000e+00 5.884702e+00 3.845397e+00 4.186210e+00 4.281948e+00 2.066172e+00 3.124167e+00 4.243082e+00 6.750047e+01 3.464494e+00 -1.536049e+00 1.328360e-01 1.539304e+00 7.847379e-01 -9.840968e-01 -4.255205e+00 -2.247579e+00 -3.144734e-01 -2.671386e+00 -1.916135e+00 -1.462069e+00 3.700809e+00 8.980560e-01 -2.288955e-01 2.053827e-01 4.395713e-01 5.419208e-01 -1.800098e-01 -1.245491e+00 -5.880854e-01 2.547976e-02 -6.657262e-01 -3.487104e-01 -5.117472e-01 1.094830e+00
<VARIANCE> 39
 2.806090e+01 4.314038e+01 1.865279e+01 1.230003e+01 3.143642e+01 1.447046e+01 3.362775e+01 1.856660e+01 1.114734e+01 1.185112e+01 1.492254e+01 2.175090e+01 5.627334e+01 4.194597e+00 9.329704e+00 1.568445e+00 4.422998e+00 3.641158e+00 2.047785e+00 8.487942e+00 3.502971e+00 2.577042e+00 3.113791e+00 3.909517e+00 2.873728e+00 6.010199e+00 4.734741e-01 7.034243e-01 2.972403e-01 7.487885e-01 4.160381e-01 4.138531e-01 1.406691e+00 4.848046e-01 4.373821e-01 3.511548e-01 5.198563e-01 7.150502e-01 8.470034e-01
<GCONST> 1.209919e+02
<STATE> 4
<MEAN> 39
 -7.473559e+00 -8.586828e+00 1.954849e+00 1.108006e+01 8.188774e+00 7.489636e+00 -3.617553e+00 -4.422817e+00 3.221380e+00 -3.919067e+00 8.856980e-01 -1.905945e+00 8.200899e+01 1.007124e-01 -2.770038e-01 -1.023248e-03 -1.635710e-01 2.006148e-02 6.354873e-02 2.989548e-01 -9.200037e-03 -7.879078e-02 -2.396616e-02 2.434956e-01 -1.590876e-01 5.782382e-01 -2.444260e-01 2.195614e-01 -3.130732e-02 -1.129031e-01 -1.147754e-01 7.141784e-03 2.354463e-01 2.389144e-01 6.680729e-02 2.043014e-01 6.315073e-02 1.314278e-01 -3.896233e-01
<VARIANCE> 39
 6.410696e+01 3.082907e+01 2.045329e+01 4.970687e+01 5.892849e+01 1.977781e+01 1.495676e+02 4.000634e+01 2.474463e+01 2.781549e+01 4.478754e+01 2.392489e+01 2.940774e+01 7.306176e+00 3.972188e+00 2.283026e+00 4.553471e+00 6.003124e+00 2.137944e+00 1.783000e+01 4.849121e+00 2.921775e+00 4.163629e+00 4.099763e+00 3.076493e+00 5.914533e+00 8.758765e-01 8.507332e-01 4.389972e-01 6.441885e-01 8.236683e-01 3.875919e-01 3.062823e+00 7.575647e-01 6.740692e-01 8.584179e-01 7.681960e-01 5.675036e-01 8.491948e-01
<GCONST> 1.349744e+02
<TRANSP> 5
 0.000000e+00 1.000000e+00 0.000000e+00 0.000000e+00 0.000000e+00
 0.000000e+00 7.663085e-01 2.336915e-01 0.000000e+00 0.000000e+00
 0.000000e+00 0.000000e+00 3.611581e-01 6.388419e-01 0.000000e+00
 0.000000e+00 0.000000e+00 0.000000e+00 8.992728e-01 1.007272e-01
 0.000000e+00 0.000000e+00 0.000000e+00 0.000000e+00 0.000000e+00
<ENDHMM>
~h "g"
<BEGINHMM>
<NUMSTATES> 5
<STATE> 2
<MEAN> 39
 -8.448565e+00 3.760108e+00 2.220126e+00 1.112461e+01 7.575881e+00 7.252836e+00 1.284179e+00 2.565519e+00 2.088061e+00 3.213384e-01 -5.967042e-01 -1.535764e+00 7.001988e+01 1.747167e-01 -1.387972e+00 -4.806302e-01 -6.818587e-01 -1.843407e+00 -1.080604e+00 3.161755e-01 9.573728e-01 4.252769e-01 -2.433544e-01 2.194820e-01 1.337920e-01 9.046679e-01 4.951319e-01 -4.055285e-01 3.342532e-02 -3.151604e-01 -5.242990e-01 -4.967750e-01 -4.129675e-01 4.232232e-02 1.159896e-01 -4.859352e-01 -7.903561e-02 -7.906231e-02 7.252285e-01
<VARIANCE> 39
 3.003032e+01 3.627001e+01 2.643237e+01 2.394337e+01 2.983526e+01 2.073266e+01 3.915966e+01 3.152624e+01 2.620343e+01 2.352960e+01 2.266488e+01 1.723154e+01 3.155227e+01 3.922842e+00 6.076831e+00 3.622640e+00 5.455570e+00 7.346205e+00 4.939492e+00 5.147965e+00 4.692715e+00 3.324206e+00 5.031323e+00 3.705477e+00 2.180608e+00 6.514484e+00 5.641146e-01 9.474835e-01 7.988093e-01 8.451408e-01 1.271487e+00 7.209214e-01 6.336594e-01 1.042554e+00 5.160495e-01 8.764261e-01 7.319782e-01 3.706296e-01 8.105814e-01
<GCONST> 1.303925e+02
<STATE> 3
<MEAN> 39
 -3.689161e+00 -5.259234e+00 1.682860e+00 7.264143e+00 -4.637012e+00 -1.679866e+00 -2.448359e-01 7.142766e+00 5.555705e+00 -5.564100e+00 -3.689885e-01 -2.135008e+00 8.052552e+01 1.910596e+00 1.189158e-01 1.432606e+00 -3.731084e-02 -4.420853e-01 -7.498993e-01 -2.001829e+00 -6.972026e-01 5.102860e-01 -1.252134e+00 -1.279150e+00 -1.225510e+00 1.915316e+00 -1.934787e-01 1.031604e+00 3.701433e-01 3.210759e-01 1.166682e+00 7.702022e-01 -5.589830e-01 -7.374913e-01 1.571216e-04 5.130289e-01 -2.810788e-01 -9.812506e-02 -7.131824e-01
<VARIANCE> 39
 1.759772e+01 4.457866e+01 2.893475e+01 7.519498e+01 1.154791e+02 5.340477e+01 8.135382e+01 6.035141e+01 3.874406e+01 3.131989e+01 2.976517e+01 2.318571e+01 1.933505e+01 2.054357e+00 6.744360e+00 3.172882e+00 5.583948e+00 1.255684e+01 6.917634e+00 7.988060e+00 4.932764e+00 2.878959e+00 5.266151e+00 3.033602e+00 1.773183e+00 3.789677e+00 4.109254e-01 9.269843e-01 8.811981e-01 1.133761e+00 1.558641e+00 7.044578e-01 1.568587e+00 7.527840e-01 6.019961e-01 1.168841e+00 5.472155e-01 6.186166e-01 3.680753e-01
<GCONST> 1.360877e+02
<STATE> 4
<MEAN> 39
 1.186802e-01 -2.948567e-01 5.002153e+00 9.220639e+00 4.907626e+00 6.284410e+00 -8.310645e+00 -3.214581e+00 7.835370e+00 -2.012521e+00 -5.819770e+00 -5.313254e+00 8.016891e+01 3.804290e-01 2.056485e-01 -1.672991e-01 -1.485775e-01 6.161673e-01 2.657754e-01 -9.213786e-01 -6.756970e-01 3.122054e-03 5.818200e-02 -2.127200e-01 8.235148e-02 8.135729e-02 -1.133708e-01 -8.924279e-02 -1.739943e-01 -3.914708e-02 -1.007061e-03 -4.610374e-02 1.144406e-01 1.252448e-01 -7.397150e-02 -6.031276e-02 1.462202e-01 1.502953e-01 -5.673344e-02
<VARIANCE> 39
 1.253245e+01 4.586580e+01 2.713499e+01 7.597851e+01 7.701433e+01 1.057724e+02 4.986596e+01 6.952583e+01 3.262195e+01 2.985451e+01 3.013869e+01 1.714971e+01 2.015131e+01 1.016327e+00 3.341491e+00 1.647535e+00 2.943664e+00 2.116083e+00 3.720658e+00 7.206039e+00 3.747814e+00 3.058552e+00 2.785522e+00 2.627591e+00 2.399126e+00 1.313949e+00 1.330372e-01 6.294966e-01 3.646419e-01 5.642221e-01 3.928801e-01 5.861526e-01 9.995061e-01 5.983412e-01 5.603494e-01 4.697213e-01 5.263987e-01 3.982753e-01 2.496209e-01
<GCONST> 1.210404e+02
<TRANSP> 5
 0.000000e+00 1.000000e+00 0.000000e+00 0.000000e+00 0.000000e+00
 0.000000e+00 7.684665e-01 2.315335e-01 0.000000e+00 0.000000e+00
 0.000000e+00 0.000000e+00 6.472040e-01 3.527959e-01 0.000000e+00
 0.000000e+00 0.000000e+00 0.000000e+00 8.194818e-01 1.805181e-01
 0.000000e+00 0.000000e+00 0.000000e+00 0.000000e+00 0.000000e+00
<ENDHMM>
~h "k"
<BEGINHMM>
<NUMSTATES> 5
<STATE> 2
<MEAN> 39
 -1.202509e+01 -2.148678e+00 -1.431539e+00 6.654273e+00 1.031675e+00 3.002585e+00 2.130485e+00 3.792979e+00 1.045610e+00 -9.848024e-01 2.361003e+00 3.038081e+00 6.920827e+01 4.583414e-01 -1.172177e+00 -9.469533e-01 -1.264757e+00 -1.530298e+00 -6.929586e-01 8.126271e-01 1.020772e+00 2.042276e-02 -5.379143e-01 6.002032e-01 2.590074e-01 1.102015e+00 3.318924e-01 -1.127689e-01 1.242074e-01 2.541900e-03 -8.753836e-02 -1.228137e-01 -3.124586e-01 -8.057348e-02 6.176205e-02 -2.091046e-01 -1.109610e-01 -1.373404e-01 3.840714e-01
<VARIANCE> 39
 2.204242e+01 4.955057e+01 2.683398e+01 6.055290e+01 6.792542e+01 2.986277e+01 4.155735e+01 3.731659e+01 2.540350e+01 3.640523e+01 2.046119e+01 2.667577e+01 4.603407e+01 4.452640e+00 7.314695e+00 2.436299e+00 3.585334e+00 5.740509e+00 3.901553e+00 4.305070e+00 3.590626e+00 2.138187e+00 5.769728e+00 2.262892e+00 2.141328e+00 9.466438e+00 6.451575e-01 1.558969e+00 6.973616e-01 8.165975e-01 1.117339e+00 5.125057e-01 8.482937e-01 7.244758e-01 3.868200e-01 9.430662e-01 4.105594e-01 4.038147e-01 1.676052e+00
<GCONST> 1.319347e+02
<STATE> 3
<MEAN> 39
 -7.398977e+00 -6.925999e+00 -3.461141e+00 3.551595e+00 -4.240254e+00 -9.669151e-01 2.010381e+00 6.371173e+00 1.425825e+00 -4.294448e+00 2.990581e+00 1.918395e+00 7.656074e+01 7.244709e-01 2.634197e-01 1.030421e+00 7.931048e-01 5.445996e-01 1.457817e-01 -1.065384e+00 -5.649371e-01 3.191456e-01 -3.524403e-02 -5.355909e-01 -7.574378e-01 5.136180e-01 -1.631371e-01 8.273972e-01 4.280233e-01 4.422867e-01 7.749187e-01 5.129424e-01 -4.649898e-01 -4.819973e-01 1.283650e-01 3.554278e-01 -2.364875e-01 -1.224945e-02 -6.535788e-01
<VARIANCE> 39
 3.313703e+01 7.037231e+01 2.189417e+01 4.255542e+01 6.201641e+01 4.866613e+01 5.183826e+01 4.918555e+01 2.799918e+01 4.147881e+01 1.979249e+01 3.254884e+01 4.934047e+01 3.911116e+00 1.033824e+01 3.980487e+00 3.365641e+00 4.247204e+00 4.166730e+00 5.392268e+00 2.552722e+00 2.257075e+00 3.691597e+00 2.339366e+00 2.374944e+00 8.377774e+00 5.198197e-01 1.677066e+00 7.220492e-01 5.448331e-01 1.122410e+00 9.857826e-01 9.551730e-01 6.339143e-01 4.529025e-01 9.115264e-01 6.827708e-01 4.436298e-01 1.073432e+00
<GCONST> 1.338208e+02
<STATE> 4
<MEAN> 39
 -1.304843e+01 -3.312181e-01 -1.301416e+00 4.893887e+00 1.284652e+00 5.268872e+00 4.241429e+00 6.064518e+00 2.682467e+00 -3.518109e-01 2.062129e+00 3.297432e+00 6.776126e+01 -1.509173e-01 4.885459e-01 4.022179e-01 2.749378e-01 5.426289e-01 2.631598e-01 -6.216710e-01 -4.678306e-01 2.595521e-01 3.786945e-01 -6.597740e-02 -1.175350e-01 -3.314372e-01 1.642388e-01 -1.213125e-01 -1.079542e-01 -1.105770e-01 -1.118726e-01 -1.048071e-01 -9.913741e-02 -3.071641e-02 -7.200888e-02 -1.459444e-01 3.691854e-02 8.168859e-02 2.018733e-01
<VARIANCE> 39
 4.337669e+01 3.103154e+01 1.899791e+01 2.374049e+01 2.173003e+01 2.339904e+01 5.048833e+01 2.669699e+01 1.590499e+01 2.096059e+01 1.439611e+01 2.701445e+01 4.728260e+01 3.015502e+00 3.408759e+00 2.306918e+00 1.739247e+00 3.053583e+00 2.244442e+00 3.841042e+00 2.262609e+00 1.639492e+00 3.290023e+00 1.843528e+00 1.361979e+00 2.632378e+00 2.932528e-01 5.040352e-01 3.242671e-01 3.465934e-01 4.402455e-01 3.274336e-01 5.353230e-01 3.217486e-01 2.991241e-01 4.132092e-01 2.921261e-01 2.699491e-01 4.818350e-01
<GCONST> 1.122860e+02
<TRANSP> 5
 0.000000e+00 1.000000e+00 0.000000e+00 0.000000e+00 0.000000e+00
 0.000000e+00 7.694256e-01 2.305744e-01 0.000000e+00 0.000000e+00
 0.000000e+00 0.000000e+00 5.802428e-01 4.197572e-01 0.000000e+00
 0.000000e+00 0.000000e+00 0.000000e+00 7.652352e-01 2.347648e-01
 0.000000e+00 0.000000e+00 0.000000e+00 0.000000e+00 0.000000e+00
<ENDHMM>
~h "l"
<BEGINHMM>
<NUMSTATES> 5
<STATE> 2
<MEAN> 39
 2.665337e+00 -1.663966e+00 -2.718656e-01 9.194414e+00 6.391304e+00 3.704220e+00 -1.064825e+01 -2.110800e+00 -1.109251e+00 -1.224515e+01 -4.178379e+00 1.967064e+00 8.028347e+01 1.004675e-02 -1.567519e-01 1.387974e-01 4.318217e-02 1.274551e-01 4.002163e-01 -1.546021e-02 -5.214406e-01 -6.615238e-01 -4.867794e-01 1.810758e-02 2.232355e-01 8.671923e-02 -2.404847e-01 7.253703e-02 8.236507e-02 -4.106619e-02 -1.040022e-01 1.624848e-01 3.245466e-01 3.404205e-02 3.868211e-02 3.208148e-01 1.297838e-01 -2.414947e-02 -1.972283e-01
<VARIANCE> 39
 2.151965e+01 2.668793e+01 1.731586e+01 3.925051e+01 3.876574e+01 3.878674e+01 4.194658e+01 4.414697e+01 2.422600e+01 5.436476e+01 2.883488e+01 3.110761e+01 1.911363e+01 6.400964e-01 1.204753e+00 9.336759e-01 1.104929e+00 1.670966e+00 1.945846e+00 3.990602e+00 2.507220e+00 2.814292e+00 2.677440e+00 2.782797e+00 2.213034e+00 8.701091e-01 1.559619e-01 2.522500e-01 2.363963e-01 2.152831e-01 3.561519e-01 3.411591e-01 6.183853e-01 4.401115e-01 5.028235e-01 4.650116e-01 5.795845e-01 4.588001e-01 1.280540e-01
<GCONST> 1.088201e+02
<STATE> 3
<MEAN> 39
 1.465533e+00 1.518125e-01 2.142848e+00 8.396841e+00 4.662786e+00 7.065066e+00 -6.149900e+00 -1.969093e+00 -3.072068e+00 -1.348074e+01 -5.638072e+00 2.403362e+00 7.884792e+01 -4.132231e-01 2.952260e-01 2.411261e-01 3.177045e-01 1.110797e-01 2.913797e-01 7.790667e-01 8.623982e-02 -1.034229e-01 4.473120e-01 -1.097616e-01 -1.097922e-01 -4.806941e-01 -4.187467e-02 3.664706e-02 -6.516907e-02 -2.996426e-02 -5.448440e-03 -1.264694e-01 -3.084559e-02 1.256821e-01 1.906057e-01 1.852201e-01 5.362519e-02 -6.076795e-02 -4.937158e-02
<VARIANCE> 39
 1.956744e+01 2.538220e+01 2.482700e+01 2.570335e+01 2.219017e+01 2.546549e+01 3.664637e+01 3.676352e+01 3.259179e+01 4.198539e+01 2.313659e+01 2.030113e+01 2.079680e+01 3.597024e-01 5.668073e-01 9.928415e-01 1.112450e+00 1.290428e+00 1.399708e+00 1.773350e+00 1.802145e+00 1.499959e+00 1.568863e+00 1.445103e+00 1.508219e+00 2.946633e-01 4.527123e-02 1.145574e-01 1.449157e-01 1.397415e-01 1.665869e-01 2.307163e-01 3.690809e-01 3.818933e-01 3.631181e-01 2.687151e-01 2.589722e-01 3.060234e-01 5.650872e-02
<GCONST> 9.285485e+01
<STATE> 4
<MEAN> 39
 -1.260026e+01 2.746410e+00 3.351082e-01 6.486606e+00 4.309793e+00 7.083797e+00 3.421242e+00 3.602535e+00 7.269354e-01 -9.195728e-01 9.138448e-01 3.200070e+00 6.682266e+01 -3.718215e-01 -3.305119e-02 -1.185798e-01 -1.244143e-01 -6.321122e-02 -6.442591e-03 2.156142e-01 1.352469e-01 2.368459e-01 5.261467e-01 2.486076e-01 3.135209e-02 -2.823467e-01 5.776137e-02 -4.721314e-02 -1.446847e-02 3.269172e-03 -4.846002e-03 -4.006962e-02 -7.176379e-02 -2.906053e-03 5.746334e-02 -1.018586e-02 2.563151e-03 -2.078583e-02 6.689142e-02
<VARIANCE> 39
 5.386163e+01 1.647676e+01 2.063232e+01 2.109877e+01 1.357245e+01 1.195700e+01 2.882091e+01 3.123259e+01 2.770976e+01 4.672139e+01 2.903498e+01 1.438717e+01 4.580405e+01 7.433380e-01 8.846458e-01 1.046719e+00 8.178810e-01 8.861064e-01 1.030657e+00 1.187039e+00 9.232215e-01 1.359017e+00 1.718301e+00 1.251819e+00 1.049460e+00 3.699303e-01 1.109192e-01 1.820679e-01 1.605841e-01 1.682657e-01 1.704293e-01 1.913409e-01 2.414649e-01 2.229793e-01 2.318185e-01 2.981897e-01 2.082440e-01 1.929700e-01 6.810924e-02
<GCONST> 9.058054e+01
<TRANSP> 5
 0.000000e+00 1.000000e+00 0.000000e+00 0.000000e+00 0.000000e+00
 0.000000e+00 6.891181e-01 3.108819e-01 0.000000e+00 0.000000e+00
 0.000000e+00 0.000000e+00 7.644668e-01 2.355332e-01 0.000000e+00
 0.000000e+00 0.000000e+00 0.000000e+00 8.603615e-01 1.396385e-01
 0.000000e+00 0.000000e+00 0.000000e+00 0.000000e+00 0.000000e+00
<ENDHMM>
~h "m"
<BEGINHMM>
<NUMSTATES> 5
<STATE> 2
<MEAN> 39
 1.191865e+00 4.060475e+00 1.339575e+00 -1.767831e-01 5.506942e-01 6.848506e+00 -1.040400e+01 -3.306242e+00 8.271493e+00 -1.386221e+00 -1.215030e+00 1.581186e+00 7.881583e+01 -2.758283e-01 2.392631e-01 5.961273e-02 3.482701e-01 4.981952e-01 4.344347e-01 3.185495e-01 -3.416147e-02 1.450330e-02 2.790145e-01 -9.425008e-02 -3.644378e-01 -3.900671e-01 -5.412349e-03 -6.599239e-02 -1.491293e-02 7.654218e-02 2.115330e-02 -7.937934e-02 -5.024910e-03 1.887514e-02 -3.255983e-02 -1.726766e-02 4.899394e-03 6.244652e-02 1.749405e-02
<VARIANCE> 39
 1.417591e+01 2.502839e+01 1.652651e+01 4.254838e+01 6.293010e+01 4.193225e+01 7.033702e+01 3.845611e+01 2.745464e+01 3.172186e+01 3.629182e+01 3.148449e+01 1.826600e+01 5.319510e-01 1.046038e+00 9.500490e-01 1.737268e+00 2.425282e+00 2.394377e+00 3.766493e+00 1.806154e+00 2.246224e+00 1.657815e+00 9.701046e-01 2.081500e+00 5.146692e-01 6.632242e-02 1.911889e-01 1.775611e-01 2.333194e-01 3.662300e-01 3.370430e-01 4.778590e-01 2.807163e-01 3.169798e-01 2.857207e-01 1.706757e-01 3.632922e-01 5.635437e-02
<GCONST> 1.018348e+02
<STATE> 3
<MEAN> 39
 -4.304128e+00 7.276248e+00 2.906551e+00 7.251536e+00 8.603114e+00 1.201321e+01 -2.055670e+00 -8.397678e-02 6.408084e+00 2.256602e-01 -4.124096e+00 -3.580850e+00 7.162998e+01 -6.354481e-01 8.934737e-02 -5.278736e-05 1.132944e-01 -1.454413e-03 -2.417147e-01 5.042845e-01 4.222043e-01 -1.091888e-01 3.781385e-01 4.971417e-01 2.945868e-01 -5.256462e-01 5.905993e-03 -7.948112e-02 -5.604194e-02 -8.691286e-02 -2.074571e-01 -2.490387e-01 -1.213587e-01 -3.767332e-03 -3.764000e-02 -7.540505e-02 7.140262e-02 1.932267e-01 3.768060e-02
<VARIANCE> 39
 1.833309e+01 1.147968e+01 1.509633e+01 1.474268e+01 3.054857e+01 4.726361e+01 2.602313e+01 1.845824e+01 2.511431e+01 2.720069e+01 2.560467e+01 1.988874e+01 1.362329e+01 4.362155e-01 5.592747e-01 6.387972e-01 9.367971e-01 1.287900e+00 1.541441e+00 1.390650e+00 9.682441e-01 9.446013e-01 1.248475e+00 1.504110e+00 9.378508e-01 2.697300e-01 4.718202e-02 7.618995e-02 1.004276e-01 1.860211e-01 2.280213e-01 2.187294e-01 2.367302e-01 1.463351e-01 2.081005e-01 2.283929e-01 2.048518e-01 1.590918e-01 2.919834e-02
<GCONST> 8.353712e+01
<STATE> 4
<MEAN> 39
 -1.516301e+01 3.520187e+00 -1.126560e+00 4.431287e+00 2.921891e+00 5.658061e+00 3.897587e+00 5.101051e+00 3.999120e+00 3.234079e+00 2.674163e+00 3.580233e+00 6.498943e+01 -1.753856e-01 -8.558998e-02 -2.166194e-02 -3.147278e-02 -9.207532e-02 -4.724452e-02 1.000737e-01 8.403350e-02 -6.646167e-03 5.872077e-02 1.203575e-01 1.237412e-01 -1.011345e-01 5.347002e-02 5.724134e-03 2.291182e-02 1.787040e-02 1.114976e-02 1.137551e-02 -3.764207e-02 -3.102180e-02 2.393318e-03 -2.086788e-02 -4.419825e-02 -4.243837e-02 4.398327e-02
<VARIANCE> 39
 1.912998e+01 1.180212e+01 1.585703e+01 1.559772e+01 1.709015e+01 1.309819e+01 1.368580e+01 1.385210e+01 1.388984e+01 1.212344e+01 1.214090e+01 1.264763e+01 1.257446e+01 4.567953e-01 5.358050e-01 5.641894e-01 6.705349e-01 1.012509e+00 1.023592e+00 8.108920e-01 9.558602e-01 1.124711e+00 8.620559e-01 9.163008e-01 8.068259e-01 2.473403e-01 7.429425e-02 1.163322e-01 1.031367e-01 1.209097e-01 1.910483e-01 2.018510e-01 1.986961e-01 2.116148e-01 2.117742e-01 1.786665e-01 1.886721e-01 1.625834e-01 4.928459e-02
<GCONST> 7.629793e+01
<TRANSP> 5
 0.000000e+00 1.000000e+00 0.000000e+00 0.000000e+00 0.000000e+00
 0.000000e+00 8.721371e-01 1.278630e-01 0.000000e+00 0.000000e+00
 0.000000e+00 0.000000e+00 8.096296e-01 1.903704e-01 0.000000e+00
 0.000000e+00 0.000000e+00 0.000000e+00 9.249176e-01 7.508247e-02
 0.000000e+00 0.000000e+00 0.000000e+00 0.000000e+00 0.000000e+00
<ENDHMM>
~h "n"
<BEGINHMM>
<NUMSTATES> 5
<STATE> 2
<MEAN> 39
 3.280287e-01 1.114866e+00 -2.705494e-01 4.895127e+00 7.940949e+00 9.348138e+00 -1.112723e+01 -5.505980e+00 1.794922e+00 -6.379929e+00 2.092836e-01 2.823139e+00 7.884057e+01 -9.647769e-02 8.816146e-01 3.163538e-01 5.545457e-02 7.878052e-01 1.712721e+00 6.043684e-01 -6.727965e-01 1.466593e-01 3.589506e-01 -8.560908e-01 -1.167292e+00 -5.452726e-01 -1.288439e-01 -2.797808e-02 4.595954e-02 4.336075e-02 -7.365490e-02 -9.064983e-02 1.554901e-01 1.525280e-01 7.819737e-02 1.445085e-01 -8.105671e-02 -1.638576e-01 -6.809623e-02
<VARIANCE> 39
 2.800045e+01 2.023476e+01 2.630469e+01 3.518779e+01 2.348291e+01 3.441251e+01 6.149918e+01 3.213014e+01 2.915904e+01 3.479159e+01 2.535175e+01 2.653694e+01 2.815258e+01 2.116928e+00 1.805152e+00 1.337782e+00 2.231077e+00 2.254194e+00 2.620386e+00 5.125587e+00 3.254837e+00 2.563856e+00 2.983843e+00 2.973287e+00 2.501807e+00 2.069837e+00 1.975834e-01 2.526340e-01 2.097681e-01 3.355012e-01 3.223679e-01 4.590704e-01 7.412630e-01 5.030161e-01 4.069193e-01 4.181438e-01 4.600458e-01 4.374493e-01 2.254246e-01
<GCONST> 1.142829e+02
<STATE> 3
<MEAN> 39
 -1.154735e+00 3.940671e+00 1.430229e+00 6.013279e+00 1.104036e+01 1.514833e+01 -7.545938e+00 -5.862911e+00 3.388395e+00 -4.654183e+00 -3.840465e+00 -2.484885e+00 7.641067e+01 -3.133039e-01 4.305588e-01 3.658236e-01 2.020782e-01 -1.186931e-02 1.252539e-01 5.040549e-01 2.526826e-01 2.097644e-01 3.970648e-01 -3.736590e-01 -6.343652e-01 -3.987031e-01 -1.336271e-02 -2.356475e-01 -4.878210e-02 -1.426363e-02 -3.615012e-01 -5.778168e-01 1.736388e-03 3.150847e-01 -7.183801e-02 -4.769119e-02 2.904891e-01 3.575398e-01 1.097524e-01
<VARIANCE> 39
 1.420066e+01 1.545589e+01 1.645129e+01 1.640262e+01 1.516841e+01 2.498275e+01 2.736815e+01 2.098917e+01 2.274890e+01 1.850906e+01 2.342165e+01 1.789399e+01 1.471688e+01 8.579173e-01 1.043677e+00 1.122705e+00 1.654723e+00 1.462227e+00 2.236814e+00 2.591804e+00 1.667224e+00 1.528857e+00 1.740145e+00 1.706291e+00 1.831865e+00 8.592939e-01 1.286527e-01 2.352137e-01 1.719890e-01 3.045666e-01 2.952861e-01 3.843492e-01 4.956346e-01 3.513143e-01 3.383478e-01 2.650115e-01 3.958836e-01 3.422455e-01 1.500085e-01
<GCONST> 9.817226e+01
<STATE> 4
<MEAN> 39
 -4.946461e-01 2.029601e+00 1.777961e+00 6.622297e+00 7.224442e+00 9.199648e+00 -8.590091e+00 -3.484158e+00 3.289568e+00 -4.541630e+00 -2.128276e+00 -4.710963e-01 7.769929e+01 -2.611556e-01 -1.656282e-01 7.669675e-02 1.093376e-01 -6.872001e-01 -1.019237e+00 3.841560e-01 7.709864e-01 4.359625e-02 3.529130e-01 4.213144e-01 3.892551e-01 -1.420969e-01 -5.330253e-02 -1.307532e-01 -5.787905e-02 -4.954201e-02 -1.154916e-01 -1.010634e-01 2.194820e-02 3.941476e-02 1.661299e-02 2.941007e-02 9.654176e-02 1.380389e-01 2.550292e-02
<VARIANCE> 39
 2.040883e+01 3.306900e+01 1.966594e+01 4.674286e+01 3.275351e+01 4.263011e+01 6.766353e+01 2.843285e+01 3.672880e+01 2.463563e+01 3.246294e+01 2.908979e+01 2.580802e+01 1.034443e+00 2.753699e+00 1.264055e+00 3.470904e+00 2.527900e+00 2.917527e+00 4.739347e+00 2.553836e+00 2.944528e+00 1.991794e+00 2.714736e+00 2.051159e+00 1.596481e+00 1.130386e-01 5.232950e-01 2.138201e-01 4.831655e-01 4.025059e-01 4.636909e-01 6.144913e-01 4.079615e-01 4.971301e-01 3.323711e-01 5.402972e-01 3.772750e-01 2.195297e-01
<GCONST> 1.146321e+02
<TRANSP> 5
 0.000000e+00 1.000000e+00 0.000000e+00 0.000000e+00 0.000000e+00
 0.000000e+00 6.086683e-01 3.913316e-01 0.000000e+00 0.000000e+00
 0.000000e+00 0.000000e+00 7.064978e-01 2.935021e-01 0.000000e+00
 0.000000e+00 0.000000e+00 0.000000e+00 7.320510e-01 2.679490e-01
 0.000000e+00 0.000000e+00 0.000000e+00 0.000000e+00 0.000000e+00
<ENDHMM>
~h "p"
<BEGINHMM>
<NUMSTATES> 5
<STATE> 2
<MEAN> 39
 -8.232279e+00 1.956329e+00 7.742447e-01 1.016934e+01 5.045958e+00 4.944750e+00 1.305433e+00 2.420509e+00 7.906393e-01 -1.161684e+00 1.246794e+00 2.983142e+00 7.082190e+01 -1.091308e+00 6.569434e-01 -1.184679e-01 -1.039432e-01 2.539668e-01 3.280980e-02 3.678157e-01 3.013849e-03 3.589597e-02 6.022329e-01 2.222494e-01 9.861375e-02 -1.161342e+00 -6.802246e-03 -3.567205e-01 8.669157e-02 -2.507210e-01 -2.453378e-01 -1.580514e-01 -5.718821e-01 -2.413425e-01 2.248248e-01 -1.060608e-01 -1.465210e-01 -7.586925e-02 2.633575e-01
<VARIANCE> 39
 4.590664e+01 3.042954e+01 2.098156e+01 3.272967e+01 4.008979e+01 4.080567e+01 4.336468e+01 2.840791e+01 2.969384e+01 5.713718e+01 1.582233e+01 1.112336e+01 2.563292e+01 8.711273e+00 4.547392e+00 1.820326e+00 3.263823e+00 2.809160e+00 3.591732e+00 8.321074e+00 4.529658e+00 2.505227e+00 5.379730e+00 1.762788e+00 9.359844e-01 7.197983e+00 5.553806e-01 5.734923e-01 2.595821e-01 4.964484e-01 4.065551e-01 5.084646e-01 6.861885e-01 4.692301e-01 4.671274e-01 5.063457e-01 3.811515e-01 2.027061e-01 4.129474e-01
<GCONST> 1.215063e+02
<STATE> 3
<MEAN> 39
 -1.214652e+01 1.627488e+00 8.891832e-01 9.272369e+00 3.953483e+00 3.675916e+00 6.477590e-01 1.887600e+00 1.698329e+00 7.570796e-01 1.813844e+00 2.738700e+00 6.834125e+01 -6.906381e-01 4.097739e-02 -1.632272e-01 -6.751562e-01 -2.594638e-01 9.455589e-02 -1.689752e-01 -2.702521e-01 -1.282634e-02 8.271053e-02 -1.404582e-01 -7.682051e-02 -5.105786e-01 2.744628e-01 -8.092621e-02 2.953705e-02 -1.022826e-01 -1.304342e-01 -3.133700e-02 -1.228634e-01 3.900302e-02 1.360063e-01 -7.938698e-02 -7.533580e-02 -3.216349e-02 2.965292e-01
<VARIANCE> 39
 3.645927e+01 2.694147e+01 1.465446e+01 2.415620e+01 3.147783e+01 2.838014e+01 5.035157e+01 2.126025e+01 1.849860e+01 3.018897e+01 1.421993e+01 9.703385e+00 2.475971e+01 3.243252e+00 1.626641e+00 1.330713e+00 2.219422e+00 1.778445e+00 3.802208e+00 3.911540e+00 1.443139e+00 1.265624e+00 1.583551e+00 1.523517e+00 1.007316e+00 2.103450e+00 3.800102e-01 4.831156e-01 2.241108e-01 4.226907e-01 4.342038e-01 3.694550e-01 6.507386e-01 4.452558e-01 2.397197e-01 3.311932e-01 2.101335e-01 1.592048e-01 3.086836e-01
<GCONST> 1.066971e+02
<STATE> 4
<MEAN> 39
 -1.339945e+01 1.440345e+00 -5.132186e-02 7.107081e+00 2.524132e+00 4.339981e+00 2.685984e+00 3.711586e+00 2.858308e+00 1.975903e+00 1.952887e+00 2.770222e+00 6.749218e+01 1.111042e+00 -1.777972e-01 4.276478e-02 -1.795450e-01 -3.242834e-01 8.677341e-02 -3.246289e-01 -3.126386e-01 -3.534871e-02 -4.428653e-01 -3.284014e-01 -2.972909e-01 1.005954e+00 4.680483e-01 -2.649163e-02 5.642847e-02 4.869153e-02 -1.427085e-02 -1.298078e-01 -3.112112e-01 -1.447393e-01 -5.850875e-02 -2.071180e-01 -1.393766e-01 -1.124100e-01 3.965889e-01
<VARIANCE> 39
 3.593419e+01 1.370974e+01 7.950403e+00 1.528170e+01 1.835392e+01 1.688109e+01 3.037094e+01 2.092848e+01 2.000521e+01 2.424051e+01 1.683778e+01 1.375561e+01 3.327443e+01 5.250778e+00 1.872429e+00 9.485327e-01 1.603926e+00 2.228858e+00 2.380808e+00 3.431027e+00 1.927148e+00 1.614736e+00 2.404984e+00 1.680500e+00 1.348768e+00 3.810229e+00 6.852776e-01 3.350748e-01 1.961238e-01 3.239107e-01 3.964598e-01 5.445768e-01 6.525732e-01 2.759206e-01 2.928001e-01 3.894895e-01 3.080560e-01 2.967616e-01 5.420412e-01
<GCONST> 1.071262e+02
<TRANSP> 5
 0.000000e+00 1.000000e+00 0.000000e+00 0.000000e+00 0.000000e+00
 0.000000e+00 4.433568e-01 5.566432e-01 0.000000e+00 0.000000e+00
 0.000000e+00 0.000000e+00 4.197861e-01 5.802140e-01 0.000000e+00
 0.000000e+00 0.000000e+00 0.000000e+00 8.034028e-01 1.965972e-01
 0.000000e+00 0.000000e+00 0.000000e+00 0.000000e+00 0.000000e+00
<ENDHMM>
~h "r"
<BEGINHMM>
<NUMSTATES> 5
<STATE> 2
<MEAN> 39
 3.059668e+00 -1.313802e+00 -8.166384e-01 6.543000e+00 8.082876e+00 5.204972e+00 -1.518720e+01 -8.169622e+00 3.371476e+00 -5.430934e+00 -1.162279e+00 8.021576e-01 8.164922e+01 -1.305225e-01 2.428998e-01 3.204720e-01 4.227032e-01 5.159323e-01 -3.930492e-02 -9.882707e-01 -1.672705e-01 6.104969e-01 3.760211e-02 -1.357659e-01 -1.392228e-01 -1.812767e-01 -9.256015e-02 6.471642e-02 5.588679e-02 3.828032e-02 -5.194601e-02 4.231763e-02 1.729214e-01 1.005298e-01 3.246558e-02 1.511596e-03 -7.092474e-02 -7.072164e-02 -9.479652e-02
<VARIANCE> 39
 1.650323e+01 2.940526e+01 5.840082e+01 5.609645e+01 4.150787e+01 3.627981e+01 6.429513e+01 3.667214e+01 6.176963e+01 4.429131e+01 2.533092e+01 1.761576e+01 1.447070e+01 4.716210e-01 1.045141e+00 1.355085e+00 1.633408e+00 1.904334e+00 2.210377e+00 4.819818e+00 1.755589e+00 2.274612e+00 2.049284e+00 1.649677e+00 9.613267e-01 4.936336e-01 5.970930e-02 1.996338e-01 2.038998e-01 2.335477e-01 2.574550e-01 3.887604e-01 7.532433e-01 3.500132e-01 3.447571e-01 3.216525e-01 2.792848e-01 1.286450e-01 4.956318e-02
<GCONST> 1.030417e+02
<STATE> 3
<MEAN> 39
 -7.939007e-01 2.640749e+00 4.767520e-01 6.097030e+00 8.287875e+00 8.321760e+00 -9.864450e+00 -4.561482e+00 3.112689e+00 -4.430420e+00 -1.466064e+00 -3.333573e-01 7.726224e+01 -2.387883e-01 2.021831e-01 -2.632412e-01 3.112570e-01 5.236697e-01 2.111470e-01 2.745222e-01 4.080062e-01 2.186437e-01 2.491844e-02 -3.801026e-01 -2.604368e-01 -3.971502e-01 -3.267859e-02 -1.115343e-01 -1.317377e-01 -1.869401e-02 -6.598642e-02 -5.655196e-02 2.319123e-01 1.436917e-02 -9.813949e-02 1.742871e-01 5.196184e-03 2.180421e-02 -4.962754e-02
<VARIANCE> 39
 3.691831e+01 4.913475e+01 4.983898e+01 3.255567e+01 5.118863e+01 4.664609e+01 1.033560e+02 2.826311e+01 3.548630e+01 3.633107e+01 1.999176e+01 1.591499e+01 2.419603e+01 1.008767e+00 1.120973e+00 1.302177e+00 1.613204e+00 9.777170e-01 1.453441e+00 5.123660e+00 2.522104e+00 1.027846e+00 1.724017e+00 1.144563e+00 1.075568e+00 6.667387e-01 1.028685e-01 2.067994e-01 2.072082e-01 2.368834e-01 1.828292e-01 3.452391e-01 7.891238e-01 3.171069e-01 1.854116e-01 2.892626e-01 2.160839e-01 2.133471e-01 9.712493e-02
<GCONST> 1.032440e+02
<STATE> 4
<MEAN> 39
 -2.237864e-01 2.351756e+00 6.948441e-01 7.400975e+00 8.780584e+00 9.471888e+00 -8.548178e+00 -5.793785e+00 1.799597e+00 -4.038815e+00 -3.418842e+00 -1.377031e+00 7.719959e+01 -1.137899e-01 1.151387e-01 1.110846e-01 -1.190530e-01 -2.435170e-01 4.066599e-02 3.420597e-01 7.068630e-02 -4.123738e-02 1.825497e-01 -3.663493e-01 -1.227416e-01 -1.962687e-01 -3.482939e-02 -5.065401e-02 1.129260e-01 -2.479820e-02 -1.509254e-01 -9.968136e-02 -9.631561e-02 -4.809320e-03 5.109562e-02 -6.542020e-02 3.467529e-02 8.269289e-02 2.098596e-02
<VARIANCE> 39
 2.582733e+01 3.654058e+01 4.201322e+01 3.109118e+01 4.647655e+01 3.477225e+01 9.262613e+01 4.903126e+01 2.453529e+01 4.605691e+01 2.861440e+01 1.661070e+01 2.700646e+01 2.487669e+00 3.359310e+00 1.546926e+00 2.377616e+00 1.964599e+00 3.135456e+00 8.423783e+00 5.329884e+00 1.983133e+00 4.452338e+00 1.867795e+00 1.531494e+00 2.709579e+00 3.287513e-01 5.845338e-01 2.350578e-01 3.425398e-01 2.255754e-01 4.848435e-01 1.590808e+00 1.100628e+00 3.154557e-01 6.833379e-01 3.176076e-01 3.123108e-01 4.377577e-01
<GCONST> 1.207817e+02
<TRANSP> 5
 0.000000e+00 1.000000e+00 0.000000e+00 0.000000e+00 0.000000e+00
 0.000000e+00 8.053916e-01 1.946085e-01 0.000000e+00 0.000000e+00
 0.000000e+00 0.000000e+00 5.168961e-01 4.831039e-01 0.000000e+00
 0.000000e+00 0.000000e+00 0.000000e+00 7.800936e-01 2.199064e-01
 0.000000e+00 0.000000e+00 0.000000e+00 0.000000e+00 0.000000e+00
<ENDHMM>
~h "s"
<BEGINHMM>
<NUMSTATES> 5
<STATE> 2
<MEAN> 39
 -1.069432e+01 -1.148938e+01 7.060211e+00 7.666976e+00 1.389564e-01 4.472780e+00 3.419757e+00 -3.473616e-01 -1.665076e+00 -1.917938e-01 5.870977e+00 -5.782585e-01 8.033075e+01 -2.311500e+00 -2.974227e+00 8.875443e-01 -8.969790e-01 -1.157339e+00 -4.827601e-01 1.820956e+00 3.720566e-01 -2.706790e-01 5.396934e-01 1.447300e+00 1.098761e-01 9.970887e-01 1.615364e-01 3.049081e-01 -1.870950e-01 -2.355601e-01 2.825969e-02 -9.876167e-02 -3.917438e-01 4.771736e-02 1.889247e-01 -3.750680e-01 -2.551428e-01 1.318150e-01 -5.909526e-02
<VARIANCE> 39
 5.780844e+01 6.084600e+01 3.588594e+01 4.765441e+01 2.368191e+01 2.634030e+01 3.873635e+01 3.059489e+01 3.516254e+01 2.603756e+01 2.814284e+01 2.152918e+01 1.916031e+01 5.000075e+00 5.549150e+00 3.326496e+00 4.246322e+00 2.406996e+00 2.982720e+00 4.969007e+00 2.317036e+00 2.695367e+00 3.437034e+00 2.353914e+00 2.086981e+00 1.865226e+00 8.147206e-01 1.140356e+00 6.172420e-01 8.173882e-01 4.765985e-01 5.733234e-01 6.912328e-01 4.101062e-01 5.532027e-01 5.255302e-01 4.728787e-01 3.738449e-01 3.678750e-01
<GCONST> 1.245227e+02
<STATE> 3
<MEAN> 39
 -1.660142e+01 -1.877035e+01 8.172850e+00 3.623003e+00 -3.054504e+00 2.599653e+00 6.867532e+00 8.725979e-01 -2.082230e+00 -1.156698e+00 9.136285e+00 7.935026e-01 8.293590e+01 9.472700e-01 5.604164e-01 -6.642948e-01 5.192815e-01 3.035956e-01 3.540596e-01 -3.852124e-01 1.848130e-01 9.248513e-02 -5.793610e-01 -4.329236e-01 4.185657e-01 -4.630205e-01 6.647961e-01 8.044399e-01 -2.788579e-01 2.830889e-01 2.228018e-01 2.104737e-01 -3.844385e-01 3.448152e-02 3.375901e-02 -3.641506e-02 -3.852144e-01 6.619849e-02 -4.142898e-01
<VARIANCE> 39
 2.510167e+01 2.692600e+01 2.272913e+01 2.256808e+01 1.493089e+01 2.343569e+01 2.130058e+01 2.458711e+01 3.494948e+01 2.384632e+01 1.680041e+01 1.837065e+01 6.698846e+00 5.164808e+00 3.504328e+00 2.026571e+00 2.003088e+00 1.759774e+00 1.730837e+00 2.319639e+00 1.928902e+00 2.660328e+00 2.094296e+00 2.067668e+00 2.071100e+00 1.841961e+00 3.826575e-01 6.282876e-01 3.867849e-01 4.323225e-01 3.660035e-01 3.925131e-01 3.584828e-01 3.920245e-01 4.367326e-01 4.219804e-01 3.521920e-01 3.742432e-01 2.496806e-01
<GCONST> 1.093820e+02
<STATE> 4
<MEAN> 39
 -1.156123e+01 -1.249335e+01 2.099291e+00 6.534684e+00 -1.706721e+00 4.420380e+00 4.765388e+00 1.999744e+00 -1.495463e+00 -2.464695e+00 5.251310e+00 3.453480e+00 7.686414e+01 8.945955e-01 2.139208e+00 -6.852236e-01 2.070768e-01 3.146683e-01 1.610931e-01 -6.251670e-01 2.497274e-01 3.021855e-01 -6.081352e-02 -7.912703e-01 4.047284e-01 -1.216923e+00 -6.929535e-02 5.894803e-03 8.055944e-02 -1.472472e-01 -6.589368e-02 -2.352707e-01 -6.590478e-02 -4.212642e-02 1.617823e-02 3.002502e-02 2.098963e-02 -1.491532e-01 1.464005e-01
<VARIANCE> 39
 3.944162e+01 5.696700e+01 2.975444e+01 2.695371e+01 1.656424e+01 2.100093e+01 3.664664e+01 2.888124e+01 3.261212e+01 2.300114e+01 1.938220e+01 1.633738e+01 3.288595e+01 3.397858e+00 4.839528e+00 2.475469e+00 1.315425e+00 1.562739e+00 1.782694e+00 2.854432e+00 1.315023e+00 2.260100e+00 2.512119e+00 1.986945e+00 1.721027e+00 1.727338e+00 2.711281e-01 7.541113e-01 3.472002e-01 2.714219e-01 2.795585e-01 3.770818e-01 4.289215e-01 2.823815e-01 5.036231e-01 2.989978e-01 3.389914e-01 3.008487e-01 2.602506e-01
<GCONST> 1.107771e+02
<TRANSP> 5
 0.000000e+00 1.000000e+00 0.000000e+00 0.000000e+00 0.000000e+00
 0.000000e+00 7.560311e-01 2.439689e-01 0.000000e+00 0.000000e+00
 0.000000e+00 0.000000e+00 7.509003e-01 2.490998e-01 0.000000e+00
 0.000000e+00 0.000000e+00 0.000000e+00 7.827713e-01 2.172287e-01
 0.000000e+00 0.000000e+00 0.000000e+00 0.000000e+00 0.000000e+00
<ENDHMM>
~h "t"
<BEGINHMM>
<NUMSTATES> 5
<STATE> 2
<MEAN> 39
 -7.496373e+00 3.168197e+00 -1.154374e+00 8.368264e+00 9.055378e+00 7.882822e+00 -2.302580e+00 -2.581097e+00 -3.508713e-01 -5.658417e-01 6.898148e-01 1.717948e+00 7.023795e+01 -1.296447e+00 1.006698e-01 1.076708e-01 2.524936e-01 -7.213528e-02 1.798596e-01 1.064971e+00 3.746338e-01 -1.470544e-01 6.438137e-01 1.262889e-01 2.867988e-01 -1.210575e+00 1.715714e-01 -3.400115e-01 -1.179677e-01 -1.042683e-01 -1.982322e-01 -2.553849e-01 -2.482284e-01 9.669441e-02 1.149403e-01 -2.522233e-01 -4.564116e-02 -1.770739e-02 3.482566e-01
<VARIANCE> 39
 4.700531e+01 3.058681e+01 1.949981e+01 4.082824e+01 5.109678e+01 3.237319e+01 5.716891e+01 6.233900e+01 3.140823e+01 2.691100e+01 2.189454e+01 2.441450e+01 3.623218e+01 2.483204e+00 2.699417e+00 1.866830e+00 2.174539e+00 1.771750e+00 2.048268e+00 4.494887e+00 3.113431e+00 1.836247e+00 2.408216e+00 1.653495e+00 1.345866e+00 2.722605e+00 4.331123e-01 4.375190e-01 2.695472e-01 3.813617e-01 3.532389e-01 4.066159e-01 7.569575e-01 6.876426e-01 3.266790e-01 4.849581e-01 3.567016e-01 2.646432e-01 4.517504e-01
<GCONST> 1.168186e+02
<STATE> 3
<MEAN> 39
 -8.499716e+00 -7.816705e-01 -2.021449e+00 7.790338e+00 4.822343e+00 4.828759e+00 -8.181186e-01 -3.030587e-01 -6.231000e-01 -1.416585e+00 1.385778e+00 3.433432e+00 7.113132e+01 2.994784e-01 -5.233725e-01 -3.162245e-01 -2.336038e-02 -3.329415e-01 -5.005519e-01 -1.343564e-01 9.459891e-02 -1.661850e-01 -2.517394e-01 1.418523e-01 5.664287e-01 4.109305e-01 1.721968e-01 9.756868e-02 4.829563e-02 -1.160606e-01 -2.377757e-02 -6.419855e-02 -2.007661e-01 3.285985e-02 1.163853e-01 -1.216098e-01 -4.626259e-02 -1.051281e-01 1.502313e-01
<VARIANCE> 39
 4.771667e+01 5.582914e+01 2.575579e+01 2.935254e+01 3.933357e+01 3.475006e+01 4.679795e+01 5.145767e+01 4.151703e+01 3.464140e+01 2.919836e+01 3.023873e+01 6.028740e+01 7.975257e+00 6.321229e+00 2.336948e+00 2.568225e+00 3.425797e+00 3.100648e+00 5.159884e+00 5.065321e+00 4.019416e+00 4.058566e+00 2.318460e+00 2.254012e+00 9.455907e+00 1.273996e+00 1.427650e+00 4.264256e-01 4.464101e-01 5.608168e-01 5.967736e-01 8.977191e-01 9.854259e-01 7.904713e-01 7.549800e-01 5.243191e-01 4.786765e-01 1.814695e+00
<GCONST> 1.338036e+02
<STATE> 4
<MEAN> 39
 -1.418799e+01 1.690002e+00 -2.115540e+00 5.235439e+00 3.646108e+00 5.383860e+00 2.172706e+00 2.793293e+00 1.842458e+00 2.267547e+00 3.630374e+00 5.313892e+00 6.550278e+01 2.061169e-01 -3.967070e-01 -5.468515e-02 1.770902e-02 -1.523291e-01 -7.783488e-02 7.033035e-03 9.664086e-02 8.876042e-02 -1.688319e-01 -8.546458e-02 -1.828614e-01 3.708182e-01 3.462786e-01 -9.993185e-02 6.499123e-02 8.377590e-02 1.452577e-02 -6.265838e-02 -1.996275e-01 -8.955362e-02 -3.802894e-02 -2.599012e-01 -1.695430e-01 -1.540444e-01 3.524217e-01
<VARIANCE> 39
 2.968196e+01 1.731807e+01 1.211498e+01 1.718583e+01 1.791138e+01 1.302967e+01 2.452782e+01 2.538026e+01 1.902880e+01 2.299286e+01 1.980769e+01 1.750951e+01 3.046178e+01 3.502025e+00 2.205961e+00 1.266421e+00 1.545686e+00 1.883405e+00 1.722386e+00 2.257375e+00 2.289225e+00 1.820488e+00 2.289111e+00 1.720434e+00 1.265717e+00 3.334414e+00 5.258411e-01 3.763861e-01 2.265287e-01 2.238112e-01 2.820756e-01 2.760918e-01 4.631613e-01 3.733441e-01 3.235171e-01 3.786701e-01 3.182326e-01 2.327476e-01 5.367235e-01
<GCONST> 1.052022e+02
<TRANSP> 5
 0.000000e+00 1.000000e+00 0.000000e+00 0.000000e+00 0.000000e+00
 0.000000e+00 5.312776e-01 4.687224e-01 0.000000e+00 0.000000e+00
 0.000000e+00 0.000000e+00 5.667387e-01 4.332614e-01 0.000000e+00
 0.000000e+00 0.000000e+00 0.000000e+00 7.992842e-01 2.007158e-01
 0.000000e+00 0.000000e+00 0.000000e+00 0.000000e+00 0.000000e+00
<ENDHMM>
~h "v"
<BEGINHMM>
<NUMSTATES> 5
<STATE> 2
<MEAN> 39
 1.645813e+00 3.684993e+00 1.335578e+00 7.616925e+00 5.796570e+00 4.219884e+00 -1.075717e+01 -2.004911e+00 5.102126e+00 -8.191841e+00 -7.841275e+00 -5.564154e-01 7.814390e+01 1.450360e-02 7.723722e-01 -3.801356e-02 -5.876465e-01 -4.576291e-01 2.581961e-01 7.554545e-01 4.769070e-01 1.663081e-01 -2.228234e-01 -6.449221e-01 -2.384725e-01 -3.615969e-01 -1.068888e-01 -9.373997e-02 1.588052e-01 4.620160e-02 -1.561261e-01 -1.247883e-01 5.873816e-02 9.158386e-02 6.452756e-02 1.331105e-01 1.318238e-01 -7.304757e-02 2.602358e-02
<VARIANCE> 39
 1.168977e+01 2.487580e+01 3.068255e+01 2.941991e+01 4.620283e+01 3.775918e+01 3.946354e+01 4.516386e+01 2.623337e+01 4.570962e+01 4.022754e+01 2.205401e+01 1.642036e+01 5.860239e-01 1.381418e+00 1.164151e+00 1.851073e+00 2.455208e+00 1.635269e+00 4.343478e+00 2.911405e+00 1.784676e+00 1.912976e+00 2.173313e+00 1.949668e+00 5.520534e-01 9.560104e-02 1.534967e-01 1.991655e-01 2.290352e-01 2.851046e-01 2.295982e-01 4.076191e-01 4.489442e-01 2.524661e-01 3.825816e-01 3.932989e-01 3.542792e-01 6.449989e-02
<GCONST> 1.035595e+02
<STATE> 3
<MEAN> 39
 1.769185e+00 3.643234e+00 8.964220e-01 5.876320e+00 3.761494e+00 3.071795e+00 -9.740139e+00 -5.473530e-01 5.273218e+00 -9.728428e+00 -8.221313e+00 -1.198700e+00 7.786945e+01 -2.019635e-01 -1.200879e-01 3.944748e-01 5.760203e-02 -2.538386e-01 1.544590e-01 4.490352e-02 -2.916541e-01 -2.948639e-01 3.632237e-01 6.825257e-01 5.477939e-02 2.914952e-02 -3.362175e-02 -1.900726e-01 -2.354426e-02 7.204823e-02 1.163886e-01 1.057594e-01 -6.449312e-02 -1.232332e-01 -8.355333e-02 5.377187e-02 1.893694e-01 1.067579e-01 8.763259e-02
<VARIANCE> 39
 1.154647e+01 1.491774e+01 1.655737e+01 2.309632e+01 2.528021e+01 4.392698e+01 5.690508e+01 4.930969e+01 4.206849e+01 4.189710e+01 1.932835e+01 1.376325e+01 1.247178e+01 9.231712e-01 1.449875e+00 1.070027e+00 1.674924e+00 1.458001e+00 3.049125e+00 5.195091e+00 3.019424e+00 2.161761e+00 2.809395e+00 1.344597e+00 1.892957e+00 8.364330e-01 1.714544e-01 2.894861e-01 1.744630e-01 2.942552e-01 2.172603e-01 5.225923e-01 8.136110e-01 4.772986e-01 3.227818e-01 5.357559e-01 2.882549e-01 3.458205e-01 1.345403e-01
<GCONST> 1.058250e+02
<STATE> 4
<MEAN> 39
 6.120853e-01 1.499106e+00 3.100697e+00 5.395902e+00 3.477793e+00 4.483407e+00 -1.107891e+01 -1.490929e+00 3.654043e+00 -8.857536e+00 -4.732080e+00 2.637889e-01 7.941172e+01 -3.223856e-01 -5.999222e-01 -1.045500e-01 -2.435512e-01 -6.135312e-02 3.438245e-01 3.094814e-01 1.200628e-01 -3.754809e-01 -2.086568e-01 7.307671e-01 5.714539e-01 2.176428e-01 -8.869954e-02 9.912681e-04 -9.613871e-02 3.357183e-02 7.801285e-02 1.432745e-01 2.051136e-01 2.090801e-02 1.247317e-01 2.116632e-01 -1.960842e-02 -1.098419e-01 -1.193368e-01
<VARIANCE> 39
 2.380552e+01 3.881574e+01 3.169424e+01 2.789781e+01 2.268417e+01 3.417329e+01 7.443315e+01 3.576062e+01 5.738569e+01 5.377868e+01 4.258161e+01 3.636602e+01 2.420525e+01 1.801994e+00 3.351752e+00 1.652916e+00 2.836206e+00 1.426356e+00 3.898941e+00 8.588942e+00 4.531475e+00 5.176929e+00 3.611679e+00 4.695144e+00 2.831522e+00 1.260943e+00 2.202233e-01 7.989886e-01 2.531659e-01 6.136805e-01 2.148653e-01 6.857126e-01 1.646116e+00 6.695608e-01 1.059278e+00 6.414704e-01 1.026050e+00 6.226652e-01 2.461207e-01
<GCONST> 1.252115e+02
<TRANSP> 5
 0.000000e+00 1.000000e+00 0.000000e+00 0.000000e+00 0.000000e+00
 0.000000e+00 8.222744e-01 1.777256e-01 0.000000e+00 0.000000e+00
 0.000000e+00 0.000000e+00 7.568187e-01 2.431813e-01 0.000000e+00
 0.000000e+00 0.000000e+00 0.000000e+00 6.914833e-01 3.085166e-01
 0.000000e+00 0.000000e+00 0.000000e+00 0.000000e+00 0.000000e+00
<ENDHMM>
~h "w"
<BEGINHMM>
<NUMSTATES> 5
<STATE> 2
<MEAN> 39
 -1.840139e+00 1.073456e-01 -1.566806e+00 7.705786e+00 6.384505e+00 3.852607e+00 -7.335099e+00 -6.816590e-02 2.917482e+00 -4.950515e+00 -2.236979e+00 4.125363e-01 7.682298e+01 1.510810e+00 4.345800e-01 -3.553451e-02 -4.832774e-01 -5.299276e-01 -9.525523e-01 -2.147572e-01 8.641698e-01 -1.063155e-01 -1.221398e+00 -1.310840e+00 -8.404881e-01 1.014130e+00 9.646125e-03 1.852793e-01 8.103851e-02 -1.340704e-01 -1.948029e-01 -1.668474e-01 3.504452e-02 2.431870e-01 1.242740e-01 3.657060e-02 -6.006158e-02 -1.756662e-01 -6.704791e-02
<VARIANCE> 39
 4.571125e+01 4.207667e+01 1.965039e+01 3.852987e+01 4.902091e+01 2.584667e+01 1.061069e+02 5.327494e+01 3.150418e+01 5.273029e+01 3.255429e+01 2.457506e+01 4.392081e+01 5.525541e+00 3.678158e+00 1.564456e+00 2.577881e+00 3.954837e+00 3.050638e+00 9.061459e+00 4.348783e+00 2.414754e+00 5.988564e+00 4.052480e+00 3.905316e+00 6.469729e+00 6.726367e-01 8.611829e-01 3.249617e-01 2.981215e-01 4.560929e-01 3.887359e-01 1.305441e+00 6.960262e-01 4.358016e-01 1.080682e+00 6.709736e-01 5.585169e-01 7.546529e-01
<GCONST> 1.306840e+02
<STATE> 3
<MEAN> 39
 1.222772e+00 3.923460e+00 3.483255e-01 3.745467e+00 2.718342e+00 2.344993e+00 -5.372162e+00 4.227636e+00 3.307483e+00 -7.245407e+00 -5.069422e+00 -2.604782e+00 7.823605e+01 6.026621e-01 9.511449e-01 3.027442e-01 -6.680030e-01 -5.784885e-01 -9.595523e-01 -5.481520e-01 9.210190e-01 3.457119e-01 -2.552670e-01 -5.417570e-01 -9.220566e-01 7.884196e-02 -2.804872e-01 -2.648830e-04 -1.031920e-01 1.423803e-01 9.456088e-02 -3.988393e-02 -2.124866e-01 -2.089506e-01 9.099749e-02 4.000168e-01 3.946942e-01 1.867681e-01 -2.950122e-01
<VARIANCE> 39
 2.328882e+01 4.031180e+01 2.601113e+01 3.225180e+01 2.827177e+01 2.915894e+01 6.461641e+01 3.037936e+01 2.204757e+01 4.559894e+01 2.484290e+01 1.683179e+01 2.484969e+01 2.741325e+00 4.599953e+00 1.827525e+00 2.651147e+00 2.654421e+00 3.459480e+00 8.333111e+00 4.024828e+00 2.435411e+00 4.035847e+00 2.761840e+00 2.418594e+00 3.440985e+00 4.382589e-01 5.936342e-01 2.295478e-01 4.415130e-01 4.093172e-01 4.275009e-01 1.191672e+00 5.151435e-01 4.480138e-01 9.174041e-01 6.231127e-01 5.598069e-01 6.344644e-01
<GCONST> 1.227113e+02
<STATE> 4
<MEAN> 39
 3.955599e+00 6.587603e+00 1.644300e-01 3.697466e+00 -1.188889e+00 -6.184011e+00 -1.085242e+01 6.453699e+00 5.703541e+00 -7.747056e+00 -5.130057e+00 -3.412095e+00 7.841551e+01 -5.126070e-02 -5.304082e-02 -1.664574e-01 -2.356874e-02 -6.259057e-02 6.062379e-02 1.021381e-01 -1.464572e-01 -2.626056e-01 -8.293141e-02 1.715850e-01 2.546894e-01 -5.542423e-02 -1.039291e-01 -1.453839e-01 1.228401e-03 8.512266e-02 1.337317e-01 2.467035e-01 8.789398e-02 -2.125424e-01 -9.616410e-02 4.213038e-02 9.053905e-02 1.567961e-01 -7.753830e-03
<VARIANCE> 39
 9.676387e+00 3.228344e+01 2.733399e+01 1.555890e+01 2.645302e+01 8.279697e+01 4.251958e+01 3.103398e+01 3.101067e+01 6.349911e+01 2.142668e+01 3.209560e+01 1.433040e+01 7.966441e-01 1.967996e+00 1.414146e+00 1.179140e+00 1.926414e+00 4.617529e+00 4.258554e+00 2.048316e+00 1.952991e+00 3.526446e+00 2.047082e+00 3.101188e+00 9.871969e-01 1.035613e-01 1.975884e-01 2.164472e-01 2.014146e-01 2.473183e-01 5.462158e-01 6.714622e-01 3.645326e-01 3.045943e-01 4.914771e-01 4.127347e-01 5.380843e-01 1.029765e-01
<GCONST> 1.081012e+02
<TRANSP> 5
 0.000000e+00 1.000000e+00 0.000000e+00 0.000000e+00 0.000000e+00
 0.000000e+00 4.598936e-01 5.401065e-01 0.000000e+00 0.000000e+00
 0.000000e+00 0.000000e+00 4.580106e-01 5.419894e-01 0.000000e+00
 0.000000e+00 0.000000e+00 0.000000e+00 8.787196e-01 1.212805e-01
 0.000000e+00 0.000000e+00 0.000000e+00 0.000000e+00 0.000000e+00
<ENDHMM>
~h "y"
<BEGINHMM>
<NUMSTATES> 5
<STATE> 2
<MEAN> 39
 -4.753335e-01 -9.011572e+00 1.680269e+00 1.599082e+01 9.600966e+00 5.177014e+00 -1.162494e+01 -4.715744e+00 2.269924e+00 -6.733282e+00 -2.879892e+00 -6.774185e-01 8.112525e+01 6.288037e-01 -1.375066e-01 -2.040966e-01 2.544630e-01 2.984352e-01 -2.406907e-01 -9.677514e-01 -4.866288e-01 1.028724e-01 -4.829395e-01 -2.621126e-01 1.321444e-01 4.060637e-01 -4.371752e-02 2.263870e-02 -8.747388e-02 -1.883016e-01 -5.509143e-02 -3.253974e-02 -2.596873e-02 2.817251e-02 7.119253e-04 -3.201588e-02 7.081607e-02 9.575482e-02 -7.270977e-03
<VARIANCE> 39
 3.582632e+01 5.940126e+01 2.232123e+01 5.016884e+01 4.356057e+01 4.753057e+01 1.070986e+02 4.436959e+01 4.097454e+01 6.366246e+01 3.698732e+01 2.779952e+01 4.177769e+01 2.724092e+00 5.259518e+00 1.693207e+00 4.205345e+00 3.882518e+00 5.845701e+00 8.760311e+00 4.383398e+00 2.023096e+00 4.306204e+00 3.062528e+00 2.869050e+00 2.640934e+00 4.033557e-01 7.237121e-01 3.394571e-01 5.599663e-01 6.231218e-01 1.103139e+00 1.387397e+00 8.791810e-01 3.577088e-01 7.433290e-01 3.843055e-01 4.792390e-01 4.173682e-01
<GCONST> 1.307439e+02
<STATE> 3
<MEAN> 39
 3.590824e+00 -4.730541e+00 -8.085546e-01 1.340129e+01 1.125661e+01 4.769129e+00 -1.802615e+01 -7.511319e+00 4.258114e+00 -1.035514e+01 -6.063567e+00 4.933083e-02 8.241619e+01 3.130186e-01 5.335567e-01 -3.455690e-01 -9.572172e-01 -5.937786e-01 -1.238212e-02 2.075460e-01 3.736041e-01 -7.107231e-02 -5.997277e-01 -5.354576e-01 -1.537569e-02 -2.984117e-02 -1.161648e-01 1.467697e-01 5.602580e-02 -1.819312e-01 -2.479562e-01 3.133769e-02 4.056237e-01 2.562613e-01 -3.926569e-03 1.580915e-01 3.335256e-02 -1.475251e-01 -1.281196e-01
<VARIANCE> 39
 1.072510e+01 2.083050e+01 1.960514e+01 3.980495e+01 3.582504e+01 7.108653e+01 3.056521e+01 7.231002e+01 3.201994e+01 5.524469e+01 5.647877e+01 2.353699e+01 8.012997e+00 2.979362e-01 1.191352e+00 8.650894e-01 2.270352e+00 3.766592e+00 4.614588e+00 3.708708e+00 5.206750e+00 2.434276e+00 3.929478e+00 2.007806e+00 2.391295e+00 3.774853e-01 5.369233e-02 1.205272e-01 1.760565e-01 3.168918e-01 3.622808e-01 8.393329e-01 5.814591e-01 7.631310e-01 4.159195e-01 7.319626e-01 4.004143e-01 4.282456e-01 5.336184e-02
<GCONST> 1.085363e+02
<STATE> 4
<MEAN> 39
 6.695757e-01 -8.309278e-01 -1.724069e+00 6.367244e+00 5.031693e+00 4.944812e+00 -9.686110e+00 -2.707885e+00 5.882153e+00 -5.494800e+00 -7.073954e+00 -4.201431e+00 7.978419e+01 -3.245825e-01 4.063154e-01 -8.128988e-02 -2.085564e-01 -3.782009e-01 -1.860865e-01 9.549930e-01 6.497790e-01 -1.038997e-01 6.377013e-01 3.473452e-01 -1.103538e-01 -4.647117e-01 -1.338559e-01 -2.449441e-02 6.037609e-02 1.645790e-01 1.102112e-01 -7.863287e-03 4.284688e-02 -6.947172e-02 -7.294039e-02 1.516290e-01 1.843990e-01 1.460372e-01 -1.053118e-01
<VARIANCE> 39
 3.644309e+01 6.415754e+01 3.976947e+01 3.492163e+01 7.655123e+01 9.021375e+01 5.262810e+01 4.259868e+01 3.347119e+01 9.027094e+01 5.344513e+01 2.881057e+01 1.944332e+01 1.016757e+00 4.132977e+00 2.429222e+00 1.843181e+00 3.677844e+00 4.622195e+00 3.944705e+00 3.006262e+00 2.592153e+00 3.718850e+00 1.676597e+00 1.718346e+00 1.769008e+00 1.651606e-01 6.227772e-01 4.851609e-01 2.885046e-01 6.774527e-01 8.208414e-01 6.296139e-01 4.014778e-01 4.794039e-01 4.657275e-01 2.446035e-01 2.588387e-01 2.359693e-01
<GCONST> 1.217756e+02
<TRANSP> 5
 0.000000e+00 1.000000e+00 0.000000e+00 0.000000e+00 0.000000e+00
 0.000000e+00 8.404256e-01 1.595744e-01 0.000000e+00 0.000000e+00
 0.000000e+00 0.000000e+00 8.526541e-01 1.473459e-01 0.000000e+00
 0.000000e+00 0.000000e+00 0.000000e+00 7.932574e-01 2.067426e-01
 0.000000e+00 0.000000e+00 0.000000e+00 0.000000e+00 0.000000e+00
<ENDHMM>
~h "z"
<BEGINHMM>
<NUMSTATES> 5
<STATE> 2
<MEAN> 39
 -6.122216e+00 -5.806851e+00 7.674323e+00 1.465648e+01 7.524772e+00 7.666381e+00 -4.927655e+00 -4.799564e+00 2.142876e+00 -1.021409e+00 -9.070361e-01 -3.431394e+00 7.944029e+01 -1.157442e+00 -1.197713e+00 9.660781e-01 -2.991874e-01 -7.475772e-01 2.241001e-02 1.239002e+00 -1.938126e-01 -7.144807e-01 7.049739e-01 8.861008e-01 -6.372167e-01 4.887573e-01 -2.788351e-01 -1.053995e-01 -2.957983e-02 -3.538357e-01 -8.895050e-02 -1.128332e-01 1.139172e-01 2.486450e-01 4.720864e-02 -1.152121e-01 2.426704e-01 1.751546e-01 -3.218486e-02
<VARIANCE> 39
 2.810134e+01 5.429860e+01 3.898328e+01 2.677008e+01 4.312062e+01 3.742356e+01 7.707687e+01 4.380560e+01 4.264357e+01 3.099620e+01 2.944053e+01 2.328096e+01 4.167424e+01 4.882231e+00 8.583886e+00 4.067285e+00 3.570220e+00 4.604846e+00 4.062994e+00 1.024668e+01 4.342334e+00 3.433102e+00 4.767733e+00 4.415052e+00 2.441487e+00 4.730068e+00 4.862403e-01 1.257730e+00 4.880337e-01 6.323754e-01 9.350045e-01 7.100081e-01 1.346997e+00 7.400762e-01 4.983141e-01 5.257704e-01 6.896225e-01 2.784386e-01 8.251904e-01
<GCONST> 1.335159e+02
<STATE> 3
<MEAN> 39
 -1.131502e+01 -9.581703e+00 1.416219e+01 1.000942e+01 3.046540e+00 7.981112e+00 2.722762e+00 -2.942213e+00 -2.767444e+00 -6.258080e-01 5.886924e+00 -3.811321e+00 8.150250e+01 -2.004775e+00 -1.573991e+00 1.675404e-01 -1.140997e+00 -8.308680e-01 -6.555805e-01 1.766074e+00 1.001041e+00 -1.916081e-01 6.129709e-01 1.351602e+00 2.180248e-01 1.833075e-01 3.889484e-01 2.080625e-01 -6.109438e-01 -1.558161e-02 2.073423e-01 -8.372248e-02 -6.486466e-01 -4.847373e-02 3.133732e-01 -2.570746e-01 -3.761109e-01 2.404091e-01 -7.618651e-02
<VARIANCE> 39
 3.869962e+01 2.618620e+01 2.763033e+01 2.775803e+01 2.271283e+01 1.645282e+01 4.887586e+01 2.321395e+01 3.857126e+01 1.704335e+01 1.467893e+01 1.368406e+01 1.079963e+01 3.824555e+00 2.920689e+00 4.061395e+00 2.797752e+00 1.942245e+00 1.924050e+00 4.030576e+00 2.225300e+00 2.624002e+00 1.889276e+00 1.554080e+00 1.012487e+00 7.139128e-01 5.230746e-01 6.009492e-01 6.277526e-01 3.562781e-01 4.646140e-01 4.610826e-01 7.009759e-01 4.206100e-01 5.576559e-01 3.838422e-01 3.052402e-01 2.248122e-01 1.389852e-01
<GCONST> 1.108304e+02
<STATE> 4
<MEAN> 39
 -1.650235e+01 -1.317480e+01 6.439651e+00 4.182624e+00 -5.764700e-01 5.665597e+00 6.074654e+00 1.061021e+00 -1.863349e+00 6.091658e-01 7.708407e+00 9.487054e-01 7.831310e+01 1.712063e-01 5.197635e-01 -6.799908e-01 -8.046272e-02 1.455166e-01 -4.776039e-02 -1.219666e-01 1.349634e-01 1.996193e-01 3.011097e-02 -2.365649e-01 3.274293e-01 -4.951233e-01 2.054402e-01 2.562697e-01 1.431329e-02 1.440872e-01 1.190688e-01 6.403573e-02 -1.273123e-01 -5.746582e-02 8.402999e-03 -3.367228e-02 -1.433465e-01 -4.290610e-02 -7.293942e-02
<VARIANCE> 39
 3.164230e+01 5.081744e+01 4.673217e+01 3.137489e+01 1.954866e+01 2.206410e+01 1.871629e+01 2.303684e+01 4.978345e+01 2.415326e+01 1.625388e+01 2.621096e+01 5.021099e+01 1.722461e+00 2.753061e+00 2.503770e+00 1.338236e+00 1.482782e+00 1.296883e+00 1.587121e+00 1.540996e+00 2.030122e+00 1.419500e+00 1.684281e+00 1.318125e+00 1.147274e+00 2.735363e-01 5.084964e-01 4.523533e-01 2.685522e-01 2.516835e-01 2.475531e-01 2.958752e-01 2.619401e-01 3.336986e-01 2.622788e-01 3.223943e-01 2.549278e-01 1.630211e-01
<GCONST> 1.056915e+02
<TRANSP> 5
 0.000000e+00 1.000000e+00 0.000000e+00 0.000000e+00 0.000000e+00
 0.000000e+00 6.928028e-01 3.071972e-01 0.000000e+00 0.000000e+00
 0.000000e+00 0.000000e+00 7.101162e-01 2.898838e-01 0.000000e+00
 0.000000e+00 0.000000e+00 0.000000e+00 8.985254e-01 1.014746e-01
 0.000000e+00 0.000000e+00 0.000000e+00 0.000000e+00 0.000000e+00
<ENDHMM>
~h "aa"
<BEGINHMM>
<NUMSTATES> 5
<STATE> 2
<MEAN> 39
 -1.412009e+00 -2.706062e+00 -3.145082e+00 -2.197613e+00 -4.445313e+00 4.892463e+00 -4.059973e-01 2.145350e-01 4.396045e+00 -4.699705e-01 4.395035e+00 2.967642e+00 8.209508e+01 1.270417e+00 6.663996e-02 -5.718027e-01 -1.113294e+00 -7.061726e-01 -2.453023e-01 -5.987107e-01 -2.453670e-01 5.874034e-01 7.097164e-01 -2.718078e-01 -3.180397e-01 1.017874e+00 -2.775285e-01 2.200074e-01 3.276026e-02 7.333019e-02 2.098322e-01 2.365389e-01 1.369787e-01 -3.504606e-02 1.703273e-01 3.121909e-01 -2.277336e-01 -1.283842e-01 -3.670901e-01
<VARIANCE> 39
 5.664813e+01 2.745323e+01 3.220374e+01 3.887937e+01 2.785791e+01 2.086961e+01 4.675195e+01 5.141676e+01 3.870563e+01 4.886995e+01 4.185004e+01 2.673005e+01 2.975681e+01 5.316269e+00 4.166454e+00 4.365653e+00 5.175927e+00 4.496033e+00 2.575623e+00 5.686046e+00 5.802293e+00 3.913018e+00 6.224615e+00 4.659162e+00 2.982389e+00 5.485336e+00 5.446143e-01 9.845677e-01 9.826299e-01 7.199538e-01 6.755480e-01 5.297043e-01 1.255330e+00 8.969961e-01 5.571384e-01 1.163961e+00 6.752736e-01 3.937387e-01 6.103001e-01
<GCONST> 1.338251e+02
<STATE> 3
<MEAN> 39
 5.822080e+00 -2.309588e+00 -6.628672e+00 -2.927729e+00 -3.711421e+00 5.647152e+00 -5.919753e+00 -8.153638e-01 9.221983e+00 1.535531e+00 -4.346117e+00 -6.722100e-01 8.332243e+01 -5.680574e-02 1.517403e-01 7.441597e-02 9.202385e-02 1.215925e-01 1.864853e-01 -1.596159e-01 -2.281954e-01 4.164480e-01 2.039364e-01 -4.143094e-01 -2.659588e-01 -1.192194e-01 -2.037219e-01 5.421387e-02 2.163764e-01 1.573222e-01 1.874224e-01 1.443833e-01 1.360956e-01 5.145480e-02 -2.626828e-01 -2.022585e-01 1.205434e-01 -1.815160e-02 -1.698280e-01
<VARIANCE> 39
 1.101144e+01 2.095361e+01 2.278588e+01 5.386952e+01 7.657093e+01 6.674377e+01 5.949771e+01 4.124165e+01 3.355667e+01 3.639251e+01 3.768353e+01 4.869338e+01 8.010727e+00 5.170810e-01 1.733382e+00 1.875074e+00 2.897643e+00 3.550643e+00 3.898027e+00 4.956786e+00 3.726120e+00 3.067311e+00 2.898007e+00 3.298960e+00 2.732152e+00 5.189326e-01 1.428367e-01 2.419525e-01 2.356243e-01 5.146658e-01 3.773347e-01 6.499228e-01 8.184850e-01 9.272961e-01 5.768566e-01 3.907118e-01 6.530561e-01 5.818155e-01 9.455187e-02
<GCONST> 1.161607e+02
<STATE> 4
<MEAN> 39
 4.221047e+00 6.359262e-01 -4.308670e+00 -6.870699e+00 -7.423463e+00 5.329188e+00 -2.391820e+00 -1.573872e+00 5.646675e+00 3.097597e+00 -8.413138e-01 -8.092343e-01 8.434613e+01 -4.300152e-01 7.419191e-02 3.958614e-01 6.390587e-01 7.729015e-01 1.574258e-01 1.471980e-01 1.772088e-01 -7.616835e-01 -6.758530e-01 4.050268e-01 3.372914e-01 -3.825594e-01 -1.539682e-01 -4.152550e-02 6.431337e-02 1.731248e-01 5.891997e-02 -1.468680e-02 1.501230e-01 3.559643e-02 -3.770285e-02 1.816529e-02 5.690213e-02 4.392604e-02 -9.763755e-02
<VARIANCE> 39
 8.277046e+00 1.475456e+01 1.410954e+01 2.709803e+01 5.863172e+01 2.257778e+01 3.350594e+01 1.835232e+01 4.303491e+01 5.731522e+01 4.590467e+01 2.711987e+01 4.848656e+00 7.571089e-01 1.166533e+00 8.070409e-01 2.204953e+00 1.808997e+00 1.113625e+00 3.252845e+00 1.559322e+00 1.331033e+00 2.655719e+00 1.305741e+00 1.720830e+00 6.220121e-01 1.171331e-01 2.345454e-01 1.429765e-01 2.682300e-01 2.920512e-01 2.271529e-01 5.422194e-01 2.655403e-01 2.991979e-01 4.377218e-01 2.452228e-01 2.716461e-01 9.301061e-02
<GCONST> 9.830488e+01
<TRANSP> 5
 0.000000e+00 1.000000e+00 0.000000e+00 0.000000e+00 0.000000e+00
 0.000000e+00 8.354124e-01 1.645875e-01 0.000000e+00 0.000000e+00
 0.000000e+00 0.000000e+00 8.403327e-01 1.596673e-01 0.000000e+00
 0.000000e+00 0.000000e+00 0.000000e+00 8.977453e-01 1.022547e-01
 0.000000e+00 0.000000e+00 0.000000e+00 0.000000e+00 0.000000e+00
<ENDHMM>
~h "ae"
<BEGINHMM>
<NUMSTATES> 5
<STATE> 2
<MEAN> 39
 -1.265837e+01 -8.458633e-01 -2.157332e+00 5.260907e+00 2.667179e+00 4.267165e+00 4.481163e-01 3.573136e+00 4.115246e+00 2.514481e+00 4.513120e+00 5.293373e+00 6.876358e+01 5.602624e-01 -1.611506e-01 -5.721203e-01 -3.483510e-01 1.111702e-01 -1.485305e-01 -7.893602e-01 -2.017458e-01 5.331098e-02 -1.391134e-01 2.665241e-01 3.523828e-01 4.012448e-01 3.367835e-01 -6.373497e-04 -9.868796e-02 -7.119970e-02 2.198675e-02 -1.153713e-01 -3.108732e-01 -1.413064e-01 -4.832956e-02 -1.141525e-01 -9.513599e-02 -2.166743e-02 2.448373e-01
<VARIANCE> 39
 5.713890e+01 3.261087e+01 1.301727e+01 2.916524e+01 2.098144e+01 1.793943e+01 5.433111e+01 2.571014e+01 1.757353e+01 4.091016e+01 1.806705e+01 1.649255e+01 6.340754e+01 3.852527e+00 2.656080e+00 1.656518e+00 1.806706e+00 1.170222e+00 1.633499e+00 5.290043e+00 2.452732e+00 1.414688e+00 1.761834e+00 2.011873e+00 1.393029e+00 2.577027e+00 5.008274e-01 4.022322e-01 2.785656e-01 3.818218e-01 2.280248e-01 2.406636e-01 8.921680e-01 4.025992e-01 3.082499e-01 3.701181e-01 3.393819e-01 3.153410e-01 4.227053e-01
<GCONST> 1.112305e+02
<STATE> 3
<MEAN> 39
 2.192002e+00 -3.193698e+00 -6.071044e+00 2.710853e+00 4.513471e+00 8.390939e-01 -1.383572e+01 -2.191344e+00 2.092863e+00 -5.310345e+00 5.065825e+00 6.519458e+00 8.166257e+01 2.033543e+00 -2.292184e-01 -1.196136e+00 -9.114203e-01 1.984531e-01 -4.511572e-01 -1.858348e+00 -5.299661e-01 8.228615e-03 -7.075994e-01 1.429680e-01 6.332409e-01 1.607728e+00 -6.218255e-01 4.842301e-02 2.415679e-01 9.689703e-02 1.482817e-01 5.194864e-01 8.349643e-01 8.897517e-02 1.176827e-01 3.634017e-01 -9.875169e-02 -1.937329e-01 -4.264670e-01
<VARIANCE> 39
 3.003665e+01 1.602910e+01 3.674921e+01 2.841037e+01 1.991355e+01 3.236204e+01 4.225656e+01 4.372008e+01 3.749686e+01 4.069202e+01 2.516642e+01 1.803447e+01 3.590101e+01 4.872142e+00 3.065620e+00 1.670184e+00 2.552349e+00 2.293067e+00 2.255562e+00 7.671459e+00 3.190709e+00 2.580834e+00 2.217930e+00 2.447712e+00 2.009154e+00 5.486306e+00 4.200211e-01 4.141898e-01 4.682320e-01 2.858897e-01 2.817172e-01 5.294105e-01 8.702275e-01 7.620963e-01 4.581245e-01 3.612126e-01 5.066956e-01 3.563352e-01 2.992815e-01
<GCONST> 1.190679e+02
<STATE> 4
<MEAN> 39
 3.743017e+00 -3.300887e+00 -7.457448e+00 -1.767450e+00 3.909090e+00 4.555363e+00 -1.156075e+01 -3.905135e+00 4.271526e+00 -1.860039e+00 5.853257e+00 5.442174e+00 8.394547e+01 -3.153881e-01 4.383268e-01 1.878551e-01 8.549587e-02 6.505029e-01 8.829924e-01 3.272368e-01 -5.553720e-01 -6.698097e-02 1.784267e-01 -1.005758e-01 -1.996047e-01 -4.639016e-01 -3.532894e-01 1.790766e-01 2.754221e-01 1.794136e-01 -1.005420e-02 1.872834e-01 4.270789e-01 5.259003e-02 -1.383103e-01 1.345333e-01 -6.863648e-02 -1.700788e-01 -3.890234e-01
<VARIANCE> 39
 2.095075e+01 1.752053e+01 2.058649e+01 2.730935e+01 3.341607e+01 2.622957e+01 5.591926e+01 2.292719e+01 3.619252e+01 4.136977e+01 2.193428e+01 1.728992e+01 3.433968e+01 1.579434e+00 1.285353e+00 1.828792e+00 2.114449e+00 1.640013e+00 2.347495e+00 4.193604e+00 2.564792e+00 2.268749e+00 1.540973e+00 1.834128e+00 1.513799e+00 2.531057e+00 3.181927e-01 2.535273e-01 2.676100e-01 2.622575e-01 3.263701e-01 3.749751e-01 8.426659e-01 4.485889e-01 4.528127e-01 3.959290e-01 3.967535e-01 3.244661e-01 2.636784e-01
<GCONST> 1.102688e+02
<TRANSP> 5
 0.000000e+00 1.000000e+00 0.000000e+00 0.000000e+00 0.000000e+00
 0.000000e+00 7.999914e-01 2.000086e-01 0.000000e+00 0.000000e+00
 0.000000e+00 0.000000e+00 5.598806e-01 4.401194e-01 0.000000e+00
 0.000000e+00 0.000000e+00 0.000000e+00 7.864582e-01 2.135418e-01
 0.000000e+00 0.000000e+00 0.000000e+00 0.000000e+00 0.000000e+00
<ENDHMM>
~h "ah"
<BEGINHMM>
<NUMSTATES> 5
<STATE> 2
<MEAN> 39
 -4.933665e+00 -2.476696e+00 -5.580636e-01 5.745742e+00 1.875692e+00 3.415003e+00 -1.408768e+00 1.078353e+00 -5.256249e-01 -3.569190e+00 1.615433e+00 2.362244e+00 7.657670e+01 1.694452e+00 -7.802172e-01 -5.265079e-01 -4.583828e-01 -4.835887e-01 -7.371728e-01 -1.244456e+00 -2.324761e-02 -2.335563e-01 -1.223107e+00 -2.158770e-01 -4.579133e-02 1.721902e+00 6.856225e-03 1.515501e-01 5.968962e-02 -7.335491e-02 1.484382e-01 2.993754e-02 -2.330228e-01 -2.773182e-02 1.157826e-01 3.828896e-02 8.759262e-02 5.695172e-02 1.512363e-02
<VARIANCE> 39
 6.350514e+01 7.086356e+01 3.146614e+01 4.948171e+01 4.782647e+01 3.760740e+01 7.052902e+01 3.880508e+01 3.859882e+01 4.662801e+01 2.309948e+01 2.374427e+01 7.735938e+01 5.967551e+00 1.015449e+01 4.169293e+00 5.125953e+00 6.158332e+00 4.586415e+00 9.645261e+00 3.411242e+00 3.481681e+00 5.321167e+00 2.384172e+00 2.775758e+00 7.025884e+00 1.003053e+00 1.886022e+00 6.973361e-01 8.007060e-01 1.063731e+00 8.697876e-01 1.234494e+00 6.072323e-01 6.246526e-01 9.968286e-01 3.945972e-01 3.855279e-01 1.294704e+00
<GCONST> 1.393497e+02
<STATE> 3
<MEAN> 39
 3.504022e+00 -2.143341e+00 -2.856209e+00 2.697630e+00 1.415592e+00 -8.770227e-02 -1.001876e+01 9.695540e-01 -1.643456e+00 -8.747622e+00 1.413309e+00 2.485858e+00 8.246580e+01 -7.433616e-01 6.799740e-01 1.753772e-01 3.421833e-01 4.499214e-01 4.832025e-01 5.481575e-01 3.142138e-01 5.311432e-01 4.890336e-01 1.635013e-01 3.015805e-01 -1.083398e+00 -5.849392e-01 1.014018e-02 1.207774e-01 6.503203e-02 -1.202969e-01 1.750414e-01 6.398193e-01 2.381183e-03 7.525274e-02 4.090664e-01 2.825645e-02 7.103364e-02 -4.683827e-01
<VARIANCE> 39
 3.185696e+01 2.331652e+01 4.042565e+01 6.567916e+01 4.510232e+01 2.442304e+01 8.414066e+01 3.942151e+01 4.682795e+01 3.626882e+01 2.183769e+01 1.795680e+01 2.537040e+01 3.772987e+00 2.528757e+00 4.165922e+00 3.659026e+00 2.294383e+00 3.381163e+00 1.000444e+01 2.361355e+00 2.976911e+00 4.350637e+00 2.392404e+00 2.305898e+00 2.732302e+00 5.086460e-01 5.048836e-01 7.859610e-01 8.298752e-01 5.812290e-01 6.184226e-01 1.679889e+00 4.674286e-01 6.153686e-01 7.948346e-01 4.752643e-01 3.809350e-01 4.514814e-01
<GCONST> 1.271194e+02
<STATE> 4
<MEAN> 39
 -8.157374e-01 -7.353300e-01 -1.458544e+00 4.499996e+00 2.330831e+00 9.879868e-01 -8.774535e+00 -1.285009e+00 1.670597e+00 -6.410804e+00 2.378873e-01 4.226360e+00 7.804125e+01 -4.799931e-01 3.755507e-01 -8.274743e-02 -2.244449e-01 -1.122185e-01 2.465968e-01 2.025028e-01 -1.219199e-01 1.102190e-01 4.015573e-01 -8.797273e-03 4.001671e-01 -6.622915e-01 1.853454e-02 -1.116959e-01 4.484316e-02 1.062492e-01 6.750800e-02 1.209724e-01 7.818078e-02 -5.815323e-03 -6.462224e-02 -8.860275e-02 -1.748531e-01 -2.079167e-01 8.084600e-02
<VARIANCE> 39
 4.526279e+01 3.461853e+01 3.690690e+01 4.752626e+01 4.894866e+01 3.403282e+01 6.619556e+01 5.018998e+01 4.165166e+01 3.851752e+01 3.485662e+01 4.034609e+01 4.410588e+01 1.663385e+00 1.698928e+00 1.815967e+00 2.051739e+00 2.495112e+00 3.611181e+00 4.554430e+00 3.044163e+00 2.400869e+00 2.378057e+00 2.124116e+00 2.570654e+00 1.836956e+00 3.158787e-01 3.741235e-01 3.315856e-01 4.489821e-01 4.738663e-01 6.172675e-01 9.428236e-01 6.024038e-01 4.017842e-01 4.802729e-01 4.523476e-01 5.737712e-01 3.312574e-01
<GCONST> 1.217416e+02
<TRANSP> 5
 0.000000e+00 1.000000e+00 0.000000e+00 0.000000e+00 0.000000e+00
 0.000000e+00 7.616547e-01 2.383454e-01 0.000000e+00 0.000000e+00
 0.000000e+00 0.000000e+00 7.285963e-01 2.714036e-01 0.000000e+00
 0.000000e+00 0.000000e+00 0.000000e+00 7.121603e-01 2.878397e-01
 0.000000e+00 0.000000e+00 0.000000e+00 0.000000e+00 0.000000e+00
<ENDHMM>
~h "ao"
<BEGINHMM>
<NUMSTATES> 5
<STATE> 2
<MEAN> 39
 -1.520206e+01 1.609972e+00 -1.197168e+00 4.088497e+00 2.179420e+00 5.405429e+00 3.650602e+00 5.749897e+00 4.080245e+00 2.993737e+00 3.346272e+00 3.188313e+00 6.561887e+01 2.978067e-01 1.921429e-01 9.835258e-03 -2.026181e-02 -1.933538e-01 -2.474435e-01 -1.408358e-01 -1.097380e-01 -8.559376e-04 2.059958e-01 -2.915218e-03 -7.569051e-02 1.209794e-01 2.197380e-01 1.172693e-02 -3.454939e-02 2.093996e-02 -2.741192e-02 -1.249201e-01 -1.645045e-01 -1.019622e-01 -1.207890e-02 -5.201702e-02 -1.138399e-01 -1.010159e-01 1.495961e-01
<VARIANCE> 39
 3.849162e+01 1.957675e+01 7.453535e+00 1.615130e+01 1.805835e+01 2.621858e+01 2.678857e+01 1.357338e+01 1.356632e+01 2.074564e+01 1.599627e+01 1.836879e+01 3.247173e+01 1.909724e+00 7.721593e-01 6.489118e-01 9.448668e-01 1.858051e+00 2.472348e+00 2.316762e+00 1.418149e+00 1.352427e+00 1.527410e+00 1.241170e+00 1.360527e+00 8.954092e-01 2.536061e-01 1.478687e-01 1.276998e-01 1.949292e-01 2.983440e-01 4.013651e-01 4.153565e-01 2.558042e-01 2.621509e-01 2.686126e-01 2.113270e-01 1.840837e-01 1.294608e-01
<GCONST> 9.441915e+01
<STATE> 3
<MEAN> 39
 1.361392e+00 5.314189e+00 -2.551557e+00 9.105468e-01 -7.420922e+00 -8.240965e+00 -7.234090e+00 2.463361e+00 7.050382e+00 4.486403e+00 -1.389880e+00 -2.962248e+00 7.702026e+01 1.396575e+00 -2.233543e-01 -5.144523e-01 -4.617024e-01 -1.079179e+00 -1.371236e+00 -6.805462e-01 3.680735e-01 5.834597e-01 1.754830e-01 -1.917838e-01 -3.450253e-01 1.142048e+00 -3.097292e-01 -8.502273e-02 1.909525e-02 5.068347e-03 1.754388e-01 3.401849e-01 2.703474e-01 1.736669e-01 2.676494e-02 -1.020590e-01 1.028570e-01 1.586762e-01 -1.765279e-01
<VARIANCE> 39
 4.510724e+01 2.726071e+01 1.805189e+01 2.035828e+01 6.838357e+01 1.227371e+02 4.885165e+01 3.022990e+01 2.651202e+01 7.685507e+01 2.181410e+01 2.866470e+01 2.686364e+01 4.354316e+00 1.289280e+00 1.231834e+00 1.443987e+00 2.915021e+00 5.686448e+00 4.434292e+00 2.632074e+00 1.982960e+00 2.567642e+00 2.052740e+00 2.352815e+00 2.442702e+00 4.393231e-01 2.951985e-01 2.021547e-01 2.288201e-01 4.210220e-01 8.250645e-01 7.668382e-01 5.186146e-01 3.353920e-01 3.549134e-01 3.257378e-01 3.481154e-01 2.338560e-01
<GCONST> 1.171876e+02
<STATE> 4
<MEAN> 39
 5.736988e+00 2.897691e+00 -5.192935e+00 -1.374883e+00 -6.271719e+00 -6.345571e+00 -7.685975e+00 5.912152e+00 6.715158e+00 -3.945925e+00 -4.140003e+00 -1.604470e+00 8.053997e+01 -2.843158e-01 -5.306927e-02 -3.055719e-02 1.152777e-02 5.872383e-01 9.393267e-01 5.228516e-01 -1.319277e-01 -5.653131e-01 -4.109091e-01 1.139133e-02 1.342874e-01 -1.998460e-01 -1.368330e-01 -2.503844e-02 4.813294e-02 1.106313e-01 1.667066e-01 2.268789e-01 1.455736e-01 -7.198690e-02 -1.197263e-01 -2.390983e-03 5.021508e-02 7.574877e-02 -1.089405e-01
<VARIANCE> 39
 1.212764e+01 2.554185e+01 2.212857e+01 3.443307e+01 3.289085e+01 7.170921e+01 4.376342e+01 2.179306e+01 5.240911e+01 6.107045e+01 2.606740e+01 3.877508e+01 1.236378e+01 9.083584e-01 1.588304e+00 1.427436e+00 1.594230e+00 2.285451e+00 4.008966e+00 2.797899e+00 1.923146e+00 3.111153e+00 3.541720e+00 1.770305e+00 1.898401e+00 7.157257e-01 1.433941e-01 2.968889e-01 2.314953e-01 2.321401e-01 2.644500e-01 5.143065e-01 4.833353e-01 3.480826e-01 4.444938e-01 4.498853e-01 3.181598e-01 2.744729e-01 1.205690e-01
<GCONST> 1.085228e+02
<TRANSP> 5
 0.000000e+00 1.000000e+00 0.000000e+00 0.000000e+00 0.000000e+00
 0.000000e+00 8.826134e-01 1.173866e-01 0.000000e+00 0.000000e+00
 0.000000e+00 0.000000e+00 8.067160e-01 1.932840e-01 0.000000e+00
 0.000000e+00 0.000000e+00 0.000000e+00 9.168268e-01 8.317315e-02
 0.000000e+00 0.000000e+00 0.000000e+00 0.000000e+00 0.000000e+00
<ENDHMM>
~h "aw"
<BEGINHMM>
<NUMSTATES> 5
<STATE> 2
<MEAN> 39
 6.715338e+00 5.921444e+00 -2.852160e+00 6.510141e-01 -9.549758e+00 -1.526945e+01 -1.140707e+01 8.440488e+00 7.871386e+00 -1.819133e+00 -4.810846e+00 -6.337138e+00 8.037047e+01 -1.071285e-01 4.692829e-01 1.789764e-01 1.304590e-01 2.184248e-01 -2.162978e-01 -4.118046e-01 3.994039e-02 3.310002e-01 1.447469e-01 -2.794850e-01 -4.463725e-01 -2.950955e-01 -1.166901e-01 2.859906e-02 9.014981e-02 5.990830e-02 1.340173e-01 2.807282e-01 1.396420e-01 -9.983466e-02 -6.634730e-02 -3.422784e-02 1.925764e-02 4.019151e-02 -8.141638e-02
<VARIANCE> 39
 3.650453e+00 2.066965e+01 2.162868e+01 1.698183e+01 1.576526e+01 3.580570e+01 3.608820e+01 1.960369e+01 2.705300e+01 3.210186e+01 1.759029e+01 1.699410e+01 5.788338e+00 3.097320e-01 6.758080e-01 1.107688e+00 8.124616e-01 1.475699e+00 3.140301e+00 1.938082e+00 1.256470e+00 1.784632e+00 9.721901e-01 9.368034e-01 1.297898e+00 2.976378e-01 4.863983e-02 7.827078e-02 1.588126e-01 1.672771e-01 2.005533e-01 2.951906e-01 3.450498e-01 2.140963e-01 2.878723e-01 1.508767e-01 1.635700e-01 2.269858e-01 3.571172e-02
<GCONST> 8.492259e+01
<STATE> 3
<MEAN> 39
 1.911859e+00 1.367406e+01 1.596480e+00 7.375916e-01 -3.143776e+00 -4.162936e+00 -7.549585e+00 3.868970e+00 6.285022e+00 4.551899e-01 -4.536587e+00 -8.435553e+00 7.421767e+01 -1.594054e+00 4.613287e-01 7.057502e-01 2.384358e-01 4.548861e-01 2.429395e+00 2.737386e+00 -3.138057e-01 -7.477238e-01 2.821209e-01 6.780792e-01 1.113915e+00 -1.253548e+00 -3.224368e-01 -4.658032e-01 -1.010916e-01 2.762153e-01 -9.433170e-02 -2.475477e-01 3.300948e-01 4.097419e-01 1.153710e-01 7.597654e-02 8.857926e-02 2.796101e-01 -9.597120e-02
<VARIANCE> 39
 8.378554e+00 8.255373e+00 1.407226e+01 7.891880e+00 1.624012e+01 2.719548e+01 3.213803e+01 9.548395e+00 1.353017e+01 3.786820e+01 2.328678e+01 1.708441e+01 6.326879e+00 1.017010e+00 1.282311e+00 9.283301e-01 1.036677e+00 1.283859e+00 2.769352e+00 3.128925e+00 2.222047e+00 1.178326e+00 1.855099e+00 1.585096e+00 1.879740e+00 4.465536e-01 1.185006e-01 1.011678e-01 1.705091e-01 1.736397e-01 3.072982e-01 6.273077e-01 6.524268e-01 3.109488e-01 2.613261e-01 1.982641e-01 2.380928e-01 4.360234e-01 5.094571e-02
<GCONST> 9.162572e+01
<STATE> 4
<MEAN> 39
 -1.229742e+01 6.085879e+00 -1.412002e+00 2.634887e+00 7.708259e-01 3.847372e+00 3.742064e+00 6.118916e+00 4.045722e+00 1.802667e+00 -1.276393e-01 -4.449677e-02 6.734077e+01 -9.401132e-01 -7.364669e-01 -2.401964e-01 1.703247e-01 1.899508e-01 1.929705e-01 3.381510e-01 7.299612e-02 -3.121802e-02 1.478620e-01 2.738086e-01 4.746706e-01 -4.813598e-01 2.214491e-01 -9.785044e-02 -1.340192e-01 -5.731831e-02 1.200173e-03 -1.308286e-01 -2.890236e-01 -1.522469e-01 -7.140547e-02 -1.047645e-01 -4.743906e-02 -8.351639e-03 1.871895e-01
<VARIANCE> 39
 2.226168e+01 2.070288e+01 2.045640e+01 1.206334e+01 1.389679e+01 1.707039e+01 1.323969e+01 9.295614e+00 1.266740e+01 2.410946e+01 2.059454e+01 1.746219e+01 7.914106e+00 1.333921e+00 1.310266e+00 1.140272e+00 9.605911e-01 1.111696e+00 1.536479e+00 1.939399e+00 1.489039e+00 8.136490e-01 1.229938e+00 1.214413e+00 1.111819e+00 4.663492e-01 1.809148e-01 2.301551e-01 2.212215e-01 1.896446e-01 2.283919e-01 2.560410e-01 3.355724e-01 3.022107e-01 1.730487e-01 3.295931e-01 3.127288e-01 1.930567e-01 1.087297e-01
<GCONST> 8.969168e+01
<TRANSP> 5
 0.000000e+00 1.000000e+00 0.000000e+00 0.000000e+00 0.000000e+00
 0.000000e+00 9.423732e-01 5.762687e-02 0.000000e+00 0.000000e+00
 0.000000e+00 0.000000e+00 7.703362e-01 2.296638e-01 0.000000e+00
 0.000000e+00 0.000000e+00 0.000000e+00 8.977788e-01 1.022213e-01
 0.000000e+00 0.000000e+00 0.000000e+00 0.000000e+00 0.000000e+00
<ENDHMM>
~h "ax"
<BEGINHMM>
<NUMSTATES> 5
<STATE> 2
<MEAN> 39
 -6.554824e-01 -7.462152e-01 -9.928344e-01 6.817032e+00 4.740712e+00 4.319885e+00 -6.802719e+00 4.606816e-01 1.626554e+00 -7.712544e+00 -3.632070e+00 1.679724e+00 7.746775e+01 1.322330e+00 3.695874e-01 1.068872e-01 3.167143e-01 1.884248e-01 -7.506025e-01 -1.242197e+00 2.597884e-01 1.112462e-01 -1.337029e+00 -9.180508e-01 -2.444028e-01 8.126720e-01 -4.520099e-01 2.052753e-01 2.271993e-01 1.319632e-02 -7.631139e-02 -2.515149e-02 1.954103e-01 1.091135e-01 8.885273e-02 2.913327e-01 2.611527e-01 -1.379162e-01 -3.710901e-01
<VARIANCE> 39
 4.902088e+01 3.269304e+01 3.670612e+01 3.703744e+01 3.712455e+01 4.060744e+01 9.491273e+01 3.999325e+01 3.648045e+01 6.287910e+01 3.122641e+01 2.176256e+01 4.302761e+01 6.649680e+00 3.573659e+00 2.548753e+00 2.156060e+00 3.385131e+00 3.997404e+00 1.054654e+01 3.274588e+00 2.537010e+00 6.267808e+00 3.834846e+00 2.600626e+00 6.071530e+00 6.521671e-01 6.845788e-01 5.233434e-01 4.437705e-01 5.689656e-01 5.302125e-01 1.481686e+00 5.184469e-01 4.710847e-01 7.983701e-01 4.612333e-01 3.621859e-01 6.579074e-01
<GCONST> 1.308271e+02
<STATE> 3
<MEAN> 39
 1.353531e+00 7.194352e-01 -8.299374e-02 7.085406e+00 4.563190e+00 2.453546e+00 -1.053253e+01 8.315922e-01 2.013916e+00 -1.150512e+01 -5.104305e+00 1.209089e+00 7.840091e+01 -3.991523e-01 6.596889e-01 1.208208e-01 1.429080e-01 5.962404e-02 -8.858579e-02 6.065391e-01 3.752187e-01 -4.235226e-02 3.375668e-01 1.074922e-01 -3.020972e-01 -6.420114e-01 -3.896160e-01 -8.096986e-02 2.720918e-02 -4.799070e-02 -7.821312e-02 2.192174e-01 4.611798e-01 -8.212428e-02 -1.206318e-02 4.678662e-01 2.442327e-01 -5.413055e-03 -2.265664e-01
<VARIANCE> 39
 4.124800e+01 2.301419e+01 3.017299e+01 3.934737e+01 4.047686e+01 4.890447e+01 7.228792e+01 4.264912e+01 3.589407e+01 7.892918e+01 3.417219e+01 2.317190e+01 3.122339e+01 2.698897e+00 2.280047e+00 2.155260e+00 2.398520e+00 2.101006e+00 3.299644e+00 7.976570e+00 2.663785e+00 1.710932e+00 4.198859e+00 2.364583e+00 1.839943e+00 2.160157e+00 3.746668e-01 3.751495e-01 3.218779e-01 4.066532e-01 4.078172e-01 4.322904e-01 1.133857e+00 4.007941e-01 3.594711e-01 6.519099e-01 3.848851e-01 3.384491e-01 3.258019e-01
<GCONST> 1.208354e+02
<STATE> 4
<MEAN> 39
 -3.987488e+00 3.282586e+00 7.013772e-01 6.882934e+00 4.350368e+00 3.733683e+00 -4.756822e+00 1.629078e+00 1.548796e+00 -5.664917e+00 -2.993984e+00 3.979685e-01 7.363062e+01 -7.778867e-01 2.191007e-01 1.565717e-01 2.637236e-02 -4.332965e-02 2.535659e-01 8.687938e-01 1.340728e-01 4.262116e-02 7.014864e-01 3.510890e-01 -3.619403e-03 -6.607957e-01 3.711887e-02 -1.980496e-01 2.121387e-02 -2.803396e-02 -5.675940e-02 7.011273e-02 -3.580572e-02 -1.302932e-01 5.689046e-02 7.332759e-02 4.824867e-02 -2.640058e-02 1.640013e-01
<VARIANCE> 39
 6.841959e+01 2.272234e+01 1.687427e+01 3.086974e+01 3.097939e+01 4.265338e+01 7.036176e+01 3.525906e+01 3.010718e+01 6.905899e+01 2.728487e+01 1.773334e+01 5.126233e+01 2.308929e+00 2.260780e+00 1.723201e+00 2.117652e+00 1.378453e+00 2.145129e+00 4.449031e+00 1.888677e+00 1.682864e+00 3.078856e+00 1.968315e+00 1.318348e+00 1.904408e+00 4.278678e-01 4.078514e-01 2.383880e-01 3.617213e-01 2.775082e-01 4.113245e-01 7.652034e-01 3.247831e-01 2.817175e-01 5.347929e-01 3.445657e-01 2.321608e-01 3.688532e-01
<GCONST> 1.142706e+02
<TRANSP> 5
 0.000000e+00 1.000000e+00 0.000000e+00 0.000000e+00 0.000000e+00
 0.000000e+00 4.318644e-01 5.681356e-01 0.000000e+00 0.000000e+00
 0.000000e+00 0.000000e+00 4.599956e-01 5.400044e-01 0.000000e+00
 0.000000e+00 0.000000e+00 0.000000e+00 6.170492e-01 3.829508e-01
 0.000000e+00 0.000000e+00 0.000000e+00 0.000000e+00 0.000000e+00
<ENDHMM>
~h "ay"
<BEGINHMM>
<NUMSTATES> 5
<STATE> 2
<MEAN> 39
 -1.306328e+01 -2.524132e+00 -1.285736e+00 4.596451e+00 3.022322e+00 7.546381e+00 3.589037e+00 4.153444e+00 3.826451e+00 1.793945e+00 2.450575e+00 3.486240e+00 6.886411e+01 1.967547e-01 -2.363024e-01 -2.173661e-01 -3.360110e-01 -7.473611e-01 -5.459438e-01 9.783295e-02 2.074247e-01 -1.638351e-01 -7.509065e-02 2.247644e-01 2.135502e-01 2.716733e-01 4.240738e-01 -1.960771e-01 -1.359649e-01 -1.891199e-01 -1.356481e-01 -7.994233e-02 -3.318038e-01 -3.461451e-01 -3.574491e-02 -1.460712e-01 2.645083e-02 7.484613e-02 4.569120e-01
<VARIANCE> 39
 3.682822e+01 7.152660e+01 4.232787e+01 3.920581e+01 3.425711e+01 2.946210e+01 3.809040e+01 3.437402e+01 2.716269e+01 2.636391e+01 3.373844e+01 2.263419e+01 5.742296e+01 2.679821e+00 5.794625e+00 3.682434e+00 4.472559e+00 3.512834e+00 4.346069e+00 3.933036e+00 2.497783e+00 1.982370e+00 2.831731e+00 3.019413e+00 2.039165e+00 3.857373e+00 6.056797e-01 9.930669e-01 7.415978e-01 1.107975e+00 5.413402e-01 6.834130e-01 7.862216e-01 6.045367e-01 4.712470e-01 6.600758e-01 4.729525e-01 4.234516e-01 8.513075e-01
<GCONST> 1.283922e+02
<STATE> 3
<MEAN> 39
 -9.388790e+00 -1.083206e+00 -7.741723e-01 4.908893e+00 1.166843e+00 4.804880e+00 2.534760e+00 2.247826e+00 1.302199e+00 4.419446e-03 3.880247e+00 3.433841e+00 7.249474e+01 3.090156e+00 -1.671902e+00 -1.038679e+00 -1.515739e+00 -2.013427e+00 -1.344221e+00 -1.446773e+00 -1.320410e+00 -4.462163e-01 -9.449282e-01 4.059531e-01 -5.683343e-02 3.410315e+00 6.696597e-01 2.342568e-02 -2.044575e-01 -2.900069e-01 1.880015e-01 2.872891e-01 -6.541572e-01 -4.186272e-01 1.648697e-01 -4.157550e-02 -9.091489e-03 -3.108591e-03 5.559613e-01
<VARIANCE> 39
 6.831023e+01 4.583027e+01 1.939566e+01 3.219052e+01 2.643374e+01 2.202341e+01 2.922530e+01 2.990315e+01 2.255548e+01 3.425499e+01 1.494609e+01 1.679907e+01 9.735442e+01 4.955107e+00 6.080330e+00 2.722901e+00 3.651815e+00 3.252323e+00 2.152791e+00 4.329273e+00 3.787784e+00 2.679701e+00 4.287146e+00 2.957939e+00 3.012661e+00 6.256577e+00 8.603045e-01 1.122587e+00 4.437241e-01 6.054103e-01 7.535722e-01 5.870150e-01 4.451293e-01 3.790359e-01 4.372307e-01 4.791349e-01 3.843181e-01 3.682054e-01 1.270071e+00
<GCONST> 1.257409e+02
<STATE> 4
<MEAN> 39
 3.618836e+00 -3.702643e+00 -3.317276e+00 -7.099562e-01 1.133682e+00 3.941261e+00 -1.087229e+01 -3.693979e+00 2.508945e+00 -4.649211e+00 4.463511e+00 4.335759e+00 8.532404e+01 4.219564e-01 5.420332e-02 4.439643e-01 3.994606e-01 9.009075e-01 1.071973e-01 -1.663302e+00 -7.699189e-01 2.980715e-01 -5.445240e-01 -1.532859e-01 2.609867e-02 4.669479e-01 -3.786869e-01 1.759005e-01 1.956302e-01 3.069397e-01 2.175529e-01 1.552713e-01 2.588991e-01 1.150454e-01 2.918568e-02 1.011994e-01 -1.667109e-01 -8.379615e-02 -4.418961e-01
<VARIANCE> 39
 1.430601e+01 2.091020e+01 3.646239e+01 5.258127e+01 4.995718e+01 2.904070e+01 8.567268e+01 3.993876e+01 3.668235e+01 4.794329e+01 2.288245e+01 2.527035e+01 1.739677e+01 2.935885e+00 2.169996e+00 3.298202e+00 5.038753e+00 2.852845e+00 2.260209e+00 4.077210e+00 2.610372e+00 2.891392e+00 2.642645e+00 2.757415e+00 2.366600e+00 3.858394e+00 3.579534e-01 4.884765e-01 4.017991e-01 5.104470e-01 6.120791e-01 4.427507e-01 6.945581e-01 5.915826e-01 6.802769e-01 5.225163e-01 5.616856e-01 3.694422e-01 4.542071e-01
<GCONST> 1.222743e+02
<TRANSP> 5
 0.000000e+00 1.000000e+00 0.000000e+00 0.000000e+00 0.000000e+00
 0.000000e+00 6.494098e-01 3.505902e-01 0.000000e+00 0.000000e+00
 0.000000e+00 0.000000e+00 4.517185e-01 5.482816e-01 0.000000e+00
 0.000000e+00 0.000000e+00 0.000000e+00 8.704337e-01 1.295662e-01
 0.000000e+00 0.000000e+00 0.000000e+00 0.000000e+00 0.000000e+00
<ENDHMM>
~h "ch"
<BEGINHMM>
<NUMSTATES> 5
<STATE> 2
<MEAN> 39
 -1.124270e+01 -1.116851e+01 1.311642e+00 9.096434e+00 -1.554754e+00 1.282827e+00 1.003455e+00 2.712668e+00 4.860083e+00 1.198048e+00 8.338832e-01 9.584047e-01 7.422715e+01 2.707095e-01 -3.019201e+00 3.513446e-01 6.638942e-01 -4.533250e-01 -7.345309e-01 -3.941032e-01 -3.327936e-01 4.198831e-01 -2.693465e-01 -6.834838e-02 -7.503479e-01 2.147003e+00 2.140692e-01 2.112527e-01 1.622743e-01 -1.549229e-02 1.712949e-01 1.021124e-01 -2.363122e-01 -1.679103e-01 -1.869419e-01 -2.648774e-01 -1.079651e-01 3.605902e-02 1.337955e-01
<VARIANCE> 39
 1.429436e+01 1.455335e+02 4.668027e+01 3.175166e+01 2.996726e+01 4.197667e+01 2.913064e+01 2.801727e+01 1.947496e+01 2.568892e+01 1.513433e+01 2.534773e+01 7.081110e+01 2.576318e+00 1.417155e+01 6.320746e+00 3.719923e+00 3.691324e+00 4.913112e+00 3.981112e+00 4.364999e+00 2.980708e+00 2.958508e+00 2.069950e+00 2.350897e+00 7.530079e+00 4.987657e-01 3.678431e+00 1.259018e+00 6.561319e-01 6.469874e-01 1.169639e+00 9.264918e-01 9.309856e-01 5.930009e-01 4.788590e-01 4.357370e-01 4.661998e-01 1.757984e+00
<GCONST> 1.328724e+02
<STATE> 3
<MEAN> 39
 -7.448374e+00 -2.057989e+01 3.251261e+00 1.072394e+01 -8.253685e-01 1.535542e+00 -3.922261e+00 -2.158811e+00 3.324231e+00 -3.984853e+00 -7.402817e-01 -8.228589e-01 8.347142e+01 1.887734e+00 2.635890e+00 -6.148106e-01 -2.137160e-01 7.934932e-01 7.653060e-01 -1.267697e+00 -7.062280e-01 -1.106610e+00 -9.792768e-01 -1.129523e+00 4.073269e-01 -6.491809e-01 3.126702e-01 9.707311e-01 -5.461909e-01 -2.299145e-01 -9.357006e-02 -1.794752e-01 -1.779531e-01 3.162035e-01 1.425919e-01 1.304492e-01 -1.570467e-01 1.283526e-01 -5.641689e-01
<VARIANCE> 39
 3.596954e+01 8.095729e+01 1.445864e+01 1.060230e+01 1.290090e+01 2.909550e+01 4.002785e+01 2.161554e+01 2.824559e+01 2.600890e+01 2.148181e+01 1.539161e+01 1.292082e+01 5.187895e+00 9.220853e+00 1.637821e+00 1.446699e+00 1.767133e+00 2.505381e+00 8.874931e+00 3.283371e+00 2.689782e+00 2.711206e+00 1.910337e+00 1.178533e+00 1.865731e+00 8.263046e-01 1.800043e+00 4.419836e-01 3.206175e-01 4.441447e-01 6.627707e-01 1.330766e+00 6.021322e-01 7.617231e-01 3.513167e-01 3.736655e-01 2.336305e-01 4.981113e-01
<GCONST> 1.178937e+02
<STATE> 4
<MEAN> 39
 -5.377052e+00 -8.599496e+00 -5.264671e-01 1.166233e+01 2.057229e+00 3.379969e+00 -5.877622e+00 -3.631536e+00 1.298397e+00 -3.568577e+00 -3.586500e+00 7.173355e-01 7.554913e+01 1.640019e-01 1.979437e+00 -4.182609e-01 -1.357129e-01 6.005576e-01 -5.995578e-02 -3.989762e-01 3.482850e-01 3.008999e-01 2.930358e-01 -1.292391e-01 2.352635e-01 -1.104375e+00 -2.801294e-01 -3.582196e-01 8.862538e-02 -7.613951e-02 -1.814655e-02 -3.360724e-02 1.734666e-01 2.136717e-01 2.089813e-01 1.300328e-01 1.661914e-01 -5.679517e-02 8.413067e-02
<VARIANCE> 39
 5.056514e+01 8.241197e+01 2.202735e+01 2.183847e+01 2.660077e+01 2.712778e+01 7.696428e+01 2.135077e+01 1.396130e+01 3.233594e+01 1.561553e+01 1.190429e+01 5.137184e+01 3.820794e+00 3.247482e+00 2.222867e+00 1.873039e+00 1.536923e+00 1.793444e+00 5.912240e+00 1.855822e+00 2.311041e+00 2.892225e+00 1.473284e+00 1.001475e+00 1.652274e+00 3.273596e-01 7.711912e-01 2.859520e-01 2.018274e-01 2.142866e-01 2.962154e-01 7.684211e-01 2.656339e-01 4.142015e-01 4.125859e-01 3.602237e-01 1.815194e-01 2.244167e-01
<GCONST> 1.110323e+02
<TRANSP> 5
 0.000000e+00 1.000000e+00 0.000000e+00 0.000000e+00 0.000000e+00
 0.000000e+00 8.706797e-01 1.293203e-01 0.000000e+00 0.000000e+00
 0.000000e+00 0.000000e+00 6.964195e-01 3.035805e-01 0.000000e+00
 0.000000e+00 0.000000e+00 0.000000e+00 7.900748e-01 2.099252e-01
 0.000000e+00 0.000000e+00 0.000000e+00 0.000000e+00 0.000000e+00
<ENDHMM>
~h "dh"
<BEGINHMM>
<NUMSTATES> 5
<STATE> 2
<MEAN> 39
 -1.048223e+01 4.473413e+00 3.081498e+00 9.072462e+00 6.323838e+00 8.027205e+00 1.908061e+00 1.567932e+00 1.789222e+00 -9.424222e-02 6.884937e-01 1.890653e+00 6.835023e+01 -1.686309e-01 1.115828e-01 3.574693e-01 5.407302e-01 8.740753e-02 2.569080e-01 8.204521e-01 3.617542e-01 -1.489499e-01 1.763495e-01 6.810432e-02 -1.802277e-01 -1.261699e-01 1.984079e-01 -4.441237e-01 -7.133828e-02 -1.266600e-01 -2.239792e-01 -6.305735e-02 -1.894416e-01 -1.148224e-01 -7.086528e-03 -1.363077e-01 3.086791e-02 -6.367394e-02 3.983654e-01
<VARIANCE> 39
 3.475263e+01 4.324517e+01 2.234086e+01 2.229405e+01 2.445041e+01 1.647001e+01 5.823223e+01 3.901297e+01 2.369946e+01 2.695026e+01 1.660859e+01 1.656657e+01 4.413993e+01 2.069210e+00 4.074864e+00 2.016020e+00 1.842884e+00 2.218255e+00 1.763044e+00 4.566504e+00 2.574295e+00 1.532740e+00 2.198037e+00 1.855317e+00 1.694758e+00 2.421969e+00 2.956038e-01 7.491622e-01 3.843046e-01 3.769348e-01 3.915703e-01 3.176028e-01 9.434516e-01 6.015022e-01 2.685595e-01 3.925458e-01 3.354623e-01 3.054582e-01 4.750338e-01
<GCONST> 1.139481e+02
<STATE> 3
<MEAN> 39
 -7.910704e+00 -4.349632e-01 4.606503e+00 1.088326e+01 4.187910e+00 8.253267e+00 3.029322e+00 6.315190e-01 1.401513e+00 -5.122943e-01 9.975189e-01 -8.526722e-01 7.380956e+01 1.505338e+00 -2.670344e+00 -4.247742e-02 -4.620062e-01 -1.413715e+00 -4.859340e-01 -1.597400e+00 -1.390222e+00 -1.588901e-01 -7.403509e-01 1.752512e-01 -3.882810e-01 2.733169e+00 6.121157e-01 1.059373e-01 -8.074054e-02 -1.867242e-01 3.013234e-01 -1.130214e-01 -1.283393e+00 -5.297874e-01 -3.595100e-02 -6.720796e-01 -1.967245e-01 2.652274e-01 4.245253e-01
<VARIANCE> 39
 2.150963e+01 7.252671e+01 2.625412e+01 2.859996e+01 4.095255e+01 2.500007e+01 5.662727e+01 3.786985e+01 1.909747e+01 1.432398e+01 1.861390e+01 1.473205e+01 5.064468e+01 2.739472e+00 6.350056e+00 2.939265e+00 3.526285e+00 4.283546e+00 2.660523e+00 9.646254e+00 4.260524e+00 1.924496e+00 3.115774e+00 2.907330e+00 2.079254e+00 4.703280e+00 3.834138e-01 1.393069e+00 4.930030e-01 5.675505e-01 1.012675e+00 6.055788e-01 1.154038e+00 8.054224e-01 4.305708e-01 5.446688e-01 5.920373e-01 4.208660e-01 8.702400e-01
<GCONST> 1.264440e+02
<STATE> 4
<MEAN> 39
 -8.297300e-02 -4.558443e+00 4.734249e+00 9.007025e+00 4.779030e+00 7.097536e+00 -1.158494e+01 -7.598041e+00 6.925102e-01 -7.255763e+00 -1.266697e-01 8.226233e-01 8.259756e+01 1.316523e+00 -9.317756e-03 -4.175432e-01 -4.263309e-01 6.220998e-01 -3.085074e-01 -2.660961e+00 -6.489701e-01 -7.795282e-02 -1.752978e+00 -3.435770e-01 8.009413e-01 1.001876e+00 -3.621166e-01 5.720421e-01 -2.267608e-01 -7.907120e-03 2.223195e-01 -4.070384e-02 5.685977e-01 5.500090e-01 5.975334e-02 2.414041e-01 5.573162e-02 8.931157e-02 -6.176696e-01
<VARIANCE> 39
 1.756907e+01 2.315202e+01 2.361013e+01 3.426128e+01 3.223375e+01 1.680400e+01 8.701945e+01 3.881104e+01 2.805785e+01 4.151622e+01 1.968950e+01 2.299974e+01 1.925457e+01 2.754714e+00 2.827846e+00 1.832053e+00 1.886758e+00 3.135505e+00 2.078399e+00 1.221276e+01 4.839442e+00 2.051717e+00 4.644729e+00 1.992841e+00 2.241404e+00 3.673810e+00 2.769100e-01 7.104480e-01 3.075838e-01 2.581821e-01 7.799563e-01 3.313476e-01 1.584560e+00 6.514865e-01 3.202352e-01 6.883883e-01 2.799244e-01 4.710600e-01 3.521060e-01
<GCONST> 1.191711e+02
<TRANSP> 5
 0.000000e+00 1.000000e+00 0.000000e+00 0.000000e+00 0.000000e+00
 0.000000e+00 7.617238e-01 2.382762e-01 0.000000e+00 0.000000e+00
 0.000000e+00 0.000000e+00 6.270913e-01 3.729087e-01 0.000000e+00
 0.000000e+00 0.000000e+00 0.000000e+00 7.098537e-01 2.901463e-01
 0.000000e+00 0.000000e+00 0.000000e+00 0.000000e+00 0.000000e+00
<ENDHMM>
~h "ea"
<BEGINHMM>
<NUMSTATES> 5
<STATE> 2
<MEAN> 39
 -7.391330e+00 -2.793995e-01 2.593855e-01 6.215729e+00 3.197216e+00 4.507828e+00 -2.881577e+00 1.071307e+00 3.293610e+00 -1.702413e+00 2.116229e-01 1.528084e+00 7.316100e+01 -8.549295e-03 6.045978e-03 9.986501e-03 -5.830497e-03 -9.514267e-03 -1.506619e-03 -1.506659e-03 -3.180315e-03 6.676455e-03 -5.438070e-03 4.050421e-03 -4.468870e-03 -5.404587e-04 -3.875157e-05 3.997293e-04 3.423740e-04 6.946201e-05 -2.319832e-04 -6.938387e-04 -4.412478e-05 -4.860927e-04 1.315680e-03 -9.365405e-04 -4.231212e-04 2.471485e-04 -2.932212e-04
<VARIANCE> 39
 8.975014e+01 5.484237e+01 3.303328e+01 4.558641e+01 4.748297e+01 5.002078e+01 9.481474e+01 4.729189e+01 3.321279e+01 5.181567e+01 3.966083e+01 2.784256e+01 7.606396e+01 2.211436e+00 2.785441e+00 1.626260e+00 1.902343e+00 2.248548e+00 2.452049e+00 4.360876e+00 2.359010e+00 2.040265e+00 2.571942e+00 1.964578e+00 1.676181e+00 2.222835e+00 2.912704e-01 4.665184e-01 2.795431e-01 3.127733e-01 3.728060e-01 3.948886e-01 6.864723e-01 4.205315e-01 3.711796e-01 4.366302e-01 3.409353e-01 2.969837e-01 3.289974e-01
<GCONST> 1.202872e+02
<STATE> 3
<MEAN> 39
 -7.391330e+00 -2.793995e-01 2.593855e-01 6.215729e+00 3.197216e+00 4.507828e+00 -2.881577e+00 1.071307e+00 3.293610e+00 -1.702413e+00 2.116229e-01 1.528084e+00 7.316100e+01 -8.549295e-03 6.045978e-03 9.986501e-03 -5.830497e-03 -9.514267e-03 -1.506619e-03 -1.506659e-03 -3.180315e-03 6.676455e-03 -5.438070e-03 4.050421e-03 -4.468870e-03 -5.404587e-04 -3.875157e-05 3.997293e-04 3.423740e-04 6.946201e-05 -2.319832e-04 -6.938387e-04 -4.412478e-05 -4.860927e-04 1.315680e-03 -9.365405e-04 -4.231212e-04 2.471485e-04 -2.932212e-04
<VARIANCE> 39
 8.975014e+01 5.484237e+01 3.303328e+01 4.558641e+01 4.748297e+01 5.002078e+01 9.481474e+01 4.729189e+01 3.321279e+01 5.181567e+01 3.966083e+01 2.784256e+01 7.606396e+01 2.211436e+00 2.785441e+00 1.626260e+00 1.902343e+00 2.248548e+00 2.452049e+00 4.360876e+00 2.359010e+00 2.040265e+00 2.571942e+00 1.964578e+00 1.676181e+00 2.222835e+00 2.912704e-01 4.665184e-01 2.795431e-01 3.127733e-01 3.728060e-01 3.948886e-01 6.864723e-01 4.205315e-01 3.711796e-01 4.366302e-01 3.409353e-01 2.969837e-01 3.289974e-01
<GCONST> 1.202872e+02
<STATE> 4
<MEAN> 39
 -7.391330e+00 -2.793995e-01 2.593855e-01 6.215729e+00 3.197216e+00 4.507828e+00 -2.881577e+00 1.071307e+00 3.293610e+00 -1.702413e+00 2.116229e-01 1.528084e+00 7.316100e+01 -8.549295e-03 6.045978e-03 9.986501e-03 -5.830497e-03 -9.514267e-03 -1.506619e-03 -1.506659e-03 -3.180315e-03 6.676455e-03 -5.438070e-03 4.050421e-03 -4.468870e-03 -5.404587e-04 -3.875157e-05 3.997293e-04 3.423740e-04 6.946201e-05 -2.319832e-04 -6.938387e-04 -4.412478e-05 -4.860927e-04 1.315680e-03 -9.365405e-04 -4.231212e-04 2.471485e-04 -2.932212e-04
<VARIANCE> 39
 8.975014e+01 5.484237e+01 3.303328e+01 4.558641e+01 4.748297e+01 5.002078e+01 9.481474e+01 4.729189e+01 3.321279e+01 5.181567e+01 3.966083e+01 2.784256e+01 7.606396e+01 2.211436e+00 2.785441e+00 1.626260e+00 1.902343e+00 2.248548e+00 2.452049e+00 4.360876e+00 2.359010e+00 2.040265e+00 2.571942e+00 1.964578e+00 1.676181e+00 2.222835e+00 2.912704e-01 4.665184e-01 2.795431e-01 3.127733e-01 3.728060e-01 3.948886e-01 6.864723e-01 4.205315e-01 3.711796e-01 4.366302e-01 3.409353e-01 2.969837e-01 3.289974e-01
<GCONST> 1.202872e+02
<TRANSP> 5
 0.000000e+00 1.000000e+00 0.000000e+00 0.000000e+00 0.000000e+00
 0.000000e+00 6.000000e-01 4.000000e-01 0.000000e+00 0.000000e+00
 0.000000e+00 0.000000e+00 6.000000e-01 4.000000e-01 0.000000e+00
 0.000000e+00 0.000000e+00 0.000000e+00 7.000000e-01 3.000000e-01
 0.000000e+00 0.000000e+00 0.000000e+00 0.000000e+00 0.000000e+00
<ENDHMM>
~h "eh"
<BEGINHMM>
<NUMSTATES> 5
<STATE> 2
<MEAN> 39
 3.177809e+00 -3.512326e+00 -2.091722e-01 3.645578e+00 4.787762e+00 4.890472e+00 -1.523120e+01 -5.665961e+00 -1.628037e+00 -1.220095e+01 2.881182e+00 4.768848e+00 8.453618e+01 9.475527e-01 3.277079e-01 -8.677239e-01 -9.090993e-01 6.166811e-01 -2.341147e-01 -2.131022e+00 -3.834500e-01 1.280040e-01 -7.967674e-01 4.644207e-01 1.122193e+00 4.840263e-01 -5.122288e-01 1.082158e-01 5.277145e-02 1.795381e-01 -5.971871e-02 1.232671e-01 9.679828e-01 4.550706e-01 1.784087e-01 5.928587e-01 -6.291845e-02 -2.252901e-01 -5.119575e-01
<VARIANCE> 39
 1.396766e+01 1.463136e+01 3.303106e+01 1.962580e+01 3.317090e+01 2.992443e+01 6.742523e+01 4.301875e+01 2.804302e+01 3.332596e+01 2.939283e+01 2.251979e+01 1.135090e+01 1.571592e+00 2.544012e+00 1.231270e+00 1.240113e+00 2.102669e+00 2.952989e+00 5.690724e+00 4.098385e+00 2.511608e+00 3.402363e+00 2.572773e+00 2.312159e+00 1.474344e+00 1.690237e-01 4.243352e-01 2.203174e-01 2.948374e-01 4.000974e-01 4.161822e-01 9.199098e-01 7.248732e-01 5.283735e-01 4.918709e-01 3.555224e-01 3.926814e-01 1.663360e-01
<GCONST> 1.125332e+02
<STATE> 3
<MEAN> 39
 3.829879e+00 -1.342164e+00 -2.189927e+00 1.326044e+00 5.099588e+00 6.155702e+00 -1.538509e+01 -5.486979e+00 -2.446916e-01 -1.152609e+01 2.889229e+00 6.420963e+00 8.321511e+01 -2.528844e-01 7.921996e-01 -7.892841e-02 2.235782e-01 3.214243e-01 5.727228e-01 1.065134e+00 1.603917e-01 2.563629e-01 5.663954e-01 -4.467124e-01 -4.205136e-01 -8.388799e-01 -2.368388e-01 1.698543e-01 2.517545e-01 2.940791e-01 8.863108e-02 2.968771e-01 5.038501e-01 -3.366253e-02 3.341246e-02 2.421808e-01 -2.889186e-01 -4.473141e-01 -2.965760e-01
<VARIANCE> 39
 9.249123e+00 1.472397e+01 3.369417e+01 1.677526e+01 3.956540e+01 4.040902e+01 4.417230e+01 3.488431e+01 2.825633e+01 3.968512e+01 3.980566e+01 2.921184e+01 1.281424e+01 6.529875e-01 1.352677e+00 1.475432e+00 1.477561e+00 1.467717e+00 2.588775e+00 4.109933e+00 3.192149e+00 2.167225e+00 2.777144e+00 3.074327e+00 2.610078e+00 1.044505e+00 1.169328e-01 2.662129e-01 2.374086e-01 2.354302e-01 3.161317e-01 4.441627e-01 7.001927e-01 5.659945e-01 4.210585e-01 5.881275e-01 5.742867e-01 4.609810e-01 1.309553e-01
<GCONST> 1.087618e+02
<STATE> 4
<MEAN> 39
 8.288385e-01 5.782534e+00 2.335750e+00 5.807793e+00 2.775835e+00 4.222296e+00 -7.519142e+00 -9.196498e-01 5.246161e+00 -3.914449e+00 -4.287446e+00 -2.165281e+00 7.680060e+01 -6.326349e-01 5.969822e-01 4.470332e-01 5.406595e-01 3.446541e-01 5.263456e-01 1.049037e+00 2.077530e-01 2.172998e-01 8.202053e-01 -3.687654e-01 -8.754798e-01 -8.685746e-01 -1.082623e-01 -1.266559e-01 5.521659e-02 -4.987118e-02 -6.870665e-04 8.973727e-02 -1.706576e-02 -8.821806e-02 -6.776592e-03 1.107579e-01 1.070777e-01 4.687315e-02 2.337188e-02
<VARIANCE> 39
 2.202328e+01 3.092364e+01 2.584881e+01 1.836344e+01 7.894093e+01 9.615828e+01 5.191872e+01 3.579310e+01 4.868409e+01 5.478773e+01 5.030480e+01 3.631157e+01 2.407582e+01 1.849049e+00 1.530446e+00 1.270466e+00 1.966355e+00 3.017110e+00 4.700178e+00 3.869704e+00 2.768728e+00 2.909022e+00 3.885619e+00 4.114643e+00 3.397747e+00 2.000040e+00 2.026835e-01 3.293233e-01 2.148219e-01 3.226148e-01 3.780961e-01 5.099334e-01 4.974997e-01 3.468455e-01 4.199683e-01 5.327564e-01 4.335703e-01 3.609263e-01 1.927619e-01
<GCONST> 1.183635e+02
<TRANSP> 5
 0.000000e+00 1.000000e+00 0.000000e+00 0.000000e+00 0.000000e+00
 0.000000e+00 6.999864e-01 3.000136e-01 0.000000e+00 0.000000e+00
 0.000000e+00 0.000000e+00 7.645668e-01 2.354331e-01 0.000000e+00
 0.000000e+00 0.000000e+00 0.000000e+00 7.047454e-01 2.952546e-01
 0.000000e+00 0.000000e+00 0.000000e+00 0.000000e+00 0.000000e+00
<ENDHMM>
~h "er"
<BEGINHMM>
<NUMSTATES> 5
<STATE> 2
<MEAN> 39
 -1.775535e+00 9.533554e-03 -1.581119e+00 3.969388e+00 -1.804938e+00 4.319311e-01 -2.804789e+00 3.128395e+00 3.140067e+00 -8.026421e+00 -3.729062e+00 -4.141138e-01 7.914758e+01 1.257194e+00 5.562880e-01 -2.512012e-01 -4.134304e-01 -6.238160e-01 -1.905231e+00 -1.350139e+00 8.903399e-01 -1.527617e-01 -1.086427e+00 -5.300223e-01 2.365676e-01 6.732816e-01 -2.851849e-01 -1.274957e-01 -3.553006e-02 2.381863e-02 2.095110e-01 1.224199e-01 3.694829e-02 2.604860e-02 -1.177184e-01 1.592371e-01 1.936543e-01 9.281248e-02 -2.006741e-01
<VARIANCE> 39
 8.735051e+01 7.882407e+01 2.048202e+01 2.065301e+01 2.258342e+01 4.798026e+01 6.351861e+01 2.399179e+01 2.596569e+01 3.701238e+01 3.760642e+01 2.211361e+01 2.952516e+01 7.490642e+00 4.328981e+00 1.572261e+00 1.482189e+00 1.352694e+00 3.850753e+00 6.146275e+00 1.584431e+00 1.448906e+00 7.071473e+00 2.960169e+00 2.069686e+00 4.101946e+00 7.910556e-01 9.933547e-01 2.553243e-01 3.772342e-01 2.857689e-01 5.193916e-01 9.058896e-01 2.972288e-01 2.656915e-01 6.297162e-01 4.478258e-01 3.232018e-01 4.491169e-01
<GCONST> 1.213358e+02
<STATE> 3
<MEAN> 39
