~o
<STREAMINFO> 1 39
<VECSIZE> 39<NULLD><MFCC_D_A_0><DIAGC>
~s "silst"
<MEAN> 39
 -1.714378e+01 -3.284503e-01 -2.650216e+00 4.732294e+00 2.461236e+00 5.525341e+00 4.072122e+00 5.111686e+00 3.797287e+00 3.444829e+00 4.038249e+00 4.726380e+00 6.402144e+01 -1.179445e-01 -3.977569e-01 2.782367e-01 -1.250400e-02 -3.838103e-01 -8.711345e-02 -2.645219e-01 -5.788957e-02 3.543738e-01 -2.765979e-01 1.588247e-01 -2.013348e-01 4.106492e-01 -1.785706e-02 -1.038143e-01 1.086494e-01 -4.399875e-02 -1.247190e-01 -3.094795e-02 -1.103676e-01 -6.704936e-02 1.293720e-01 -1.119000e-01 3.921783e-02 -1.967336e-02 1.438812e-01
<VARIANCE> 39
 5.282245e+00 1.375146e+01 1.316903e+01 1.213015e+01 1.265672e+01 1.127175e+01 1.460785e+01 1.287228e+01 1.187512e+01 1.106777e+01 8.935985e+00 9.301229e+00 7.997850e+00 6.035126e-01 1.428301e+00 1.362307e+00 1.230071e+00 2.098933e+00 1.266564e+00 1.710305e+00 1.357676e+00 1.832495e+00 1.379723e+00 1.336882e+00 1.065064e+00 7.795957e-01 1.018127e-01 2.758213e-01 2.231671e-01 2.063614e-01 3.194475e-01 2.457315e-01 2.939734e-01 2.613298e-01 3.136191e-01 2.427371e-01 2.202885e-01 2.078165e-01 1.275663e-01
<GCONST> 8.635127e+01
~h "b"
<BEGINHMM>
<NUMSTATES> 5
<STATE> 2
<MEAN> 39
 -1.791957e+00 8.679708e+00 3.914620e+00 7.150192e+00 1.113563e+00 1.090966e+00 -3.428465e+00 3.031199e+00 5.661910e+00 -1.277994e-01 -3.923916e+00 -3.582167e+00 7.402671e+01 -1.612764e+00 1.793993e+00 6.495311e-01 9.358131e-01 1.128100e+00 9.882406e-01 2.220889e+00 9.530429e-01 -8.933333e-02 1.369788e+00 9.882962e-01 2.280725e-01 -2.013041e+00 -2.195328e-01 -2.455697e-01 9.961929e-02 1.070947e-01 1.894793e-01 2.650481e-01 1.699273e-01 1.505006e-02 -1.966474e-01 -2.680107e-01 1.380496e-01 1.742717e-01 -1.825231e-02
<VARIANCE> 39
 3.710079e+01 2.767573e+01 1.402135e+01 4.183296e+01 7.366212e+01 9.892802e+01 5.017416e+01 5.720823e+01 1.555571e+01 1.919424e+01 2.027161e+01 1.785083e+01 1.916142e+01 1.689947e+00 2.332071e+00 1.812306e+00 2.177900e+00 1.667937e+00 6.721383e+00 3.031737e+00 2.963943e+00 9.711858e-01 2.710678e+00 2.261500e+00 1.511696e+00 1.243881e+00 1.452899e-01 3.490140e-01 2.877283e-01 2.872638e-01 3.994290e-01 4.710528e-01 4.629328e-01 3.917553e-01 2.026560e-01 2.073529e-01 2.195638e-01 3.034856e-01 1.049140e-01
<GCONST> 1.091721e+02
<STATE> 3
<MEAN> 39
 -8.182259e+00 1.012953e+01 3.704870e+00 8.448064e+00 5.355576e+00 5.343437e+00 2.853915e+00 5.401735e+00 4.867172e+00 1.993601e+00 -6.852133e-01 -1.367771e+00 6.844637e+01 -1.099241e+00 5.857381e-01 7.991278e-01 6.981199e-01 6.351602e-01 6.659974e-01 1.221963e+00 3.742104e-01 -2.636364e-01 4.723336e-01 6.370764e-01 6.677768e-02 -9.688216e-01 4.622717e-01 -3.050065e-01 -5.634850e-02 -9.953625e-02 -2.504412e-01 -3.440562e-01 -5.779498e-01 -2.100626e-01 -5.730851e-02 -4.841613e-01 -3.451405e-01 -8.085149e-02 4.953876e-01
<VARIANCE> 39
 3.064554e+01 2.031138e+01 1.216640e+01 1.249066e+01 1.139879e+01 1.547335e+01 9.068121e+00 1.436587e+01 9.460732e+00 1.154224e+01 1.058329e+01 1.041068e+01 9.386437e+00 1.812024e+00 2.276817e+00 1.355034e+00 1.862815e+00 2.483628e+00 3.417082e+00 2.302503e+00 2.051792e+00 9.503040e-01 1.473791e+00 1.437726e+00 1.344699e+00 9.986871e-01 9.971851e-02 4.144922e-01 2.219516e-01 1.887311e-01 3.328410e-01 5.228454e-01 3.064073e-01 3.696656e-01 1.812271e-01 2.982262e-01 2.159255e-01 1.566346e-01 9.473382e-02
<GCONST> 9.289384e+01
<STATE> 4
<MEAN> 39
 -8.782413e+00 1.243215e+01 8.000155e+00 1.229440e+01 7.950023e+00 8.650555e+00 6.274188e+00 6.002489e+00 3.048563e+00 8.810050e-01 -6.235434e-01 -1.246701e+00 6.780561e+01 3.779058e-01 -4.206343e-01 -1.625389e-01 -7.799896e-02 -3.158066e-01 -9.523968e-02 -1.160380e-01 -2.690302e-01 -2.127504e-01 -2.151305e-01 -3.831482e-02 3.148845e-02 4.585358e-01 3.810793e-01 -4.438622e-01 -2.930082e-01 -2.158431e-01 -2.789561e-01 -2.758235e-01 -4.712977e-01 -2.676750e-01 -2.352061e-02 -1.567985e-01 -9.147345e-02 2.168419e-02 4.503055e-01
<VARIANCE> 39
 6.138463e+00 6.241635e+00 4.787454e+00 6.045901e+00 8.109381e+00 1.111347e+01 8.440014e+00 6.921789e+00 7.424117e+00 1.164636e+01 1.371699e+01 1.083904e+01 5.241555e+00 1.214576e+00 2.883787e+00 9.320295e-01 7.191541e-01 1.808881e+00 1.309546e+00 1.560900e+00 1.439668e+00 9.628191e-01 1.180616e+00 9.391789e-01 7.448394e-01 1.477541e+00 1.919076e-01 2.629136e-01 1.080085e-01 1.288934e-01 2.742764e-01 3.286960e-01 4.123719e-01 3.034716e-01 1.616232e-01 2.485075e-01 2.108840e-01 1.469324e-01 2.035278e-01
<GCONST> 8.103559e+01
<TRANSP> 5
 0.000000e+00 1.000000e+00 0.000000e+00 0.000000e+00 0.000000e+00
 0.000000e+00 3.840835e-01 6.159166e-01 0.000000e+00 0.000000e+00
 0.000000e+00 0.000000e+00 6.029075e-01 3.970924e-01 0.000000e+00
 0.000000e+00 0.000000e+00 0.000000e+00 8.486180e-01 1.513821e-01
 0.000000e+00 0.000000e+00 0.000000e+00 0.000000e+00 0.000000e+00
<ENDHMM>
~h "d"
<BEGINHMM>
<NUMSTATES> 5
<STATE> 2
<MEAN> 39
 -1.636746e+00 4.871525e-01 -2.969003e+00 6.165651e+00 7.476262e+00 7.163528e+00 -5.408212e+00 -2.953153e+00 -2.952138e-01 -4.141033e+00 -9.944413e-01 7.477804e-01 7.618742e+01 3.962988e-01 -4.224968e-01 -1.868219e-02 -9.546810e-02 -3.125716e-01 -1.457069e-01 -3.563403e-01 -5.380167e-01 -5.335163e-01 -5.346975e-01 -2.756963e-01 3.655350e-01 4.711779e-01 -2.481884e-01 2.954783e-01 3.040937e-01 1.462459e-01 -9.162315e-02 -6.051707e-02 3.202311e-01 3.420753e-01 1.528349e-01 1.169696e-01 -9.903059e-03 2.847469e-02 -2.855484e-01
<VARIANCE> 39
 4.574120e+01 4.013244e+01 4.004092e+01 6.051679e+01 4.815346e+01 4.301082e+01 1.047518e+02 6.082231e+01 5.100083e+01 4.334729e+01 3.370972e+01 2.771480e+01 3.952669e+01 4.453279e+00 6.186832e+00 3.704227e+00 2.911814e+00 2.727629e+00 5.657075e+00 1.456437e+01 4.513172e+00 3.848491e+00 5.460929e+00 3.023736e+00 2.230699e+00 6.220415e+00 6.355771e-01 8.111448e-01 6.831232e-01 5.936291e-01 5.374347e-01 7.889911e-01 1.776813e+00 9.853031e-01 8.800177e-01 9.309432e-01 6.160970e-01 4.430717e-01 7.609182e-01
<GCONST> 1.373626e+02
<STATE> 3
<MEAN> 39
 -1.626185e+00 3.426972e+00 -1.384893e+00 7.251044e+00 9.203839e+00 9.861209e+00 -4.018547e+00 -3.709230e+00 -1.204257e+00 -4.823880e+00 -2.373228e+00 1.275481e+00 7.473631e+01 -1.600563e+00 8.115007e-01 8.444893e-01 7.127109e-01 -1.734414e-01 3.429687e-01 2.532790e+00 1.417988e+00 -8.484832e-02 9.821495e-01 5.149004e-01 4.945914e-01 -1.594660e+00 -8.953230e-02 -1.998490e-01 5.730786e-02 5.055304e-02 -1.714485e-01 -3.695791e-01 -1.808986e-01 1.585270e-01 1.808993e-01 2.928785e-02 1.601318e-01 -6.659910e-03 7.649532e-02
<VARIANCE> 39
 2.838308e+01 2.876098e+01 2.407668e+01 3.583267e+01 5.065308e+01 3.198879e+01 8.247922e+01 4.386637e+01 4.191915e+01 3.478076e+01 2.709480e+01 2.889451e+01 2.680591e+01 1.979514e+00 2.582684e+00 1.871629e+00 3.032590e+00 3.660765e+00 3.298368e+00 7.073295e+00 2.725970e+00 3.707430e+00 4.573059e+00 3.438355e+00 2.333637e+00 2.001157e+00 2.053432e-01 5.015060e-01 2.869167e-01 3.408462e-01 6.205256e-01 5.032340e-01 1.296583e+00 4.812728e-01 4.569832e-01 8.626730e-01 3.950408e-01 4.144289e-01 4.081430e-01
<GCONST> 1.225173e+02
<STATE> 4
<MEAN> 39
 -8.207946e+00 6.417319e+00 9.627239e-01 9.086839e+00 9.618523e+00 9.504159e+00 1.239906e+00 -6.349848e-01 -1.047295e+00 -3.195006e-01 1.042410e+00 2.731278e+00 6.875626e+01 -7.353209e-01 -1.648360e-01 3.117313e-01 1.712788e-01 -4.462277e-01 -4.364751e-01 4.935238e-01 6.267273e-01 1.745238e-01 1.779062e-01 2.065520e-01 1.477863e-01 -4.284765e-01 3.698840e-01 -4.229972e-01 -2.294064e-01 -1.520200e-01 -2.466228e-01 -3.355084e-01 -5.005816e-01 -1.692607e-01 5.934373e-02 -2.386458e-01 -1.042884e-01 -1.066655e-01 4.687821e-01
<VARIANCE> 39
 3.103919e+01 2.012660e+01 1.340581e+01 2.155194e+01 3.852518e+01 2.391021e+01 4.312928e+01 2.160948e+01 2.210633e+01 2.636996e+01 2.478845e+01 1.646208e+01 2.479548e+01 1.147087e+00 1.923338e+00 1.404371e+00 1.790440e+00 2.537567e+00 2.203325e+00 2.176875e+00 1.641043e+00 2.130360e+00 2.255837e+00 1.626206e+00 1.568507e+00 1.112343e+00 2.008796e-01 3.996809e-01 1.502855e-01 2.254136e-01 3.316854e-01 3.785875e-01 7.580826e-01 3.413734e-01 3.378380e-01 4.591869e-01 3.103787e-01 2.163503e-01 3.378390e-01
<GCONST> 1.053709e+02
<TRANSP> 5
 0.000000e+00 1.000000e+00 0.000000e+00 0.000000e+00 0.000000e+00
 0.000000e+00 4.844460e-01 5.155540e-01 0.000000e+00 0.000000e+00
 0.000000e+00 0.000000e+00 3.625159e-01 6.374842e-01 0.000000e+00
 0.000000e+00 0.000000e+00 0.000000e+00 6.599898e-01 3.400102e-01
 0.000000e+00 0.000000e+00 0.000000e+00 0.000000e+00 0.000000e+00
<ENDHMM>
~h "f"
<BEGINHMM>
<NUMSTATES> 5
<STATE> 2
<MEAN> 39
 -1.572122e+01 -1.013486e+01 -8.553895e-02 3.937071e+00 1.686253e+00 6.202618e+00 6.920725e+00 1.811600e+00 4.272951e+00 -2.248194e+00 5.022649e+00 -1.834871e+00 8.013030e+01 -8.324570e-01 -3.535926e-01 -1.635565e-01 -4.852302e-01 -7.049477e-01 -1.693663e-01 2.014851e-01 2.281140e-01 3.828908e-01 2.882540e-01 3.173342e-01 -9.496169e-02 -4.424350e-01 5.030707e-01 2.762850e-01 1.773891e-02 2.022803e-01 1.253077e-01 -4.961271e-02 -4.524766e-01 -1.784875e-01 -1.102268e-01 -1.305060e-01 -2.669411e-01 4.010193e-02 -3.698495e-02
<VARIANCE> 39
 1.878935e+01 3.308609e+01 9.210724e+00 1.815074e+01 1.794865e+01 1.945057e+01 2.284833e+01 1.923424e+01 1.233584e+01 1.751027e+01 1.455416e+01 1.421232e+01 3.329525e+01 3.854805e+00 2.624847e+00 9.436289e-01 1.779712e+00 1.673863e+00 1.407035e+00 4.171828e+00 2.270922e+00 1.195096e+00 1.399403e+00 2.148696e+00 8.957946e-01 1.609399e+00 3.160151e-01 5.056435e-01 2.210500e-01 2.835863e-01 2.424361e-01 3.222696e-01 1.130918e+00 5.441615e-01 2.503887e-01 2.928586e-01 2.720917e-01 1.913120e-01 3.440066e-01
<GCONST> 1.026915e+02
<STATE> 3
<MEAN> 39
 -1.498151e+01 -7.792382e+00 -5.231254e-01 4.290585e+00 -1.333780e+00 6.171525e+00 7.083702e+00 2.701811e+00 6.092956e+00 6.533098e-02 4.194421e+00 2.792346e-01 7.466209e+01 2.002712e+00 9.103485e-01 2.735895e-02 4.390822e-01 1.566708e-01 -2.967246e-01 -1.687393e+00 -7.485696e-01 -7.990585e-01 -9.211521e-01 -1.168407e+00 1.394733e-01 3.334543e-01 7.739790e-01 1.124261e-01 -3.931642e-03 1.227693e-01 4.753625e-01 -3.024875e-01 -9.177647e-01 -2.474981e-01 -3.480283e-01 -4.300873e-01 -1.073718e-01 -7.469814e-02 6.428217e-01
<VARIANCE> 39
 1.684927e+01 3.934290e+01 9.233311e+00 1.115396e+01 2.941146e+01 2.046022e+01 1.366267e+01 2.006777e+01 1.020044e+01 2.248618e+01 1.837036e+01 2.074455e+01 6.093181e+01 4.294873e+00 9.391840e+00 1.039528e+00 1.938577e+00 2.034460e+00 3.328623e+00 5.353781e+00 4.210060e+00 1.189270e+00 1.969208e+00 1.946282e+00 2.078762e+00 4.867348e+00 3.217957e-01 1.152843e+00 3.438494e-01 3.770259e-01 3.727077e-01 5.776883e-01 1.247285e+00 4.899227e-01 3.905207e-01 4.185600e-01 2.864780e-01 3.517883e-01 6.920005e-01
<GCONST> 1.140305e+02
<STATE> 4
<MEAN> 39
 -9.740488e+00 -1.034892e+01 -2.358711e-01 6.441791e+00 3.664988e+00 6.642894e+00 9.838537e-01 -2.582327e+00 2.347192e+00 -2.983561e+00 3.658757e+00 -6.879140e-01 8.069533e+01 1.728009e+00 1.750610e-01 -2.506377e-01 3.747049e-01 8.505403e-01 -3.570206e-01 -1.206448e+00 -1.977699e-01 -3.877453e-01 3.044160e-01 -2.796373e-01 -2.346087e-01 5.279822e-01 -2.824126e-02 2.085059e-01 1.621067e-02 1.665050e-01 4.928081e-02 -9.622227e-02 -1.081752e-01 1.580661e-01 2.339299e-01 2.002044e-01 -9.260073e-02 -2.007391e-02 -2.591541e-01
<VARIANCE> 39
 5.783384e+01 4.520851e+01 1.800180e+01 2.678476e+01 6.295642e+01 1.132561e+01 6.996829e+01 2.038898e+01 2.654313e+01 2.768430e+01 3.364751e+01 1.520958e+01 3.648805e+01 5.872683e+00 6.833968e+00 2.393313e+00 3.265849e+00 7.567305e+00 2.404815e+00 1.133441e+01 2.376603e+00 4.116526e+00 3.913648e+00 4.350522e+00 2.962895e+00 5.078782e+00 7.674247e-01 8.985500e-01 4.836273e-01 5.504435e-01 1.142338e+00 3.215809e-01 2.288808e+00 3.772032e-01 7.191491e-01 8.171852e-01 9.043691e-01 5.773875e-01 8.146973e-01
<GCONST> 1.306658e+02
<TRANSP> 5
 0.000000e+00 1.000000e+00 0.000000e+00 0.000000e+00 0.000000e+00
 0.000000e+00 8.801997e-01 1.198003e-01 0.000000e+00 0.000000e+00
 0.000000e+00 0.000000e+00 2.889825e-01 7.110175e-01 0.000000e+00
 0.000000e+00 0.000000e+00 0.000000e+00 7.247279e-01 2.752721e-01
 0.000000e+00 0.000000e+00 0.000000e+00 0.000000e+00 0.000000e+00
<ENDHMM>
~h "g"
<BEGINHMM>
<NUMSTATES> 5
<STATE> 2
<MEAN> 39
 -1.142621e+01 5.020876e+00 2.866418e+00 1.170976e+01 8.563232e+00 7.911073e+00 3.014888e+00 3.544402e+00 2.498186e+00 9.386372e-01 -1.127454e+00 -1.698470e+00 6.778851e+01 -7.169665e-02 -1.144824e+00 -5.511796e-01 -6.810573e-01 -1.270667e+00 -6.111368e-01 4.535844e-01 5.169989e-01 7.816284e-02 -7.150956e-02 5.484045e-01 5.653473e-01 4.587379e-01 6.299053e-01 -6.531033e-01 -1.980008e-01 -4.176811e-01 -6.851455e-01 -5.564216e-01 -3.220250e-01 1.183941e-01 9.656427e-02 -4.642103e-01 -6.330156e-02 -8.099316e-02 8.602279e-01
<VARIANCE> 39
 1.430595e+01 2.702374e+01 1.936888e+01 2.993891e+01 1.761489e+01 1.216107e+01 2.279076e+01 1.595264e+01 1.325803e+01 1.310346e+01 1.458809e+01 1.387104e+01 1.054932e+01 3.049851e+00 5.927145e+00 2.603896e+00 3.595967e+00 6.514850e+00 3.789106e+00 2.212414e+00 2.413343e+00 2.232225e+00 2.139716e+00 1.564912e+00 1.252206e+00 4.635656e+00 3.728037e-01 5.489053e-01 4.005227e-01 4.722677e-01 8.058298e-01 5.375846e-01 4.137331e-01 4.913003e-01 3.724426e-01 4.794141e-01 3.497709e-01 2.558861e-01 4.748788e-01
<GCONST> 1.113043e+02
<STATE> 3
<MEAN> 39
 -3.818945e+00 -7.472454e+00 -1.275195e+00 5.033214e+00 -6.468745e+00 -2.154175e+00 2.521188e+00 7.143970e+00 3.182766e+00 -3.919065e+00 1.652509e+00 -7.929817e-01 7.971001e+01 2.266104e+00 -6.352692e-01 1.347880e+00 -8.373512e-02 -1.141904e+00 -1.304040e+00 -2.053380e+00 -2.695372e-01 5.120028e-01 -1.725929e+00 -1.166513e+00 -1.156636e+00 2.579132e+00 -1.783845e-01 1.491033e+00 8.462096e-01 6.988897e-01 1.600574e+00 9.072198e-01 -9.564701e-01 -7.742681e-01 2.424152e-01 2.782222e-01 -6.187615e-01 -2.979126e-01 -7.729627e-01
<VARIANCE> 39
 1.194422e+01 4.519405e+01 2.792682e+01 5.241162e+01 8.139465e+01 4.278259e+01 3.690779e+01 5.689975e+01 3.164212e+01 3.692665e+01 2.169912e+01 1.784521e+01 2.568259e+01 1.631056e+00 7.626913e+00 3.703719e+00 5.559155e+00 1.287257e+01 6.391340e+00 7.280424e+00 4.290242e+00 2.735612e+00 3.958237e+00 3.136077e+00 1.799797e+00 3.613783e+00 2.741911e-01 6.451334e-01 7.062432e-01 6.327898e-01 7.465054e-01 4.637035e-01 8.114116e-01 5.667188e-01 5.358839e-01 9.591255e-01 3.933958e-01 5.509610e-01 3.662971e-01
<GCONST> 1.285511e+02
<STATE> 4
<MEAN> 39
 4.089482e-01 2.801073e+00 5.140076e+00 6.840502e+00 1.881504e+00 2.684123e+00 -8.190180e+00 2.028101e+00 7.301678e+00 -4.700932e+00 -5.932506e+00 -5.313175e+00 7.990629e+01 5.637454e-01 9.702756e-01 3.073382e-01 -1.334258e-01 1.167656e+00 6.690949e-01 -1.728348e+00 -1.249061e+00 3.005001e-01 -7.185789e-02 -6.642988e-01 -2.078086e-01 9.065796e-02 -2.484380e-01 -2.366982e-01 -4.443056e-01 -1.825439e-01 -1.207515e-01 -1.181350e-01 3.156592e-01 1.238598e-01 -2.028643e-01 1.262221e-01 3.959746e-01 3.207134e-01 -1.526925e-01
<VARIANCE> 39
 1.199612e+01 3.867474e+01 3.162113e+01 6.175129e+01 8.461877e+01 1.239614e+02 6.203063e+01 8.750626e+01 3.047510e+01 4.451022e+01 1.997313e+01 1.705462e+01 1.357253e+01 1.871279e+00 3.236002e+00 3.091100e+00 2.501713e+00 2.350895e+00 3.808288e+00 9.888140e+00 3.590349e+00 3.779911e+00 3.905455e+00 2.531263e+00 2.745549e+00 8.494908e-01 2.589852e-01 5.249787e-01 5.717731e-01 5.899031e-01 4.642990e-01 4.382907e-01 1.189039e+00 5.957001e-01 6.432366e-01 5.725060e-01 3.559282e-01 3.459203e-01 1.813156e-01
<GCONST> 1.231583e+02
<TRANSP> 5
 0.000000e+00 1.000000e+00 0.000000e+00 0.000000e+00 0.000000e+00
 0.000000e+00 8.217136e-01 1.782864e-01 0.000000e+00 0.000000e+00
 0.000000e+00 0.000000e+00 6.533224e-01 3.466776e-01 0.000000e+00
 0.000000e+00 0.000000e+00 0.000000e+00 7.464396e-01 2.535604e-01
 0.000000e+00 0.000000e+00 0.000000e+00 0.000000e+00 0.000000e+00
<ENDHMM>
~h "k"
<BEGINHMM>
<NUMSTATES> 5
<STATE> 2
<MEAN> 39
 -1.342370e+01 1.703598e+00 -9.793936e-02 7.750350e+00 3.179307e+00 3.142339e+00 6.582394e-01 2.692801e+00 2.281461e+00 1.700584e+00 1.628271e+00 2.454945e+00 6.621061e+01 -3.571974e-01 -8.608541e-01 -9.344255e-01 -9.604232e-01 -7.301549e-01 -7.060074e-02 7.323065e-01 4.279100e-01 -1.945579e-01 -5.187267e-02 5.623111e-01 2.812077e-01 1.258415e-01 5.224542e-01 -4.779751e-01 1.492961e-03 -1.054550e-01 -3.020661e-01 -1.821938e-01 -2.722643e-01 4.237334e-02 2.248099e-02 -4.622799e-01 -8.897573e-02 -1.143976e-01 7.337837e-01
<VARIANCE> 39
 2.055048e+01 1.883326e+01 1.746960e+01 5.015311e+01 3.697295e+01 2.114779e+01 2.448671e+01 2.159295e+01 1.836221e+01 2.804900e+01 2.649895e+01 2.164554e+01 2.039426e+01 3.881902e+00 4.930058e+00 2.189345e+00 3.320421e+00 3.529500e+00 3.068699e+00 4.019344e+00 2.848881e+00 2.060578e+00 3.740858e+00 2.384477e+00 1.995670e+00 6.152998e+00 2.684059e-01 5.712005e-01 4.503108e-01 5.871530e-01 5.025687e-01 4.286229e-01 6.056403e-01 4.589493e-01 3.552060e-01 5.103844e-01 3.975636e-01 3.213734e-01 5.331521e-01
<GCONST> 1.177147e+02
<STATE> 3
<MEAN> 39
 -7.134737e+00 -1.142604e+01 -3.361271e+00 3.778596e+00 -6.455329e+00 -8.890877e-01 2.616110e+00 6.623076e+00 6.413282e-01 -5.883868e+00 3.681248e+00 1.486558e+00 7.890906e+01 1.406475e+00 -7.357591e-01 1.261190e+00 4.133004e-01 -6.785011e-01 -2.336991e-01 -5.383055e-01 9.400219e-03 -5.904233e-02 -1.279535e+00 -4.003214e-01 -4.152671e-01 1.873783e+00 -3.890789e-01 1.478824e+00 5.638300e-01 5.091503e-01 1.105478e+00 5.506949e-01 -4.490390e-01 -4.881485e-01 2.412114e-01 6.102304e-01 -3.706205e-01 1.150161e-01 -1.195298e+00
<VARIANCE> 39
 1.432464e+01 4.190488e+01 4.184600e+01 5.802637e+01 6.439804e+01 5.409357e+01 5.344290e+01 6.640814e+01 3.585424e+01 4.769009e+01 2.092418e+01 2.855257e+01 2.545967e+01 3.527417e+00 9.519015e+00 4.306005e+00 4.166439e+00 7.518951e+00 5.146990e+00 6.408752e+00 4.701421e+00 2.276516e+00 5.523651e+00 2.769386e+00 2.079649e+00 8.681610e+00 5.322391e-01 7.743895e-01 1.070736e+00 7.696410e-01 7.903647e-01 8.633571e-01 8.225937e-01 9.085916e-01 5.118111e-01 9.767616e-01 6.695552e-01 3.993543e-01 6.462973e-01
<GCONST> 1.349777e+02
<STATE> 4
<MEAN> 39
 -1.278589e+01 -5.287307e-01 -2.317850e+00 3.998138e+00 2.717783e-01 4.597011e+00 5.188274e+00 6.682562e+00 1.756041e+00 -1.429005e+00 1.707176e+00 3.872129e+00 6.827699e+01 -3.631034e-01 8.543814e-01 2.821379e-01 2.574489e-01 8.180053e-01 3.439190e-01 -5.783989e-01 -4.165380e-01 4.148843e-01 6.619675e-01 -7.251763e-02 -6.978327e-02 -7.438679e-01 6.358834e-02 -1.099363e-01 -1.332408e-01 -9.460198e-02 -5.828289e-02 -7.518369e-02 -8.315068e-02 -1.813071e-02 -4.541488e-02 -9.531640e-02 5.624148e-02 3.351157e-02 1.144540e-01
<VARIANCE> 39
 3.235920e+01 2.699654e+01 1.932998e+01 2.345200e+01 2.340500e+01 2.150707e+01 4.269460e+01 2.820074e+01 1.825414e+01 2.798053e+01 1.518654e+01 2.148102e+01 4.190398e+01 2.389671e+00 2.573672e+00 1.997930e+00 1.464392e+00 2.379225e+00 2.146104e+00 3.099153e+00 1.969005e+00 1.509279e+00 2.782483e+00 1.909195e+00 1.233202e+00 1.491530e+00 1.858335e-01 3.022251e-01 3.165803e-01 3.203157e-01 4.124208e-01 2.921574e-01 4.598289e-01 2.831568e-01 2.980707e-01 3.350599e-01 2.624314e-01 2.577216e-01 2.803786e-01
<GCONST> 1.070682e+02
<TRANSP> 5
 0.000000e+00 1.000000e+00 0.000000e+00 0.000000e+00 0.000000e+00
 0.000000e+00 8.510540e-01 1.489460e-01 0.000000e+00 0.000000e+00
 0.000000e+00 0.000000e+00 6.956140e-01 3.043860e-01 0.000000e+00
 0.000000e+00 0.000000e+00 0.000000e+00 7.809212e-01 2.190788e-01
 0.000000e+00 0.000000e+00 0.000000e+00 0.000000e+00 0.000000e+00
<ENDHMM>
~h "l"
<BEGINHMM>
<NUMSTATES> 5
<STATE> 2
<MEAN> 39
 3.418453e+00 -3.775050e+00 -4.219774e-01 9.867116e+00 7.719697e+00 5.307756e+00 -1.217567e+01 -4.300342e+00 -1.239689e+00 -1.181466e+01 -4.638546e+00 1.544770e+00 8.164229e+01 5.192163e-02 -1.353418e-01 1.460425e-01 -2.619546e-02 -9.716092e-03 3.369153e-01 2.302706e-02 -2.166028e-01 -4.507672e-01 -4.103979e-01 1.505833e-01 3.564628e-01 1.105783e-01 -2.342788e-01 1.379094e-01 1.239400e-01 -8.047140e-02 -1.156399e-01 1.238626e-01 3.170084e-01 1.297801e-01 9.041154e-02 2.517104e-01 6.669397e-02 -4.387714e-02 -2.178819e-01
<VARIANCE> 39
 5.134536e+00 2.103935e+01 2.498519e+01 3.623818e+01 3.711139e+01 3.281659e+01 4.280135e+01 4.197355e+01 3.319175e+01 3.961306e+01 3.141427e+01 3.065120e+01 6.326184e+00 6.166078e-01 1.345034e+00 1.208550e+00 1.494240e+00 1.618608e+00 2.290169e+00 5.050015e+00 3.432033e+00 2.941179e+00 2.943727e+00 3.063272e+00 2.319106e+00 7.756847e-01 1.393629e-01 2.723734e-01 1.786455e-01 2.528908e-01 3.575009e-01 3.488026e-01 8.495387e-01 5.830595e-01 6.282991e-01 4.751308e-01 6.872392e-01 5.031142e-01 1.310210e-01
<GCONST> 1.086383e+02
<STATE> 3
<MEAN> 39
 3.251975e-01 4.956187e-01 4.377786e+00 1.014407e+01 5.372350e+00 8.633781e+00 -4.736242e+00 -2.159599e+00 -3.049629e+00 -1.292604e+01 -6.926429e+00 1.449659e+00 7.835514e+01 -5.708200e-01 3.647694e-01 2.874628e-01 2.597454e-01 1.723331e-01 1.677572e-01 6.761985e-01 3.165634e-01 1.798691e-01 5.296800e-01 -1.529571e-01 -1.735844e-01 -6.124588e-01 -4.354103e-02 -5.011446e-02 -1.724493e-01 -9.846865e-02 -3.139932e-02 -1.755587e-01 -1.053793e-01 4.755660e-02 1.393367e-01 1.789675e-01 1.789374e-01 -2.642565e-02 8.570007e-04
<VARIANCE> 39
 1.397640e+01 2.744825e+01 2.680275e+01 3.228536e+01 2.277919e+01 2.167339e+01 3.020016e+01 2.643854e+01 2.975478e+01 3.622517e+01 1.437772e+01 1.784366e+01 1.359713e+01 5.213341e-01 6.344377e-01 1.027310e+00 1.070991e+00 1.045986e+00 1.105639e+00 1.556747e+00 1.405360e+00 1.278869e+00 1.909878e+00 1.303555e+00 1.264515e+00 3.819526e-01 5.847918e-02 1.273008e-01 1.982380e-01 1.606877e-01 1.591952e-01 1.882567e-01 3.330691e-01 3.511262e-01 2.931495e-01 2.611605e-01 2.340466e-01 2.664077e-01 4.160083e-02
<GCONST> 9.023756e+01
<STATE> 4
<MEAN> 39
 -1.380038e+01 2.065395e+00 -5.557877e-01 5.719480e+00 4.360306e+00 6.912758e+00 3.166518e+00 3.879467e+00 1.254878e+00 1.787185e-01 1.665153e+00 3.352594e+00 6.550113e+01 -3.762563e-01 -1.136016e-01 -2.685931e-01 -2.706456e-01 -1.631092e-01 -1.299110e-01 9.928268e-02 1.681047e-01 3.381369e-01 5.908557e-01 4.889328e-01 1.272624e-01 -2.455800e-01 8.312981e-02 -1.515005e-02 4.453331e-02 7.118351e-02 2.198269e-02 -2.967876e-02 -1.040197e-01 -5.788186e-02 2.485174e-02 -6.055665e-02 -5.408517e-02 -3.326025e-02 8.818047e-02
<VARIANCE> 39
 4.969765e+01 9.425456e+00 1.615571e+01 2.164544e+01 1.327688e+01 1.380684e+01 3.246817e+01 2.660962e+01 1.990245e+01 3.751090e+01 2.609204e+01 1.327860e+01 4.461678e+01 6.027955e-01 7.608620e-01 9.208485e-01 9.745451e-01 7.950572e-01 9.511576e-01 1.326470e+00 1.058535e+00 1.449204e+00 1.571391e+00 1.417295e+00 9.559270e-01 3.623799e-01 9.697406e-02 1.552090e-01 1.706637e-01 2.128105e-01 1.583305e-01 1.832276e-01 2.455192e-01 2.317958e-01 2.085814e-01 2.948055e-01 1.944639e-01 1.862853e-01 5.229305e-02
<GCONST> 8.822577e+01
<TRANSP> 5
 0.000000e+00 1.000000e+00 0.000000e+00 0.000000e+00 0.000000e+00
 0.000000e+00 7.932761e-01 2.067239e-01 0.000000e+00 0.000000e+00
 0.000000e+00 0.000000e+00 8.195008e-01 1.804992e-01 0.000000e+00
 0.000000e+00 0.000000e+00 0.000000e+00 8.053403e-01 1.946597e-01
 0.000000e+00 0.000000e+00 0.000000e+00 0.000000e+00 0.000000e+00
<ENDHMM>
~h "m"
<BEGINHMM>
<NUMSTATES> 5
<STATE> 2
<MEAN> 39
 6.489099e-01 5.578915e+00 2.695496e+00 3.187202e-01 -1.911389e-01 8.381886e+00 -8.243042e+00 -3.680705e+00 8.641164e+00 2.075580e-01 -1.206996e+00 -1.894554e-01 7.738629e+01 -3.927146e-01 1.202456e-01 1.510670e-01 5.999329e-01 8.359907e-01 8.009483e-01 4.495204e-01 -5.149588e-02 2.374341e-01 4.008864e-01 -2.603708e-01 -7.535787e-01 -4.171680e-01 -7.118730e-03 -1.878882e-01 -9.128536e-02 8.466686e-02 6.527488e-02 -9.589797e-02 -4.368816e-04 9.381416e-02 -6.996693e-02 -4.509290e-02 9.822153e-03 8.914471e-02 6.489447e-02
<VARIANCE> 39
 1.474627e+01 1.770297e+01 1.180097e+01 4.224771e+01 6.024162e+01 5.245091e+01 5.069284e+01 2.693065e+01 2.549351e+01 2.764983e+01 3.378366e+01 2.454009e+01 1.015186e+01 5.269452e-01 8.241138e-01 5.925032e-01 2.085938e+00 2.808981e+00 3.000691e+00 3.619443e+00 2.041523e+00 1.856898e+00 1.981233e+00 1.431050e+00 2.696679e+00 5.562975e-01 4.448874e-02 1.673622e-01 1.100431e-01 2.729236e-01 3.455430e-01 4.559971e-01 4.725819e-01 3.105515e-01 3.453587e-01 2.713903e-01 2.524666e-01 3.076921e-01 4.648319e-02
<GCONST> 9.973936e+01
<STATE> 3
<MEAN> 39
 -4.676259e+00 7.066931e+00 2.061529e+00 7.180591e+00 9.384372e+00 1.305391e+01 -5.650488e-01 5.856879e-01 6.619853e+00 6.051549e-01 -4.451730e+00 -3.433926e+00 7.161636e+01 -7.080277e-01 -6.869033e-02 -7.442869e-02 1.031599e-01 5.659962e-02 -1.262731e-01 5.322701e-01 4.455549e-01 -2.021218e-01 3.147041e-01 5.249789e-01 2.768687e-01 -5.250660e-01 1.810646e-02 -5.430353e-02 -3.349417e-02 -1.389350e-01 -3.043901e-01 -2.906697e-01 -1.587986e-01 -5.306598e-02 -6.776754e-02 -7.891642e-02 1.064238e-01 2.193882e-01 4.099295e-02
<VARIANCE> 39
 1.765756e+01 5.895865e+00 1.076314e+01 9.996037e+00 1.293017e+01 2.242442e+01 1.886742e+01 1.780222e+01 2.262654e+01 2.582759e+01 2.617557e+01 1.786373e+01 1.469107e+01 4.447461e-01 4.131207e-01 6.017861e-01 9.061871e-01 1.258127e+00 1.310369e+00 1.208337e+00 9.239985e-01 1.004970e+00 1.239958e+00 1.268088e+00 9.397037e-01 2.188024e-01 4.646234e-02 5.677955e-02 1.014183e-01 1.732255e-01 2.055074e-01 1.774861e-01 1.982889e-01 1.464877e-01 1.936906e-01 2.428233e-01 2.021587e-01 2.027378e-01 2.524261e-02
<GCONST> 7.811809e+01
<STATE> 4
<MEAN> 39
 -1.581819e+01 3.163641e+00 -1.536240e+00 4.039337e+00 2.991374e+00 6.007797e+00 3.882253e+00 5.044384e+00 3.985162e+00 3.453313e+00 2.893674e+00 3.375981e+00 6.392479e+01 -1.739769e-01 -1.325053e-01 -5.832872e-02 -9.647658e-02 -2.162204e-01 -1.783815e-01 4.710354e-02 7.119751e-02 -8.890916e-02 -1.178162e-02 1.446513e-01 1.645697e-01 -8.555035e-02 9.055591e-02 3.525501e-02 4.355694e-02 4.686254e-02 5.635136e-02 3.237425e-02 -6.056010e-02 -4.132698e-02 8.657725e-03 -5.887115e-02 -7.439692e-02 -4.878583e-02 6.456719e-02
<VARIANCE> 39
 2.133118e+01 5.021620e+00 8.600803e+00 8.660411e+00 8.562877e+00 1.165186e+01 1.191034e+01 9.731616e+00 1.041364e+01 1.209059e+01 1.317440e+01 1.090306e+01 1.483694e+01 3.011499e-01 3.526140e-01 3.926750e-01 5.572949e-01 8.610584e-01 9.481883e-01 6.425408e-01 7.728150e-01 1.006199e+00 8.402067e-01 1.057564e+00 7.853904e-01 1.520331e-01 4.920822e-02 7.981868e-02 7.601039e-02 1.144745e-01 1.663913e-01 1.799507e-01 1.603893e-01 1.668722e-01 1.857790e-01 1.738825e-01 2.040547e-01 1.755743e-01 2.899366e-02
<GCONST> 6.789997e+01
<TRANSP> 5
 0.000000e+00 1.000000e+00 0.000000e+00 0.000000e+00 0.000000e+00
 0.000000e+00 8.070822e-01 1.929178e-01 0.000000e+00 0.000000e+00
 0.000000e+00 0.000000e+00 8.306194e-01 1.693806e-01 0.000000e+00
 0.000000e+00 0.000000e+00 0.000000e+00 8.728930e-01 1.271070e-01
 0.000000e+00 0.000000e+00 0.000000e+00 0.000000e+00 0.000000e+00
<ENDHMM>
~h "n"
<BEGINHMM>
<NUMSTATES> 5
<STATE> 2
<MEAN> 39
 2.191076e+00 -9.372775e-02 -6.099434e-01 4.116108e+00 6.977756e+00 8.504733e+00 -1.327997e+01 -6.353083e+00 2.507651e+00 -7.491937e+00 -8.981180e-01 4.157391e+00 8.109623e+01 -2.301535e-01 9.003375e-01 2.622251e-01 1.003544e-01 7.198537e-01 1.405135e+00 8.929904e-01 -2.634003e-01 -1.322247e-01 3.968936e-01 -3.695214e-01 -9.261656e-01 -7.234933e-01 -2.397717e-01 8.656858e-02 1.095608e-01 7.407666e-02 5.402467e-04 7.769745e-02 2.975736e-01 1.781027e-01 8.448708e-02 1.908921e-01 -1.144067e-01 -3.100266e-01 -1.866455e-01
<VARIANCE> 39
 1.367449e+01 1.878035e+01 3.574469e+01 3.635687e+01 2.687297e+01 2.757363e+01 5.383908e+01 3.276027e+01 4.384817e+01 3.296231e+01 3.034125e+01 2.410709e+01 1.650217e+01 1.461357e+00 1.962104e+00 1.347566e+00 2.391500e+00 2.217117e+00 3.069605e+00 4.765443e+00 2.672193e+00 2.901185e+00 2.523999e+00 2.618803e+00 2.763906e+00 1.687464e+00 1.567622e-01 3.097199e-01 1.720417e-01 3.181100e-01 3.621788e-01 4.227535e-01 6.638925e-01 4.541188e-01 4.345608e-01 3.658913e-01 4.029429e-01 3.647728e-01 1.789037e-01
<GCONST> 1.118490e+02
<STATE> 3
<MEAN> 39
 -9.715874e-01 4.712137e+00 2.229008e+00 6.291203e+00 1.110040e+01 1.532225e+01 -7.738570e+00 -6.097219e+00 3.328453e+00 -4.535490e+00 -3.787135e+00 -3.320629e+00 7.613597e+01 -4.838350e-01 5.235381e-01 4.714228e-01 3.412125e-01 1.350749e-01 2.249892e-01 6.252953e-01 2.652012e-01 2.077426e-01 4.951841e-01 -4.203725e-01 -7.681945e-01 -5.745937e-01 2.184600e-02 -2.384841e-01 -9.453716e-02 1.170538e-02 -2.789511e-01 -5.426452e-01 -6.539582e-02 2.143593e-01 -8.278573e-02 -8.417884e-02 2.314591e-01 3.835404e-01 1.396107e-01
<VARIANCE> 39
 6.730121e+00 1.348875e+01 1.298875e+01 1.187871e+01 1.094842e+01 1.767347e+01 1.629666e+01 1.614610e+01 2.263658e+01 1.950519e+01 2.153329e+01 1.564036e+01 9.870984e+00 3.379834e-01 5.522923e-01 7.642526e-01 1.055297e+00 1.108402e+00 2.073196e+00 1.641854e+00 1.461296e+00 1.357667e+00 1.365130e+00 1.497310e+00 1.617473e+00 3.338552e-01 6.810491e-02 1.741077e-01 1.416563e-01 2.279913e-01 2.168241e-01 3.092640e-01 4.429827e-01 2.996267e-01 3.110643e-01 2.566780e-01 3.144981e-01 2.669434e-01 9.252862e-02
<GCONST> 8.650522e+01
<STATE> 4
<MEAN> 39
 -3.384516e+00 4.008204e+00 2.022428e+00 8.310989e+00 9.097474e+00 1.104974e+01 -3.676209e+00 -1.901690e+00 2.585869e+00 -4.014466e+00 -4.156207e+00 -2.828954e+00 7.414212e+01 -4.559273e-01 -7.701383e-01 -2.613885e-01 9.847410e-02 -1.147315e+00 -1.629835e+00 6.155316e-01 1.159420e+00 -1.776942e-01 1.780157e-01 8.200148e-01 9.012212e-01 -5.564848e-02 -1.487706e-02 -2.623573e-01 -5.547981e-02 -1.688187e-01 -3.029146e-01 -3.194975e-01 -2.538428e-01 5.691169e-03 1.076235e-01 5.801842e-02 2.560853e-01 2.970306e-01 1.330732e-01
<VARIANCE> 39
 2.438147e+01 2.510534e+01 2.023204e+01 2.091929e+01 1.766531e+01 2.944900e+01 2.914893e+01 2.540457e+01 2.695822e+01 2.470203e+01 3.096930e+01 2.120480e+01 2.496452e+01 2.074777e+00 2.771979e+00 2.144881e+00 3.872402e+00 2.241243e+00 2.572824e+00 4.577681e+00 3.066533e+00 2.828995e+00 2.905422e+00 3.517474e+00 1.598069e+00 2.173050e+00 2.558827e-01 7.275437e-01 3.648487e-01 6.062487e-01 4.062609e-01 4.736902e-01 7.376351e-01 5.500286e-01 5.038840e-01 4.844913e-01 7.662179e-01 3.592933e-01 3.470517e-01
<GCONST> 1.165807e+02
<TRANSP> 5
 0.000000e+00 1.000000e+00 0.000000e+00 0.000000e+00 0.000000e+00
 0.000000e+00 6.948598e-01 3.051402e-01 0.000000e+00 0.000000e+00
 0.000000e+00 0.000000e+00 7.916417e-01 2.083584e-01 0.000000e+00
 0.000000e+00 0.000000e+00 0.000000e+00 6.238496e-01 3.761504e-01
 0.000000e+00 0.000000e+00 0.000000e+00 0.000000e+00 0.000000e+00
<ENDHMM>
~h "p"
<BEGINHMM>
<NUMSTATES> 5
<STATE> 2
<MEAN> 39
 -6.418373e+00 4.232349e+00 1.231468e+00 9.914776e+00 6.484286e+00 6.174927e+00 4.297613e-01 1.624850e+00 1.798310e+00 -6.782767e-01 -1.774779e-01 2.218113e+00 7.164402e+01 -2.585306e+00 6.018701e-01 -7.024454e-01 -6.874501e-01 2.066776e-01 4.699332e-01 2.025570e+00 1.137671e+00 2.016266e-02 1.228600e+00 7.378343e-01 3.636037e-01 -2.421658e+00 -1.780887e-01 -5.221495e-01 5.622565e-02 -2.919271e-01 -4.481756e-01 -2.641581e-01 -4.624660e-01 -1.091370e-01 1.747462e-01 -1.355409e-01 4.709597e-02 -1.600138e-02 1.839656e-01
<VARIANCE> 39
 4.285255e+01 1.893283e+01 2.647661e+01 6.371400e+01 4.728665e+01 1.963738e+01 4.133401e+01 3.705844e+01 2.926320e+01 5.373589e+01 2.220714e+01 1.104257e+01 3.252978e+01 2.002337e+00 3.308599e+00 1.652225e+00 2.189269e+00 1.758629e+00 1.768438e+00 3.852148e+00 2.619307e+00 2.746908e+00 2.259730e+00 1.484003e+00 1.481513e+00 1.558375e+00 5.641255e-01 4.177585e-01 3.007113e-01 3.527929e-01 3.359356e-01 2.888767e-01 7.098185e-01 4.402739e-01 4.609167e-01 5.446566e-01 2.914586e-01 1.436436e-01 4.064661e-01
<GCONST> 1.133588e+02
<STATE> 3
<MEAN> 39
 -1.575041e+01 2.498973e+00 -6.838371e-01 5.776057e+00 2.372949e+00 3.962865e+00 2.847347e+00 3.934652e+00 2.767410e+00 3.181329e+00 2.811976e+00 3.556738e+00 6.480557e+01 -5.257888e-01 -2.120470e-01 -1.547842e-01 -2.416819e-01 -1.272010e-01 1.263244e-01 2.320842e-01 3.093550e-02 1.017051e-04 2.262175e-01 2.553998e-01 1.861217e-01 -3.296697e-01 4.220373e-01 -7.029115e-02 9.951252e-02 1.916652e-01 3.409026e-02 3.183911e-02 -6.991366e-02 -7.615492e-02 5.156254e-03 -1.583755e-01 -9.104444e-02 -1.004033e-01 3.830676e-01
<VARIANCE> 39
 6.021301e+00 7.909152e+00 8.781611e+00 2.197611e+01 1.234875e+01 1.006214e+01 1.252667e+01 1.194976e+01 1.764622e+01 1.411886e+01 1.300514e+01 1.299835e+01 7.275000e+00 3.960656e-01 5.046948e-01 5.367163e-01 9.541511e-01 9.307009e-01 6.370675e-01 1.017908e+00 9.627001e-01 7.885224e-01 6.576741e-01 7.637712e-01 7.698137e-01 1.651122e-01 1.721062e-01 1.983176e-01 1.049686e-01 1.560797e-01 1.535936e-01 1.458339e-01 2.252368e-01 2.353667e-01 1.935713e-01 2.254139e-01 1.686299e-01 1.935472e-01 1.725791e-01
<GCONST> 7.491962e+01
<STATE> 4
<MEAN> 39
 -1.001722e+01 -1.185412e+00 -1.228911e+00 7.101815e+00 2.966096e+00 5.650168e+00 1.798613e+00 1.383831e+00 1.318306e+00 1.049979e-01 2.809406e+00 2.479370e+00 7.105984e+01 3.074954e+00 -1.424903e+00 2.809709e-01 8.380910e-01 1.611707e-01 2.071986e-02 -1.720690e+00 -1.466225e+00 -7.606261e-01 -1.931234e+00 -9.061714e-01 -8.620893e-01 3.175433e+00 5.223351e-01 1.002920e-01 1.481918e-01 -9.105749e-03 9.880281e-02 -2.254186e-01 -6.736425e-01 -2.341502e-01 -6.069766e-02 -2.940308e-01 -2.728912e-01 -1.275821e-01 4.119545e-01
<VARIANCE> 39
 6.869250e+01 2.541978e+01 1.178662e+01 1.752756e+01 2.356843e+01 1.063801e+01 6.372625e+01 3.298758e+01 1.788063e+01 4.084676e+01 1.496797e+01 1.617383e+01 7.222960e+01 3.749338e+00 2.954557e+00 1.928511e+00 2.109903e+00 3.032182e+00 1.867118e+00 5.791312e+00 1.861527e+00 1.847515e+00 2.552100e+00 1.618817e+00 1.931467e+00 3.428397e+00 1.432218e+00 6.114572e-01 2.913457e-01 3.773627e-01 6.154725e-01 3.444830e-01 1.220966e+00 4.070431e-01 4.073375e-01 6.315930e-01 3.380281e-01 4.643516e-01 1.263126e+00
<GCONST> 1.182869e+02
<TRANSP> 5
 0.000000e+00 1.000000e+00 0.000000e+00 0.000000e+00 0.000000e+00
 0.000000e+00 5.594764e-01 4.405237e-01 0.000000e+00 0.000000e+00
 0.000000e+00 0.000000e+00 8.382181e-01 1.617819e-01 0.000000e+00
 0.000000e+00 0.000000e+00 0.000000e+00 6.883575e-01 3.116425e-01
 0.000000e+00 0.000000e+00 0.000000e+00 0.000000e+00 0.000000e+00
<ENDHMM>
~h "r"
<BEGINHMM>
<NUMSTATES> 5
<STATE> 2
<MEAN> 39
 4.001415e+00 -1.727127e+00 -3.069968e+00 5.231996e+00 8.140958e+00 6.588583e+00 -1.292770e+01 -8.083527e+00 -1.080399e+00 -7.091258e+00 -3.425189e-01 1.375561e+00 8.230623e+01 1.800999e-01 6.902434e-02 -3.769054e-02 1.946316e-01 6.800424e-01 -1.942620e-01 -1.383415e+00 -2.987864e-01 3.441476e-01 -1.767932e-01 6.128167e-02 1.795480e-01 1.029318e-01 -1.857417e-01 1.558733e-02 1.488345e-01 6.642053e-02 -6.737737e-02 7.649294e-02 1.983692e-01 1.122068e-01 2.283844e-01 9.624541e-02 -5.953799e-02 -2.656277e-02 -1.378409e-01
<VARIANCE> 39
 1.293773e+01 2.335985e+01 4.659513e+01 3.948926e+01 4.437763e+01 1.585728e+01 5.761393e+01 4.380879e+01 4.660439e+01 6.627659e+01 1.916292e+01 2.377334e+01 1.018858e+01 7.518656e-01 1.269142e+00 1.249498e+00 1.295090e+00 1.801542e+00 1.619270e+00 4.669834e+00 1.539613e+00 2.496498e+00 2.230554e+00 1.615871e+00 1.360717e+00 4.885866e-01 1.038806e-01 2.108991e-01 2.130460e-01 2.118148e-01 2.929530e-01 2.579936e-01 7.187446e-01 2.491542e-01 5.001864e-01 4.087063e-01 3.417608e-01 1.794031e-01 7.124349e-02
<GCONST> 1.027981e+02
<STATE> 3
<MEAN> 39
 1.725881e+00 1.619269e+00 1.101951e-01 4.675043e+00 6.089967e+00 6.029039e+00 -1.197091e+01 -5.532788e+00 1.179997e+00 -6.455349e+00 -1.633492e-01 2.276106e+00 7.963331e+01 -4.362563e-01 3.573817e-01 -3.638476e-01 1.969849e-01 4.305598e-01 5.991192e-01 1.142129e+00 5.321167e-01 1.646970e-02 1.740847e-01 -2.990988e-01 -1.879008e-02 -6.843573e-01 -1.569333e-01 1.097813e-02 5.856501e-02 7.612380e-02 -1.384192e-01 3.724613e-02 4.738582e-01 1.916491e-01 2.554560e-02 2.568243e-01 -4.030804e-02 -1.601606e-01 -1.322210e-01
<VARIANCE> 39
 1.957988e+01 5.523774e+01 5.300506e+01 3.678067e+01 6.646117e+01 2.066224e+01 8.655700e+01 4.391459e+01 2.823564e+01 5.684699e+01 3.253418e+01 1.782884e+01 1.698655e+01 4.825970e-01 2.453441e+00 3.362028e+00 2.370770e+00 1.335001e+00 2.027933e+00 3.691562e+00 2.245968e+00 2.256709e+00 2.107604e+00 2.567861e+00 1.790919e+00 4.757355e-01 2.622800e-01 4.608595e-01 3.099359e-01 3.137331e-01 4.019749e-01 4.283785e-01 1.083961e+00 3.939548e-01 2.447205e-01 2.735348e-01 4.119797e-01 2.502958e-01 1.817769e-01
<GCONST> 1.122469e+02
<STATE> 4
<MEAN> 39
 3.360064e-01 1.215018e+00 -2.157871e-01 6.540016e+00 7.320666e+00 9.154048e+00 -6.204906e+00 -3.839685e+00 -9.936476e-02 -6.534480e+00 -3.663543e+00 5.653951e-01 7.811160e+01 -1.508964e-01 1.911671e-01 2.126199e-01 1.103650e-01 -2.365516e-01 -1.400355e-01 3.054317e-01 3.604056e-01 2.420278e-01 1.239919e-01 -2.382143e-01 -2.024778e-01 -2.163676e-01 -1.955078e-02 -2.518666e-02 1.632068e-01 4.870758e-03 -1.685797e-01 -2.699935e-01 -2.960740e-01 2.152371e-02 2.181912e-01 3.298240e-02 4.816576e-02 -7.370196e-02 5.645826e-02
<VARIANCE> 39
 1.873680e+01 3.627771e+01 4.337719e+01 3.720445e+01 3.972550e+01 2.932244e+01 9.424773e+01 5.669545e+01 1.998128e+01 4.134496e+01 2.534158e+01 3.366314e+01 1.978263e+01 2.315624e+00 4.405538e+00 2.466338e+00 2.875330e+00 2.676580e+00 3.332595e+00 1.022111e+01 6.424874e+00 2.338803e+00 4.264084e+00 2.046586e+00 1.948720e+00 2.945178e+00 3.957489e-01 7.831784e-01 4.598862e-01 5.225731e-01 3.606366e-01 5.765018e-01 1.866076e+00 1.207977e+00 3.409518e-01 7.254692e-01 2.961660e-01 3.534488e-01 4.743029e-01
<GCONST> 1.253427e+02
<TRANSP> 5
 0.000000e+00 1.000000e+00 0.000000e+00 0.000000e+00 0.000000e+00
 0.000000e+00 7.457570e-01 2.542430e-01 0.000000e+00 0.000000e+00
 0.000000e+00 0.000000e+00 3.564867e-01 6.435133e-01 0.000000e+00
 0.000000e+00 0.000000e+00 0.000000e+00 7.256495e-01 2.743505e-01
 0.000000e+00 0.000000e+00 0.000000e+00 0.000000e+00 0.000000e+00
<ENDHMM>
~h "s"
<BEGINHMM>
<NUMSTATES> 5
<STATE> 2
<MEAN> 39
 -7.687196e+00 -8.421001e+00 6.408024e+00 9.541075e+00 1.892933e+00 5.778471e+00 1.497236e+00 -3.051183e-01 -1.420580e+00 -1.227813e+00 3.943980e+00 -1.510037e-01 7.913882e+01 -2.799566e+00 -3.592623e+00 1.070047e+00 -6.153290e-01 -1.177361e+00 -3.017495e-01 2.395813e+00 3.792365e-01 -4.320636e-01 1.014039e+00 1.746607e+00 -1.011064e-01 9.359218e-01 -1.663757e-01 -8.519181e-02 -5.143858e-02 -4.794476e-01 -2.429743e-01 -3.400108e-01 -2.599039e-01 6.494956e-02 2.126313e-01 -3.190696e-01 -8.645144e-02 3.555514e-02 1.659515e-01
<VARIANCE> 39
 5.012255e+01 6.392971e+01 3.585961e+01 4.105716e+01 2.049313e+01 2.534270e+01 4.544881e+01 3.064328e+01 4.047923e+01 3.051828e+01 2.859574e+01 2.225434e+01 1.860286e+01 2.191774e+00 4.582774e+00 2.605884e+00 4.551239e+00 2.499595e+00 3.449978e+00 5.268713e+00 2.497791e+00 3.181764e+00 3.640492e+00 2.433269e+00 2.221524e+00 1.952676e+00 5.638101e-01 1.272558e+00 5.996436e-01 6.402824e-01 4.086013e-01 4.847860e-01 8.184918e-01 4.064792e-01 5.268942e-01 6.084229e-01 4.491003e-01 4.096524e-01 2.947772e-01
<GCONST> 1.232909e+02
<STATE> 3
<MEAN> 39
 -1.794950e+01 -1.876044e+01 8.722471e+00 2.312883e+00 -4.014926e+00 2.153704e+00 7.532682e+00 -1.225970e-01 -2.624230e+00 -1.522713e-01 9.202067e+00 -5.588536e-01 8.287120e+01 1.339023e-01 -1.964217e-01 -3.468462e-01 -2.424389e-02 -1.134937e-01 -1.100488e-01 4.822059e-02 1.730414e-01 -8.767008e-02 -3.679574e-01 1.010330e-01 2.978252e-01 3.282190e-02 6.728756e-01 5.992664e-01 -3.034861e-01 3.682258e-01 2.804225e-01 2.592060e-01 -2.813149e-01 4.861513e-02 3.764912e-02 -9.714253e-02 -3.301969e-01 1.432557e-01 -3.136326e-01
<VARIANCE> 39
 1.395391e+01 1.478139e+01 1.496396e+01 1.592673e+01 1.263754e+01 1.993365e+01 1.487177e+01 2.680475e+01 2.237668e+01 2.110467e+01 1.354880e+01 1.684513e+01 6.656781e+00 3.607800e+00 1.405459e+00 1.842259e+00 2.120463e+00 1.485998e+00 1.578654e+00 1.716719e+00 1.759651e+00 1.698875e+00 1.214685e+00 1.421551e+00 1.575939e+00 5.930700e-01 3.342387e-01 4.563900e-01 2.767973e-01 3.163252e-01 2.855687e-01 2.677908e-01 3.439891e-01 2.976058e-01 2.823553e-01 3.373016e-01 3.281552e-01 2.711052e-01 1.631599e-01
<GCONST> 9.768385e+01
<STATE> 4
<MEAN> 39
 -1.249166e+01 -1.260629e+01 2.338169e+00 8.035275e+00 -7.858323e-01 5.124354e+00 5.663432e+00 3.619457e+00 -4.013471e-01 -1.529389e+00 4.971067e+00 4.367764e+00 7.561419e+01 1.064404e+00 2.770113e+00 -7.418808e-01 4.240935e-01 5.182535e-01 3.730340e-01 -6.869054e-01 2.660102e-01 3.989060e-01 -3.415586e-02 -1.043405e+00 5.105944e-01 -1.715651e+00 -1.519157e-03 2.350776e-01 1.069257e-01 -2.050755e-01 -1.085925e-01 -2.915577e-01 -1.879582e-01 -1.278464e-01 -6.364552e-02 -1.745505e-02 -1.202594e-02 -1.858193e-01 8.449185e-02
<VARIANCE> 39
 2.182147e+01 6.704460e+01 3.720033e+01 2.931246e+01 1.517484e+01 2.511003e+01 2.922117e+01 3.165286e+01 4.632364e+01 2.259379e+01 2.273102e+01 1.496831e+01 4.014650e+01 4.640009e+00 4.409654e+00 2.718176e+00 1.615818e+00 1.808412e+00 2.058046e+00 2.871931e+00 1.559163e+00 3.070966e+00 3.494947e+00 1.958284e+00 1.991646e+00 2.230336e+00 2.740836e-01 1.102515e+00 4.738727e-01 3.326188e-01 3.179922e-01 4.621350e-01 4.924370e-01 3.821453e-01 6.886955e-01 4.155559e-01 3.980976e-01 3.854107e-01 4.606749e-01
<GCONST> 1.165232e+02
<TRANSP> 5
 0.000000e+00 1.000000e+00 0.000000e+00 0.000000e+00 0.000000e+00
 0.000000e+00 6.957516e-01 3.042484e-01 0.000000e+00 0.000000e+00
 0.000000e+00 0.000000e+00 8.331088e-01 1.668912e-01 0.000000e+00
 0.000000e+00 0.000000e+00 0.000000e+00 7.637767e-01 2.362233e-01
 0.000000e+00 0.000000e+00 0.000000e+00 0.000000e+00 0.000000e+00
<ENDHMM>
~h "t"
<BEGINHMM>
<NUMSTATES> 5
<STATE> 2
<MEAN> 39
 -8.559958e+00 3.912049e+00 -1.072901e+00 8.585202e+00 9.364014e+00 8.469817e+00 -1.417201e+00 -2.628202e+00 -1.013209e+00 -3.664677e-01 1.006536e+00 1.843550e+00 6.930104e+01 -1.718593e+00 6.684105e-03 2.502486e-01 1.162096e-01 -4.559786e-01 6.005656e-02 1.323217e+00 6.240807e-01 -2.464741e-02 8.182753e-01 2.189611e-01 3.358987e-01 -1.482928e+00 3.441846e-01 -4.473594e-01 -2.219688e-01 -1.869016e-01 -2.344858e-01 -3.329180e-01 -4.262763e-01 1.719010e-02 1.583068e-01 -2.804188e-01 -4.433012e-02 -9.601466e-03 5.169241e-01
<VARIANCE> 39
 3.518589e+01 2.449225e+01 1.556052e+01 3.590313e+01 4.445908e+01 2.585686e+01 4.002233e+01 4.743446e+01 2.620222e+01 2.066336e+01 1.953542e+01 1.988611e+01 2.310930e+01 1.820864e+00 2.070745e+00 1.310223e+00 2.346978e+00 1.720966e+00 1.809046e+00 3.981206e+00 2.028538e+00 1.855442e+00 2.717949e+00 1.604946e+00 1.110129e+00 1.948207e+00 4.170161e-01 3.857738e-01 2.295984e-01 3.217944e-01 3.388455e-01 4.602202e-01 6.940324e-01 5.100438e-01 3.534014e-01 5.203848e-01 3.302770e-01 2.039405e-01 3.987587e-01
<GCONST> 1.106524e+02
<STATE> 3
<MEAN> 39
 -8.813521e+00 -3.058512e+00 -1.906733e+00 8.192554e+00 3.611851e+00 4.495361e+00 1.117401e-01 2.872285e-01 -5.083574e-02 -1.196597e+00 1.252820e+00 3.592773e+00 7.211279e+01 9.477572e-01 -6.265214e-01 -5.766829e-01 -2.880748e-01 -3.409684e-01 -6.196906e-01 -5.108721e-01 -6.394919e-03 -2.236787e-01 -5.399200e-01 -6.399516e-03 4.991752e-01 9.381251e-01 1.616242e-01 2.881470e-01 8.058317e-02 -1.115445e-01 8.644219e-02 -1.932297e-02 -2.245792e-01 -6.188008e-03 1.136082e-01 -1.143492e-01 -5.261746e-02 -9.996856e-02 6.475839e-02
<VARIANCE> 39
 4.492067e+01 7.314240e+01 2.593757e+01 2.961720e+01 3.847026e+01 3.322865e+01 3.691371e+01 4.168467e+01 4.434537e+01 3.332463e+01 3.405441e+01 3.155966e+01 6.416690e+01 8.181512e+00 8.505771e+00 2.757725e+00 2.168278e+00 4.288506e+00 3.098212e+00 4.555021e+00 5.131871e+00 4.461877e+00 4.362678e+00 2.716718e+00 2.466566e+00 1.023125e+01 1.622346e+00 1.724011e+00 5.092013e-01 4.286971e-01 6.562809e-01 6.058413e-01 8.925506e-01 9.028596e-01 8.449627e-01 8.771450e-01 6.061500e-01 5.161715e-01 2.245435e+00
<GCONST> 1.360318e+02
<STATE> 4
<MEAN> 39
 -1.509302e+01 2.217723e+00 -2.004542e+00 5.003546e+00 3.718366e+00 5.562570e+00 2.949842e+00 3.401416e+00 1.871122e+00 2.487725e+00 3.894554e+00 5.657817e+00 6.467313e+01 1.402082e-01 -3.315076e-01 -9.532325e-02 -1.016520e-01 -1.791280e-01 -9.169306e-02 2.676615e-02 1.987421e-01 1.931776e-01 -7.237089e-02 -9.463479e-02 -2.111893e-01 2.935768e-01 3.739322e-01 -1.452547e-01 5.624865e-02 9.983080e-02 -4.909036e-03 -6.719477e-02 -1.680416e-01 -8.131132e-02 -2.485562e-02 -2.494229e-01 -1.711337e-01 -1.584664e-01 4.049007e-01
<VARIANCE> 39
 2.150046e+01 8.495055e+00 8.856256e+00 1.322637e+01 1.570471e+01 1.325079e+01 2.207904e+01 2.197763e+01 1.840090e+01 2.025766e+01 1.563379e+01 1.485526e+01 1.851208e+01 2.417721e+00 2.580136e+00 1.140247e+00 1.125033e+00 1.686224e+00 1.578622e+00 1.705671e+00 1.672495e+00 1.440013e+00 1.668621e+00 1.605569e+00 1.296457e+00 2.645238e+00 4.387498e-01 2.617489e-01 1.600760e-01 1.789508e-01 2.279592e-01 2.252878e-01 3.922467e-01 2.942303e-01 2.649281e-01 3.523041e-01 2.691530e-01 2.155053e-01 4.408090e-01
<GCONST> 9.726438e+01
<TRANSP> 5
 0.000000e+00 1.000000e+00 0.000000e+00 0.000000e+00 0.000000e+00
 0.000000e+00 7.020751e-01 2.979249e-01 0.000000e+00 0.000000e+00
 0.000000e+00 0.000000e+00 6.268336e-01 3.731664e-01 0.000000e+00
 0.000000e+00 0.000000e+00 0.000000e+00 7.824833e-01 2.175167e-01
 0.000000e+00 0.000000e+00 0.000000e+00 0.000000e+00 0.000000e+00
<ENDHMM>
~h "v"
<BEGINHMM>
<NUMSTATES> 5
<STATE> 2
<MEAN> 39
 1.935022e+00 5.412756e-01 -4.663614e-01 1.042537e+01 1.031701e+01 5.425491e+00 -1.297785e+01 -5.642025e+00 1.429802e+00 -1.020935e+01 -6.983871e+00 5.445793e-01 7.962670e+01 -1.430943e-01 1.688693e+00 -1.729113e-01 -1.416570e+00 -1.026754e+00 3.357788e-01 2.477818e+00 1.312625e+00 -6.931974e-01 -5.591502e-01 -6.974952e-01 -1.443795e-01 -9.179467e-01 -2.794610e-01 -5.493924e-03 4.100050e-01 4.804924e-02 -3.914641e-01 -1.847484e-01 3.797628e-01 3.632560e-01 3.316846e-01 4.424433e-01 5.722211e-02 -2.757148e-01 -9.395294e-02
<VARIANCE> 39
 1.774599e+01 1.975256e+01 2.064373e+01 2.555817e+01 3.713702e+01 3.306577e+01 4.370365e+01 3.379433e+01 1.311137e+01 4.106402e+01 2.429591e+01 1.456318e+01 1.029837e+01 7.392926e-01 8.593765e-01 1.482907e+00 1.795596e+00 1.772668e+00 1.370914e+00 2.393787e+00 2.884047e+00 1.941486e+00 1.865392e+00 1.865559e+00 2.078223e+00 3.308720e-01 9.094502e-02 2.129064e-01 1.458562e-01 2.589524e-01 2.338328e-01 1.813959e-01 3.567406e-01 4.481700e-01 1.893743e-01 4.656495e-01 4.767098e-01 3.083179e-01 3.282191e-02
<GCONST> 9.761033e+01
<STATE> 3
<MEAN> 39
 9.495846e-01 5.141793e+00 1.484669e-01 6.080720e+00 3.113089e+00 2.652027e+00 -3.614211e+00 1.976596e+00 1.763369e+00 -8.729308e+00 -8.147161e+00 -2.459934e+00 7.616251e+01 -3.577004e-01 3.324111e-02 6.673197e-01 -8.974796e-02 -4.991793e-01 7.933731e-02 3.090582e-01 2.211730e-01 -1.243853e-01 1.552806e-01 4.509050e-01 -1.064964e-01 -1.341472e-01 1.023123e-01 -4.142789e-01 -3.316142e-02 1.313487e-01 1.920484e-01 6.688633e-03 -5.711360e-01 -2.596709e-01 2.940196e-02 -1.856182e-01 2.104723e-01 3.458967e-01 3.046424e-01
<VARIANCE> 39
 1.606772e+01 1.446331e+01 1.331931e+01 1.338713e+01 2.249072e+01 4.454010e+01 2.194265e+01 2.661131e+01 1.880680e+01 3.128453e+01 2.227727e+01 9.436845e+00 8.211484e+00 1.300905e+00 1.405781e+00 9.198334e-01 1.044693e+00 1.641933e+00 2.338856e+00 4.222521e+00 2.791715e+00 1.601427e+00 2.915718e+00 1.913137e+00 2.012132e+00 8.973999e-01 1.881104e-01 1.716307e-01 1.460578e-01 1.706527e-01 2.372851e-01 3.864405e-01 4.458099e-01 4.001774e-01 3.272262e-01 4.868566e-01 3.680742e-01 2.968955e-01 9.908785e-02
<GCONST> 9.897610e+01
<STATE> 4
<MEAN> 39
 -4.947834e+00 -1.677422e+00 2.503154e+00 3.211528e+00 1.826102e+00 5.930979e+00 -4.893608e+00 2.635925e+00 3.226128e+00 -6.614954e+00 -4.283458e-01 -9.734694e-01 7.762145e+01 3.728151e-02 -8.084893e-01 -4.303225e-01 -1.579618e-01 -1.546667e-01 2.403092e-02 -2.963504e-01 1.795336e-01 2.712637e-01 -1.865585e-01 7.396610e-01 1.016045e+00 3.247257e-01 7.087127e-02 2.124075e-01 -2.078500e-01 1.168193e-01 1.545635e-01 1.709247e-02 1.328049e-01 6.041728e-03 3.477706e-02 1.544282e-01 -1.269783e-01 -1.764268e-02 -1.142119e-01
<VARIANCE> 39
 7.926054e+01 7.856018e+01 2.986047e+01 2.151636e+01 2.474990e+01 2.589549e+01 9.765855e+01 3.066989e+01 4.178464e+01 5.556995e+01 4.961207e+01 3.388002e+01 2.176240e+01 1.951791e+00 3.350194e+00 1.689509e+00 1.402135e+00 1.656435e+00 1.932340e+00 6.029181e+00 1.402000e+00 2.171615e+00 2.643887e+00 3.102207e+00 2.585297e+00 1.427587e+00 2.825682e-01 5.286779e-01 2.634039e-01 3.053916e-01 1.966957e-01 3.388970e-01 1.146948e+00 4.513135e-01 3.876835e-01 6.011418e-01 5.556743e-01 4.608216e-01 2.456619e-01
<GCONST> 1.178173e+02
<TRANSP> 5
 0.000000e+00 1.000000e+00 0.000000e+00 0.000000e+00 0.000000e+00
 0.000000e+00 6.323021e-01 3.676979e-01 0.000000e+00 0.000000e+00
 0.000000e+00 0.000000e+00 7.415751e-01 2.584249e-01 0.000000e+00
 0.000000e+00 0.000000e+00 0.000000e+00 5.772901e-01 4.227099e-01
 0.000000e+00 0.000000e+00 0.000000e+00 0.000000e+00 0.000000e+00
<ENDHMM>
~h "w"
<BEGINHMM>
<NUMSTATES> 5
<STATE> 2
<MEAN> 39
 -2.113656e-01 9.301913e-01 -9.657743e-01 6.901890e+00 5.434808e+00 4.358492e+00 -5.614271e+00 1.144841e+00 3.461260e+00 -6.397808e+00 -4.267992e+00 -9.900704e-01 7.759364e+01 1.313967e+00 1.254965e+00 4.908551e-01 -1.071426e+00 -1.199760e+00 -5.697579e-01 8.349129e-01 1.369645e+00 -1.183786e-01 -1.154876e+00 -1.118217e+00 -1.158601e+00 7.084720e-01 -3.083613e-02 1.923608e-01 1.704193e-01 -7.096148e-02 -1.460403e-01 -1.939085e-01 -3.750298e-01 5.206553e-02 2.266330e-01 2.185307e-01 3.923376e-02 -1.013379e-01 -1.278156e-01
<VARIANCE> 39
 3.846745e+01 4.320566e+01 1.832187e+01 2.753679e+01 3.978335e+01 3.181595e+01 8.437767e+01 5.138036e+01 1.841060e+01 4.335990e+01 3.254089e+01 1.628244e+01 3.197698e+01 3.596421e+00 2.690364e+00 1.281404e+00 2.364383e+00 3.580839e+00 3.080018e+00 6.855647e+00 3.779513e+00 1.912542e+00 3.346965e+00 4.383177e+00 3.696927e+00 4.203373e+00 2.943841e-01 6.908413e-01 2.342661e-01 2.424733e-01 4.170055e-01 3.339679e-01 9.314844e-01 5.765589e-01 3.698118e-01 6.968539e-01 4.952863e-01 4.697316e-01 5.198029e-01
<GCONST> 1.218432e+02
<STATE> 3
<MEAN> 39
 1.752765e+00 6.126647e+00 2.766938e-01 2.227841e+00 1.632789e+00 3.128928e+00 -4.586101e+00 4.223271e+00 3.683396e+00 -6.482370e+00 -5.840418e+00 -4.277247e+00 7.726286e+01 1.786831e-01 1.100261e+00 5.832464e-01 -2.261434e-01 -5.621872e-01 -8.211110e-01 -6.188886e-01 5.151398e-01 6.470670e-01 6.315423e-01 -9.684436e-03 -6.419414e-01 -3.726597e-01 -2.279674e-01 -2.966491e-01 -1.274040e-01 2.679181e-01 2.054361e-01 -6.333628e-02 -2.402032e-01 -2.475338e-01 -3.895655e-03 2.333001e-01 4.041327e-01 4.376979e-01 -8.416406e-02
<VARIANCE> 39
 1.910347e+01 2.359621e+01 1.986437e+01 3.141774e+01 2.663138e+01 2.840878e+01 5.643196e+01 2.130987e+01 2.422313e+01 3.227074e+01 1.880084e+01 1.262838e+01 1.617828e+01 1.777191e+00 3.021539e+00 8.515335e-01 2.563666e+00 2.132170e+00 2.123584e+00 5.994039e+00 2.693491e+00 2.328484e+00 3.276116e+00 2.194961e+00 2.011820e+00 1.591862e+00 3.759749e-01 3.442533e-01 1.694452e-01 4.029327e-01 3.629588e-01 3.603889e-01 9.820282e-01 3.849782e-01 3.926885e-01 7.622775e-01 6.066082e-01 3.989615e-01 4.180349e-01
<GCONST> 1.123631e+02
<STATE> 4
<MEAN> 39
 2.873676e+00 8.809273e+00 2.199418e+00 4.302925e+00 -1.156099e+00 -4.421744e+00 -9.676208e+00 4.630339e+00 6.731812e+00 -4.158644e+00 -4.170914e+00 -2.933568e+00 7.660509e+01 1.358390e-01 -2.043628e-01 -2.830834e-01 1.087695e-01 -1.982790e-01 -5.477483e-01 -2.656060e-01 -1.102532e-01 -1.494596e-01 -9.752159e-02 1.005283e-01 2.791191e-01 1.413838e-01 3.442911e-02 -3.355775e-01 -1.580549e-01 3.065321e-02 2.060433e-01 2.242799e-01 -6.039866e-02 -1.799688e-01 -1.534705e-01 -2.281032e-01 -2.995536e-02 4.813983e-02 1.754962e-01
<VARIANCE> 39
 8.937687e+00 2.537266e+01 1.689780e+01 1.192072e+01 2.190956e+01 8.690525e+01 4.894440e+01 2.615315e+01 2.065882e+01 3.764749e+01 2.184603e+01 4.092872e+01 1.009862e+01 6.475449e-01 1.792781e+00 1.036812e+00 8.698047e-01 1.764418e+00 3.520293e+00 4.107827e+00 1.423934e+00 1.544137e+00 3.406542e+00 2.027967e+00 3.361290e+00 8.759120e-01 7.586645e-02 1.913267e-01 1.304019e-01 1.757284e-01 2.390836e-01 4.671903e-01 6.812196e-01 3.340309e-01 2.481007e-01 3.884978e-01 3.965108e-01 6.736470e-01 8.790316e-02
<GCONST> 1.021914e+02
<TRANSP> 5
 0.000000e+00 1.000000e+00 0.000000e+00 0.000000e+00 0.000000e+00
 0.000000e+00 3.678015e-01 6.321986e-01 0.000000e+00 0.000000e+00
 0.000000e+00 0.000000e+00 5.472636e-01 4.527364e-01 0.000000e+00
 0.000000e+00 0.000000e+00 0.000000e+00 8.012015e-01 1.987986e-01
 0.000000e+00 0.000000e+00 0.000000e+00 0.000000e+00 0.000000e+00
<ENDHMM>
~h "y"
<BEGINHMM>
<NUMSTATES> 5
<STATE> 2
<MEAN> 39
 -1.496555e+00 -7.227511e+00 3.167298e+00 1.843826e+01 1.205092e+01 5.789495e+00 -1.123420e+01 -4.545292e+00 4.955507e+00 -3.006351e+00 -4.956071e+00 -3.588850e+00 7.921775e+01 7.937225e-01 6.623751e-02 -9.315880e-02 6.324178e-01 9.739484e-01 6.689967e-02 -1.807953e+00 -9.888208e-01 3.971287e-01 -4.410774e-01 -5.172046e-01 3.784682e-01 4.152764e-01 -5.277342e-02 5.663977e-02 -1.310734e-01 -5.109906e-01 -2.765339e-01 1.709604e-01 1.113205e-01 -9.435626e-02 -9.399933e-02 -2.408225e-01 6.667404e-02 2.206634e-01 3.635350e-02
<VARIANCE> 39
 2.620555e+01 6.872172e+01 2.065994e+01 4.028646e+01 4.626029e+01 4.952262e+01 7.716996e+01 4.990348e+01 5.289106e+01 4.778117e+01 4.011340e+01 2.025636e+01 1.886367e+01 2.538814e+00 5.535784e+00 1.859776e+00 5.077998e+00 3.740226e+00 7.145398e+00 6.242944e+00 4.639798e+00 2.285191e+00 5.240897e+00 4.434757e+00 2.084403e+00 1.496855e+00 3.225672e-01 6.354870e-01 3.193783e-01 6.231394e-01 5.073354e-01 1.574597e+00 1.267658e+00 1.042134e+00 4.641194e-01 1.076419e+00 5.692520e-01 4.161472e-01 1.989204e-01
<GCONST> 1.291185e+02
<STATE> 3
<MEAN> 39
 3.516723e+00 -4.217906e+00 -2.808818e-01 1.154547e+01 1.043943e+01 7.351230e+00 -1.797075e+01 -8.092202e+00 4.574330e+00 -1.275361e+01 -6.904127e+00 1.726425e+00 8.284334e+01 2.785368e-01 4.476807e-01 -2.330064e-01 -1.048943e+00 -8.814017e-01 3.937238e-02 4.810663e-01 3.417361e-01 -2.085527e-01 -8.767485e-01 -6.045747e-01 1.087921e-01 2.293932e-02 -7.796869e-02 1.223598e-01 7.661825e-02 -2.114092e-02 -1.661342e-01 -2.442609e-01 2.385390e-01 4.052390e-01 1.003558e-01 1.469275e-01 -3.291659e-02 -2.438489e-01 -9.262594e-02
<VARIANCE> 39
 5.922645e+00 2.554126e+01 2.134554e+01 3.619475e+01 3.452761e+01 5.546829e+01 2.732306e+01 5.137815e+01 3.172715e+01 3.401182e+01 6.216705e+01 2.029144e+01 3.737820e+00 2.579781e-01 5.723953e-01 9.279511e-01 2.062200e+00 2.658536e+00 2.266730e+00 1.761193e+00 3.918602e+00 2.464244e+00 3.394422e+00 1.582928e+00 2.505371e+00 1.767703e-01 2.933803e-02 5.183322e-02 1.240095e-01 1.620312e-01 2.120164e-01 2.688232e-01 3.831774e-01 4.290415e-01 4.260103e-01 3.999696e-01 2.590294e-01 3.715809e-01 2.355255e-02
<GCONST> 9.490063e+01
<STATE> 4
<MEAN> 39
 -4.162171e-01 -1.823323e+00 -3.290931e+00 6.459948e+00 4.507877e+00 2.482556e+00 -8.586729e+00 -9.895380e-01 5.336562e+00 -2.780093e+00 -4.118668e+00 -3.012113e+00 7.822177e+01 -5.789513e-01 5.987838e-01 -2.034533e-01 -5.097340e-01 -4.660197e-01 -2.069438e-01 1.222235e+00 9.672089e-01 -2.594290e-02 5.384447e-01 3.513382e-01 -8.508135e-02 -7.161286e-01 -2.956210e-02 -3.905130e-02 3.759622e-02 6.532198e-02 5.611790e-02 -2.133825e-02 -9.817906e-02 -1.032386e-01 -8.116540e-02 5.587223e-02 1.039545e-01 -6.480083e-03 -1.398284e-03
<VARIANCE> 39
 4.374257e+01 8.236037e+01 3.998909e+01 5.140803e+01 9.669183e+01 8.918836e+01 6.961598e+01 4.620079e+01 3.069457e+01 9.727148e+01 4.123633e+01 3.855610e+01 3.681266e+01 1.747260e+00 5.492403e+00 2.875632e+00 1.704519e+00 4.276551e+00 5.939665e+00 5.145699e+00 3.388359e+00 2.434445e+00 3.027290e+00 1.493287e+00 2.378389e+00 2.822388e+00 2.424062e-01 8.477356e-01 6.233549e-01 3.536980e-01 9.108458e-01 9.980415e-01 9.314330e-01 4.308599e-01 3.808137e-01 5.889500e-01 2.850555e-01 3.416052e-01 4.539429e-01
<GCONST> 1.291424e+02
<TRANSP> 5
 0.000000e+00 1.000000e+00 0.000000e+00 0.000000e+00 0.000000e+00
 0.000000e+00 8.272375e-01 1.727625e-01 0.000000e+00 0.000000e+00
 0.000000e+00 0.000000e+00 8.705338e-01 1.294662e-01 0.000000e+00
 0.000000e+00 0.000000e+00 0.000000e+00 7.235119e-01 2.764880e-01
 0.000000e+00 0.000000e+00 0.000000e+00 0.000000e+00 0.000000e+00
<ENDHMM>
~h "z"
<BEGINHMM>
<NUMSTATES> 5
<STATE> 2
<MEAN> 39
 -5.406647e+00 -4.966225e+00 9.762618e+00 1.250943e+01 4.818792e+00 8.748874e+00 -2.270402e+00 -4.233972e+00 -1.127495e+00 -1.500782e+00 1.525172e+00 -2.450967e+00 7.892213e+01 -1.957836e+00 -2.234322e+00 1.403481e+00 -7.860782e-01 -1.696574e+00 -5.902344e-01 3.130029e+00 5.096086e-01 -1.519139e+00 1.080913e+00 1.863189e+00 -3.825791e-01 8.015174e-01 -4.799411e-01 -4.322161e-01 3.184191e-02 -2.952598e-01 6.483484e-02 -3.045577e-01 -1.183948e-01 2.277657e-01 1.654325e-01 -9.882390e-02 2.043393e-01 1.249700e-01 1.731871e-01
<VARIANCE> 39
 2.405026e+01 3.673961e+01 3.255608e+01 1.959262e+01 3.767955e+01 4.275373e+01 4.450294e+01 4.553458e+01 3.539951e+01 2.535724e+01 2.125530e+01 1.667220e+01 2.667671e+01 2.535931e+00 6.390113e+00 3.562855e+00 2.902776e+00 3.434033e+00 4.555704e+00 3.369882e+00 3.468872e+00 2.798887e+00 3.955390e+00 1.976786e+00 2.053377e+00 2.766894e+00 2.075444e-01 9.498634e-01 3.971911e-01 5.928336e-01 6.905227e-01 7.294452e-01 5.123060e-01 5.664710e-01 2.978086e-01 3.181947e-01 2.419856e-01 2.338423e-01 4.156404e-01
<GCONST> 1.199259e+02
<STATE> 3
<MEAN> 39
 -1.412871e+01 -1.151912e+01 1.554111e+01 8.475465e+00 1.827151e+00 7.250289e+00 4.925724e+00 -1.845161e+00 -3.011554e+00 2.425036e-01 6.978129e+00 -4.113842e+00 8.196509e+01 -1.901536e+00 -1.539815e+00 -3.062721e-01 -1.096286e+00 -6.062273e-01 -7.869834e-01 1.122932e+00 1.015130e+00 2.393348e-01 4.598367e-01 1.168911e+00 4.519200e-01 1.979772e-01 6.567376e-01 3.782376e-01 -7.161880e-01 1.239057e-01 2.635513e-01 5.148936e-02 -6.952107e-01 -1.445395e-01 2.565599e-01 -3.078703e-01 -4.841060e-01 2.742420e-01 -1.490486e-01
<VARIANCE> 39
 3.088781e+01 1.894435e+01 2.247872e+01 2.819622e+01 2.365360e+01 1.464807e+01 2.326237e+01 1.958648e+01 3.633325e+01 1.227501e+01 1.258810e+01 1.330743e+01 6.612700e+00 3.436664e+00 1.834157e+00 4.387265e+00 2.590025e+00 1.658929e+00 1.466662e+00 2.514623e+00 2.111742e+00 1.757367e+00 1.500735e+00 1.498694e+00 1.146487e+00 5.497866e-01 3.970459e-01 3.995123e-01 6.740439e-01 3.327833e-01 4.453265e-01 4.112728e-01 4.735780e-01 4.262886e-01 5.041431e-01 3.532677e-01 2.601427e-01 2.268668e-01 1.700649e-01
<GCONST> 1.043634e+02
<STATE> 4
<MEAN> 39
 -1.575537e+01 -1.062075e+01 4.273502e+00 5.564573e+00 6.621146e-01 6.209310e+00 5.893487e+00 2.118809e+00 -9.361259e-01 1.092399e+00 7.088102e+00 2.520916e+00 7.578008e+01 2.724553e-01 8.272168e-01 -6.410213e-01 5.756096e-02 2.725981e-01 2.194772e-01 -1.620187e-01 4.317754e-02 2.434733e-01 8.516323e-02 -3.449827e-01 3.197050e-01 -6.680844e-01 6.624550e-02 1.816355e-01 8.127765e-02 6.072258e-02 5.974369e-02 4.269735e-02 -7.350979e-02 -4.794111e-02 -6.253020e-04 -4.025408e-02 -9.162264e-02 -9.186438e-02 -5.519696e-02
<VARIANCE> 39
 2.747197e+01 6.372899e+01 4.232992e+01 2.832076e+01 1.908848e+01 2.344455e+01 1.501413e+01 2.414141e+01 5.255990e+01 2.842277e+01 1.708371e+01 1.867681e+01 6.000897e+01 1.501768e+00 2.813375e+00 2.308352e+00 1.121072e+00 1.273530e+00 1.192621e+00 1.450714e+00 1.314127e+00 1.948868e+00 1.599551e+00 1.469871e+00 9.771692e-01 1.230752e+00 2.228578e-01 5.409439e-01 4.087552e-01 2.285396e-01 2.226294e-01 2.502385e-01 2.643278e-01 2.320264e-01 2.966321e-01 2.740306e-01 2.719667e-01 1.999261e-01 1.781366e-01
<GCONST> 1.032492e+02
<TRANSP> 5
 0.000000e+00 1.000000e+00 0.000000e+00 0.000000e+00 0.000000e+00
 0.000000e+00 5.866656e-01 4.133344e-01 0.000000e+00 0.000000e+00
 0.000000e+00 0.000000e+00 7.404616e-01 2.595384e-01 0.000000e+00
 0.000000e+00 0.000000e+00 0.000000e+00 8.983585e-01 1.016415e-01
 0.000000e+00 0.000000e+00 0.000000e+00 0.000000e+00 0.000000e+00
<ENDHMM>
~h "aa"
<BEGINHMM>
<NUMSTATES> 5
<STATE> 2
<MEAN> 39
 -1.369077e+00 -2.507668e+00 -2.427958e+00 -9.561294e-01 -4.680056e+00 3.009480e+00 -2.056721e-01 2.268212e+00 1.676542e+00 -2.735151e+00 3.556014e+00 3.300695e+00 8.136515e+01 2.783534e+00 5.520701e-02 -9.385314e-01 -2.431053e+00 -2.024969e+00 -7.127472e-01 -1.401302e+00 -5.135294e-01 1.132495e+00 9.759963e-01 6.410550e-02 -2.142937e-01 2.520676e+00 -3.472772e-01 1.962641e-01 -6.663078e-02 -1.319135e-02 2.107819e-01 4.217486e-01 2.826145e-01 -4.683981e-02 3.347532e-01 5.002906e-01 -3.144371e-01 -1.930100e-01 -4.107012e-01
<VARIANCE> 39
 5.588636e+01 3.401400e+01 2.045411e+01 2.686822e+01 2.954181e+01 1.023216e+01 6.526669e+01 3.910159e+01 4.356334e+01 4.946507e+01 3.269169e+01 2.963954e+01 4.060540e+01 3.328529e+00 5.665286e+00 2.458410e+00 1.946584e+00 5.273448e+00 2.753370e+00 5.040738e+00 4.628028e+00 5.338593e+00 8.569815e+00 4.295532e+00 3.878552e+00 4.619813e+00 5.831541e-01 1.223042e+00 5.067102e-01 3.899682e-01 1.084254e+00 3.652623e-01 1.046573e+00 5.481789e-01 6.396685e-01 1.148723e+00 5.017139e-01 5.263105e-01 7.380567e-01
<GCONST> 1.304575e+02
<STATE> 3
<MEAN> 39
 6.976382e+00 -2.964990e+00 -7.753146e+00 -6.093860e+00 -9.674201e+00 3.080084e+00 -3.522055e+00 6.557957e-01 9.602439e+00 4.554401e+00 -2.257727e+00 1.207306e+00 8.485471e+01 1.448521e-01 -2.211313e-01 -5.444801e-01 -6.824491e-01 -5.887674e-01 6.485358e-01 5.526098e-01 -7.490582e-01 5.566142e-01 9.506079e-01 -5.029542e-01 -2.264387e-01 1.426164e-01 -2.949831e-01 8.724616e-02 3.009104e-01 3.311719e-01 4.026851e-01 5.374771e-02 3.051115e-02 8.667554e-02 -2.565325e-01 -3.688810e-01 1.038550e-01 -1.236197e-01 -2.590948e-01
<VARIANCE> 39
 8.941807e+00 1.429090e+01 2.023140e+01 2.184156e+01 1.404036e+01 3.936497e+01 3.476339e+01 3.488048e+01 2.686309e+01 2.832675e+01 2.262757e+01 3.123495e+01 3.666631e+00 2.787525e-01 8.918706e-01 8.880413e-01 7.872399e-01 2.375029e+00 1.491022e+00 2.670421e+00 2.044957e+00 2.102505e+00 2.142112e+00 1.445239e+00 1.536218e+00 2.032637e-01 1.444159e-01 1.858711e-01 7.483467e-02 2.156744e-01 1.446508e-01 4.172501e-01 4.522140e-01 8.509914e-01 3.753210e-01 2.749399e-01 3.832175e-01 3.592713e-01 7.125345e-02
<GCONST> 9.404779e+01
<STATE> 4
<MEAN> 39
 5.010399e+00 4.544453e-01 -5.400180e+00 -8.608517e+00 -8.914046e+00 5.417674e+00 -2.072406e+00 -1.969821e+00 7.455976e+00 4.595329e+00 -1.263212e+00 -1.223019e+00 8.516449e+01 -2.120497e-01 1.299614e-01 3.339447e-01 3.969171e-01 8.961028e-01 -3.480586e-02 -3.844839e-01 2.841295e-01 -6.298794e-01 -8.718124e-01 3.456142e-01 3.053478e-01 -2.288088e-01 -1.702224e-01 -4.138470e-02 1.234739e-01 3.176665e-01 2.093627e-01 2.463551e-02 6.940424e-02 4.370703e-02 -1.322476e-01 -1.309895e-01 8.402475e-02 9.242739e-02 -1.222046e-01
<VARIANCE> 39
 3.751027e+00 1.012682e+01 1.070289e+01 1.351378e+01 3.876757e+01 1.918059e+01 3.337583e+01 1.783220e+01 3.349099e+01 3.831886e+01 3.697367e+01 2.319809e+01 2.260106e+00 3.321474e-01 5.792595e-01 8.424646e-01 1.610812e+00 1.626009e+00 6.435595e-01 2.090185e+00 1.647803e+00 1.111059e+00 2.390866e+00 1.305248e+00 1.504515e+00 2.848541e-01 8.296789e-02 1.544168e-01 1.144698e-01 2.475112e-01 2.122672e-01 1.612967e-01 4.913515e-01 2.183818e-01 2.025394e-01 3.425583e-01 2.047944e-01 2.365765e-01 6.860702e-02
<GCONST> 8.644876e+01
<TRANSP> 5
 0.000000e+00 1.000000e+00 0.000000e+00 0.000000e+00 0.000000e+00
 0.000000e+00 7.263196e-01 2.736805e-01 0.000000e+00 0.000000e+00
 0.000000e+00 0.000000e+00 7.746781e-01 2.253219e-01 0.000000e+00
 0.000000e+00 0.000000e+00 0.000000e+00 8.896713e-01 1.103287e-01
 0.000000e+00 0.000000e+00 0.000000e+00 0.000000e+00 0.000000e+00
<ENDHMM>
~h "ae"
<BEGINHMM>
<NUMSTATES> 5
<STATE> 2
<MEAN> 39
 -1.392807e+01 -3.018337e-01 -1.437608e+00 6.217395e+00 2.895402e+00 5.035927e+00 2.128631e+00 3.477420e+00 3.888645e+00 3.332108e+00 4.198390e+00 5.378766e+00 6.736899e+01 3.588730e-01 -1.804377e-01 -3.631903e-01 -3.023862e-01 4.663381e-02 -3.815082e-02 -5.139927e-01 -1.399880e-01 9.999183e-02 -1.693828e-02 2.844853e-01 3.359787e-01 3.179612e-01 3.050770e-01 -4.115639e-02 -1.181642e-01 -1.265620e-01 -2.084479e-02 -1.115639e-01 -3.110668e-01 -1.186465e-01 -5.159133e-02 -1.095624e-01 -3.009280e-02 -7.529865e-03 2.447486e-01
<VARIANCE> 39
 3.867278e+01 3.056527e+01 1.564585e+01 2.616732e+01 2.124498e+01 1.765846e+01 3.418060e+01 2.043446e+01 1.752322e+01 3.238640e+01 1.908318e+01 1.505376e+01 4.066811e+01 3.451927e+00 2.582037e+00 1.297266e+00 1.714023e+00 1.155612e+00 1.422426e+00 5.021278e+00 2.609496e+00 1.436977e+00 1.521239e+00 1.691543e+00 1.446821e+00 2.315735e+00 4.521523e-01 3.587145e-01 2.424422e-01 3.243959e-01 2.035507e-01 1.898791e-01 6.773917e-01 3.806418e-01 2.980421e-01 2.837242e-01 2.899958e-01 2.781730e-01 3.209357e-01
<GCONST> 1.064290e+02
<STATE> 3
<MEAN> 39
 1.963844e+00 -3.364692e+00 -4.645734e+00 2.498415e+00 4.940259e+00 3.091182e+00 -1.421662e+01 -4.801877e+00 3.603352e+00 -3.602848e+00 4.456859e+00 6.951794e+00 8.227173e+01 2.275897e+00 -6.468084e-01 -1.174918e+00 -1.417997e+00 -2.092283e-01 -2.092111e-01 -2.297529e+00 -4.865255e-01 4.390768e-01 -6.768871e-01 4.085000e-01 6.569398e-01 2.309276e+00 -7.867977e-01 3.864796e-03 8.007880e-02 1.318554e-01 1.149580e-01 3.626317e-01 9.386290e-01 3.987440e-01 1.614632e-01 4.539107e-01 5.966404e-02 -2.592721e-01 -5.645855e-01
<VARIANCE> 39
 1.580854e+01 1.750240e+01 4.643525e+01 2.559892e+01 1.938105e+01 2.996000e+01 3.040413e+01 3.200217e+01 2.756644e+01 2.638046e+01 1.666956e+01 1.605220e+01 2.461171e+01 3.752339e+00 2.468521e+00 1.457430e+00 1.870432e+00 2.414419e+00 2.385614e+00 6.317796e+00 3.323899e+00 2.163501e+00 2.115676e+00 1.848650e+00 2.046295e+00 3.014754e+00 3.355792e-01 5.876219e-01 4.113159e-01 3.326162e-01 2.880445e-01 4.377124e-01 7.141104e-01 5.096846e-01 4.675174e-01 3.076010e-01 4.281524e-01 3.623736e-01 3.308744e-01
<GCONST> 1.133836e+02
<STATE> 4
<MEAN> 39
 4.575323e+00 -3.583008e+00 -6.232527e+00 -3.926489e+00 1.925389e+00 5.332869e+00 -1.227362e+01 -4.281463e+00 6.148808e+00 -1.605864e+00 5.896829e+00 5.033175e+00 8.601189e+01 -9.314161e-03 5.067183e-01 -5.412633e-02 1.982137e-01 5.886093e-01 2.694097e-01 5.724394e-02 -3.862489e-01 -2.336517e-01 -1.788013e-01 -2.473868e-01 -3.122624e-01 -3.913838e-01 -2.057953e-01 1.820596e-01 2.661262e-01 2.751999e-01 7.655455e-02 1.424501e-01 2.813855e-01 -1.044064e-02 -2.004619e-01 -5.101943e-04 -1.359263e-01 -1.144669e-01 -3.411606e-01
<VARIANCE> 39
 5.651374e+00 1.280945e+01 2.423532e+01 2.921761e+01 4.512158e+01 3.242632e+01 4.400629e+01 2.517167e+01 2.214621e+01 3.762253e+01 2.115284e+01 1.820363e+01 4.835473e+00 2.722144e-01 9.454749e-01 1.412794e+00 1.679615e+00 1.501168e+00 2.189629e+00 2.163148e+00 1.838074e+00 2.025582e+00 1.242125e+00 1.692427e+00 1.211908e+00 5.774841e-01 9.659891e-02 1.662321e-01 1.824538e-01 1.851464e-01 2.990023e-01 2.641594e-01 6.665776e-01 3.745580e-01 3.292629e-01 2.541169e-01 3.013054e-01 3.013019e-01 9.871644e-02
<GCONST> 9.560284e+01
<TRANSP> 5
 0.000000e+00 1.000000e+00 0.000000e+00 0.000000e+00 0.000000e+00
 0.000000e+00 8.512343e-01 1.487658e-01 0.000000e+00 0.000000e+00
 0.000000e+00 0.000000e+00 6.517676e-01 3.482324e-01 0.000000e+00
 0.000000e+00 0.000000e+00 0.000000e+00 8.567896e-01 1.432104e-01
 0.000000e+00 0.000000e+00 0.000000e+00 0.000000e+00 0.000000e+00
<ENDHMM>
~h "ah"
<BEGINHMM>
<NUMSTATES> 5
<STATE> 2
<MEAN> 39
 -3.844692e+00 -2.729487e+00 9.657017e-01 6.631518e+00 2.553982e-01 1.712053e+00 -1.948038e+00 2.320023e-01 -1.522228e+00 -3.817868e+00 2.088867e+00 1.794186e+00 7.747958e+01 2.213617e+00 -9.764155e-01 -1.002790e+00 -9.740815e-01 -6.945345e-01 -6.869114e-01 -2.083956e+00 -4.342241e-01 2.249123e-01 -1.130056e+00 -2.290560e-01 -7.717511e-02 2.060800e+00 1.059548e-02 2.167272e-01 -1.311395e-01 -3.134713e-01 2.988560e-01 1.223605e-01 -3.417711e-01 7.954075e-02 2.877367e-01 1.094619e-01 1.423944e-02 6.064778e-02 1.205776e-02
<VARIANCE> 39
 5.767500e+01 8.028039e+01 2.521323e+01 3.674697e+01 4.280519e+01 4.181063e+01 6.101286e+01 6.194046e+01 4.377906e+01 4.339523e+01 2.834846e+01 3.275634e+01 6.801857e+01 4.250630e+00 1.161954e+01 2.917584e+00 4.174385e+00 7.118098e+00 5.380600e+00 8.683926e+00 5.039313e+00 3.545949e+00 5.484876e+00 2.948167e+00 4.000891e+00 5.267822e+00 7.031090e-01 2.030544e+00 3.461782e-01 6.657909e-01 1.121919e+00 9.164156e-01 1.441880e+00 9.348838e-01 5.581096e-01 7.339572e-01 3.981669e-01 5.558653e-01 1.042997e+00
<GCONST> 1.390561e+02
<STATE> 3
<MEAN> 39
 6.256700e+00 -2.375201e+00 -5.162212e+00 -2.714050e-01 7.849411e-01 -1.097330e+00 -1.293601e+01 -1.554897e-01 -4.423595e-01 -9.937058e+00 6.566423e-01 3.361753e+00 8.469144e+01 5.389705e-02 7.378242e-01 -3.177250e-01 -5.789123e-02 5.994202e-01 2.782378e-01 -2.086874e-01 2.410166e-01 2.154314e-01 5.780027e-02 -1.362214e-01 6.275549e-02 -5.120006e-01 -7.703863e-01 3.639226e-02 5.378903e-01 4.018855e-01 4.153288e-03 4.031328e-01 9.999286e-01 2.324645e-02 -6.369816e-02 4.706105e-01 -2.866331e-02 -1.878674e-01 -5.456342e-01
<VARIANCE> 39
 6.885484e+00 1.659306e+01 2.964249e+01 3.385278e+01 3.521582e+01 2.746774e+01 3.945127e+01 4.527987e+01 4.000846e+01 3.444659e+01 2.889370e+01 3.178848e+01 6.601998e+00 2.428397e+00 1.544498e+00 4.822883e+00 3.206652e+00 1.522095e+00 3.189618e+00 8.029779e+00 2.799045e+00 2.552902e+00 3.778181e+00 2.011039e+00 1.785632e+00 1.638895e+00 2.351666e-01 4.794090e-01 4.639522e-01 4.311224e-01 4.488787e-01 4.898855e-01 8.021495e-01 4.360380e-01 5.040566e-01 7.596563e-01 4.941998e-01 3.463904e-01 1.948117e-01
<GCONST> 1.157020e+02
<STATE> 4
<MEAN> 39
 -2.613311e+00 5.898517e-01 -1.634116e-02 4.407925e+00 1.347622e+00 3.732415e+00 -3.856178e+00 2.006016e-01 1.912125e-01 -3.878234e+00 4.101761e-01 1.740887e+00 7.574919e+01 -1.871279e+00 2.911815e-01 1.899117e-01 1.253667e-01 -2.260616e-01 8.634720e-01 1.598787e+00 1.809097e-02 5.181566e-01 1.519815e+00 4.628804e-01 6.274815e-01 -1.798238e+00 1.359784e-01 -1.991036e-01 -3.249833e-01 -2.178351e-01 -3.105272e-02 -1.648686e-01 -3.994300e-01 3.210115e-02 8.959372e-02 -1.832352e-01 1.227693e-02 1.331335e-01 1.888967e-01
<VARIANCE> 39
 3.388389e+01 3.545916e+01 2.817448e+01 3.500069e+01 3.479008e+01 2.072429e+01 5.248749e+01 2.342092e+01 4.018377e+01 3.910431e+01 2.854105e+01 4.149426e+01 2.776827e+01 2.982301e+00 2.205318e+00 2.110871e+00 2.676178e+00 2.954776e+00 4.493151e+00 6.685287e+00 2.523092e+00 1.985818e+00 3.760844e+00 2.692968e+00 3.397647e+00 2.795516e+00 3.553066e-01 4.456170e-01 3.949522e-01 6.952380e-01 5.083448e-01 7.142119e-01 1.135948e+00 5.119317e-01 3.827835e-01 6.379805e-01 6.266597e-01 7.274630e-01 3.214121e-01
<GCONST> 1.233754e+02
<TRANSP> 5
 0.000000e+00 1.000000e+00 0.000000e+00 0.000000e+00 0.000000e+00
 0.000000e+00 6.181324e-01 3.818676e-01 0.000000e+00 0.000000e+00
 0.000000e+00 0.000000e+00 7.887400e-01 2.112600e-01 0.000000e+00
 0.000000e+00 0.000000e+00 0.000000e+00 6.465130e-01 3.534870e-01
 0.000000e+00 0.000000e+00 0.000000e+00 0.000000e+00 0.000000e+00
<ENDHMM>
~h "ao"
<BEGINHMM>
<NUMSTATES> 5
<STATE> 2
<MEAN> 39
 -1.641695e+01 1.640712e+00 -2.247044e+00 3.849023e+00 1.734707e+00 4.832410e+00 4.605963e+00 6.258124e+00 4.356371e+00 3.463002e+00 3.480633e+00 4.737190e+00 6.467449e+01 -5.402323e-02 5.853625e-02 9.658131e-02 2.609697e-03 -2.705648e-02 -5.015049e-03 3.345023e-02 8.027801e-02 9.601453e-02 1.211696e-01 9.571734e-02 5.904958e-02 -4.639982e-02 1.004432e-01 2.247917e-02 7.537863e-03 1.663307e-02 3.875594e-03 -2.462279e-02 -8.800059e-02 -8.788829e-02 -4.148049e-02 -4.384029e-02 -6.026714e-02 -5.507507e-02 6.644271e-02
<VARIANCE> 39
 1.775107e+01 5.032372e+00 9.619306e+00 1.173061e+01 1.350037e+01 1.567952e+01 1.552357e+01 1.088164e+01 1.132621e+01 1.535401e+01 1.191316e+01 1.057687e+01 1.445598e+01 4.194050e-01 4.985835e-01 4.604331e-01 8.816082e-01 1.159717e+00 1.163273e+00 1.125722e+00 1.103489e+00 1.123559e+00 9.749919e-01 7.387734e-01 6.901563e-01 2.574202e-01 1.239329e-01 1.015368e-01 9.143332e-02 1.564792e-01 2.466455e-01 2.526274e-01 2.386695e-01 2.491702e-01 2.102605e-01 1.985655e-01 1.560190e-01 1.570622e-01 6.450317e-02
<GCONST> 7.631004e+01
<STATE> 3
<MEAN> 39
 -3.973938e+00 4.328135e+00 -1.332214e+00 3.285084e+00 -8.363913e-01 3.435203e-01 -3.715661e+00 1.710070e+00 4.122299e+00 1.148474e+00 -1.208472e+00 -1.211165e+00 7.287671e+01 2.614460e+00 2.546588e-01 -3.561247e-01 -9.191903e-01 -1.750760e+00 -2.156385e+00 -1.796392e+00 -2.611988e-01 5.901594e-01 2.020885e-01 -5.995516e-01 -6.953999e-01 1.902826e+00 -5.769217e-02 -1.005515e-01 -4.688252e-02 -1.050365e-01 -1.207972e-01 -4.496356e-02 1.387973e-01 2.331895e-01 2.060931e-01 1.342459e-01 8.463222e-02 1.597366e-01 1.800664e-02
<VARIANCE> 39
 6.856877e+01 1.671759e+01 1.622763e+01 2.132514e+01 8.597060e+01 1.482861e+02 5.280431e+01 3.120320e+01 2.872095e+01 6.533753e+01 2.574635e+01 2.471377e+01 4.234597e+01 2.936376e+00 1.813963e+00 1.409682e+00 1.994569e+00 4.150781e+00 6.820168e+00 4.314540e+00 4.611017e+00 2.974154e+00 2.988744e+00 2.096886e+00 3.486267e+00 1.482816e+00 7.361950e-01 2.891558e-01 2.397548e-01 3.057330e-01 6.913733e-01 1.390099e+00 1.027749e+00 6.959228e-01 4.398597e-01 4.319467e-01 3.170066e-01 4.231686e-01 3.545179e-01
<GCONST> 1.235336e+02
<STATE> 4
<MEAN> 39
 6.407539e+00 4.350999e+00 -4.031883e+00 -2.663415e+00 -8.774066e+00 -8.474393e+00 -9.907845e+00 5.105222e+00 9.065588e+00 -7.366475e-01 -4.116684e+00 -3.258432e+00 8.143213e+01 -9.634723e-02 -2.012674e-02 -2.031202e-01 -1.611440e-01 4.689802e-01 8.727399e-01 4.886449e-01 -5.519560e-02 -5.384936e-01 -6.179673e-01 -1.267795e-01 1.692444e-01 -7.894476e-02 -1.939017e-01 -1.131478e-02 4.110295e-02 1.481559e-01 2.404145e-01 3.218027e-01 2.491725e-01 -8.999033e-02 -2.438560e-01 -9.082974e-02 5.052423e-02 8.450643e-02 -1.591557e-01
<VARIANCE> 39
 3.724236e+00 2.381763e+01 2.095275e+01 3.436107e+01 2.496911e+01 6.392494e+01 3.902546e+01 2.006821e+01 3.867747e+01 6.289033e+01 1.374368e+01 2.997098e+01 6.803068e+00 6.204289e-01 1.026943e+00 8.884523e-01 1.378963e+00 2.033736e+00 3.793320e+00 2.685080e+00 1.717100e+00 2.913743e+00 2.849838e+00 1.272866e+00 1.825937e+00 6.605845e-01 1.005444e-01 1.972004e-01 1.689111e-01 2.272193e-01 1.781404e-01 3.741725e-01 3.791277e-01 3.314555e-01 3.040398e-01 3.746797e-01 2.620738e-01 2.979050e-01 1.037927e-01
<GCONST> 9.943342e+01
<TRANSP> 5
 0.000000e+00 1.000000e+00 0.000000e+00 0.000000e+00 0.000000e+00
 0.000000e+00 9.356276e-01 6.437232e-02 0.000000e+00 0.000000e+00
 0.000000e+00 0.000000e+00 8.049077e-01 1.950922e-01 0.000000e+00
 0.000000e+00 0.000000e+00 0.000000e+00 9.189792e-01 8.102081e-02
 0.000000e+00 0.000000e+00 0.000000e+00 0.000000e+00 0.000000e+00
<ENDHMM>
~h "aw"
<BEGINHMM>
<NUMSTATES> 5
<STATE> 2
<MEAN> 39
 6.720016e+00 6.020039e+00 -2.697618e+00 9.045038e-01 -9.747896e+00 -1.599409e+01 -1.167745e+01 8.647992e+00 7.985307e+00 -1.906124e+00 -4.976900e+00 -6.337828e+00 8.030113e+01 -1.326211e-01 4.363753e-01 2.221690e-01 2.102276e-01 2.478431e-01 -2.702928e-01 -4.988393e-01 6.057711e-02 3.835853e-01 1.078005e-01 -3.049028e-01 -3.929318e-01 -2.922999e-01 -8.675243e-02 4.391426e-02 9.182452e-02 2.886615e-02 1.334297e-01 3.131194e-01 1.134880e-01 -1.230279e-01 -7.592271e-02 -3.810365e-02 1.140474e-02 2.580446e-02 -5.985748e-02
<VARIANCE> 39
 3.698479e+00 2.006727e+01 2.160298e+01 1.582883e+01 1.383249e+01 2.815748e+01 3.177324e+01 1.884810e+01 2.532654e+01 3.081344e+01 1.429584e+01 1.448037e+01 5.350643e+00 2.670730e-01 6.644552e-01 1.116810e+00 7.191094e-01 1.355426e+00 2.526921e+00 1.839410e+00 1.130648e+00 1.683100e+00 9.905645e-01 1.013855e+00 1.246081e+00 2.989480e-01 3.587838e-02 7.078850e-02 1.487086e-01 1.505574e-01 1.887812e-01 2.948684e-01 3.239708e-01 2.004725e-01 2.742778e-01 1.338418e-01 1.508874e-01 1.987918e-01 2.982287e-02
<GCONST> 8.167966e+01
<STATE> 3
<MEAN> 39
 1.781188e+00 1.351950e+01 1.607054e+00 8.205812e-01 -2.930728e+00 -3.866540e+00 -7.619898e+00 4.104092e+00 6.693718e+00 7.647319e-02 -4.871656e+00 -8.460992e+00 7.409953e+01 -1.612662e+00 3.380959e-01 6.141924e-01 2.929767e-01 6.397906e-01 2.619091e+00 2.810464e+00 -3.126815e-01 -7.814628e-01 3.054598e-01 6.291924e-01 9.774694e-01 -1.236832e+00 -3.282222e-01 -4.425439e-01 -9.697685e-02 2.747555e-01 -9.686954e-02 -2.756133e-01 3.251238e-01 3.713268e-01 6.847322e-02 8.000187e-02 1.384682e-01 3.332946e-01 -1.104655e-01
<VARIANCE> 39
 1.045834e+01 9.142199e+00 1.642047e+01 8.918312e+00 1.210867e+01 2.587149e+01 3.741956e+01 1.276355e+01 1.515406e+01 3.690560e+01 2.740473e+01 1.846024e+01 8.214468e+00 1.131788e+00 1.460490e+00 9.065603e-01 1.432246e+00 1.545621e+00 2.748089e+00 2.206089e+00 2.444732e+00 1.194626e+00 1.625692e+00 1.215701e+00 2.019115e+00 4.825661e-01 1.055102e-01 1.226574e-01 1.663679e-01 1.496444e-01 2.783170e-01 5.249332e-01 7.466831e-01 3.555486e-01 2.713272e-01 2.688454e-01 3.225305e-01 3.743905e-01 5.226491e-02
<GCONST> 9.355363e+01
<STATE> 4
<MEAN> 39
 -1.335863e+01 5.242931e+00 -1.861239e+00 2.911517e+00 1.547049e+00 4.467071e+00 4.280107e+00 6.333994e+00 3.941423e+00 2.098112e+00 5.572066e-01 7.760339e-01 6.715295e+01 -7.919154e-01 -5.691928e-01 -2.083523e-01 8.577783e-02 1.144127e-01 8.625595e-02 2.101725e-01 9.183727e-02 7.036476e-02 2.388905e-01 2.856622e-01 3.091038e-01 -4.227573e-01 1.793175e-01 9.767088e-03 -6.206986e-02 -8.348623e-02 -4.054968e-02 -1.016006e-01 -2.238120e-01 -1.503821e-01 -8.947959e-02 -9.989163e-02 -7.511033e-02 -3.671299e-02 1.267729e-01
<VARIANCE> 39
 1.773539e+01 1.603684e+01 1.800534e+01 1.142519e+01 1.244216e+01 1.682336e+01 1.190445e+01 7.128308e+00 1.104135e+01 2.279570e+01 2.035293e+01 1.701343e+01 6.163262e+00 1.027097e+00 1.133267e+00 9.735994e-01 7.079162e-01 8.204764e-01 1.119378e+00 1.243480e+00 1.189546e+00 7.492191e-01 9.825855e-01 1.028111e+00 1.018205e+00 3.095810e-01 1.047912e-01 1.688420e-01 1.974362e-01 1.532511e-01 1.958967e-01 2.653052e-01 2.915812e-01 2.045222e-01 1.661986e-01 2.650076e-01 2.642013e-01 2.168031e-01 4.606987e-02
<GCONST> 8.191689e+01
<TRANSP> 5
 0.000000e+00 1.000000e+00 0.000000e+00 0.000000e+00 0.000000e+00
 0.000000e+00 9.384791e-01 6.152083e-02 0.000000e+00 0.000000e+00
 0.000000e+00 0.000000e+00 8.077488e-01 1.922513e-01 0.000000e+00
 0.000000e+00 0.000000e+00 0.000000e+00 8.936198e-01 1.063802e-01
 0.000000e+00 0.000000e+00 0.000000e+00 0.000000e+00 0.000000e+00
<ENDHMM>
~h "ax"
<BEGINHMM>
<NUMSTATES> 5
<STATE> 2
<MEAN> 39
 1.644037e+00 -2.224972e+00 -1.874408e+00 5.887741e+00 3.249566e+00 2.315012e+00 -7.703567e+00 7.487323e-01 4.012577e-01 -9.539737e+00 -3.536300e+00 1.799881e+00 8.012099e+01 2.246185e+00 3.713917e-01 -3.936309e-02 -4.296818e-01 -5.705113e-02 -1.204564e+00 -2.649343e+00 4.706188e-01 1.713441e-01 -2.558883e+00 -9.001515e-01 9.179099e-02 1.576995e+00 -7.341299e-01 4.564116e-01 2.640585e-01 -3.820024e-02 -5.026101e-02 8.916672e-02 4.158467e-01 1.757094e-01 1.872505e-01 5.257981e-01 3.512939e-01 -7.392443e-02 -6.614776e-01
<VARIANCE> 39
 2.952188e+01 2.930294e+01 3.664124e+01 3.530946e+01 3.346248e+01 4.189081e+01 7.025311e+01 4.946591e+01 2.978736e+01 5.110116e+01 3.928728e+01 2.083208e+01 2.725736e+01 4.326616e+00 4.442348e+00 3.900861e+00 3.152671e+00 3.557986e+00 3.603462e+00 5.529026e+00 4.093196e+00 3.193986e+00 4.103337e+00 3.576695e+00 3.618866e+00 4.603240e+00 5.397958e-01 9.530395e-01 6.562670e-01 6.009227e-01 6.681991e-01 5.628208e-01 1.544389e+00 6.805576e-01 4.705054e-01 7.702253e-01 5.514020e-01 4.692605e-01 5.822562e-01
<GCONST> 1.307100e+02
<STATE> 3
<MEAN> 39
 4.528719e+00 5.234267e-01 -8.869966e-01 5.476339e+00 2.884261e+00 -1.673667e+00 -1.417824e+01 2.250107e+00 1.291118e+00 -1.519708e+01 -4.947812e+00 1.540084e+00 8.126905e+01 -3.445391e-01 7.225822e-01 3.187604e-02 7.156600e-02 1.008904e-01 2.287515e-01 7.272440e-01 2.056909e-02 -4.972714e-02 4.879077e-01 -8.096024e-02 -1.036926e-01 -6.224853e-01 -4.216259e-01 4.851041e-02 9.598321e-02 1.714157e-01 2.785781e-02 3.785068e-01 7.951692e-01 -1.316545e-01 -6.662825e-02 6.236126e-01 1.503475e-01 -4.364181e-02 -3.341466e-01
<VARIANCE> 39
 9.268912e+00 2.370683e+01 2.817205e+01 3.500391e+01 3.644684e+01 5.048061e+01 2.884308e+01 6.949364e+01 4.191663e+01 4.249473e+01 3.618047e+01 2.908340e+01 1.059221e+01 6.826793e-01 1.254260e+00 1.400373e+00 1.267622e+00 1.559141e+00 3.175531e+00 3.509020e+00 2.938809e+00 1.826714e+00 2.550772e+00 1.667909e+00 1.605136e+00 8.398715e-01 1.407378e-01 2.108442e-01 2.506448e-01 2.203875e-01 3.408678e-01 3.715682e-01 6.005977e-01 5.313817e-01 3.045465e-01 4.192135e-01 3.562724e-01 3.339027e-01 1.084671e-01
<GCONST> 1.065581e+02
<STATE> 4
<MEAN> 39
 -2.706302e+00 4.623137e+00 8.777121e-01 7.985708e+00 5.268638e+00 5.287749e+00 -2.437732e+00 1.439501e+00 7.965075e-01 -5.369464e+00 -3.557260e+00 3.346669e-01 7.403715e+01 -1.692268e+00 5.238739e-01 2.824840e-01 4.481165e-01 2.029440e-01 8.773059e-01 2.215664e+00 2.864466e-01 3.209090e-02 1.723634e+00 7.311308e-01 -4.402225e-02 -1.494185e+00 2.675268e-02 -3.268771e-01 -4.757208e-02 -1.678147e-01 -5.311022e-02 -5.932768e-02 -3.438721e-01 -2.240748e-02 9.941432e-02 -1.543130e-01 1.001869e-01 -6.693874e-03 1.766490e-01
<VARIANCE> 39
 3.352186e+01 2.993563e+01 3.655623e+01 4.674878e+01 3.508039e+01 4.307468e+01 5.529246e+01 3.656112e+01 3.817184e+01 3.532179e+01 2.482362e+01 2.061066e+01 3.004271e+01 2.051777e+00 2.440819e+00 2.159821e+00 2.983326e+00 2.075536e+00 2.876598e+00 6.089547e+00 3.276218e+00 1.924228e+00 3.150606e+00 2.231648e+00 1.641878e+00 1.848649e+00 4.236260e-01 3.937721e-01 3.529026e-01 5.930628e-01 4.728203e-01 5.175292e-01 9.754491e-01 6.622410e-01 3.682297e-01 5.132557e-01 3.605770e-01 2.494965e-01 2.864186e-01
<GCONST> 1.192561e+02
<TRANSP> 5
 0.000000e+00 1.000000e+00 0.000000e+00 0.000000e+00 0.000000e+00
 0.000000e+00 5.180950e-01 4.819051e-01 0.000000e+00 0.000000e+00
 0.000000e+00 0.000000e+00 7.739016e-01 2.260983e-01 0.000000e+00
 0.000000e+00 0.000000e+00 0.000000e+00 5.871453e-01 4.128547e-01
 0.000000e+00 0.000000e+00 0.000000e+00 0.000000e+00 0.000000e+00
<ENDHMM>
~h "ay"
<BEGINHMM>
<NUMSTATES> 5
<STATE> 2
<MEAN> 39
 -9.606359e+00 2.562578e+00 1.083023e+00 6.083044e+00 2.678410e+00 6.426301e+00 2.125995e+00 2.327593e+00 2.072612e+00 1.184580e+00 2.377254e+00 3.355399e+00 6.996811e+01 2.450902e+00 -1.276745e+00 -1.260430e+00 -1.423272e+00 -2.358173e+00 -2.095348e+00 -8.934351e-01 -3.754610e-01 -3.883204e-01 -4.103007e-01 6.217743e-01 -1.852794e-01 2.613586e+00 9.120822e-01 -6.657405e-01 -4.870476e-01 -5.081607e-01 -1.900841e-01 -3.073086e-02 -6.490601e-01 -4.717208e-01 5.142177e-02 -3.288406e-01 1.066303e-01 2.757270e-02 1.195752e+00
<VARIANCE> 39
 6.263522e+01 4.239896e+01 1.721332e+01 2.079561e+01 3.124414e+01 2.647534e+01 2.264317e+01 2.580032e+01 2.759477e+01 3.828438e+01 1.507495e+01 2.200518e+01 6.016376e+01 4.867265e+00 8.722088e+00 2.529050e+00 3.218115e+00 3.874293e+00 4.024906e+00 3.413759e+00 4.538994e+00 3.148226e+00 4.280803e+00 3.628458e+00 3.120720e+00 5.777915e+00 7.288519e-01 9.399505e-01 3.396116e-01 5.325518e-01 6.441821e-01 5.787784e-01 4.021845e-01 6.270682e-01 6.084909e-01 7.762114e-01 2.569606e-01 3.934303e-01 7.775017e-01
<GCONST> 1.257629e+02
<STATE> 3
<MEAN> 39
 2.772858e+00 -4.114301e+00 -5.710138e+00 -1.054423e+00 -4.717550e+00 1.452316e+00 -2.896102e+00 -6.805685e-01 2.225606e+00 -1.649621e+00 4.035802e+00 2.030231e+00 8.394144e+01 2.464754e+00 -5.838303e-01 -1.172152e+00 -1.923748e+00 -4.544583e-01 -2.793284e-01 -2.151284e+00 -6.399179e-01 4.045263e-01 -7.018993e-01 7.318636e-01 5.813963e-01 2.708636e+00 -8.054022e-01 5.418943e-01 4.560896e-01 3.420002e-01 9.399192e-01 5.688711e-01 -1.624093e-01 1.147544e-01 2.695265e-01 9.508403e-02 -7.882357e-02 2.408050e-01 -8.432087e-01
<VARIANCE> 39
 2.477045e+01 4.708521e+01 3.982454e+01 4.123182e+01 2.860938e+01 5.807154e+01 4.571983e+01 4.485958e+01 3.464276e+01 5.295081e+01 3.382739e+01 3.206868e+01 2.122650e+01 4.638648e+00 4.773713e+00 3.402590e+00 4.208475e+00 5.394488e+00 4.189968e+00 3.544764e+00 4.165719e+00 3.396428e+00 4.425518e+00 2.833207e+00 3.553983e+00 6.462064e+00 6.272353e-01 1.135260e+00 5.645720e-01 7.910690e-01 7.038062e-01 8.563112e-01 8.861182e-01 8.328655e-01 7.410893e-01 8.457717e-01 5.959526e-01 5.283425e-01 7.524260e-01
<GCONST> 1.333350e+02
<STATE> 4
<MEAN> 39
 3.254706e+00 -2.732547e+00 -2.926315e-01 2.731933e+00 4.909472e+00 4.125917e+00 -1.656935e+01 -6.231242e+00 3.809399e+00 -6.126328e+00 2.516483e+00 4.579451e+00 8.467826e+01 -4.125103e-01 2.410426e-01 6.788174e-01 1.177199e+00 9.918499e-01 2.686356e-01 -5.252621e-01 -4.519919e-01 2.709601e-02 -1.648063e-01 -4.385745e-01 -2.118248e-01 -5.487575e-01 -1.393495e-01 8.551989e-02 -2.713256e-02 1.043476e-01 -7.724471e-02 3.448719e-02 4.624573e-01 1.735101e-01 -1.027562e-01 1.428160e-01 -3.834582e-02 -1.334824e-01 -2.132892e-01
<VARIANCE> 39
 8.222179e+00 1.680803e+01 3.632281e+01 6.817847e+01 3.997998e+01 2.808225e+01 5.430374e+01 4.783089e+01 2.930655e+01 3.295755e+01 2.943452e+01 1.827687e+01 9.014261e+00 3.995108e-01 1.305679e+00 1.747091e+00 2.075779e+00 1.640516e+00 1.509036e+00 6.134920e+00 2.773704e+00 2.233399e+00 2.384255e+00 2.368222e+00 1.573360e+00 7.712955e-01 7.862678e-02 1.612898e-01 2.748624e-01 3.784705e-01 3.058757e-01 2.432186e-01 5.887539e-01 4.545240e-01 4.639581e-01 3.946106e-01 4.810345e-01 2.751330e-01 8.015019e-02
<GCONST> 1.049808e+02
<TRANSP> 5
 0.000000e+00 1.000000e+00 0.000000e+00 0.000000e+00 0.000000e+00
 0.000000e+00 4.487786e-01 5.512214e-01 0.000000e+00 0.000000e+00
 0.000000e+00 0.000000e+00 6.670235e-01 3.329765e-01 0.000000e+00
 0.000000e+00 0.000000e+00 0.000000e+00 9.166607e-01 8.333935e-02
 0.000000e+00 0.000000e+00 0.000000e+00 0.000000e+00 0.000000e+00
<ENDHMM>
~h "ch"
<BEGINHMM>
<NUMSTATES> 5
<STATE> 2
<MEAN> 39
 -1.173567e+01 -7.495720e+00 -9.892103e-01 7.999597e+00 -3.156506e-01 1.994508e+00 1.584942e-01 2.667400e+00 4.358026e+00 1.108131e+00 8.609427e-01 2.052819e+00 7.101649e+01 1.221105e-01 -3.581955e+00 1.090498e-02 3.885270e-01 -9.302033e-01 -1.042911e+00 -1.482102e-01 -2.134667e-02 8.678825e-01 1.046118e-01 4.438836e-03 -9.346784e-01 2.287069e+00 1.827118e-01 -3.415562e-01 5.004162e-01 1.561297e-01 5.623033e-02 -2.230183e-02 -1.836127e-01 -1.605131e-01 -1.981641e-01 -3.900247e-01 -3.036675e-02 -9.644519e-02 5.612587e-01
<VARIANCE> 39
 1.631297e+01 1.291060e+02 2.646728e+01 2.599008e+01 3.203447e+01 3.739123e+01 2.775027e+01 3.147572e+01 1.877023e+01 2.613037e+01 1.363597e+01 2.701302e+01 6.247713e+01 2.250752e+00 1.239615e+01 5.097078e+00 3.604092e+00 2.515558e+00 3.983576e+00 3.494540e+00 4.103550e+00 2.070876e+00 2.801733e+00 1.807062e+00 2.097010e+00 8.112879e+00 4.463572e-01 2.714342e+00 6.559202e-01 4.691418e-01 6.047510e-01 9.937765e-01 7.966450e-01 9.233699e-01 4.988708e-01 3.997196e-01 3.026555e-01 4.292072e-01 1.375176e+00
<GCONST> 1.272166e+02
<STATE> 3
<MEAN> 39
 -1.082967e+01 -2.563665e+01 3.871956e+00 1.014426e+01 -2.499323e+00 -3.776079e-01 -1.363420e+00 -5.964815e-01 4.491160e+00 -2.349064e+00 8.864832e-01 -1.285720e+00 8.473190e+01 1.188940e+00 1.294034e+00 2.281843e-01 3.970172e-02 9.157097e-01 1.097490e+00 -6.588142e-01 -9.756835e-01 -1.548227e+00 -1.087227e+00 -6.446632e-01 3.579310e-01 1.162635e-02 6.432201e-01 1.859042e+00 -6.934869e-01 -1.805260e-01 2.157502e-01 2.791415e-01 -3.669406e-01 7.772537e-02 -2.292506e-02 9.015906e-02 -3.604173e-01 2.645781e-01 -1.021312e+00
<VARIANCE> 39
 1.089434e+01 1.875604e+01 1.508356e+01 8.598189e+00 1.138375e+01 3.350587e+01 1.368280e+01 2.264507e+01 2.546234e+01 2.108728e+01 1.951428e+01 1.680321e+01 6.316684e+00 3.286655e+00 9.105907e+00 2.576400e+00 1.160111e+00 1.665347e+00 1.949757e+00 4.477580e+00 2.532752e+00 1.750357e+00 1.661479e+00 1.480839e+00 1.302898e+00 2.364901e+00 3.666387e-01 1.189234e+00 5.002472e-01 2.973625e-01 3.731294e-01 8.185313e-01 7.501757e-01 4.204760e-01 6.262209e-01 2.814435e-01 3.054921e-01 2.577750e-01 3.779576e-01
<GCONST> 1.078234e+02
<STATE> 4
<MEAN> 39
 -4.425102e+00 -8.468728e+00 2.745235e-01 1.210997e+01 2.634245e+00 5.112936e+00 -5.099776e+00 -4.824604e+00 4.676755e-01 -3.379237e+00 -3.812895e+00 -7.803485e-02 7.666106e+01 5.963303e-01 2.770499e+00 -5.251934e-01 2.699319e-02 7.612629e-01 2.874019e-01 -4.101125e-01 1.499884e-01 4.415871e-01 4.154195e-01 -4.950173e-01 2.162051e-01 -1.362479e+00 -2.832028e-01 -2.920892e-01 2.122640e-02 -1.568583e-01 -9.233318e-02 -2.189465e-01 1.049071e-01 2.935671e-01 3.886278e-01 1.964734e-01 1.563212e-01 -4.895193e-02 7.728404e-02
<VARIANCE> 39
 3.554650e+01 8.706343e+01 2.819720e+01 2.804968e+01 4.132775e+01 2.737622e+01 7.260751e+01 2.304886e+01 1.133364e+01 3.004797e+01 1.203354e+01 9.363501e+00 3.972975e+01 5.139948e+00 5.082388e+00 3.238622e+00 1.874454e+00 1.649195e+00 1.849179e+00 7.495639e+00 2.269395e+00 1.507553e+00 3.380202e+00 2.208380e+00 9.555640e-01 1.356781e+00 2.786584e-01 7.621555e-01 4.244379e-01 3.093134e-01 3.574912e-01 3.416790e-01 8.754476e-01 4.128951e-01 3.683513e-01 4.319826e-01 2.492654e-01 1.789632e-01 2.511730e-01
<GCONST> 1.137451e+02
<TRANSP> 5
 0.000000e+00 1.000000e+00 0.000000e+00 0.000000e+00 0.000000e+00
 0.000000e+00 8.409091e-01 1.590909e-01 0.000000e+00 0.000000e+00
 0.000000e+00 0.000000e+00 7.370494e-01 2.629506e-01 0.000000e+00
 0.000000e+00 0.000000e+00 0.000000e+00 7.326234e-01 2.673766e-01
 0.000000e+00 0.000000e+00 0.000000e+00 0.000000e+00 0.000000e+00
<ENDHMM>
~h "dh"
<BEGINHMM>
<NUMSTATES> 5
<STATE> 2
<MEAN> 39
 -1.225590e+01 5.551770e+00 2.365638e+00 9.188576e+00 6.463712e+00 7.481255e+00 2.983290e+00 2.496807e+00 1.532210e+00 8.127025e-01 8.762795e-01 2.112327e+00 6.621396e+01 -1.771478e-01 3.434372e-01 3.351167e-01 4.340732e-01 8.084554e-02 1.016262e-01 7.325690e-01 3.784611e-01 -1.645662e-01 1.837710e-01 1.039857e-01 -1.415403e-01 -2.020844e-01 1.525404e-01 -4.719962e-01 6.872325e-03 -1.426263e-01 -2.373120e-01 -4.053092e-02 -2.264098e-01 -1.367637e-01 1.703604e-02 -1.252977e-01 1.394814e-03 -8.310451e-02 3.927524e-01
<VARIANCE> 39
 2.569814e+01 2.740359e+01 2.207414e+01 2.201960e+01 1.836292e+01 1.208216e+01 1.860383e+01 1.770738e+01 1.738969e+01 1.697521e+01 1.304783e+01 1.498927e+01 1.657282e+01 1.537709e+00 2.224071e+00 1.510921e+00 1.285361e+00 1.582216e+00 1.235045e+00 2.889756e+00 1.752772e+00 1.461726e+00 1.845923e+00 1.481438e+00 1.402460e+00 1.212448e+00 2.029152e-01 5.822397e-01 2.624374e-01 2.411611e-01 3.269332e-01 2.927222e-01 5.200973e-01 3.611114e-01 2.603951e-01 3.175014e-01 2.654232e-01 2.693691e-01 3.277073e-01
<GCONST> 1.003323e+02
<STATE> 3
<MEAN> 39
 -8.603028e+00 6.156306e-01 4.752459e+00 1.051727e+01 3.477370e+00 8.591887e+00 4.770286e+00 2.274245e+00 1.089864e+00 7.031993e-02 8.520042e-01 -5.242110e-01 7.268922e+01 1.502998e+00 -3.476986e+00 -8.678705e-02 -1.018301e+00 -2.127339e+00 -8.944906e-01 -1.848793e+00 -1.496098e+00 -2.494500e-01 -8.277788e-01 4.317293e-01 -5.103796e-01 3.269252e+00 8.147616e-01 4.724357e-02 -2.986840e-02 -1.708304e-01 3.893923e-01 -1.584588e-01 -1.611561e+00 -7.885931e-01 -3.652486e-02 -8.553950e-01 -1.821669e-01 2.574494e-01 6.471423e-01
<VARIANCE> 39
 1.651676e+01 6.728143e+01 2.102495e+01 2.961133e+01 4.207070e+01 2.273043e+01 2.262959e+01 2.237690e+01 1.752191e+01 1.702421e+01 1.445195e+01 1.405250e+01 3.675234e+01 2.126702e+00 3.144553e+00 2.783701e+00 3.113130e+00 2.916619e+00 1.833823e+00 5.459761e+00 3.126700e+00 1.772054e+00 2.753642e+00 1.612949e+00 2.035319e+00 2.219263e+00 2.168232e-01 1.310746e+00 5.573201e-01 7.232438e-01 1.062433e+00 5.346290e-01 8.041041e-01 5.674489e-01 4.430584e-01 4.713476e-01 4.599402e-01 4.740760e-01 6.603073e-01
<GCONST> 1.179541e+02
<STATE> 4
<MEAN> 39
 -6.713237e-01 -5.154371e+00 5.466443e+00 8.918393e+00 2.393093e+00 6.782632e+00 -7.698401e+00 -6.585088e+00 -1.405003e+00 -6.874208e+00 8.633432e-01 -2.280186e-01 8.275261e+01 2.503612e+00 -2.559647e-01 -3.023742e-01 -4.503049e-01 1.305057e+00 -4.913471e-01 -5.183902e+00 -2.003271e+00 -1.096948e-01 -3.122272e+00 -5.516068e-01 1.074537e+00 2.202724e+00 -3.528322e-01 1.019626e+00 -2.874306e-01 1.638412e-01 7.023400e-01 -3.241202e-02 2.456025e-01 8.092506e-01 3.238864e-01 6.813219e-02 -8.666891e-02 3.414726e-01 -9.067725e-01
<VARIANCE> 39
 1.108355e+01 1.843408e+01 1.682812e+01 2.354147e+01 2.858253e+01 1.849512e+01 4.387014e+01 2.222481e+01 1.945366e+01 2.805998e+01 2.001715e+01 1.748762e+01 9.359614e+00 1.450836e+00 3.516711e+00 2.128199e+00 3.468160e+00 3.709836e+00 3.199994e+00 3.495074e+00 3.841403e+00 2.634320e+00 2.807489e+00 3.130839e+00 2.567519e+00 2.397583e+00 1.979076e-01 5.061383e-01 2.916878e-01 2.842696e-01 6.681981e-01 4.017768e-01 1.006427e+00 5.278993e-01 2.749747e-01 5.534161e-01 3.152985e-01 3.672936e-01 1.721227e-01
<GCONST> 1.116514e+02
<TRANSP> 5
 0.000000e+00 1.000000e+00 0.000000e+00 0.000000e+00 0.000000e+00
 0.000000e+00 8.354686e-01 1.645314e-01 0.000000e+00 0.000000e+00
 0.000000e+00 0.000000e+00 6.458282e-01 3.541719e-01 0.000000e+00
 0.000000e+00 0.000000e+00 0.000000e+00 4.873681e-01 5.126320e-01
 0.000000e+00 0.000000e+00 0.000000e+00 0.000000e+00 0.000000e+00
<ENDHMM>
~h "ea"
<BEGINHMM>
<NUMSTATES> 5
<STATE> 2
<MEAN> 39
 -7.391330e+00 -2.793995e-01 2.593855e-01 6.215729e+00 3.197216e+00 4.507828e+00 -2.881577e+00 1.071307e+00 3.293610e+00 -1.702413e+00 2.116229e-01 1.528084e+00 7.316100e+01 -8.549295e-03 6.045978e-03 9.986501e-03 -5.830497e-03 -9.514267e-03 -1.506619e-03 -1.506659e-03 -3.180315e-03 6.676455e-03 -5.438070e-03 4.050421e-03 -4.468870e-03 -5.404587e-04 -3.875157e-05 3.997293e-04 3.423740e-04 6.946201e-05 -2.319832e-04 -6.938387e-04 -4.412478e-05 -4.860927e-04 1.315680e-03 -9.365405e-04 -4.231212e-04 2.471485e-04 -2.932212e-04
<VARIANCE> 39
 8.975014e+01 5.484237e+01 3.303328e+01 4.558641e+01 4.748297e+01 5.002078e+01 9.481474e+01 4.729189e+01 3.321279e+01 5.181567e+01 3.966083e+01 2.784256e+01 7.606396e+01 2.211436e+00 2.785441e+00 1.626260e+00 1.902343e+00 2.248548e+00 2.452049e+00 4.360876e+00 2.359010e+00 2.040265e+00 2.571942e+00 1.964578e+00 1.676181e+00 2.222835e+00 2.912704e-01 4.665184e-01 2.795431e-01 3.127733e-01 3.728060e-01 3.948886e-01 6.864723e-01 4.205315e-01 3.711796e-01 4.366302e-01 3.409353e-01 2.969837e-01 3.289974e-01
<GCONST> 1.202872e+02
<STATE> 3
<MEAN> 39
 -7.391330e+00 -2.793995e-01 2.593855e-01 6.215729e+00 3.197216e+00 4.507828e+00 -2.881577e+00 1.071307e+00 3.293610e+00 -1.702413e+00 2.116229e-01 1.528084e+00 7.316100e+01 -8.549295e-03 6.045978e-03 9.986501e-03 -5.830497e-03 -9.514267e-03 -1.506619e-03 -1.506659e-03 -3.180315e-03 6.676455e-03 -5.438070e-03 4.050421e-03 -4.468870e-03 -5.404587e-04 -3.875157e-05 3.997293e-04 3.423740e-04 6.946201e-05 -2.319832e-04 -6.938387e-04 -4.412478e-05 -4.860927e-04 1.315680e-03 -9.365405e-04 -4.231212e-04 2.471485e-04 -2.932212e-04
<VARIANCE> 39
 8.975014e+01 5.484237e+01 3.303328e+01 4.558641e+01 4.748297e+01 5.002078e+01 9.481474e+01 4.729189e+01 3.321279e+01 5.181567e+01 3.966083e+01 2.784256e+01 7.606396e+01 2.211436e+00 2.785441e+00 1.626260e+00 1.902343e+00 2.248548e+00 2.452049e+00 4.360876e+00 2.359010e+00 2.040265e+00 2.571942e+00 1.964578e+00 1.676181e+00 2.222835e+00 2.912704e-01 4.665184e-01 2.795431e-01 3.127733e-01 3.728060e-01 3.948886e-01 6.864723e-01 4.205315e-01 3.711796e-01 4.366302e-01 3.409353e-01 2.969837e-01 3.289974e-01
<GCONST> 1.202872e+02
<STATE> 4
<MEAN> 39
 -7.391330e+00 -2.793995e-01 2.593855e-01 6.215729e+00 3.197216e+00 4.507828e+00 -2.881577e+00 1.071307e+00 3.293610e+00 -1.702413e+00 2.116229e-01 1.528084e+00 7.316100e+01 -8.549295e-03 6.045978e-03 9.986501e-03 -5.830497e-03 -9.514267e-03 -1.506619e-03 -1.506659e-03 -3.180315e-03 6.676455e-03 -5.438070e-03 4.050421e-03 -4.468870e-03 -5.404587e-04 -3.875157e-05 3.997293e-04 3.423740e-04 6.946201e-05 -2.319832e-04 -6.938387e-04 -4.412478e-05 -4.860927e-04 1.315680e-03 -9.365405e-04 -4.231212e-04 2.471485e-04 -2.932212e-04
<VARIANCE> 39
 8.975014e+01 5.484237e+01 3.303328e+01 4.558641e+01 4.748297e+01 5.002078e+01 9.481474e+01 4.729189e+01 3.321279e+01 5.181567e+01 3.966083e+01 2.784256e+01 7.606396e+01 2.211436e+00 2.785441e+00 1.626260e+00 1.902343e+00 2.248548e+00 2.452049e+00 4.360876e+00 2.359010e+00 2.040265e+00 2.571942e+00 1.964578e+00 1.676181e+00 2.222835e+00 2.912704e-01 4.665184e-01 2.795431e-01 3.127733e-01 3.728060e-01 3.948886e-01 6.864723e-01 4.205315e-01 3.711796e-01 4.366302e-01 3.409353e-01 2.969837e-01 3.289974e-01
<GCONST> 1.202872e+02
<TRANSP> 5
 0.000000e+00 1.000000e+00 0.000000e+00 0.000000e+00 0.000000e+00
 0.000000e+00 6.000000e-01 4.000000e-01 0.000000e+00 0.000000e+00
 0.000000e+00 0.000000e+00 6.000000e-01 4.000000e-01 0.000000e+00
 0.000000e+00 0.000000e+00 0.000000e+00 7.000000e-01 3.000000e-01
 0.000000e+00 0.000000e+00 0.000000e+00 0.000000e+00 0.000000e+00
<ENDHMM>
~h "eh"
<BEGINHMM>
<NUMSTATES> 5
<STATE> 2
<MEAN> 39
 3.461486e+00 -2.863269e+00 9.023163e-01 3.783270e+00 6.050271e+00 5.072541e+00 -1.720279e+01 -6.100166e+00 -1.123927e+00 -1.279198e+01 1.661434e+00 3.630310e+00 8.486469e+01 9.169368e-01 1.868625e-02 -1.279758e+00 -1.100704e+00 5.549523e-01 -9.285626e-01 -2.537269e+00 -8.970269e-02 2.486968e-01 -1.045274e+00 8.661804e-01 1.534956e+00 7.184970e-01 -5.442970e-01 -6.631824e-02 -2.722026e-02 2.014359e-01 -2.384623e-01 1.464225e-02 1.183067e+00 5.545273e-01 1.291752e-01 7.449372e-01 7.370050e-02 -8.415148e-02 -4.807452e-01
<VARIANCE> 39
 8.013086e+00 1.369298e+01 3.028763e+01 1.895496e+01 2.872257e+01 2.969999e+01 3.530137e+01 4.421857e+01 2.997913e+01 2.382246e+01 2.615851e+01 1.687973e+01 6.317548e+00 8.858889e-01 2.018284e+00 1.200225e+00 1.233303e+00 2.005680e+00 2.133448e+00 4.717128e+00 3.549192e+00 2.563179e+00 3.036898e+00 1.708194e+00 1.523520e+00 6.608992e-01 1.372207e-01 4.138547e-01 2.481904e-01 2.532830e-01 3.782107e-01 3.937430e-01 7.258456e-01 7.605666e-01 4.773633e-01 3.908965e-01 2.783912e-01 2.747547e-01 1.467461e-01
<GCONST> 1.048718e+02
<STATE> 3
<MEAN> 39
 4.507057e+00 -2.911481e+00 -1.984004e+00 1.598183e+00 5.627415e+00 4.168474e+00 -1.834922e+01 -4.279848e+00 -4.155853e-02 -1.321685e+01 4.401561e+00 7.711317e+00 8.517323e+01 -7.457671e-02 6.640587e-01 -3.317307e-01 1.548877e-01 1.962822e-01 6.133249e-01 1.036075e+00 -8.033728e-02 7.108627e-02 5.015275e-01 -3.949603e-01 -5.231143e-02 -7.119080e-01 -2.626840e-01 2.983926e-01 2.470417e-01 3.787916e-01 1.667925e-01 4.572509e-01 6.967030e-01 -1.694510e-01 5.840035e-02 4.182411e-01 -4.620458e-01 -6.320972e-01 -4.159237e-01
<VARIANCE> 39
 5.919946e+00 1.191245e+01 2.830849e+01 2.084599e+01 4.918204e+01 2.456371e+01 2.699910e+01 3.046670e+01 2.706432e+01 2.790433e+01 2.482921e+01 1.156723e+01 5.686933e+00 3.110986e-01 1.033094e+00 5.387893e-01 1.462971e+00 1.397428e+00 2.624723e+00 2.369578e+00 2.973049e+00 1.709173e+00 1.857921e+00 3.024029e+00 2.358341e+00 6.927273e-01 9.719816e-02 1.392240e-01 1.290857e-01 1.874934e-01 2.961779e-01 4.159546e-01 4.301594e-01 5.046105e-01 3.666679e-01 4.377981e-01 4.328986e-01 2.491329e-01 5.818425e-02
<GCONST> 9.623384e+01
<STATE> 4
<MEAN> 39
 -1.083236e+00 3.003122e+00 -2.610199e-01 5.408981e+00 1.300950e+00 2.770158e+00 -7.450763e+00 -2.996262e+00 3.429447e+00 -2.627442e+00 -1.167158e+00 1.136563e+00 7.598734e+01 -6.444319e-01 4.670525e-01 1.833225e-01 4.679806e-01 3.862500e-01 6.651968e-01 1.056484e+00 1.076799e-02 2.806747e-01 9.558389e-01 -3.977010e-01 -7.222716e-01 -8.222200e-01 -1.221904e-01 -9.095060e-02 1.319713e-01 -4.396651e-03 3.998382e-02 1.156325e-01 -9.659328e-03 4.088831e-02 5.163385e-02 5.910426e-02 3.620215e-02 -6.370132e-02 1.851181e-03
<VARIANCE> 39
 4.600852e+01 4.052712e+01 3.893668e+01 2.453206e+01 7.569416e+01 8.636981e+01 6.661942e+01 5.958775e+01 6.259953e+01 6.386389e+01 8.636796e+01 5.463851e+01 4.013764e+01 2.318211e+00 3.144634e+00 2.102431e+00 2.153353e+00 2.833824e+00 4.797246e+00 5.287303e+00 3.402444e+00 3.122327e+00 4.220826e+00 4.423978e+00 3.527623e+00 3.218368e+00 2.869395e-01 5.294012e-01 4.517000e-01 4.137559e-01 4.129987e-01 5.581148e-01 5.240517e-01 6.079721e-01 4.314078e-01 5.483808e-01 4.813006e-01 4.367482e-01 3.163450e-01
<GCONST> 1.287531e+02
<TRANSP> 5
 0.000000e+00 1.000000e+00 0.000000e+00 0.000000e+00 0.000000e+00
 0.000000e+00 5.987135e-01 4.012866e-01 0.000000e+00 0.000000e+00
 0.000000e+00 0.000000e+00 7.528279e-01 2.471721e-01 0.000000e+00
 0.000000e+00 0.000000e+00 0.000000e+00 6.910669e-01 3.089331e-01
 0.000000e+00 0.000000e+00 0.000000e+00 0.000000e+00 0.000000e+00
<ENDHMM>
~h "er"
<BEGINHMM>
<NUMSTATES> 5
<STATE> 2
<MEAN> 39
