~o
<STREAMINFO> 1 39
<VECSIZE> 39<NULLD><MFCC_D_A_0><DIAGC>
~s "silst"
<MEAN> 39
 -1.692950e+01 -5.881679e-01 -2.938624e+00 4.067899e+00 1.790029e+00 5.384017e+00 3.847744e+00 4.931302e+00 3.807163e+00 3.198066e+00 4.082342e+00 4.972788e+00 6.439089e+01 -1.434564e-01 -3.942409e-01 3.193679e-01 9.775240e-03 -3.646032e-01 -8.420666e-02 -2.582357e-01 -5.529378e-02 3.679950e-01 -2.490121e-01 2.262741e-01 -1.812383e-01 4.088742e-01 -2.492530e-02 -8.440700e-02 1.021034e-01 -2.267303e-02 -8.993551e-02 -2.486864e-02 -8.048222e-02 -4.275842e-02 1.269814e-01 -9.123529e-02 3.895240e-02 -1.303112e-02 1.163116e-01
<VARIANCE> 39
 7.212359e+00 1.516083e+01 1.708804e+01 1.663483e+01 1.614557e+01 1.256448e+01 1.397667e+01 1.377612e+01 1.234643e+01 1.265234e+01 1.066272e+01 1.054210e+01 8.904945e+00 6.681291e-01 1.545697e+00 1.565288e+00 1.501101e+00 2.239325e+00 1.427714e+00 1.751001e+00 1.536507e+00 1.953863e+00 1.500889e+00 1.437888e+00 1.105535e+00 8.860426e-01 1.082675e-01 2.948371e-01 2.643554e-01 2.434190e-01 3.384416e-01 2.634866e-01 3.003430e-01 2.900238e-01 3.370895e-01 2.624561e-01 2.404617e-01 2.118422e-01 1.437506e-01
<GCONST> 9.062364e+01
~h "b"
<BEGINHMM>
<NUMSTATES> 5
<STATE> 2
<MEAN> 39
 -3.284420e+00 5.476757e+00 4.297062e+00 1.042559e+01 6.240822e+00 5.108088e+00 -5.104791e+00 -4.780796e-01 4.942331e+00 -1.211717e+00 -4.066189e+00 -1.890461e+00 7.454034e+01 -1.136052e+00 1.950010e+00 4.213323e-01 8.459218e-01 8.983747e-01 5.592560e-01 1.829324e+00 1.064274e+00 -8.498469e-02 1.203353e+00 6.699103e-01 -6.475749e-02 -1.800984e+00 -1.746999e-01 -8.246394e-02 1.986132e-01 7.673673e-02 5.720845e-02 1.280628e-01 1.580677e-01 5.068543e-02 -1.657289e-01 -1.553403e-01 1.232562e-01 7.961927e-02 -4.154523e-02
<VARIANCE> 39
 3.480791e+01 4.202043e+01 1.400525e+01 5.791732e+01 4.350031e+01 6.753413e+01 8.454877e+01 7.331959e+01 1.976366e+01 2.369224e+01 2.719697e+01 1.202030e+01 2.452387e+01 1.700267e+00 2.557686e+00 1.864016e+00 2.120080e+00 1.304031e+00 5.408580e+00 3.566917e+00 2.905556e+00 1.188509e+00 3.017735e+00 2.523458e+00 1.713678e+00 1.548732e+00 1.492197e-01 3.864957e-01 3.219419e-01 3.605759e-01 3.688855e-01 3.853501e-01 3.702747e-01 4.618742e-01 1.967196e-01 2.691350e-01 2.318943e-01 3.504065e-01 1.090150e-01
<GCONST> 1.114461e+02
<STATE> 3
<MEAN> 39
 -8.131521e+00 9.842488e+00 3.693100e+00 8.549294e+00 5.390546e+00 5.575856e+00 2.976578e+00 5.683846e+00 5.112769e+00 2.004849e+00 -1.001561e+00 -1.150826e+00 6.865192e+01 -1.163363e+00 8.833712e-01 1.034375e+00 8.749108e-01 8.507237e-01 9.521379e-01 1.565085e+00 4.671242e-01 -2.853206e-01 6.726545e-01 6.947008e-01 -3.981113e-03 -1.123795e+00 3.884037e-01 -3.816327e-01 -1.988070e-02 -5.535293e-03 -1.192331e-01 -2.506855e-01 -5.669040e-01 -2.773061e-01 -1.560028e-01 -5.441978e-01 -2.708711e-01 -4.695532e-02 4.794327e-01
<VARIANCE> 39
 3.427365e+01 2.085239e+01 1.275282e+01 1.414820e+01 1.316941e+01 1.526758e+01 1.118305e+01 1.433871e+01 1.001871e+01 1.258678e+01 1.239219e+01 1.113609e+01 1.037058e+01 2.152910e+00 2.239722e+00 1.184562e+00 2.149513e+00 2.751996e+00 4.096197e+00 2.476992e+00 2.387821e+00 1.183352e+00 1.832222e+00 1.880313e+00 1.551178e+00 1.224955e+00 1.049199e-01 4.074971e-01 2.012303e-01 1.686452e-01 2.833713e-01 5.217807e-01 3.477487e-01 3.580121e-01 1.954277e-01 2.939440e-01 2.542171e-01 1.569327e-01 9.403244e-02
<GCONST> 9.571051e+01
<STATE> 4
<MEAN> 39
 -8.536306e+00 1.248659e+01 7.834714e+00 1.216579e+01 7.898633e+00 8.508883e+00 6.091930e+00 5.947237e+00 3.099081e+00 8.947479e-01 -6.294442e-01 -1.295172e+00 6.794027e+01 3.553670e-01 -3.891360e-01 -9.689728e-02 -2.636976e-02 -3.028771e-01 -1.071820e-01 -1.098296e-01 -2.727843e-01 -2.155094e-01 -2.139578e-01 -4.358463e-02 -3.874321e-03 4.359683e-01 4.043397e-01 -4.355748e-01 -3.038713e-01 -2.431830e-01 -3.137886e-01 -3.096405e-01 -5.000134e-01 -2.662292e-01 -1.724348e-02 -1.847092e-01 -1.221255e-01 1.134412e-02 4.644835e-01
<VARIANCE> 39
 6.871213e+00 6.191770e+00 5.073450e+00 6.543342e+00 8.065204e+00 1.191321e+01 9.326264e+00 7.667227e+00 7.579685e+00 1.145124e+01 1.323985e+01 1.062232e+01 5.318469e+00 1.270864e+00 2.820366e+00 9.808753e-01 7.387117e-01 1.749522e+00 1.292187e+00 1.554829e+00 1.436153e+00 9.556534e-01 1.198170e+00 9.498648e-01 7.688589e-01 1.502629e+00 1.944016e-01 2.699369e-01 1.129631e-01 1.369015e-01 2.783250e-01 3.339771e-01 3.918048e-01 3.202584e-01 1.625367e-01 2.562388e-01 2.151952e-01 1.535375e-01 2.031937e-01
<GCONST> 8.189800e+01
<TRANSP> 5
 0.000000e+00 1.000000e+00 0.000000e+00 0.000000e+00 0.000000e+00
 0.000000e+00 3.884377e-01 6.115623e-01 0.000000e+00 0.000000e+00
 0.000000e+00 0.000000e+00 5.167295e-01 4.832706e-01 0.000000e+00
 0.000000e+00 0.000000e+00 0.000000e+00 8.571522e-01 1.428477e-01
 0.000000e+00 0.000000e+00 0.000000e+00 0.000000e+00 0.000000e+00
<ENDHMM>
~h "d"
<BEGINHMM>
<NUMSTATES> 5
<STATE> 2
<MEAN> 39
 -8.278906e-01 6.200514e-01 -3.136236e+00 6.288681e+00 7.900775e+00 7.326931e+00 -5.765878e+00 -3.681052e+00 -9.001480e-01 -4.841362e+00 -1.527701e+00 3.428127e-01 7.678065e+01 2.289464e-01 -3.655769e-01 3.100755e-02 -2.821568e-02 -2.775936e-01 -2.358653e-02 -1.320985e-01 -3.859596e-01 -4.423270e-01 -5.122630e-01 -2.908757e-01 4.388484e-01 3.076578e-01 -2.954535e-01 2.865081e-01 2.958872e-01 1.193713e-01 -1.294553e-01 -1.046049e-01 2.913426e-01 4.284212e-01 2.846887e-01 1.916058e-01 5.217351e-03 6.748629e-02 -3.190953e-01
<VARIANCE> 39
 3.889380e+01 3.831786e+01 4.241412e+01 6.233191e+01 4.833584e+01 4.050731e+01 9.863812e+01 6.057639e+01 5.433841e+01 4.261244e+01 3.338907e+01 2.692251e+01 3.500618e+01 4.665710e+00 5.898742e+00 3.466888e+00 3.071898e+00 2.587646e+00 5.481546e+00 1.483979e+01 4.301151e+00 3.893038e+00 4.916340e+00 3.057702e+00 2.026280e+00 6.099949e+00 5.614381e-01 8.508809e-01 7.016774e-01 6.216640e-01 5.111592e-01 7.901112e-01 1.806039e+00 9.440799e-01 8.700136e-01 9.510573e-01 6.227570e-01 4.466472e-01 6.872209e-01
<GCONST> 1.365302e+02
<STATE> 3
<MEAN> 39
 -2.012087e+00 2.916082e+00 -8.800634e-01 7.848890e+00 9.280825e+00 9.190675e+00 -4.784251e+00 -3.369087e+00 -4.115287e-01 -4.574562e+00 -2.618224e+00 1.230092e+00 7.465180e+01 -1.470982e+00 6.922864e-01 7.678013e-01 5.055012e-01 -4.783075e-01 1.881511e-01 2.217531e+00 1.384698e+00 1.478404e-01 9.734442e-01 5.367898e-01 5.063756e-01 -1.452075e+00 -3.942125e-02 -1.255881e-01 4.065488e-02 -2.030114e-02 -1.894835e-01 -2.998555e-01 -1.463300e-01 6.723051e-02 9.019437e-02 4.966637e-02 2.208326e-01 -1.198307e-02 8.321360e-02
<VARIANCE> 39
 2.873944e+01 3.049126e+01 2.620543e+01 3.339930e+01 5.461068e+01 3.830183e+01 9.810992e+01 4.200671e+01 4.484638e+01 3.016902e+01 2.562783e+01 2.740915e+01 2.753296e+01 1.926302e+00 2.967103e+00 1.874935e+00 3.400474e+00 4.679218e+00 3.872657e+00 7.534785e+00 2.463076e+00 3.994891e+00 4.189106e+00 3.155255e+00 2.821411e+00 1.999703e+00 2.180281e-01 5.163913e-01 2.564046e-01 4.063681e-01 7.962082e-01 6.459472e-01 1.519460e+00 4.494275e-01 4.611768e-01 7.081882e-01 3.811648e-01 4.149703e-01 3.970504e-01
<GCONST> 1.240089e+02
<STATE> 4
<MEAN> 39
 -8.572994e+00 6.110309e+00 8.235107e-01 8.662446e+00 8.662985e+00 8.897158e+00 1.293671e+00 -4.560569e-01 -8.554144e-01 -1.790297e-01 1.067513e+00 2.813158e+00 6.859451e+01 -7.120376e-01 -1.739622e-01 2.816980e-01 1.582882e-01 -4.210884e-01 -4.204883e-01 4.106643e-01 5.486868e-01 1.542316e-01 2.216232e-01 2.820727e-01 1.857879e-01 -4.129625e-01 3.327534e-01 -3.781677e-01 -1.977215e-01 -1.054060e-01 -1.878873e-01 -2.780988e-01 -4.290153e-01 -1.336854e-01 5.608347e-02 -2.201322e-01 -1.078217e-01 -1.217525e-01 4.169638e-01
<VARIANCE> 39
 3.206070e+01 2.017948e+01 1.426474e+01 2.246329e+01 4.119736e+01 2.530902e+01 3.993181e+01 2.214198e+01 2.278828e+01 2.646115e+01 2.441971e+01 1.664344e+01 2.451352e+01 1.183771e+00 1.867502e+00 1.326633e+00 1.665614e+00 2.271953e+00 2.259694e+00 2.459887e+00 1.839517e+00 2.028888e+00 2.032753e+00 1.420151e+00 1.530781e+00 1.092824e+00 2.303092e-01 3.924812e-01 1.656215e-01 2.267425e-01 3.396951e-01 3.629518e-01 7.603931e-01 3.682072e-01 3.324084e-01 4.622432e-01 2.884570e-01 2.175258e-01 3.262919e-01
<GCONST> 1.054623e+02
<TRANSP> 5
 0.000000e+00 1.000000e+00 0.000000e+00 0.000000e+00 0.000000e+00
 0.000000e+00 5.172676e-01 4.827324e-01 0.000000e+00 0.000000e+00
 0.000000e+00 0.000000e+00 4.088541e-01 5.911459e-01 0.000000e+00
 0.000000e+00 0.000000e+00 0.000000e+00 6.857790e-01 3.142211e-01
 0.000000e+00 0.000000e+00 0.000000e+00 0.000000e+00 0.000000e+00
<ENDHMM>
~h "f"
<BEGINHMM>
<NUMSTATES> 5
<STATE> 2
<MEAN> 39
 -1.573698e+01 -8.831651e+00 -4.193845e-01 3.406859e+00 1.276821e+00 5.589338e+00 6.217863e+00 2.782731e+00 4.393353e+00 -1.247595e+00 4.997392e+00 -8.632052e-01 7.759569e+01 -6.984916e-01 -4.226178e-01 -2.096018e-01 -4.393456e-01 -4.812504e-01 -5.089745e-02 4.676482e-01 1.623346e-01 4.556480e-01 2.747042e-01 3.712286e-01 -3.896396e-02 -2.140505e-01 4.350641e-01 1.814529e-01 6.445260e-03 1.742397e-01 1.175448e-01 -1.335127e-02 -3.861409e-01 -1.932728e-01 -1.310065e-01 -2.355577e-01 -3.178463e-01 -8.832004e-03 3.710416e-02
<VARIANCE> 39
 2.175017e+01 5.305981e+01 7.046914e+00 1.622624e+01 1.300934e+01 1.747243e+01 1.992036e+01 2.118859e+01 1.253587e+01 2.351246e+01 1.466872e+01 1.937391e+01 6.766783e+01 3.179230e+00 2.951772e+00 9.437795e-01 1.763389e+00 1.479117e+00 1.424834e+00 3.736809e+00 1.796230e+00 1.458456e+00 1.512351e+00 2.325017e+00 1.004922e+00 1.185878e+00 3.522885e-01 5.880710e-01 1.989067e-01 2.757584e-01 2.256270e-01 2.941189e-01 8.327253e-01 4.484678e-01 2.721553e-01 3.705310e-01 2.980722e-01 2.143474e-01 3.255091e-01
<GCONST> 1.033552e+02
<STATE> 3
<MEAN> 39
 -1.630254e+01 -4.679893e+00 -1.059196e+00 4.392459e+00 6.696951e-01 6.478673e+00 6.293576e+00 4.401598e+00 5.538991e+00 1.496413e+00 3.856592e+00 3.213787e+00 6.924447e+01 2.829509e+00 -4.657167e-01 3.134792e-02 1.310246e+00 1.068480e+00 -3.587634e-01 -3.489471e+00 -1.908395e+00 -6.170393e-01 -2.039782e+00 -1.883165e+00 -1.000469e+00 2.041403e+00 1.004408e+00 -1.296065e-01 2.670681e-01 5.984876e-01 6.151280e-01 -2.816950e-01 -1.362674e+00 -5.247042e-01 -1.336223e-01 -5.224409e-01 -3.561846e-01 -5.155960e-01 1.038804e+00
<VARIANCE> 39
 1.281342e+01 4.399127e+01 7.982377e+00 1.312537e+01 2.514486e+01 2.093098e+01 2.168646e+01 1.859787e+01 1.585460e+01 2.112025e+01 1.347294e+01 3.432913e+01 7.265484e+01 3.917794e+00 6.711967e+00 1.050304e+00 3.615108e+00 3.162873e+00 1.999611e+00 8.312859e+00 3.662552e+00 1.984087e+00 3.304103e+00 2.134975e+00 3.300786e+00 7.794724e+00 3.538283e-01 8.746586e-01 2.355094e-01 6.473545e-01 3.430762e-01 2.229349e-01 1.642866e+00 6.465630e-01 4.832100e-01 4.883169e-01 4.089357e-01 8.152267e-01 8.717653e-01
<GCONST> 1.186717e+02
<STATE> 4
<MEAN> 39
 -8.571257e+00 -9.223421e+00 1.249727e+00 1.051245e+01 7.587934e+00 7.015600e+00 -1.707916e+00 -4.034557e+00 3.402438e+00 -3.846157e+00 1.611344e+00 -2.113653e+00 8.208928e+01 4.360961e-01 -2.410187e-01 -5.387760e-02 1.725458e-02 2.355254e-01 7.584356e-02 7.720652e-02 -1.154284e-01 -1.570758e-01 2.174993e-01 1.669122e-01 -1.985376e-01 5.814254e-01 -1.899188e-01 1.897871e-01 -1.675800e-03 -4.867484e-02 -1.161770e-01 -3.309529e-02 1.591930e-01 2.352998e-01 1.087820e-01 2.784431e-01 7.587947e-02 1.380413e-01 -3.761285e-01
<VARIANCE> 39
 5.985305e+01 2.634290e+01 2.047694e+01 5.142094e+01 7.413688e+01 1.485930e+01 1.380266e+02 2.731445e+01 2.245240e+01 2.412453e+01 3.962590e+01 1.906314e+01 3.200138e+01 7.466139e+00 3.851022e+00 2.175460e+00 4.725286e+00 6.968144e+00 1.749375e+00 1.797281e+01 4.154152e+00 3.348349e+00 3.937474e+00 3.689361e+00 3.530782e+00 6.745520e+00 9.272670e-01 7.056512e-01 4.217901e-01 7.419647e-01 9.336907e-01 3.857265e-01 3.332465e+00 6.746924e-01 7.094824e-01 8.467677e-01 7.146769e-01 6.082447e-01 9.436145e-01
<GCONST> 1.339864e+02
<TRANSP> 5
 0.000000e+00 1.000000e+00 0.000000e+00 0.000000e+00 0.000000e+00
 0.000000e+00 8.554360e-01 1.445640e-01 0.000000e+00 0.000000e+00
 0.000000e+00 0.000000e+00 3.804731e-01 6.195269e-01 0.000000e+00
 0.000000e+00 0.000000e+00 0.000000e+00 8.623496e-01 1.376504e-01
 0.000000e+00 0.000000e+00 0.000000e+00 0.000000e+00 0.000000e+00
<ENDHMM>
~h "g"
<BEGINHMM>
<NUMSTATES> 5
<STATE> 2
<MEAN> 39
 -1.140761e+01 5.040879e+00 2.679119e+00 1.148313e+01 8.527236e+00 7.992401e+00 3.195547e+00 3.550115e+00 2.291340e+00 8.893732e-01 -9.941995e-01 -1.629959e+00 6.780197e+01 -5.099950e-02 -1.178734e+00 -5.046525e-01 -6.686511e-01 -1.344563e+00 -6.990142e-01 3.973999e-01 5.858510e-01 1.587406e-01 -8.433922e-02 5.459101e-01 5.794638e-01 4.965557e-01 6.269450e-01 -6.622706e-01 -1.907131e-01 -4.071883e-01 -6.846593e-01 -5.638174e-01 -3.339195e-01 1.192779e-01 1.049831e-01 -4.643381e-01 -6.491177e-02 -8.254374e-02 8.616025e-01
<VARIANCE> 39
 1.533420e+01 2.565958e+01 1.994010e+01 2.850737e+01 1.719380e+01 1.196705e+01 2.158726e+01 1.582201e+01 1.310872e+01 1.352831e+01 1.456344e+01 1.429016e+01 1.071496e+01 3.181555e+00 5.812152e+00 2.740546e+00 3.657300e+00 6.366475e+00 3.690331e+00 2.407300e+00 2.337284e+00 2.316542e+00 2.189105e+00 1.652526e+00 1.283126e+00 4.694243e+00 3.856029e-01 5.589433e-01 4.274892e-01 5.018914e-01 8.222677e-01 5.449377e-01 4.464499e-01 5.111980e-01 3.901693e-01 4.910105e-01 3.559334e-01 2.701360e-01 4.833143e-01
<GCONST> 1.119956e+02
<STATE> 3
<MEAN> 39
 -3.598812e+00 -7.212768e+00 -9.469606e-01 5.269310e+00 -6.455793e+00 -2.278462e+00 2.220878e+00 7.413675e+00 3.482151e+00 -4.314192e+00 1.241439e+00 -9.327717e-01 7.980238e+01 2.223624e+00 -4.772564e-01 1.433024e+00 -3.926347e-02 -9.961234e-01 -1.155015e+00 -2.111951e+00 -3.426820e-01 5.383543e-01 -1.667750e+00 -1.213651e+00 -1.189421e+00 2.481766e+00 -2.126769e-01 1.479880e+00 7.981684e-01 6.475362e-01 1.557306e+00 8.962312e-01 -8.827198e-01 -7.684777e-01 1.978907e-01 3.370138e-01 -5.548646e-01 -2.624928e-01 -7.899796e-01
<VARIANCE> 39
 1.114074e+01 4.628677e+01 2.877844e+01 5.387366e+01 8.026759e+01 4.077157e+01 4.372998e+01 5.667010e+01 3.468165e+01 3.824986e+01 2.417334e+01 1.790622e+01 2.318527e+01 1.587583e+00 7.979895e+00 3.685303e+00 5.350715e+00 1.280980e+01 6.461424e+00 6.973263e+00 4.329242e+00 2.736862e+00 4.160536e+00 3.028118e+00 1.761574e+00 3.690138e+00 2.909414e-01 6.230239e-01 7.296234e-01 6.821179e-01 7.748454e-01 4.906712e-01 1.033347e+00 5.598578e-01 5.699537e-01 9.706668e-01 4.524693e-01 5.542388e-01 3.344920e-01
<GCONST> 1.293481e+02
<STATE> 4
<MEAN> 39
 3.961982e-01 2.448514e+00 5.060391e+00 7.308548e+00 2.740633e+00 3.402401e+00 -8.230845e+00 1.211098e+00 7.032190e+00 -4.239316e+00 -6.026895e+00 -5.340263e+00 7.995130e+01 5.255836e-01 8.785059e-01 1.505371e-01 -1.336423e-01 1.129937e+00 5.888330e-01 -1.586319e+00 -1.187120e+00 2.004109e-01 -8.118565e-02 -5.493445e-01 -9.712267e-02 6.827259e-02 -2.165962e-01 -2.492118e-01 -4.333394e-01 -1.907795e-01 -1.334783e-01 -1.376042e-01 2.722041e-01 1.454652e-01 -1.844998e-01 7.411085e-02 3.751242e-01 2.862336e-01 -1.231482e-01
<VARIANCE> 39
 1.191603e+01 4.084009e+01 3.164566e+01 6.590054e+01 8.314338e+01 1.236311e+02 5.775813e+01 8.535025e+01 3.042424e+01 4.321009e+01 2.097652e+01 1.632210e+01 1.345364e+01 1.841944e+00 3.030999e+00 2.885443e+00 2.545572e+00 2.253289e+00 3.798575e+00 9.715555e+00 3.555514e+00 3.775293e+00 3.647881e+00 2.563547e+00 2.718812e+00 7.744325e-01 2.396700e-01 4.824038e-01 5.769808e-01 5.822355e-01 4.608235e-01 4.260679e-01 1.142802e+00 5.629300e-01 6.706663e-01 5.124885e-01 3.960062e-01 3.680970e-01 1.574621e-01
<GCONST> 1.224169e+02
<TRANSP> 5
 0.000000e+00 1.000000e+00 0.000000e+00 0.000000e+00 0.000000e+00
 0.000000e+00 8.197613e-01 1.802387e-01 0.000000e+00 0.000000e+00
 0.000000e+00 0.000000e+00 6.674754e-01 3.325246e-01 0.000000e+00
 0.000000e+00 0.000000e+00 0.000000e+00 7.469921e-01 2.530078e-01
 0.000000e+00 0.000000e+00 0.000000e+00 0.000000e+00 0.000000e+00
<ENDHMM>
~h "k"
<BEGINHMM>
<NUMSTATES> 5
<STATE> 2
<MEAN> 39
 -1.285809e+01 1.211489e+00 -1.640860e-01 7.647498e+00 2.559072e+00 2.707622e+00 7.963946e-01 3.134058e+00 2.412745e+00 9.916112e-01 1.581980e+00 2.675697e+00 6.675947e+01 -1.969788e-01 -1.097099e+00 -1.063272e+00 -9.861341e-01 -9.126809e-01 -1.913630e-01 8.395464e-01 5.127499e-01 -1.943462e-01 -1.441172e-01 7.267494e-01 2.608308e-01 4.336620e-01 5.439215e-01 -4.211183e-01 -1.147392e-02 -1.651244e-01 -3.185629e-01 -2.111605e-01 -2.940460e-01 3.365007e-02 2.317576e-02 -4.539253e-01 -8.993591e-02 -1.041499e-01 7.367123e-01
<VARIANCE> 39
 2.253217e+01 2.566001e+01 2.266035e+01 5.453347e+01 3.951517e+01 2.194040e+01 2.556473e+01 2.072490e+01 2.046086e+01 3.443494e+01 2.790886e+01 2.209213e+01 2.582203e+01 4.621459e+00 5.180892e+00 2.221546e+00 3.365133e+00 4.565643e+00 3.480432e+00 4.294775e+00 3.246302e+00 2.092848e+00 4.443328e+00 2.604589e+00 2.148535e+00 7.690691e+00 3.017568e-01 6.500175e-01 5.430539e-01 5.536470e-01 5.315230e-01 4.381654e-01 6.709490e-01 4.794646e-01 3.786586e-01 5.187520e-01 3.853080e-01 3.290408e-01 6.146963e-01
<GCONST> 1.214057e+02
<STATE> 3
<MEAN> 39
 -5.983156e+00 -1.009211e+01 -3.357250e+00 3.745249e+00 -5.745397e+00 -1.222180e+00 1.885207e+00 6.327937e+00 9.866767e-01 -6.595242e+00 3.296825e+00 1.419244e+00 7.940454e+01 1.227275e+00 -2.710353e-01 1.110824e+00 4.806249e-01 -2.300506e-01 -4.734837e-02 -6.435423e-01 -1.757197e-01 -3.658310e-02 -8.479149e-01 -6.240926e-01 -4.045133e-01 1.274310e+00 -4.447941e-01 1.303929e+00 4.909098e-01 4.554840e-01 9.955686e-01 5.674250e-01 -4.229902e-01 -4.744534e-01 2.281687e-01 6.802758e-01 -3.001696e-01 1.260534e-01 -1.180926e+00
<VARIANCE> 39
 2.319449e+01 5.293569e+01 3.899447e+01 5.809728e+01 6.483220e+01 5.175433e+01 6.113779e+01 7.039291e+01 3.750098e+01 4.494379e+01 2.488202e+01 2.494882e+01 2.530267e+01 3.673736e+00 9.287827e+00 3.999634e+00 3.515297e+00 5.828338e+00 5.259163e+00 6.210742e+00 4.043310e+00 2.553211e+00 5.456241e+00 2.311254e+00 2.024379e+00 8.432908e+00 5.275410e-01 1.082391e+00 1.024353e+00 7.574179e-01 9.376467e-01 8.868738e-01 8.739444e-01 8.992225e-01 5.462450e-01 9.227580e-01 7.537196e-01 3.609901e-01 7.042127e-01
<GCONST> 1.356446e+02
<STATE> 4
<MEAN> 39
 -1.230902e+01 -3.421113e-02 -1.549070e+00 4.639010e+00 6.806333e-01 4.794202e+00 4.156241e+00 5.792216e+00 1.919179e+00 -9.222928e-01 1.856598e+00 3.763390e+00 6.840149e+01 -5.229408e-01 6.883758e-01 2.853054e-01 2.069918e-01 6.239060e-01 3.058349e-01 -3.991450e-01 -3.356041e-01 3.150977e-01 6.297265e-01 3.817074e-02 -4.128410e-03 -7.793936e-01 1.163851e-01 -1.720342e-01 -1.188315e-01 -7.539135e-02 -7.769200e-02 -1.110806e-01 -1.012741e-01 -1.332293e-02 -4.923564e-02 -1.633203e-01 4.613400e-02 2.234747e-02 2.036086e-01
<VARIANCE> 39
 4.122654e+01 2.892081e+01 1.623328e+01 2.230412e+01 2.218157e+01 2.170000e+01 5.190220e+01 2.862477e+01 1.932524e+01 2.562350e+01 1.710563e+01 2.839334e+01 4.260501e+01 2.221730e+00 3.074373e+00 2.004099e+00 1.738535e+00 2.514613e+00 2.264299e+00 3.241775e+00 2.057775e+00 1.646121e+00 3.137792e+00 1.731563e+00 1.380616e+00 1.877558e+00 2.250373e-01 4.308897e-01 3.117853e-01 3.762083e-01 3.973218e-01 3.463084e-01 5.447658e-01 2.854730e-01 2.842373e-01 4.358823e-01 2.393463e-01 2.762241e-01 3.634520e-01
<GCONST> 1.100879e+02
<TRANSP> 5
 0.000000e+00 1.000000e+00 0.000000e+00 0.000000e+00 0.000000e+00
 0.000000e+00 8.184433e-01 1.815567e-01 0.000000e+00 0.000000e+00
 0.000000e+00 0.000000e+00 6.865073e-01 3.134927e-01 0.000000e+00
 0.000000e+00 0.000000e+00 0.000000e+00 7.908385e-01 2.091615e-01
 0.000000e+00 0.000000e+00 0.000000e+00 0.000000e+00 0.000000e+00
<ENDHMM>
~h "l"
<BEGINHMM>
<NUMSTATES> 5
<STATE> 2
<MEAN> 39
 3.401829e+00 -3.435994e+00 -6.822799e-01 1.017680e+01 8.191845e+00 4.934449e+00 -1.212034e+01 -3.912800e+00 -1.188297e+00 -1.199531e+01 -4.468020e+00 1.768618e+00 8.159196e+01 1.073886e-01 -1.703153e-01 1.418292e-01 -3.361953e-02 1.068777e-02 3.319151e-01 -1.211867e-01 -4.052702e-01 -4.502567e-01 -4.348669e-01 9.990770e-02 4.040771e-01 1.725178e-01 -2.760919e-01 1.593541e-01 1.437448e-01 -5.770966e-02 -1.348815e-01 1.409245e-01 3.854759e-01 1.473275e-01 8.250358e-02 2.846671e-01 7.669637e-02 -3.366440e-02 -2.626143e-01
<VARIANCE> 39
 6.527939e+00 2.100859e+01 2.009513e+01 3.563972e+01 3.312017e+01 3.263939e+01 4.047935e+01 4.188169e+01 2.711414e+01 3.831622e+01 2.926825e+01 2.840332e+01 7.588185e+00 6.767047e-01 1.205213e+00 1.258263e+00 1.409461e+00 1.702819e+00 2.154826e+00 4.922662e+00 2.947579e+00 2.528098e+00 2.539673e+00 2.613825e+00 2.140145e+00 8.064033e-01 1.576598e-01 2.391387e-01 2.193462e-01 2.371788e-01 3.463541e-01 3.344510e-01 7.323411e-01 5.469979e-01 4.762495e-01 4.436205e-01 5.629818e-01 4.941117e-01 1.501763e-01
<GCONST> 1.069644e+02
<STATE> 3
<MEAN> 39
 5.671208e-01 3.657097e-01 3.995820e+00 9.838114e+00 5.173125e+00 8.497366e+00 -4.950822e+00 -2.384875e+00 -3.237727e+00 -1.298415e+01 -6.683215e+00 1.726124e+00 7.856585e+01 -5.692520e-01 3.885142e-01 3.354434e-01 2.986909e-01 1.579436e-01 2.179594e-01 7.818184e-01 3.080679e-01 1.084566e-01 4.949209e-01 -2.228754e-01 -1.783679e-01 -6.299524e-01 -4.553042e-02 -1.490197e-02 -1.456953e-01 -8.776975e-02 -1.371893e-02 -1.618334e-01 -9.859300e-02 6.996728e-02 1.622760e-01 1.736511e-01 1.461998e-01 -4.858774e-02 -1.727288e-02
<VARIANCE> 39
 1.436397e+01 2.722935e+01 2.724287e+01 3.105563e+01 2.365463e+01 2.266593e+01 3.064177e+01 2.763457e+01 3.019744e+01 3.674919e+01 1.512211e+01 1.761068e+01 1.358716e+01 5.076499e-01 5.920166e-01 1.066558e+00 1.082529e+00 1.027538e+00 1.211649e+00 1.766073e+00 1.485373e+00 1.248682e+00 1.929394e+00 1.219289e+00 1.333142e+00 3.696540e-01 5.399118e-02 1.158279e-01 1.941565e-01 1.571541e-01 1.646086e-01 1.934884e-01 3.410474e-01 3.415166e-01 3.230722e-01 2.479385e-01 2.368034e-01 2.612154e-01 4.264622e-02
<GCONST> 9.049014e+01
<STATE> 4
<MEAN> 39
 -1.384084e+01 2.248388e+00 -4.851999e-01 5.817472e+00 4.505590e+00 7.020578e+00 3.267292e+00 3.737067e+00 1.208706e+00 1.599302e-01 1.451539e+00 3.207801e+00 6.546873e+01 -4.416738e-01 -1.200945e-01 -2.409465e-01 -2.800663e-01 -2.008947e-01 -1.175824e-01 1.599071e-01 1.994504e-01 3.410638e-01 6.418346e-01 5.062139e-01 1.189373e-01 -2.988693e-01 9.491961e-02 -3.211170e-02 3.753611e-02 7.427579e-02 4.460495e-03 -4.219335e-02 -1.015415e-01 -6.175118e-02 1.539137e-02 -5.894114e-02 -3.160840e-02 -2.757287e-02 1.017671e-01
<VARIANCE> 39
 4.808098e+01 1.020430e+01 1.604387e+01 1.996642e+01 1.324308e+01 1.333423e+01 3.030276e+01 2.667822e+01 2.008173e+01 3.555954e+01 2.648193e+01 1.412793e+01 4.217287e+01 6.966193e-01 7.970768e-01 9.798492e-01 9.682643e-01 8.675772e-01 9.863451e-01 1.287969e+00 1.041062e+00 1.449466e+00 1.639227e+00 1.285499e+00 9.773552e-01 4.051949e-01 1.039395e-01 1.712196e-01 1.873510e-01 2.053266e-01 1.649155e-01 1.941668e-01 2.452938e-01 2.334434e-01 2.045805e-01 2.895427e-01 1.941305e-01 2.058925e-01 6.005393e-02
<GCONST> 8.898888e+01
<TRANSP> 5
 0.000000e+00 1.000000e+00 0.000000e+00 0.000000e+00 0.000000e+00
 0.000000e+00 7.976163e-01 2.023836e-01 0.000000e+00 0.000000e+00
 0.000000e+00 0.000000e+00 8.224716e-01 1.775284e-01 0.000000e+00
 0.000000e+00 0.000000e+00 0.000000e+00 8.127524e-01 1.872476e-01
 0.000000e+00 0.000000e+00 0.000000e+00 0.000000e+00 0.000000e+00
<ENDHMM>
~h "m"
<BEGINHMM>
<NUMSTATES> 5
<STATE> 2
<MEAN> 39
 7.664968e-01 5.484928e+00 2.969402e+00 7.966101e-01 -2.457945e-01 6.967973e+00 -9.196730e+00 -3.575152e+00 8.467752e+00 -2.179750e-01 -1.333454e+00 4.812105e-01 7.762877e+01 -3.621340e-01 1.835013e-01 1.773417e-01 5.967276e-01 7.250315e-01 6.446569e-01 4.091185e-01 -1.147995e-01 6.970332e-02 3.428764e-01 -1.491502e-01 -6.135762e-01 -4.198495e-01 -9.684863e-04 -1.224274e-01 -8.375750e-02 4.761041e-02 6.061232e-02 -4.488104e-02 3.363018e-02 1.059867e-01 -6.817942e-02 -5.894104e-02 -1.099051e-02 4.045743e-02 3.373216e-02
<VARIANCE> 39
 1.351114e+01 2.230166e+01 1.347442e+01 4.025287e+01 5.907580e+01 5.837162e+01 5.886694e+01 3.213385e+01 2.542276e+01 2.950790e+01 3.011887e+01 2.925316e+01 1.240415e+01 4.842013e-01 1.049216e+00 6.292010e-01 1.871129e+00 2.710747e+00 2.855932e+00 3.805853e+00 1.818269e+00 1.898378e+00 1.673180e+00 1.365737e+00 2.325997e+00 5.398819e-01 6.032711e-02 1.818427e-01 1.298982e-01 2.628701e-01 3.473989e-01 4.282627e-01 5.032505e-01 2.890177e-01 3.388483e-01 3.005967e-01 2.295144e-01 3.498110e-01 5.396094e-02
<GCONST> 1.010051e+02
<STATE> 3
<MEAN> 39
 -4.546209e+00 7.297788e+00 2.322605e+00 7.105325e+00 9.020821e+00 1.267600e+01 -8.616470e-01 4.105682e-01 6.600255e+00 6.743894e-01 -4.363572e+00 -3.411449e+00 7.167429e+01 -7.024941e-01 -6.630798e-02 -8.887635e-02 1.074043e-01 1.065180e-01 -7.167435e-02 5.774531e-01 4.675092e-01 -1.861857e-01 2.893313e-01 4.972939e-01 2.616829e-01 -5.280118e-01 1.133230e-02 -5.554664e-02 -4.047582e-02 -1.392610e-01 -2.963195e-01 -2.823060e-01 -1.384043e-01 -3.484802e-02 -6.939207e-02 -8.255634e-02 1.015797e-01 2.179782e-01 3.530048e-02
<VARIANCE> 39
 1.710200e+01 7.462066e+00 1.173761e+01 1.046408e+01 1.554959e+01 2.702281e+01 1.979008e+01 1.729725e+01 2.315414e+01 2.514569e+01 2.601197e+01 1.767896e+01 1.454626e+01 4.635797e-01 4.868925e-01 6.868264e-01 9.208464e-01 1.237246e+00 1.393168e+00 1.246931e+00 9.275439e-01 1.029640e+00 1.294098e+00 1.286967e+00 9.182107e-01 2.279795e-01 4.586583e-02 5.922440e-02 1.022599e-01 1.749721e-01 2.015005e-01 1.764728e-01 1.878896e-01 1.332262e-01 2.026040e-01 2.338803e-01 1.945776e-01 1.997004e-01 2.466164e-02
<GCONST> 7.915156e+01
<STATE> 4
<MEAN> 39
 -1.577073e+01 3.089319e+00 -1.727463e+00 3.518940e+00 2.217316e+00 5.518369e+00 4.075074e+00 5.264348e+00 3.998893e+00 3.447078e+00 2.891944e+00 3.260076e+00 6.411001e+01 -1.306029e-01 -1.110110e-01 -7.422280e-02 -1.051366e-01 -1.977451e-01 -1.454140e-01 6.703871e-02 1.080179e-01 -1.496720e-02 2.820936e-02 1.403735e-01 1.616464e-01 -6.221110e-02 7.402534e-02 2.937599e-02 4.846108e-02 4.175425e-02 4.222292e-02 2.263088e-02 -5.841497e-02 -3.141364e-02 1.627399e-02 -4.480909e-02 -6.040348e-02 -3.676756e-02 5.613126e-02
<VARIANCE> 39
 1.876756e+01 4.886600e+00 8.323069e+00 1.067022e+01 1.258423e+01 1.285302e+01 1.153814e+01 1.010978e+01 1.064803e+01 1.183136e+01 1.205578e+01 9.934041e+00 1.419071e+01 4.058281e-01 3.325852e-01 3.942976e-01 5.883302e-01 9.602508e-01 1.040992e+00 7.196919e-01 7.673434e-01 9.913087e-01 8.568580e-01 9.956304e-01 7.488253e-01 2.129310e-01 7.007295e-02 7.751128e-02 8.557200e-02 1.192498e-01 1.823428e-01 2.045576e-01 1.784518e-01 1.643292e-01 1.759980e-01 1.678103e-01 1.966239e-01 1.681475e-01 3.944388e-02
<GCONST> 6.995715e+01
<TRANSP> 5
 0.000000e+00 1.000000e+00 0.000000e+00 0.000000e+00 0.000000e+00
 0.000000e+00 8.253941e-01 1.746059e-01 0.000000e+00 0.000000e+00
 0.000000e+00 0.000000e+00 8.381284e-01 1.618716e-01 0.000000e+00
 0.000000e+00 0.000000e+00 0.000000e+00 8.954291e-01 1.045709e-01
 0.000000e+00 0.000000e+00 0.000000e+00 0.000000e+00 0.000000e+00
<ENDHMM>
~h "n"
<BEGINHMM>
<NUMSTATES> 5
<STATE> 2
<MEAN> 39
 1.920712e+00 -9.057054e-02 -3.968552e-01 4.361394e+00 6.861532e+00 8.298319e+00 -1.326037e+01 -6.361179e+00 2.205729e+00 -7.341724e+00 -7.063950e-01 3.999987e+00 8.085939e+01 -1.597170e-01 8.493874e-01 2.697914e-01 6.781498e-02 6.890234e-01 1.503709e+00 7.567196e-01 -3.673288e-01 -2.013922e-02 3.891974e-01 -4.717349e-01 -9.298541e-01 -6.632465e-01 -2.343561e-01 6.864965e-02 9.660152e-02 5.686839e-02 6.444080e-03 6.194318e-02 2.924296e-01 1.766772e-01 9.131382e-02 1.797444e-01 -9.902765e-02 -2.789617e-01 -1.673414e-01
<VARIANCE> 39
 1.570073e+01 1.888014e+01 3.644533e+01 3.723736e+01 2.424603e+01 2.842568e+01 5.479172e+01 3.197971e+01 4.170073e+01 3.618864e+01 3.033167e+01 2.664917e+01 1.715433e+01 1.638290e+00 2.072295e+00 1.306608e+00 2.302553e+00 2.232107e+00 2.950356e+00 5.293389e+00 2.895345e+00 2.898328e+00 2.620604e+00 2.680695e+00 2.693481e+00 1.798907e+00 1.756820e-01 2.914529e-01 1.831535e-01 3.122305e-01 3.471914e-01 4.264447e-01 6.602940e-01 4.888392e-01 4.316144e-01 3.987200e-01 4.198009e-01 3.873950e-01 1.883071e-01
<GCONST> 1.128526e+02
<STATE> 3
<MEAN> 39
 -1.094063e+00 4.729792e+00 2.163447e+00 6.330175e+00 1.117064e+01 1.537074e+01 -7.599673e+00 -6.049529e+00 3.238266e+00 -4.579859e+00 -3.888257e+00 -3.332147e+00 7.604606e+01 -4.815969e-01 4.831342e-01 4.399850e-01 3.316073e-01 1.105587e-01 1.637227e-01 6.251814e-01 2.919579e-01 1.747607e-01 4.722269e-01 -3.698400e-01 -6.981511e-01 -5.557051e-01 2.277080e-02 -2.419228e-01 -9.129668e-02 9.107882e-03 -2.914265e-01 -5.537677e-01 -6.812479e-02 2.229515e-01 -7.548580e-02 -8.416470e-02 2.369031e-01 3.842727e-01 1.422063e-01
<VARIANCE> 39
 7.657212e+00 1.332420e+01 1.269084e+01 1.214495e+01 1.143001e+01 1.794423e+01 1.733957e+01 1.601962e+01 2.298306e+01 1.979924e+01 2.183706e+01 1.608365e+01 1.060165e+01 3.615508e-01 5.998468e-01 8.069294e-01 1.067259e+00 1.150118e+00 2.007900e+00 1.659833e+00 1.468526e+00 1.270154e+00 1.393595e+00 1.458096e+00 1.625740e+00 3.490002e-01 6.995498e-02 1.752460e-01 1.430261e-01 2.352849e-01 2.235854e-01 3.123256e-01 4.492893e-01 2.986219e-01 3.054956e-01 2.495318e-01 3.221908e-01 2.785429e-01 9.394507e-02
<GCONST> 8.725154e+01
<STATE> 4
<MEAN> 39
 -2.492447e+00 3.247859e+00 2.207067e+00 8.189784e+00 8.510180e+00 9.978418e+00 -5.380957e+00 -1.847527e+00 3.259332e+00 -4.391563e+00 -3.732776e+00 -2.263209e+00 7.505785e+01 -3.933017e-01 -6.782507e-01 -2.009601e-01 1.456562e-01 -1.115856e+00 -1.649593e+00 5.778372e-01 1.179119e+00 -1.204408e-01 2.158403e-01 7.391614e-01 8.194394e-01 -4.842099e-02 -6.241637e-02 -1.898985e-01 -3.792020e-02 -1.491169e-01 -2.418947e-01 -1.907130e-01 -1.298372e-01 -2.829388e-02 7.728011e-02 1.005372e-01 2.005203e-01 2.208141e-01 5.960910e-02
<VARIANCE> 39
 2.551997e+01 2.851584e+01 2.003453e+01 2.448737e+01 2.282006e+01 3.195072e+01 5.352620e+01 2.600620e+01 3.224625e+01 2.680006e+01 3.271128e+01 2.447523e+01 2.703650e+01 1.879414e+00 2.722828e+00 2.055532e+00 3.822251e+00 2.381633e+00 2.426915e+00 5.062806e+00 3.071783e+00 3.207484e+00 2.877207e+00 3.677733e+00 1.752450e+00 2.020779e+00 2.284513e-01 6.859269e-01 3.394101e-01 5.432871e-01 4.390702e-01 4.586249e-01 7.249643e-01 5.497963e-01 5.254024e-01 4.981638e-01 7.629488e-01 3.780905e-01 3.338336e-01
<GCONST> 1.182719e+02
<TRANSP> 5
 0.000000e+00 1.000000e+00 0.000000e+00 0.000000e+00 0.000000e+00
 0.000000e+00 7.006871e-01 2.993129e-01 0.000000e+00 0.000000e+00
 0.000000e+00 0.000000e+00 7.975554e-01 2.024446e-01 0.000000e+00
 0.000000e+00 0.000000e+00 0.000000e+00 6.145908e-01 3.854092e-01
 0.000000e+00 0.000000e+00 0.000000e+00 0.000000e+00 0.000000e+00
<ENDHMM>
~h "p"
<BEGINHMM>
<NUMSTATES> 5
<STATE> 2
<MEAN> 39
 -5.851824e+00 3.081652e+00 6.276799e-01 9.788429e+00 5.952752e+00 5.615607e+00 -1.443106e-02 1.252214e+00 1.153198e+00 -1.118918e+00 4.850560e-01 2.532409e+00 7.213004e+01 -1.873010e+00 8.064859e-01 -6.279342e-01 -3.023405e-01 6.811122e-01 6.624362e-01 1.513490e+00 7.616783e-01 1.669261e-01 9.713874e-01 5.894662e-01 3.742606e-01 -1.946427e+00 -2.449774e-01 -5.289722e-01 -6.494462e-03 -4.010699e-01 -4.307028e-01 -2.017951e-01 -4.116468e-01 -1.201863e-01 1.701036e-01 -1.096313e-01 1.157326e-02 -3.313121e-02 1.450091e-01
<VARIANCE> 39
 4.750999e+01 2.364303e+01 2.365633e+01 5.528611e+01 4.667020e+01 1.986504e+01 4.389716e+01 4.268551e+01 3.200409e+01 7.032138e+01 2.294752e+01 1.040786e+01 3.193812e+01 7.123447e+00 3.763865e+00 1.127857e+00 2.961944e+00 1.862639e+00 1.924543e+00 8.255435e+00 4.254708e+00 2.978690e+00 3.952808e+00 1.702928e+00 1.498561e+00 5.559600e+00 5.791975e-01 4.247456e-01 2.505789e-01 4.674161e-01 5.087417e-01 3.287539e-01 6.506470e-01 4.427945e-01 4.860711e-01 7.206758e-01 4.012945e-01 2.099216e-01 4.833534e-01
<GCONST> 1.205229e+02
<STATE> 3
<MEAN> 39
 -1.451777e+01 1.877923e+00 -6.671003e-01 6.944006e+00 3.359289e+00 4.109187e+00 2.181137e+00 3.086653e+00 2.160330e+00 2.246358e+00 2.139527e+00 2.990047e+00 6.641374e+01 -7.634165e-01 -1.954989e-01 -2.090939e-01 -4.929492e-01 -2.204592e-01 2.220776e-01 2.989386e-01 5.302070e-02 -8.160284e-02 1.337101e-01 2.155932e-01 1.642168e-01 -5.126646e-01 4.424256e-01 -1.200674e-01 1.074215e-01 1.525498e-01 -6.995840e-02 -2.200184e-02 -1.175496e-01 -1.207202e-01 1.007754e-02 -1.369686e-01 -9.598501e-02 -7.365783e-02 4.339874e-01
<VARIANCE> 39
 1.398568e+01 1.169889e+01 1.516691e+01 3.029687e+01 1.686793e+01 1.101795e+01 2.340112e+01 1.424764e+01 1.846126e+01 2.053788e+01 1.481799e+01 1.387430e+01 1.000434e+01 9.150878e-01 7.571293e-01 5.960080e-01 1.213397e+00 1.041045e+00 1.021376e+00 1.435353e+00 1.125020e+00 9.180951e-01 7.215091e-01 9.070795e-01 1.033023e+00 4.534218e-01 2.344023e-01 2.943186e-01 1.191486e-01 2.012267e-01 2.409102e-01 1.834439e-01 3.663341e-01 2.985764e-01 2.244557e-01 2.525705e-01 1.616401e-01 2.133436e-01 2.194544e-01
<GCONST> 8.659714e+01
<STATE> 4
<MEAN> 39
 -1.102804e+01 -2.947101e-01 -1.017234e+00 6.838744e+00 2.687281e+00 5.685265e+00 2.968936e+00 2.585562e+00 1.695884e+00 6.522465e-01 2.316126e+00 2.494068e+00 6.980181e+01 2.741053e+00 -1.231385e+00 2.224030e-01 4.648692e-01 -1.625390e-01 9.647952e-02 -1.167428e+00 -1.123307e+00 -5.074943e-01 -1.427134e+00 -8.689071e-01 -8.493762e-01 2.851648e+00 6.561738e-01 4.339302e-02 1.842551e-01 2.824959e-02 4.610655e-02 -3.219624e-01 -7.312018e-01 -2.456402e-01 -1.027659e-01 -3.599379e-01 -2.601669e-01 -1.699895e-01 5.481536e-01
<VARIANCE> 39
 5.681235e+01 2.170566e+01 1.138660e+01 1.726085e+01 2.227748e+01 9.921817e+00 4.468747e+01 2.563244e+01 1.716692e+01 3.391432e+01 1.707914e+01 1.874342e+01 6.048307e+01 4.266777e+00 3.245545e+00 1.619298e+00 2.648951e+00 3.356428e+00 2.038348e+00 4.781039e+00 1.549393e+00 1.996731e+00 2.916615e+00 1.549769e+00 2.004000e+00 4.178873e+00 1.166960e+00 5.759191e-01 2.327447e-01 4.019619e-01 5.983719e-01 3.852973e-01 9.609362e-01 3.253045e-01 3.354132e-01 4.701501e-01 3.413289e-01 4.470274e-01 1.018344e+00
<GCONST> 1.159846e+02
<TRANSP> 5
 0.000000e+00 1.000000e+00 0.000000e+00 0.000000e+00 0.000000e+00
 0.000000e+00 4.410161e-01 5.589839e-01 0.000000e+00 0.000000e+00
 0.000000e+00 0.000000e+00 7.788830e-01 2.211169e-01 0.000000e+00
 0.000000e+00 0.000000e+00 0.000000e+00 6.331090e-01 3.668911e-01
 0.000000e+00 0.000000e+00 0.000000e+00 0.000000e+00 0.000000e+00
<ENDHMM>
~h "r"
<BEGINHMM>
<NUMSTATES> 5
<STATE> 2
<MEAN> 39
 4.916212e+00 -1.808975e+00 -4.356244e+00 4.431794e+00 7.772264e+00 5.660129e+00 -1.412185e+01 -7.436915e+00 -3.214887e-01 -7.127363e+00 -1.333777e-01 2.395306e+00 8.242319e+01 4.240967e-02 9.531297e-03 1.617943e-01 4.866018e-01 7.889892e-01 -3.207934e-01 -1.627805e+00 -2.952350e-01 6.967375e-01 -1.801749e-01 -6.236833e-02 1.305404e-01 8.458968e-02 -1.625228e-01 5.371553e-02 1.207497e-01 5.107539e-02 -1.176206e-01 8.188973e-02 2.694619e-01 1.133934e-01 1.551808e-01 6.015930e-02 -5.774858e-02 -5.451240e-02 -1.199259e-01
<VARIANCE> 39
 1.151437e+01 2.716164e+01 4.214692e+01 5.212136e+01 5.245642e+01 1.830424e+01 6.572948e+01 3.365016e+01 5.751443e+01 5.967177e+01 2.060502e+01 1.464701e+01 1.158646e+01 6.344012e-01 1.092840e+00 1.651597e+00 1.811277e+00 1.902715e+00 1.826337e+00 5.177261e+00 1.526196e+00 2.078113e+00 1.880638e+00 1.723954e+00 1.013378e+00 5.510990e-01 6.259360e-02 2.373159e-01 2.177564e-01 2.279506e-01 2.638418e-01 2.862080e-01 7.645311e-01 2.420788e-01 4.403636e-01 3.906257e-01 3.181064e-01 1.583046e-01 4.809335e-02
<GCONST> 1.020875e+02
<STATE> 3
<MEAN> 39
 1.671324e+00 3.065436e+00 1.136774e+00 6.757014e+00 6.794049e+00 5.216506e+00 -1.255468e+01 -4.168934e+00 2.601804e+00 -6.173535e+00 -5.899522e-01 2.575573e+00 7.841048e+01 -3.111262e-01 4.036232e-01 -5.017773e-01 1.569821e-01 2.606341e-01 3.267720e-01 1.100673e+00 8.730252e-01 1.907552e-01 2.338835e-01 -3.608464e-01 -3.032160e-01 -5.879130e-01 -9.372561e-02 -1.294758e-01 -5.193847e-02 -6.772846e-03 -4.611953e-02 1.755333e-02 3.548624e-01 1.841217e-02 -9.937833e-02 3.080156e-01 -1.435717e-02 -2.208868e-01 -1.442172e-02
<VARIANCE> 39
 1.778231e+01 6.209170e+01 5.481411e+01 3.707425e+01 6.682784e+01 3.039926e+01 1.056829e+02 3.247972e+01 3.334511e+01 5.506982e+01 2.151901e+01 1.354582e+01 2.276126e+01 4.438744e-01 2.076882e+00 3.229233e+00 2.163058e+00 1.140169e+00 2.160131e+00 4.916744e+00 3.000023e+00 1.688723e+00 2.356468e+00 1.300595e+00 1.449059e+00 4.241852e-01 1.312500e-01 3.282925e-01 2.253345e-01 3.723049e-01 2.350086e-01 3.663198e-01 1.073007e+00 4.083692e-01 1.299719e-01 2.742375e-01 3.753203e-01 2.392616e-01 1.940892e-01
<GCONST> 1.087024e+02
<STATE> 4
<MEAN> 39
 8.208775e-01 1.676348e+00 -3.141171e-01 7.521349e+00 9.130331e+00 9.180361e+00 -8.703364e+00 -5.175775e+00 9.171460e-01 -6.099968e+00 -4.556609e+00 -3.860931e-01 7.829434e+01 -3.673537e-02 2.351796e-01 2.931971e-01 -1.880988e-01 -3.205973e-01 -1.100746e-01 1.058705e-02 7.743701e-02 2.139032e-01 1.552218e-01 -3.990936e-01 -2.604904e-01 -6.022016e-02 4.384487e-03 -8.958454e-02 2.219028e-01 6.743327e-03 -1.812576e-01 -2.349412e-01 -3.104572e-01 2.007142e-03 1.830165e-01 -7.726195e-02 6.155404e-02 -1.501955e-02 1.037243e-01
<VARIANCE> 39
 1.877947e+01 2.803645e+01 4.651510e+01 3.628576e+01 3.872231e+01 3.513210e+01 9.090909e+01 4.636399e+01 2.041952e+01 4.581767e+01 2.352021e+01 2.808646e+01 2.162537e+01 2.305050e+00 3.874429e+00 1.977300e+00 2.591018e+00 2.532686e+00 3.110142e+00 1.137553e+01 5.787919e+00 2.211924e+00 4.770834e+00 1.857884e+00 2.022415e+00 3.014684e+00 3.574176e-01 6.449097e-01 3.634655e-01 4.269351e-01 3.030676e-01 5.969311e-01 2.007374e+00 1.190154e+00 2.926186e-01 6.888099e-01 2.699552e-01 3.631484e-01 5.467436e-01
<GCONST> 1.235054e+02
<TRANSP> 5
 0.000000e+00 1.000000e+00 0.000000e+00 0.000000e+00 0.000000e+00
 0.000000e+00 8.004400e-01 1.995600e-01 0.000000e+00 0.000000e+00
 0.000000e+00 0.000000e+00 2.307470e-01 7.692530e-01 0.000000e+00
 0.000000e+00 0.000000e+00 0.000000e+00 7.635283e-01 2.364717e-01
 0.000000e+00 0.000000e+00 0.000000e+00 0.000000e+00 0.000000e+00
<ENDHMM>
~h "s"
<BEGINHMM>
<NUMSTATES> 5
<STATE> 2
<MEAN> 39
 -8.246709e+00 -9.460621e+00 6.464513e+00 8.945257e+00 1.302532e+00 5.534896e+00 2.173651e+00 -3.067892e-01 -1.384681e+00 -7.258337e-01 4.556189e+00 -1.245195e-01 7.961995e+01 -2.711550e+00 -3.494642e+00 1.074929e+00 -8.369197e-01 -1.280836e+00 -4.119748e-01 2.240485e+00 3.672043e-01 -3.050663e-01 9.345943e-01 1.708337e+00 -1.161282e-02 1.057235e+00 -1.229757e-01 6.344774e-02 -8.300340e-02 -4.178507e-01 -1.423248e-01 -3.059826e-01 -3.296220e-01 6.986260e-02 2.167120e-01 -3.577499e-01 -1.257837e-01 5.590563e-02 7.572072e-02
<VARIANCE> 39
 5.361187e+01 6.292381e+01 4.014576e+01 4.284078e+01 2.208264e+01 2.614158e+01 4.333853e+01 3.006536e+01 3.896334e+01 2.843827e+01 2.680061e+01 2.255234e+01 1.644020e+01 3.391100e+00 4.409158e+00 2.895266e+00 4.441285e+00 2.317378e+00 3.341855e+00 5.279918e+00 2.321794e+00 3.029661e+00 3.444912e+00 2.346542e+00 2.176729e+00 2.078047e+00 7.154806e-01 1.317064e+00 6.148291e-01 6.496613e-01 5.001835e-01 5.193727e-01 7.657169e-01 4.013001e-01 5.522399e-01 5.543858e-01 4.598880e-01 4.014415e-01 3.540961e-01
<GCONST> 1.240993e+02
<STATE> 3
<MEAN> 39
 -1.770190e+01 -1.898002e+01 8.577327e+00 2.595339e+00 -4.076525e+00 2.032058e+00 7.404002e+00 -7.006705e-02 -2.520931e+00 -4.596966e-01 9.165490e+00 -3.584112e-01 8.295227e+01 3.267133e-01 -1.746143e-02 -4.494847e-01 1.455103e-01 3.422701e-02 3.535204e-02 -2.630538e-02 1.914277e-01 -2.089720e-02 -3.661605e-01 -3.306210e-02 3.316675e-01 -1.058786e-01 6.676046e-01 6.457602e-01 -2.979938e-01 3.591202e-01 2.805049e-01 2.670562e-01 -2.778857e-01 6.304750e-02 2.674947e-02 -6.865542e-02 -3.398981e-01 1.325916e-01 -3.515901e-01
<VARIANCE> 39
 1.505025e+01 1.512968e+01 1.637382e+01 1.678637e+01 1.263496e+01 1.999772e+01 1.574507e+01 2.673385e+01 2.378200e+01 2.218196e+01 1.371271e+01 1.768758e+01 5.137669e+00 3.512812e+00 1.635437e+00 1.749921e+00 1.919727e+00 1.519948e+00 1.637202e+00 1.737949e+00 1.734747e+00 2.031208e+00 1.304164e+00 1.561157e+00 1.687364e+00 8.442945e-01 3.326468e-01 5.080538e-01 2.997012e-01 3.197417e-01 2.831550e-01 2.663178e-01 3.168279e-01 3.145013e-01 2.939017e-01 3.680792e-01 3.197985e-01 2.888894e-01 1.864543e-01
<GCONST> 9.914156e+01
<STATE> 4
<MEAN> 39
 -1.192465e+01 -1.200102e+01 1.726289e+00 7.738534e+00 -7.709597e-01 5.526353e+00 5.507203e+00 3.225184e+00 -7.356642e-01 -1.495215e+00 4.607149e+00 4.269447e+00 7.539944e+01 1.099669e+00 2.979593e+00 -6.620578e-01 4.174749e-01 5.311975e-01 2.237695e-01 -7.374424e-01 2.654741e-01 3.431572e-01 -7.157099e-02 -1.029614e+00 4.674622e-01 -1.703148e+00 -4.051448e-02 1.254747e-01 1.358011e-01 -2.180720e-01 -1.239425e-01 -3.584546e-01 -2.058974e-01 -1.214197e-01 -4.690586e-02 -4.426520e-02 1.756907e-02 -1.952785e-01 1.578389e-01
<VARIANCE> 39
 2.265688e+01 6.381817e+01 3.605222e+01 3.001315e+01 1.544956e+01 2.533329e+01 3.012946e+01 2.690309e+01 4.823292e+01 2.127991e+01 2.284530e+01 1.321323e+01 3.653310e+01 4.818969e+00 4.180334e+00 2.919963e+00 1.589391e+00 1.981568e+00 2.105254e+00 2.997704e+00 1.545370e+00 2.739000e+00 3.326679e+00 2.169213e+00 1.891750e+00 1.888308e+00 2.315723e-01 9.604944e-01 4.528346e-01 3.335095e-01 3.276703e-01 4.511240e-01 5.172270e-01 3.668731e-01 7.156479e-01 3.186548e-01 4.064832e-01 3.686532e-01 2.960394e-01
<GCONST> 1.150453e+02
<TRANSP> 5
 0.000000e+00 1.000000e+00 0.000000e+00 0.000000e+00 0.000000e+00
 0.000000e+00 7.106090e-01 2.893909e-01 0.000000e+00 0.000000e+00
 0.000000e+00 0.000000e+00 8.300210e-01 1.699790e-01 0.000000e+00
 0.000000e+00 0.000000e+00 0.000000e+00 7.349201e-01 2.650799e-01
 0.000000e+00 0.000000e+00 0.000000e+00 0.000000e+00 0.000000e+00
<ENDHMM>
~h "t"
<BEGINHMM>
<NUMSTATES> 5
<STATE> 2
<MEAN> 39
 -8.160913e+00 3.702430e+00 -1.125119e+00 8.662069e+00 9.629449e+00 8.774247e+00 -1.555026e+00 -3.136295e+00 -1.403158e+00 -6.183175e-01 1.201385e+00 2.134202e+00 6.966956e+01 -1.707317e+00 2.118477e-02 2.775712e-01 1.643524e-01 -4.707235e-01 8.859852e-02 1.381938e+00 6.426588e-01 -1.895104e-03 8.333229e-01 1.809888e-01 3.305780e-01 -1.502724e+00 3.128541e-01 -4.484407e-01 -1.974932e-01 -1.706327e-01 -2.470340e-01 -3.539139e-01 -4.188587e-01 5.648357e-02 1.666752e-01 -2.824423e-01 -5.391842e-02 -1.808458e-02 4.967652e-01
<VARIANCE> 39
 3.794246e+01 2.525545e+01 1.767926e+01 3.595814e+01 4.395295e+01 2.566761e+01 4.123186e+01 4.865408e+01 2.813925e+01 2.256999e+01 1.931845e+01 1.940544e+01 2.556212e+01 1.952022e+00 2.006075e+00 1.526350e+00 2.386000e+00 1.661265e+00 1.912364e+00 4.082784e+00 2.095276e+00 1.793647e+00 2.688788e+00 1.667078e+00 1.167030e+00 2.013325e+00 4.259879e-01 3.907249e-01 2.457054e-01 3.336443e-01 3.400066e-01 4.330969e-01 7.016562e-01 5.723984e-01 3.483660e-01 4.941500e-01 3.333404e-01 2.106569e-01 4.110404e-01
<GCONST> 1.117227e+02
<STATE> 3
<MEAN> 39
 -8.514179e+00 -2.722287e+00 -2.117800e+00 8.184720e+00 3.689547e+00 4.390981e+00 -1.337221e-01 -5.683513e-02 -3.349552e-01 -1.448143e+00 1.457850e+00 3.514292e+00 7.225282e+01 8.732601e-01 -7.091880e-01 -5.908464e-01 -1.645750e-01 -2.849129e-01 -5.732209e-01 -3.966547e-01 1.533322e-02 -2.105407e-01 -4.430468e-01 7.165618e-02 5.318228e-01 8.734404e-01 1.362816e-01 3.012233e-01 8.984841e-02 -1.152750e-01 1.097281e-01 -1.671389e-03 -2.185145e-01 5.272287e-03 1.134541e-01 -1.096093e-01 -8.438981e-02 -1.142691e-01 4.231971e-02
<VARIANCE> 39
 4.527658e+01 6.283384e+01 2.561829e+01 2.902828e+01 3.692440e+01 3.247525e+01 4.104073e+01 4.454149e+01 4.194504e+01 3.171608e+01 3.312695e+01 3.240485e+01 6.424445e+01 8.064895e+00 8.623117e+00 2.676643e+00 2.368593e+00 4.270133e+00 2.957812e+00 4.940096e+00 5.702356e+00 4.244863e+00 4.223186e+00 2.424030e+00 2.496879e+00 1.035518e+01 1.575776e+00 1.722728e+00 4.792327e-01 4.164443e-01 6.180593e-01 5.472626e-01 9.191452e-01 9.596077e-01 8.172789e-01 8.327464e-01 5.575665e-01 5.298669e-01 2.191728e+00
<GCONST> 1.355225e+02
<STATE> 4
<MEAN> 39
 -1.509353e+01 2.156390e+00 -2.029569e+00 5.006918e+00 3.759314e+00 5.655826e+00 3.101210e+00 3.663690e+00 2.163711e+00 2.692659e+00 3.945608e+00 5.698412e+00 6.477744e+01 1.232993e-01 -2.757122e-01 -5.504734e-02 -8.482862e-02 -1.538529e-01 -9.591344e-02 -3.612983e-02 1.353682e-01 1.400189e-01 -1.069146e-01 -1.058117e-01 -2.076868e-01 2.572765e-01 3.598010e-01 -1.465950e-01 5.240117e-02 1.053042e-01 -8.371221e-04 -7.796796e-02 -1.817858e-01 -9.709045e-02 -3.607984e-02 -2.576508e-01 -1.656944e-01 -1.638016e-01 3.995375e-01
<VARIANCE> 39
 2.234973e+01 8.029354e+00 8.711635e+00 1.329792e+01 1.468475e+01 1.209037e+01 2.223037e+01 2.236010e+01 1.762716e+01 2.044180e+01 1.679197e+01 1.488048e+01 1.889463e+01 2.416078e+00 2.546628e+00 1.012442e+00 1.115776e+00 1.513160e+00 1.464461e+00 1.727343e+00 1.695777e+00 1.530842e+00 1.971169e+00 1.759841e+00 1.282433e+00 2.671423e+00 4.174741e-01 2.719662e-01 1.554603e-01 1.817438e-01 2.288674e-01 2.115185e-01 4.154287e-01 2.965928e-01 2.616391e-01 3.339042e-01 2.850823e-01 2.181985e-01 4.184577e-01
<GCONST> 9.711427e+01
<TRANSP> 5
 0.000000e+00 1.000000e+00 0.000000e+00 0.000000e+00 0.000000e+00
 0.000000e+00 6.930931e-01 3.069069e-01 0.000000e+00 0.000000e+00
 0.000000e+00 0.000000e+00 6.264603e-01 3.735397e-01 0.000000e+00
 0.000000e+00 0.000000e+00 0.000000e+00 7.990370e-01 2.009630e-01
 0.000000e+00 0.000000e+00 0.000000e+00 0.000000e+00 0.000000e+00
<ENDHMM>
~h "v"
<BEGINHMM>
<NUMSTATES> 5
<STATE> 2
<MEAN> 39
 1.806436e+00 2.290686e+00 3.975541e-01 8.813541e+00 7.488014e+00 4.135753e+00 -1.233893e+01 -3.297799e+00 3.831020e+00 -8.963120e+00 -6.836517e+00 7.856277e-01 7.920197e+01 -6.106585e-02 1.309329e+00 -5.922483e-02 -1.038294e+00 -8.615435e-01 3.123742e-01 1.778143e+00 1.036334e+00 -1.667557e-01 -3.063819e-01 -7.785040e-01 -3.205234e-01 -7.021423e-01 -2.132217e-01 -1.917912e-02 2.999249e-01 5.755321e-02 -2.321258e-01 -1.677234e-01 2.453563e-01 2.515400e-01 1.679590e-01 3.621064e-01 1.175559e-01 -2.341182e-01 -6.307481e-02
<VARIANCE> 39
 1.394088e+01 2.090153e+01 3.026331e+01 3.765218e+01 5.687137e+01 5.173994e+01 3.947678e+01 5.223064e+01 3.327261e+01 4.485113e+01 2.927270e+01 1.330880e+01 1.266087e+01 5.958970e-01 1.091754e+00 1.265520e+00 2.115311e+00 1.893090e+00 1.184822e+00 3.083831e+00 2.473132e+00 1.912229e+00 1.814379e+00 1.623394e+00 1.739558e+00 4.585049e-01 6.476737e-02 1.764013e-01 1.707678e-01 2.290350e-01 2.437241e-01 1.564621e-01 3.423286e-01 4.210848e-01 2.311062e-01 4.078521e-01 4.056330e-01 2.852176e-01 2.695171e-02
<GCONST> 9.966782e+01
<STATE> 3
<MEAN> 39
 1.671013e+00 4.634606e+00 6.049642e-01 5.903903e+00 3.054744e+00 2.976288e+00 -6.579529e+00 -2.720498e-01 3.902166e+00 -8.058965e+00 -8.455168e+00 -2.688749e+00 7.685381e+01 -2.114192e-01 -4.611888e-02 4.960027e-01 -3.522614e-02 -3.108766e-01 2.802647e-01 1.667923e-01 -1.292496e-01 -2.775268e-01 2.084848e-01 5.144818e-01 -5.427063e-03 -3.770225e-02 2.723156e-02 -4.063940e-01 -3.570332e-02 1.414999e-01 1.981529e-01 2.612040e-02 -3.271032e-01 -1.559615e-01 -1.120289e-01 -1.686199e-01 2.965555e-01 3.447002e-01 2.467645e-01
<VARIANCE> 39
 1.099873e+01 1.282222e+01 1.802848e+01 1.620491e+01 2.459155e+01 5.375375e+01 4.643907e+01 4.907231e+01 3.050914e+01 3.057402e+01 1.941252e+01 1.047954e+01 8.814870e+00 1.117211e+00 1.484905e+00 8.440418e-01 1.728543e+00 1.550100e+00 3.287750e+00 5.208926e+00 3.316289e+00 1.991444e+00 2.793554e+00 1.565796e+00 1.942545e+00 8.520305e-01 1.907902e-01 2.312783e-01 1.500985e-01 2.882761e-01 2.337378e-01 6.717199e-01 7.632054e-01 5.443917e-01 3.586815e-01 4.392867e-01 2.807495e-01 2.839439e-01 1.132131e-01
<GCONST> 1.040353e+02
<STATE> 4
<MEAN> 39
 -1.020528e+00 1.157941e+00 4.164592e+00 5.677778e+00 3.583380e+00 4.934800e+00 -9.850613e+00 1.641648e-01 4.647459e+00 -8.204496e+00 -4.625550e+00 -4.981084e-01 7.865717e+01 -3.890670e-01 -9.277037e-01 -1.908123e-02 -1.146393e-01 -6.075454e-02 1.130994e-01 3.081744e-02 3.477947e-01 -2.794531e-02 -3.553619e-01 8.302932e-01 6.273978e-01 2.807662e-01 2.677001e-02 1.107711e-01 -1.396735e-01 1.766605e-03 -2.538226e-02 2.556074e-02 1.136044e-01 -2.786313e-02 1.274366e-01 1.551076e-01 -1.022600e-01 -8.030184e-02 -6.356215e-02
<VARIANCE> 39
 4.039692e+01 4.663268e+01 2.140234e+01 2.589395e+01 2.107831e+01 2.767969e+01 8.148925e+01 2.188373e+01 5.005469e+01 4.280892e+01 4.698346e+01 2.616755e+01 1.813936e+01 2.147068e+00 4.515071e+00 1.870731e+00 2.988100e+00 1.885360e+00 4.555975e+00 8.437963e+00 2.783594e+00 4.487577e+00 3.196404e+00 4.130842e+00 2.415410e+00 1.193616e+00 2.176453e-01 7.768376e-01 2.413307e-01 6.306940e-01 2.668440e-01 7.507306e-01 1.694053e+00 5.872912e-01 9.654026e-01 6.321957e-01 9.011318e-01 4.846355e-01 2.450752e-01
<GCONST> 1.235122e+02
<TRANSP> 5
 0.000000e+00 1.000000e+00 0.000000e+00 0.000000e+00 0.000000e+00
 0.000000e+00 7.117164e-01 2.882836e-01 0.000000e+00 0.000000e+00
 0.000000e+00 0.000000e+00 7.631434e-01 2.368566e-01 0.000000e+00
 0.000000e+00 0.000000e+00 0.000000e+00 7.006515e-01 2.993485e-01
 0.000000e+00 0.000000e+00 0.000000e+00 0.000000e+00 0.000000e+00
<ENDHMM>
~h "w"
<BEGINHMM>
<NUMSTATES> 5
<STATE> 2
<MEAN> 39
 -6.608343e-01 6.478035e-01 -8.421439e-01 7.099092e+00 5.782300e+00 4.493948e+00 -5.979032e+00 4.170239e-01 3.358801e+00 -5.526137e+00 -3.543427e+00 -8.820709e-01 7.753603e+01 1.446218e+00 1.102955e+00 3.815662e-01 -9.202007e-01 -1.075695e+00 -6.322708e-01 8.320034e-01 1.179275e+00 -3.218622e-01 -1.184572e+00 -1.159639e+00 -1.246314e+00 8.605115e-01 5.884121e-02 2.217410e-01 1.500135e-01 -1.414474e-01 -2.064851e-01 -2.065593e-01 -3.171122e-01 1.345876e-01 2.239633e-01 5.257441e-02 -2.793924e-02 -1.246173e-01 -6.977258e-02
<VARIANCE> 39
 3.763523e+01 4.305217e+01 1.922696e+01 2.765035e+01 3.784372e+01 3.420277e+01 9.077306e+01 5.855250e+01 2.263819e+01 4.754057e+01 3.579936e+01 1.910996e+01 3.326561e+01 3.858202e+00 2.533172e+00 1.324302e+00 2.493725e+00 3.582906e+00 2.667311e+00 6.491172e+00 3.747175e+00 2.144170e+00 3.495812e+00 4.624390e+00 3.510314e+00 4.534469e+00 3.134961e-01 8.018969e-01 2.749938e-01 2.425115e-01 4.041282e-01 3.569688e-01 8.812720e-01 6.114061e-01 3.965554e-01 6.864304e-01 5.408283e-01 5.006739e-01 5.121297e-01
<GCONST> 1.234178e+02
<STATE> 3
<MEAN> 39
 1.603404e+00 5.532541e+00 3.817153e-01 2.685563e+00 1.948266e+00 3.331755e+00 -4.225316e+00 4.068145e+00 3.242917e+00 -6.621500e+00 -5.659721e+00 -3.850192e+00 7.747076e+01 4.071951e-01 9.787253e-01 5.100206e-01 -3.472818e-01 -6.547408e-01 -9.794245e-01 -7.721006e-01 5.563522e-01 5.676109e-01 3.335326e-01 -1.686956e-01 -7.717288e-01 -1.472419e-01 -2.160227e-01 -2.122176e-01 -1.249188e-01 2.290123e-01 1.895035e-01 -9.794670e-02 -3.251643e-01 -2.191468e-01 9.342819e-02 2.647655e-01 3.653864e-01 3.514808e-01 -1.158843e-01
<VARIANCE> 39
 1.862937e+01 2.643102e+01 2.103912e+01 3.142474e+01 2.794884e+01 2.794677e+01 5.829177e+01 2.357382e+01 2.425169e+01 3.536587e+01 1.978343e+01 1.299558e+01 1.668667e+01 2.115858e+00 3.704422e+00 1.087553e+00 2.821474e+00 2.407972e+00 2.384400e+00 6.496425e+00 3.613950e+00 2.345076e+00 3.297256e+00 2.563042e+00 2.191743e+00 2.243858e+00 3.864413e-01 4.294463e-01 1.770882e-01 4.283183e-01 3.758183e-01 3.518213e-01 9.448730e-01 4.214891e-01 4.662938e-01 8.538628e-01 6.045780e-01 4.256310e-01 4.696677e-01
<GCONST> 1.156855e+02
<STATE> 4
<MEAN> 39
 3.279859e+00 8.754839e+00 1.810342e+00 3.610592e+00 -1.475434e+00 -5.101993e+00 -1.030112e+01 5.238006e+00 6.820827e+00 -4.653968e+00 -4.508248e+00 -3.404343e+00 7.711792e+01 6.991122e-02 -1.835251e-01 -2.597896e-01 6.123256e-02 -1.433446e-01 -3.209108e-01 -1.216740e-01 -1.200804e-01 -2.162237e-01 -1.079479e-01 1.122387e-01 2.561858e-01 8.875622e-02 -2.293442e-02 -2.727032e-01 -1.090634e-01 6.565113e-02 1.811123e-01 2.394896e-01 6.632626e-03 -1.898803e-01 -1.460688e-01 -1.485985e-01 2.420252e-02 1.080568e-01 1.048230e-01
<VARIANCE> 39
 7.931093e+00 2.477618e+01 1.898901e+01 1.505128e+01 2.272886e+01 8.570367e+01 4.619039e+01 2.633442e+01 2.395856e+01 3.874124e+01 2.083635e+01 3.732991e+01 9.339320e+00 7.364982e-01 1.791379e+00 1.112842e+00 9.982231e-01 1.696980e+00 4.104628e+00 4.112082e+00 1.556731e+00 1.730920e+00 3.580084e+00 1.885835e+00 3.283082e+00 9.003323e-01 9.263544e-02 1.838292e-01 1.451070e-01 1.889891e-01 2.380056e-01 5.049428e-01 6.695411e-01 3.168824e-01 2.994797e-01 4.154289e-01 3.973030e-01 6.408820e-01 9.452341e-02
<GCONST> 1.035879e+02
<TRANSP> 5
 0.000000e+00 1.000000e+00 0.000000e+00 0.000000e+00 0.000000e+00
 0.000000e+00 3.350117e-01 6.649883e-01 0.000000e+00 0.000000e+00
 0.000000e+00 0.000000e+00 5.598537e-01 4.401463e-01 0.000000e+00
 0.000000e+00 0.000000e+00 0.000000e+00 8.300333e-01 1.699667e-01
 0.000000e+00 0.000000e+00 0.000000e+00 0.000000e+00 0.000000e+00
<ENDHMM>
~h "y"
<BEGINHMM>
<NUMSTATES> 5
<STATE> 2
<MEAN> 39
 -1.469364e+00 -8.429108e+00 2.664364e+00 1.805204e+01 1.093353e+01 5.821985e+00 -9.393864e+00 -4.297561e+00 3.762785e+00 -3.106044e+00 -4.129014e+00 -3.769853e+00 7.953244e+01 9.763361e-01 1.451956e-01 -1.091070e-01 7.705059e-01 1.040248e+00 -7.115670e-02 -1.965028e+00 -9.562207e-01 4.717534e-01 -5.324129e-01 -6.021240e-01 3.853802e-01 4.437281e-01 -9.261509e-02 5.101003e-02 -1.420039e-01 -4.597373e-01 -1.783560e-01 1.341952e-01 6.883450e-03 -1.394260e-01 -6.956743e-02 -1.555344e-01 1.008692e-01 2.487171e-01 2.901313e-02
<VARIANCE> 39
 2.884200e+01 7.447516e+01 2.109428e+01 4.616576e+01 4.877924e+01 5.363904e+01 7.145429e+01 5.396205e+01 5.168712e+01 5.398985e+01 4.111213e+01 2.131763e+01 2.038784e+01 2.803012e+00 6.642746e+00 2.130308e+00 5.691632e+00 3.903347e+00 8.171310e+00 7.106031e+00 4.954132e+00 2.385595e+00 5.429194e+00 5.049956e+00 2.262226e+00 1.743996e+00 3.598508e-01 7.735447e-01 3.732684e-01 7.162336e-01 4.983374e-01 1.736627e+00 1.346122e+00 1.075032e+00 4.791893e-01 1.170059e+00 6.304378e-01 4.492522e-01 2.187921e-01
<GCONST> 1.323459e+02
<STATE> 3
<MEAN> 39
 3.529912e+00 -4.273771e+00 -1.091904e-01 1.196447e+01 1.056138e+01 6.636204e+00 -1.808100e+01 -7.492792e+00 4.636268e+00 -1.245013e+01 -6.872082e+00 1.490639e+00 8.281920e+01 2.698369e-01 4.447760e-01 -2.710009e-01 -9.440952e-01 -7.008573e-01 3.399393e-02 3.586283e-01 2.910322e-01 -2.148245e-01 -7.555204e-01 -6.028975e-01 5.757350e-02 3.018146e-04 -7.661595e-02 1.268337e-01 6.052481e-02 -6.414972e-02 -1.800047e-01 -1.309101e-01 2.817444e-01 3.095193e-01 6.586640e-02 1.343143e-01 -1.750902e-02 -2.254870e-01 -9.397568e-02
<VARIANCE> 39
 5.423571e+00 2.586157e+01 2.055259e+01 3.896376e+01 3.746668e+01 5.802686e+01 2.717056e+01 5.585585e+01 3.177137e+01 3.912150e+01 5.918993e+01 2.120585e+01 4.040889e+00 2.471659e-01 6.499071e-01 8.689138e-01 2.008898e+00 2.559235e+00 2.339518e+00 1.953625e+00 4.071747e+00 2.368196e+00 3.295623e+00 1.581368e+00 2.465024e+00 1.943461e-01 3.307536e-02 6.012687e-02 1.205589e-01 2.091457e-01 2.419754e-01 4.335256e-01 4.348263e-01 5.123488e-01 4.214100e-01 4.582710e-01 2.690624e-01 3.561044e-01 3.065302e-02
<GCONST> 9.720959e+01
<STATE> 4
<MEAN> 39
 8.832588e-01 -5.163392e-01 -2.334055e+00 5.909094e+00 3.357444e+00 1.123654e+00 -1.001641e+01 1.702603e-01 6.278500e+00 -5.100842e+00 -6.753237e+00 -4.410083e+00 7.929214e+01 -3.199640e-01 7.826438e-01 -1.969554e-01 -4.619134e-01 -6.001462e-01 -5.236390e-01 1.156547e+00 9.045249e-01 -8.049168e-03 8.716139e-01 4.367389e-01 -4.168612e-01 -5.848038e-01 -9.808972e-02 1.786069e-02 6.281041e-02 1.250433e-01 1.270334e-01 7.252678e-02 4.944913e-03 -1.052162e-01 -6.241427e-02 1.286992e-01 2.062147e-01 1.309169e-01 -1.007462e-01
<VARIANCE> 39
 3.751329e+01 9.300703e+01 4.800602e+01 3.565088e+01 8.512282e+01 8.473624e+01 5.373395e+01 5.704552e+01 3.542448e+01 9.018694e+01 5.425535e+01 3.501066e+01 2.108636e+01 1.074557e+00 4.820136e+00 2.511914e+00 1.287581e+00 3.240206e+00 5.825836e+00 4.709996e+00 3.036463e+00 2.410602e+00 2.663023e+00 1.275611e+00 1.723477e+00 2.125053e+00 1.424856e-01 6.959047e-01 5.243468e-01 2.638967e-01 7.566633e-01 8.557847e-01 7.560902e-01 4.104838e-01 3.577155e-01 5.059314e-01 2.656695e-01 2.655014e-01 2.766763e-01
<GCONST> 1.231369e+02
<TRANSP> 5
 0.000000e+00 1.000000e+00 0.000000e+00 0.000000e+00 0.000000e+00
 0.000000e+00 7.925243e-01 2.074756e-01 0.000000e+00 0.000000e+00
 0.000000e+00 0.000000e+00 8.855066e-01 1.144934e-01 0.000000e+00
 0.000000e+00 0.000000e+00 0.000000e+00 7.402951e-01 2.597049e-01
 0.000000e+00 0.000000e+00 0.000000e+00 0.000000e+00 0.000000e+00
<ENDHMM>
~h "z"
<BEGINHMM>
<NUMSTATES> 5
<STATE> 2
<MEAN> 39
 -5.686778e+00 -5.503735e+00 9.405146e+00 1.306557e+01 5.902174e+00 8.596537e+00 -3.868489e+00 -5.112438e+00 1.856989e-01 -1.034652e+00 6.479042e-01 -2.980016e+00 7.934914e+01 -1.212361e+00 -1.496917e+00 1.150416e+00 -6.064764e-01 -1.367401e+00 -3.279758e-01 2.346006e+00 6.077841e-03 -1.372407e+00 7.265325e-01 1.405468e+00 -4.873735e-01 7.418549e-01 -4.305893e-01 -3.214136e-01 4.269139e-02 -2.633844e-01 -8.313574e-03 -1.977552e-01 1.758850e-01 2.686832e-01 4.524106e-02 -3.651921e-02 2.769357e-01 1.334173e-01 1.160678e-01
<VARIANCE> 39
 2.660176e+01 5.034366e+01 3.848670e+01 2.567407e+01 4.392976e+01 4.437860e+01 6.315051e+01 5.454017e+01 3.671392e+01 2.672180e+01 2.825313e+01 2.469507e+01 3.306174e+01 3.140482e+00 8.271737e+00 3.760872e+00 3.160985e+00 5.240176e+00 4.825865e+00 5.618333e+00 4.064525e+00 2.746362e+00 3.423769e+00 3.003014e+00 1.989664e+00 3.296958e+00 3.353040e-01 1.144074e+00 4.607197e-01 7.226719e-01 9.206018e-01 7.400826e-01 8.790069e-01 6.787058e-01 4.158185e-01 2.920900e-01 5.209772e-01 2.376988e-01 6.178188e-01
<GCONST> 1.281038e+02
<STATE> 3
<MEAN> 39
 -1.273993e+01 -1.066203e+01 1.559977e+01 9.449152e+00 2.341123e+00 7.732844e+00 4.577741e+00 -2.337809e+00 -3.330546e+00 -3.929634e-02 6.253044e+00 -4.029163e+00 8.173128e+01 -2.214953e+00 -1.712889e+00 -2.394867e-02 -1.216669e+00 -6.854957e-01 -8.349228e-01 1.408231e+00 1.125183e+00 1.456691e-01 6.249645e-01 1.412806e+00 3.643258e-01 2.449593e-01 5.353400e-01 2.774452e-01 -7.481835e-01 5.680691e-03 2.222111e-01 -2.615207e-02 -7.433649e-01 -1.131314e-01 3.258269e-01 -3.095134e-01 -4.296956e-01 2.780265e-01 -9.265409e-02
<VARIANCE> 39
 3.280019e+01 1.885212e+01 1.950452e+01 2.533576e+01 2.345747e+01 1.492960e+01 2.505371e+01 2.188938e+01 3.575729e+01 1.241436e+01 1.355453e+01 1.275769e+01 6.281739e+00 3.171443e+00 2.260025e+00 4.663853e+00 2.474821e+00 1.732472e+00 1.703943e+00 2.978597e+00 2.214580e+00 2.137206e+00 1.810455e+00 1.621789e+00 1.199852e+00 5.342567e-01 4.861988e-01 4.515332e-01 6.097928e-01 3.306984e-01 4.673780e-01 4.247411e-01 4.230677e-01 4.403726e-01 4.746192e-01 3.659704e-01 2.732071e-01 2.321677e-01 1.485544e-01
<GCONST> 1.055055e+02
<STATE> 4
<MEAN> 39
 -1.620441e+01 -1.094333e+01 4.786973e+00 5.118783e+00 5.926813e-01 6.193751e+00 5.809085e+00 1.812805e+00 -9.121521e-01 1.268089e+00 7.442719e+00 2.180241e+00 7.637234e+01 2.420467e-01 7.097944e-01 -6.318961e-01 4.608574e-02 2.118932e-01 1.673450e-01 -1.300651e-01 1.107158e-02 1.862252e-01 6.119270e-02 -3.004636e-01 3.226076e-01 -5.932282e-01 1.124093e-01 1.959870e-01 7.015102e-02 9.726712e-02 6.791569e-02 4.976273e-02 -7.126889e-02 -3.747142e-02 -3.440984e-03 -5.176872e-02 -1.268048e-01 -7.730292e-02 -7.038863e-02
<VARIANCE> 39
 2.714767e+01 6.329081e+01 4.350688e+01 2.935850e+01 1.930077e+01 2.327615e+01 1.390775e+01 2.338129e+01 5.254635e+01 2.664605e+01 1.509507e+01 1.991512e+01 5.951989e+01 1.453948e+00 2.635365e+00 2.323025e+00 1.167141e+00 1.258327e+00 1.190878e+00 1.380452e+00 1.186661e+00 1.917670e+00 1.473524e+00 1.334031e+00 1.023864e+00 1.197017e+00 2.391356e-01 5.138321e-01 4.014122e-01 2.464914e-01 2.193641e-01 2.520727e-01 2.516237e-01 2.144594e-01 2.924523e-01 2.488723e-01 2.464395e-01 2.125218e-01 1.790082e-01
<GCONST> 1.024621e+02
<TRANSP> 5
 0.000000e+00 1.000000e+00 0.000000e+00 0.000000e+00 0.000000e+00
 0.000000e+00 5.932498e-01 4.067502e-01 0.000000e+00 0.000000e+00
 0.000000e+00 0.000000e+00 7.438863e-01 2.561137e-01 0.000000e+00
 0.000000e+00 0.000000e+00 0.000000e+00 9.006702e-01 9.932980e-02
 0.000000e+00 0.000000e+00 0.000000e+00 0.000000e+00 0.000000e+00
<ENDHMM>
~h "aa"
<BEGINHMM>
<NUMSTATES> 5
<STATE> 2
<MEAN> 39
 -6.572902e-01 -2.687576e+00 -2.510053e+00 -1.191386e+00 -4.944273e+00 2.879720e+00 -4.509735e-01 2.049957e+00 1.540479e+00 -3.000730e+00 3.525442e+00 3.236401e+00 8.206481e+01 2.768959e+00 1.395346e-01 -8.862746e-01 -2.461562e+00 -1.974765e+00 -6.648107e-01 -1.490110e+00 -5.202098e-01 1.257647e+00 1.155140e+00 5.182639e-03 -2.837093e-01 2.457383e+00 -3.991656e-01 2.456706e-01 -5.962934e-02 7.030748e-03 2.494621e-01 4.454182e-01 2.884069e-01 -4.217212e-02 3.698255e-01 5.614138e-01 -3.435029e-01 -2.216854e-01 -4.914477e-01
<VARIANCE> 39
 4.625922e+01 3.488924e+01 2.165326e+01 2.715426e+01 2.939825e+01 9.924442e+00 6.567749e+01 3.949952e+01 4.401772e+01 4.950056e+01 3.370644e+01 3.056974e+01 3.063608e+01 3.418933e+00 5.497903e+00 2.482241e+00 2.015256e+00 5.440260e+00 2.870186e+00 4.950796e+00 4.743805e+00 4.999148e+00 8.054588e+00 4.336460e+00 3.873207e+00 4.574747e+00 5.503628e-01 1.209350e+00 5.299011e-01 3.943501e-01 1.090818e+00 3.652051e-01 1.069663e+00 5.762516e-01 6.139854e-01 1.088523e+00 5.003338e-01 5.265406e-01 6.204551e-01
<GCONST> 1.299181e+02
<STATE> 3
<MEAN> 39
 7.350602e+00 -3.438777e+00 -8.426819e+00 -6.210751e+00 -8.847290e+00 2.767145e+00 -4.050146e+00 1.555520e+00 9.104989e+00 3.866532e+00 -2.171582e+00 1.360744e+00 8.467257e+01 1.441904e-01 -1.590206e-01 -4.816957e-01 -5.622384e-01 -3.198939e-01 6.545107e-01 1.557245e-01 -8.797699e-01 6.370925e-01 8.361866e-01 -5.058831e-01 -1.515934e-01 9.457896e-02 -3.264280e-01 8.040319e-02 3.135010e-01 3.824477e-01 4.052570e-01 1.702692e-01 1.077247e-01 -2.726059e-02 -2.706206e-01 -3.212057e-01 6.671575e-02 -1.159503e-01 -2.690523e-01
<VARIANCE> 39
 9.024508e+00 1.495426e+01 2.200107e+01 2.377856e+01 1.625402e+01 4.444333e+01 3.964766e+01 3.429906e+01 2.540757e+01 2.836006e+01 2.162645e+01 3.133642e+01 3.508102e+00 3.280155e-01 1.112892e+00 1.073070e+00 1.200534e+00 3.304327e+00 1.570558e+00 3.261331e+00 2.324550e+00 2.329087e+00 2.646159e+00 1.733757e+00 1.747046e+00 2.841524e-01 1.476108e-01 2.138618e-01 7.937440e-02 2.627419e-01 1.873145e-01 4.525496e-01 5.516544e-01 8.652014e-01 4.333390e-01 2.549427e-01 4.382250e-01 3.703186e-01 7.620524e-02
<GCONST> 9.845107e+01
<STATE> 4
<MEAN> 39
 4.908161e+00 4.376521e-01 -5.097285e+00 -8.135960e+00 -8.872075e+00 5.390100e+00 -2.302222e+00 -2.138829e+00 7.605590e+00 4.492391e+00 -1.142226e+00 -9.657387e-01 8.513273e+01 -2.839343e-01 6.418671e-02 2.912413e-01 4.394393e-01 8.033631e-01 6.929962e-02 -1.005029e-01 2.042106e-01 -6.237193e-01 -7.844214e-01 3.067645e-01 2.242870e-01 -2.428475e-01 -1.684284e-01 -5.368196e-02 1.120754e-01 2.870807e-01 1.983677e-01 2.473302e-04 1.045301e-01 1.007665e-01 -1.509006e-01 -1.379337e-01 8.333641e-02 5.464091e-02 -1.236958e-01
<VARIANCE> 39
 4.071479e+00 9.709138e+00 1.150221e+01 1.539075e+01 3.997522e+01 1.891143e+01 3.323372e+01 1.741356e+01 3.431223e+01 3.990168e+01 3.691735e+01 2.355490e+01 2.391035e+00 4.790683e-01 7.517707e-01 8.668621e-01 2.022722e+00 1.749745e+00 8.806906e-01 2.315746e+00 1.710557e+00 1.174334e+00 2.472989e+00 1.394089e+00 1.669996e+00 3.171303e-01 7.969752e-02 1.632423e-01 1.162518e-01 2.292763e-01 2.315660e-01 1.538742e-01 5.241991e-01 2.503375e-01 1.965439e-01 3.840503e-01 1.939398e-01 2.514371e-01 6.511551e-02
<GCONST> 8.882470e+01
<TRANSP> 5
 0.000000e+00 1.000000e+00 0.000000e+00 0.000000e+00 0.000000e+00
 0.000000e+00 7.126075e-01 2.873925e-01 0.000000e+00 0.000000e+00
 0.000000e+00 0.000000e+00 7.500875e-01 2.499125e-01 0.000000e+00
 0.000000e+00 0.000000e+00 0.000000e+00 9.006226e-01 9.937741e-02
 0.000000e+00 0.000000e+00 0.000000e+00 0.000000e+00 0.000000e+00
<ENDHMM>
~h "ae"
<BEGINHMM>
<NUMSTATES> 5
<STATE> 2
<MEAN> 39
 -1.399559e+01 -5.462866e-01 -1.549382e+00 6.094597e+00 3.008481e+00 5.160139e+00 2.095886e+00 3.768973e+00 3.993953e+00 3.340736e+00 4.454312e+00 5.436873e+00 6.741878e+01 4.313185e-01 -1.756842e-01 -4.402337e-01 -3.574790e-01 1.039269e-01 -2.359867e-02 -5.363282e-01 -9.589380e-02 4.384158e-02 -7.609898e-02 3.154041e-01 3.907931e-01 3.484525e-01 3.362418e-01 -5.160715e-03 -1.041843e-01 -1.150744e-01 -8.484850e-03 -1.360183e-01 -3.527783e-01 -1.516904e-01 -5.298404e-02 -9.848062e-02 -3.593079e-02 -9.578013e-03 2.596751e-01
<VARIANCE> 39
 4.208809e+01 2.958106e+01 1.385543e+01 2.695307e+01 2.037814e+01 1.729908e+01 3.802326e+01 1.863818e+01 1.558556e+01 3.581632e+01 1.847193e+01 1.458945e+01 4.441576e+01 3.262852e+00 2.485741e+00 1.441923e+00 1.568471e+00 1.036452e+00 1.449828e+00 4.883432e+00 2.409188e+00 1.408415e+00 1.443307e+00 1.672686e+00 1.507392e+00 2.270374e+00 4.263937e-01 3.551138e-01 2.171112e-01 3.279098e-01 2.089756e-01 1.841048e-01 6.929207e-01 3.214414e-01 3.046321e-01 2.937675e-01 2.956744e-01 2.805052e-01 3.305546e-01
<GCONST> 1.058062e+02
<STATE> 3
<MEAN> 39
 2.549145e+00 -3.112249e+00 -5.593912e+00 2.293761e+00 5.243083e+00 1.722272e+00 -1.411009e+01 -2.949479e+00 2.361589e+00 -4.724685e+00 4.915508e+00 7.682535e+00 8.177390e+01 1.888931e+00 -5.751251e-01 -1.225788e+00 -1.229254e+00 -5.941093e-02 -3.155261e-01 -1.950345e+00 -2.635459e-01 3.837807e-01 -4.933289e-01 5.635285e-01 7.754571e-01 1.832578e+00 -6.969117e-01 2.006573e-02 1.544056e-01 1.069939e-01 6.393574e-02 4.459193e-01 8.727366e-01 2.073088e-01 2.046327e-01 4.379480e-01 -4.391715e-02 -3.046031e-01 -4.821756e-01
<VARIANCE> 39
 1.806870e+01 2.158259e+01 4.597976e+01 2.326368e+01 1.941507e+01 3.234467e+01 3.151186e+01 4.531941e+01 3.631083e+01 3.677532e+01 1.732283e+01 1.925078e+01 2.750315e+01 4.366837e+00 2.823175e+00 1.649287e+00 1.784559e+00 3.065851e+00 2.323730e+00 6.752684e+00 3.530412e+00 2.605060e+00 2.043440e+00 1.817461e+00 1.854424e+00 3.786577e+00 3.536618e-01 5.508365e-01 4.201245e-01 2.924438e-01 3.769352e-01 4.952156e-01 7.681515e-01 7.269691e-01 4.937615e-01 3.108678e-01 4.012619e-01 3.499710e-01 3.062480e-01
<GCONST> 1.165766e+02
<STATE> 4
<MEAN> 39
 4.393991e+00 -3.648202e+00 -6.772540e+00 -3.550554e+00 2.446265e+00 5.255411e+00 -1.251357e+01 -4.334658e+00 6.025269e+00 -1.718975e+00 6.032585e+00 5.118489e+00 8.541190e+01 -3.559765e-02 5.677256e-01 2.900381e-02 2.242625e-01 6.202927e-01 4.350254e-01 2.022090e-01 -4.719521e-01 -2.621581e-01 -8.660606e-02 -3.172078e-01 -4.278142e-01 -3.898058e-01 -2.295526e-01 1.960512e-01 2.643074e-01 2.700371e-01 2.555635e-02 1.186301e-01 3.404433e-01 3.189205e-02 -1.991497e-01 2.848950e-02 -1.381075e-01 -9.649986e-02 -3.507724e-01
<VARIANCE> 39
 7.815069e+00 1.365385e+01 2.528309e+01 2.792860e+01 4.888631e+01 3.266356e+01 4.408247e+01 2.848619e+01 3.261349e+01 3.844019e+01 2.046330e+01 1.750855e+01 8.707293e+00 5.249826e-01 1.040175e+00 1.510196e+00 1.669414e+00 1.596124e+00 2.581282e+00 2.648929e+00 2.072899e+00 2.116077e+00 1.323798e+00 1.787903e+00 1.250039e+00 9.154649e-01 1.474425e-01 1.762879e-01 2.149659e-01 1.939061e-01 3.087877e-01 2.932086e-01 6.806870e-01 4.024827e-01 3.599236e-01 2.612629e-01 3.316538e-01 2.778707e-01 1.218933e-01
<GCONST> 1.004049e+02
<TRANSP> 5
 0.000000e+00 1.000000e+00 0.000000e+00 0.000000e+00 0.000000e+00
 0.000000e+00 8.345463e-01 1.654537e-01 0.000000e+00 0.000000e+00
 0.000000e+00 0.000000e+00 6.754610e-01 3.245390e-01 0.000000e+00
 0.000000e+00 0.000000e+00 0.000000e+00 8.588218e-01 1.411782e-01
 0.000000e+00 0.000000e+00 0.000000e+00 0.000000e+00 0.000000e+00
<ENDHMM>
~h "ah"
<BEGINHMM>
<NUMSTATES> 5
<STATE> 2
<MEAN> 39
 -4.601695e+00 -3.176608e+00 6.496788e-01 6.649891e+00 1.129761e+00 2.694289e+00 -1.460662e+00 6.441950e-01 -8.701838e-01 -3.298868e+00 1.589597e+00 1.974450e+00 7.691644e+01 2.266612e+00 -9.448406e-01 -8.671244e-01 -1.227494e+00 -6.052725e-01 -5.722034e-01 -1.932378e+00 -3.021080e-01 2.072611e-02 -1.363443e+00 -3.549853e-01 -1.577184e-01 2.264958e+00 -3.910929e-03 2.964114e-01 7.001261e-02 -1.805854e-01 2.523383e-01 9.425477e-02 -2.986931e-01 8.740126e-02 2.459297e-01 7.076738e-02 2.559621e-02 8.995133e-03 -2.201417e-02
<VARIANCE> 39
 5.835484e+01 7.569773e+01 3.068378e+01 4.622083e+01 4.479973e+01 4.112356e+01 6.893385e+01 5.489860e+01 4.064286e+01 3.752950e+01 3.172576e+01 3.184772e+01 7.187415e+01 4.497436e+00 1.106928e+01 4.370969e+00 5.515889e+00 7.029400e+00 4.817540e+00 8.255285e+00 5.341848e+00 3.552910e+00 4.886256e+00 3.072759e+00 3.434343e+00 5.747830e+00 8.423278e-01 2.042166e+00 7.550735e-01 1.062934e+00 1.166378e+00 8.178920e-01 1.535138e+00 8.839129e-01 6.882266e-01 7.389267e-01 5.251166e-01 5.178823e-01 1.297998e+00
<GCONST> 1.418297e+02
<STATE> 3
<MEAN> 39
 5.546086e+00 -1.944502e+00 -3.933952e+00 4.376494e-01 1.278646e+00 -5.251924e-01 -1.200135e+01 4.466088e-01 -1.137918e+00 -1.012850e+01 3.468816e-01 2.955426e+00 8.416989e+01 -1.478875e-01 8.654191e-01 -6.916185e-02 1.068162e-01 4.941229e-01 3.164381e-01 4.683550e-02 3.078967e-01 3.783262e-01 1.392732e-01 -6.666733e-02 1.890485e-02 -7.082254e-01 -7.538981e-01 -2.557647e-02 3.355316e-01 2.994168e-01 -6.994142e-02 2.774011e-01 8.936474e-01 2.675659e-02 5.160577e-02 5.181174e-01 6.257278e-02 -7.095730e-02 -5.251930e-01
<VARIANCE> 39
 1.093194e+01 1.769351e+01 4.013345e+01 3.586588e+01 3.588256e+01 2.845991e+01 4.805996e+01 4.719779e+01 3.886539e+01 3.153993e+01 3.057574e+01 3.145249e+01 9.483435e+00 3.253050e+00 1.827007e+00 4.973056e+00 3.309413e+00 1.957411e+00 3.295758e+00 9.965615e+00 3.022386e+00 2.817579e+00 4.092828e+00 2.133012e+00 1.948290e+00 2.112709e+00 3.437757e-01 4.582307e-01 6.832560e-01 5.845552e-01 4.545968e-01 5.242599e-01 1.169186e+00 4.596070e-01 5.308668e-01 7.489711e-01 5.381184e-01 3.767900e-01 2.436724e-01
<GCONST> 1.208182e+02
<STATE> 4
<MEAN> 39
 -1.797267e+00 2.249258e-01 9.146597e-01 6.945871e+00 3.463230e+00 1.910845e+00 -7.841783e+00 -2.627109e+00 1.823650e+00 -4.971059e+00 -3.974563e-01 2.570033e+00 7.707968e+01 -1.110089e+00 2.495800e-01 -9.171332e-02 1.081059e-01 -1.014898e-01 3.888992e-01 7.019792e-01 -1.378152e-01 3.155040e-01 1.035441e+00 2.500181e-01 5.604661e-01 -1.202790e+00 8.528201e-02 -1.720252e-01 -1.692631e-01 -6.234656e-02 3.032370e-02 -4.426527e-02 -1.903241e-01 1.580455e-02 -7.959446e-02 -1.645461e-01 -5.631304e-02 1.913773e-02 1.430433e-01
<VARIANCE> 39
 2.896130e+01 3.799800e+01 3.241927e+01 5.241888e+01 6.063760e+01 2.858951e+01 7.146918e+01 5.606142e+01 4.438416e+01 3.250287e+01 3.039138e+01 2.661412e+01 3.037650e+01 2.689667e+00 1.634145e+00 1.793833e+00 1.993611e+00 2.586542e+00 3.923077e+00 6.807677e+00 2.942364e+00 2.381658e+00 3.258339e+00 2.480678e+00 2.588238e+00 2.468631e+00 2.780540e-01 3.038800e-01 3.267302e-01 5.205835e-01 4.271362e-01 5.515983e-01 1.042775e+00 6.428620e-01 4.591322e-01 5.475778e-01 5.232956e-01 5.878087e-01 2.487141e-01
<GCONST> 1.220983e+02
<TRANSP> 5
 0.000000e+00 1.000000e+00 0.000000e+00 0.000000e+00 0.000000e+00
 0.000000e+00 6.385002e-01 3.614998e-01 0.000000e+00 0.000000e+00
 0.000000e+00 0.000000e+00 7.726960e-01 2.273040e-01 0.000000e+00
 0.000000e+00 0.000000e+00 0.000000e+00 6.863678e-01 3.136321e-01
 0.000000e+00 0.000000e+00 0.000000e+00 0.000000e+00 0.000000e+00
<ENDHMM>
~h "ao"
<BEGINHMM>
<NUMSTATES> 5
<STATE> 2
<MEAN> 39
 -1.651857e+01 1.336065e+00 -1.982036e+00 4.242068e+00 2.279207e+00 5.366436e+00 4.626870e+00 6.258755e+00 4.217384e+00 3.386254e+00 3.665745e+00 4.618133e+00 6.476670e+01 3.802115e-02 1.281616e-01 7.253276e-02 1.246521e-02 -2.986130e-02 -3.210846e-02 -3.316068e-02 -3.907099e-03 2.458363e-02 1.052419e-01 3.569148e-02 3.344014e-02 -3.970338e-02 1.505794e-01 3.985330e-02 8.229146e-03 1.451643e-02 -8.222573e-03 -6.798173e-02 -1.310927e-01 -1.049898e-01 -4.092034e-02 -6.732368e-02 -9.152627e-02 -7.256058e-02 9.865397e-02
<VARIANCE> 39
 1.737477e+01 1.095805e+01 1.004414e+01 1.079093e+01 1.093511e+01 1.440666e+01 1.525172e+01 1.114559e+01 1.139271e+01 1.424554e+01 1.126931e+01 1.413591e+01 1.767709e+01 7.267965e-01 7.276515e-01 5.129331e-01 8.923627e-01 1.219632e+00 1.150527e+00 1.313855e+00 1.329422e+00 1.283243e+00 1.219056e+00 9.410301e-01 8.495022e-01 3.469504e-01 1.531327e-01 1.288828e-01 1.056944e-01 1.687477e-01 2.475498e-01 2.960239e-01 2.784495e-01 2.542711e-01 2.231226e-01 2.236290e-01 1.793288e-01 1.791484e-01 7.910539e-02
<GCONST> 8.129681e+01
<STATE> 3
<MEAN> 39
 -1.384708e+00 4.444871e+00 -1.847852e+00 2.617418e+00 -2.933097e+00 -2.684610e+00 -5.045407e+00 2.010959e+00 4.425279e+00 1.219598e+00 -1.925976e+00 -2.081706e+00 7.493083e+01 2.611030e+00 2.237428e-01 -4.522304e-01 -7.498252e-01 -1.665280e+00 -2.385622e+00 -1.766841e+00 1.931033e-01 6.476769e-01 3.330426e-02 -5.855199e-01 -5.790112e-01 1.842088e+00 -2.362038e-01 -1.690029e-01 -7.171732e-02 -1.119271e-01 -1.635117e-02 1.103194e-01 2.515944e-01 2.646404e-01 1.830236e-01 4.806266e-02 1.709656e-01 2.178229e-01 -6.314845e-02
<VARIANCE> 39
 5.598608e+01 2.503216e+01 1.832073e+01 1.960221e+01 8.804771e+01 1.551846e+02 4.691964e+01 3.320529e+01 2.928710e+01 7.808070e+01 2.320022e+01 2.334133e+01 3.624023e+01 3.417529e+00 2.788073e+00 1.657604e+00 2.138074e+00 3.563317e+00 6.419846e+00 4.713323e+00 4.056087e+00 2.510106e+00 3.651269e+00 2.234658e+00 3.245972e+00 1.771451e+00 6.815719e-01 4.555008e-01 2.670088e-01 3.128357e-01 5.965709e-01 1.359504e+00 8.687313e-01 6.157202e-01 4.453174e-01 4.798961e-01 3.275155e-01 3.606641e-01 3.735387e-01
<GCONST> 1.245169e+02
<STATE> 4
<MEAN> 39
 6.250209e+00 4.245411e+00 -4.328841e+00 -2.586673e+00 -8.187051e+00 -7.843958e+00 -9.150001e+00 5.634109e+00 8.206005e+00 -2.229470e+00 -4.433658e+00 -2.735735e+00 8.134914e+01 -2.185052e-01 1.616052e-02 -1.474440e-01 -9.667301e-02 5.684043e-01 9.860049e-01 5.737817e-01 -1.325231e-01 -5.806027e-01 -5.036544e-01 -7.499474e-02 1.765693e-01 -1.881626e-01 -1.909068e-01 -2.220332e-02 7.152312e-02 1.604186e-01 2.234477e-01 3.129196e-01 2.281130e-01 -1.109901e-01 -1.947357e-01 -8.189410e-03 6.525937e-02 5.639293e-02 -1.480396e-01
<VARIANCE> 39
 4.719468e+00 2.190792e+01 1.928603e+01 3.359453e+01 2.516801e+01 6.834644e+01 4.085596e+01 2.171259e+01 4.311984e+01 6.632751e+01 1.412669e+01 2.902380e+01 7.474284e+00 7.107310e-01 1.380697e+00 1.124001e+00 1.414888e+00 2.055572e+00 3.523814e+00 2.705039e+00 1.793026e+00 2.836233e+00 3.164936e+00 1.370391e+00 1.804087e+00 6.913376e-01 1.109130e-01 2.734428e-01 2.017044e-01 2.298591e-01 2.074018e-01 4.273244e-01 4.494168e-01 3.249404e-01 3.244923e-01 4.140552e-01 2.812796e-01 2.951585e-01 1.074416e-01
<GCONST> 1.021078e+02
<TRANSP> 5
 0.000000e+00 1.000000e+00 0.000000e+00 0.000000e+00 0.000000e+00
 0.000000e+00 9.288136e-01 7.118639e-02 0.000000e+00 0.000000e+00
 0.000000e+00 0.000000e+00 8.067864e-01 1.932136e-01 0.000000e+00
 0.000000e+00 0.000000e+00 0.000000e+00 9.148027e-01 8.519723e-02
 0.000000e+00 0.000000e+00 0.000000e+00 0.000000e+00 0.000000e+00
<ENDHMM>
~h "aw"
<BEGINHMM>
<NUMSTATES> 5
<STATE> 2
<MEAN> 39
 6.722244e+00 6.014430e+00 -2.701648e+00 9.049295e-01 -9.728511e+00 -1.597660e+01 -1.169286e+01 8.643733e+00 7.972538e+00 -1.920480e+00 -4.983266e+00 -6.333959e+00 8.030501e+01 -1.326959e-01 4.362266e-01 2.197039e-01 2.034684e-01 2.492141e-01 -2.650931e-01 -4.988113e-01 6.087337e-02 3.856243e-01 1.098683e-01 -3.044928e-01 -3.947440e-01 -2.916564e-01 -8.746678e-02 4.372773e-02 9.194774e-02 2.955354e-02 1.329874e-01 3.121942e-01 1.143312e-01 -1.226275e-01 -7.518337e-02 -3.772630e-02 1.042716e-02 2.465667e-02 -6.040617e-02
<VARIANCE> 39
 3.699322e+00 2.010181e+01 2.166663e+01 1.587227e+01 1.387088e+01 2.831474e+01 3.146203e+01 1.890962e+01 2.539941e+01 3.060413e+01 1.433142e+01 1.454056e+01 5.376343e+00 2.671556e-01 6.650497e-01 1.122642e+00 7.337315e-01 1.356278e+00 2.534270e+00 1.842130e+00 1.136764e+00 1.686992e+00 9.916366e-01 1.009413e+00 1.245872e+00 2.993514e-01 3.618311e-02 7.176994e-02 1.486913e-01 1.512715e-01 1.885840e-01 2.949274e-01 3.269343e-01 2.003059e-01 2.757499e-01 1.339752e-01 1.522488e-01 2.006598e-01 2.989114e-02
<GCONST> 8.179494e+01
<STATE> 3
<MEAN> 39
 1.803655e+00 1.353538e+01 1.610982e+00 7.845551e-01 -2.952425e+00 -3.876431e+00 -7.654070e+00 4.091524e+00 6.705797e+00 7.421917e-02 -4.872337e+00 -8.485834e+00 7.411161e+01 -1.612242e+00 3.446977e-01 6.197080e-01 2.933474e-01 6.307995e-01 2.614537e+00 2.814962e+00 -3.158474e-01 -7.826276e-01 3.063534e-01 6.304591e-01 9.802368e-01 -1.237877e+00 -3.309111e-01 -4.449374e-01 -9.631518e-02 2.785763e-01 -9.740527e-02 -2.756947e-01 3.291225e-01 3.720281e-01 6.780905e-02 8.333398e-02 1.385411e-01 3.356857e-01 -1.118641e-01
<VARIANCE> 39
 1.028890e+01 9.012621e+00 1.630949e+01 8.697345e+00 1.204652e+01 2.557432e+01 3.687938e+01 1.268966e+01 1.501995e+01 3.660664e+01 2.715753e+01 1.825050e+01 8.074564e+00 1.132828e+00 1.452543e+00 9.049096e-01 1.438352e+00 1.540170e+00 2.752014e+00 2.211611e+00 2.442127e+00 1.192636e+00 1.635371e+00 1.221027e+00 2.017390e+00 4.844214e-01 1.048385e-01 1.225531e-01 1.668029e-01 1.485061e-01 2.793628e-01 5.258340e-01 7.403513e-01 3.543165e-01 2.665579e-01 2.678208e-01 3.232331e-01 3.724508e-01 5.196624e-02
<GCONST> 9.335918e+01
<STATE> 4
<MEAN> 39
 -1.331536e+01 5.349274e+00 -1.790926e+00 2.933972e+00 1.548411e+00 4.423856e+00 4.207066e+00 6.295734e+00 3.947345e+00 2.163039e+00 5.369823e-01 6.882990e-01 6.707677e+01 -7.853869e-01 -5.956916e-01 -2.221499e-01 8.310026e-02 1.029745e-01 6.778045e-02 1.827785e-01 4.944894e-02 3.282599e-02 1.976396e-01 2.551511e-01 3.282966e-01 -4.098002e-01 2.007120e-01 -5.773503e-03 -7.758151e-02 -8.399689e-02 -4.015756e-02 -1.112354e-01 -2.387729e-01 -1.538330e-01 -8.984654e-02 -1.187525e-01 -7.918760e-02 -3.647364e-02 1.458335e-01
<VARIANCE> 39
 1.772676e+01 1.639205e+01 1.785118e+01 1.129644e+01 1.246211e+01 1.690294e+01 1.202624e+01 7.213593e+00 1.083822e+01 2.255037e+01 2.011644e+01 1.739745e+01 6.363061e+00 1.160575e+00 1.134003e+00 9.733621e-01 7.139285e-01 8.249742e-01 1.147227e+00 1.273758e+00 1.249922e+00 7.862187e-01 1.025023e+00 1.118846e+00 1.055806e+00 3.765669e-01 1.189494e-01 1.816445e-01 2.064401e-01 1.579114e-01 1.936788e-01 2.633919e-01 3.024093e-01 2.182467e-01 1.677839e-01 2.820483e-01 2.749726e-01 2.118648e-01 5.889806e-02
<GCONST> 8.329331e+01
<TRANSP> 5
 0.000000e+00 1.000000e+00 0.000000e+00 0.000000e+00 0.000000e+00
 0.000000e+00 9.385901e-01 6.140988e-02 0.000000e+00 0.000000e+00
 0.000000e+00 0.000000e+00 8.062475e-01 1.937524e-01 0.000000e+00
 0.000000e+00 0.000000e+00 0.000000e+00 8.967208e-01 1.032792e-01
 0.000000e+00 0.000000e+00 0.000000e+00 0.000000e+00 0.000000e+00
<ENDHMM>
~h "ax"
<BEGINHMM>
<NUMSTATES> 5
<STATE> 2
<MEAN> 39
 1.148285e+00 -2.005162e+00 -1.517046e+00 6.575669e+00 3.802027e+00 2.973290e+00 -7.673599e+00 3.117741e-01 8.189074e-01 -9.027575e+00 -3.751915e+00 1.505656e+00 7.937961e+01 2.097795e+00 4.049797e-01 1.135477e-01 -5.661996e-02 2.009775e-02 -1.239625e+00 -2.287436e+00 5.324851e-01 1.762074e-01 -2.233704e+00 -9.929715e-01 -1.188834e-01 1.417724e+00 -6.950796e-01 4.589419e-01 2.590964e-01 -3.118880e-02 -7.704427e-02 1.461594e-02 3.614770e-01 2.338356e-01 2.108553e-01 5.071223e-01 3.343365e-01 -1.013027e-01 -6.469010e-01
<VARIANCE> 39
 3.228625e+01 2.959259e+01 3.764728e+01 4.064975e+01 3.781587e+01 3.757417e+01 7.133643e+01 4.512899e+01 3.137831e+01 5.426264e+01 3.812941e+01 2.161592e+01 3.148202e+01 5.466930e+00 3.754477e+00 2.747797e+00 2.190563e+00 3.660112e+00 3.430429e+00 7.757337e+00 4.191725e+00 2.965104e+00 5.332012e+00 3.657253e+00 3.468260e+00 5.369338e+00 5.797582e-01 7.829547e-01 4.949029e-01 4.350352e-01 5.568001e-01 4.756755e-01 1.460877e+00 5.418819e-01 4.391757e-01 7.853631e-01 4.728865e-01 4.254004e-01 6.078488e-01
<GCONST> 1.295689e+02
<STATE> 3
<MEAN> 39
 4.055974e+00 6.553816e-01 -3.115171e-01 6.185217e+00 2.891356e+00 -9.761580e-01 -1.327504e+01 2.483039e+00 1.697636e+00 -1.502980e+01 -5.828908e+00 1.050167e+00 8.068036e+01 -4.590264e-01 7.710534e-01 5.121838e-02 1.690703e-01 1.083786e-02 7.297463e-02 9.216796e-01 2.156237e-01 -5.964291e-03 6.432948e-01 2.922779e-02 -1.823251e-01 -7.123551e-01 -4.384949e-01 2.027024e-02 5.159572e-02 1.028675e-01 3.945026e-02 3.531050e-01 7.217495e-01 -1.148564e-01 -6.169257e-02 6.237760e-01 2.218467e-01 -2.222653e-02 -3.265871e-01
<VARIANCE> 39
 1.242666e+01 2.433583e+01 2.553338e+01 3.905713e+01 3.452808e+01 5.120842e+01 3.207489e+01 4.981498e+01 3.890646e+01 4.966110e+01 3.000525e+01 2.688375e+01 1.276785e+01 1.051939e+00 1.319159e+00 1.508161e+00 1.539647e+00 1.744778e+00 3.062543e+00 4.237726e+00 2.737128e+00 1.705429e+00 2.999391e+00 1.927635e+00 1.792811e+00 1.164631e+00 1.693241e-01 2.517614e-01 2.523211e-01 2.603087e-01 3.493443e-01 3.698984e-01 6.248478e-01 4.528897e-01 2.976268e-01 4.311923e-01 3.689921e-01 3.041275e-01 1.252977e-01
<GCONST> 1.087717e+02
<STATE> 4
<MEAN> 39
 -5.440651e+00 4.429791e+00 7.910607e-01 8.032228e+00 5.063070e+00 4.755136e+00 -1.715998e+00 2.244879e+00 1.873505e+00 -3.252182e+00 -2.615597e+00 -3.163744e-01 7.190120e+01 -1.309270e+00 3.280385e-01 5.299255e-02 5.804761e-02 1.772202e-01 6.027969e-01 1.399837e+00 2.513073e-01 5.910297e-02 1.157178e+00 5.884826e-01 5.049717e-02 -1.127217e+00 1.590919e-01 -2.954485e-01 5.650297e-04 -1.383887e-01 -6.496753e-02 4.477621e-02 -2.740938e-01 -1.408812e-01 3.621731e-02 -1.686327e-01 1.005183e-02 -2.482342e-02 2.755034e-01
<VARIANCE> 39
 4.827723e+01 2.527112e+01 2.221902e+01 4.591909e+01 3.505490e+01 4.018047e+01 5.399322e+01 3.257371e+01 3.552696e+01 4.377158e+01 2.441645e+01 1.871698e+01 4.172268e+01 2.459104e+00 2.446307e+00 2.209945e+00 3.019307e+00 1.864307e+00 2.483016e+00 5.472866e+00 2.449872e+00 1.978169e+00 3.054994e+00 1.824778e+00 1.487098e+00 1.951139e+00 3.969033e-01 3.923756e-01 3.326043e-01 5.813235e-01 4.506704e-01 4.394835e-01 8.700593e-01 4.957982e-01 3.134904e-01 4.549906e-01 3.397466e-01 2.746582e-01 2.875935e-01
<GCONST> 1.173973e+02
<TRANSP> 5
 0.000000e+00 1.000000e+00 0.000000e+00 0.000000e+00 0.000000e+00
 0.000000e+00 4.341715e-01 5.658284e-01 0.000000e+00 0.000000e+00
 0.000000e+00 0.000000e+00 7.165905e-01 2.834095e-01 0.000000e+00
 0.000000e+00 0.000000e+00 0.000000e+00 5.897976e-01 4.102024e-01
 0.000000e+00 0.000000e+00 0.000000e+00 0.000000e+00 0.000000e+00
<ENDHMM>
~h "ay"
<BEGINHMM>
<NUMSTATES> 5
<STATE> 2
<MEAN> 39
 -1.024795e+01 4.736663e-01 1.427296e+00 6.812726e+00 3.025586e+00 6.999920e+00 1.703270e+00 1.470768e+00 2.316000e+00 6.252655e-01 2.230563e+00 3.195407e+00 7.127565e+01 1.114317e+00 -3.661089e-01 -5.527215e-01 -1.060895e+00 -1.877219e+00 -1.852167e+00 -6.834998e-01 2.897017e-01 -3.043414e-01 -1.962364e-01 6.520017e-01 2.384376e-01 1.091188e+00 8.828741e-01 -5.983115e-01 -4.096009e-01 -4.239709e-01 -1.866354e-01 -2.118376e-01 -5.608558e-01 -3.725806e-01 6.724386e-03 -3.442371e-01 9.144475e-02 -4.205722e-02 1.099354e+00
<VARIANCE> 39
 5.567891e+01 6.929264e+01 1.693756e+01 2.097831e+01 4.194799e+01 3.032264e+01 2.995511e+01 3.380151e+01 3.033810e+01 3.797508e+01 2.257027e+01 2.387083e+01 5.424828e+01 2.406395e+00 7.685151e+00 1.797723e+00 2.631657e+00 4.259283e+00 4.058497e+00 2.985019e+00 3.098663e+00 2.617763e+00 2.699081e+00 3.181206e+00 2.025123e+00 2.753098e+00 7.105602e-01 1.622126e+00 3.592973e-01 6.388615e-01 8.222644e-01 6.746962e-01 4.926434e-01 9.079354e-01 7.611542e-01 9.325708e-01 4.231266e-01 3.377965e-01 9.230278e-01
<GCONST> 1.264942e+02
<STATE> 3
<MEAN> 39
 -3.441767e+00 -2.889092e+00 -2.883613e+00 2.568277e+00 -2.307420e+00 2.433764e+00 -1.167490e-01 3.781308e-01 1.736592e+00 -2.978486e-01 3.432786e+00 1.829972e+00 7.805773e+01 3.858663e+00 -1.668666e+00 -1.535018e+00 -2.073213e+00 -1.788885e+00 -1.190864e+00 -2.125994e+00 -1.304979e+00 -4.031613e-02 -1.011505e+00 5.980982e-01 -6.507944e-02 4.197053e+00 -4.983318e-02 3.836957e-01 3.512035e-02 -6.829197e-02 6.787237e-01 5.288463e-01 -4.676849e-01 -1.250543e-01 2.809225e-01 -3.562729e-02 3.613891e-02 2.484798e-01 -1.130837e-01
<VARIANCE> 39
 7.166847e+01 5.261873e+01 3.290485e+01 4.220264e+01 4.151884e+01 4.758561e+01 4.374071e+01 4.235137e+01 2.878421e+01 4.447377e+01 2.378683e+01 2.782151e+01 8.219466e+01 3.583990e+00 5.641761e+00 3.374337e+00 3.871056e+00 4.434653e+00 4.040576e+00 4.403750e+00 4.995951e+00 2.974146e+00 5.128420e+00 3.340293e+00 4.069496e+00 5.358062e+00 1.371234e+00 1.230277e+00 5.649903e-01 8.475991e-01 9.999846e-01 8.004373e-01 7.543181e-01 8.112908e-01 6.348252e-01 7.524315e-01 5.208440e-01 5.016286e-01 1.512503e+00
<GCONST> 1.362921e+02
<STATE> 4
<MEAN> 39
 3.277539e+00 -3.466677e+00 -6.579285e-01 2.511927e+00 4.024745e+00 3.806142e+00 -1.544071e+01 -5.269525e+00 3.861660e+00 -6.146621e+00 2.689409e+00 4.492230e+00 8.535020e+01 -2.274339e-01 2.150827e-01 6.352926e-01 9.138939e-01 9.675207e-01 3.195914e-01 -8.154763e-01 -5.364381e-01 1.426203e-01 -2.524512e-01 -3.457099e-01 -1.644756e-02 -3.114778e-01 -2.441738e-01 1.240795e-01 4.858340e-02 1.830245e-01 3.810836e-02 7.574896e-02 4.216593e-01 1.511793e-01 -7.618605e-02 1.592923e-01 -7.408747e-02 -1.108898e-01 -3.241138e-01
<VARIANCE> 39
 8.583038e+00 2.081905e+01 4.009088e+01 7.569979e+01 4.304476e+01 3.244478e+01 6.346846e+01 5.019876e+01 2.905582e+01 3.572845e+01 3.405860e+01 2.166537e+01 9.584349e+00 6.874514e-01 1.439069e+00 1.955329e+00 3.022178e+00 1.770660e+00 1.753877e+00 5.408782e+00 2.554327e+00 2.401296e+00 2.477412e+00 2.555336e+00 2.027988e+00 1.126800e+00 1.833056e-01 2.347727e-01 3.410011e-01 4.186027e-01 3.781457e-01 2.990865e-01 6.251614e-01 5.031593e-01 4.909689e-01 4.131894e-01 4.891857e-01 3.254227e-01 2.165170e-01
<GCONST> 1.116793e+02
<TRANSP> 5
 0.000000e+00 1.000000e+00 0.000000e+00 0.000000e+00 0.000000e+00
 0.000000e+00 3.188927e-01 6.811073e-01 0.000000e+00 0.000000e+00
 0.000000e+00 0.000000e+00 6.021046e-01 3.978954e-01 0.000000e+00
 0.000000e+00 0.000000e+00 0.000000e+00 9.134422e-01 8.655781e-02
 0.000000e+00 0.000000e+00 0.000000e+00 0.000000e+00 0.000000e+00
<ENDHMM>
~h "ch"
<BEGINHMM>
<NUMSTATES> 5
<STATE> 2
<MEAN> 39
 -1.168586e+01 -9.917370e+00 -5.715550e-01 8.305261e+00 -1.083787e+00 1.515417e+00 6.203932e-01 2.739398e+00 4.874560e+00 1.312238e+00 9.189792e-01 1.919868e+00 7.251984e+01 1.265867e-01 -3.349433e+00 2.140279e-01 4.897426e-01 -7.469709e-01 -8.440798e-01 -1.396366e-01 -1.194632e-01 6.427664e-01 -8.716014e-02 -3.698143e-02 -8.579819e-01 2.233196e+00 2.052218e-01 -7.883833e-02 3.780703e-01 8.557309e-02 1.279611e-01 4.907475e-02 -2.159677e-01 -1.648800e-01 -2.403701e-01 -3.723568e-01 -7.610913e-02 -1.851138e-02 3.725871e-01
<VARIANCE> 39
 1.388388e+01 1.426113e+02 2.824849e+01 2.191241e+01 3.134112e+01 4.391854e+01 2.725664e+01 2.849236e+01 1.936825e+01 2.573852e+01 1.416559e+01 2.622324e+01 6.899255e+01 2.379780e+00 1.354019e+01 5.409434e+00 3.025322e+00 2.797260e+00 5.151080e+00 3.686193e+00 4.033310e+00 2.482561e+00 2.916792e+00 1.864320e+00 2.086152e+00 7.945719e+00 4.412498e-01 3.335944e+00 7.646176e-01 4.268227e-01 6.326948e-01 1.273354e+00 7.934242e-01 8.919600e-01 5.609763e-01 4.314628e-01 3.374961e-01 4.347142e-01 1.609634e+00
<GCONST> 1.288300e+02
<STATE> 3
<MEAN> 39
 -9.779467e+00 -2.447203e+01 3.587534e+00 1.026736e+01 -1.796997e+00 7.654148e-01 -2.036363e+00 -1.387047e+00 3.323153e+00 -3.058689e+00 1.710218e-01 -1.199496e+00 8.439987e+01 1.833953e+00 2.172299e+00 -2.607342e-01 6.823510e-03 1.052869e+00 9.623373e-01 -1.283318e+00 -1.091566e+00 -1.611161e+00 -1.201686e+00 -9.125870e-01 4.473343e-01 -2.990161e-01 6.086912e-01 1.545749e+00 -7.078028e-01 -1.847063e-01 1.090194e-01 7.463323e-02 -4.246347e-01 1.406380e-01 1.570453e-01 7.280546e-02 -3.236880e-01 2.347390e-01 -8.245922e-01
<VARIANCE> 39
 1.907594e+01 3.268898e+01 1.677041e+01 1.021666e+01 1.061385e+01 3.085517e+01 1.602703e+01 2.405301e+01 2.912695e+01 2.149607e+01 2.128718e+01 1.616119e+01 7.625981e+00 3.150266e+00 8.224358e+00 1.716516e+00 1.206229e+00 1.605890e+00 1.899372e+00 6.580791e+00 2.844985e+00 1.489511e+00 1.574435e+00 1.503585e+00 1.206524e+00 1.691376e+00 4.318376e-01 1.385751e+00 4.746425e-01 3.315055e-01 3.449661e-01 6.699331e-01 8.038893e-01 4.448156e-01 6.054193e-01 2.903699e-01 2.931964e-01 2.076540e-01 4.489774e-01
<GCONST> 1.091209e+02
<STATE> 4
<MEAN> 39
 -4.025883e+00 -7.189780e+00 -4.214387e-01 1.277633e+01 4.001388e+00 4.372997e+00 -6.471138e+00 -4.914843e+00 8.070402e-01 -3.515067e+00 -4.183321e+00 4.375278e-01 7.630434e+01 2.475609e-01 2.353744e+00 -3.866129e-01 -1.284587e-02 7.815443e-01 1.211946e-01 -4.279433e-01 1.695729e-01 5.698832e-01 4.501635e-01 -2.970243e-01 1.847107e-01 -1.184817e+00 -3.387323e-01 -3.655236e-01 7.929271e-02 -1.506721e-01 -9.571385e-02 -1.364711e-01 2.195743e-01 2.806492e-01 3.092327e-01 1.945064e-01 1.802918e-01 -8.751065e-02 7.524816e-02
<VARIANCE> 39
 3.722129e+01 6.907327e+01 2.445552e+01 2.638266e+01 4.468330e+01 2.745417e+01 8.740279e+01 2.436790e+01 9.179644e+00 2.702156e+01 1.434271e+01 9.827900e+00 3.983983e+01 4.484413e+00 4.375986e+00 2.929479e+00 1.858556e+00 1.566928e+00 1.829133e+00 6.296277e+00 1.854035e+00 1.472396e+00 2.954472e+00 2.164380e+00 9.258856e-01 1.476307e+00 2.911584e-01 7.220497e-01 3.403872e-01 2.301945e-01 2.772678e-01 2.894260e-01 8.511049e-01 3.895623e-01 2.765872e-01 3.722780e-01 2.686245e-01 1.443842e-01 2.320430e-01
<GCONST> 1.109417e+02
<TRANSP> 5
 0.000000e+00 1.000000e+00 0.000000e+00 0.000000e+00 0.000000e+00
 0.000000e+00 8.559662e-01 1.440339e-01 0.000000e+00 0.000000e+00
 0.000000e+00 0.000000e+00 7.201817e-01 2.798184e-01 0.000000e+00
 0.000000e+00 0.000000e+00 0.000000e+00 7.511160e-01 2.488840e-01
 0.000000e+00 0.000000e+00 0.000000e+00 0.000000e+00 0.000000e+00
<ENDHMM>
~h "dh"
<BEGINHMM>
<NUMSTATES> 5
<STATE> 2
<MEAN> 39
 -1.160480e+01 5.384582e+00 2.826305e+00 9.368174e+00 6.475691e+00 7.695972e+00 2.544266e+00 1.954491e+00 1.438311e+00 2.820218e-01 6.221349e-01 1.948644e+00 6.694904e+01 -2.554664e-01 3.064572e-01 2.519943e-01 4.356551e-01 4.720458e-02 1.135828e-01 8.726355e-01 4.554830e-01 -1.665815e-01 2.808401e-01 1.812757e-01 -1.265496e-01 -2.786852e-01 1.741842e-01 -4.976089e-01 -6.970376e-03 -1.566181e-01 -2.663347e-01 -7.750054e-02 -2.814944e-01 -1.531792e-01 3.396172e-02 -1.101635e-01 1.759842e-02 -7.711463e-02 4.244320e-01
<VARIANCE> 39
 2.763223e+01 3.389301e+01 2.072703e+01 2.178967e+01 2.121768e+01 1.268616e+01 2.350543e+01 2.138107e+01 1.917513e+01 1.868317e+01 1.436299e+01 1.453695e+01 2.262596e+01 1.710691e+00 2.709807e+00 1.689318e+00 1.397838e+00 1.759230e+00 1.320307e+00 3.520720e+00 2.023386e+00 1.557896e+00 2.011732e+00 1.593095e+00 1.396268e+00 1.579924e+00 2.247042e-01 6.556408e-01 2.754616e-01 2.506071e-01 3.486767e-01 3.178501e-01 5.820240e-01 4.008741e-01 2.816627e-01 3.453729e-01 2.777960e-01 2.627972e-01 3.746526e-01
<GCONST> 1.042148e+02
<STATE> 3
<MEAN> 39
 -8.541533e+00 -5.510709e-01 4.586916e+00 1.018530e+01 2.737476e+00 8.150558e+00 4.429731e+00 1.760090e+00 1.300619e+00 2.199656e-01 1.218953e+00 -7.992079e-01 7.360403e+01 1.588916e+00 -3.270192e+00 5.474393e-02 -8.945707e-01 -1.873926e+00 -8.584256e-01 -2.013950e+00 -1.666590e+00 -2.379624e-01 -9.303547e-01 3.865271e-01 -4.994614e-01 3.282078e+00 7.687744e-01 1.741101e-01 -1.820739e-02 -1.048009e-01 5.197654e-01 -7.084186e-02 -1.563663e+00 -7.311836e-01 -4.538003e-02 -8.729793e-01 -2.287803e-01 3.004008e-01 5.104308e-01
<VARIANCE> 39
 1.736999e+01 7.045563e+01 2.151799e+01 2.933429e+01 4.279342e+01 2.435747e+01 2.264384e+01 2.452922e+01 1.751991e+01 1.676830e+01 1.743327e+01 1.476433e+01 4.426749e+01 2.044434e+00 3.808942e+00 2.804240e+00 3.373654e+00 3.921714e+00 1.974467e+00 5.837674e+00 2.993317e+00 1.777435e+00 2.919903e+00 1.762804e+00 2.071576e+00 2.158985e+00 2.386874e-01 1.324700e+00 5.563229e-01 7.345945e-01 1.036608e+00 6.063554e-01 8.392692e-01 6.015831e-01 4.322956e-01 4.754197e-01 5.419032e-01 4.569550e-01 7.798694e-01
<GCONST> 1.200253e+02
<STATE> 4
<MEAN> 39
 -4.228132e-01 -4.644240e+00 6.609461e+00 1.040238e+01 4.520684e+00 7.400754e+00 -1.035649e+01 -8.217120e+00 4.516963e-01 -7.074727e+00 -2.692812e-01 -7.776384e-01 8.314227e+01 1.931718e+00 5.525586e-02 -2.506099e-01 -1.932668e-01 1.331730e+00 -2.693661e-01 -4.362669e+00 -1.410880e+00 1.002400e-01 -2.529999e+00 -8.168768e-01 1.006330e+00 1.442683e+00 -4.262200e-01 6.887172e-01 -3.653746e-01 -1.023426e-02 2.910825e-01 -1.290107e-01 5.881557e-01 8.651561e-01 1.540481e-01 2.161067e-01 6.823475e-02 2.614508e-01 -7.808458e-01
<VARIANCE> 39
 1.112932e+01 1.496793e+01 2.110771e+01 3.377970e+01 2.803942e+01 1.537756e+01 5.153802e+01 2.866562e+01 3.042514e+01 2.924800e+01 2.197467e+01 2.308873e+01 1.155215e+01 1.872306e+00 2.933764e+00 2.077800e+00 2.983797e+00 2.992329e+00 2.790470e+00 5.724431e+00 4.079614e+00 2.758883e+00 3.752982e+00 3.201102e+00 2.195843e+00 2.741334e+00 1.606394e-01 6.077626e-01 2.464308e-01 2.864458e-01 8.064765e-01 3.495947e-01 1.069890e+00 4.169235e-01 3.498124e-01 5.179281e-01 3.491395e-01 3.903903e-01 2.027952e-01
<GCONST> 1.139432e+02
<TRANSP> 5
 0.000000e+00 1.000000e+00 0.000000e+00 0.000000e+00 0.000000e+00
 0.000000e+00 8.236554e-01 1.763445e-01 0.000000e+00 0.000000e+00
 0.000000e+00 0.000000e+00 6.553132e-01 3.446868e-01 0.000000e+00
 0.000000e+00 0.000000e+00 0.000000e+00 6.191026e-01 3.808974e-01
 0.000000e+00 0.000000e+00 0.000000e+00 0.000000e+00 0.000000e+00
<ENDHMM>
~h "ea"
<BEGINHMM>
<NUMSTATES> 5
<STATE> 2
<MEAN> 39
 -7.391330e+00 -2.793995e-01 2.593855e-01 6.215729e+00 3.197216e+00 4.507828e+00 -2.881577e+00 1.071307e+00 3.293610e+00 -1.702413e+00 2.116229e-01 1.528084e+00 7.316100e+01 -8.549295e-03 6.045978e-03 9.986501e-03 -5.830497e-03 -9.514267e-03 -1.506619e-03 -1.506659e-03 -3.180315e-03 6.676455e-03 -5.438070e-03 4.050421e-03 -4.468870e-03 -5.404587e-04 -3.875157e-05 3.997293e-04 3.423740e-04 6.946201e-05 -2.319832e-04 -6.938387e-04 -4.412478e-05 -4.860927e-04 1.315680e-03 -9.365405e-04 -4.231212e-04 2.471485e-04 -2.932212e-04
<VARIANCE> 39
 8.975014e+01 5.484237e+01 3.303328e+01 4.558641e+01 4.748297e+01 5.002078e+01 9.481474e+01 4.729189e+01 3.321279e+01 5.181567e+01 3.966083e+01 2.784256e+01 7.606396e+01 2.211436e+00 2.785441e+00 1.626260e+00 1.902343e+00 2.248548e+00 2.452049e+00 4.360876e+00 2.359010e+00 2.040265e+00 2.571942e+00 1.964578e+00 1.676181e+00 2.222835e+00 2.912704e-01 4.665184e-01 2.795431e-01 3.127733e-01 3.728060e-01 3.948886e-01 6.864723e-01 4.205315e-01 3.711796e-01 4.366302e-01 3.409353e-01 2.969837e-01 3.289974e-01
<GCONST> 1.202872e+02
<STATE> 3
<MEAN> 39
 -7.391330e+00 -2.793995e-01 2.593855e-01 6.215729e+00 3.197216e+00 4.507828e+00 -2.881577e+00 1.071307e+00 3.293610e+00 -1.702413e+00 2.116229e-01 1.528084e+00 7.316100e+01 -8.549295e-03 6.045978e-03 9.986501e-03 -5.830497e-03 -9.514267e-03 -1.506619e-03 -1.506659e-03 -3.180315e-03 6.676455e-03 -5.438070e-03 4.050421e-03 -4.468870e-03 -5.404587e-04 -3.875157e-05 3.997293e-04 3.423740e-04 6.946201e-05 -2.319832e-04 -6.938387e-04 -4.412478e-05 -4.860927e-04 1.315680e-03 -9.365405e-04 -4.231212e-04 2.471485e-04 -2.932212e-04
<VARIANCE> 39
 8.975014e+01 5.484237e+01 3.303328e+01 4.558641e+01 4.748297e+01 5.002078e+01 9.481474e+01 4.729189e+01 3.321279e+01 5.181567e+01 3.966083e+01 2.784256e+01 7.606396e+01 2.211436e+00 2.785441e+00 1.626260e+00 1.902343e+00 2.248548e+00 2.452049e+00 4.360876e+00 2.359010e+00 2.040265e+00 2.571942e+00 1.964578e+00 1.676181e+00 2.222835e+00 2.912704e-01 4.665184e-01 2.795431e-01 3.127733e-01 3.728060e-01 3.948886e-01 6.864723e-01 4.205315e-01 3.711796e-01 4.366302e-01 3.409353e-01 2.969837e-01 3.289974e-01
<GCONST> 1.202872e+02
<STATE> 4
<MEAN> 39
 -7.391330e+00 -2.793995e-01 2.593855e-01 6.215729e+00 3.197216e+00 4.507828e+00 -2.881577e+00 1.071307e+00 3.293610e+00 -1.702413e+00 2.116229e-01 1.528084e+00 7.316100e+01 -8.549295e-03 6.045978e-03 9.986501e-03 -5.830497e-03 -9.514267e-03 -1.506619e-03 -1.506659e-03 -3.180315e-03 6.676455e-03 -5.438070e-03 4.050421e-03 -4.468870e-03 -5.404587e-04 -3.875157e-05 3.997293e-04 3.423740e-04 6.946201e-05 -2.319832e-04 -6.938387e-04 -4.412478e-05 -4.860927e-04 1.315680e-03 -9.365405e-04 -4.231212e-04 2.471485e-04 -2.932212e-04
<VARIANCE> 39
 8.975014e+01 5.484237e+01 3.303328e+01 4.558641e+01 4.748297e+01 5.002078e+01 9.481474e+01 4.729189e+01 3.321279e+01 5.181567e+01 3.966083e+01 2.784256e+01 7.606396e+01 2.211436e+00 2.785441e+00 1.626260e+00 1.902343e+00 2.248548e+00 2.452049e+00 4.360876e+00 2.359010e+00 2.040265e+00 2.571942e+00 1.964578e+00 1.676181e+00 2.222835e+00 2.912704e-01 4.665184e-01 2.795431e-01 3.127733e-01 3.728060e-01 3.948886e-01 6.864723e-01 4.205315e-01 3.711796e-01 4.366302e-01 3.409353e-01 2.969837e-01 3.289974e-01
<GCONST> 1.202872e+02
<TRANSP> 5
 0.000000e+00 1.000000e+00 0.000000e+00 0.000000e+00 0.000000e+00
 0.000000e+00 6.000000e-01 4.000000e-01 0.000000e+00 0.000000e+00
 0.000000e+00 0.000000e+00 6.000000e-01 4.000000e-01 0.000000e+00
 0.000000e+00 0.000000e+00 0.000000e+00 7.000000e-01 3.000000e-01
 0.000000e+00 0.000000e+00 0.000000e+00 0.000000e+00 0.000000e+00
<ENDHMM>
~h "eh"
<BEGINHMM>
<NUMSTATES> 5
<STATE> 2
<MEAN> 39
 3.470710e+00 -3.179459e+00 7.633929e-01 3.690912e+00 5.580249e+00 4.942760e+00 -1.684763e+01 -6.263729e+00 -1.787791e+00 -1.286023e+01 2.161051e+00 4.026057e+00 8.493094e+01 9.582394e-01 8.006719e-02 -1.214877e+00 -1.119068e+00 5.258247e-01 -9.541718e-01 -2.640729e+00 -1.628220e-01 2.688308e-01 -9.711344e-01 9.126014e-01 1.590166e+00 7.270538e-01 -5.647556e-01 -3.502833e-02 4.223648e-03 2.022378e-01 -2.093911e-01 2.995878e-02 1.158011e+00 5.769134e-01 1.920366e-01 7.396672e-01 3.845184e-02 -1.197165e-01 -5.008167e-01
<VARIANCE> 39
 7.766770e+00 1.482983e+01 3.099076e+01 1.911325e+01 3.173747e+01 2.936486e+01 4.215335e+01 4.167834e+01 2.994775e+01 2.179815e+01 2.573980e+01 1.659030e+01 6.092408e+00 1.134099e+00 2.055008e+00 1.292440e+00 1.162238e+00 2.227580e+00 2.252419e+00 4.890831e+00 3.840140e+00 2.448867e+00 3.415255e+00 1.694235e+00 1.749035e+00 9.278143e-01 1.327046e-01 4.538693e-01 2.609144e-01 2.702150e-01 3.846734e-01 4.029271e-01 7.978714e-01 7.554812e-01 5.022132e-01 3.802679e-01 2.853965e-01 2.889784e-01 1.537202e-01
<GCONST> 1.065398e+02
<STATE> 3
<MEAN> 39
 4.472404e+00 -2.535316e+00 -2.155440e+00 1.594571e+00 5.914900e+00 4.426080e+00 -1.815555e+01 -4.700055e+00 1.290520e-01 -1.263770e+01 4.086622e+00 7.552838e+00 8.488593e+01 -1.620262e-01 7.578747e-01 -2.479090e-01 2.499398e-01 2.381109e-01 6.784191e-01 1.148194e+00 -5.876493e-02 1.430918e-01 6.010664e-01 -4.795495e-01 -2.159561e-01 -8.217023e-01 -2.738997e-01 2.692037e-01 2.525999e-01 3.807675e-01 1.711326e-01 4.294094e-01 6.829777e-01 -1.177970e-01 2.435896e-02 3.758722e-01 -4.158901e-01 -6.137621e-01 -4.040315e-01
<VARIANCE> 39
 5.767690e+00 1.243409e+01 2.915106e+01 2.056616e+01 5.183761e+01 2.476881e+01 2.811650e+01 3.119216e+01 2.991795e+01 2.961758e+01 2.724482e+01 1.341943e+01 6.536597e+00 4.346957e-01 1.105809e+00 6.367429e-01 1.439795e+00 1.377410e+00 2.628658e+00 2.654764e+00 2.961978e+00 1.849611e+00 2.047931e+00 2.973379e+00 2.429454e+00 8.089858e-01 1.039745e-01 1.590677e-01 1.359055e-01 1.802949e-01 3.220246e-01 4.030121e-01 4.207143e-01 5.310659e-01 3.777319e-01 4.796528e-01 4.769639e-01 2.772353e-01 6.459018e-02
<GCONST> 9.865002e+01
<STATE> 4
<MEAN> 39
 -1.321106e+00 4.874198e+00 1.465613e+00 5.836686e+00 1.121992e+00 2.806854e+00 -5.957726e+00 -1.002528e+00 4.432967e+00 -2.146604e+00 -2.418466e+00 -6.730216e-01 7.538918e+01 -6.352366e-01 3.920273e-01 2.179202e-01 4.198613e-01 3.274921e-01 4.408089e-01 9.374195e-01 1.388668e-01 2.308919e-01 8.696815e-01 -2.363434e-01 -6.407996e-01 -7.600825e-01 -8.313087e-02 -1.286105e-01 7.202830e-02 -4.828814e-02 1.516459e-02 9.254038e-02 -8.594307e-02 -4.493809e-02 1.974797e-02 1.131978e-02 5.613741e-02 9.751283e-03 3.328913e-02
<VARIANCE> 39
 4.141215e+01 4.237516e+01 3.533815e+01 2.170140e+01 7.367918e+01 8.521615e+01 6.228254e+01 5.165047e+01 5.088152e+01 5.350782e+01 7.346169e+01 4.979783e+01 3.732012e+01 2.366557e+00 2.686136e+00 1.920929e+00 2.142548e+00 3.227642e+00 4.500794e+00 4.916280e+00 2.832983e+00 2.883997e+00 3.921412e+00 4.035120e+00 3.173630e+00 2.888269e+00 2.802147e-01 5.003238e-01 4.050579e-01 3.749350e-01 3.730442e-01 4.928303e-01 4.900559e-01 4.477541e-01 4.237247e-01 5.031945e-01 4.644217e-01 3.788467e-01 3.055593e-01
<GCONST> 1.254263e+02
<TRANSP> 5
 0.000000e+00 1.000000e+00 0.000000e+00 0.000000e+00 0.000000e+00
 0.000000e+00 6.101474e-01 3.898526e-01 0.000000e+00 0.000000e+00
 0.000000e+00 0.000000e+00 7.679537e-01 2.320463e-01 0.000000e+00
 0.000000e+00 0.000000e+00 0.000000e+00 7.404305e-01 2.595695e-01
 0.000000e+00 0.000000e+00 0.000000e+00 0.000000e+00 0.000000e+00
<ENDHMM>
~h "er"
<BEGINHMM>
<NUMSTATES> 5
<STATE> 2
<MEAN> 39
