~o
<STREAMINFO> 1 39
<VECSIZE> 39<NULLD><MFCC_D_A_0><DIAGC>
~h "b"
<BEGINHMM>
<NUMSTATES> 5
<STATE> 2
<MEAN> 39
 -6.029804e+00 1.846214e+00 1.123317e+00 6.708675e+00 3.039955e+00 4.823583e+00 -1.809007e+00 1.138988e+00 2.851440e+00 -2.526569e+00 -6.536455e-01 1.059131e+00 7.387223e+01 -6.050145e-02 3.263899e-02 1.100551e-02 -4.864580e-03 -1.527185e-02 -1.738064e-02 6.432717e-02 5.713390e-02 -1.180761e-02 4.295302e-02 2.150705e-02 6.280030e-03 -6.624271e-02 -9.408423e-04 -4.394495e-04 1.108627e-03 1.087677e-03 1.547700e-04 -5.818419e-04 -3.786385e-04 2.041912e-04 1.196762e-03 1.661240e-03 -4.688902e-04 -1.069326e-03 -2.437264e-04
<VARIANCE> 39
 7.859814e+01 5.304934e+01 2.875388e+01 3.620317e+01 5.121822e+01 5.625401e+01 9.113297e+01 5.077216e+01 3.429183e+01 5.600433e+01 4.201307e+01 2.663698e+01 6.165544e+01 2.487360e+00 3.103489e+00 1.651669e+00 1.882047e+00 2.278538e+00 2.519853e+00 4.645391e+00 2.473936e+00 2.172130e+00 3.167800e+00 2.033383e+00 1.630697e+00 2.398775e+00 3.185037e-01 5.318680e-01 2.993875e-01 3.231155e-01 3.687752e-01 4.051590e-01 6.883305e-01 4.162389e-01 3.772594e-01 5.241550e-01 3.331499e-01 2.903397e-01 3.559564e-01
<GCONST> 1.211864e+02
<STATE> 3
<MEAN> 39
 -6.267962e+00 1.952849e+00 1.157760e+00 6.691648e+00 2.982332e+00 4.747505e+00 -1.580280e+00 1.350826e+00 2.831270e+00 -2.346957e+00 -5.784415e-01 1.075860e+00 7.362415e+01 -6.200867e-02 3.059630e-02 1.391382e-02 -1.431242e-03 -1.453211e-02 -1.960233e-02 6.048815e-02 5.632041e-02 -6.767738e-03 4.706645e-02 1.843668e-02 1.944358e-03 -6.530028e-02 -3.959066e-04 -9.133593e-04 5.728945e-04 9.196473e-04 1.890038e-04 -4.988054e-04 -1.020971e-03 -4.864332e-04 1.336640e-03 1.106104e-03 -5.569074e-04 -1.002423e-03 4.655369e-04
<VARIANCE> 39
 7.896698e+01 5.269024e+01 2.855967e+01 3.497606e+01 4.983706e+01 5.708524e+01 8.957414e+01 5.045166e+01 3.319902e+01 5.523589e+01 4.182709e+01 2.606600e+01 6.105154e+01 2.451118e+00 3.106025e+00 1.616847e+00 1.813635e+00 2.195703e+00 2.520027e+00 4.538239e+00 2.415750e+00 2.127573e+00 3.120007e+00 2.037057e+00 1.589105e+00 2.337606e+00 3.142077e-01 5.297335e-01 2.946690e-01 3.126481e-01 3.570935e-01 4.042995e-01 6.749446e-01 4.070455e-01 3.723005e-01 5.164506e-01 3.348786e-01 2.840998e-01 3.463384e-01
<GCONST> 1.205678e+02
<STATE> 4
<MEAN> 39
 -6.775136e+00 2.081915e+00 1.173235e+00 6.616730e+00 2.829905e+00 4.617982e+00 -1.174528e+00 1.662342e+00 2.829063e+00 -1.922698e+00 -3.764797e-01 1.109736e+00 7.317317e+01 -5.932013e-02 2.026788e-02 9.743864e-03 -9.446703e-04 -1.425854e-02 -2.176215e-02 4.716487e-02 4.809798e-02 2.138686e-03 4.656934e-02 1.335998e-02 -1.829637e-03 -5.734367e-02 4.984773e-04 -1.407637e-03 -2.161972e-04 3.526161e-04 3.032968e-05 -1.869167e-04 -1.780444e-03 -1.328717e-03 9.906625e-04 -1.004647e-04 -5.308694e-04 -5.993441e-04 1.294779e-03
<VARIANCE> 39
 7.967646e+01 5.162780e+01 2.794141e+01 3.319146e+01 4.797970e+01 5.852878e+01 8.633986e+01 4.970285e+01 3.100002e+01 5.312997e+01 4.104636e+01 2.537519e+01 6.048569e+01 2.388948e+00 3.093361e+00 1.544009e+00 1.714003e+00 2.075479e+00 2.507658e+00 4.365953e+00 2.343359e+00 2.051992e+00 3.022278e+00 2.015213e+00 1.552101e+00 2.237149e+00 3.079651e-01 5.290504e-01 2.844801e-01 2.995357e-01 3.411791e-01 4.006619e-01 6.584548e-01 3.996750e-01 3.665777e-01 5.028096e-01 3.340209e-01 2.803240e-01 3.320007e-01
<GCONST> 1.195485e+02
<TRANSP> 5
 0.000000e+00 1.000000e+00 0.000000e+00 0.000000e+00 0.000000e+00
 0.000000e+00 7.403705e-01 2.596296e-01 0.000000e+00 0.000000e+00
 0.000000e+00 0.000000e+00 7.403703e-01 2.596296e-01 0.000000e+00
 0.000000e+00 0.000000e+00 0.000000e+00 8.647116e-01 1.352884e-01
 0.000000e+00 0.000000e+00 0.000000e+00 0.000000e+00 0.000000e+00
<ENDHMM>
~h "d"
<BEGINHMM>
<NUMSTATES> 5
<STATE> 2
<MEAN> 39
 -5.191989e+00 7.739488e-01 -6.626178e-01 5.752691e+00 3.334740e+00 4.212531e+00 -3.895485e+00 8.174630e-01 2.962777e+00 -2.068509e+00 -8.864164e-02 1.313084e+00 7.389728e+01 -2.068247e-02 3.676416e-02 -2.304820e-02 -3.202118e-02 -2.384611e-02 -1.764513e-03 2.942751e-02 2.103085e-02 1.836709e-02 2.531343e-02 2.543233e-03 2.313356e-02 -4.975370e-02 -2.260007e-06 1.954198e-03 -1.300798e-04 -6.954218e-04 -1.274453e-03 -1.022266e-03 -1.330404e-03 -1.713785e-03 6.634172e-04 2.570889e-03 8.292283e-04 -8.139656e-04 -1.169243e-03
<VARIANCE> 39
 8.474458e+01 5.227668e+01 3.098981e+01 4.098264e+01 5.402404e+01 5.655313e+01 1.016377e+02 4.942092e+01 4.106183e+01 5.489899e+01 3.653939e+01 3.052285e+01 7.008821e+01 2.329527e+00 2.664769e+00 1.643383e+00 1.951814e+00 2.501790e+00 2.930076e+00 5.010512e+00 2.696927e+00 2.338972e+00 2.809988e+00 2.012958e+00 1.827462e+00 2.503353e+00 3.154055e-01 4.336516e-01 2.809574e-01 3.067766e-01 3.895873e-01 4.335933e-01 7.917428e-01 4.886377e-01 4.179099e-01 4.792365e-01 3.592308e-01 3.161950e-01 3.701693e-01
<GCONST> 1.224982e+02
<STATE> 3
<MEAN> 39
 -5.281054e+00 9.160779e-01 -7.430079e-01 5.636671e+00 3.240139e+00 4.204791e+00 -3.779597e+00 8.835502e-01 3.024222e+00 -1.964691e+00 -7.113463e-02 1.389001e+00 7.370503e+01 -2.196940e-02 3.664046e-02 -2.172937e-02 -3.574042e-02 -3.183845e-02 -5.145289e-03 2.787638e-02 1.766573e-02 1.981160e-02 2.810742e-02 4.842125e-03 1.892030e-02 -4.851404e-02 -4.279437e-04 -2.427420e-04 7.581706e-04 -3.587655e-04 -1.191410e-03 -2.738483e-04 -1.950503e-04 -4.138930e-04 2.585439e-04 1.867279e-04 5.556187e-04 -1.241690e-03 5.011056e-04
<VARIANCE> 39
 8.553671e+01 4.983503e+01 3.049309e+01 3.961032e+01 5.319241e+01 5.646358e+01 1.002164e+02 4.854633e+01 4.101834e+01 5.506755e+01 3.646398e+01 3.023617e+01 7.093566e+01 2.276711e+00 2.575396e+00 1.604490e+00 1.904162e+00 2.446117e+00 2.925796e+00 4.876614e+00 2.656149e+00 2.341516e+00 2.762146e+00 1.966413e+00 1.787115e+00 2.434160e+00 3.086472e-01 4.185557e-01 2.738751e-01 3.008492e-01 3.795663e-01 4.344902e-01 7.701020e-01 4.852089e-01 4.188566e-01 4.711654e-01 3.518956e-01 3.078768e-01 3.588375e-01
<GCONST> 1.218472e+02
<STATE> 4
<MEAN> 39
 -5.435631e+00 1.132255e+00 -7.943574e-01 5.455968e+00 3.111300e+00 4.258354e+00 -3.602540e+00 8.945107e-01 3.095652e+00 -1.742787e+00 1.378885e-02 1.460953e+00 7.347309e+01 -2.798761e-02 2.814526e-02 -1.372104e-02 -3.288177e-02 -3.462968e-02 -4.439701e-03 3.480344e-02 2.150955e-02 1.617409e-02 2.126668e-02 6.686266e-03 1.631694e-02 -4.318704e-02 -1.156908e-03 -1.267083e-03 1.817020e-03 1.387809e-03 1.051688e-03 9.527882e-04 6.872507e-04 9.696747e-04 -1.692495e-04 -1.324337e-03 8.348934e-05 -6.514064e-04 6.440800e-04
<VARIANCE> 39
 8.601128e+01 4.756170e+01 3.007740e+01 3.793738e+01 5.271272e+01 5.607995e+01 9.821718e+01 4.765067e+01 4.050858e+01 5.443698e+01 3.610930e+01 2.993849e+01 7.182596e+01 2.205244e+00 2.470136e+00 1.580104e+00 1.842896e+00 2.362954e+00 2.885592e+00 4.685415e+00 2.577733e+00 2.335360e+00 2.667512e+00 1.893032e+00 1.772518e+00 2.363517e+00 2.989354e-01 3.979920e-01 2.700679e-01 2.944816e-01 3.654600e-01 4.322402e-01 7.327247e-01 4.741361e-01 4.185014e-01 4.559772e-01 3.394148e-01 3.042702e-01 3.451065e-01
<GCONST> 1.209559e+02
<TRANSP> 5
 0.000000e+00 1.000000e+00 0.000000e+00 0.000000e+00 0.000000e+00
 0.000000e+00 7.376825e-01 2.623175e-01 0.000000e+00 0.000000e+00
 0.000000e+00 0.000000e+00 7.376828e-01 2.623172e-01 0.000000e+00
 0.000000e+00 0.000000e+00 0.000000e+00 8.615084e-01 1.384916e-01
 0.000000e+00 0.000000e+00 0.000000e+00 0.000000e+00 0.000000e+00
<ENDHMM>
~h "f"
<BEGINHMM>
<NUMSTATES> 5
<STATE> 2
<MEAN> 39
 -1.036973e+01 -6.969332e-01 -2.474088e-01 6.943481e+00 4.001674e+00 5.015770e+00 -3.568432e-01 2.451607e+00 3.749809e+00 -8.596800e-01 1.275496e+00 2.103506e+00 7.121336e+01 1.032380e-01 -3.712169e-02 2.722100e-02 6.370686e-02 9.338965e-02 2.662070e-02 -9.215005e-02 -9.199649e-02 2.113889e-02 -7.582287e-02 -6.397259e-02 -8.669416e-02 1.754618e-01 4.672704e-03 -1.070769e-02 2.763542e-03 4.434377e-04 -1.448669e-03 6.365760e-04 -3.794494e-03 -7.748655e-03 -2.423317e-03 -4.838478e-03 -9.262091e-04 -4.978156e-03 1.372900e-02
<VARIANCE> 39
 9.002441e+01 5.090170e+01 2.009214e+01 3.869752e+01 3.757809e+01 4.113991e+01 9.350666e+01 4.058012e+01 2.382592e+01 5.056265e+01 3.765300e+01 2.504133e+01 8.546953e+01 3.055263e+00 3.014008e+00 1.396043e+00 2.373914e+00 2.374793e+00 2.245645e+00 6.746976e+00 2.484633e+00 1.969394e+00 2.891269e+00 2.211339e+00 1.703221e+00 2.795001e+00 4.266078e-01 5.231564e-01 2.671430e-01 4.076567e-01 4.028029e-01 3.821098e-01 1.175244e+00 4.496656e-01 3.993973e-01 5.288286e-01 3.752286e-01 3.165991e-01 4.493808e-01
<GCONST> 1.220326e+02
<STATE> 3
<MEAN> 39
 -9.935209e+00 -9.444937e-01 -1.165570e-01 7.177597e+00 4.326472e+00 5.117879e+00 -7.314854e-01 2.030618e+00 3.798757e+00 -1.185099e+00 1.035156e+00 1.742889e+00 7.200208e+01 1.143903e-01 -6.918621e-02 3.521918e-02 5.967912e-02 8.158302e-02 2.522160e-02 -9.709203e-02 -1.119115e-01 1.020643e-02 -8.558343e-02 -6.164892e-02 -9.789105e-02 2.114778e-01 2.569252e-03 -7.625716e-03 1.841636e-03 -1.347036e-03 -3.593944e-03 -8.838576e-04 -7.386038e-04 -4.448190e-03 -2.799639e-03 -2.040970e-03 7.106977e-04 -2.596908e-03 8.255129e-03
<VARIANCE> 39
 9.078073e+01 5.241341e+01 2.034472e+01 4.125209e+01 4.009225e+01 4.127462e+01 9.886327e+01 4.321340e+01 2.389742e+01 5.051287e+01 3.785815e+01 2.573741e+01 8.960294e+01 3.240653e+00 2.962795e+00 1.388921e+00 2.529091e+00 2.517016e+00 2.241010e+00 7.345760e+00 2.617032e+00 1.936938e+00 2.990519e+00 2.325180e+00 1.813402e+00 2.948073e+00 4.397835e-01 5.126989e-01 2.655836e-01 4.277638e-01 4.165409e-01 3.814614e-01 1.263157e+00 4.652653e-01 3.869670e-01 5.449044e-01 3.911130e-01 3.374659e-01 4.711586e-01
<GCONST> 1.232332e+02
<STATE> 4
<MEAN> 39
 -9.170397e+00 -1.509679e+00 1.151664e-01 7.451393e+00 4.643368e+00 5.185575e+00 -1.283360e+00 1.298261e+00 3.794055e+00 -1.684879e+00 6.525208e-01 1.101168e+00 7.341091e+01 1.047436e-01 -8.050429e-02 3.430817e-02 3.335832e-02 4.581971e-02 1.360522e-02 -7.825833e-02 -1.094578e-01 -2.295382e-03 -7.181688e-02 -4.930529e-02 -9.255809e-02 2.005256e-01 -1.472088e-03 -9.805975e-04 -1.058001e-04 -3.628355e-03 -5.475830e-03 -2.280630e-03 2.877204e-03 8.895873e-04 -1.671416e-03 2.173277e-03 1.583048e-03 5.965970e-04 -2.170502e-03
<VARIANCE> 39
 9.112072e+01 5.688218e+01 2.216341e+01 4.469659e+01 4.421459e+01 4.254063e+01 1.023240e+02 4.674333e+01 2.453236e+01 4.965791e+01 3.857622e+01 2.596540e+01 9.065166e+01 3.374127e+00 2.925540e+00 1.458077e+00 2.651190e+00 2.673784e+00 2.299526e+00 7.654735e+00 2.765128e+00 1.930163e+00 3.054733e+00 2.436900e+00 1.907439e+00 2.978211e+00 4.333427e-01 5.004880e-01 2.741238e-01 4.384751e-01 4.231248e-01 3.902881e-01 1.289645e+00 4.827873e-01 3.738597e-01 5.475969e-01 4.021668e-01 3.531698e-01 4.693475e-01
<GCONST> 1.243591e+02
<TRANSP> 5
 0.000000e+00 1.000000e+00 0.000000e+00 0.000000e+00 0.000000e+00
 0.000000e+00 7.406253e-01 2.593747e-01 0.000000e+00 0.000000e+00
 0.000000e+00 0.000000e+00 7.406252e-01 2.593748e-01 0.000000e+00
 0.000000e+00 0.000000e+00 0.000000e+00 8.639603e-01 1.360397e-01
 0.000000e+00 0.000000e+00 0.000000e+00 0.000000e+00 0.000000e+00
<ENDHMM>
~h "g"
<BEGINHMM>
<NUMSTATES> 5
<STATE> 2
<MEAN> 39
 -5.982763e+00 8.416212e-01 7.701049e-01 7.441803e+00 4.084835e+00 4.172415e+00 -3.581008e+00 9.723658e-01 4.174146e+00 -1.754170e+00 -1.179464e+00 -1.567804e-01 7.394930e+01 6.580137e-02 1.427667e-02 1.052389e-02 -6.973116e-03 -3.106619e-02 -3.746591e-02 -4.323070e-02 5.009775e-04 1.475048e-02 -1.359755e-02 -3.310950e-02 -2.856206e-02 4.308488e-02 1.054063e-04 6.143950e-05 1.416497e-04 9.941147e-04 1.096542e-03 -5.159772e-04 -2.512048e-03 -1.876556e-03 -1.186025e-03 1.221552e-04 -7.414019e-04 4.450336e-04 3.184535e-05
<VARIANCE> 39
 7.640066e+01 4.862941e+01 3.026808e+01 4.693335e+01 6.804550e+01 7.106100e+01 9.761138e+01 6.108204e+01 3.598809e+01 5.056622e+01 3.736590e+01 3.016558e+01 7.266419e+01 2.327250e+00 2.899255e+00 1.821849e+00 2.079015e+00 3.008958e+00 2.905134e+00 4.794393e+00 2.794006e+00 2.458602e+00 2.943875e+00 2.053293e+00 1.698033e+00 2.650288e+00 3.333483e-01 5.212988e-01 3.387062e-01 3.627338e-01 5.208374e-01 4.546339e-01 7.351462e-01 5.010821e-01 4.567591e-01 5.193808e-01 3.704659e-01 3.045638e-01 4.208710e-01
<GCONST> 1.245878e+02
<STATE> 3
<MEAN> 39
 -5.730582e+00 9.070967e-01 8.085550e-01 7.410699e+00 3.957699e+00 4.008623e+00 -3.763073e+00 9.765104e-01 4.224184e+00 -1.805010e+00 -1.311156e+00 -2.670666e-01 7.411017e+01 6.201836e-02 1.153644e-02 1.038029e-02 -2.973160e-03 -2.674705e-02 -3.720628e-02 -4.918649e-02 -5.335360e-03 8.905112e-03 -1.268229e-02 -3.333413e-02 -2.493663e-02 4.103107e-02 -2.094298e-03 -1.246423e-03 -1.448735e-04 1.240846e-03 1.361152e-03 6.826050e-04 -5.032356e-04 -1.244732e-03 -1.749426e-03 8.773414e-05 2.360492e-04 1.434986e-03 -1.179077e-03
<VARIANCE> 39
 7.748705e+01 4.962363e+01 3.034015e+01 4.872165e+01 7.027184e+01 7.321766e+01 9.714111e+01 6.145179e+01 3.580833e+01 5.066586e+01 3.681840e+01 3.020574e+01 7.297280e+01 2.303023e+00 2.957676e+00 1.812836e+00 2.069514e+00 3.005386e+00 2.898654e+00 4.778962e+00 2.764564e+00 2.442318e+00 2.934974e+00 2.031498e+00 1.699488e+00 2.611718e+00 3.259487e-01 5.260782e-01 3.354166e-01 3.576521e-01 5.163868e-01 4.470389e-01 7.257157e-01 4.910204e-01 4.531655e-01 5.148274e-01 3.657719e-01 3.038543e-01 4.102080e-01
<GCONST> 1.245082e+02
<STATE> 4
<MEAN> 39
 -5.364984e+00 9.938190e-01 9.050080e-01 7.406096e+00 3.774182e+00 3.708938e+00 -4.103350e+00 9.543467e-01 4.246203e+00 -1.922716e+00 -1.531864e+00 -4.248211e-01 7.438451e+01 4.056140e-02 4.800525e-04 8.076564e-03 6.207125e-05 -2.070867e-02 -2.857598e-02 -4.115475e-02 -6.815123e-03 -2.416028e-03 -1.039785e-02 -2.491339e-02 -1.323243e-02 2.856250e-02 -4.702947e-03 -2.966939e-03 -3.100150e-04 1.428359e-03 1.893015e-03 2.591346e-03 2.167659e-03 -7.051508e-04 -2.165610e-03 1.923969e-04 1.519194e-03 2.560711e-03 -2.526019e-03
<VARIANCE> 39
 7.846101e+01 5.112364e+01 3.118055e+01 5.168840e+01 7.276369e+01 7.658263e+01 9.574537e+01 6.307300e+01 3.535339e+01 5.138784e+01 3.603015e+01 3.014025e+01 7.252631e+01 2.220641e+00 3.029322e+00 1.814641e+00 2.037544e+00 2.953544e+00 2.841751e+00 4.689885e+00 2.745912e+00 2.379803e+00 2.866230e+00 1.999956e+00 1.710594e+00 2.507558e+00 3.061007e-01 5.281187e-01 3.319255e-01 3.460943e-01 5.027073e-01 4.295591e-01 7.003572e-01 4.779397e-01 4.398773e-01 4.964713e-01 3.577631e-01 3.051971e-01 3.850599e-01
<GCONST> 1.241318e+02
<TRANSP> 5
 0.000000e+00 1.000000e+00 0.000000e+00 0.000000e+00 0.000000e+00
 0.000000e+00 7.451357e-01 2.548643e-01 0.000000e+00 0.000000e+00
 0.000000e+00 0.000000e+00 7.451357e-01 2.548643e-01 0.000000e+00
 0.000000e+00 0.000000e+00 0.000000e+00 8.692833e-01 1.307167e-01
 0.000000e+00 0.000000e+00 0.000000e+00 0.000000e+00 0.000000e+00
<ENDHMM>
~h "k"
<BEGINHMM>
<NUMSTATES> 5
<STATE> 2
<MEAN> 39
 -7.848695e+00 -6.486076e-01 -2.708848e-01 5.668774e+00 1.446886e+00 3.085272e+00 -1.949104e+00 2.527180e+00 3.620541e+00 -9.090748e-01 3.006043e-01 1.260878e+00 7.256107e+01 -1.256153e-02 5.309300e-02 -1.077553e-03 -1.879829e-02 1.435533e-02 6.403067e-03 -3.138503e-02 -1.329429e-02 2.024267e-02 1.223084e-02 -8.087391e-04 3.857612e-03 -3.316689e-02 -7.818258e-04 7.314784e-04 1.915840e-03 8.441460e-04 -5.825172e-04 -1.312499e-04 -4.024929e-04 -1.019707e-03 -1.462294e-04 3.266672e-04 8.435862e-04 6.121860e-06 -2.739996e-04
<VARIANCE> 39
 9.358204e+01 5.667391e+01 3.380324e+01 5.884270e+01 5.626912e+01 5.150600e+01 9.319694e+01 4.299442e+01 2.972777e+01 4.959434e+01 3.869688e+01 2.974092e+01 7.766573e+01 2.548034e+00 3.366605e+00 1.768162e+00 2.134551e+00 2.633143e+00 2.532819e+00 4.263037e+00 2.321424e+00 1.908523e+00 2.828617e+00 2.046991e+00 1.727901e+00 2.689146e+00 3.228922e-01 5.703443e-01 3.353549e-01 3.560337e-01 4.430119e-01 4.262903e-01 6.901869e-01 4.120217e-01 3.435841e-01 4.704545e-01 3.577113e-01 3.097812e-01 4.234909e-01
<GCONST> 1.227958e+02
<STATE> 3
<MEAN> 39
 -7.912771e+00 -4.559130e-01 -2.559884e-01 5.613808e+00 1.510945e+00 3.122531e+00 -2.069301e+00 2.470009e+00 3.699349e+00 -8.645077e-01 3.002625e-01 1.280014e+00 7.243309e+01 -1.682878e-02 5.274979e-02 7.067156e-03 -1.489953e-02 1.247423e-02 5.237396e-03 -3.159717e-02 -1.385036e-02 2.077542e-02 1.271650e-02 1.191218e-03 3.355796e-03 -3.347965e-02 -1.518991e-03 -4.709633e-04 2.049633e-03 1.639246e-03 -1.682023e-04 1.690302e-04 1.817782e-03 7.650244e-04 -3.836099e-04 8.369380e-04 6.244510e-04 2.352470e-04 -6.327785e-04
<VARIANCE> 39
 9.446198e+01 5.475081e+01 3.417366e+01 5.877515e+01 5.498526e+01 5.118233e+01 9.192788e+01 4.163948e+01 2.954786e+01 4.885844e+01 3.863068e+01 2.939334e+01 7.722932e+01 2.460673e+00 3.248891e+00 1.718708e+00 2.119247e+00 2.567047e+00 2.496762e+00 4.213783e+00 2.276653e+00 1.900647e+00 2.758280e+00 2.017114e+00 1.707641e+00 2.596119e+00 3.098306e-01 5.528435e-01 3.229770e-01 3.511022e-01 4.327890e-01 4.188544e-01 6.822114e-01 4.041519e-01 3.410435e-01 4.586041e-01 3.536530e-01 3.056179e-01 4.101541e-01
<GCONST> 1.221114e+02
<STATE> 4
<MEAN> 39
 -8.043768e+00 -3.066511e-01 -1.166300e-01 5.635902e+00 1.566846e+00 3.222540e+00 -2.195731e+00 2.363836e+00 3.832022e+00 -7.399430e-01 3.133135e-01 1.276696e+00 7.230072e+01 -2.576724e-02 4.151125e-02 1.879801e-02 -3.782788e-03 1.551959e-02 9.869745e-03 -2.178256e-02 -1.046335e-02 1.938063e-02 1.548423e-02 4.760622e-03 4.509781e-03 -3.269599e-02 -1.679770e-03 -1.550851e-03 1.511362e-03 1.598377e-03 -2.625677e-04 7.489349e-04 3.472441e-03 1.719548e-03 -5.187236e-04 1.241672e-03 1.078811e-03 5.283516e-04 -2.992181e-04
<VARIANCE> 39
 9.446265e+01 5.254939e+01 3.558632e+01 5.967033e+01 5.339333e+01 5.028304e+01 8.989046e+01 4.003622e+01 2.862798e+01 4.795332e+01 3.905257e+01 2.895923e+01 7.700770e+01 2.336174e+00 3.129948e+00 1.675663e+00 2.102422e+00 2.477411e+00 2.434282e+00 4.117196e+00 2.225858e+00 1.872753e+00 2.705060e+00 1.986827e+00 1.681462e+00 2.508127e+00 2.892458e-01 5.376584e-01 3.108641e-01 3.408690e-01 4.178743e-01 4.079534e-01 6.621778e-01 3.945001e-01 3.373992e-01 4.507409e-01 3.483630e-01 2.997515e-01 3.964546e-01
<GCONST> 1.212552e+02
<TRANSP> 5
 0.000000e+00 1.000000e+00 0.000000e+00 0.000000e+00 0.000000e+00
 0.000000e+00 7.424092e-01 2.575908e-01 0.000000e+00 0.000000e+00
 0.000000e+00 0.000000e+00 7.424101e-01 2.575899e-01 0.000000e+00
 0.000000e+00 0.000000e+00 0.000000e+00 8.664632e-01 1.335367e-01
 0.000000e+00 0.000000e+00 0.000000e+00 0.000000e+00 0.000000e+00
<ENDHMM>
~h "l"
<BEGINHMM>
<NUMSTATES> 5
<STATE> 2
<MEAN> 39
 -7.344240e+00 -4.410242e-01 4.481250e-01 6.370290e+00 3.502780e+00 5.384776e+00 -2.398503e+00 8.496712e-01 2.408955e+00 -2.618226e+00 -2.377252e-01 1.482192e+00 7.306485e+01 -3.242555e-02 4.015131e-03 -1.266821e-02 1.157102e-03 8.574063e-03 1.273122e-03 1.981710e-02 1.416275e-02 -5.783102e-03 -7.044731e-03 1.056136e-03 6.088204e-03 -3.223538e-02 1.559656e-03 -1.052247e-03 -4.459603e-04 6.789571e-05 -9.541927e-04 -1.138216e-03 -1.213437e-03 -2.223481e-04 -3.430441e-04 -9.302918e-04 -3.150429e-05 -5.086446e-04 1.528005e-03
<VARIANCE> 39
 9.057076e+01 5.173120e+01 2.756990e+01 4.310841e+01 3.917545e+01 4.118767e+01 9.620932e+01 4.762247e+01 3.441189e+01 5.966985e+01 4.408640e+01 2.742079e+01 7.300704e+01 1.926074e+00 2.617126e+00 1.367908e+00 1.667792e+00 1.792095e+00 2.175199e+00 4.031274e+00 2.331976e+00 2.065238e+00 2.643850e+00 1.999294e+00 1.760907e+00 1.871262e+00 2.503273e-01 4.313065e-01 2.306027e-01 2.678438e-01 3.001364e-01 3.614587e-01 6.425439e-01 4.170641e-01 3.663954e-01 4.484498e-01 3.423783e-01 3.187771e-01 2.700615e-01
<GCONST> 1.177890e+02
<STATE> 3
<MEAN> 39
 -7.455141e+00 -4.284565e-01 3.973477e-01 6.374912e+00 3.524958e+00 5.371662e+00 -2.335191e+00 9.017681e-01 2.383435e+00 -2.647911e+00 -2.385265e-01 1.497170e+00 7.295094e+01 -2.714948e-02 -4.845480e-04 -1.320364e-02 4.981523e-04 3.590380e-03 -2.530555e-03 1.514831e-02 1.247850e-02 -6.458587e-03 -8.644483e-03 1.050128e-03 4.223302e-03 -2.630782e-02 1.495711e-03 -6.170554e-04 -7.484233e-05 -1.718432e-04 -1.213222e-03 -9.677963e-04 -1.318106e-03 -2.748580e-04 3.477316e-04 2.712904e-04 -6.145105e-05 -5.280583e-04 1.345219e-03
<VARIANCE> 39
 9.075571e+01 5.166401e+01 2.749302e+01 4.282534e+01 3.872694e+01 4.044367e+01 9.569053e+01 4.811458e+01 3.392223e+01 5.917735e+01 4.346614e+01 2.730729e+01 7.382211e+01 1.909226e+00 2.567517e+00 1.346295e+00 1.626224e+00 1.776210e+00 2.143101e+00 3.959010e+00 2.310335e+00 2.039456e+00 2.637962e+00 1.979474e+00 1.749970e+00 1.849995e+00 2.492371e-01 4.217991e-01 2.278606e-01 2.621202e-01 2.981101e-01 3.581355e-01 6.279373e-01 4.144978e-01 3.626740e-01 4.483957e-01 3.397404e-01 3.161543e-01 2.681921e-01
<GCONST> 1.174243e+02
<STATE> 4
<MEAN> 39
 -7.644022e+00 -3.582339e-01 3.427091e-01 6.377578e+00 3.505381e+00 5.292322e+00 -2.186932e+00 1.031956e+00 2.323203e+00 -2.600834e+00 -2.101130e-01 1.483226e+00 7.276705e+01 -2.106676e-02 -4.763156e-04 -1.072097e-02 -2.219839e-03 -6.729561e-03 -1.042711e-02 9.263491e-03 1.193452e-02 -3.170503e-03 -3.244530e-03 1.119144e-03 1.023031e-03 -2.114163e-02 1.005000e-03 4.282463e-04 3.915368e-04 -2.843711e-04 -1.307190e-03 -8.826371e-04 -1.040273e-03 -1.541992e-04 1.225084e-03 1.875043e-03 2.878277e-04 -4.443305e-04 6.192565e-04
<VARIANCE> 39
 9.151012e+01 5.137285e+01 2.745896e+01 4.160184e+01 3.837325e+01 4.085270e+01 9.330811e+01 4.794291e+01 3.349150e+01 5.838850e+01 4.245584e+01 2.722959e+01 7.403529e+01 1.879986e+00 2.488533e+00 1.308047e+00 1.551036e+00 1.752038e+00 2.113597e+00 3.806039e+00 2.254952e+00 1.983265e+00 2.606615e+00 1.933836e+00 1.734295e+00 1.815606e+00 2.463526e-01 4.076955e-01 2.223236e-01 2.512410e-01 2.937435e-01 3.537938e-01 5.977134e-01 4.071844e-01 3.531177e-01 4.445170e-01 3.325297e-01 3.121225e-01 2.642387e-01
<GCONST> 1.167228e+02
<TRANSP> 5
 0.000000e+00 1.000000e+00 0.000000e+00 0.000000e+00 0.000000e+00
 0.000000e+00 7.422439e-01 2.577560e-01 0.000000e+00 0.000000e+00
 0.000000e+00 0.000000e+00 7.422445e-01 2.577555e-01 0.000000e+00
 0.000000e+00 0.000000e+00 0.000000e+00 8.661858e-01 1.338142e-01
 0.000000e+00 0.000000e+00 0.000000e+00 0.000000e+00 0.000000e+00
<ENDHMM>
~h "m"
<BEGINHMM>
<NUMSTATES> 5
<STATE> 2
<MEAN> 39
 -8.521552e+00 2.238799e+00 3.236373e-01 4.372834e+00 2.242771e+00 5.582135e+00 -1.609223e+00 1.567155e+00 4.123334e+00 -1.192724e-01 4.217223e-01 2.065027e+00 7.105636e+01 -6.103617e-02 1.423455e-02 -1.142325e-02 -1.711794e-02 -1.419564e-02 -1.580996e-02 3.266211e-02 3.679830e-02 8.552437e-03 2.116877e-02 1.493138e-02 2.415345e-02 -5.895125e-02 2.040731e-03 -3.994189e-05 -2.014401e-03 1.540462e-03 3.415146e-04 -2.291489e-03 -2.828836e-03 1.315762e-03 7.191457e-04 -1.177503e-03 -3.568819e-04 4.534876e-04 2.373458e-04
<VARIANCE> 39
 8.659980e+01 3.540969e+01 2.290778e+01 3.803429e+01 4.087646e+01 4.347417e+01 7.416077e+01 3.671479e+01 2.653551e+01 3.661227e+01 3.342458e+01 2.593700e+01 6.870777e+01 1.376174e+00 1.834545e+00 1.216405e+00 1.730490e+00 2.099527e+00 2.307428e+00 3.203824e+00 1.807449e+00 1.940230e+00 1.927375e+00 1.534259e+00 1.605740e+00 1.381172e+00 1.842272e-01 3.187420e-01 2.186186e-01 2.970109e-01 3.553614e-01 3.851170e-01 4.955340e-01 3.248227e-01 3.645239e-01 3.376741e-01 2.660890e-01 2.752491e-01 1.987745e-01
<GCONST> 1.115801e+02
<STATE> 3
<MEAN> 39
 -8.733644e+00 2.299319e+00 2.597593e-01 4.319143e+00 2.184340e+00 5.488730e+00 -1.512253e+00 1.712437e+00 4.153434e+00 -3.926575e-02 4.845874e-01 2.152833e+00 7.083417e+01 -5.427802e-02 1.356476e-02 -1.700873e-02 -1.127838e-02 -1.205957e-02 -2.354684e-02 2.052901e-02 3.521670e-02 8.219416e-03 1.729783e-02 1.727857e-02 2.352566e-02 -5.591754e-02 2.055790e-03 2.273728e-05 -1.454413e-03 1.800836e-03 9.667471e-04 -1.892610e-03 -2.319213e-03 -6.868067e-04 -1.096696e-03 -9.873683e-04 1.925568e-04 -6.313768e-04 7.193630e-04
<VARIANCE> 39
 8.628397e+01 3.439292e+01 2.263040e+01 3.749389e+01 4.135636e+01 4.283536e+01 7.373895e+01 3.616096e+01 2.609410e+01 3.629778e+01 3.253822e+01 2.567580e+01 6.835648e+01 1.358633e+00 1.805746e+00 1.179668e+00 1.670084e+00 2.101210e+00 2.222608e+00 3.130869e+00 1.770881e+00 1.930446e+00 1.900550e+00 1.519066e+00 1.576447e+00 1.368175e+00 1.806801e-01 3.141586e-01 2.119575e-01 2.858890e-01 3.575993e-01 3.689258e-01 4.833923e-01 3.177916e-01 3.611307e-01 3.334459e-01 2.642666e-01 2.695942e-01 1.955307e-01
<GCONST> 1.109450e+02
<STATE> 4
<MEAN> 39
 -8.839532e+00 2.457673e+00 1.744972e-01 4.219248e+00 2.085954e+00 5.283367e+00 -1.536841e+00 1.848144e+00 4.196579e+00 4.573107e-02 5.146092e-01 2.205024e+00 7.064854e+01 -4.416474e-02 8.840926e-03 -1.710616e-02 -6.081218e-03 -7.580536e-03 -2.381740e-02 1.367443e-02 2.409010e-02 -8.632322e-04 1.106759e-02 1.665418e-02 1.597578e-02 -4.448865e-02 1.221857e-03 -1.059608e-03 1.130140e-04 9.985303e-04 4.813931e-04 1.291722e-04 -1.217409e-04 -1.541332e-03 -1.552964e-03 -1.357157e-03 1.163836e-04 -1.353855e-03 1.923312e-03
<VARIANCE> 39
 8.576807e+01 3.233823e+01 2.240880e+01 3.675126e+01 4.192282e+01 4.225413e+01 7.383886e+01 3.610498e+01 2.559712e+01 3.639100e+01 3.199645e+01 2.506371e+01 6.802582e+01 1.341328e+00 1.746023e+00 1.131378e+00 1.561754e+00 2.068766e+00 2.075398e+00 3.061916e+00 1.735341e+00 1.889566e+00 1.866590e+00 1.491546e+00 1.530845e+00 1.338900e+00 1.762561e-01 3.058201e-01 2.026626e-01 2.616174e-01 3.527271e-01 3.380442e-01 4.679578e-01 3.113613e-01 3.503706e-01 3.267399e-01 2.619014e-01 2.613194e-01 1.892640e-01
<GCONST> 1.099316e+02
<TRANSP> 5
 0.000000e+00 1.000000e+00 0.000000e+00 0.000000e+00 0.000000e+00
 0.000000e+00 7.458463e-01 2.541537e-01 0.000000e+00 0.000000e+00
 0.000000e+00 0.000000e+00 7.458463e-01 2.541537e-01 0.000000e+00
 0.000000e+00 0.000000e+00 0.000000e+00 8.704405e-01 1.295595e-01
 0.000000e+00 0.000000e+00 0.000000e+00 0.000000e+00 0.000000e+00
<ENDHMM>
~h "n"
<BEGINHMM>
<NUMSTATES> 5
<STATE> 2
<MEAN> 39
 -5.774369e+00 4.322090e-01 -1.859093e-02 5.931242e+00 3.981035e+00 5.100080e+00 -4.108068e+00 3.808826e-01 3.235047e+00 -2.225739e+00 -1.315055e-01 1.585754e+00 7.395897e+01 2.371397e-02 9.191831e-03 8.998408e-03 -4.879340e-03 -1.111356e-02 -1.811101e-02 -7.058810e-03 1.466215e-02 5.346401e-03 -5.807547e-03 -6.032667e-03 -1.810016e-02 1.898801e-02 1.574870e-04 -1.406338e-03 4.181764e-04 1.554383e-03 2.981563e-04 -4.063448e-04 -1.093943e-03 -4.573914e-04 1.196397e-03 -8.411385e-04 -5.663400e-04 -1.965581e-04 9.504232e-04
<VARIANCE> 39
 8.339130e+01 5.106242e+01 3.335509e+01 4.760796e+01 4.811510e+01 5.217884e+01 9.608011e+01 4.658310e+01 3.625827e+01 4.777868e+01 3.793249e+01 2.992303e+01 7.207182e+01 2.176060e+00 2.902799e+00 1.614370e+00 1.969891e+00 2.276061e+00 2.623321e+00 4.531115e+00 2.457202e+00 2.113158e+00 2.499648e+00 2.034728e+00 1.826603e+00 2.176341e+00 2.912393e-01 4.821306e-01 2.711824e-01 3.146828e-01 3.733363e-01 4.209343e-01 7.111007e-01 4.483919e-01 3.721431e-01 4.269880e-01 3.648673e-01 3.203731e-01 3.145418e-01
<GCONST> 1.207994e+02
<STATE> 3
<MEAN> 39
 -5.673543e+00 4.548563e-01 1.274002e-02 5.927706e+00 3.941662e+00 5.021312e+00 -4.149829e+00 4.317789e-01 3.261731e+00 -2.259853e+00 -1.611520e-01 1.512324e+00 7.404539e+01 2.489411e-02 3.500082e-03 8.849792e-03 -7.427218e-04 -1.096920e-02 -1.907966e-02 -1.184424e-02 1.171405e-02 8.564702e-03 -9.535285e-03 -8.528512e-03 -1.830596e-02 2.271662e-02 1.621309e-04 -1.214185e-03 -6.502550e-05 9.243560e-04 1.378006e-04 -1.392094e-04 -1.187328e-03 -8.323902e-04 6.437463e-04 -7.100686e-04 -6.479495e-04 9.593718e-05 6.440976e-04
<VARIANCE> 39
 8.348180e+01 5.126300e+01 3.289072e+01 4.778260e+01 4.847049e+01 5.274173e+01 9.648962e+01 4.649537e+01 3.677697e+01 4.736959e+01 3.781338e+01 2.967306e+01 7.194128e+01 2.200114e+00 2.924775e+00 1.617818e+00 2.005197e+00 2.305948e+00 2.646966e+00 4.574376e+00 2.457471e+00 2.130675e+00 2.517888e+00 2.051773e+00 1.833855e+00 2.217589e+00 2.943236e-01 4.855137e-01 2.717589e-01 3.194579e-01 3.783493e-01 4.247738e-01 7.165208e-01 4.474151e-01 3.749329e-01 4.309402e-01 3.684165e-01 3.222065e-01 3.208573e-01
<GCONST> 1.210379e+02
<STATE> 4
<MEAN> 39
 -5.516550e+00 4.216788e-01 5.313167e-02 5.937585e+00 3.918094e+00 4.943114e+00 -4.284449e+00 4.332230e-01 3.295274e+00 -2.312565e+00 -1.772354e-01 1.453132e+00 7.422134e+01 2.604193e-02 -7.068324e-04 6.268825e-03 9.195008e-04 -8.929200e-03 -1.679619e-02 -1.743784e-02 5.196312e-03 6.263780e-03 -1.427902e-02 -1.073551e-02 -1.593216e-02 2.450794e-02 -4.320719e-04 -3.999925e-04 -1.390908e-04 1.628086e-04 2.618206e-04 5.004440e-04 -4.767074e-04 -1.060323e-03 -4.716617e-04 -4.138434e-04 -2.950928e-04 5.338331e-04 -2.458079e-04
<VARIANCE> 39
 8.349300e+01 5.160398e+01 3.262703e+01 4.870902e+01 4.872940e+01 5.280986e+01 9.742027e+01 4.660963e+01 3.745961e+01 4.695799e+01 3.796830e+01 2.918843e+01 7.146583e+01 2.212095e+00 2.942436e+00 1.617326e+00 2.051740e+00 2.329324e+00 2.661960e+00 4.627281e+00 2.447489e+00 2.149285e+00 2.514783e+00 2.071399e+00 1.828027e+00 2.239069e+00 2.940690e-01 4.889482e-01 2.703137e-01 3.249853e-01 3.820959e-01 4.287599e-01 7.222486e-01 4.441526e-01 3.771518e-01 4.305097e-01 3.707772e-01 3.212271e-01 3.232394e-01
<GCONST> 1.211993e+02
<TRANSP> 5
 0.000000e+00 1.000000e+00 0.000000e+00 0.000000e+00 0.000000e+00
 0.000000e+00 7.435971e-01 2.564028e-01 0.000000e+00 0.000000e+00
 0.000000e+00 0.000000e+00 7.435976e-01 2.564024e-01 0.000000e+00
 0.000000e+00 0.000000e+00 0.000000e+00 8.679401e-01 1.320600e-01
 0.000000e+00 0.000000e+00 0.000000e+00 0.000000e+00 0.000000e+00
<ENDHMM>
~h "p"
<BEGINHMM>
<NUMSTATES> 5
<STATE> 2
<MEAN> 39
 -7.937670e+00 -1.315350e+00 1.061347e+00 6.843915e+00 2.407470e+00 3.959153e+00 -2.701024e+00 5.118466e-01 2.750630e+00 -1.224499e+00 4.522087e-01 1.346008e+00 7.363423e+01 -2.340892e-02 2.626734e-02 2.739300e-03 5.074803e-03 3.022015e-03 3.702525e-04 1.256278e-02 2.315879e-02 1.215491e-02 2.405006e-02 -8.369468e-03 -4.603344e-03 -4.120491e-02 -4.295112e-03 5.528923e-03 9.902850e-04 -6.528956e-03 -3.067874e-03 3.223567e-04 3.204101e-03 4.265002e-03 2.064378e-03 -1.823822e-03 -7.582080e-04 -7.713584e-04 -3.232117e-03
<VARIANCE> 39
 8.916050e+01 6.014218e+01 4.050343e+01 4.913785e+01 4.544365e+01 5.216156e+01 9.502412e+01 4.889033e+01 3.240832e+01 5.334399e+01 4.164960e+01 2.281564e+01 8.188428e+01 2.699321e+00 2.955631e+00 1.764506e+00 1.983560e+00 2.228825e+00 2.520174e+00 4.082160e+00 2.136083e+00 1.762689e+00 2.513608e+00 1.933830e+00 1.478459e+00 2.334533e+00 3.479686e-01 4.593818e-01 2.879838e-01 3.209814e-01 3.893017e-01 4.126145e-01 6.063377e-01 3.675044e-01 3.292337e-01 4.239463e-01 3.258990e-01 2.566749e-01 3.160795e-01
<GCONST> 1.202531e+02
<STATE> 3
<MEAN> 39
 -8.061736e+00 -1.163548e+00 1.072536e+00 6.821080e+00 2.395975e+00 3.956872e+00 -2.611059e+00 6.524863e-01 2.806469e+00 -1.171464e+00 4.222670e-01 1.323121e+00 7.344706e+01 -3.300606e-02 4.822553e-02 -1.813982e-03 -1.450810e-02 -9.476431e-03 -7.109342e-03 2.446291e-02 4.002242e-02 1.397222e-02 1.370612e-02 -7.542975e-03 -5.583486e-03 -5.291923e-02 -1.914737e-03 5.300311e-03 -1.498984e-03 -4.437927e-03 -2.893235e-03 -2.298930e-03 3.071122e-03 4.147422e-03 -1.806150e-04 -2.658803e-03 2.477043e-04 4.895657e-05 -2.854098e-03
<VARIANCE> 39
 9.023544e+01 5.999495e+01 3.967428e+01 5.013820e+01 4.721993e+01 5.363986e+01 9.395976e+01 4.820422e+01 3.198917e+01 5.358105e+01 4.138073e+01 2.310836e+01 8.205276e+01 2.649079e+00 2.932092e+00 1.744034e+00 1.983072e+00 2.264901e+00 2.547762e+00 4.104714e+00 2.138814e+00 1.728067e+00 2.462080e+00 1.912058e+00 1.465788e+00 2.308909e+00 3.411245e-01 4.512457e-01 2.842471e-01 3.199815e-01 3.926077e-01 4.152091e-01 6.125857e-01 3.663601e-01 3.231294e-01 4.155115e-01 3.193034e-01 2.553654e-01 3.113974e-01
<GCONST> 1.201150e+02
<STATE> 4
<MEAN> 39
 -8.201370e+00 -9.216620e-01 9.934863e-01 6.729819e+00 2.342422e+00 3.889765e+00 -2.355233e+00 9.651301e-01 2.681823e+00 -1.254784e+00 4.311969e-01 1.300025e+00 7.317385e+01 -3.334003e-02 6.697848e-02 -1.849948e-02 -3.259977e-02 -2.458148e-02 -2.711625e-02 3.559367e-02 6.007609e-02 6.398819e-03 4.617682e-03 -7.290292e-03 -1.937457e-03 -6.551635e-02 -2.034891e-04 2.311285e-03 -2.197929e-03 -3.049573e-03 -2.390869e-03 -3.279559e-03 1.156498e-03 2.631113e-03 -6.610615e-04 -1.356057e-03 8.183978e-04 7.525883e-04 -1.246815e-03
<VARIANCE> 39
 9.202186e+01 5.933634e+01 3.738886e+01 4.997305e+01 4.879224e+01 5.385319e+01 9.235074e+01 4.680632e+01 3.216486e+01 5.427842e+01 4.076589e+01 2.329297e+01 8.168159e+01 2.610413e+00 2.846716e+00 1.664601e+00 1.957405e+00 2.262011e+00 2.539725e+00 4.133157e+00 2.113855e+00 1.708910e+00 2.439265e+00 1.848743e+00 1.454170e+00 2.264839e+00 3.354119e-01 4.326824e-01 2.702233e-01 3.143457e-01 3.865858e-01 4.118755e-01 6.178865e-01 3.608215e-01 3.195338e-01 4.107243e-01 3.038459e-01 2.554813e-01 3.031482e-01
<GCONST> 1.196071e+02
<TRANSP> 5
 0.000000e+00 1.000000e+00 0.000000e+00 0.000000e+00 0.000000e+00
 0.000000e+00 7.455155e-01 2.544846e-01 0.000000e+00 0.000000e+00
 0.000000e+00 0.000000e+00 7.455155e-01 2.544845e-01 0.000000e+00
 0.000000e+00 0.000000e+00 0.000000e+00 8.701054e-01 1.298945e-01
 0.000000e+00 0.000000e+00 0.000000e+00 0.000000e+00 0.000000e+00
<ENDHMM>
~h "r"
<BEGINHMM>
<NUMSTATES> 5
<STATE> 2
<MEAN> 39
 -6.021607e+00 1.247581e+00 7.855551e-01 6.757568e+00 4.135948e+00 4.587634e+00 -3.963504e+00 5.029989e-01 3.098037e+00 -1.901931e+00 -2.609225e-01 1.018592e+00 7.337581e+01 -8.061933e-02 5.590733e-03 -9.455658e-03 -4.340893e-03 8.254072e-03 -5.745485e-03 3.682198e-02 3.817152e-02 -1.659757e-03 9.816683e-03 2.077674e-02 5.671111e-03 -6.250703e-02 -1.480273e-03 -3.992534e-03 -1.331336e-03 2.842888e-03 3.008794e-03 2.141715e-03 -4.163689e-04 -2.526972e-03 1.842226e-04 -1.263375e-03 -4.021165e-04 2.081555e-03 5.404728e-04
<VARIANCE> 39
 8.419437e+01 5.924253e+01 4.183949e+01 4.498029e+01 4.890435e+01 5.613858e+01 1.060190e+02 5.154869e+01 4.370467e+01 4.920039e+01 3.823061e+01 2.621859e+01 7.111189e+01 2.146325e+00 2.657361e+00 1.661629e+00 1.841267e+00 2.276873e+00 2.417825e+00 4.700438e+00 2.221198e+00 1.956989e+00 2.359093e+00 1.854391e+00 1.491604e+00 1.884879e+00 2.682272e-01 4.529549e-01 2.717417e-01 2.926230e-01 3.741666e-01 3.622355e-01 6.823785e-01 4.006734e-01 3.183040e-01 4.040408e-01 3.116137e-01 2.467930e-01 2.813547e-01
<GCONST> 1.193760e+02
<STATE> 3
<MEAN> 39
 -6.332141e+00 1.243675e+00 7.319107e-01 6.745044e+00 4.165277e+00 4.554491e+00 -3.831820e+00 6.420500e-01 3.096155e+00 -1.873489e+00 -1.872583e-01 1.054847e+00 7.314377e+01 -8.400653e-02 -8.040648e-03 -1.474917e-02 4.654396e-03 1.748527e-02 1.582321e-04 3.330095e-02 2.882355e-02 -3.233296e-04 5.255816e-03 1.851735e-02 1.310797e-02 -5.974942e-02 -1.171866e-03 -4.058465e-03 -1.669856e-03 2.350587e-03 2.333474e-03 1.625068e-03 -6.179640e-04 -2.443972e-03 1.227151e-04 -1.199832e-03 -2.984690e-04 2.677855e-03 6.033087e-04
<VARIANCE> 39
 8.498412e+01 5.944122e+01 4.132914e+01 4.371189e+01 4.967337e+01 5.426890e+01 1.071063e+02 5.083664e+01 4.282440e+01 4.979356e+01 3.758476e+01 2.621739e+01 7.205148e+01 2.137365e+00 2.658963e+00 1.644054e+00 1.792777e+00 2.310890e+00 2.410727e+00 4.799438e+00 2.227853e+00 1.960148e+00 2.375245e+00 1.821025e+00 1.478822e+00 1.866613e+00 2.678063e-01 4.525556e-01 2.689538e-01 2.864994e-01 3.809588e-01 3.611212e-01 7.016654e-01 4.027246e-01 3.197123e-01 4.105242e-01 3.083964e-01 2.447311e-01 2.780846e-01
<GCONST> 1.192841e+02
<STATE> 4
<MEAN> 39
 -6.760443e+00 1.075919e+00 6.097697e-01 6.721487e+00 4.209978e+00 4.595851e+00 -3.675938e+00 7.332146e-01 3.091763e+00 -1.821535e+00 -5.850884e-02 1.167905e+00 7.286494e+01 -8.424445e-02 -2.196184e-02 -2.386781e-02 8.671382e-03 1.852839e-02 -1.423229e-03 2.782104e-02 2.015801e-02 1.366729e-03 2.017446e-03 1.571822e-02 2.276334e-02 -5.587237e-02 -5.493374e-04 -2.778585e-03 -1.288750e-03 1.247966e-03 8.599967e-04 8.363986e-04 -4.103825e-04 -1.864691e-03 5.424966e-05 -5.036779e-04 -2.024273e-05 2.240757e-03 5.028158e-04
<VARIANCE> 39
 8.576311e+01 5.905101e+01 4.079277e+01 4.232594e+01 5.110869e+01 5.087992e+01 1.093385e+02 5.065628e+01 4.205375e+01 5.029753e+01 3.691127e+01 2.612339e+01 7.341687e+01 2.135752e+00 2.692977e+00 1.633447e+00 1.758367e+00 2.351111e+00 2.397857e+00 4.888573e+00 2.275886e+00 1.981574e+00 2.376037e+00 1.775494e+00 1.462108e+00 1.874893e+00 2.688305e-01 4.616724e-01 2.687727e-01 2.839811e-01 3.888259e-01 3.630079e-01 7.249174e-01 4.139977e-01 3.250470e-01 4.143808e-01 3.030648e-01 2.423216e-01 2.816658e-01
<GCONST> 1.193396e+02
<TRANSP> 5
 0.000000e+00 1.000000e+00 0.000000e+00 0.000000e+00 0.000000e+00
 0.000000e+00 7.378463e-01 2.621537e-01 0.000000e+00 0.000000e+00
 0.000000e+00 0.000000e+00 7.378461e-01 2.621539e-01 0.000000e+00
 0.000000e+00 0.000000e+00 0.000000e+00 8.614892e-01 1.385108e-01
 0.000000e+00 0.000000e+00 0.000000e+00 0.000000e+00 0.000000e+00
<ENDHMM>
~h "s"
<BEGINHMM>
<NUMSTATES> 5
<STATE> 2
<MEAN> 39
 -7.510978e+00 -2.989041e+00 1.041616e+00 5.843904e+00 2.127627e+00 3.708470e+00 -2.067132e+00 9.355624e-01 1.718931e+00 -2.646601e+00 1.399815e+00 1.653690e+00 7.524445e+01 -4.759553e-02 2.919007e-02 -8.580871e-03 1.756173e-02 1.291432e-02 1.986325e-02 1.295847e-02 1.527994e-02 2.155822e-02 2.191801e-02 1.166051e-02 3.827506e-02 -7.619051e-02 6.612192e-04 4.464740e-05 1.322359e-04 1.904768e-03 2.402526e-04 -1.211668e-03 -2.128335e-03 8.927740e-04 2.539378e-03 7.883002e-04 -5.899434e-04 -6.702241e-04 -9.400470e-04
<VARIANCE> 39
 9.718171e+01 6.854196e+01 4.160114e+01 4.475748e+01 4.004146e+01 4.597435e+01 9.514014e+01 4.428252e+01 3.732631e+01 5.084464e+01 4.153928e+01 2.605301e+01 7.437974e+01 3.354426e+00 3.557153e+00 2.094563e+00 2.211628e+00 1.966953e+00 2.485064e+00 4.610564e+00 2.189723e+00 1.981254e+00 2.834384e+00 2.176098e+00 1.653233e+00 2.302278e+00 4.164938e-01 5.799513e-01 3.353606e-01 3.721052e-01 3.315306e-01 4.076957e-01 7.100020e-01 3.823272e-01 3.644476e-01 4.799901e-01 3.587798e-01 2.897693e-01 3.481400e-01
<GCONST> 1.226006e+02
<STATE> 3
<MEAN> 39
 -7.693888e+00 -2.866257e+00 1.010600e+00 5.935282e+00 2.192353e+00 3.787535e+00 -2.031362e+00 9.962771e-01 1.826818e+00 -2.548840e+00 1.436313e+00 1.793412e+00 7.493315e+01 -4.550683e-02 3.025681e-02 -8.147124e-03 2.239558e-02 1.284227e-02 1.517345e-02 6.199098e-03 1.847369e-02 3.124259e-02 2.582009e-02 9.460284e-03 3.420630e-02 -7.905318e-02 6.633801e-04 9.540351e-04 8.901072e-05 1.231210e-03 3.576588e-04 -9.851858e-04 -9.218282e-04 6.169826e-04 1.650278e-03 1.314902e-03 -9.475896e-04 -1.263710e-03 -1.121670e-03
<VARIANCE> 39
 9.679588e+01 6.713068e+01 4.094712e+01 4.389196e+01 3.897132e+01 4.529942e+01 9.384883e+01 4.451171e+01 3.680098e+01 5.071691e+01 4.094038e+01 2.586464e+01 7.551136e+01 3.254190e+00 3.512285e+00 2.057478e+00 2.182895e+00 1.967385e+00 2.471143e+00 4.529701e+00 2.182459e+00 1.978323e+00 2.796303e+00 2.132999e+00 1.628789e+00 2.277517e+00 4.049296e-01 5.793993e-01 3.316553e-01 3.686257e-01 3.355554e-01 4.065461e-01 6.981699e-01 3.814144e-01 3.668155e-01 4.731700e-01 3.521454e-01 2.838559e-01 3.452762e-01
<GCONST> 1.221907e+02
<STATE> 4
<MEAN> 39
 -7.922680e+00 -2.680911e+00 9.553403e-01 6.157678e+00 2.329580e+00 3.921383e+00 -2.005569e+00 1.042702e+00 1.968873e+00 -2.352791e+00 1.459624e+00 1.921130e+00 7.446432e+01 -4.448676e-02 3.876999e-02 -7.613873e-03 2.309381e-02 1.389319e-02 1.178375e-02 4.452814e-03 1.936151e-02 3.915537e-02 3.549346e-02 5.164774e-03 2.468268e-02 -8.430398e-02 4.517762e-04 2.134561e-03 -1.024739e-04 3.050758e-04 7.773698e-04 -3.997977e-04 9.511637e-04 -1.437626e-04 -4.480643e-04 1.676270e-03 -1.178993e-03 -1.507536e-03 -1.342380e-03
<VARIANCE> 39
 9.538927e+01 6.528120e+01 4.012310e+01 4.278944e+01 3.829324e+01 4.458012e+01 9.244656e+01 4.491176e+01 3.627378e+01 5.021518e+01 3.991050e+01 2.517340e+01 7.578629e+01 3.041430e+00 3.444312e+00 1.975241e+00 2.124546e+00 1.973169e+00 2.438934e+00 4.375264e+00 2.158358e+00 1.967416e+00 2.698890e+00 2.072520e+00 1.591040e+00 2.233427e+00 3.807604e-01 5.751291e-01 3.215461e-01 3.602196e-01 3.400978e-01 4.017437e-01 6.733884e-01 3.773805e-01 3.674144e-01 4.561674e-01 3.427411e-01 2.761069e-01 3.397706e-01
<GCONST> 1.213917e+02
<TRANSP> 5
 0.000000e+00 1.000000e+00 0.000000e+00 0.000000e+00 0.000000e+00
 0.000000e+00 7.456716e-01 2.543285e-01 0.000000e+00 0.000000e+00
 0.000000e+00 0.000000e+00 7.456713e-01 2.543287e-01 0.000000e+00
 0.000000e+00 0.000000e+00 0.000000e+00 8.701538e-01 1.298462e-01
 0.000000e+00 0.000000e+00 0.000000e+00 0.000000e+00 0.000000e+00
<ENDHMM>
~h "t"
<BEGINHMM>
<NUMSTATES> 5
<STATE> 2
<MEAN> 39
 -7.475950e+00 7.469056e-01 3.774454e-02 5.900662e+00 3.316463e+00 3.948041e+00 -3.249370e+00 1.267652e+00 3.435400e+00 -1.377061e+00 3.395827e-01 1.528641e+00 7.242736e+01 -6.046733e-02 -1.160386e-02 1.498377e-02 1.756468e-02 1.412611e-02 2.230157e-02 3.781172e-02 1.365503e-02 -1.134700e-02 1.325901e-02 1.551291e-02 8.548208e-03 -3.820948e-02 1.000508e-03 -1.355332e-04 -2.845631e-04 -3.754473e-04 -1.879399e-04 2.787487e-04 -3.246487e-04 5.090726e-05 -2.181453e-04 -1.362985e-03 -1.392684e-04 -4.795350e-04 9.847273e-04
<VARIANCE> 39
 9.092687e+01 4.970012e+01 3.258492e+01 4.187758e+01 4.584265e+01 5.142825e+01 1.000669e+02 4.884748e+01 3.135639e+01 5.163699e+01 3.472283e+01 2.746797e+01 7.632589e+01 2.471823e+00 2.538897e+00 1.595115e+00 1.819680e+00 2.150043e+00 2.388838e+00 4.415274e+00 2.368611e+00 1.958231e+00 2.663087e+00 1.877778e+00 1.617537e+00 2.457022e+00 3.269644e-01 4.317657e-01 2.608636e-01 2.996592e-01 3.635134e-01 3.768373e-01 6.648957e-01 4.236353e-01 3.546966e-01 4.523648e-01 3.318162e-01 2.794001e-01 3.703803e-01
<GCONST> 1.197416e+02
<STATE> 3
<MEAN> 39
 -7.707283e+00 7.041140e-01 9.063126e-02 5.955112e+00 3.362600e+00 4.038454e+00 -3.095719e+00 1.324194e+00 3.387183e+00 -1.335189e+00 4.000436e-01 1.561741e+00 7.228172e+01 -5.560298e-02 -1.018189e-02 1.331916e-02 1.373528e-02 1.141455e-02 2.214087e-02 3.627861e-02 1.388515e-02 -1.248877e-02 7.124498e-03 1.376675e-02 6.599050e-03 -3.488281e-02 1.711933e-03 7.098194e-04 -6.368468e-04 -1.106226e-03 -6.849697e-04 -3.748645e-04 -5.465608e-04 4.751416e-05 -5.280819e-04 -1.538048e-03 -6.625102e-04 -6.654752e-04 9.021548e-04
<VARIANCE> 39
 9.083609e+01 4.965273e+01 3.212895e+01 4.177152e+01 4.491230e+01 5.010720e+01 9.885692e+01 4.779869e+01 3.092748e+01 5.119413e+01 3.496464e+01 2.735161e+01 7.633978e+01 2.472898e+00 2.550320e+00 1.594025e+00 1.827965e+00 2.137668e+00 2.346396e+00 4.357097e+00 2.344693e+00 1.957526e+00 2.672366e+00 1.893096e+00 1.604715e+00 2.457377e+00 3.274330e-01 4.332190e-01 2.611690e-01 3.013735e-01 3.630147e-01 3.709098e-01 6.553347e-01 4.182509e-01 3.564145e-01 4.549251e-01 3.340660e-01 2.761253e-01 3.717361e-01
<GCONST> 1.195644e+02
<STATE> 4
<MEAN> 39
 -7.996355e+00 6.789773e-01 1.726432e-01 5.992566e+00 3.400214e+00 4.136471e+00 -2.909675e+00 1.362779e+00 3.256508e+00 -1.308361e+00 4.815096e-01 1.580335e+00 7.211142e+01 -4.691768e-02 -6.334597e-03 9.355454e-03 3.444599e-03 4.039175e-03 1.969347e-02 3.260683e-02 1.276546e-02 -1.510105e-02 -2.152072e-03 9.948809e-03 5.866954e-03 -3.089040e-02 2.074568e-03 8.690021e-04 -7.273486e-04 -1.563254e-03 -1.213198e-03 -1.009821e-03 -1.171694e-03 -3.355278e-04 -5.517994e-04 -1.588715e-03 -9.511410e-04 -8.167163e-04 1.125901e-03
<VARIANCE> 39
 9.111412e+01 4.898734e+01 3.133150e+01 4.157080e+01 4.335771e+01 4.864032e+01 9.710886e+01 4.652761e+01 3.044044e+01 5.031364e+01 3.533470e+01 2.719540e+01 7.623317e+01 2.463685e+00 2.527695e+00 1.578636e+00 1.817789e+00 2.085864e+00 2.278285e+00 4.264274e+00 2.298148e+00 1.951678e+00 2.654267e+00 1.896496e+00 1.582373e+00 2.412500e+00 3.269324e-01 4.284436e-01 2.592985e-01 3.015602e-01 3.554625e-01 3.592381e-01 6.396232e-01 4.067985e-01 3.577318e-01 4.532180e-01 3.331295e-01 2.714283e-01 3.660885e-01
<GCONST> 1.190610e+02
<TRANSP> 5
 0.000000e+00 1.000000e+00 0.000000e+00 0.000000e+00 0.000000e+00
 0.000000e+00 7.424156e-01 2.575843e-01 0.000000e+00 0.000000e+00
 0.000000e+00 0.000000e+00 7.424147e-01 2.575853e-01 0.000000e+00
 0.000000e+00 0.000000e+00 0.000000e+00 8.665890e-01 1.334110e-01
 0.000000e+00 0.000000e+00 0.000000e+00 0.000000e+00 0.000000e+00
<ENDHMM>
~h "v"
<BEGINHMM>
<NUMSTATES> 5
<STATE> 2
<MEAN> 39
 -4.181282e+00 -5.615144e-01 1.709824e+00 7.917342e+00 4.294556e+00 4.792992e+00 -5.537733e+00 -8.293473e-01 3.349463e+00 -3.707718e+00 -2.048887e+00 5.949713e-01 7.639220e+01 4.718751e-04 1.009651e-02 -3.194099e-02 -6.992159e-02 -5.190137e-02 -1.086912e-02 2.725675e-02 3.448562e-03 -3.460637e-02 -5.649630e-03 5.261409e-02 2.620232e-02 -5.166773e-04 -2.674983e-03 -9.776198e-05 -1.786268e-03 -2.058963e-03 -3.017053e-04 1.148928e-03 4.038457e-03 2.728597e-03 -1.364718e-03 1.518909e-03 3.442256e-03 1.286647e-03 -2.599098e-03
<VARIANCE> 39
 7.233365e+01 5.900916e+01 4.084085e+01 6.164765e+01 5.233356e+01 5.646870e+01 8.901972e+01 6.095117e+01 4.158493e+01 5.446076e+01 5.116513e+01 2.695172e+01 5.894866e+01 1.999653e+00 2.784139e+00 1.616103e+00 1.860781e+00 2.125881e+00 2.507165e+00 4.398985e+00 2.727622e+00 2.033300e+00 2.559253e+00 2.153015e+00 1.856478e+00 1.909270e+00 2.735931e-01 4.660937e-01 2.674806e-01 2.892201e-01 3.305729e-01 4.011661e-01 6.698763e-01 4.715569e-01 3.451197e-01 4.406476e-01 3.727767e-01 3.351324e-01 2.789753e-01
<GCONST> 1.211148e+02
<STATE> 3
<MEAN> 39
 -4.188294e+00 -5.224788e-01 1.574920e+00 7.633006e+00 4.096112e+00 4.760036e+00 -5.405489e+00 -7.982101e-01 3.198178e+00 -3.721282e+00 -1.827696e+00 7.024443e-01 7.637791e+01 -8.169894e-03 1.069871e-02 -3.738523e-02 -7.481302e-02 -5.152911e-02 -7.449130e-03 4.067961e-02 1.370640e-02 -3.812457e-02 -2.062046e-04 6.236517e-02 2.936314e-02 -9.945087e-03 -2.181041e-03 3.865766e-05 -1.351068e-03 -9.591653e-04 3.543451e-04 1.270505e-03 3.835647e-03 2.966483e-03 -9.868754e-04 1.021277e-03 2.299057e-03 8.781470e-04 -2.408117e-03
<VARIANCE> 39
 7.281401e+01 5.889207e+01 4.021606e+01 5.961468e+01 5.284291e+01 5.737469e+01 8.958080e+01 6.100111e+01 4.255702e+01 5.525104e+01 5.064855e+01 2.715435e+01 5.910368e+01 2.078452e+00 2.831475e+00 1.656417e+00 1.878765e+00 2.157681e+00 2.557281e+00 4.500698e+00 2.764434e+00 2.076339e+00 2.649951e+00 2.163176e+00 1.872700e+00 1.996507e+00 2.874607e-01 4.765818e-01 2.766888e-01 2.964131e-01 3.392946e-01 4.078204e-01 6.864399e-01 4.796934e-01 3.500446e-01 4.551634e-01 3.762943e-01 3.385268e-01 2.957704e-01
<GCONST> 1.217538e+02
<STATE> 4
<MEAN> 39
 -4.194767e+00 -4.944574e-01 1.365659e+00 7.219923e+00 3.904459e+00 4.849231e+00 -5.168669e+00 -7.309606e-01 2.919069e+00 -3.788456e+00 -1.474715e+00 8.720295e-01 7.638247e+01 -1.514630e-02 1.473165e-02 -4.036769e-02 -7.356872e-02 -4.724152e-02 -5.343887e-03 5.518735e-02 2.768669e-02 -3.911472e-02 6.224580e-03 6.469836e-02 2.804949e-02 -2.083722e-02 -1.486530e-03 5.146496e-04 -5.498237e-04 4.187507e-04 7.955256e-04 7.260124e-04 2.774167e-03 2.903151e-03 2.566634e-04 6.342882e-04 2.928104e-04 2.325565e-05 -2.029547e-03
<VARIANCE> 39
 7.266270e+01 5.836502e+01 3.933771e+01 5.554005e+01 5.275715e+01 5.791172e+01 9.096420e+01 6.056302e+01 4.371241e+01 5.634357e+01 4.912348e+01 2.794131e+01 5.853917e+01 2.191191e+00 2.960412e+00 1.710397e+00 1.915667e+00 2.199980e+00 2.624381e+00 4.685537e+00 2.816174e+00 2.150483e+00 2.761028e+00 2.175958e+00 1.906749e+00 2.136190e+00 3.079261e-01 5.021452e-01 2.887608e-01 3.083399e-01 3.514551e-01 4.201826e-01 7.176647e-01 4.889052e-01 3.607052e-01 4.715205e-01 3.813214e-01 3.445338e-01 3.216183e-01
<GCONST> 1.226329e+02
<TRANSP> 5
 0.000000e+00 1.000000e+00 0.000000e+00 0.000000e+00 0.000000e+00
 0.000000e+00 7.384266e-01 2.615735e-01 0.000000e+00 0.000000e+00
 0.000000e+00 0.000000e+00 7.384270e-01 2.615730e-01 0.000000e+00
 0.000000e+00 0.000000e+00 0.000000e+00 8.622437e-01 1.377564e-01
 0.000000e+00 0.000000e+00 0.000000e+00 0.000000e+00 0.000000e+00
<ENDHMM>
~h "w"
<BEGINHMM>
<NUMSTATES> 5
<STATE> 2
<MEAN> 39
 -4.389279e+00 1.085646e-01 -5.170567e-01 5.669332e+00 2.713980e+00 3.301420e+00 -4.812757e+00 1.337232e+00 3.864358e+00 -2.647888e+00 -5.785547e-01 8.576807e-01 7.499813e+01 4.338484e-02 9.767760e-03 2.253115e-02 1.182253e-03 -3.088349e-04 -1.082493e-02 -4.257730e-02 -1.522975e-02 1.847197e-02 -2.342613e-02 -2.757871e-02 -2.495607e-02 4.048068e-02 -1.329923e-03 9.980048e-04 -2.026512e-04 -1.682153e-03 -7.616228e-05 6.835032e-04 1.955743e-03 8.702262e-04 -8.181528e-04 -2.360437e-04 1.161423e-04 2.661447e-04 -1.415127e-03
<VARIANCE> 39
 8.340559e+01 5.270211e+01 3.035406e+01 5.410046e+01 5.960294e+01 6.303940e+01 9.684808e+01 4.773201e+01 3.633988e+01 6.614225e+01 4.012641e+01 2.818729e+01 6.583242e+01 2.618113e+00 2.704740e+00 1.692359e+00 2.087469e+00 2.623042e+00 2.878607e+00 5.009597e+00 2.610137e+00 2.177280e+00 3.133615e+00 2.185699e+00 2.005922e+00 2.721176e+00 3.409338e-01 4.420370e-01 2.879730e-01 3.272348e-01 4.207143e-01 4.401444e-01 7.925176e-01 4.636976e-01 3.995360e-01 5.180311e-01 3.890818e-01 3.650397e-01 3.797181e-01
<GCONST> 1.239165e+02
<STATE> 3
<MEAN> 39
 -4.261123e+00 1.614372e-01 -4.292051e-01 5.651595e+00 2.708074e+00 3.275900e+00 -4.942025e+00 1.289277e+00 3.923832e+00 -2.725712e+00 -6.658982e-01 7.731103e-01 7.511778e+01 3.442480e-02 1.240596e-02 2.288421e-02 -6.037265e-03 -8.818042e-04 -6.932808e-03 -3.273180e-02 -1.196478e-02 1.381430e-02 -2.372140e-02 -2.427062e-02 -2.269977e-02 3.388339e-02 -2.419855e-03 7.957047e-04 1.344284e-04 -2.047664e-03 -4.371088e-05 1.188813e-03 2.622133e-03 7.881218e-04 -1.288893e-03 -7.340440e-05 9.602786e-04 6.785855e-04 -1.694650e-03
<VARIANCE> 39
 8.248380e+01 5.272081e+01 3.064659e+01 5.488227e+01 6.022280e+01 6.256416e+01 9.649439e+01 4.786186e+01 3.671072e+01 6.622015e+01 4.031689e+01 2.820578e+01 6.545501e+01 2.652315e+00 2.678759e+00 1.691541e+00 2.105644e+00 2.630624e+00 2.864369e+00 5.006762e+00 2.603204e+00 2.195249e+00 3.187451e+00 2.189456e+00 1.994269e+00 2.700199e+00 3.451188e-01 4.382232e-01 2.868747e-01 3.299766e-01 4.184663e-01 4.389575e-01 7.899975e-01 4.616230e-01 4.011900e-01 5.271424e-01 3.870740e-01 3.646493e-01 3.796614e-01
<GCONST> 1.239696e+02
<STATE> 4
<MEAN> 39
 -4.117015e+00 3.211276e-01 -2.637698e-01 5.548181e+00 2.668095e+00 3.257181e+00 -5.083841e+00 1.199276e+00 3.980123e+00 -2.790861e+00 -7.850183e-01 6.395905e-01 7.525977e+01 8.892355e-03 1.415831e-02 2.187650e-02 -1.684042e-02 -2.171868e-03 4.733807e-04 -1.236984e-02 -5.629039e-03 4.053833e-03 -1.808095e-02 -1.210041e-02 -1.395205e-02 1.528342e-02 -3.334760e-03 3.185157e-04 -2.700217e-04 -1.759407e-03 -5.727343e-06 1.123093e-03 2.884992e-03 8.471026e-04 -1.575162e-03 5.803949e-04 1.499488e-03 1.178450e-03 -2.275313e-03
<VARIANCE> 39
 8.166962e+01 5.316341e+01 3.109308e+01 5.552035e+01 5.991724e+01 6.222591e+01 9.614015e+01 4.744363e+01 3.702827e+01 6.552776e+01 4.121083e+01 2.832407e+01 6.453610e+01 2.657048e+00 2.608426e+00 1.662654e+00 2.106298e+00 2.574777e+00 2.831208e+00 4.957232e+00 2.579150e+00 2.193973e+00 3.216547e+00 2.181315e+00 1.978057e+00 2.586290e+00 3.432186e-01 4.268956e-01 2.807508e-01 3.315040e-01 4.075129e-01 4.354189e-01 7.792678e-01 4.578809e-01 3.993152e-01 5.301917e-01 3.819387e-01 3.649037e-01 3.652148e-01
<GCONST> 1.236852e+02
<TRANSP> 5
 0.000000e+00 1.000000e+00 0.000000e+00 0.000000e+00 0.000000e+00
 0.000000e+00 7.378849e-01 2.621150e-01 0.000000e+00 0.000000e+00
 0.000000e+00 0.000000e+00 7.378846e-01 2.621154e-01 0.000000e+00
 0.000000e+00 0.000000e+00 0.000000e+00 8.613793e-01 1.386207e-01
 0.000000e+00 0.000000e+00 0.000000e+00 0.000000e+00 0.000000e+00
<ENDHMM>
~h "y"
<BEGINHMM>
<NUMSTATES> 5
<STATE> 2
<MEAN> 39
 -5.287523e+00 -5.494494e-01 3.925800e-01 8.565831e+00 4.942925e+00 4.175913e+00 -4.716603e+00 6.297971e-01 3.670356e+00 -3.442519e+00 -1.449173e+00 -1.803797e-01 7.551723e+01 2.074776e-02 -7.572249e-03 5.930066e-03 -8.868288e-03 -9.660977e-03 1.005302e-02 8.646843e-03 9.854486e-03 6.255253e-03 -2.436395e-02 -2.334561e-02 -1.680855e-02 1.766849e-02 -3.046298e-03 1.962603e-03 -1.259641e-03 -1.946008e-03 -1.201887e-03 -7.504768e-04 1.780693e-03 2.663819e-03 -4.122680e-04 1.426669e-03 1.083524e-03 2.659924e-03 -5.697749e-03
<VARIANCE> 39
 8.831423e+01 5.882051e+01 2.499718e+01 4.330980e+01 5.778749e+01 5.892783e+01 1.134426e+02 5.736665e+01 3.287971e+01 6.223648e+01 4.830023e+01 3.099434e+01 7.051718e+01 2.359951e+00 2.816863e+00 1.455278e+00 2.348601e+00 2.703448e+00 2.741497e+00 5.810162e+00 2.706551e+00 1.904576e+00 3.091234e+00 2.021819e+00 1.890207e+00 2.349191e+00 3.078476e-01 4.680644e-01 2.596003e-01 3.822950e-01 4.217887e-01 4.440550e-01 9.963958e-01 4.773575e-01 3.550218e-01 5.295485e-01 3.327064e-01 3.355100e-01 3.693886e-01
<GCONST> 1.236482e+02
<STATE> 3
<MEAN> 39
 -5.270703e+00 -5.525246e-01 3.964123e-01 8.500438e+00 4.884795e+00 4.204626e+00 -4.633185e+00 7.137077e-01 3.695137e+00 -3.500352e+00 -1.518107e+00 -2.115365e-01 7.550031e+01 9.003578e-03 -1.212587e-03 1.291889e-03 -1.535215e-02 -1.345191e-02 6.016196e-03 1.259079e-02 1.784814e-02 4.809021e-03 -1.901152e-02 -1.951987e-02 -6.743679e-03 -2.113529e-03 -2.838914e-03 1.838240e-03 -1.200787e-03 -1.734536e-03 -1.025416e-03 -1.146181e-03 7.379750e-04 1.752872e-03 -3.270464e-04 1.446273e-03 8.315987e-04 2.482870e-03 -4.984885e-03
<VARIANCE> 39
 8.829321e+01 5.982296e+01 2.524991e+01 4.272495e+01 5.779613e+01 5.960729e+01 1.124646e+02 5.764054e+01 3.342231e+01 6.278656e+01 4.893311e+01 3.108725e+01 6.930630e+01 2.318864e+00 2.779203e+00 1.466961e+00 2.339299e+00 2.672500e+00 2.781673e+00 5.627425e+00 2.705976e+00 1.883478e+00 3.051823e+00 2.042629e+00 1.867888e+00 2.263269e+00 2.966894e-01 4.563426e-01 2.597600e-01 3.807589e-01 4.139754e-01 4.540867e-01 9.548780e-01 4.756427e-01 3.473145e-01 5.172501e-01 3.338299e-01 3.294540e-01 3.534692e-01
<GCONST> 1.233613e+02
<STATE> 4
<MEAN> 39
 -5.413435e+00 -4.295962e-01 2.848577e-01 8.305728e+00 4.786744e+00 4.240221e+00 -4.430402e+00 9.203079e-01 3.749674e+00 -3.503653e+00 -1.608098e+00 -1.208066e-01 7.524529e+01 -1.333355e-02 7.499407e-03 -4.046014e-03 -2.448287e-02 -1.882512e-02 -1.129026e-03 1.802783e-02 2.675330e-02 1.380372e-03 -6.119687e-03 -1.215085e-02 6.548918e-03 -2.989926e-02 -1.637589e-03 1.346046e-03 -6.006858e-04 -1.087079e-03 -4.821184e-04 -1.101218e-03 -1.021552e-03 7.466070e-05 -7.416605e-04 9.645726e-04 3.610976e-04 1.564527e-03 -2.833880e-03
<VARIANCE> 39
 8.817815e+01 5.975478e+01 2.620942e+01 4.102289e+01 5.667390e+01 5.916824e+01 1.103975e+02 5.731934e+01 3.439030e+01 6.419457e+01 5.003807e+01 3.073204e+01 6.762291e+01 2.212164e+00 2.705110e+00 1.494735e+00 2.247765e+00 2.578173e+00 2.816643e+00 5.117504e+00 2.612926e+00 1.894532e+00 2.989563e+00 2.040370e+00 1.783468e+00 2.069369e+00 2.781052e-01 4.385990e-01 2.612929e-01 3.652092e-01 3.953599e-01 4.628124e-01 8.524696e-01 4.516119e-01 3.452258e-01 4.974624e-01 3.333281e-01 3.100578e-01 3.192222e-01
<GCONST> 1.223995e+02
<TRANSP> 5
 0.000000e+00 1.000000e+00 0.000000e+00 0.000000e+00 0.000000e+00
 0.000000e+00 7.463613e-01 2.536388e-01 0.000000e+00 0.000000e+00
 0.000000e+00 0.000000e+00 7.463612e-01 2.536388e-01 0.000000e+00
 0.000000e+00 0.000000e+00 0.000000e+00 8.709559e-01 1.290440e-01
 0.000000e+00 0.000000e+00 0.000000e+00 0.000000e+00 0.000000e+00
<ENDHMM>
~h "z"
<BEGINHMM>
<NUMSTATES> 5
<STATE> 2
<MEAN> 39
 -7.094404e+00 -4.436866e+00 3.337407e+00 8.246187e+00 3.975358e+00 5.089872e+00 -4.141509e+00 -1.515625e+00 2.745397e+00 -2.499941e+00 -3.433151e-01 1.390470e-01 7.697855e+01 -9.320902e-03 2.124514e-02 1.818242e-02 -4.999007e-02 -4.426940e-02 1.983869e-02 3.181988e-02 -1.617983e-03 -5.331575e-02 -3.487809e-02 1.346334e-02 2.903131e-02 -1.670766e-02 -3.052213e-03 4.912633e-03 -3.555845e-03 -2.429113e-03 -1.950271e-03 -2.279028e-04 4.656173e-03 4.215836e-03 -3.934100e-04 3.082248e-03 2.887910e-03 3.524785e-03 -7.132023e-03
<VARIANCE> 39
 8.694934e+01 6.522379e+01 5.362329e+01 6.426784e+01 5.080288e+01 4.013533e+01 1.036991e+02 4.886523e+01 4.062621e+01 4.799460e+01 5.380642e+01 3.101440e+01 7.536768e+01 2.598178e+00 3.137568e+00 2.204862e+00 2.078338e+00 2.235895e+00 2.221116e+00 4.489628e+00 2.306782e+00 2.264888e+00 2.566782e+00 2.170571e+00 1.750646e+00 2.344120e+00 3.285703e-01 5.197319e-01 3.766513e-01 3.353356e-01 3.688061e-01 3.777417e-01 6.750039e-01 4.039394e-01 4.002742e-01 4.429917e-01 3.422931e-01 3.087802e-01 3.557181e-01
<GCONST> 1.233240e+02
<STATE> 3
<MEAN> 39
 -7.170411e+00 -4.317669e+00 3.344593e+00 8.028677e+00 3.796776e+00 5.163145e+00 -3.971501e+00 -1.477051e+00 2.551491e+00 -2.584200e+00 -2.521914e-01 2.886492e-01 7.683363e+01 -1.620788e-02 4.226422e-02 3.301578e-03 -5.604923e-02 -4.908273e-02 1.636861e-02 4.466905e-02 1.426825e-02 -5.047629e-02 -2.351460e-02 2.126815e-02 4.015519e-02 -4.200482e-02 -1.946944e-03 4.983512e-03 -3.691771e-03 -1.510071e-03 -8.282055e-04 -1.157807e-03 3.216425e-03 4.011884e-03 4.018534e-04 3.302309e-03 2.480224e-03 2.340085e-03 -6.278977e-03
<VARIANCE> 39
 8.814451e+01 6.584357e+01 5.309599e+01 6.324416e+01 4.988937e+01 4.006561e+01 1.034635e+02 4.805711e+01 4.061916e+01 4.788276e+01 5.308038e+01 3.130797e+01 7.579332e+01 2.609539e+00 3.140030e+00 2.234911e+00 2.076727e+00 2.213874e+00 2.235484e+00 4.479256e+00 2.289784e+00 2.296552e+00 2.533700e+00 2.137659e+00 1.749927e+00 2.289561e+00 3.286600e-01 5.179098e-01 3.826375e-01 3.362475e-01 3.672887e-01 3.796889e-01 6.739610e-01 4.010539e-01 4.067261e-01 4.365141e-01 3.376546e-01 3.076592e-01 3.434877e-01
<GCONST> 1.232043e+02
<STATE> 4
<MEAN> 39
 -7.456139e+00 -3.930307e+00 3.176968e+00 7.596440e+00 3.473371e+00 5.278696e+00 -3.540020e+00 -1.249138e+00 2.285209e+00 -2.505702e+00 4.441899e-02 6.282611e-01 7.627977e+01 -1.906711e-02 7.518536e-02 -2.744170e-02 -5.828863e-02 -4.329862e-02 6.592556e-03 4.964684e-02 3.444158e-02 -3.372066e-02 -3.245620e-03 2.796013e-02 5.068521e-02 -7.566760e-02 -2.447062e-04 4.102510e-03 -3.420598e-03 -6.157577e-04 3.815395e-04 -2.096219e-03 2.867624e-04 2.723739e-03 2.043946e-03 2.661966e-03 1.420005e-03 4.796347e-04 -3.656217e-03
<VARIANCE> 39
 8.890551e+01 6.596987e+01 5.214216e+01 5.972432e+01 4.780040e+01 4.023231e+01 1.032066e+02 4.627247e+01 3.972869e+01 4.701094e+01 5.003085e+01 3.103729e+01 7.716223e+01 2.570766e+00 3.153826e+00 2.234287e+00 2.084460e+00 2.180821e+00 2.238027e+00 4.461907e+00 2.241485e+00 2.293056e+00 2.460220e+00 2.066620e+00 1.725353e+00 2.234375e+00 3.233097e-01 5.199925e-01 3.852899e-01 3.387302e-01 3.653713e-01 3.784215e-01 6.743249e-01 3.947802e-01 4.084483e-01 4.221169e-01 3.302100e-01 3.026608e-01 3.275753e-01
<GCONST> 1.226831e+02
<TRANSP> 5
 0.000000e+00 1.000000e+00 0.000000e+00 0.000000e+00 0.000000e+00
 0.000000e+00 7.444631e-01 2.555369e-01 0.000000e+00 0.000000e+00
 0.000000e+00 0.000000e+00 7.444629e-01 2.555372e-01 0.000000e+00
 0.000000e+00 0.000000e+00 0.000000e+00 8.688866e-01 1.311134e-01
 0.000000e+00 0.000000e+00 0.000000e+00 0.000000e+00 0.000000e+00
<ENDHMM>
~h "aa"
<BEGINHMM>
<NUMSTATES> 5
<STATE> 2
<MEAN> 39
 -3.215970e+00 4.752522e-01 3.529352e-01 3.388291e+00 1.395676e+00 6.057471e+00 -3.069560e+00 9.933281e-02 4.467920e+00 -1.217526e+00 1.217808e-01 1.110960e+00 7.763785e+01 -5.026686e-02 2.846803e-02 3.154493e-02 3.732466e-02 4.589468e-02 3.804236e-02 8.805082e-03 -6.239931e-05 -2.120871e-02 -1.863617e-02 -1.151405e-02 1.904534e-02 -6.079363e-02 -4.953139e-03 7.197732e-05 -5.306975e-04 5.754853e-04 -1.281810e-03 -1.187730e-03 4.033464e-03 3.861524e-03 3.896513e-04 1.304571e-03 -1.511883e-04 1.999561e-03 -5.444115e-03
<VARIANCE> 39
 7.496410e+01 4.738222e+01 4.782479e+01 6.868864e+01 5.936176e+01 5.497936e+01 7.808248e+01 5.424008e+01 3.338583e+01 4.826818e+01 4.777453e+01 3.565387e+01 5.382086e+01 2.693624e+00 2.792317e+00 2.074302e+00 2.791564e+00 2.760932e+00 3.026292e+00 5.067766e+00 3.057529e+00 2.126331e+00 3.319311e+00 2.457027e+00 2.331124e+00 2.759004e+00 3.551591e-01 4.973960e-01 3.490985e-01 4.516391e-01 4.352804e-01 5.121143e-01 8.336880e-01 5.379485e-01 3.915012e-01 5.750597e-01 4.195400e-01 3.869607e-01 4.162618e-01
<GCONST> 1.264848e+02
<STATE> 3
<MEAN> 39
 -3.430184e+00 5.864342e-01 4.776886e-01 3.541188e+00 1.552910e+00 6.180820e+00 -3.013937e+00 1.284999e-01 4.390583e+00 -1.282831e+00 6.402138e-02 1.188322e+00 7.737682e+01 -6.764385e-02 2.894450e-02 2.988523e-02 4.037734e-02 4.156384e-02 3.391115e-02 2.282107e-02 1.382549e-02 -1.825345e-02 -1.381027e-02 -1.183817e-02 2.532933e-02 -7.992819e-02 -4.137377e-03 2.826162e-05 -8.995450e-04 4.539873e-04 -1.134826e-03 -1.050486e-03 3.321668e-03 3.235872e-03 9.718419e-04 1.609935e-03 -4.286648e-05 1.313460e-03 -4.651537e-03
<VARIANCE> 39
 7.525663e+01 4.638067e+01 4.743756e+01 6.761955e+01 5.973492e+01 5.541661e+01 7.647985e+01 5.381919e+01 3.181092e+01 4.853583e+01 4.808771e+01 3.614807e+01 5.468018e+01 2.665465e+00 2.679614e+00 2.008280e+00 2.743795e+00 2.749936e+00 3.071133e+00 4.961253e+00 2.988731e+00 2.044631e+00 3.273859e+00 2.379768e+00 2.359694e+00 2.695275e+00 3.506411e-01 4.783928e-01 3.338113e-01 4.419529e-01 4.310517e-01 5.170343e-01 8.161218e-01 5.228494e-01 3.781219e-01 5.648494e-01 4.036653e-01 3.919099e-01 4.083632e-01
<GCONST> 1.259259e+02
<STATE> 4
<MEAN> 39
 -3.836057e+00 7.334263e-01 6.504633e-01 3.747116e+00 1.646655e+00 6.325418e+00 -2.782866e+00 1.827413e-01 4.221798e+00 -1.233511e+00 -3.178021e-02 1.243584e+00 7.697156e+01 -8.443506e-02 2.582529e-02 3.393701e-02 5.350206e-02 3.975212e-02 2.713003e-02 3.083940e-02 2.755807e-02 -9.928304e-03 -1.060650e-02 -1.246161e-02 2.639373e-02 -9.546570e-02 -3.339430e-03 -4.309302e-04 -6.404337e-04 1.120468e-03 -1.221986e-04 -6.739739e-04 1.682588e-03 2.033488e-03 1.445723e-03 1.420657e-03 4.836995e-04 3.856596e-04 -3.323368e-03
<VARIANCE> 39
 7.588302e+01 4.499178e+01 4.773635e+01 6.868851e+01 6.103709e+01 5.409276e+01 7.350646e+01 5.234520e+01 2.974994e+01 4.846484e+01 4.818309e+01 3.655986e+01 5.591106e+01 2.603097e+00 2.608431e+00 1.908987e+00 2.684353e+00 2.704161e+00 3.062538e+00 4.765599e+00 2.874167e+00 1.947279e+00 3.197873e+00 2.269688e+00 2.389735e+00 2.596499e+00 3.411749e-01 4.679567e-01 3.135536e-01 4.272865e-01 4.186425e-01 5.160688e-01 7.857479e-01 4.966936e-01 3.614746e-01 5.465360e-01 3.791279e-01 3.979319e-01 3.951992e-01
<GCONST> 1.250321e+02
<TRANSP> 5
 0.000000e+00 1.000000e+00 0.000000e+00 0.000000e+00 0.000000e+00
 0.000000e+00 7.412320e-01 2.587681e-01 0.000000e+00 0.000000e+00
 0.000000e+00 0.000000e+00 7.412319e-01 2.587680e-01 0.000000e+00
 0.000000e+00 0.000000e+00 0.000000e+00 8.649529e-01 1.350471e-01
 0.000000e+00 0.000000e+00 0.000000e+00 0.000000e+00 0.000000e+00
<ENDHMM>
~h "ae"
<BEGINHMM>
<NUMSTATES> 5
<STATE> 2
<MEAN> 39
 -5.097804e+00 -1.258519e+00 -6.858630e-01 5.762429e+00 3.469290e+00 3.940694e+00 -4.354621e+00 2.169559e-01 2.997918e+00 -1.674028e+00 7.725278e-01 1.735147e+00 7.512295e+01 4.803428e-03 5.353209e-03 -7.629208e-03 -2.655356e-02 -1.924687e-02 -5.285200e-03 6.002456e-03 7.059340e-03 -7.155081e-03 2.510741e-02 1.753203e-02 -4.407479e-04 -2.153037e-03 4.326817e-04 4.618838e-04 5.099974e-04 -8.696278e-04 -5.094202e-04 5.426750e-04 -7.307646e-04 -5.206907e-04 9.675462e-04 -2.315720e-04 2.694005e-05 -2.179440e-04 7.588587e-04
<VARIANCE> 39
 8.476096e+01 6.919540e+01 4.188437e+01 5.422097e+01 4.932470e+01 5.476653e+01 8.473283e+01 4.184159e+01 3.553197e+01 4.670042e+01 3.847640e+01 3.187284e+01 7.078867e+01 2.530717e+00 3.182385e+00 1.851593e+00 1.957334e+00 2.289862e+00 2.672851e+00 4.883081e+00 2.470019e+00 2.192511e+00 2.286647e+00 1.957641e+00 1.844526e+00 2.673558e+00 3.274563e-01 4.868203e-01 3.202069e-01 3.033211e-01 3.940743e-01 4.304642e-01 7.843133e-01 4.313500e-01 3.969060e-01 3.793679e-01 3.487110e-01 3.089178e-01 3.753388e-01
<GCONST> 1.223701e+02
<STATE> 3
<MEAN> 39
 -5.069370e+00 -1.245964e+00 -7.154412e-01 5.665901e+00 3.393819e+00 3.909729e+00 -4.349841e+00 2.426825e-01 2.978840e+00 -1.583963e+00 8.391253e-01 1.732596e+00 7.512698e+01 7.159472e-03 8.175313e-03 -6.139472e-03 -2.972308e-02 -2.095408e-02 -3.837015e-03 2.247867e-03 5.243427e-03 -2.818830e-03 2.360349e-02 1.702731e-02 -1.019454e-03 1.875797e-04 4.735664e-04 6.344568e-04 3.911592e-04 -8.260180e-04 -4.955016e-04 4.814182e-04 -1.080659e-03 -5.029193e-04 1.557786e-03 -2.368418e-04 5.249039e-05 6.452338e-05 5.247004e-04
<VARIANCE> 39
 8.493201e+01 6.836013e+01 4.129545e+01 5.343747e+01 4.846016e+01 5.450521e+01 8.490987e+01 4.167406e+01 3.600679e+01 4.637016e+01 3.821029e+01 3.144283e+01 7.152527e+01 2.544362e+00 3.179193e+00 1.860730e+00 1.974519e+00 2.254882e+00 2.672001e+00 4.869114e+00 2.490167e+00 2.207298e+00 2.304061e+00 1.963477e+00 1.852888e+00 2.720443e+00 3.293671e-01 4.885324e-01 3.209254e-01 3.046499e-01 3.870988e-01 4.298394e-01 7.789074e-01 4.358481e-01 3.995353e-01 3.849525e-01 3.511212e-01 3.122955e-01 3.828637e-01
<GCONST> 1.224086e+02
<STATE> 4
<MEAN> 39
 -5.002046e+00 -1.170178e+00 -7.413348e-01 5.474680e+00 3.296408e+00 3.938995e+00 -4.422175e+00 2.231435e-01 3.028940e+00 -1.393713e+00 1.008314e+00 1.775919e+00 7.514024e+01 7.023804e-03 1.399962e-02 -5.590930e-03 -2.830547e-02 -1.999100e-02 -5.273363e-03 -4.423719e-03 5.970540e-03 5.184376e-03 1.923577e-02 1.289224e-02 -3.396063e-04 -3.539986e-03 -2.914835e-04 1.356839e-03 3.083632e-04 -3.541291e-04 -7.702161e-05 5.992138e-04 -6.464800e-04 -1.231459e-04 1.657109e-03 -4.204366e-04 -3.718680e-04 2.755558e-04 -8.509490e-04
<VARIANCE> 39
 8.468824e+01 6.683683e+01 4.014637e+01 5.285625e+01 4.737822e+01 5.351610e+01 8.574448e+01 4.141128e+01 3.675264e+01 4.645583e+01 3.807721e+01 3.083506e+01 7.276389e+01 2.521024e+00 3.139771e+00 1.858389e+00 1.988899e+00 2.209615e+00 2.633857e+00 4.819678e+00 2.489858e+00 2.206618e+00 2.340899e+00 1.978412e+00 1.850954e+00 2.739641e+00 3.266183e-01 4.832721e-01 3.186192e-01 3.059887e-01 3.782484e-01 4.258908e-01 7.631795e-01 4.372370e-01 3.994072e-01 3.956888e-01 3.556360e-01 3.140765e-01 3.847715e-01
<GCONST> 1.222706e+02
<TRANSP> 5
 0.000000e+00 1.000000e+00 0.000000e+00 0.000000e+00 0.000000e+00
 0.000000e+00 7.430851e-01 2.569149e-01 0.000000e+00 0.000000e+00
 0.000000e+00 0.000000e+00 7.430851e-01 2.569149e-01 0.000000e+00
 0.000000e+00 0.000000e+00 0.000000e+00 8.672887e-01 1.327113e-01
 0.000000e+00 0.000000e+00 0.000000e+00 0.000000e+00 0.000000e+00
<ENDHMM>
~h "ah"
<BEGINHMM>
<NUMSTATES> 5
<STATE> 2
<MEAN> 39
 -6.357029e+00 -6.895684e-01 -3.144532e-03 4.911191e+00 1.869488e+00 3.514492e+00 -2.982936e+00 1.107799e+00 2.678191e+00 -1.880481e+00 4.991077e-01 1.695389e+00 7.426427e+01 1.593048e-02 7.562842e-02 -1.822788e-02 -9.997231e-04 -6.003175e-04 2.134638e-02 -6.295189e-03 1.520384e-02 5.328379e-02 1.694056e-02 -3.659998e-02 1.208680e-02 -6.697919e-02 -5.567839e-04 -1.284422e-03 1.154485e-03 9.484284e-04 1.792985e-03 1.340615e-03 -4.596824e-04 -8.777525e-04 5.269072e-04 -3.602072e-04 2.288965e-04 -7.387249e-04 1.639451e-03
<VARIANCE> 39
 9.234583e+01 6.341342e+01 3.861785e+01 5.127496e+01 5.170436e+01 4.937711e+01 8.933510e+01 4.976148e+01 3.988652e+01 4.820989e+01 3.334387e+01 2.409848e+01 8.136426e+01 2.789842e+00 3.483715e+00 2.194898e+00 2.353050e+00 2.496809e+00 2.730808e+00 4.820299e+00 2.606647e+00 2.378371e+00 2.943216e+00 2.025054e+00 1.708883e+00 2.792691e+00 3.676698e-01 5.951011e-01 3.785181e-01 4.052871e-01 4.151076e-01 4.597248e-01 8.207099e-01 4.823525e-01 4.282320e-01 5.031359e-01 3.668970e-01 3.096692e-01 4.337304e-01
<GCONST> 1.248959e+02
<STATE> 3
<MEAN> 39
 -6.301368e+00 -4.127190e-01 -6.021637e-02 4.903148e+00 1.879373e+00 3.608881e+00 -3.010456e+00 1.155232e+00 2.881231e+00 -1.817399e+00 3.668370e-01 1.733922e+00 7.403120e+01 1.193874e-02 6.861404e-02 -1.278346e-02 1.894014e-03 5.151759e-03 2.612257e-02 -6.919445e-03 1.213410e-02 5.357738e-02 1.577326e-02 -3.382725e-02 9.721491e-03 -6.024211e-02 -1.490158e-03 -2.005030e-03 1.448407e-03 7.792481e-04 1.491837e-03 1.164581e-03 -1.966874e-04 -9.205634e-04 -1.605731e-04 -1.166011e-04 1.095700e-03 -6.354169e-04 1.564157e-03
<VARIANCE> 39
 9.216010e+01 6.164155e+01 3.802229e+01 5.144957e+01 5.277160e+01 5.032281e+01 8.962061e+01 5.018638e+01 4.007084e+01 4.898563e+01 3.369724e+01 2.376410e+01 8.151241e+01 2.635596e+00 3.376493e+00 2.153585e+00 2.308714e+00 2.499059e+00 2.691784e+00 4.689213e+00 2.577920e+00 2.372447e+00 2.890476e+00 2.016677e+00 1.703561e+00 2.694894e+00 3.477043e-01 5.723053e-01 3.703621e-01 3.938748e-01 4.115734e-01 4.487166e-01 7.936587e-01 4.757797e-01 4.234755e-01 4.934334e-01 3.660659e-01 3.097581e-01 4.163508e-01
<GCONST> 1.243829e+02
<STATE> 4
<MEAN> 39
 -6.322546e+00 -7.289998e-02 -1.532729e-01 4.911602e+00 1.976438e+00 3.796448e+00 -2.959431e+00 1.197793e+00 3.047604e+00 -1.706404e+00 2.467515e-01 1.772517e+00 7.369867e+01 2.184868e-03 5.207076e-02 -3.339635e-03 2.344377e-03 1.053554e-02 3.078956e-02 -6.403442e-03 6.833651e-03 4.693337e-02 1.439691e-02 -2.351843e-02 6.916289e-03 -4.694466e-02 -2.194174e-03 -2.862869e-03 1.463915e-03 7.150852e-04 8.751680e-04 6.408411e-04 3.420395e-04 -7.135273e-04 -1.262050e-03 -1.469597e-04 1.879774e-03 -3.633074e-04 1.416512e-03
<VARIANCE> 39
 9.239426e+01 5.918948e+01 3.695250e+01 5.110183e+01 5.343943e+01 5.118138e+01 8.977993e+01 5.081293e+01 4.022467e+01 4.996629e+01 3.416153e+01 2.350711e+01 8.123045e+01 2.395620e+00 3.195606e+00 2.070850e+00 2.214678e+00 2.475120e+00 2.614526e+00 4.435248e+00 2.511453e+00 2.314355e+00 2.785770e+00 1.975435e+00 1.703962e+00 2.488467e+00 3.133535e-01 5.338199e-01 3.536346e-01 3.724804e-01 4.030219e-01 4.303160e-01 7.397857e-01 4.594500e-01 4.066819e-01 4.747026e-01 3.594962e-01 3.097132e-01 3.798927e-01
<GCONST> 1.232297e+02
<TRANSP> 5
 0.000000e+00 1.000000e+00 0.000000e+00 0.000000e+00 0.000000e+00
 0.000000e+00 7.413800e-01 2.586200e-01 0.000000e+00 0.000000e+00
 0.000000e+00 0.000000e+00 7.413791e-01 2.586208e-01 0.000000e+00
 0.000000e+00 0.000000e+00 0.000000e+00 8.650091e-01 1.349909e-01
 0.000000e+00 0.000000e+00 0.000000e+00 0.000000e+00 0.000000e+00
<ENDHMM>
~h "ao"
<BEGINHMM>
<NUMSTATES> 5
<STATE> 2
<MEAN> 39
 -5.612849e+00 1.492596e+00 -1.306779e+00 4.190064e+00 6.690538e-01 1.682055e+00 -2.893907e+00 3.159961e+00 4.105411e+00 -1.123822e+00 1.202047e-03 1.582811e+00 7.324007e+01 4.282511e-02 -8.815298e-03 1.289682e-02 1.863967e-02 -3.340652e-03 -2.984166e-02 -3.277027e-02 7.586231e-03 1.120956e-02 -1.782884e-02 -1.497780e-02 -1.017147e-02 3.961275e-02 2.484238e-03 1.457706e-03 5.073700e-04 3.134182e-04 9.896543e-04 2.756232e-04 -2.020166e-03 -1.267745e-03 -3.177298e-04 -1.413531e-03 -2.358564e-03 -2.389138e-03 1.233928e-03
<VARIANCE> 39
 1.022594e+02 4.390050e+01 2.955747e+01 4.997874e+01 5.640167e+01 6.694217e+01 9.296368e+01 4.196058e+01 3.431927e+01 6.215014e+01 3.644923e+01 3.048384e+01 7.269678e+01 2.419784e+00 2.303142e+00 1.372355e+00 1.751865e+00 2.470374e+00 3.161334e+00 3.945103e+00 2.163842e+00 2.022392e+00 2.592258e+00 1.841192e+00 1.701298e+00 1.814128e+00 2.846574e-01 3.771377e-01 2.242241e-01 2.751485e-01 3.707025e-01 4.678112e-01 6.274164e-01 3.786223e-01 3.327432e-01 4.114189e-01 3.138454e-01 2.859377e-01 2.510526e-01
<GCONST> 1.190556e+02
<STATE> 3
<MEAN> 39
 -5.435074e+00 1.466650e+00 -1.259912e+00 4.262537e+00 6.606476e-01 1.570560e+00 -3.019950e+00 3.185390e+00 4.140482e+00 -1.197420e+00 -6.628501e-02 1.532009e+00 7.339714e+01 5.070083e-02 -2.518967e-03 1.372241e-02 1.856732e-02 1.456942e-04 -2.835847e-02 -3.843209e-02 3.381517e-03 8.845440e-03 -2.273259e-02 -2.318862e-02 -1.864963e-02 4.263766e-02 1.286312e-03 1.673551e-03 -1.244951e-04 -5.200301e-04 8.306333e-04 8.519668e-04 -7.873932e-04 -9.691855e-04 -5.432162e-04 -7.613259e-04 -1.696534e-03 -1.835374e-03 1.559528e-04
<VARIANCE> 39
 1.020488e+02 4.473177e+01 3.020032e+01 5.030923e+01 5.663785e+01 6.861205e+01 9.439400e+01 4.232198e+01 3.492862e+01 6.294420e+01 3.638875e+01 3.019242e+01 7.199107e+01 2.412844e+00 2.347326e+00 1.404822e+00 1.779637e+00 2.468035e+00 3.211546e+00 3.991886e+00 2.180973e+00 2.046619e+00 2.614565e+00 1.825899e+00 1.700983e+00 1.811594e+00 2.825437e-01 3.900523e-01 2.302221e-01 2.803336e-01 3.699752e-01 4.715276e-01 6.375908e-01 3.813725e-01 3.368015e-01 4.115894e-01 3.110776e-01 2.869113e-01 2.511768e-01
<GCONST> 1.193708e+02
<STATE> 4
<MEAN> 39
 -5.273759e+00 1.449742e+00 -1.208570e+00 4.365716e+00 7.123592e-01 1.530347e+00 -3.110327e+00 3.189765e+00 4.147857e+00 -1.227693e+00 -1.531043e-01 1.440731e+00 7.350549e+01 5.400026e-02 4.217526e-03 1.286174e-02 1.781270e-02 6.786071e-03 -2.120679e-02 -3.772326e-02 -2.449996e-03 8.609560e-04 -2.760931e-02 -3.055636e-02 -2.613178e-02 4.202788e-02 -1.822028e-04 1.258245e-03 -2.660129e-04 -5.632581e-04 1.237784e-03 1.791546e-03 3.809605e-04 -9.688110e-04 -1.116750e-03 -5.864073e-04 -9.028007e-04 -9.597347e-04 -7.123853e-04
<VARIANCE> 39
 1.022222e+02 4.546009e+01 3.066316e+01 5.079522e+01 5.618624e+01 7.025984e+01 9.579595e+01 4.246734e+01 3.584164e+01 6.333426e+01 3.680740e+01 2.967402e+01 7.205537e+01 2.380758e+00 2.393651e+00 1.439811e+00 1.808835e+00 2.399126e+00 3.212458e+00 3.991864e+00 2.168870e+00 2.078139e+00 2.608167e+00 1.796992e+00 1.678226e+00 1.782555e+00 2.758204e-01 4.077951e-01 2.366360e-01 2.860555e-01 3.571331e-01 4.686863e-01 6.378857e-01 3.804292e-01 3.414858e-01 4.042055e-01 3.051465e-01 2.840852e-01 2.475765e-01
<GCONST> 1.194318e+02
<TRANSP> 5
 0.000000e+00 1.000000e+00 0.000000e+00 0.000000e+00 0.000000e+00
 0.000000e+00 7.445106e-01 2.554894e-01 0.000000e+00 0.000000e+00
 0.000000e+00 0.000000e+00 7.445102e-01 2.554899e-01 0.000000e+00
 0.000000e+00 0.000000e+00 0.000000e+00 8.691881e-01 1.308120e-01
 0.000000e+00 0.000000e+00 0.000000e+00 0.000000e+00 0.000000e+00
<ENDHMM>
~h "aw"
<BEGINHMM>
<NUMSTATES> 5
<STATE> 2
<MEAN> 39
 -4.779393e+00 1.723707e+00 -5.399015e-01 5.162755e+00 1.560594e+00 1.266650e+00 -4.146562e+00 2.012250e+00 3.482968e+00 -1.096897e+00 -3.049961e-01 -1.901677e-01 7.412574e+01 -1.347798e-01 -8.502430e-02 2.636732e-02 4.058164e-02 2.418208e-02 7.043576e-02 8.486621e-02 -1.487179e-02 -1.858916e-02 1.373743e-02 3.172188e-02 4.707631e-02 -5.842783e-02 -2.107442e-03 -3.138333e-03 -3.815884e-03 -1.918539e-03 -1.137162e-04 5.424395e-04 1.898015e-03 1.786359e-03 -1.394694e-03 -1.977689e-03 1.132130e-03 4.663846e-03 -9.952730e-04
<VARIANCE> 39
 9.017332e+01 5.660030e+01 3.224511e+01 4.177104e+01 6.342841e+01 9.142489e+01 9.125049e+01 6.138588e+01 3.106458e+01 3.754181e+01 3.874701e+01 3.136633e+01 6.190046e+01 2.619847e+00 2.796163e+00 1.565955e+00 1.592524e+00 2.081720e+00 2.979533e+00 4.078729e+00 2.452958e+00 1.997985e+00 2.168262e+00 2.021730e+00 1.879714e+00 2.304692e+00 3.618580e-01 3.835843e-01 2.398071e-01 2.475394e-01 3.338680e-01 4.206882e-01 5.959667e-01 4.215400e-01 3.659980e-01 3.853716e-01 3.570627e-01 3.222721e-01 3.399675e-01
<GCONST> 1.203330e+02
<STATE> 3
<MEAN> 39
 -5.292631e+00 1.401224e+00 -4.380989e-01 5.288427e+00 1.640319e+00 1.548657e+00 -3.818818e+00 1.957240e+00 3.402666e+00 -1.052745e+00 -1.741759e-01 1.744509e-03 7.390693e+01 -1.414626e-01 -9.297113e-02 1.382089e-02 3.344330e-02 2.367711e-02 7.283308e-02 9.122216e-02 -7.789665e-03 -2.247506e-02 7.695370e-03 3.545543e-02 6.254639e-02 -6.281134e-02 3.717921e-04 2.426209e-04 -2.969549e-03 -3.429604e-03 -2.103469e-03 -1.148206e-03 2.948330e-04 2.582476e-03 2.553590e-04 -4.373133e-04 1.435314e-03 2.979309e-03 -3.650451e-04
<VARIANCE> 39
 9.153602e+01 5.789694e+01 3.245732e+01 4.046670e+01 6.215492e+01 8.864296e+01 9.219630e+01 6.166764e+01 2.951085e+01 3.609025e+01 3.831896e+01 3.075299e+01 6.372522e+01 2.581506e+00 2.826703e+00 1.565327e+00 1.561201e+00 2.071326e+00 2.923202e+00 3.987872e+00 2.417031e+00 1.947130e+00 2.129833e+00 2.019401e+00 1.816168e+00 2.251567e+00 3.590428e-01 3.877719e-01 2.434265e-01 2.427774e-01 3.313948e-01 4.178650e-01 5.823037e-01 4.142271e-01 3.609647e-01 3.808610e-01 3.549494e-01 3.115922e-01 3.339967e-01
<GCONST> 1.198894e+02
<STATE> 4
<MEAN> 39
 -5.814351e+00 9.298296e-01 -2.676403e-01 5.365082e+00 1.593285e+00 1.910230e+00 -3.393303e+00 1.872361e+00 3.279151e+00 -1.068638e+00 2.060764e-02 2.956119e-01 7.378954e+01 -1.324922e-01 -8.285101e-02 6.700436e-03 1.797607e-02 1.758119e-02 7.329278e-02 8.675325e-02 -8.384264e-04 -2.136814e-02 4.552309e-03 3.747264e-02 6.935190e-02 -6.206730e-02 2.687101e-03 2.828298e-03 -2.268730e-03 -3.970333e-03 -3.186407e-03 -2.296252e-03 -1.446401e-03 2.397723e-03 1.514516e-03 5.480848e-04 7.740587e-04 1.029959e-03 2.587448e-04
<VARIANCE> 39
 9.290862e+01 5.958761e+01 3.356535e+01 3.952853e+01 6.205621e+01 8.680994e+01 9.286951e+01 6.241473e+01 2.870239e+01 3.505098e+01 3.830947e+01 3.062118e+01 6.559291e+01 2.497269e+00 2.854965e+00 1.587737e+00 1.536933e+00 2.072526e+00 2.834147e+00 3.859931e+00 2.393705e+00 1.912166e+00 2.064327e+00 1.970086e+00 1.761539e+00 2.206073e+00 3.445209e-01 3.955187e-01 2.533607e-01 2.391608e-01 3.286765e-01 4.104824e-01 5.607272e-01 4.058744e-01 3.551420e-01 3.650587e-01 3.363413e-01 3.025259e-01 3.292463e-01
<GCONST> 1.194479e+02
<TRANSP> 5
 0.000000e+00 1.000000e+00 0.000000e+00 0.000000e+00 0.000000e+00
 0.000000e+00 7.456890e-01 2.543110e-01 0.000000e+00 0.000000e+00
 0.000000e+00 0.000000e+00 7.456893e-01 2.543107e-01 0.000000e+00
 0.000000e+00 0.000000e+00 0.000000e+00 8.720118e-01 1.279883e-01
 0.000000e+00 0.000000e+00 0.000000e+00 0.000000e+00 0.000000e+00
<ENDHMM>
~h "ax"
<BEGINHMM>
<NUMSTATES> 5
<STATE> 2
<MEAN> 39
 -6.950187e+00 1.484496e-01 1.063675e-01 6.022130e+00 3.410943e+00 4.412268e+00 -3.332182e+00 1.341895e+00 3.102309e+00 -2.459788e+00 -1.035893e-01 1.485714e+00 7.316646e+01 -1.295366e-02 -5.703680e-03 -7.504642e-03 -1.086915e-02 -1.279378e-02 -8.474082e-03 1.183771e-02 4.533825e-03 -1.224718e-02 -5.774147e-03 -4.293176e-03 2.830110e-03 -1.153990e-02 -3.130961e-04 1.027705e-03 7.174991e-05 -6.137023e-04 -2.283144e-04 -1.994740e-04 2.499355e-04 -3.344091e-05 -6.103548e-04 1.047808e-05 -1.034348e-04 -2.625137e-04 -6.413587e-04
<VARIANCE> 39
 8.936562e+01 5.209425e+01 2.859398e+01 4.290244e+01 4.661712e+01 4.984890e+01 9.829869e+01 4.398611e+01 3.279871e+01 5.892780e+01 3.676631e+01 2.639183e+01 7.634505e+01 2.447244e+00 2.770470e+00 1.588082e+00 2.078930e+00 2.382130e+00 2.462955e+00 4.849321e+00 2.347151e+00 1.894628e+00 2.871018e+00 2.009433e+00 1.629009e+00 2.390256e+00 3.199854e-01 4.719758e-01 2.756215e-01 3.416417e-01 3.920040e-01 3.845061e-01 7.658687e-01 4.297553e-01 3.377787e-01 4.695505e-01 3.495251e-01 2.891790e-01 3.575769e-01
<GCONST> 1.207800e+02
<STATE> 3
<MEAN> 39
 -7.020412e+00 1.318710e-01 7.293695e-02 5.977071e+00 3.361402e+00 4.384094e+00 -3.270258e+00 1.363343e+00 3.051542e+00 -2.469657e+00 -1.132562e-01 1.499078e+00 7.310181e+01 -1.294248e-02 -1.747787e-03 -7.577727e-03 -1.235523e-02 -1.264796e-02 -8.710809e-03 1.197684e-02 4.025837e-03 -1.418664e-02 -5.766081e-03 -4.918392e-03 1.471164e-03 -1.314379e-02 -9.642873e-05 1.173337e-03 1.358268e-04 -3.454682e-04 5.382564e-06 1.209788e-05 6.063610e-05 -1.115788e-04 -3.798184e-04 1.782949e-04 -6.676209e-05 -3.684591e-04 -5.041775e-04
<VARIANCE> 39
 9.015284e+01 5.241206e+01 2.866033e+01 4.271066e+01 4.633512e+01 4.875315e+01 9.713307e+01 4.394145e+01 3.264049e+01 5.903390e+01 3.698047e+01 2.640835e+01 7.708884e+01 2.435764e+00 2.774394e+00 1.580500e+00 2.038712e+00 2.346773e+00 2.430650e+00 4.783995e+00 2.330280e+00 1.895830e+00 2.864602e+00 1.994994e+00 1.609664e+00 2.337004e+00 3.182544e-01 4.699710e-01 2.750672e-01 3.348710e-01 3.862683e-01 3.813962e-01 7.575145e-01 4.253293e-01 3.388307e-01 4.677201e-01 3.469233e-01 2.854600e-01 3.492081e-01
<GCONST> 1.205240e+02
<STATE> 4
<MEAN> 39
 -7.229606e+00 1.597178e-01 3.542149e-02 5.884817e+00 3.290337e+00 4.406516e+00 -3.112010e+00 1.371717e+00 2.965362e+00 -2.371203e+00 -5.219546e-02 1.552859e+00 7.291209e+01 -1.500195e-02 2.692837e-03 -8.933686e-03 -1.163713e-02 -1.116767e-02 -8.520819e-03 1.195241e-02 4.988126e-03 -1.267566e-02 -1.360982e-03 -4.015321e-03 7.904228e-05 -1.723900e-02 2.753481e-04 9.145541e-04 2.524051e-04 5.520276e-05 1.357292e-05 -8.839933e-05 -5.406265e-04 -6.732938e-05 3.028028e-04 3.269022e-04 1.613225e-07 -4.264690e-04 -6.868555e-05
<VARIANCE> 39
 9.085660e+01 5.237341e+01 2.869439e+01 4.199076e+01 4.521943e+01 4.638359e+01 9.540031e+01 4.396999e+01 3.219791e+01 5.865994e+01 3.682097e+01 2.628057e+01 7.786032e+01 2.390902e+00 2.763857e+00 1.560191e+00 1.974472e+00 2.277197e+00 2.348813e+00 4.678912e+00 2.300789e+00 1.890761e+00 2.799855e+00 1.943122e+00 1.582648e+00 2.239438e+00 3.117069e-01 4.651316e-01 2.731320e-01 3.251006e-01 3.766060e-01 3.718128e-01 7.406657e-01 4.169774e-01 3.400171e-01 4.572806e-01 3.390517e-01 2.805931e-01 3.319833e-01
<GCONST> 1.198556e+02
<TRANSP> 5
 0.000000e+00 1.000000e+00 0.000000e+00 0.000000e+00 0.000000e+00
 0.000000e+00 7.422541e-01 2.577459e-01 0.000000e+00 0.000000e+00
 0.000000e+00 0.000000e+00 7.422544e-01 2.577457e-01 0.000000e+00
 0.000000e+00 0.000000e+00 0.000000e+00 8.670433e-01 1.329567e-01
 0.000000e+00 0.000000e+00 0.000000e+00 0.000000e+00 0.000000e+00
<ENDHMM>
~h "ay"
<BEGINHMM>
<NUMSTATES> 5
<STATE> 2
<MEAN> 39
 -7.837544e+00 -8.344357e-01 -1.752911e-01 5.333350e+00 2.702506e+00 4.480298e+00 -2.435950e+00 1.319678e+00 2.856859e+00 -1.246011e+00 1.730253e+00 3.058866e+00 7.296941e+01 5.393284e-02 7.386255e-03 1.357207e-02 -7.560243e-03 1.678072e-02 -1.339852e-03 -5.262905e-02 -1.010278e-02 5.714606e-03 -4.467921e-02 -1.565816e-02 -1.043008e-02 5.620562e-02 2.020460e-03 5.421765e-03 -8.639552e-04 -2.778172e-03 1.027016e-03 -1.386988e-03 -6.590487e-03 -3.095061e-03 -1.754282e-03 -3.375143e-03 2.364549e-05 1.052809e-03 -6.892437e-04
<VARIANCE> 39
 9.429417e+01 5.368979e+01 3.220535e+01 3.939869e+01 4.381958e+01 4.836514e+01 1.097843e+02 4.883351e+01 3.419334e+01 5.398619e+01 3.306857e+01 2.721637e+01 8.416891e+01 2.445057e+00 3.049237e+00 1.837711e+00 2.267970e+00 2.632870e+00 2.875443e+00 4.728856e+00 2.429474e+00 1.946073e+00 2.714487e+00 2.080498e+00 1.678504e+00 2.469269e+00 3.223173e-01 5.567396e-01 3.112447e-01 3.610801e-01 4.491889e-01 4.973073e-01 7.199953e-01 4.221332e-01 3.542649e-01 4.717240e-01 3.815300e-01 3.139128e-01 3.659718e-01
<GCONST> 1.225653e+02
<STATE> 3
<MEAN> 39
 -7.562356e+00 -7.572655e-01 -1.337895e-01 5.286110e+00 2.803674e+00 4.499907e+00 -2.726597e+00 1.229822e+00 2.857359e+00 -1.471734e+00 1.642150e+00 3.011682e+00 7.321476e+01 6.393189e-02 1.632490e-02 8.616289e-03 -1.424086e-02 2.206132e-02 9.499201e-03 -6.677100e-02 -2.358812e-02 1.752174e-03 -5.194804e-02 -2.076245e-02 -1.181444e-02 5.931348e-02 2.740117e-03 1.181040e-03 -1.321277e-03 -1.519969e-03 9.043388e-04 2.873423e-03 -3.257934e-03 -3.125436e-03 -6.003919e-04 -1.623875e-03 -1.337668e-03 -3.532440e-04 1.308786e-03
<VARIANCE> 39
 9.492596e+01 5.211613e+01 3.260925e+01 3.906661e+01 4.360278e+01 4.848960e+01 1.104967e+02 4.885622e+01 3.449510e+01 5.592398e+01 3.361040e+01 2.718715e+01 8.579803e+01 2.541502e+00 2.909105e+00 1.893503e+00 2.265778e+00 2.617246e+00 2.879526e+00 4.832133e+00 2.442607e+00 1.946525e+00 2.742515e+00 2.084980e+00 1.703376e+00 2.553756e+00 3.371444e-01 5.271798e-01 3.186106e-01 3.627260e-01 4.446516e-01 4.943470e-01 7.383142e-01 4.254360e-01 3.534469e-01 4.737615e-01 3.799916e-01 3.175053e-01 3.733978e-01
<GCONST> 1.227979e+02
<STATE> 4
<MEAN> 39
 -6.757348e+00 -6.941447e-01 -3.647923e-02 5.280351e+00 3.093617e+00 4.725716e+00 -3.553598e+00 8.148384e-01 2.875925e+00 -2.031752e+00 1.328105e+00 2.884174e+00 7.390219e+01 8.081502e-02 8.458816e-03 1.187770e-02 -3.147549e-03 2.814291e-02 3.169389e-02 -8.170491e-02 -4.707783e-02 5.550446e-03 -5.428825e-02 -4.008777e-02 -2.226771e-02 7.282633e-02 1.424125e-03 -1.795189e-03 2.275342e-04 1.276238e-03 1.665689e-04 2.262924e-03 -1.399524e-03 -2.487954e-03 6.507323e-04 1.406184e-04 -1.581753e-03 -6.410844e-04 1.486112e-03
<VARIANCE> 39
 9.396777e+01 4.984430e+01 3.319844e+01 4.120247e+01 4.391274e+01 4.828880e+01 1.141845e+02 4.926650e+01 3.522495e+01 5.958072e+01 3.466465e+01 2.665357e+01 8.783696e+01 2.664860e+00 2.754812e+00 1.965872e+00 2.359153e+00 2.635690e+00 2.816632e+00 5.110692e+00 2.495608e+00 1.961675e+00 2.791449e+00 2.096238e+00 1.747829e+00 2.794404e+00 3.602316e-01 4.881147e-01 3.279928e-01 3.759993e-01 4.420232e-01 4.712017e-01 7.745731e-01 4.373588e-01 3.560880e-01 4.731798e-01 3.761156e-01 3.219490e-01 4.018519e-01
<GCONST> 1.234163e+02
<TRANSP> 5
 0.000000e+00 1.000000e+00 0.000000e+00 0.000000e+00 0.000000e+00
 0.000000e+00 7.493499e-01 2.506500e-01 0.000000e+00 0.000000e+00
 0.000000e+00 0.000000e+00 7.493501e-01 2.506498e-01 0.000000e+00
 0.000000e+00 0.000000e+00 0.000000e+00 8.740270e-01 1.259729e-01
 0.000000e+00 0.000000e+00 0.000000e+00 0.000000e+00 0.000000e+00
<ENDHMM>
~h "ch"
<BEGINHMM>
<NUMSTATES> 5
<STATE> 2
<MEAN> 39
 -6.706768e+00 -3.355721e+00 7.826571e-01 6.204120e+00 1.225492e+00 3.657821e+00 -3.118250e+00 9.330958e-02 3.303791e+00 -1.594099e+00 -4.375167e-01 1.223167e+00 7.458139e+01 -6.961697e-03 6.777408e-02 -3.556483e-02 1.474347e-02 3.078649e-02 2.979129e-02 1.474872e-02 4.978117e-04 3.454906e-02 5.303565e-02 9.283751e-03 3.045998e-02 -7.691304e-02 1.085143e-04 1.207401e-03 1.962708e-03 -1.106810e-03 1.501895e-03 5.882208e-04 -9.502208e-04 -4.379929e-04 -4.307317e-04 -6.176097e-04 1.951483e-03 -5.391801e-04 2.045737e-03
<VARIANCE> 39
 8.285632e+01 9.390056e+01 3.980199e+01 4.645329e+01 5.438679e+01 4.934574e+01 8.166705e+01 4.311007e+01 3.532239e+01 5.235586e+01 3.529667e+01 2.373023e+01 7.059712e+01 2.925597e+00 5.724309e+00 2.434026e+00 2.456592e+00 2.519192e+00 2.913007e+00 4.652265e+00 2.740246e+00 2.453254e+00 2.931007e+00 2.143781e+00 1.754001e+00 3.335478e+00 3.667065e-01 9.523231e-01 4.603408e-01 4.224845e-01 3.952458e-01 5.024844e-01 7.602723e-01 5.092686e-01 4.537167e-01 4.630064e-01 3.838000e-01 3.172038e-01 4.866571e-01
<GCONST> 1.267363e+02
<STATE> 3
<MEAN> 39
 -6.725629e+00 -3.106922e+00 6.581129e-01 6.235394e+00 1.349739e+00 3.781836e+00 -3.077081e+00 7.108927e-02 3.417524e+00 -1.404447e+00 -3.908647e-01 1.332405e+00 7.432575e+01 -5.301429e-03 6.881198e-02 -2.847996e-02 1.015526e-02 3.571289e-02 3.241928e-02 9.802347e-03 -2.362725e-03 3.089050e-02 4.867636e-02 1.635813e-02 2.856706e-02 -6.654612e-02 1.302216e-03 -1.714601e-03 1.697333e-03 -1.562474e-03 3.045207e-04 1.179670e-03 -1.926506e-03 -2.127186e-03 -1.940655e-03 -1.767751e-03 8.692028e-04 -1.073692e-03 4.270311e-03
<VARIANCE> 39
 8.360275e+01 9.151640e+01 3.947860e+01 4.472478e+01 5.498719e+01 4.951536e+01 8.306536e+01 4.432898e+01 3.662481e+01 5.215698e+01 3.555143e+01 2.382870e+01 7.149319e+01 2.773098e+00 5.498794e+00 2.352506e+00 2.334215e+00 2.523657e+00 2.889955e+00 4.559598e+00 2.744751e+00 2.444594e+00 2.854452e+00 2.120488e+00 1.780575e+00 3.231470e+00 3.463439e-01 9.075296e-01 4.427825e-01 4.012661e-01 3.947065e-01 4.975290e-01 7.414761e-01 5.065120e-01 4.455058e-01 4.535195e-01 3.781780e-01 3.206104e-01 4.670082e-01
<GCONST> 1.262062e+02
<STATE> 4
<MEAN> 39
 -6.754655e+00 -2.781426e+00 5.267558e-01 6.242640e+00 1.588388e+00 3.980820e+00 -3.026741e+00 -3.069997e-02 3.428935e+00 -1.164067e+00 -2.303538e-01 1.465499e+00 7.406957e+01 5.797057e-03 5.121886e-02 -2.169822e-02 -4.142560e-04 3.752906e-02 3.912817e-02 -5.283187e-03 -1.669419e-02 1.482087e-02 3.146602e-02 1.896494e-02 2.325416e-02 -3.631276e-02 2.139917e-03 -3.105411e-03 7.042729e-04 -1.689909e-03 -4.799617e-05 1.656495e-03 -2.544791e-03 -2.902814e-03 -3.085884e-03 -3.156172e-03 -6.816326e-04 -1.419285e-03 4.887994e-03
<VARIANCE> 39
 8.530754e+01 8.861140e+01 3.912991e+01 4.227389e+01 5.560604e+01 4.950223e+01 8.656037e+01 4.649434e+01 3.925665e+01 5.210864e+01 3.637477e+01 2.436334e+01 7.234694e+01 2.597578e+00 5.180948e+00 2.257762e+00 2.152390e+00 2.522487e+00 2.839600e+00 4.437857e+00 2.727486e+00 2.404918e+00 2.774580e+00 2.075839e+00 1.837010e+00 3.081826e+00 3.197488e-01 8.493689e-01 4.195407e-01 3.697460e-01 3.929985e-01 4.857834e-01 7.128345e-01 4.967981e-01 4.260035e-01 4.455401e-01 3.686310e-01 3.282032e-01 4.398453e-01
<GCONST> 1.254800e+02
<TRANSP> 5
 0.000000e+00 1.000000e+00 0.000000e+00 0.000000e+00 0.000000e+00
 0.000000e+00 7.424867e-01 2.575133e-01 0.000000e+00 0.000000e+00
 0.000000e+00 0.000000e+00 7.424866e-01 2.575134e-01 0.000000e+00
 0.000000e+00 0.000000e+00 0.000000e+00 8.658170e-01 1.341830e-01
 0.000000e+00 0.000000e+00 0.000000e+00 0.000000e+00 0.000000e+00
<ENDHMM>
~h "dh"
<BEGINHMM>
<NUMSTATES> 5
<STATE> 2
<MEAN> 39
 -6.508851e+00 1.321743e-01 9.625576e-01 6.298873e+00 3.808796e+00 5.332868e+00 -3.211883e+00 9.855935e-01 2.755319e+00 -2.951203e+00 1.541060e-01 1.757386e+00 7.377839e+01 4.802408e-02 -3.067010e-02 5.570855e-04 6.572843e-03 -2.399796e-03 -1.067662e-03 -1.835819e-02 -9.512847e-03 3.853147e-03 -2.710136e-02 -1.768962e-02 -9.928193e-03 5.848939e-02 -3.349796e-04 5.941085e-04 -5.425565e-05 1.147924e-03 -4.604196e-04 -1.753595e-03 -1.149626e-03 -5.940238e-04 1.575806e-03 2.271614e-03 -2.373265e-04 8.089950e-04 -8.779955e-04
<VARIANCE> 39
 8.244829e+01 5.131701e+01 3.092138e+01 4.031177e+01 4.127499e+01 5.204624e+01 1.021707e+02 4.388044e+01 3.021904e+01 5.695803e+01 3.639139e+01 2.770255e+01 7.807330e+01 2.249695e+00 3.025141e+00 1.791214e+00 2.220450e+00 2.330940e+00 2.524327e+00 5.158008e+00 2.430854e+00 1.896786e+00 2.797513e+00 2.200879e+00 1.905750e+00 2.677315e+00 2.988796e-01 5.165728e-01 3.076446e-01 3.783996e-01 3.929025e-01 3.953608e-01 8.258054e-01 4.565587e-01 3.518180e-01 4.624049e-01 3.875984e-01 3.464004e-01 3.897420e-01
<GCONST> 1.220245e+02
<STATE> 3
<MEAN> 39
 -6.329023e+00 3.406182e-02 9.690617e-01 6.337559e+00 3.792212e+00 5.303954e+00 -3.303265e+00 9.382561e-01 2.791335e+00 -3.023011e+00 7.856205e-02 1.717985e+00 7.398605e+01 4.397696e-02 -2.726456e-02 6.537940e-04 9.824216e-03 -4.955496e-03 -9.426802e-03 -2.369006e-02 -1.150208e-02 9.043431e-03 -1.557547e-02 -1.621030e-02 -9.178797e-03 5.199621e-02 -7.970838e-04 1.108785e-03 3.646329e-05 4.610529e-04 -6.851312e-04 -2.071881e-03 -1.531786e-03 -4.641140e-04 1.256267e-03 2.704810e-03 3.385973e-04 -2.713458e-05 -1.536396e-03
<VARIANCE> 39
 8.193302e+01 5.189483e+01 3.102534e+01 4.086567e+01 4.207060e+01 5.226979e+01 1.024456e+02 4.384127e+01 3.074031e+01 5.706705e+01 3.613517e+01 2.737456e+01 7.771485e+01 2.254838e+00 3.070321e+00 1.794760e+00 2.215591e+00 2.350279e+00 2.530530e+00 5.207325e+00 2.431395e+00 1.919408e+00 2.788155e+00 2.200513e+00 1.860124e+00 2.706217e+00 2.987646e-01 5.243474e-01 3.092384e-01 3.750694e-01 3.940536e-01 3.973483e-01 8.341248e-01 4.580209e-01 3.565820e-01 4.575820e-01 3.868274e-01 3.352165e-01 3.945055e-01
<GCONST> 1.221116e+02
<STATE> 4
<MEAN> 39
 -6.057070e+00 -8.818415e-02 1.019278e+00 6.418138e+00 3.770656e+00 5.261449e+00 -3.524495e+00 7.829497e-01 2.871065e+00 -3.097055e+00 -4.026648e-02 1.638491e+00 7.428424e+01 3.361749e-02 -1.877018e-02 -7.619336e-05 7.352356e-03 -1.017704e-02 -1.635774e-02 -2.326880e-02 -1.085077e-02 1.263336e-02 -4.087305e-04 -1.268712e-02 -1.362793e-02 3.681311e-02 -1.107656e-03 1.048933e-03 -1.836042e-04 -5.429746e-04 -6.175811e-04 -8.659160e-04 -1.198061e-04 1.463586e-04 3.748949e-04 1.726938e-03 6.109857e-04 -5.404280e-04 -1.743862e-03
<VARIANCE> 39
 8.131097e+01 5.258818e+01 3.096940e+01 4.181865e+01 4.318144e+01 5.176267e+01 1.016369e+02 4.394680e+01 3.173452e+01 5.739872e+01 3.584743e+01 2.684573e+01 7.703951e+01 2.226858e+00 3.130536e+00 1.773980e+00 2.163995e+00 2.359509e+00 2.503238e+00 5.194327e+00 2.424087e+00 1.945408e+00 2.768888e+00 2.183108e+00 1.795051e+00 2.687497e+00 2.933039e-01 5.351105e-01 3.068430e-01 3.589391e-01 3.933914e-01 3.962008e-01 8.313903e-01 4.559173e-01 3.617327e-01 4.515776e-01 3.838455e-01 3.188420e-01 3.922974e-01
<GCONST> 1.219414e+02
<TRANSP> 5
 0.000000e+00 1.000000e+00 0.000000e+00 0.000000e+00 0.000000e+00
 0.000000e+00 7.459637e-01 2.540362e-01 0.000000e+00 0.000000e+00
 0.000000e+00 0.000000e+00 7.459636e-01 2.540365e-01 0.000000e+00
 0.000000e+00 0.000000e+00 0.000000e+00 8.708517e-01 1.291483e-01
 0.000000e+00 0.000000e+00 0.000000e+00 0.000000e+00 0.000000e+00
<ENDHMM>
~h "ea"
<BEGINHMM>
<NUMSTATES> 5
<STATE> 2
<MEAN> 39
 -7.391330e+00 -2.793995e-01 2.593855e-01 6.215729e+00 3.197216e+00 4.507828e+00 -2.881577e+00 1.071307e+00 3.293610e+00 -1.702413e+00 2.116229e-01 1.528084e+00 7.316100e+01 -8.549295e-03 6.045978e-03 9.986501e-03 -5.830497e-03 -9.514267e-03 -1.506619e-03 -1.506659e-03 -3.180315e-03 6.676455e-03 -5.438070e-03 4.050421e-03 -4.468870e-03 -5.404587e-04 -3.875157e-05 3.997293e-04 3.423740e-04 6.946201e-05 -2.319832e-04 -6.938387e-04 -4.412478e-05 -4.860927e-04 1.315680e-03 -9.365405e-04 -4.231212e-04 2.471485e-04 -2.932212e-04
<VARIANCE> 39
 8.975014e+01 5.484237e+01 3.303328e+01 4.558641e+01 4.748297e+01 5.002078e+01 9.481474e+01 4.729189e+01 3.321279e+01 5.181567e+01 3.966083e+01 2.784256e+01 7.606396e+01 2.211436e+00 2.785441e+00 1.626260e+00 1.902343e+00 2.248548e+00 2.452049e+00 4.360876e+00 2.359010e+00 2.040265e+00 2.571942e+00 1.964578e+00 1.676181e+00 2.222835e+00 2.912704e-01 4.665184e-01 2.795431e-01 3.127733e-01 3.728060e-01 3.948886e-01 6.864723e-01 4.205315e-01 3.711796e-01 4.366302e-01 3.409353e-01 2.969837e-01 3.289974e-01
<GCONST> 1.202872e+02
<STATE> 3
<MEAN> 39
 -7.391330e+00 -2.793995e-01 2.593855e-01 6.215729e+00 3.197216e+00 4.507828e+00 -2.881577e+00 1.071307e+00 3.293610e+00 -1.702413e+00 2.116229e-01 1.528084e+00 7.316100e+01 -8.549295e-03 6.045978e-03 9.986501e-03 -5.830497e-03 -9.514267e-03 -1.506619e-03 -1.506659e-03 -3.180315e-03 6.676455e-03 -5.438070e-03 4.050421e-03 -4.468870e-03 -5.404587e-04 -3.875157e-05 3.997293e-04 3.423740e-04 6.946201e-05 -2.319832e-04 -6.938387e-04 -4.412478e-05 -4.860927e-04 1.315680e-03 -9.365405e-04 -4.231212e-04 2.471485e-04 -2.932212e-04
<VARIANCE> 39
 8.975014e+01 5.484237e+01 3.303328e+01 4.558641e+01 4.748297e+01 5.002078e+01 9.481474e+01 4.729189e+01 3.321279e+01 5.181567e+01 3.966083e+01 2.784256e+01 7.606396e+01 2.211436e+00 2.785441e+00 1.626260e+00 1.902343e+00 2.248548e+00 2.452049e+00 4.360876e+00 2.359010e+00 2.040265e+00 2.571942e+00 1.964578e+00 1.676181e+00 2.222835e+00 2.912704e-01 4.665184e-01 2.795431e-01 3.127733e-01 3.728060e-01 3.948886e-01 6.864723e-01 4.205315e-01 3.711796e-01 4.366302e-01 3.409353e-01 2.969837e-01 3.289974e-01
<GCONST> 1.202872e+02
<STATE> 4
<MEAN> 39
 -7.391330e+00 -2.793995e-01 2.593855e-01 6.215729e+00 3.197216e+00 4.507828e+00 -2.881577e+00 1.071307e+00 3.293610e+00 -1.702413e+00 2.116229e-01 1.528084e+00 7.316100e+01 -8.549295e-03 6.045978e-03 9.986501e-03 -5.830497e-03 -9.514267e-03 -1.506619e-03 -1.506659e-03 -3.180315e-03 6.676455e-03 -5.438070e-03 4.050421e-03 -4.468870e-03 -5.404587e-04 -3.875157e-05 3.997293e-04 3.423740e-04 6.946201e-05 -2.319832e-04 -6.938387e-04 -4.412478e-05 -4.860927e-04 1.315680e-03 -9.365405e-04 -4.231212e-04 2.471485e-04 -2.932212e-04
<VARIANCE> 39
 8.975014e+01 5.484237e+01 3.303328e+01 4.558641e+01 4.748297e+01 5.002078e+01 9.481474e+01 4.729189e+01 3.321279e+01 5.181567e+01 3.966083e+01 2.784256e+01 7.606396e+01 2.211436e+00 2.785441e+00 1.626260e+00 1.902343e+00 2.248548e+00 2.452049e+00 4.360876e+00 2.359010e+00 2.040265e+00 2.571942e+00 1.964578e+00 1.676181e+00 2.222835e+00 2.912704e-01 4.665184e-01 2.795431e-01 3.127733e-01 3.728060e-01 3.948886e-01 6.864723e-01 4.205315e-01 3.711796e-01 4.366302e-01 3.409353e-01 2.969837e-01 3.289974e-01
<GCONST> 1.202872e+02
<TRANSP> 5
 0.000000e+00 1.000000e+00 0.000000e+00 0.000000e+00 0.000000e+00
 0.000000e+00 6.000000e-01 4.000000e-01 0.000000e+00 0.000000e+00
 0.000000e+00 0.000000e+00 6.000000e-01 4.000000e-01 0.000000e+00
 0.000000e+00 0.000000e+00 0.000000e+00 7.000000e-01 3.000000e-01
 0.000000e+00 0.000000e+00 0.000000e+00 0.000000e+00 0.000000e+00
<ENDHMM>
~h "eh"
<BEGINHMM>
<NUMSTATES> 5
<STATE> 2
<MEAN> 39
 -5.451497e+00 -1.541108e-01 1.031690e+00 6.685782e+00 4.048128e+00 5.259842e+00 -3.743238e+00 1.567073e-01 2.353107e+00 -3.313343e+00 -1.383437e-01 1.334614e+00 7.479362e+01 1.257255e-02 2.756373e-02 -2.139913e-02 -1.771714e-02 -6.677207e-03 -1.267695e-02 1.278344e-02 2.747775e-02 -8.157660e-03 1.913244e-03 1.178226e-03 -8.815048e-03 -1.299915e-02 -1.099151e-03 4.272612e-04 8.193008e-05 -8.813135e-04 -3.726689e-04 1.883909e-04 3.500832e-04 2.528017e-04 -3.390531e-04 1.741415e-04 -4.351664e-04 -6.335948e-04 -9.907718e-04
<VARIANCE> 39
 7.934476e+01 5.814507e+01 3.235864e+01 3.953187e+01 5.270259e+01 5.395653e+01 1.003910e+02 4.698799e+01 3.713398e+01 6.093531e+01 4.335537e+01 2.883273e+01 6.935728e+01 2.033844e+00 3.107359e+00 1.589753e+00 1.827679e+00 2.243605e+00 2.550986e+00 4.464012e+00 2.442863e+00 2.079942e+00 2.834646e+00 2.027312e+00 1.841740e+00 2.167737e+00 2.632441e-01 5.146304e-01 2.698098e-01 3.131227e-01 3.827059e-01 4.059366e-01 6.939837e-01 4.535931e-01 3.693388e-01 4.688357e-01 3.294201e-01 3.114408e-01 3.077991e-01
<GCONST> 1.209869e+02
<STATE> 3
<MEAN> 39
 -5.411224e+00 -4.576454e-02 9.527575e-01 6.611996e+00 4.019119e+00 5.213707e+00 -3.691667e+00 2.607220e-01 2.325432e+00 -3.298912e+00 -1.418271e-01 1.291442e+00 7.473794e+01 8.036690e-03 2.764712e-02 -1.988527e-02 -1.926293e-02 -7.759415e-03 -1.161797e-02 1.377661e-02 2.785626e-02 -8.543574e-03 2.327126e-03 -1.737225e-03 -1.069499e-02 -1.615980e-02 -1.226389e-03 -6.664923e-06 3.355831e-04 -4.702139e-04 -4.424001e-04 1.548082e-04 1.713223e-04 3.320305e-05 2.993771e-05 3.549532e-05 -8.190292e-04 -3.862099e-04 -8.236031e-04
<VARIANCE> 39
 7.939221e+01 5.740729e+01 3.179714e+01 3.855508e+01 5.290745e+01 5.520759e+01 9.985326e+01 4.650887e+01 3.692900e+01 6.047968e+01 4.273628e+01 2.844827e+01 6.925346e+01 2.043213e+00 3.084834e+00 1.580825e+00 1.809461e+00 2.260750e+00 2.571763e+00 4.473454e+00 2.438692e+00 2.068928e+00 2.853036e+00 2.030899e+00 1.838905e+00 2.177619e+00 2.648972e-01 5.094872e-01 2.668478e-01 3.085426e-01 3.845078e-01 4.054416e-01 6.942460e-01 4.550006e-01 3.667358e-01 4.734182e-01 3.317641e-01 3.107421e-01 3.098508e-01
<GCONST> 1.208963e+02
<STATE> 4
<MEAN> 39
 -5.407550e+00 1.930717e-01 8.591193e-01 6.421649e+00 3.929009e+00 5.159308e+00 -3.595947e+00 4.074302e-01 2.318209e+00 -3.214074e+00 -1.531672e-01 1.220509e+00 7.461835e+01 -2.912683e-03 2.336072e-02 -1.481289e-02 -1.633844e-02 -1.148847e-02 -1.362919e-02 1.514545e-02 2.740362e-02 -5.915863e-03 5.994014e-03 -5.958444e-03 -1.217867e-02 -2.155962e-02 -1.807282e-03 -6.861332e-04 6.123020e-04 2.483974e-04 -7.591668e-04 -4.291208e-04 3.348278e-05 -1.316366e-04 3.510441e-04 2.077055e-04 -6.776451e-04 5.665222e-05 -9.157208e-04
<VARIANCE> 39
 7.940487e+01 5.590440e+01 3.115777e+01 3.675844e+01 5.261642e+01 5.701875e+01 9.861302e+01 4.592525e+01 3.667793e+01 5.921080e+01 4.168428e+01 2.782939e+01 6.935874e+01 2.043505e+00 3.043075e+00 1.564071e+00 1.797017e+00 2.262474e+00 2.608357e+00 4.457690e+00 2.430579e+00 2.067410e+00 2.843993e+00 2.025005e+00 1.821007e+00 2.186934e+00 2.665377e-01 5.021926e-01 2.620552e-01 3.053488e-01 3.839809e-01 4.077308e-01 6.908523e-01 4.552076e-01 3.661311e-01 4.753591e-01 3.336034e-01 3.064758e-01 3.118718e-01
<GCONST> 1.206585e+02
<TRANSP> 5
 0.000000e+00 1.000000e+00 0.000000e+00 0.000000e+00 0.000000e+00
 0.000000e+00 7.408080e-01 2.591920e-01 0.000000e+00 0.000000e+00
 0.000000e+00 0.000000e+00 7.408079e-01 2.591921e-01 0.000000e+00
 0.000000e+00 0.000000e+00 0.000000e+00 8.645798e-01 1.354202e-01
 0.000000e+00 0.000000e+00 0.000000e+00 0.000000e+00 0.000000e+00
<ENDHMM>
~h "er"
<BEGINHMM>
<NUMSTATES> 5
<STATE> 2
<MEAN> 39
 -6.418334e+00 -1.111065e+00 -8.791562e-01 5.846654e+00 1.988761e+00 2.831599e+00 -2.577945e+00 2.330856e+00 2.123083e+00 -3.549942e+00 -9.440909e-01 9.934301e-01 7.411508e+01 -3.826655e-02 -7.650459e-03 -6.856913e-03 3.425789e-02 6.049222e-02 6.460425e-02 1.237603e-02 -5.716256e-02 -1.440362e-02 5.168351e-02 2.438353e-02 2.457461e-02 -3.647847e-02 1.151459e-03 3.244082e-03 3.306763e-04 2.287567e-03 3.500795e-03 -2.700286e-04 -2.129401e-03 3.806414e-04 3.763951e-04 -1.592247e-03 2.543188e-04 1.707663e-03 -7.715945e-04
<VARIANCE> 39
 9.173698e+01 7.166877e+01 2.743452e+01 3.527589e+01 4.032185e+01 5.552555e+01 7.156567e+01 4.523569e+01 2.743707e+01 5.271587e+01 3.257430e+01 2.623253e+01 6.682431e+01 2.702610e+00 4.195077e+00 1.442963e+00 1.940728e+00 2.313697e+00 2.822623e+00 3.670874e+00 2.218105e+00 1.791724e+00 2.622814e+00 1.816452e+00 1.726446e+00 2.179995e+00 3.603222e-01 6.902521e-01 2.467557e-01 3.291970e-01 3.815913e-01 4.783839e-01 6.082788e-01 3.792882e-01 3.326613e-01 4.125187e-01 3.104836e-01 2.784187e-01 3.093193e-01
<GCONST> 1.195931e+02
<STATE> 3
<MEAN> 39
