~o
<STREAMINFO> 1 39
<VECSIZE> 39<NULLD><MFCC_D_A_0><DIAGC>
~h "b"
<BEGINHMM>
<NUMSTATES> 5
<STATE> 2
<MEAN> 39
 -3.321187e+00 1.927295e+00 3.718011e+00 9.492905e+00 5.225726e+00 6.237062e+00 -3.147046e+00 -9.117012e-01 7.514129e-01 -3.508730e+00 -1.101801e+00 -1.219601e+00 7.582247e+01 -2.974425e-01 5.604799e-01 2.199315e-01 1.661841e-01 3.711848e-02 5.483510e-02 3.874104e-01 2.200756e-01 1.213234e-01 3.233297e-01 4.129457e-02 -1.533683e-01 -4.579899e-01 -5.763226e-02 -7.957554e-02 -8.602460e-03 -2.567352e-02 -2.285259e-02 -5.505511e-02 -6.022102e-02 -9.978162e-02 1.430070e-02 1.161781e-01 6.203011e-02 2.389768e-02 6.809952e-03
<VARIANCE> 39
 4.276152e+01 5.778112e+01 2.057893e+01 3.144105e+01 2.384328e+01 3.965240e+01 7.320728e+01 1.002878e+02 3.647657e+01 6.249225e+01 2.921217e+01 2.461430e+01 4.401553e+01 3.154719e+00 5.244043e+00 1.587566e+00 2.241897e+00 1.895186e+00 3.049974e+00 5.697246e+00 4.614392e+00 3.336080e+00 4.880378e+00 2.111673e+00 1.877789e+00 3.024494e+00 5.394291e-01 7.899786e-01 3.244155e-01 5.098413e-01 3.755944e-01 4.567848e-01 8.691172e-01 7.969634e-01 6.945466e-01 8.523456e-01 3.961059e-01 3.590293e-01 4.284504e-01
<GCONST> 1.260779e+02
<STATE> 3
<MEAN> 39
 -5.396265e+00 6.096686e+00 3.768744e+00 9.946939e+00 5.188825e+00 5.536508e+00 6.715759e-01 3.971196e+00 2.112246e+00 -2.705798e+00 -1.256114e+00 -4.392846e-01 7.205810e+01 -3.040200e-01 4.876515e-01 1.473185e-01 5.629634e-03 -3.464574e-02 -7.503898e-02 3.553220e-01 2.747445e-01 1.303253e-01 4.390878e-01 1.289801e-01 -3.939290e-02 -4.325264e-01 1.321815e-01 -2.889440e-01 -5.995168e-02 -9.570315e-02 -9.830999e-02 -1.486737e-01 -3.123845e-01 -2.160314e-01 -5.203584e-02 -9.034732e-02 3.403510e-03 2.007134e-02 2.553225e-01
<VARIANCE> 39
 4.467953e+01 5.290676e+01 1.794079e+01 2.655895e+01 2.427192e+01 3.449862e+01 6.229194e+01 3.412468e+01 2.381251e+01 5.132084e+01 3.277472e+01 2.178769e+01 3.322498e+01 3.603805e+00 4.370863e+00 1.697021e+00 1.792216e+00 2.225697e+00 4.120774e+00 4.394862e+00 2.665941e+00 2.233154e+00 5.213576e+00 2.917946e+00 1.693792e+00 3.097985e+00 5.034879e-01 6.453475e-01 2.379041e-01 3.812324e-01 4.603707e-01 5.326442e-01 6.728424e-01 4.376720e-01 3.188811e-01 7.123581e-01 4.209898e-01 2.764176e-01 4.697098e-01
<GCONST> 1.203748e+02
<STATE> 4
<MEAN> 39
 -7.217366e+00 8.900934e+00 5.499004e+00 1.109711e+01 6.451389e+00 6.323683e+00 2.856489e+00 5.260853e+00 3.078889e+00 -3.380017e-01 -3.379526e-01 -4.794574e-01 7.000928e+01 1.847593e-01 -2.226962e-01 -1.394666e-01 -1.962601e-01 -3.000060e-01 -2.422886e-01 -2.236688e-01 -3.321046e-01 -1.062922e-01 8.001707e-02 7.361186e-02 1.657940e-02 2.522359e-01 3.171812e-01 -3.360738e-01 -1.688179e-01 -1.609214e-01 -2.382092e-01 -2.156676e-01 -3.380650e-01 -2.113685e-01 -4.112715e-02 -1.892502e-01 -9.994348e-02 -1.543579e-02 3.849360e-01
<VARIANCE> 39
 2.981203e+01 4.619156e+01 1.559351e+01 1.519573e+01 1.889545e+01 2.436333e+01 3.982126e+01 1.830143e+01 1.430485e+01 4.053926e+01 2.166874e+01 1.670124e+01 2.120702e+01 2.846228e+00 3.549254e+00 1.278723e+00 1.383484e+00 2.367855e+00 2.558749e+00 3.294459e+00 2.028549e+00 1.676929e+00 2.767734e+00 1.885302e+00 1.063531e+00 2.653193e+00 2.871734e-01 4.850736e-01 1.880720e-01 2.067004e-01 3.844582e-01 5.148414e-01 5.126974e-01 3.550071e-01 2.767880e-01 4.826049e-01 2.918501e-01 1.699580e-01 3.241028e-01
<GCONST> 1.075099e+02
<TRANSP> 5
 0.000000e+00 1.000000e+00 0.000000e+00 0.000000e+00 0.000000e+00
 0.000000e+00 6.685204e-01 3.314796e-01 0.000000e+00 0.000000e+00
 0.000000e+00 0.000000e+00 5.161822e-01 4.838178e-01 0.000000e+00
 0.000000e+00 0.000000e+00 0.000000e+00 6.997095e-01 3.002905e-01
 0.000000e+00 0.000000e+00 0.000000e+00 0.000000e+00 0.000000e+00
<ENDHMM>
~h "d"
<BEGINHMM>
<NUMSTATES> 5
<STATE> 2
<MEAN> 39
 4.610114e-01 1.767962e+00 -3.308372e+00 5.318308e+00 7.601572e+00 6.728310e+00 -7.087652e+00 -3.250561e+00 -6.757932e-01 -5.663386e+00 -9.583727e-01 1.344233e+00 7.704503e+01 -4.233496e-01 1.782187e-01 3.447825e-01 2.957041e-01 5.239554e-02 3.792694e-01 6.952879e-01 1.283579e-01 -2.893703e-01 -2.912868e-03 1.596627e-02 1.823668e-01 -3.998794e-01 -1.056764e-01 -3.395498e-03 8.617901e-02 8.301575e-02 -1.536377e-01 -1.307705e-01 1.480405e-01 1.435021e-01 1.302920e-01 1.367955e-01 -1.871818e-03 2.772151e-02 -7.723743e-02
<VARIANCE> 39
 4.155153e+01 3.689136e+01 3.088431e+01 5.697596e+01 6.537217e+01 4.639487e+01 9.642760e+01 4.371004e+01 5.365248e+01 4.642358e+01 3.260025e+01 3.336966e+01 3.618404e+01 3.085112e+00 2.585699e+00 1.771356e+00 2.464863e+00 3.722772e+00 4.793555e+00 8.262265e+00 3.413756e+00 3.990587e+00 4.871443e+00 2.590020e+00 2.604593e+00 3.513531e+00 4.672474e-01 4.335997e-01 3.147623e-01 4.124535e-01 5.357819e-01 6.352705e-01 1.355841e+00 6.169458e-01 6.126663e-01 7.590842e-01 5.301304e-01 3.858279e-01 5.129497e-01
<GCONST> 1.292397e+02
<STATE> 3
<MEAN> 39
 -1.013730e+00 2.608459e+00 -1.611899e+00 5.700787e+00 6.541105e+00 7.308329e+00 -5.215706e+00 -2.292803e+00 -9.976149e-02 -4.782611e+00 -8.458622e-01 1.768887e+00 7.582106e+01 -6.351103e-01 2.002932e-01 4.817525e-01 4.302294e-01 -1.611059e-01 6.800378e-02 6.623440e-01 2.746148e-01 2.645178e-01 4.568857e-01 7.879618e-03 1.221617e-01 -5.711204e-01 -3.597169e-02 -5.810154e-02 1.252864e-02 1.234461e-02 -8.092076e-02 -1.676767e-01 -8.472184e-02 6.851333e-02 1.685485e-01 8.802754e-02 5.953722e-04 -4.194401e-02 -9.814824e-05
<VARIANCE> 39
 3.843016e+01 3.631398e+01 2.736389e+01 4.537425e+01 5.964965e+01 4.892310e+01 1.029582e+02 4.252457e+01 5.886166e+01 4.310593e+01 3.415901e+01 3.487510e+01 3.869675e+01 2.230432e+00 2.291017e+00 1.642389e+00 2.450965e+00 3.589329e+00 4.241457e+00 7.854180e+00 3.350050e+00 3.715385e+00 3.990541e+00 2.795138e+00 2.499931e+00 2.603414e+00 3.618751e-01 3.416647e-01 2.677048e-01 3.576008e-01 4.892363e-01 6.642066e-01 1.227968e+00 5.979668e-01 5.976288e-01 6.278929e-01 4.708542e-01 3.750808e-01 4.037969e-01
<GCONST> 1.261067e+02
<STATE> 4
<MEAN> 39
 -3.516721e+00 2.836186e+00 -8.671894e-01 5.813490e+00 5.828677e+00 7.105660e+00 -4.939293e+00 -1.555461e+00 2.419935e+00 -2.620796e+00 -4.929995e-01 2.672268e+00 7.368348e+01 -4.367477e-01 1.240675e-02 2.753956e-01 2.496657e-01 -1.200643e-01 -2.267177e-01 1.613106e-01 2.416315e-01 3.417897e-01 3.489957e-01 -1.943352e-02 -1.222403e-01 -3.264747e-01 5.826109e-02 -7.060107e-02 -3.892269e-02 -2.108473e-02 -3.688970e-02 -9.890790e-02 -1.109748e-01 1.798539e-02 2.901295e-02 -5.592418e-02 -3.987630e-02 -5.286442e-02 7.611831e-02
<VARIANCE> 39
 5.834253e+01 3.374506e+01 1.961559e+01 3.355297e+01 4.534378e+01 4.288216e+01 1.104720e+02 3.881715e+01 6.056807e+01 4.007139e+01 3.521536e+01 3.526511e+01 5.414006e+01 1.645586e+00 1.864001e+00 1.282426e+00 1.588620e+00 2.336398e+00 2.867289e+00 5.315253e+00 2.435369e+00 2.916877e+00 2.238790e+00 1.947913e+00 1.745775e+00 1.779311e+00 2.560633e-01 2.719873e-01 1.750489e-01 2.339025e-01 3.562159e-01 4.348876e-01 7.859892e-01 4.507201e-01 4.556592e-01 4.012887e-01 3.087594e-01 3.030995e-01 2.861050e-01
<GCONST> 1.164885e+02
<TRANSP> 5
 0.000000e+00 1.000000e+00 0.000000e+00 0.000000e+00 0.000000e+00
 0.000000e+00 6.179962e-01 3.820038e-01 0.000000e+00 0.000000e+00
 0.000000e+00 0.000000e+00 5.285810e-01 4.714191e-01 0.000000e+00
 0.000000e+00 0.000000e+00 0.000000e+00 7.164518e-01 2.835483e-01
 0.000000e+00 0.000000e+00 0.000000e+00 0.000000e+00 0.000000e+00
<ENDHMM>
~h "f"
<BEGINHMM>
<NUMSTATES> 5
<STATE> 2
<MEAN> 39
 -1.272702e+01 2.972953e-01 1.613884e-01 7.265163e+00 3.022565e+00 5.487298e+00 4.803333e+00 3.297946e+00 3.929068e+00 1.151426e+00 3.603003e+00 2.117030e+00 6.947030e+01 -3.735938e-01 -1.055608e+00 -1.869008e-01 -5.407570e-02 -2.999648e-01 -2.748245e-01 6.626245e-02 -2.682107e-01 2.017742e-01 3.038877e-01 3.913283e-01 1.141778e-01 2.873070e-01 4.256062e-01 -3.458087e-01 1.976423e-02 -9.657463e-02 3.007959e-02 -8.629075e-02 -6.796241e-01 -3.193705e-01 -6.589251e-02 -3.540432e-01 -1.376368e-01 -8.569961e-02 5.715549e-01
<VARIANCE> 39
 3.459218e+01 5.049099e+01 1.595447e+01 1.921294e+01 3.066535e+01 2.150392e+01 2.770796e+01 1.870892e+01 2.995904e+01 2.822749e+01 2.945097e+01 1.477329e+01 4.096828e+01 5.787379e+00 6.079334e+00 9.825864e-01 2.319618e+00 2.696414e+00 2.010383e+00 6.702112e+00 3.666495e+00 1.916378e+00 3.042732e+00 2.979847e+00 1.710507e+00 5.040654e+00 7.216694e-01 1.053395e+00 2.645064e-01 5.001396e-01 4.213877e-01 4.386029e-01 1.221573e+00 6.418314e-01 3.029491e-01 5.563465e-01 4.444575e-01 3.694132e-01 8.850107e-01
<GCONST> 1.204862e+02
<STATE> 3
<MEAN> 39
 -1.172960e+01 -2.079209e+00 3.548537e-01 7.106401e+00 3.581258e+00 5.395892e+00 3.249573e+00 2.266680e+00 2.605682e+00 3.481389e-01 2.530165e+00 2.202058e+00 7.075374e+01 1.361070e+00 -1.970292e+00 -1.025766e-01 -5.829683e-02 -4.846889e-02 -4.262107e-01 -2.041351e+00 -1.314972e+00 -9.253509e-02 -9.431037e-01 -1.630397e-01 -2.370462e-01 2.381660e+00 5.779237e-01 -3.781631e-02 4.731958e-02 7.099200e-02 2.234704e-01 -8.825494e-02 -9.056864e-01 -3.670176e-01 -1.001833e-01 -5.231212e-01 -1.369969e-01 -7.618234e-02 5.837194e-01
<VARIANCE> 39
 4.244990e+01 6.263335e+01 2.237467e+01 2.853022e+01 3.599500e+01 1.821336e+01 5.022580e+01 2.813015e+01 2.482426e+01 2.571804e+01 2.158252e+01 2.265193e+01 5.865009e+01 7.362531e+00 8.294623e+00 1.775504e+00 3.843368e+00 5.110306e+00 1.771085e+00 1.144302e+01 3.454435e+00 2.457597e+00 3.992752e+00 4.567080e+00 3.031652e+00 8.120522e+00 8.372598e-01 1.204847e+00 2.581011e-01 6.092919e-01 5.489765e-01 3.785756e-01 1.750977e+00 6.513392e-01 5.052232e-01 6.644973e-01 4.612247e-01 5.572308e-01 1.211971e+00
<GCONST> 1.298631e+02
<STATE> 4
<MEAN> 39
 -7.309018e+00 -6.560271e+00 2.055637e+00 9.165794e+00 6.838996e+00 6.773205e+00 -3.360733e+00 -3.520437e+00 3.531123e+00 -3.011343e+00 1.246385e+00 -9.101380e-01 8.048563e+01 4.128616e-01 -3.219565e-01 -1.297284e-01 -2.883778e-01 -1.259316e-01 -1.655680e-01 -3.813736e-01 -1.372995e-01 -1.280310e-02 -4.895238e-01 2.249853e-01 3.041697e-02 8.570241e-01 -1.056272e-01 2.751953e-01 -1.275409e-02 -3.087827e-02 -2.323025e-02 -6.048429e-02 9.530216e-02 2.142612e-01 3.398769e-02 4.428466e-02 -3.805878e-03 1.070293e-01 -3.028196e-01
<VARIANCE> 39
 5.956845e+01 4.185667e+01 2.494064e+01 4.426267e+01 6.310608e+01 2.114913e+01 1.339818e+02 2.906096e+01 3.010056e+01 2.823596e+01 4.018211e+01 2.460001e+01 4.813382e+01 6.731151e+00 5.380423e+00 2.307719e+00 3.887581e+00 5.442650e+00 2.625600e+00 1.679737e+01 3.565050e+00 2.939277e+00 3.963801e+00 4.196916e+00 2.986803e+00 6.205018e+00 8.985122e-01 9.705634e-01 3.862152e-01 5.035061e-01 8.699152e-01 4.696907e-01 2.576190e+00 5.341851e-01 6.301770e-01 7.302802e-01 8.168353e-01 5.235284e-01 9.106871e-01
<GCONST> 1.347596e+02
<TRANSP> 5
 0.000000e+00 1.000000e+00 0.000000e+00 0.000000e+00 0.000000e+00
 0.000000e+00 5.862858e-01 4.137141e-01 0.000000e+00 0.000000e+00
 0.000000e+00 0.000000e+00 5.011086e-01 4.988914e-01 0.000000e+00
 0.000000e+00 0.000000e+00 0.000000e+00 8.846956e-01 1.153044e-01
 0.000000e+00 0.000000e+00 0.000000e+00 0.000000e+00 0.000000e+00
<ENDHMM>
~h "g"
<BEGINHMM>
<NUMSTATES> 5
<STATE> 2
<MEAN> 39
 -5.715258e+00 9.393945e-01 9.380505e-01 9.809595e+00 6.594073e+00 6.051694e+00 -2.438470e+00 1.221299e+00 4.132320e+00 -1.677558e+00 -5.908733e-01 -9.619818e-01 7.441165e+01 4.832687e-01 -5.120980e-01 6.123561e-02 -1.306783e-01 -1.028058e+00 -8.749864e-01 -2.478222e-01 4.223589e-01 6.455994e-01 -4.281523e-01 -6.063604e-01 -3.950697e-01 8.217405e-01 2.100188e-01 -5.669579e-02 1.507830e-01 -9.068710e-02 -1.523069e-01 -1.493320e-01 -2.000840e-01 -3.878907e-02 -4.245542e-02 -2.204249e-01 -3.941594e-02 -3.125187e-02 2.867206e-01
<VARIANCE> 39
 4.381975e+01 3.854535e+01 3.092542e+01 4.068632e+01 7.347370e+01 4.780014e+01 8.838776e+01 6.053075e+01 4.792163e+01 4.112979e+01 3.096839e+01 2.520373e+01 4.747042e+01 4.967340e+00 4.857342e+00 3.566247e+00 3.856323e+00 6.441933e+00 5.380617e+00 7.775084e+00 4.866011e+00 3.683535e+00 6.830392e+00 3.631026e+00 2.172119e+00 6.882699e+00 7.496766e-01 1.036181e+00 7.040669e-01 7.920631e-01 1.315022e+00 1.028960e+00 1.127339e+00 9.855297e-01 6.477981e-01 1.274514e+00 7.067776e-01 3.619790e-01 1.210200e+00
<GCONST> 1.395118e+02
<STATE> 3
<MEAN> 39
 -2.950578e+00 -2.662328e-01 2.095755e+00 8.511241e+00 3.039885e+00 3.360980e+00 -4.240903e+00 1.218801e+00 5.384084e+00 -3.749502e+00 -2.334990e+00 -2.090075e+00 7.812774e+01 8.757228e-01 -1.140093e-01 4.837925e-01 -3.868612e-01 -7.510966e-01 -5.390180e-01 -6.912996e-01 -1.068969e-01 3.375736e-01 -5.027312e-01 -5.468506e-01 -4.858474e-01 9.217883e-01 1.850299e-02 1.381992e-01 -1.697633e-02 -3.985253e-02 2.560860e-01 1.252177e-01 -1.942586e-01 -1.485406e-01 -5.089179e-02 4.818699e-02 -5.864298e-03 -6.562087e-05 -7.902134e-02
<VARIANCE> 39
 3.197898e+01 4.853748e+01 3.276420e+01 4.852888e+01 1.092809e+02 7.150597e+01 8.280827e+01 8.837844e+01 3.616483e+01 3.927073e+01 2.791742e+01 2.322017e+01 4.183239e+01 3.266364e+00 5.425532e+00 3.160475e+00 3.733378e+00 8.406766e+00 4.866446e+00 7.720615e+00 5.506469e+00 2.946399e+00 5.492599e+00 2.816818e+00 2.226111e+00 4.646381e+00 5.863386e-01 1.089006e+00 6.318138e-01 6.729849e-01 1.556045e+00 7.584339e-01 1.164973e+00 9.529535e-01 4.976629e-01 1.147725e+00 5.000703e-01 3.981505e-01 8.640830e-01
<GCONST> 1.373308e+02
<STATE> 4
<MEAN> 39
 2.423863e-01 5.994619e-01 2.024277e+00 7.048207e+00 2.701742e+00 3.381777e+00 -7.205613e+00 -2.016483e+00 7.046878e+00 -1.898896e+00 -4.118533e+00 -3.202114e+00 7.934514e+01 2.016370e-01 5.342312e-02 -4.407527e-02 -9.273262e-02 9.775802e-02 6.235681e-02 -1.969839e-01 -1.126112e-01 -7.595084e-02 5.366754e-02 -9.409536e-02 -1.219590e-01 6.830385e-02 -5.230320e-02 -1.387011e-02 -5.803885e-02 1.526861e-02 6.173272e-02 1.513389e-02 3.242530e-02 -3.648855e-03 -7.159994e-02 -5.560074e-03 7.096257e-02 6.686256e-02 -3.530227e-02
<VARIANCE> 39
 2.377866e+01 5.111359e+01 3.780874e+01 6.769688e+01 1.047374e+02 1.206550e+02 6.702750e+01 1.057185e+02 2.996721e+01 3.767680e+01 3.195415e+01 2.618260e+01 3.012310e+01 1.362696e+00 3.582420e+00 1.975713e+00 2.892482e+00 3.468636e+00 3.842833e+00 5.728339e+00 4.299090e+00 2.531341e+00 2.936129e+00 2.410913e+00 2.156928e+00 1.989539e+00 1.868955e-01 6.272604e-01 3.695483e-01 4.457459e-01 5.527732e-01 5.211152e-01 9.378974e-01 7.337432e-01 4.389598e-01 5.487572e-01 4.404388e-01 3.809625e-01 2.913515e-01
<GCONST> 1.255594e+02
<TRANSP> 5
 0.000000e+00 1.000000e+00 0.000000e+00 0.000000e+00 0.000000e+00
 0.000000e+00 7.467293e-01 2.532708e-01 0.000000e+00 0.000000e+00
 0.000000e+00 0.000000e+00 6.736431e-01 3.263569e-01 0.000000e+00
 0.000000e+00 0.000000e+00 0.000000e+00 8.851606e-01 1.148395e-01
 0.000000e+00 0.000000e+00 0.000000e+00 0.000000e+00 0.000000e+00
<ENDHMM>
~h "k"
<BEGINHMM>
<NUMSTATES> 5
<STATE> 2
<MEAN> 39
 -1.079412e+01 -2.679443e+00 -1.800397e+00 5.292247e+00 -4.520152e-01 2.504767e+00 2.600738e+00 4.836861e+00 1.060144e+00 -1.647124e+00 2.621994e+00 2.996919e+00 7.066682e+01 5.089945e-01 -7.520800e-01 -4.823374e-01 -5.914224e-01 -9.280436e-01 -4.493082e-01 3.683031e-01 6.181682e-01 4.333455e-02 -3.576567e-01 2.683952e-01 2.326143e-02 8.181607e-01 1.785837e-01 8.793350e-02 1.053987e-01 8.955406e-02 6.499936e-02 -1.459577e-02 -2.489070e-01 -1.514159e-01 4.417638e-02 -3.617087e-02 -1.144534e-01 -8.804778e-02 9.582222e-02
<VARIANCE> 39
 3.856850e+01 5.818103e+01 2.610809e+01 5.011825e+01 6.982354e+01 3.750428e+01 5.578903e+01 4.382053e+01 2.570902e+01 4.275769e+01 2.089315e+01 2.531221e+01 5.705613e+01 4.068841e+00 7.707842e+00 2.795668e+00 4.040483e+00 5.968042e+00 3.886664e+00 4.753091e+00 3.707689e+00 2.005889e+00 5.141173e+00 1.997556e+00 2.497650e+00 8.085322e+00 6.497738e-01 1.651326e+00 5.742729e-01 7.405344e-01 1.163848e+00 6.547224e-01 7.748407e-01 6.843533e-01 3.658742e-01 1.021108e+00 3.564477e-01 3.765846e-01 1.642992e+00
<GCONST> 1.332859e+02
<STATE> 3
<MEAN> 39
 -9.040617e+00 -2.972533e+00 -2.290596e+00 4.827281e+00 -1.170936e+00 1.809690e+00 1.908368e+00 5.430611e+00 1.806149e+00 -1.696704e+00 2.778859e+00 2.583138e+00 7.233455e+01 4.201368e-01 -5.113309e-02 1.222989e-01 7.110839e-02 1.611327e-02 1.566171e-02 -5.872341e-01 -2.950589e-01 2.690441e-01 2.341835e-01 -8.452345e-02 -3.292942e-01 3.278397e-01 7.166484e-02 2.084034e-01 1.921933e-01 1.523670e-01 2.256603e-01 1.253952e-01 -2.912209e-01 -2.367377e-01 4.939417e-02 8.932590e-03 -1.607479e-01 -4.305993e-02 -4.711012e-02
<VARIANCE> 39
 5.238574e+01 5.382126e+01 2.154816e+01 3.677679e+01 5.796011e+01 4.243908e+01 6.188784e+01 3.987359e+01 2.367431e+01 4.052219e+01 1.988637e+01 3.264909e+01 5.500245e+01 4.188693e+00 6.947863e+00 3.552739e+00 3.814297e+00 4.887296e+00 3.703997e+00 4.920956e+00 3.180291e+00 2.114921e+00 4.033632e+00 2.404057e+00 2.374868e+00 7.127672e+00 4.976349e-01 1.328085e+00 5.827668e-01 5.774506e-01 9.360391e-01 7.052656e-01 7.696469e-01 5.446514e-01 3.858423e-01 7.450779e-01 4.730807e-01 4.218485e-01 1.141497e+00
<GCONST> 1.312248e+02
<STATE> 4
<MEAN> 39
 -1.101541e+01 -1.400916e+00 -1.453194e+00 5.234453e+00 5.469267e-01 4.156094e+00 2.251113e+00 4.946566e+00 2.912425e+00 -6.525356e-02 2.122693e+00 2.378377e+00 7.019473e+01 1.789157e-01 1.348162e-01 2.112063e-01 9.209453e-02 1.564107e-01 1.177968e-01 -6.000549e-01 -4.476102e-01 2.060537e-01 1.070865e-01 -1.423795e-01 -1.084443e-01 8.273004e-02 1.180985e-01 2.767293e-02 1.670463e-02 -3.983866e-02 8.178595e-03 -5.007225e-03 -7.804732e-02 -4.348332e-02 -1.102912e-02 -1.373926e-01 -1.441246e-02 8.771131e-02 1.114013e-01
<VARIANCE> 39
 6.495224e+01 4.311386e+01 2.550981e+01 2.614434e+01 3.268749e+01 3.590716e+01 6.324635e+01 3.085633e+01 1.884756e+01 2.759278e+01 1.801957e+01 2.943862e+01 5.928085e+01 3.214588e+00 4.387796e+00 2.469781e+00 2.035849e+00 3.727666e+00 3.262040e+00 4.564520e+00 2.598747e+00 2.001704e+00 3.499828e+00 2.096858e+00 1.771538e+00 4.031294e+00 3.605103e-01 8.012444e-01 4.944887e-01 3.705770e-01 6.428170e-01 4.513238e-01 6.058294e-01 4.043775e-01 3.793022e-01 4.919862e-01 3.770401e-01 3.313071e-01 7.222191e-01
<GCONST> 1.215908e+02
<TRANSP> 5
 0.000000e+00 1.000000e+00 0.000000e+00 0.000000e+00 0.000000e+00
 0.000000e+00 7.515439e-01 2.484561e-01 0.000000e+00 0.000000e+00
 0.000000e+00 0.000000e+00 5.416060e-01 4.583940e-01 0.000000e+00
 0.000000e+00 0.000000e+00 0.000000e+00 6.518407e-01 3.481594e-01
 0.000000e+00 0.000000e+00 0.000000e+00 0.000000e+00 0.000000e+00
<ENDHMM>
~h "l"
<BEGINHMM>
<NUMSTATES> 5
<STATE> 2
<MEAN> 39
 -3.778348e-01 -3.622795e-01 1.332802e+00 7.429691e+00 4.234985e+00 5.439073e+00 -6.381012e+00 -8.390359e-01 -9.194391e-01 -9.812234e+00 -3.447071e+00 1.392792e+00 7.811833e+01 -1.552417e-01 -3.162316e-02 1.683166e-01 8.713659e-02 1.501478e-01 3.340847e-01 2.212286e-02 -2.947221e-01 -2.332973e-01 -1.852813e-01 -1.268131e-01 8.285470e-02 -1.094885e-01 -8.160127e-02 2.944218e-02 -4.405877e-02 -7.062767e-02 -4.835146e-02 5.306240e-03 8.136930e-02 3.372374e-02 3.818065e-02 1.714525e-01 1.340188e-01 5.043785e-02 -7.281232e-02
<VARIANCE> 39
 4.838557e+01 4.439266e+01 2.248559e+01 3.172248e+01 3.232930e+01 3.309298e+01 5.879975e+01 3.254107e+01 3.692619e+01 7.024644e+01 3.260152e+01 2.895709e+01 3.720427e+01 9.664719e-01 1.226280e+00 9.722054e-01 1.192102e+00 1.431790e+00 1.319967e+00 3.124692e+00 2.333400e+00 2.127353e+00 2.036461e+00 2.135272e+00 1.780060e+00 1.053827e+00 1.669059e-01 2.517127e-01 2.013431e-01 2.230867e-01 2.652026e-01 2.690151e-01 5.761889e-01 3.783230e-01 4.179662e-01 3.608412e-01 4.513040e-01 4.077218e-01 1.455092e-01
<GCONST> 1.086249e+02
<STATE> 3
<MEAN> 39
 -1.361521e+00 -3.388563e-02 1.636041e+00 7.566234e+00 4.444075e+00 6.155445e+00 -5.426904e+00 -1.000364e+00 -1.439785e+00 -9.591810e+00 -3.355522e+00 1.740808e+00 7.722961e+01 -3.059170e-01 1.315392e-01 1.546519e-02 1.160417e-02 1.150233e-01 2.129455e-01 2.278553e-01 -9.752577e-02 -1.029954e-01 2.883099e-01 1.276025e-01 1.413695e-01 -3.118291e-01 -3.021313e-02 4.677880e-02 -5.648388e-02 -3.690720e-02 -1.199468e-02 -8.856380e-02 3.834584e-02 9.307425e-02 9.235346e-02 1.691910e-01 8.871445e-02 -6.588081e-03 -4.624120e-02
<VARIANCE> 39
 5.715215e+01 4.241143e+01 2.473269e+01 2.791341e+01 2.724065e+01 3.005077e+01 6.364912e+01 3.919888e+01 3.653576e+01 6.891073e+01 3.313434e+01 2.345033e+01 4.565850e+01 6.711740e-01 9.415839e-01 1.085512e+00 1.130151e+00 1.339090e+00 1.233159e+00 2.534666e+00 1.848315e+00 1.864661e+00 1.939602e+00 1.981119e+00 1.902524e+00 6.434323e-01 1.098223e-01 2.081944e-01 1.740866e-01 1.798998e-01 2.105233e-01 2.515936e-01 4.121367e-01 3.878484e-01 3.755941e-01 3.305986e-01 3.386878e-01 3.720729e-01 1.206088e-01
<GCONST> 1.045218e+02
<STATE> 4
<MEAN> 39
 -7.168025e+00 1.864822e+00 1.494176e+00 7.255376e+00 4.024165e+00 6.584240e+00 -4.154301e-01 1.015086e+00 -1.451771e+00 -5.595235e+00 -1.427314e+00 2.825420e+00 7.181821e+01 -3.433256e-01 1.046824e-01 -1.096119e-01 -3.980850e-02 5.252313e-02 -1.848798e-02 2.832803e-01 1.634191e-01 1.852180e-01 5.179201e-01 2.560740e-01 5.042144e-02 -3.237554e-01 2.127205e-02 -2.633065e-02 -2.661108e-02 2.761743e-03 -4.787321e-03 -4.784515e-02 -1.038624e-02 1.490743e-02 6.529080e-02 5.087445e-02 2.409769e-02 -6.172251e-02 3.330820e-02
<VARIANCE> 39
 8.570380e+01 2.919318e+01 2.313937e+01 1.942672e+01 1.789625e+01 1.846693e+01 6.398305e+01 3.203282e+01 3.287984e+01 6.964186e+01 3.695720e+01 1.839327e+01 6.852671e+01 9.677922e-01 1.114677e+00 1.068532e+00 9.335707e-01 1.035394e+00 1.146263e+00 1.820022e+00 1.301529e+00 1.538952e+00 2.045748e+00 1.541172e+00 1.580501e+00 5.787660e-01 1.641514e-01 2.292605e-01 1.670943e-01 1.752983e-01 1.924245e-01 2.121473e-01 3.183703e-01 3.138653e-01 2.925857e-01 3.653776e-01 2.788095e-01 3.184885e-01 1.184692e-01
<GCONST> 1.010162e+02
<TRANSP> 5
 0.000000e+00 1.000000e+00 0.000000e+00 0.000000e+00 0.000000e+00
 0.000000e+00 5.158291e-01 4.841709e-01 0.000000e+00 0.000000e+00
 0.000000e+00 0.000000e+00 5.345728e-01 4.654272e-01 0.000000e+00
 0.000000e+00 0.000000e+00 0.000000e+00 7.899134e-01 2.100866e-01
 0.000000e+00 0.000000e+00 0.000000e+00 0.000000e+00 0.000000e+00
<ENDHMM>
~h "m"
<BEGINHMM>
<NUMSTATES> 5
<STATE> 2
<MEAN> 39
 -2.246753e+00 3.990556e+00 1.912123e+00 2.059575e+00 2.793707e+00 8.818055e+00 -5.984606e+00 -8.820809e-01 7.752681e+00 -9.238192e-01 -1.316806e+00 6.125326e-01 7.601108e+01 -4.024516e-01 2.765083e-01 6.989866e-02 2.144087e-01 3.092649e-01 2.835090e-01 2.390546e-01 3.613150e-02 1.630045e-01 4.571365e-01 3.998366e-02 -1.876594e-01 -4.954768e-01 2.698675e-02 -1.176826e-01 -2.682847e-02 5.940434e-02 -6.522831e-02 -1.611054e-01 -4.302960e-02 -2.956560e-02 -9.610865e-02 -7.440659e-02 3.884525e-03 9.197220e-02 6.253191e-02
<VARIANCE> 39
 2.980269e+01 2.121933e+01 1.710299e+01 5.063189e+01 4.417986e+01 4.478629e+01 5.997224e+01 4.381896e+01 3.328129e+01 3.695415e+01 3.758170e+01 3.553052e+01 3.525957e+01 5.645709e-01 1.029433e+00 8.658704e-01 1.804704e+00 2.060679e+00 2.050664e+00 3.181998e+00 1.635214e+00 2.179188e+00 1.758821e+00 1.268294e+00 2.151237e+00 4.692196e-01 8.480666e-02 2.021222e-01 1.708748e-01 2.628811e-01 3.592292e-01 3.136740e-01 4.363014e-01 2.640179e-01 3.488247e-01 3.065641e-01 2.089983e-01 4.093977e-01 7.022166e-02
<GCONST> 1.039502e+02
<STATE> 3
<MEAN> 39
 -4.508444e+00 4.940872e+00 1.720281e+00 4.197972e+00 4.383143e+00 8.850444e+00 -3.986205e+00 3.872584e-01 6.941442e+00 -9.163825e-02 -1.175653e+00 4.019101e-01 7.312476e+01 -3.958382e-01 1.041931e-01 -6.348307e-02 1.229074e-01 1.062429e-01 -8.162298e-02 2.780686e-01 1.232502e-01 -9.146940e-02 2.643375e-01 2.071225e-01 8.052493e-02 -4.226876e-01 4.178606e-02 -7.519963e-02 -4.323985e-02 -1.434633e-03 -5.677635e-02 -1.269229e-01 -5.608541e-02 7.471471e-04 -3.204230e-02 -7.274135e-02 -6.207561e-03 5.922596e-02 6.146947e-02
<VARIANCE> 39
 4.215340e+01 1.903913e+01 2.029844e+01 3.546629e+01 4.223293e+01 4.701177e+01 5.291680e+01 3.176119e+01 3.189149e+01 2.998981e+01 2.815957e+01 3.047534e+01 3.961906e+01 5.241339e-01 7.807186e-01 6.796266e-01 1.261527e+00 1.772832e+00 1.765216e+00 2.145428e+00 1.239448e+00 1.434943e+00 1.405367e+00 1.413564e+00 1.499565e+00 4.203250e-01 6.844465e-02 1.491237e-01 1.280719e-01 2.327386e-01 3.237003e-01 2.967321e-01 3.544274e-01 2.308226e-01 3.124544e-01 2.621482e-01 2.149627e-01 2.633000e-01 5.177299e-02
<GCONST> 9.764070e+01
<STATE> 4
<MEAN> 39
 -1.102480e+01 4.535152e+00 -2.175844e-01 3.822787e+00 2.618466e+00 5.769436e+00 6.289779e-01 3.113784e+00 4.823652e+00 2.555044e+00 1.701792e+00 2.632599e+00 6.785937e+01 -1.974030e-01 -3.715586e-02 7.605439e-03 5.685017e-02 6.798732e-03 -3.159457e-02 1.382843e-01 8.426465e-02 -2.531102e-02 9.571937e-02 1.003927e-01 7.200286e-02 -1.445488e-01 2.388561e-02 -2.320967e-02 1.062257e-03 3.208770e-03 -7.684685e-03 -1.247159e-02 -2.240191e-02 -1.059352e-02 -6.584927e-03 -1.885497e-02 -1.610272e-02 -8.794568e-03 3.131996e-02
<VARIANCE> 39
 6.225534e+01 1.659968e+01 1.940336e+01 2.696415e+01 3.800642e+01 2.345686e+01 4.973972e+01 2.989426e+01 1.744221e+01 1.710429e+01 1.822281e+01 1.683708e+01 4.149867e+01 5.970531e-01 7.313547e-01 7.495865e-01 8.559512e-01 1.225728e+00 1.225855e+00 1.427921e+00 1.116413e+00 1.193951e+00 1.060339e+00 1.045504e+00 9.740809e-01 3.556689e-01 7.927404e-02 1.402884e-01 1.248515e-01 1.377509e-01 2.019188e-01 2.046808e-01 2.400513e-01 2.157596e-01 2.178449e-01 2.003498e-01 1.845275e-01 1.708214e-01 4.851297e-02
<GCONST> 8.862361e+01
<TRANSP> 5
 0.000000e+00 1.000000e+00 0.000000e+00 0.000000e+00 0.000000e+00
 0.000000e+00 7.029471e-01 2.970529e-01 0.000000e+00 0.000000e+00
 0.000000e+00 0.000000e+00 6.593803e-01 3.406197e-01 0.000000e+00
 0.000000e+00 0.000000e+00 0.000000e+00 9.433293e-01 5.667076e-02
 0.000000e+00 0.000000e+00 0.000000e+00 0.000000e+00 0.000000e+00
<ENDHMM>
~h "n"
<BEGINHMM>
<NUMSTATES> 5
<STATE> 2
<MEAN> 39
 -1.600523e+00 2.044663e+00 -3.435160e-01 5.268066e+00 7.516123e+00 8.768996e+00 -8.162258e+00 -3.032357e+00 2.779556e+00 -4.764769e+00 -4.344258e-01 1.430699e+00 7.658141e+01 1.347359e-01 4.307305e-01 1.232734e-01 4.594507e-02 4.380589e-01 7.018405e-01 1.350265e-01 -3.845963e-01 3.497475e-02 1.344118e-01 -4.841618e-01 -5.659607e-01 -1.293924e-01 -5.583353e-02 -6.472529e-02 4.200750e-02 1.330731e-02 -1.250316e-01 -1.200214e-01 8.369825e-02 1.187582e-01 2.384149e-02 4.844759e-02 3.592961e-03 2.255017e-02 -1.079862e-02
<VARIANCE> 39
 4.704028e+01 2.791109e+01 2.582382e+01 4.638333e+01 4.224496e+01 5.056017e+01 7.808548e+01 3.715767e+01 3.594479e+01 3.625343e+01 2.986387e+01 2.828918e+01 4.179018e+01 2.212959e+00 2.033314e+00 1.389749e+00 2.401946e+00 2.430579e+00 3.376098e+00 4.657749e+00 3.135658e+00 2.542595e+00 2.969400e+00 2.716593e+00 2.468112e+00 2.150160e+00 2.186265e-01 3.498202e-01 2.258036e-01 3.569627e-01 3.580740e-01 5.129858e-01 6.291109e-01 4.766520e-01 4.616882e-01 4.212898e-01 4.558062e-01 4.338983e-01 2.330156e-01
<GCONST> 1.187125e+02
<STATE> 3
<MEAN> 39
 -1.317896e+00 2.594917e+00 1.631529e-02 5.261469e+00 7.866168e+00 9.936240e+00 -7.586924e+00 -3.267451e+00 3.131063e+00 -4.387149e+00 -1.768746e+00 3.184664e-02 7.641648e+01 7.275542e-03 1.771493e-01 1.752370e-01 4.177980e-02 -2.115158e-02 1.312859e-01 2.255890e-01 9.636952e-02 1.192845e-01 2.341979e-01 -2.484308e-01 -3.382676e-01 -9.777153e-02 -1.033307e-01 -1.132403e-01 2.128786e-02 3.904295e-03 -1.936268e-01 -2.284686e-01 7.164244e-02 1.745790e-01 1.525364e-02 2.342346e-02 1.105599e-01 1.494659e-01 -1.406819e-02
<VARIANCE> 39
 3.571877e+01 2.809625e+01 2.366310e+01 4.862377e+01 4.889882e+01 5.647169e+01 5.910364e+01 3.794303e+01 3.615429e+01 2.916314e+01 3.055937e+01 2.755112e+01 3.332951e+01 2.174899e+00 2.155746e+00 1.381153e+00 2.646720e+00 2.605431e+00 3.678064e+00 4.582825e+00 2.891479e+00 2.383006e+00 2.577308e+00 2.683301e+00 2.643226e+00 2.306968e+00 1.929609e-01 3.594330e-01 2.154041e-01 4.131899e-01 3.912502e-01 5.538319e-01 6.175873e-01 4.967508e-01 4.638459e-01 4.142186e-01 4.712159e-01 4.081499e-01 2.275463e-01
<GCONST> 1.181968e+02
<STATE> 4
<MEAN> 39
 -5.251780e-01 1.283125e+00 5.700711e-01 4.757876e+00 5.776231e+00 8.152011e+00 -7.871134e+00 -2.354172e+00 3.360805e+00 -4.239242e+00 -1.658056e+00 2.405368e-01 7.754398e+01 -2.409976e-01 -1.172265e-01 1.414380e-01 1.336986e-01 -3.046422e-01 -3.601823e-01 2.877851e-01 2.616497e-01 -3.094721e-02 2.353091e-01 1.404187e-01 9.066880e-02 -1.179956e-01 -7.219481e-02 -1.049189e-01 -2.858674e-02 -1.495162e-02 -9.335136e-02 -9.955142e-02 3.132982e-02 5.393808e-02 -1.091923e-02 -9.797655e-03 8.736583e-02 1.147309e-01 2.809505e-03
<VARIANCE> 39
 3.491641e+01 3.276259e+01 2.647039e+01 6.499448e+01 6.191323e+01 5.696884e+01 6.348724e+01 4.272146e+01 4.208479e+01 2.476147e+01 3.378569e+01 2.752541e+01 3.502579e+01 1.583009e+00 2.427283e+00 1.312393e+00 2.679389e+00 3.014662e+00 3.242173e+00 4.867948e+00 2.670330e+00 2.706283e+00 2.251719e+00 2.796216e+00 2.244573e+00 1.990721e+00 1.873330e-01 3.976431e-01 2.190652e-01 3.934650e-01 4.161595e-01 5.407029e-01 6.506727e-01 4.807462e-01 4.497012e-01 3.876895e-01 4.884254e-01 3.617230e-01 2.540008e-01
<GCONST> 1.188119e+02
<TRANSP> 5
 0.000000e+00 1.000000e+00 0.000000e+00 0.000000e+00 0.000000e+00
 0.000000e+00 5.071121e-01 4.928879e-01 0.000000e+00 0.000000e+00
 0.000000e+00 0.000000e+00 5.052202e-01 4.947798e-01 0.000000e+00
 0.000000e+00 0.000000e+00 0.000000e+00 7.129629e-01 2.870371e-01
 0.000000e+00 0.000000e+00 0.000000e+00 0.000000e+00 0.000000e+00
<ENDHMM>
~h "p"
<BEGINHMM>
<NUMSTATES> 5
<STATE> 2
<MEAN> 39
 -9.441979e+00 5.255492e-01 6.272501e-01 9.451720e+00 3.816358e+00 3.037309e+00 2.911775e-01 3.137398e+00 1.667320e+00 -8.269916e-01 1.864252e+00 2.732570e+00 7.069674e+01 -2.631740e-01 5.716098e-02 1.398695e-01 -6.951603e-02 -2.577082e-02 2.036812e-02 -4.691218e-02 -2.446135e-01 -1.656427e-01 4.816471e-02 6.541359e-02 -2.310723e-02 -1.546820e-01 1.147288e-01 -1.071944e-01 6.381997e-02 -1.266050e-01 -8.088001e-02 6.964742e-02 -1.453825e-01 -1.195069e-01 9.629358e-02 -1.451826e-02 -1.219904e-01 -8.893918e-02 1.841316e-01
<VARIANCE> 39
 6.565018e+01 4.146643e+01 1.908814e+01 2.746511e+01 3.310844e+01 5.202830e+01 7.296358e+01 2.512953e+01 2.364858e+01 4.678672e+01 2.023639e+01 1.134680e+01 4.019273e+01 5.667153e+00 3.089187e+00 1.464449e+00 2.452878e+00 1.630630e+00 2.633519e+00 4.162886e+00 2.240383e+00 1.905980e+00 3.989616e+00 1.754759e+00 1.048430e+00 5.366871e+00 5.471331e-01 5.842463e-01 2.389572e-01 4.390839e-01 3.178569e-01 4.133112e-01 7.430449e-01 4.308299e-01 3.508190e-01 4.826038e-01 2.691469e-01 2.069619e-01 5.169700e-01
<GCONST> 1.172158e+02
<STATE> 3
<MEAN> 39
 -1.004866e+01 7.409341e-01 9.983234e-01 8.885330e+00 3.344128e+00 3.048450e+00 7.544231e-02 2.428135e+00 1.798861e+00 -1.767393e-01 1.899645e+00 2.592089e+00 7.037231e+01 1.191218e-01 1.032566e-01 1.227569e-01 -3.668076e-01 -1.761426e-01 1.270133e-01 -2.211415e-01 -3.066591e-01 2.802032e-02 2.327432e-02 -2.283942e-01 -1.651484e-01 1.207706e-01 1.626058e-01 -1.716851e-02 1.405935e-03 -1.144762e-01 -7.861216e-02 3.331843e-02 -7.105104e-02 -1.176982e-02 6.769501e-02 -5.960325e-02 -1.369687e-01 -6.498823e-02 1.420142e-01
<VARIANCE> 39
 6.620622e+01 3.908023e+01 1.603199e+01 2.938699e+01 3.552409e+01 5.728634e+01 6.905943e+01 2.417016e+01 1.750528e+01 4.086385e+01 2.205663e+01 1.224617e+01 4.517004e+01 5.444300e+00 1.967155e+00 1.142798e+00 1.808266e+00 1.642958e+00 2.741877e+00 3.884631e+00 1.907063e+00 1.609652e+00 2.777394e+00 1.874452e+00 1.081818e+00 4.498309e+00 5.541187e-01 4.002848e-01 2.347887e-01 4.528688e-01 3.316841e-01 5.138131e-01 5.509945e-01 3.485503e-01 2.725497e-01 3.751910e-01 3.267813e-01 1.988369e-01 4.555632e-01
<GCONST> 1.140572e+02
<STATE> 4
<MEAN> 39
 -1.119299e+01 1.257271e+00 9.652791e-01 7.447330e+00 2.332400e+00 3.879029e+00 1.383622e+00 2.819596e+00 2.402852e+00 8.540057e-01 1.629610e+00 2.289862e+00 6.971000e+01 7.946926e-01 1.202697e-01 3.614255e-02 -3.845700e-01 -2.670367e-01 1.946209e-01 -2.409090e-01 -2.468924e-01 7.622115e-02 -2.443097e-01 -4.772597e-01 -3.599584e-01 6.173466e-01 2.372479e-01 -5.620040e-02 -9.889485e-04 3.791386e-02 -1.030680e-02 -5.390707e-02 -1.139489e-01 -3.888729e-02 -1.441284e-02 -1.268315e-01 -7.722459e-02 -9.312965e-02 2.254266e-01
<VARIANCE> 39
 6.633099e+01 2.943898e+01 1.350721e+01 2.027241e+01 2.905135e+01 4.167273e+01 5.130686e+01 2.325394e+01 1.824074e+01 4.134755e+01 2.685146e+01 1.607543e+01 4.856136e+01 5.312779e+00 1.877222e+00 1.137966e+00 1.682097e+00 2.012565e+00 2.954968e+00 3.147904e+00 1.824487e+00 1.623382e+00 2.289412e+00 1.939100e+00 1.408672e+00 3.560632e+00 7.928681e-01 3.526222e-01 2.171509e-01 3.462455e-01 3.794772e-01 6.003543e-01 5.332194e-01 3.191455e-01 3.164663e-01 3.746579e-01 3.696733e-01 2.713487e-01 5.461161e-01
<GCONST> 1.135447e+02
<TRANSP> 5
 0.000000e+00 1.000000e+00 0.000000e+00 0.000000e+00 0.000000e+00
 0.000000e+00 4.591917e-01 5.408083e-01 0.000000e+00 0.000000e+00
 0.000000e+00 0.000000e+00 4.681553e-01 5.318447e-01 0.000000e+00
 0.000000e+00 0.000000e+00 0.000000e+00 6.688357e-01 3.311644e-01
 0.000000e+00 0.000000e+00 0.000000e+00 0.000000e+00 0.000000e+00
<ENDHMM>
~h "r"
<BEGINHMM>
<NUMSTATES> 5
<STATE> 2
<MEAN> 39
 8.395677e-01 7.671154e-01 1.665440e+00 6.556101e+00 6.846754e+00 5.837133e+00 -1.269832e+01 -7.657794e+00 4.638072e+00 -3.386388e+00 -1.944459e+00 -4.979794e-01 7.954645e+01 -2.268741e-01 3.969987e-01 3.643244e-01 2.516613e-01 2.054022e-01 7.618213e-02 -2.906080e-01 1.497261e-01 3.071867e-01 1.868831e-01 -6.470586e-02 -2.171979e-01 -3.297224e-01 -5.798984e-02 3.237718e-02 3.311917e-02 4.716290e-02 8.835245e-03 -1.134415e-02 2.486675e-02 8.043122e-02 4.452123e-02 -2.717626e-02 -4.494672e-02 -3.587695e-02 -6.113793e-02
<VARIANCE> 39
 3.187518e+01 4.065174e+01 5.631978e+01 5.056619e+01 3.701124e+01 4.419850e+01 8.086739e+01 4.489199e+01 5.607455e+01 4.587989e+01 2.619298e+01 1.941685e+01 2.244065e+01 6.568513e-01 1.148726e+00 1.510023e+00 1.909893e+00 1.999785e+00 2.625179e+00 5.167150e+00 2.190006e+00 2.293290e+00 2.046941e+00 1.815801e+00 1.149483e+00 6.669660e-01 1.138872e-01 2.004066e-01 2.054935e-01 2.870354e-01 2.681301e-01 4.303136e-01 8.311999e-01 3.889832e-01 2.890966e-01 3.057528e-01 3.129163e-01 1.735367e-01 1.049235e-01
<GCONST> 1.088369e+02
<STATE> 3
<MEAN> 39
 -3.253598e-01 2.664292e+00 4.989675e-01 5.967856e+00 7.622446e+00 7.016066e+00 -1.049622e+01 -4.646870e+00 3.185416e+00 -3.381371e+00 -1.354616e+00 -4.965955e-01 7.744338e+01 -2.986869e-01 2.831888e-01 1.368757e-01 2.658105e-01 3.322887e-01 1.359269e-01 6.410310e-03 3.406759e-01 2.351942e-01 9.816438e-04 -1.419884e-01 -2.277779e-01 -3.672841e-01 -3.981662e-02 -6.280445e-02 -3.013315e-02 1.911492e-02 -4.081061e-02 -1.836986e-02 1.303573e-01 4.181923e-02 -2.116689e-03 2.321053e-02 -5.241942e-02 -1.182629e-03 -2.568668e-02
<VARIANCE> 39
 4.414449e+01 4.595664e+01 4.963442e+01 3.957076e+01 4.530811e+01 4.458629e+01 9.394391e+01 3.941076e+01 4.635129e+01 4.032866e+01 2.735817e+01 1.777786e+01 2.775157e+01 9.649081e-01 1.369072e+00 1.308309e+00 1.876173e+00 1.621380e+00 2.531682e+00 5.755168e+00 2.481492e+00 1.817652e+00 2.084732e+00 1.632040e+00 1.374827e+00 8.967448e-01 1.320927e-01 2.241440e-01 2.028222e-01 2.783230e-01 2.190251e-01 4.324185e-01 9.284906e-01 4.354442e-01 3.061952e-01 3.474701e-01 2.508541e-01 2.047057e-01 1.368387e-01
<GCONST> 1.101700e+02
<STATE> 4
<MEAN> 39
 -9.211860e-01 2.302702e+00 -8.398861e-02 6.989079e+00 8.938961e+00 7.574405e+00 -9.148162e+00 -3.753878e+00 2.447662e+00 -3.628947e+00 -2.003866e+00 -9.839729e-01 7.691879e+01 -3.345193e-01 -2.923956e-02 9.307334e-03 2.544935e-01 2.103596e-01 1.118518e-01 2.426072e-01 1.936309e-01 1.324040e-01 1.132029e-01 -2.906422e-01 -1.537452e-01 -3.259935e-01 -9.991111e-02 -2.423446e-02 2.138051e-02 -2.613416e-02 -1.328697e-01 -6.827111e-02 1.309375e-01 5.117233e-02 -1.079931e-02 2.153203e-02 3.355572e-02 8.982874e-02 -7.227194e-02
<VARIANCE> 39
 4.331874e+01 4.188096e+01 4.118123e+01 3.543827e+01 4.168291e+01 4.133466e+01 1.026327e+02 3.963692e+01 3.948307e+01 4.312516e+01 2.944044e+01 1.571892e+01 3.141076e+01 2.215093e+00 2.633302e+00 1.334792e+00 2.455799e+00 1.706079e+00 2.591117e+00 6.554952e+00 3.662973e+00 2.141150e+00 3.568063e+00 1.848545e+00 1.594633e+00 1.882688e+00 2.338101e-01 4.413433e-01 1.926394e-01 2.828481e-01 2.090506e-01 4.366298e-01 1.093419e+00 7.267729e-01 3.403001e-01 5.232973e-01 2.627734e-01 2.648942e-01 2.818639e-01
<GCONST> 1.171547e+02
<TRANSP> 5
 0.000000e+00 1.000000e+00 0.000000e+00 0.000000e+00 0.000000e+00
 0.000000e+00 6.822283e-01 3.177716e-01 0.000000e+00 0.000000e+00
 0.000000e+00 0.000000e+00 5.509381e-01 4.490619e-01 0.000000e+00
 0.000000e+00 0.000000e+00 0.000000e+00 6.128861e-01 3.871139e-01
 0.000000e+00 0.000000e+00 0.000000e+00 0.000000e+00 0.000000e+00
<ENDHMM>
~h "s"
<BEGINHMM>
<NUMSTATES> 5
<STATE> 2
<MEAN> 39
 -1.088895e+01 -1.205579e+01 5.968040e+00 6.270580e+00 -3.145485e-01 3.317503e+00 2.057852e+00 5.023140e-02 -1.444028e+00 -1.735971e+00 5.395376e+00 5.605942e-01 8.064249e+01 -8.177190e-01 -1.385539e+00 3.247768e-01 -1.271738e-01 -5.000108e-01 -1.603565e-01 7.907834e-01 2.648982e-01 -2.686313e-01 3.221892e-02 6.237971e-01 1.704999e-01 3.743998e-01 1.993470e-01 2.577834e-01 -1.402008e-01 -4.053227e-02 7.351741e-02 -3.586567e-03 -2.195889e-01 5.254015e-02 1.003300e-01 -1.572133e-01 -1.660386e-01 4.619689e-02 -6.456045e-02
<VARIANCE> 39
 7.609557e+01 7.776903e+01 4.373379e+01 4.711436e+01 2.473492e+01 2.943047e+01 6.331747e+01 3.218330e+01 3.063153e+01 3.869641e+01 3.576762e+01 2.117140e+01 2.810814e+01 7.384795e+00 8.669180e+00 3.885405e+00 3.451993e+00 2.247177e+00 2.595995e+00 6.058537e+00 2.267722e+00 2.179888e+00 3.826127e+00 3.276832e+00 2.142688e+00 2.621931e+00 7.744269e-01 1.219323e+00 6.053089e-01 6.412243e-01 3.469403e-01 5.223932e-01 7.986093e-01 4.352860e-01 4.437032e-01 6.017761e-01 5.219898e-01 3.664685e-01 4.183950e-01
<GCONST> 1.278062e+02
<STATE> 3
<MEAN> 39
 -1.213138e+01 -1.429797e+01 5.173893e+00 5.550985e+00 -1.132885e+00 3.182642e+00 3.031104e+00 1.116696e+00 -1.255734e+00 -2.518918e+00 6.352690e+00 2.097542e+00 8.083701e+01 5.360579e-01 5.206309e-01 -5.981767e-01 1.053296e-01 1.122966e-01 1.266123e-01 -2.428031e-01 1.974796e-01 2.034530e-02 -3.143999e-01 -2.518110e-01 4.272734e-01 -3.902914e-01 2.254695e-01 3.749279e-01 -1.078386e-01 7.026948e-02 9.773511e-02 1.397313e-02 -1.568147e-01 -4.294993e-02 6.293926e-02 4.170123e-02 -1.562220e-01 -1.970774e-02 -1.608137e-01
<VARIANCE> 39
 7.681795e+01 6.407559e+01 4.761799e+01 3.449084e+01 2.222227e+01 2.935330e+01 6.319949e+01 2.952312e+01 3.083255e+01 3.345919e+01 2.947094e+01 1.923544e+01 2.934943e+01 5.902639e+00 7.252074e+00 3.347371e+00 2.443054e+00 1.900906e+00 2.424378e+00 4.439644e+00 2.168072e+00 2.328144e+00 2.494592e+00 2.599499e+00 1.885210e+00 2.913810e+00 6.938298e-01 1.047749e+00 5.249988e-01 4.758144e-01 3.477595e-01 5.610999e-01 6.939148e-01 4.098816e-01 4.602135e-01 4.740315e-01 4.664577e-01 3.604567e-01 4.653518e-01
<GCONST> 1.236535e+02
<STATE> 4
<MEAN> 39
 -1.038225e+01 -1.165915e+01 2.095874e+00 6.364985e+00 -7.856784e-01 4.257051e+00 2.712934e+00 7.759348e-01 -1.400456e+00 -2.382082e+00 5.285043e+00 3.558415e+00 7.807468e+01 7.633082e-01 1.458353e+00 -7.140124e-01 1.251522e-01 2.892520e-01 8.911388e-02 -3.931167e-01 6.003642e-02 1.064543e-01 1.796260e-02 -5.609139e-01 2.859138e-01 -8.289303e-01 -5.155304e-02 4.346466e-02 8.749054e-02 -7.544395e-02 -2.652852e-02 -1.219207e-01 -5.215824e-02 3.543139e-03 8.171786e-02 6.552316e-02 -2.236309e-02 -1.326055e-01 4.186469e-02
<VARIANCE> 39
 7.044578e+01 6.293848e+01 4.465817e+01 3.238969e+01 2.338247e+01 2.808202e+01 5.925418e+01 3.022003e+01 2.967164e+01 3.112328e+01 2.777995e+01 1.822226e+01 4.080785e+01 3.219307e+00 5.095725e+00 2.448338e+00 1.888188e+00 1.536692e+00 2.233570e+00 3.674565e+00 1.749468e+00 2.396737e+00 2.192914e+00 2.025254e+00 1.875131e+00 2.529592e+00 4.855998e-01 8.282649e-01 4.179222e-01 3.324459e-01 3.224762e-01 4.564472e-01 5.400444e-01 3.293311e-01 4.554802e-01 3.946114e-01 3.886376e-01 2.812726e-01 3.960550e-01
<GCONST> 1.180536e+02
<TRANSP> 5
 0.000000e+00 1.000000e+00 0.000000e+00 0.000000e+00 0.000000e+00
 0.000000e+00 8.030947e-01 1.969053e-01 0.000000e+00 0.000000e+00
 0.000000e+00 0.000000e+00 7.003983e-01 2.996017e-01 0.000000e+00
 0.000000e+00 0.000000e+00 0.000000e+00 7.422014e-01 2.577986e-01
 0.000000e+00 0.000000e+00 0.000000e+00 0.000000e+00 0.000000e+00
<ENDHMM>
~h "t"
<BEGINHMM>
<NUMSTATES> 5
<STATE> 2
<MEAN> 39
 -7.707654e+00 1.700417e+00 -1.273358e+00 6.428649e+00 5.526544e+00 5.459131e+00 -2.761410e+00 -4.806650e-01 1.438524e+00 -7.617902e-01 7.171028e-01 2.239835e+00 7.115397e+01 -4.307430e-01 -5.601946e-02 -1.059284e-01 1.202690e-01 -1.904343e-02 3.460327e-03 3.984525e-01 1.008303e-01 -1.696323e-01 2.048885e-01 1.472745e-01 2.297575e-01 -3.965268e-01 1.141672e-01 -1.393628e-01 -4.623595e-03 4.943738e-03 -6.751671e-02 -7.620177e-02 -6.872243e-02 3.684487e-02 9.138579e-03 -1.455588e-01 -2.264094e-02 -4.551998e-02 1.889857e-01
<VARIANCE> 39
 6.206936e+01 4.107859e+01 2.577039e+01 3.695560e+01 4.490480e+01 3.610283e+01 7.649204e+01 5.798420e+01 3.172626e+01 4.064564e+01 2.818216e+01 3.229464e+01 5.281667e+01 3.913517e+00 2.735297e+00 1.874497e+00 1.963367e+00 2.091632e+00 2.155046e+00 4.614689e+00 3.328691e+00 2.069788e+00 2.721284e+00 2.034090e+00 2.043897e+00 4.016204e+00 6.196175e-01 5.242533e-01 3.015154e-01 3.579491e-01 3.696407e-01 4.102729e-01 8.165947e-01 6.416730e-01 4.175739e-01 4.589656e-01 3.770402e-01 3.156208e-01 6.943511e-01
<GCONST> 1.225370e+02
<STATE> 3
<MEAN> 39
 -8.565463e+00 1.250908e+00 -1.369365e+00 6.611236e+00 5.056483e+00 5.098606e+00 -1.949343e+00 -8.247507e-02 9.364448e-01 -7.300683e-01 1.184991e+00 2.946254e+00 7.055583e+01 -1.583407e-01 -2.609815e-01 -1.046540e-01 1.003169e-01 -9.333286e-02 -1.126613e-01 2.024305e-01 1.215009e-01 -8.552457e-02 -6.376637e-02 1.122501e-01 1.911440e-01 -2.405169e-02 1.473298e-01 -9.696822e-02 1.869137e-02 -5.145686e-04 -1.811069e-02 -4.738543e-03 -8.032642e-02 2.473136e-02 6.541063e-02 -1.313992e-01 -5.303394e-02 -6.943614e-02 1.868682e-01
<VARIANCE> 39
 5.788538e+01 4.470861e+01 2.481989e+01 3.274393e+01 4.209826e+01 3.362756e+01 6.627032e+01 5.113871e+01 3.373368e+01 3.852924e+01 2.959604e+01 3.317341e+01 5.710730e+01 4.833079e+00 3.073353e+00 1.779734e+00 1.983055e+00 2.543928e+00 2.260559e+00 4.276531e+00 3.498642e+00 2.519239e+00 2.923346e+00 2.057252e+00 2.144317e+00 5.130665e+00 8.119216e-01 6.746957e-01 3.192036e-01 3.376567e-01 4.688471e-01 4.025003e-01 7.415891e-01 6.573427e-01 5.130349e-01 5.175298e-01 4.109767e-01 3.862170e-01 9.744883e-01
<GCONST> 1.248463e+02
<STATE> 4
<MEAN> 39
 -1.193570e+01 1.219729e+00 -1.727828e+00 5.872800e+00 4.282100e+00 5.348152e+00 7.059216e-01 2.039059e+00 1.730299e+00 7.687321e-01 2.387523e+00 4.143381e+00 6.759029e+01 1.658198e-01 -3.756856e-01 -4.095795e-02 6.834303e-02 -8.646885e-02 1.177671e-02 7.129389e-02 1.237980e-01 1.271186e-01 -1.570216e-01 -4.246992e-02 -9.269035e-02 3.193190e-01 2.336506e-01 -6.839390e-02 3.267178e-02 1.080855e-02 -2.235882e-02 -2.058734e-02 -1.406782e-01 -5.677149e-02 1.142289e-02 -1.486361e-01 -8.099175e-02 -8.161651e-02 2.373223e-01
<VARIANCE> 39
 5.326060e+01 2.927599e+01 1.958210e+01 2.569410e+01 2.997087e+01 2.311968e+01 5.265758e+01 3.675774e+01 2.533136e+01 3.315255e+01 2.466885e+01 2.501823e+01 5.489038e+01 3.884809e+00 2.395628e+00 1.386609e+00 1.645752e+00 2.283879e+00 2.019628e+00 2.976648e+00 2.601232e+00 2.216708e+00 2.387373e+00 1.726914e+00 1.567050e+00 3.930486e+00 5.927970e-01 5.245367e-01 2.720157e-01 2.527887e-01 3.548994e-01 3.402900e-01 5.873156e-01 4.538397e-01 3.860334e-01 4.091969e-01 3.351230e-01 3.012107e-01 6.778990e-01
<GCONST> 1.153760e+02
<TRANSP> 5
 0.000000e+00 1.000000e+00 0.000000e+00 0.000000e+00 0.000000e+00
 0.000000e+00 4.106099e-01 5.893900e-01 0.000000e+00 0.000000e+00
 0.000000e+00 0.000000e+00 4.375391e-01 5.624610e-01 0.000000e+00
 0.000000e+00 0.000000e+00 0.000000e+00 6.730021e-01 3.269978e-01
 0.000000e+00 0.000000e+00 0.000000e+00 0.000000e+00 0.000000e+00
<ENDHMM>
~h "v"
<BEGINHMM>
<NUMSTATES> 5
<STATE> 2
<MEAN> 39
 1.304428e+00 2.239874e+00 2.419563e+00 7.571680e+00 6.255372e+00 4.940214e+00 -1.177860e+01 -3.068603e+00 4.800714e+00 -8.011332e+00 -7.097666e+00 -1.125666e+00 7.920010e+01 8.520206e-02 4.409134e-01 -4.475765e-02 -2.994856e-01 -3.635163e-01 5.554302e-02 2.727229e-01 3.295547e-01 1.107705e-01 -3.467945e-01 -4.446125e-01 -6.685595e-02 -2.148068e-01 -6.342711e-02 -5.698528e-02 3.768961e-02 -3.065947e-03 -7.504266e-02 -4.984351e-02 5.064679e-02 8.264092e-02 9.690503e-03 7.351162e-02 1.390189e-01 3.613306e-02 6.212868e-03
<VARIANCE> 39
 1.246963e+01 2.866952e+01 3.291841e+01 2.693321e+01 3.717882e+01 3.613884e+01 5.561407e+01 5.154986e+01 3.667228e+01 4.211913e+01 3.773420e+01 2.046907e+01 1.617106e+01 8.512642e-01 1.346497e+00 1.334612e+00 1.882969e+00 2.234465e+00 2.536499e+00 4.275817e+00 3.212991e+00 2.110380e+00 2.295351e+00 2.276505e+00 1.996674e+00 7.010080e-01 1.369146e-01 2.191544e-01 2.256670e-01 2.644560e-01 2.946169e-01 3.793809e-01 6.136208e-01 5.028998e-01 3.294193e-01 4.460778e-01 3.914524e-01 3.500384e-01 1.008552e-01
<GCONST> 1.085411e+02
<STATE> 3
<MEAN> 39
 1.539297e+00 2.607038e+00 1.166599e+00 6.663881e+00 5.170924e+00 4.388302e+00 -1.013968e+01 -1.484078e+00 3.550506e+00 -9.155380e+00 -7.147049e+00 -8.279591e-01 7.871991e+01 -1.287009e-01 8.737145e-02 8.562915e-02 -1.639007e-01 -2.173639e-01 1.573023e-01 2.417279e-01 2.588517e-02 -1.656153e-01 1.197383e-01 3.273619e-01 1.492417e-01 -9.349937e-02 -6.999543e-02 -7.671695e-02 2.252223e-02 1.835126e-02 -4.215346e-03 3.379554e-02 5.336776e-02 -1.399802e-02 -4.944270e-02 7.347740e-02 1.536979e-01 1.536472e-02 1.078608e-02
<VARIANCE> 39
 1.550435e+01 2.517522e+01 2.956198e+01 1.856272e+01 3.303609e+01 5.014489e+01 6.184066e+01 5.493444e+01 4.933711e+01 5.146569e+01 2.762028e+01 1.972950e+01 1.546607e+01 1.026513e+00 1.652925e+00 1.392447e+00 1.717611e+00 1.587729e+00 3.569243e+00 4.754394e+00 3.407469e+00 2.737758e+00 3.051097e+00 2.195054e+00 1.975962e+00 8.221506e-01 1.736402e-01 3.420157e-01 2.358273e-01 3.130006e-01 2.580728e-01 5.250281e-01 7.588761e-01 5.344636e-01 4.288993e-01 4.911081e-01 4.192024e-01 3.900738e-01 1.517779e-01
<GCONST> 1.121035e+02
<STATE> 4
<MEAN> 39
 8.065443e-01 1.272613e+00 1.008568e+00 5.658142e+00 4.373237e+00 5.183271e+00 -1.038691e+01 -3.491716e+00 1.481735e+00 -8.181226e+00 -4.405259e+00 7.069730e-01 7.896877e+01 -2.381184e-01 4.062254e-02 -1.489954e-02 -2.077435e-01 -2.223178e-01 1.230390e-01 2.750103e-01 7.510222e-04 -7.744499e-02 2.464141e-01 4.693602e-01 1.930858e-01 -1.621611e-01 -4.177265e-02 -1.489171e-02 -1.453107e-02 3.100681e-03 6.377345e-03 1.083408e-02 5.727119e-02 7.212295e-02 5.939032e-02 3.461364e-02 2.442016e-02 2.296170e-03 -4.209162e-02
<VARIANCE> 39
 1.732381e+01 3.114733e+01 3.775519e+01 2.458961e+01 3.616100e+01 6.810642e+01 6.035435e+01 7.093645e+01 6.491064e+01 5.902057e+01 5.026962e+01 3.765769e+01 1.773230e+01 1.402627e+00 2.649926e+00 1.944394e+00 2.356412e+00 1.740689e+00 3.642028e+00 6.000499e+00 5.206823e+00 4.304462e+00 3.588296e+00 4.039276e+00 3.194858e+00 1.362341e+00 2.230489e-01 5.495992e-01 3.473191e-01 4.137023e-01 2.517559e-01 5.956995e-01 1.090678e+00 8.527673e-01 8.316249e-01 5.400456e-01 7.805822e-01 6.457384e-01 2.296072e-01
<GCONST> 1.244067e+02
<TRANSP> 5
 0.000000e+00 1.000000e+00 0.000000e+00 0.000000e+00 0.000000e+00
 0.000000e+00 7.917565e-01 2.082434e-01 0.000000e+00 0.000000e+00
 0.000000e+00 0.000000e+00 6.790720e-01 3.209280e-01 0.000000e+00
 0.000000e+00 0.000000e+00 0.000000e+00 8.363227e-01 1.636773e-01
 0.000000e+00 0.000000e+00 0.000000e+00 0.000000e+00 0.000000e+00
<ENDHMM>
~h "w"
<BEGINHMM>
<NUMSTATES> 5
<STATE> 2
<MEAN> 39
 -3.706007e-01 1.513072e+00 -2.828593e+00 5.519469e+00 4.312569e+00 1.153164e+00 -7.778472e+00 1.606413e+00 3.036226e+00 -5.055545e+00 -2.219595e+00 -2.289634e-01 7.664711e+01 8.162701e-01 2.458826e-01 2.727486e-02 -1.888627e-01 -2.313480e-01 -4.707333e-01 -3.463131e-01 3.855618e-01 9.202632e-02 -5.919908e-01 -6.338970e-01 -6.552422e-01 5.277081e-01 -3.817470e-02 1.345638e-02 7.272651e-02 -2.675731e-02 -4.363206e-02 4.735877e-02 7.546046e-02 4.288440e-02 -1.255793e-02 3.977109e-02 6.145051e-02 8.669635e-03 -2.001465e-02
<VARIANCE> 39
 6.012258e+01 3.598567e+01 2.780948e+01 3.291934e+01 6.302694e+01 7.665543e+01 9.503952e+01 5.024754e+01 4.099981e+01 6.944886e+01 3.459562e+01 3.506328e+01 5.070863e+01 4.637219e+00 3.035078e+00 1.570232e+00 2.511105e+00 4.529825e+00 5.047824e+00 8.331752e+00 3.095106e+00 2.229088e+00 5.282695e+00 3.693211e+00 3.565650e+00 5.253732e+00 5.405977e-01 5.121632e-01 2.451903e-01 3.691500e-01 5.586369e-01 5.719047e-01 1.159343e+00 4.983140e-01 3.838088e-01 8.256673e-01 6.611742e-01 6.120849e-01 6.847359e-01
<GCONST> 1.314014e+02
<STATE> 3
<MEAN> 39
 8.459892e-01 1.941359e+00 -2.008452e+00 5.305813e+00 3.366265e+00 1.748118e-01 -8.345759e+00 2.543477e+00 3.534071e+00 -6.058946e+00 -2.856080e+00 -1.085943e+00 7.750858e+01 4.531744e-01 4.492681e-01 2.128859e-01 -3.122096e-01 -2.967619e-01 -2.555566e-01 -1.508562e-01 3.969798e-01 9.824029e-02 -3.389934e-01 -3.107565e-01 -3.558092e-01 1.766457e-01 -1.387333e-01 5.667774e-02 1.932792e-02 2.294696e-02 5.886240e-02 8.135831e-02 1.978007e-02 -8.372206e-02 -1.687322e-02 1.232819e-01 1.023060e-01 1.014858e-01 -1.347549e-01
<VARIANCE> 39
 4.781406e+01 4.377568e+01 2.965673e+01 4.118351e+01 6.229493e+01 7.859039e+01 8.035977e+01 4.658384e+01 3.799402e+01 6.918703e+01 3.112037e+01 3.457947e+01 4.050053e+01 4.172150e+00 3.297391e+00 1.689785e+00 2.589544e+00 3.583436e+00 4.493876e+00 8.577929e+00 2.768298e+00 2.477234e+00 5.229996e+00 3.250719e+00 3.378406e+00 4.481625e+00 5.164582e-01 5.284575e-01 2.563943e-01 3.801849e-01 5.565446e-01 4.888611e-01 1.210474e+00 4.795499e-01 3.929623e-01 8.745428e-01 6.268900e-01 5.907407e-01 6.523129e-01
<GCONST> 1.302529e+02
<STATE> 4
<MEAN> 39
 3.316430e+00 4.536208e+00 -1.354980e+00 3.267570e+00 9.559774e-02 -2.843685e+00 -1.003352e+01 4.309336e+00 5.029160e+00 -7.172989e+00 -3.995096e+00 -1.913897e+00 7.813850e+01 -4.899115e-02 -5.454179e-04 -5.239327e-02 -9.990482e-02 6.804472e-02 3.967468e-01 1.226130e-01 -1.892394e-01 -2.007973e-01 -1.747886e-01 -2.676419e-03 1.427615e-01 -4.740528e-02 -1.317896e-01 -9.932876e-02 2.950545e-02 9.707969e-02 6.487379e-02 1.298303e-01 7.774109e-02 -1.439978e-01 -5.499689e-02 1.026884e-01 9.269816e-02 9.518625e-02 -5.170232e-02
<VARIANCE> 39
 2.462025e+01 3.377705e+01 3.070335e+01 3.109915e+01 4.840347e+01 8.608353e+01 6.490581e+01 3.832114e+01 3.531773e+01 7.402470e+01 2.878651e+01 3.816216e+01 2.411906e+01 1.906721e+00 2.797030e+00 1.656613e+00 1.852981e+00 2.679096e+00 4.373218e+00 6.634759e+00 2.652559e+00 2.581034e+00 4.126225e+00 2.777050e+00 3.363961e+00 1.893101e+00 2.083697e-01 3.180845e-01 2.502052e-01 2.797641e-01 3.990457e-01 5.677390e-01 9.932836e-01 4.087167e-01 4.240316e-01 6.612080e-01 5.548813e-01 5.706465e-01 2.317214e-01
<GCONST> 1.211889e+02
<TRANSP> 5
 0.000000e+00 1.000000e+00 0.000000e+00 0.000000e+00 0.000000e+00
 0.000000e+00 6.424054e-01 3.575946e-01 0.000000e+00 0.000000e+00
 0.000000e+00 0.000000e+00 6.730124e-01 3.269876e-01 0.000000e+00
 0.000000e+00 0.000000e+00 0.000000e+00 8.267962e-01 1.732037e-01
 0.000000e+00 0.000000e+00 0.000000e+00 0.000000e+00 0.000000e+00
<ENDHMM>
~h "y"
<BEGINHMM>
<NUMSTATES> 5
<STATE> 2
<MEAN> 39
 -3.703594e-02 -5.649440e+00 5.524674e-01 1.222272e+01 8.759140e+00 4.851441e+00 -1.370056e+01 -4.794384e+00 2.559454e+00 -8.200881e+00 -3.827822e+00 -3.018689e-01 8.141001e+01 2.757529e-01 6.760816e-02 -2.214963e-01 -2.122718e-02 2.478981e-01 -7.059431e-03 -4.304589e-01 -1.536172e-01 3.229526e-03 -2.667115e-01 -1.121642e-01 1.398138e-01 6.601764e-02 -1.050382e-01 8.149096e-02 1.621817e-02 -4.928621e-02 -4.395431e-02 -3.241711e-02 9.005722e-02 6.402435e-02 4.192730e-02 4.972507e-02 3.459638e-02 -1.464126e-02 -9.444244e-02
<VARIANCE> 39
 4.460273e+01 4.733506e+01 1.865918e+01 4.206932e+01 5.043422e+01 5.064177e+01 1.027030e+02 5.494377e+01 3.071031e+01 5.893328e+01 3.628555e+01 2.583543e+01 5.726944e+01 2.656600e+00 3.141981e+00 1.355386e+00 2.251355e+00 3.633890e+00 3.307782e+00 7.508227e+00 3.804149e+00 2.119442e+00 4.243814e+00 1.952226e+00 2.807769e+00 3.088646e+00 3.222554e-01 4.717224e-01 2.692212e-01 3.232977e-01 5.275888e-01 4.938726e-01 1.064234e+00 6.827221e-01 3.863076e-01 6.492589e-01 3.036824e-01 5.230533e-01 4.573724e-01
<GCONST> 1.249807e+02
<STATE> 3
<MEAN> 39
 1.081175e+00 -2.294267e+00 2.160540e-01 1.031726e+01 7.899997e+00 3.329237e+00 -1.419644e+01 -4.193989e+00 2.862622e+00 -7.104211e+00 -4.175392e+00 -1.471029e+00 8.042348e+01 3.882273e-02 4.389634e-01 -1.298393e-01 -3.507143e-01 -1.791559e-01 -1.577730e-01 5.708747e-02 3.284195e-01 1.805057e-01 -1.520711e-01 -1.637349e-01 -5.185285e-02 -1.749208e-01 -1.270737e-01 5.706968e-02 2.512202e-02 -6.953710e-02 -1.080196e-01 5.145962e-02 2.412150e-01 8.179718e-02 1.379889e-02 8.470932e-02 3.495742e-02 -2.479280e-02 -1.127461e-01
<VARIANCE> 39
 3.497087e+01 4.538704e+01 1.947077e+01 4.933025e+01 6.704095e+01 8.667928e+01 6.909738e+01 7.326362e+01 3.257374e+01 5.926807e+01 4.909133e+01 2.487348e+01 3.709150e+01 1.524805e+00 2.293972e+00 1.368819e+00 2.385734e+00 3.998825e+00 4.387420e+00 5.364009e+00 3.723730e+00 2.367049e+00 3.810230e+00 2.055885e+00 2.569994e+00 1.534580e+00 1.736180e-01 3.227932e-01 2.479273e-01 3.555702e-01 5.863410e-01 7.012237e-01 8.316463e-01 6.592569e-01 4.345453e-01 7.000363e-01 3.584752e-01 4.802898e-01 2.194170e-01
<GCONST> 1.227188e+02
<STATE> 4
<MEAN> 39
 -6.693711e-01 -2.415769e+00 1.064515e+00 1.039957e+01 6.455615e+00 5.021716e+00 -1.045752e+01 -2.568531e+00 5.478267e+00 -5.894426e+00 -6.132277e+00 -2.814551e+00 7.945322e+01 -9.777454e-02 1.503470e-01 -8.116519e-02 -1.343059e-01 -8.354859e-02 -1.703710e-02 2.773051e-01 2.161265e-01 -3.523695e-02 8.190288e-02 6.680265e-02 -2.594851e-05 -1.587875e-01 -5.946375e-02 -8.522511e-03 2.002073e-02 1.834883e-02 2.212837e-02 3.180028e-02 5.177461e-02 2.323436e-03 -2.018226e-02 4.729763e-02 4.058632e-02 2.464569e-02 -4.095734e-02
<VARIANCE> 39
 4.084414e+01 5.655293e+01 3.613263e+01 7.756387e+01 6.649855e+01 7.869347e+01 6.582991e+01 4.303461e+01 3.052336e+01 6.446937e+01 4.840828e+01 2.422305e+01 3.093020e+01 1.167535e+00 2.984330e+00 1.882020e+00 2.391231e+00 3.307553e+00 3.581136e+00 4.308962e+00 2.807769e+00 2.165332e+00 3.211898e+00 1.732668e+00 1.998957e+00 1.570770e+00 1.400060e-01 4.112725e-01 3.397256e-01 3.504303e-01 5.618565e-01 5.941184e-01 7.365503e-01 4.534299e-01 4.222979e-01 4.851418e-01 2.813507e-01 3.667047e-01 1.871133e-01
<GCONST> 1.205969e+02
<TRANSP> 5
 0.000000e+00 1.000000e+00 0.000000e+00 0.000000e+00 0.000000e+00
 0.000000e+00 8.446947e-01 1.553053e-01 0.000000e+00 0.000000e+00
 0.000000e+00 0.000000e+00 7.088659e-01 2.911341e-01 0.000000e+00
 0.000000e+00 0.000000e+00 0.000000e+00 9.109468e-01 8.905315e-02
 0.000000e+00 0.000000e+00 0.000000e+00 0.000000e+00 0.000000e+00
<ENDHMM>
~h "z"
<BEGINHMM>
<NUMSTATES> 5
<STATE> 2
<MEAN> 39
 -7.933896e+00 -8.239370e+00 8.624777e+00 1.230309e+01 5.416934e+00 7.150674e+00 -3.430882e+00 -3.171644e+00 3.343431e+00 -7.826914e-01 1.044520e+00 -2.464656e+00 7.995579e+01 -4.539254e-01 -5.767756e-01 4.771309e-01 -1.753482e-01 -2.807109e-01 -1.195271e-01 9.167525e-02 -1.345324e-01 -1.956199e-01 1.246108e-01 3.319166e-01 -1.535590e-01 3.071798e-01 3.277397e-03 9.039412e-02 -9.386556e-02 -7.958083e-02 2.266032e-02 -7.614854e-03 -2.733878e-02 2.466401e-02 1.162428e-02 -4.757772e-02 -5.031357e-03 8.019957e-02 -5.380976e-02
<VARIANCE> 39
 5.750284e+01 4.868009e+01 4.202776e+01 3.950307e+01 3.703971e+01 3.531421e+01 1.049510e+02 4.014007e+01 5.334655e+01 4.905819e+01 4.190376e+01 2.165113e+01 3.458362e+01 4.536709e+00 5.777017e+00 3.768378e+00 2.689497e+00 2.965044e+00 3.109533e+00 7.604838e+00 3.383155e+00 2.650178e+00 3.357703e+00 3.426445e+00 1.683958e+00 3.401401e+00 5.071083e-01 9.143605e-01 6.308941e-01 4.759786e-01 6.171721e-01 5.857504e-01 8.946696e-01 5.372662e-01 4.587736e-01 4.494858e-01 5.202737e-01 2.683579e-01 5.576537e-01
<GCONST> 1.291353e+02
<STATE> 3
<MEAN> 39
 -9.368101e+00 -9.535500e+00 1.004540e+01 9.742898e+00 3.686667e+00 6.318729e+00 -2.739544e+00 -2.881947e+00 5.401280e-01 -2.225328e+00 2.809108e+00 -2.333784e+00 8.120808e+01 -7.222058e-01 -6.076058e-01 -6.529912e-02 -5.931855e-01 -3.604504e-01 -2.216313e-01 6.124811e-01 2.728538e-01 -2.252955e-01 1.273590e-01 5.324280e-01 2.320380e-01 5.929291e-02 1.381055e-01 1.260873e-01 -2.478385e-01 -3.634642e-02 5.847514e-02 -4.437189e-03 -8.009323e-02 5.540669e-02 7.456263e-02 -5.806391e-02 -1.171044e-01 7.014998e-02 -8.997683e-02
<VARIANCE> 39
 7.329070e+01 5.226250e+01 3.666839e+01 4.962107e+01 4.107127e+01 2.622976e+01 1.337006e+02 3.859881e+01 5.686200e+01 3.301215e+01 5.282735e+01 1.863630e+01 1.811505e+01 3.873698e+00 3.661212e+00 3.335430e+00 2.507153e+00 2.225833e+00 2.062268e+00 6.264193e+00 2.877044e+00 2.529274e+00 2.283147e+00 2.575622e+00 1.490297e+00 1.425160e+00 4.645752e-01 6.349457e-01 5.436997e-01 4.241234e-01 4.004399e-01 4.192668e-01 8.740833e-01 4.433841e-01 4.070997e-01 3.558857e-01 4.387703e-01 2.606377e-01 2.489207e-01
<GCONST> 1.220247e+02
<STATE> 4
<MEAN> 39
 -1.457680e+01 -1.277608e+01 6.893384e+00 5.010122e+00 5.339935e-01 5.861963e+00 3.810498e+00 2.774179e-02 -2.050496e+00 -6.135607e-01 6.477778e+00 5.635963e-01 7.922945e+01 -5.781413e-02 4.643496e-01 -7.083249e-01 -2.501175e-01 1.362386e-02 1.746805e-02 1.907847e-01 2.350505e-01 1.353317e-01 7.789483e-02 -1.589433e-01 3.692244e-01 -5.903159e-01 1.032349e-01 2.112503e-01 -1.048763e-02 5.503115e-02 7.684952e-02 2.906514e-02 -1.061239e-01 -1.343601e-02 5.721443e-02 -1.100282e-02 -7.368217e-02 -2.959357e-03 -8.311240e-02
<VARIANCE> 39
 5.447634e+01 5.496264e+01 4.268424e+01 4.195195e+01 3.077901e+01 2.184803e+01 6.591324e+01 2.978413e+01 5.637172e+01 2.685491e+01 3.209417e+01 2.149151e+01 3.739889e+01 2.283920e+00 3.859560e+00 2.435499e+00 1.751922e+00 1.668378e+00 1.566006e+00 2.642321e+00 1.841784e+00 2.118454e+00 1.450783e+00 1.965126e+00 1.353111e+00 1.521024e+00 3.091492e-01 5.355272e-01 4.764645e-01 3.195656e-01 2.792350e-01 2.936074e-01 4.382153e-01 3.228043e-01 3.682774e-01 2.811230e-01 3.340504e-01 2.429318e-01 1.963660e-01
<GCONST> 1.128912e+02
<TRANSP> 5
 0.000000e+00 1.000000e+00 0.000000e+00 0.000000e+00 0.000000e+00
 0.000000e+00 8.112469e-01 1.887530e-01 0.000000e+00 0.000000e+00
 0.000000e+00 0.000000e+00 7.295952e-01 2.704048e-01 0.000000e+00
 0.000000e+00 0.000000e+00 0.000000e+00 8.631564e-01 1.368436e-01
 0.000000e+00 0.000000e+00 0.000000e+00 0.000000e+00 0.000000e+00
<ENDHMM>
~h "aa"
<BEGINHMM>
<NUMSTATES> 5
<STATE> 2
<MEAN> 39
 1.129410e-01 -2.164632e+00 -2.452942e+00 -5.903506e-01 -2.844434e+00 7.012258e+00 -2.265949e+00 -1.086479e+00 6.956389e+00 4.745584e-01 1.013309e+00 5.883394e-01 8.217357e+01 5.256856e-01 -1.736256e-01 -1.337570e-01 -2.557246e-01 -6.932898e-02 8.875167e-02 -4.420356e-01 -3.649787e-01 2.800530e-01 1.335428e-01 -8.821097e-02 -2.091128e-01 5.831704e-01 -1.545485e-01 1.304604e-01 5.976802e-02 7.327559e-02 1.516256e-01 6.872674e-02 6.540582e-02 4.737755e-02 -1.817617e-02 7.963173e-02 -5.393431e-02 -3.460982e-02 -2.077277e-01
<VARIANCE> 39
 5.590847e+01 3.892670e+01 5.522059e+01 7.877278e+01 5.590424e+01 3.344659e+01 7.570937e+01 5.114645e+01 4.472311e+01 4.401196e+01 5.305729e+01 3.702274e+01 3.442690e+01 3.665906e+00 4.016914e+00 3.221126e+00 4.363199e+00 4.261526e+00 2.592587e+00 6.850373e+00 4.670668e+00 3.714280e+00 5.309318e+00 4.211318e+00 2.721965e+00 4.212816e+00 4.056188e-01 7.406050e-01 6.329954e-01 6.781988e-01 6.001741e-01 4.844306e-01 1.260944e+00 8.548834e-01 6.861986e-01 9.839729e-01 7.214575e-01 4.074584e-01 5.060274e-01
<GCONST> 1.347950e+02
<STATE> 3
<MEAN> 39
 3.243618e+00 -7.212726e-01 -3.608947e+00 -1.370484e+00 -1.423426e+00 6.926239e+00 -5.613863e+00 -2.439559e+00 7.457342e+00 9.406352e-01 -1.965934e+00 -1.258596e+00 8.300364e+01 -1.982851e-01 4.711893e-01 1.273906e-01 -8.616969e-04 3.500561e-01 9.952690e-02 2.868456e-01 2.890336e-01 -1.788256e-01 6.685328e-02 -1.000121e-01 -1.475954e-01 -4.268833e-01 -1.912061e-01 6.072565e-03 1.270907e-01 7.968456e-02 -1.917600e-03 5.668838e-02 1.738800e-01 4.902841e-02 -1.111232e-01 -4.009863e-02 8.427397e-02 3.859428e-02 -1.268857e-01
<VARIANCE> 39
 2.086439e+01 2.158544e+01 3.329762e+01 8.670041e+01 9.861395e+01 3.610377e+01 7.110339e+01 3.849635e+01 5.292713e+01 5.110420e+01 3.799652e+01 3.590603e+01 1.807935e+01 1.589538e+00 2.215614e+00 2.379678e+00 2.777610e+00 3.204092e+00 3.334180e+00 6.171935e+00 3.689027e+00 3.113945e+00 3.652044e+00 2.766794e+00 3.131165e+00 1.568259e+00 2.200765e-01 3.705559e-01 3.811780e-01 4.766141e-01 4.285889e-01 5.791368e-01 1.056030e+00 7.044916e-01 6.249667e-01 5.394458e-01 4.740533e-01 4.978040e-01 1.684013e-01
<GCONST> 1.233313e+02
<STATE> 4
<MEAN> 39
 1.025539e+00 1.019382e+00 -3.093218e+00 -2.912828e+00 -3.821447e+00 5.413287e+00 -1.731574e+00 -5.462949e-01 4.515037e+00 1.923095e+00 -1.230613e+00 -3.853544e-01 8.105012e+01 -4.105421e-01 1.642645e-01 2.552314e-01 2.880290e-01 2.556306e-01 1.325128e-02 3.125804e-01 2.249370e-01 -3.898644e-01 -2.083802e-01 2.486641e-01 2.425561e-01 -3.886667e-01 -9.983506e-02 -5.284082e-02 3.154793e-02 3.055853e-02 -3.869845e-02 8.780110e-03 7.122870e-02 -3.907661e-02 8.444455e-03 8.458988e-02 5.585425e-02 2.297041e-02 -2.776086e-02
<VARIANCE> 39
 5.151972e+01 1.670522e+01 2.051889e+01 6.545322e+01 8.086255e+01 2.860053e+01 3.481565e+01 2.729310e+01 4.066698e+01 5.578839e+01 4.441318e+01 3.080615e+01 3.832993e+01 2.580038e+00 1.520468e+00 1.320067e+00 2.806369e+00 2.753424e+00 2.250689e+00 4.078990e+00 2.090795e+00 2.018033e+00 3.556983e+00 1.763433e+00 2.187033e+00 1.955687e+00 3.131215e-01 2.666852e-01 2.080969e-01 4.183916e-01 3.471892e-01 4.199971e-01 6.601196e-01 4.006065e-01 3.775803e-01 5.288696e-01 3.068056e-01 4.212845e-01 2.396502e-01
<GCONST> 1.162054e+02
<TRANSP> 5
 0.000000e+00 1.000000e+00 0.000000e+00 0.000000e+00 0.000000e+00
 0.000000e+00 9.089810e-01 9.101900e-02 0.000000e+00 0.000000e+00
 0.000000e+00 0.000000e+00 7.516615e-01 2.483385e-01 0.000000e+00
 0.000000e+00 0.000000e+00 0.000000e+00 9.106057e-01 8.939426e-02
 0.000000e+00 0.000000e+00 0.000000e+00 0.000000e+00 0.000000e+00
<ENDHMM>
~h "ae"
<BEGINHMM>
<NUMSTATES> 5
<STATE> 2
<MEAN> 39
 -5.088114e+00 -2.721373e+00 -3.313482e+00 3.722821e+00 3.075950e+00 3.699371e+00 -4.727517e+00 8.876747e-01 2.871852e+00 -1.916832e+00 3.765574e+00 4.184535e+00 7.608781e+01 9.222907e-01 -9.847851e-02 -5.883551e-01 -2.505125e-01 1.962880e-01 -3.623658e-01 -8.776923e-01 -1.995302e-01 3.519590e-03 -3.635812e-01 1.565516e-01 2.428611e-01 7.229209e-01 7.018168e-02 -9.392370e-03 5.740233e-02 8.595517e-02 3.235399e-02 4.846120e-02 9.480391e-03 -1.139875e-01 -4.483238e-02 2.198764e-02 -9.927011e-02 -4.651604e-02 4.125249e-03
<VARIANCE> 39
 9.047918e+01 3.875378e+01 2.648209e+01 4.744555e+01 2.494202e+01 3.432576e+01 8.686166e+01 3.635820e+01 2.887464e+01 5.934900e+01 2.848664e+01 2.163233e+01 8.939771e+01 3.750987e+00 3.426790e+00 2.815108e+00 1.922063e+00 2.008295e+00 2.570601e+00 5.529089e+00 2.798515e+00 1.802589e+00 2.202606e+00 2.273988e+00 1.584038e+00 3.946746e+00 5.451275e-01 5.855005e-01 4.176399e-01 3.433861e-01 4.167842e-01 5.243467e-01 1.103014e+00 5.976361e-01 3.674930e-01 3.978034e-01 4.096929e-01 3.468424e-01 6.306013e-01
<GCONST> 1.234480e+02
<STATE> 3
<MEAN> 39
 -2.335065e+00 -3.192908e+00 -4.739891e+00 3.248920e+00 3.657817e+00 3.032680e+00 -7.085717e+00 -1.709229e-01 2.666364e+00 -2.748796e+00 4.075490e+00 4.687542e+00 7.814555e+01 8.205678e-01 -2.201130e-02 -4.044943e-01 -1.623877e-01 3.054830e-01 4.317250e-02 -7.240655e-01 -4.721735e-01 -1.377426e-01 -3.028134e-01 4.976670e-02 3.138798e-01 5.163581e-01 -2.168385e-01 7.092594e-02 1.024544e-01 2.007477e-02 1.135722e-02 1.808387e-01 2.282593e-01 5.745923e-03 1.380351e-02 1.260668e-01 -9.455812e-03 1.565251e-02 -2.176176e-01
<VARIANCE> 39
 8.853799e+01 3.028206e+01 3.162198e+01 4.561422e+01 2.998346e+01 3.468821e+01 9.518924e+01 3.414912e+01 3.508485e+01 5.825792e+01 2.714790e+01 1.948535e+01 7.800487e+01 4.496250e+00 3.560242e+00 2.329196e+00 2.120306e+00 2.300543e+00 2.858048e+00 7.170827e+00 2.863092e+00 2.055572e+00 2.216989e+00 1.970949e+00 1.609127e+00 5.093036e+00 4.939831e-01 4.983719e-01 4.594068e-01 3.267772e-01 4.717741e-01 5.476809e-01 1.092412e+00 5.566324e-01 4.006878e-01 3.604207e-01 3.897817e-01 3.382768e-01 5.150660e-01
<GCONST> 1.239301e+02
<STATE> 4
<MEAN> 39
 -1.305843e+00 -2.949489e+00 -5.964112e+00 1.671177e+00 3.767305e+00 4.327822e+00 -7.202163e+00 -1.453330e+00 3.057511e+00 -1.106730e+00 5.151644e+00 5.515102e+00 7.855643e+01 2.100503e-01 2.977677e-01 6.989144e-03 -3.922410e-02 3.857425e-01 3.798035e-01 -1.780741e-01 -3.882649e-01 -1.131834e-01 -5.505614e-02 -6.346635e-02 5.843071e-02 -1.561432e-02 -1.944757e-01 9.408825e-02 1.131899e-01 1.634475e-02 -1.267230e-02 8.249152e-02 1.733332e-01 3.788656e-02 2.243199e-02 1.059682e-01 -1.942036e-02 -8.167062e-02 -1.705116e-01
<VARIANCE> 39
 8.514899e+01 2.415956e+01 2.773947e+01 4.200128e+01 3.227364e+01 2.755984e+01 9.317225e+01 3.482936e+01 3.335910e+01 5.006789e+01 2.321750e+01 1.868227e+01 7.976416e+01 4.389309e+00 2.238141e+00 2.157385e+00 2.268239e+00 1.830343e+00 2.574654e+00 6.623886e+00 2.717187e+00 2.052206e+00 2.123282e+00 1.661240e+00 1.839115e+00 4.854538e+00 5.579698e-01 3.857894e-01 4.329536e-01 3.796263e-01 3.707960e-01 4.536946e-01 1.014849e+00 4.839571e-01 4.040820e-01 3.617714e-01 3.277390e-01 3.375693e-01 4.848480e-01
<GCONST> 1.209131e+02
<TRANSP> 5
 0.000000e+00 1.000000e+00 0.000000e+00 0.000000e+00 0.000000e+00
 0.000000e+00 6.030467e-01 3.969533e-01 0.000000e+00 0.000000e+00
 0.000000e+00 0.000000e+00 6.289914e-01 3.710086e-01 0.000000e+00
 0.000000e+00 0.000000e+00 0.000000e+00 8.182375e-01 1.817626e-01
 0.000000e+00 0.000000e+00 0.000000e+00 0.000000e+00 0.000000e+00
<ENDHMM>
~h "ah"
<BEGINHMM>
<NUMSTATES> 5
<STATE> 2
<MEAN> 39
 -3.993566e+00 -1.848087e+00 -4.569899e-01 5.949722e+00 2.502569e+00 3.285654e+00 -3.739784e+00 -4.811990e-01 -5.463867e-01 -4.093068e+00 1.676311e+00 2.388885e+00 7.710309e+01 5.371810e-01 -2.433584e-01 -1.587550e-01 -5.510033e-03 -3.134460e-03 -1.643684e-01 -3.262865e-01 -1.460964e-02 -5.654185e-02 -4.446494e-01 -9.569503e-02 -8.608361e-02 5.094935e-01 -6.724706e-02 2.747227e-02 6.215094e-02 1.411970e-02 4.246734e-02 5.353085e-02 4.323283e-02 -7.099469e-03 2.766182e-02 5.957163e-02 2.295309e-02 1.977219e-02 -3.928918e-02
<VARIANCE> 39
 7.220904e+01 5.460073e+01 3.661080e+01 5.065887e+01 4.783022e+01 3.854213e+01 8.233002e+01 5.032676e+01 3.420963e+01 4.927380e+01 2.063323e+01 2.186908e+01 7.602207e+01 6.530559e+00 7.585876e+00 3.536670e+00 3.909309e+00 4.412958e+00 4.255863e+00 8.989869e+00 3.195813e+00 3.125550e+00 5.171788e+00 2.099193e+00 2.005670e+00 8.079720e+00 8.931865e-01 1.375581e+00 6.440108e-01 6.946105e-01 8.052211e-01 8.005319e-01 1.467503e+00 5.664061e-01 6.039982e-01 8.636678e-01 4.026855e-01 3.401032e-01 1.190655e+00
<GCONST> 1.366468e+02
<STATE> 3
<MEAN> 39
 -3.833761e-01 -1.475002e+00 -1.465035e+00 4.245142e+00 1.964704e+00 2.109645e+00 -6.454068e+00 9.385219e-01 7.071316e-01 -5.370537e+00 1.627843e+00 2.632586e+00 7.931615e+01 -2.687352e-01 4.079981e-01 1.449996e-02 -5.899435e-03 1.280587e-01 1.735108e-01 9.326408e-03 2.545435e-02 2.520753e-01 2.809735e-01 1.480522e-01 3.292969e-01 -5.200471e-01 -1.833272e-01 4.849169e-02 -1.935029e-02 -6.792507e-02 -5.229015e-02 7.452319e-02 6.377606e-02 -6.096781e-02 9.296561e-02 9.530788e-02 -8.630359e-02 4.204235e-02 -1.822121e-01
<VARIANCE> 39
 4.776486e+01 4.128985e+01 4.412217e+01 4.858826e+01 4.818569e+01 3.463584e+01 9.248695e+01 4.950063e+01 4.471540e+01 5.090398e+01 2.494451e+01 2.241843e+01 4.141727e+01 4.377696e+00 5.141125e+00 3.272130e+00 3.873562e+00 3.932902e+00 3.386250e+00 8.324302e+00 3.644209e+00 2.967976e+00 4.939537e+00 2.532888e+00 2.172129e+00 4.612387e+00 5.885306e-01 8.774464e-01 5.626733e-01 8.218361e-01 6.735490e-01 6.323501e-01 1.408634e+00 5.986837e-01 5.410240e-01 8.424209e-01 5.028750e-01 3.653208e-01 7.940028e-01
<GCONST> 1.329709e+02
<STATE> 4
<MEAN> 39
 -1.336366e+00 -5.656700e-01 -1.378732e+00 4.173477e+00 1.700739e+00 2.158327e+00 -6.350424e+00 9.547354e-01 1.416504e+00 -4.427423e+00 1.930517e+00 3.644647e+00 7.755864e+01 -4.892140e-01 3.679954e-01 -8.754655e-02 -1.576144e-01 4.373912e-02 4.194347e-01 7.675506e-02 -2.829566e-01 3.920654e-01 2.503892e-01 -1.947236e-01 3.339054e-01 -6.683365e-01 1.897920e-02 -1.471899e-01 8.589372e-03 7.606879e-03 -1.588533e-02 3.984644e-02 8.659347e-03 -4.565461e-02 5.165717e-02 -1.342405e-01 -2.107104e-01 -1.353968e-01 1.143393e-01
<VARIANCE> 39
 5.170345e+01 4.204605e+01 4.659798e+01 3.950055e+01 5.222536e+01 3.276968e+01 9.707690e+01 5.423271e+01 5.174295e+01 5.075084e+01 2.888701e+01 3.024619e+01 4.401700e+01 1.774751e+00 2.709550e+00 1.941960e+00 2.748922e+00 3.563777e+00 3.090355e+00 5.760230e+00 3.226544e+00 2.382731e+00 3.253697e+00 2.291565e+00 1.812756e+00 1.939020e+00 3.508718e-01 5.706872e-01 4.022753e-01 6.100986e-01 4.562293e-01 5.064177e-01 1.241180e+00 6.578374e-01 4.196883e-01 6.214854e-01 4.697252e-01 4.635697e-01 5.018170e-01
<GCONST> 1.257863e+02
<TRANSP> 5
 0.000000e+00 1.000000e+00 0.000000e+00 0.000000e+00 0.000000e+00
 0.000000e+00 8.277619e-01 1.722382e-01 0.000000e+00 0.000000e+00
 0.000000e+00 0.000000e+00 5.291960e-01 4.708041e-01 0.000000e+00
 0.000000e+00 0.000000e+00 0.000000e+00 4.309218e-01 5.690783e-01
 0.000000e+00 0.000000e+00 0.000000e+00 0.000000e+00 0.000000e+00
<ENDHMM>
~h "ao"
<BEGINHMM>
<NUMSTATES> 5
<STATE> 2
<MEAN> 39
 -6.055146e+00 3.059271e+00 -2.503310e+00 2.612635e+00 -1.596133e+00 -1.637295e+00 -2.716059e+00 5.509554e+00 5.231368e+00 8.796086e-01 2.547363e-01 7.805751e-01 7.069737e+01 5.430910e-01 2.350831e-01 -7.287858e-02 -1.990967e-01 -3.660162e-01 -4.186019e-01 -1.775636e-01 4.472516e-02 1.467254e-01 2.490092e-01 3.408305e-02 -1.757690e-01 3.125857e-01 3.756695e-03 -8.087514e-02 -1.420428e-02 5.634283e-02 4.710728e-02 6.884148e-02 5.041237e-02 -7.488199e-02 -6.913815e-02 -4.801719e-02 -2.230894e-02 -3.341590e-02 3.724168e-02
<VARIANCE> 39
 1.350560e+02 1.880834e+01 1.516788e+01 3.736377e+01 4.932214e+01 8.934457e+01 7.375600e+01 2.727822e+01 1.816690e+01 6.711413e+01 3.326240e+01 3.545149e+01 9.983957e+01 2.878773e+00 8.677629e-01 8.651382e-01 1.210382e+00 2.315685e+00 3.876105e+00 3.131339e+00 1.437286e+00 1.149439e+00 1.994134e+00 1.241500e+00 1.735002e+00 1.439785e+00 4.199817e-01 1.885600e-01 1.302390e-01 2.250563e-01 3.304803e-01 5.439473e-01 5.587743e-01 2.969187e-01 2.256730e-01 3.221966e-01 2.233047e-01 2.740456e-01 2.081574e-01
<GCONST> 1.106961e+02
<STATE> 3
<MEAN> 39
 1.329254e+00 3.864337e+00 -3.427285e+00 1.447436e+00 -4.938928e+00 -6.582978e+00 -6.448245e+00 5.131789e+00 6.296753e+00 2.375740e-01 -1.719092e+00 -2.122534e+00 7.670975e+01 6.375142e-01 -1.073445e-02 -2.365855e-01 -2.142284e-01 -2.813456e-01 -2.697028e-01 -2.789323e-01 -1.358726e-01 3.584982e-02 -2.891483e-02 -1.596721e-01 -2.863767e-01 4.852574e-01 -1.134211e-01 -6.057572e-02 2.124309e-02 4.563826e-02 1.354596e-01 1.987109e-01 1.048340e-01 -2.988213e-02 -6.807838e-02 -5.599223e-02 -1.729393e-03 4.100671e-02 -5.840295e-02
<VARIANCE> 39
 8.381924e+01 2.513177e+01 2.295235e+01 4.178088e+01 6.116809e+01 1.015406e+02 6.157843e+01 3.161606e+01 2.384070e+01 8.749519e+01 3.092464e+01 3.999874e+01 5.382425e+01 3.116645e+00 9.781599e-01 1.043489e+00 1.244597e+00 3.095394e+00 5.739859e+00 4.012097e+00 2.006088e+00 1.831354e+00 2.143615e+00 1.394390e+00 2.055146e+00 1.702640e+00 4.152697e-01 1.996079e-01 1.760446e-01 2.428411e-01 4.459256e-01 7.728983e-01 7.269508e-01 3.824509e-01 2.874915e-01 3.065286e-01 2.409534e-01 3.293738e-01 2.026271e-01
<GCONST> 1.159975e+02
<STATE> 4
<MEAN> 39
 3.754080e+00 2.986618e+00 -5.020312e+00 5.739465e-01 -4.249350e+00 -5.550745e+00 -6.910466e+00 5.161754e+00 5.636351e+00 -2.280982e+00 -2.638155e+00 -1.366607e+00 7.838108e+01 -1.477576e-01 -9.461664e-02 3.359220e-02 2.367247e-02 4.052619e-01 7.043620e-01 2.707130e-01 -2.104855e-01 -3.700491e-01 -2.599837e-01 5.421229e-05 1.303059e-01 -6.655888e-02 -8.241321e-02 3.241328e-03 4.951964e-02 8.468384e-02 9.691779e-02 1.127508e-01 8.327348e-02 -3.266558e-02 -8.254953e-02 -1.999752e-02 3.474268e-02 6.662146e-02 -7.077140e-02
<VARIANCE> 39
 3.882571e+01 2.803598e+01 2.768209e+01 3.386859e+01 4.706199e+01 8.168762e+01 4.959850e+01 3.053018e+01 3.728855e+01 8.173419e+01 3.611526e+01 3.951053e+01 2.689811e+01 1.466123e+00 1.420229e+00 1.504709e+00 1.513205e+00 2.386875e+00 4.724397e+00 3.183986e+00 2.243406e+00 2.805346e+00 2.839779e+00 1.780525e+00 1.990743e+00 9.455011e-01 1.895294e-01 2.779385e-01 2.484507e-01 2.182953e-01 2.936028e-01 5.991396e-01 5.311981e-01 3.543057e-01 3.886791e-01 3.700651e-01 3.157680e-01 2.746642e-01 1.255425e-01
<GCONST> 1.131722e+02
<TRANSP> 5
 0.000000e+00 1.000000e+00 0.000000e+00 0.000000e+00 0.000000e+00
 0.000000e+00 7.591736e-01 2.408264e-01 0.000000e+00 0.000000e+00
 0.000000e+00 0.000000e+00 7.184148e-01 2.815852e-01 0.000000e+00
 0.000000e+00 0.000000e+00 0.000000e+00 8.890271e-01 1.109729e-01
 0.000000e+00 0.000000e+00 0.000000e+00 0.000000e+00 0.000000e+00
<ENDHMM>
~h "aw"
<BEGINHMM>
<NUMSTATES> 5
<STATE> 2
<MEAN> 39
 6.361403e+00 5.925303e+00 -3.160314e+00 4.132476e-01 -8.488146e+00 -1.346173e+01 -1.079211e+01 8.008291e+00 7.673109e+00 -1.180526e+00 -3.848161e+00 -6.444822e+00 7.983093e+01 -2.282190e-01 6.496647e-01 2.806109e-01 8.904560e-02 1.513298e-01 1.211107e-01 9.683341e-02 -6.770306e-02 1.342518e-01 2.056040e-01 -1.930856e-01 -3.497087e-01 -4.431012e-01 -2.005674e-01 -4.892725e-03 7.195602e-02 7.426597e-02 1.190344e-01 2.304719e-01 1.871390e-01 -5.636072e-02 -4.728480e-02 4.104541e-02 1.975594e-02 5.225168e-02 -1.398570e-01
<VARIANCE> 39
 1.011137e+01 2.984344e+01 2.190609e+01 1.798818e+01 2.773745e+01 6.569304e+01 3.991865e+01 2.996861e+01 3.409337e+01 3.479271e+01 2.145011e+01 2.798684e+01 1.372247e+01 1.135232e+00 9.454117e-01 9.807162e-01 1.004238e+00 1.672488e+00 4.627144e+00 2.917116e+00 1.676491e+00 2.113829e+00 1.140655e+00 1.128574e+00 1.901649e+00 6.981353e-01 1.555849e-01 1.238496e-01 1.479210e-01 1.718177e-01 2.279282e-01 4.600800e-01 3.931374e-01 3.025229e-01 3.406228e-01 2.534196e-01 1.882801e-01 3.653048e-01 1.074218e-01
<GCONST> 9.966309e+01
<STATE> 3
<MEAN> 39
 5.022707e-01 1.089862e+01 -1.328649e-01 1.480133e+00 -3.138917e+00 -4.775332e+00 -6.117401e+00 5.011344e+00 6.224414e+00 -1.103544e-02 -3.669565e+00 -6.300276e+00 7.402956e+01 -1.514086e+00 8.542527e-02 5.429090e-01 4.203004e-01 4.889823e-01 1.423716e+00 1.541177e+00 -5.199966e-02 -2.941996e-01 2.672887e-01 2.481170e-01 5.125021e-01 -1.138149e+00 -1.093614e-01 -2.859702e-01 -9.225873e-02 2.079462e-02 -4.322111e-02 -7.602182e-02 7.151962e-03 6.825389e-02 1.394779e-02 -9.874715e-03 7.344598e-02 1.461735e-01 2.069168e-02
<VARIANCE> 39
 4.014816e+01 1.493925e+01 1.906891e+01 1.325275e+01 3.673468e+01 7.363924e+01 5.106437e+01 3.258983e+01 1.520288e+01 3.732331e+01 2.060976e+01 2.192828e+01 2.584901e+01 1.425350e+00 1.939394e+00 1.235331e+00 1.344490e+00 1.330143e+00 3.860654e+00 4.042405e+00 2.150355e+00 1.380602e+00 1.747073e+00 1.762697e+00 2.223343e+00 6.977440e-01 2.191789e-01 1.516758e-01 2.230287e-01 2.402425e-01 2.672325e-01 6.642576e-01 7.485133e-01 4.554198e-01 2.544448e-01 2.472066e-01 2.736419e-01 4.154754e-01 1.067937e-01
<GCONST> 1.055294e+02
<STATE> 4
<MEAN> 39
 -5.866562e+00 9.370668e+00 9.325618e-01 3.138318e+00 -1.123489e+00 -2.572703e-02 -1.095540e+00 4.731820e+00 5.070913e+00 3.844622e-01 -2.443590e+00 -3.610418e+00 6.988317e+01 -1.371738e+00 -9.098527e-01 -1.644643e-01 3.117478e-01 3.551086e-01 8.526098e-01 9.478529e-01 -5.260655e-02 -1.959329e-01 1.333554e-01 3.492460e-01 8.416225e-01 -7.661307e-01 2.808449e-01 -2.426538e-01 -2.135527e-01 2.798717e-04 3.355093e-02 -1.736776e-01 -3.038860e-01 -1.331004e-01 -8.248223e-02 -1.277941e-01 -7.175832e-02 4.914584e-02 2.803982e-01
<VARIANCE> 39
 5.087802e+01 1.917375e+01 1.241918e+01 1.474454e+01 3.541662e+01 3.684656e+01 3.279432e+01 2.920172e+01 1.343820e+01 2.940771e+01 2.284259e+01 1.568511e+01 2.910062e+01 1.954107e+00 2.030273e+00 1.998893e+00 1.521731e+00 1.348452e+00 2.743805e+00 3.857300e+00 2.404670e+00 1.153044e+00 2.170980e+00 1.703984e+00 1.057931e+00 1.290589e+00 3.735684e-01 2.784640e-01 2.567027e-01 2.749299e-01 2.847218e-01 5.054775e-01 6.238169e-01 4.442792e-01 2.163694e-01 4.478093e-01 4.541884e-01 2.150661e-01 2.144429e-01
<GCONST> 1.064925e+02
<TRANSP> 5
 0.000000e+00 1.000000e+00 0.000000e+00 0.000000e+00 0.000000e+00
 0.000000e+00 9.184906e-01 8.150943e-02 0.000000e+00 0.000000e+00
 0.000000e+00 0.000000e+00 6.914404e-01 3.085596e-01 0.000000e+00
 0.000000e+00 0.000000e+00 0.000000e+00 6.531224e-01 3.468776e-01
 0.000000e+00 0.000000e+00 0.000000e+00 0.000000e+00 0.000000e+00
<ENDHMM>
~h "ax"
<BEGINHMM>
<NUMSTATES> 5
<STATE> 2
<MEAN> 39
 -2.558967e+00 6.671410e-01 -2.088948e-01 5.939387e+00 4.399484e+00 4.571253e+00 -5.864811e+00 3.043088e-01 1.383107e+00 -5.679829e+00 -1.497715e+00 1.350309e+00 7.608979e+01 2.286614e-01 1.790793e-01 8.841746e-02 1.444279e-01 1.739437e-01 -6.835862e-02 -1.070526e-01 2.874892e-01 -4.200286e-02 -4.575178e-01 -1.389107e-01 -2.749600e-02 7.471497e-02 -6.053885e-02 4.842105e-02 5.238416e-02 -1.372483e-02 -6.063291e-02 -3.525119e-02 5.935363e-02 5.460970e-02 5.185206e-02 8.676724e-02 4.650684e-02 -5.538706e-02 -3.359156e-02
<VARIANCE> 39
 6.779964e+01 4.379944e+01 3.096500e+01 3.593810e+01 4.223502e+01 4.526706e+01 1.067694e+02 4.217066e+01 3.019895e+01 7.181445e+01 3.099064e+01 2.415502e+01 5.345975e+01 5.244077e+00 2.776620e+00 2.220907e+00 2.192703e+00 2.000463e+00 3.192074e+00 8.032727e+00 2.890960e+00 1.888589e+00 4.185269e+00 3.333513e+00 2.125124e+00 3.844470e+00 6.192768e-01 5.070156e-01 3.778739e-01 4.066481e-01 3.793707e-01 4.451072e-01 1.311497e+00 4.196537e-01 3.532531e-01 6.508589e-01 4.333442e-01 3.410999e-01 5.261210e-01
<GCONST> 1.261364e+02
<STATE> 3
<MEAN> 39
 -2.323775e+00 1.172553e+00 4.114715e-02 6.032135e+00 4.555882e+00 4.277319e+00 -6.147448e+00 7.482160e-01 1.294028e+00 -6.386805e+00 -1.599237e+00 1.272145e+00 7.609541e+01 -6.601887e-02 2.433351e-01 1.023607e-01 4.568139e-02 4.859637e-02 2.834341e-02 1.401847e-01 2.375564e-01 1.870243e-02 -1.096946e-01 3.325502e-02 -6.074069e-02 -1.282553e-01 -8.220298e-02 -3.600465e-02 7.152036e-03 -2.477224e-02 -7.190685e-02 1.203570e-02 9.456120e-02 -3.082211e-02 4.928627e-02 1.716929e-01 3.860642e-02 -5.673612e-02 -1.591864e-02
<VARIANCE> 39
 6.724780e+01 4.597082e+01 2.791380e+01 3.621539e+01 4.111682e+01 4.744821e+01 9.374385e+01 4.090481e+01 3.054338e+01 6.980647e+01 3.027644e+01 2.229664e+01 5.060770e+01 3.974201e+00 2.851373e+00 2.005260e+00 2.176630e+00 1.855688e+00 2.594792e+00 7.710396e+00 2.441152e+00 1.787816e+00 3.840808e+00 2.819181e+00 1.830804e+00 2.936004e+00 5.872101e-01 4.527506e-01 3.264995e-01 3.889377e-01 3.686112e-01 4.358139e-01 1.270564e+00 3.871904e-01 3.081926e-01 6.641036e-01 4.344726e-01 3.000332e-01 5.102143e-01
<GCONST> 1.233936e+02
<STATE> 4
<MEAN> 39
 -4.053267e+00 2.055833e+00 4.134942e-02 5.697992e+00 4.245196e+00 4.418273e+00 -4.786546e+00 1.337938e+00 1.228834e+00 -5.512584e+00 -1.018434e+00 1.529554e+00 7.450523e+01 -2.556692e-01 8.243264e-02 1.153075e-01 9.012341e-02 -7.110648e-06 1.337810e-01 3.873082e-01 1.298897e-01 1.066698e-01 2.901382e-01 1.088008e-01 -1.510792e-01 -1.729820e-01 1.702572e-02 -1.382915e-01 5.103943e-03 -1.553994e-02 -7.144054e-02 -2.279569e-02 3.360183e-03 -6.037184e-02 4.871362e-02 1.105890e-01 -9.662587e-03 -8.461428e-02 1.025753e-01
<VARIANCE> 39
 7.703243e+01 4.096520e+01 2.450340e+01 3.451787e+01 3.697495e+01 4.216190e+01 8.498083e+01 3.676768e+01 3.144379e+01 7.093308e+01 3.100866e+01 2.257820e+01 5.555058e+01 3.018080e+00 2.819879e+00 1.741417e+00 2.026894e+00 1.754858e+00 1.948648e+00 5.744767e+00 1.913239e+00 1.712303e+00 3.493353e+00 2.223041e+00 1.550245e+00 2.406425e+00 5.103643e-01 4.403766e-01 2.796910e-01 3.730196e-01 3.263790e-01 4.069526e-01 1.018492e+00 3.623255e-01 2.663150e-01 6.149508e-01 4.230837e-01 2.700578e-01 4.469514e-01
<GCONST> 1.195325e+02
<TRANSP> 5
 0.000000e+00 1.000000e+00 0.000000e+00 0.000000e+00 0.000000e+00
 0.000000e+00 3.661762e-01 6.338238e-01 0.000000e+00 0.000000e+00
 0.000000e+00 0.000000e+00 3.481500e-01 6.518500e-01 0.000000e+00
 0.000000e+00 0.000000e+00 0.000000e+00 4.565461e-01 5.434539e-01
 0.000000e+00 0.000000e+00 0.000000e+00 0.000000e+00 0.000000e+00
<ENDHMM>
~h "ay"
<BEGINHMM>
<NUMSTATES> 5
<STATE> 2
<MEAN> 39
 -1.059286e+01 -2.840561e+00 -1.650537e+00 3.812289e+00 2.189663e+00 6.493146e+00 1.523204e+00 2.408199e+00 2.651485e+00 2.822050e-01 2.773313e+00 3.721642e+00 7.139840e+01 3.402462e-01 -4.588618e-01 -3.149589e-01 -2.660927e-01 -4.629907e-01 -4.554119e-01 -2.947481e-01 2.438307e-02 -5.026329e-02 -1.515556e-01 3.117267e-01 3.490643e-01 4.484019e-01 2.894954e-01 -7.331598e-02 -3.961540e-02 -3.783471e-02 -4.468540e-02 -4.237586e-03 -2.446008e-01 -2.221773e-01 -3.762202e-02 -9.129902e-02 -4.944347e-02 -3.274315e-03 2.507939e-01
<VARIANCE> 39
 6.750400e+01 6.389725e+01 3.876622e+01 4.569641e+01 3.658214e+01 4.007157e+01 6.392619e+01 3.843173e+01 3.118710e+01 3.146935e+01 3.441055e+01 2.143714e+01 7.237134e+01 3.079972e+00 5.312327e+00 3.290959e+00 4.419747e+00 3.219630e+00 4.155604e+00 4.591880e+00 3.048247e+00 2.782187e+00 3.160093e+00 2.787827e+00 1.772067e+00 4.142093e+00 5.791974e-01 9.371541e-01 6.111251e-01 9.394076e-01 5.894703e-01 7.540784e-01 8.236262e-01 6.419021e-01 4.705686e-01 6.503115e-01 5.343374e-01 3.886551e-01 7.926539e-01
<GCONST> 1.306922e+02
<STATE> 3
<MEAN> 39
 -7.639254e+00 -1.362058e+00 -1.681496e+00 3.672026e+00 1.631003e+00 5.010275e+00 -6.725073e-01 1.529354e+00 1.759638e+00 -7.856196e-01 3.803158e+00 4.825917e+00 7.334091e+01 1.106181e+00 -5.026802e-01 -3.105798e-01 -3.363075e-01 -4.528348e-01 -4.598729e-01 -9.574294e-01 -5.483162e-01 -1.431887e-01 -4.286420e-01 1.696385e-01 1.483752e-01 1.149138e+00 2.577727e-01 -2.767733e-03 -2.690454e-02 -7.718557e-02 7.768663e-02 1.047360e-01 -2.577305e-01 -1.859648e-01 7.778922e-02 -3.457544e-02 -1.113325e-01 -8.142965e-02 2.339295e-01
<VARIANCE> 39
 8.989483e+01 4.136792e+01 2.663854e+01 3.938175e+01 3.265154e+01 3.355101e+01 8.056374e+01 4.458245e+01 3.378926e+01 4.617892e+01 2.194392e+01 1.918733e+01 1.053653e+02 4.221998e+00 5.218047e+00 2.894676e+00 3.915452e+00 4.443402e+00 3.111155e+00 4.456724e+00 3.004094e+00 2.763840e+00 3.289918e+00 2.217071e+00 1.966350e+00 6.125599e+00 7.409461e-01 9.053911e-01 5.299197e-01 6.613912e-01 6.293069e-01 5.906528e-01 6.991024e-01 5.466621e-01 5.139728e-01 5.415406e-01 3.984424e-01 3.399010e-01 1.002103e+00
<GCONST> 1.296502e+02
<STATE> 4
<MEAN> 39
 1.324955e+00 -3.162512e+00 -3.255495e+00 3.637805e-01 9.308038e-01 4.417310e+00 -8.558441e+00 -3.076467e+00 2.120647e+00 -3.332409e+00 4.232013e+00 4.268166e+00 8.264879e+01 7.782791e-01 -8.961529e-03 3.299356e-01 8.462277e-02 4.867510e-01 -4.932571e-03 -1.375658e+00 -6.834980e-01 1.788676e-01 -5.135964e-01 -9.338605e-02 -1.154145e-01 8.384315e-01 -2.561378e-01 1.688809e-01 1.579649e-01 1.909886e-01 1.671939e-01 8.233003e-02 1.384742e-01 6.521762e-02 5.682570e-02 5.958639e-02 -1.302075e-01 -8.408115e-02 -2.991015e-01
<VARIANCE> 39
 4.612225e+01 2.647103e+01 3.484098e+01 5.297255e+01 4.682899e+01 3.118300e+01 1.079514e+02 4.309892e+01 3.442007e+01 5.353949e+01 2.648642e+01 2.532117e+01 5.724182e+01 5.000811e+00 3.095185e+00 3.453434e+00 5.023719e+00 4.405060e+00 2.571665e+00 5.215691e+00 3.221726e+00 3.046295e+00 3.202633e+00 2.829424e+00 2.485794e+00 6.015074e+00 6.807941e-01 5.884526e-01 4.474140e-01 5.903407e-01 6.828339e-01 4.811052e-01 7.969319e-01 6.356096e-01 6.666983e-01 5.650600e-01 5.305801e-01 4.187186e-01 7.930429e-01
<GCONST> 1.302242e+02
<TRANSP> 5
 0.000000e+00 1.000000e+00 0.000000e+00 0.000000e+00 0.000000e+00
 0.000000e+00 6.381298e-01 3.618702e-01 0.000000e+00 0.000000e+00
 0.000000e+00 0.000000e+00 5.725922e-01 4.274078e-01 0.000000e+00
 0.000000e+00 0.000000e+00 0.000000e+00 8.604646e-01 1.395354e-01
 0.000000e+00 0.000000e+00 0.000000e+00 0.000000e+00 0.000000e+00
<ENDHMM>
~h "ch"
<BEGINHMM>
<NUMSTATES> 5
<STATE> 2
<MEAN> 39
 -7.961862e+00 -9.438339e+00 2.144474e+00 9.639655e+00 -2.181244e-02 2.294754e+00 -1.915357e+00 7.062340e-02 3.872447e+00 -5.898761e-01 -7.138525e-01 2.368462e-02 7.618858e+01 3.004687e-01 -1.225320e+00 3.416051e-02 2.045853e-01 -1.608063e-01 -1.848659e-01 -2.960017e-01 -2.817748e-01 6.266703e-02 -9.361257e-02 -1.951575e-01 -3.311698e-01 8.993687e-01 1.444335e-01 1.937379e-01 1.547993e-02 -5.034971e-02 4.640601e-02 1.456658e-02 -1.382109e-01 -3.117831e-02 -4.346528e-02 -1.152871e-01 -5.037319e-02 2.475152e-02 2.259282e-02
<VARIANCE> 39
 4.000451e+01 1.486585e+02 4.636940e+01 4.617181e+01 4.205236e+01 4.376612e+01 5.229782e+01 3.655114e+01 2.371740e+01 3.652110e+01 1.900723e+01 2.204769e+01 6.841886e+01 3.685685e+00 1.576788e+01 5.895418e+00 4.439511e+00 3.300515e+00 4.004124e+00 5.851717e+00 4.103006e+00 3.136702e+00 3.491968e+00 2.088698e+00 2.326027e+00 7.624513e+00 5.499904e-01 2.967937e+00 1.228707e+00 7.760172e-01 5.828426e-01 8.090015e-01 1.114137e+00 8.343605e-01 6.051786e-01 5.729811e-01 4.141966e-01 4.096410e-01 1.389512e+00
<GCONST> 1.363443e+02
<STATE> 3
<MEAN> 39
 -6.348806e+00 -1.277692e+01 1.465079e+00 8.556290e+00 -4.442600e-01 3.122999e+00 -3.507980e+00 -1.744388e+00 3.214388e+00 -1.647604e+00 -2.305714e+00 -7.098671e-01 7.884998e+01 7.252696e-01 1.371712e+00 -1.518993e-01 -5.391661e-02 3.331540e-01 4.413767e-02 -6.449585e-01 -5.389276e-02 -2.952015e-01 -5.542849e-01 -3.004339e-01 2.157765e-01 -2.925495e-01 -4.363881e-02 2.371279e-01 -1.295829e-01 1.692811e-02 2.955237e-02 -1.327689e-01 1.292286e-02 1.338995e-01 7.951098e-02 6.212952e-02 7.471348e-02 8.268243e-02 -2.061923e-01
<VARIANCE> 39
 5.036778e+01 1.379776e+02 3.535967e+01 3.555164e+01 4.173486e+01 4.168208e+01 5.972210e+01 2.872727e+01 2.689573e+01 4.303584e+01 2.453521e+01 2.166574e+01 4.914468e+01 4.446736e+00 1.065962e+01 3.899594e+00 2.573090e+00 2.553506e+00 3.661334e+00 6.599069e+00 2.958214e+00 3.034195e+00 3.277644e+00 2.312174e+00 1.934791e+00 4.722608e+00 5.321486e-01 1.811480e+00 7.375419e-01 4.184900e-01 5.128890e-01 7.585670e-01 1.226601e+00 6.015938e-01 5.948456e-01 4.899774e-01 4.729458e-01 3.141852e-01 6.881987e-01
<GCONST> 1.305396e+02
<STATE> 4
<MEAN> 39
 -5.971999e+00 -9.470119e+00 -2.003197e-01 8.589298e+00 2.649931e-01 3.242220e+00 -3.940730e+00 -2.341213e+00 1.726170e+00 -2.442369e+00 -2.465117e+00 -8.487952e-02 7.666917e+01 2.571107e-01 1.477183e+00 -4.252297e-01 2.786086e-02 4.476418e-01 -4.234355e-01 -4.420023e-01 3.909273e-01 2.497825e-01 -1.235794e-01 4.997068e-02 3.397987e-01 -7.036363e-01 -2.024964e-01 -2.755136e-01 -5.745414e-03 1.302967e-02 3.161899e-02 1.002264e-02 9.713388e-02 1.260037e-01 1.516468e-01 1.255415e-01 4.506117e-02 -8.914684e-03 -8.470327e-03
<VARIANCE> 39
 5.953150e+01 9.677023e+01 3.449801e+01 2.783364e+01 3.608963e+01 3.250655e+01 7.443532e+01 2.740614e+01 2.354255e+01 3.690235e+01 2.817277e+01 2.125945e+01 5.494252e+01 4.245730e+00 5.863915e+00 2.538920e+00 2.318153e+00 2.418626e+00 2.332148e+00 5.553435e+00 2.495700e+00 2.688264e+00 2.831039e+00 1.977821e+00 1.702610e+00 4.180561e+00 3.965880e-01 1.018062e+00 5.144804e-01 2.541372e-01 3.458087e-01 4.743719e-01 9.273069e-01 4.168064e-01 4.275856e-01 3.792706e-01 4.789499e-01 3.053237e-01 4.408531e-01
<GCONST> 1.228199e+02
<TRANSP> 5
 0.000000e+00 1.000000e+00 0.000000e+00 0.000000e+00 0.000000e+00
 0.000000e+00 9.145944e-01 8.540563e-02 0.000000e+00 0.000000e+00
 0.000000e+00 0.000000e+00 6.921310e-01 3.078690e-01 0.000000e+00
 0.000000e+00 0.000000e+00 0.000000e+00 6.588666e-01 3.411334e-01
 0.000000e+00 0.000000e+00 0.000000e+00 0.000000e+00 0.000000e+00
<ENDHMM>
~h "dh"
<BEGINHMM>
<NUMSTATES> 5
<STATE> 2
<MEAN> 39
 -8.501352e+00 1.226504e+00 2.557061e+00 7.838300e+00 5.108630e+00 7.338778e+00 -8.431220e-01 3.451828e-01 1.487123e+00 -1.925864e+00 8.783003e-01 2.058666e+00 7.144352e+01 4.209024e-02 -2.678310e-01 2.488373e-01 3.243556e-01 1.256121e-02 1.337421e-01 2.779655e-01 1.403636e-02 -1.324540e-01 -2.751175e-01 -1.016380e-01 -3.301356e-02 2.366376e-01 1.667429e-01 -1.396731e-01 -1.045173e-01 -6.652970e-02 -7.180848e-02 -4.173522e-02 -1.341816e-01 -3.318172e-02 -2.101774e-02 -8.732551e-02 -1.894384e-02 -7.958084e-03 1.841033e-01
<VARIANCE> 39
 5.575605e+01 5.315863e+01 2.550964e+01 3.584173e+01 3.094836e+01 2.770739e+01 9.642785e+01 5.478680e+01 2.479548e+01 3.989894e+01 2.430354e+01 2.478217e+01 7.297996e+01 2.753119e+00 4.188362e+00 2.459697e+00 3.049705e+00 2.674238e+00 2.525746e+00 6.422474e+00 3.241777e+00 2.079256e+00 3.388115e+00 2.437526e+00 2.702609e+00 3.802212e+00 3.655002e-01 6.360495e-01 3.842964e-01 5.281878e-01 4.679811e-01 4.002456e-01 1.169893e+00 6.244032e-01 3.566341e-01 5.772328e-01 4.361936e-01 4.990443e-01 5.354499e-01
<GCONST> 1.252106e+02
<STATE> 3
<MEAN> 39
 -6.042287e+00 9.218600e-02 3.353043e+00 8.853237e+00 5.200608e+00 7.681103e+00 -1.497517e+00 -7.647508e-01 5.341160e-01 -3.610927e+00 4.028217e-01 1.359804e+00 7.451229e+01 6.035692e-01 -7.008529e-01 -8.694849e-02 -7.155789e-02 -2.366511e-01 -1.588485e-01 -6.085519e-01 -2.848176e-01 -1.383783e-01 -6.458151e-01 -1.219800e-01 4.842011e-02 8.850716e-01 1.533924e-01 4.938212e-02 -1.210414e-01 -1.599873e-01 -6.224985e-04 -6.527235e-02 -3.015032e-01 -3.925727e-02 3.369032e-02 -1.006935e-01 -1.918923e-02 4.045861e-02 8.256914e-02
<VARIANCE> 39
 4.393670e+01 6.552563e+01 2.938217e+01 3.555470e+01 3.684387e+01 3.411185e+01 1.123272e+02 5.404729e+01 2.455868e+01 3.781630e+01 2.105799e+01 2.151253e+01 6.456233e+01 3.730185e+00 4.989488e+00 2.587893e+00 3.264787e+00 3.375075e+00 2.574635e+00 9.829479e+00 4.116278e+00 2.184270e+00 4.033154e+00 2.257408e+00 2.583196e+00 5.052003e+00 4.752827e-01 9.048846e-01 4.840404e-01 5.695680e-01 6.601611e-01 4.724517e-01 1.530122e+00 8.069822e-01 4.151570e-01 6.629199e-01 4.117121e-01 4.981386e-01 7.021871e-01
<GCONST> 1.297234e+02
<STATE> 4
<MEAN> 39
 -2.437783e+00 -1.844699e+00 2.731680e+00 7.882924e+00 4.987472e+00 6.966539e+00 -6.680427e+00 -3.177500e+00 3.986478e-02 -6.810620e+00 -8.169129e-02 1.901211e+00 7.852708e+01 7.063520e-01 -2.083726e-01 -4.189391e-01 -3.984649e-01 -6.818267e-02 -2.828547e-01 -1.014093e+00 -1.828826e-01 -4.628409e-02 -7.078356e-01 -1.408527e-01 2.384753e-01 6.456041e-01 -8.394663e-02 2.275116e-01 -8.571836e-02 -1.660835e-02 7.548016e-02 -2.892441e-02 1.118537e-01 1.565379e-01 3.218855e-02 1.041359e-01 3.458038e-02 1.936801e-02 -2.101402e-01
<VARIANCE> 39
 4.430132e+01 5.297415e+01 2.395865e+01 3.641039e+01 3.605736e+01 2.892572e+01 1.243787e+02 5.013545e+01 2.136135e+01 5.146533e+01 2.103314e+01 2.040081e+01 5.550985e+01 3.161936e+00 4.535916e+00 2.088927e+00 2.485277e+00 3.109683e+00 2.360219e+00 1.116869e+01 4.344017e+00 1.927874e+00 4.558004e+00 1.872900e+00 2.420374e+00 4.509733e+00 4.643329e-01 8.400750e-01 3.781422e-01 4.015457e-01 6.521496e-01 3.773125e-01 1.737956e+00 8.169461e-01 3.858302e-01 7.373695e-01 3.253707e-01 4.724436e-01 6.494437e-01
<GCONST> 1.269150e+02
<TRANSP> 5
 0.000000e+00 1.000000e+00 0.000000e+00 0.000000e+00 0.000000e+00
 0.000000e+00 6.436021e-01 3.563978e-01 0.000000e+00 0.000000e+00
 0.000000e+00 0.000000e+00 6.019874e-01 3.980126e-01 0.000000e+00
 0.000000e+00 0.000000e+00 0.000000e+00 7.183046e-01 2.816954e-01
 0.000000e+00 0.000000e+00 0.000000e+00 0.000000e+00 0.000000e+00
<ENDHMM>
~h "ea"
<BEGINHMM>
<NUMSTATES> 5
<STATE> 2
<MEAN> 39
 -7.391330e+00 -2.793995e-01 2.593855e-01 6.215729e+00 3.197216e+00 4.507828e+00 -2.881577e+00 1.071307e+00 3.293610e+00 -1.702413e+00 2.116229e-01 1.528084e+00 7.316100e+01 -8.549295e-03 6.045978e-03 9.986501e-03 -5.830497e-03 -9.514267e-03 -1.506619e-03 -1.506659e-03 -3.180315e-03 6.676455e-03 -5.438070e-03 4.050421e-03 -4.468870e-03 -5.404587e-04 -3.875157e-05 3.997293e-04 3.423740e-04 6.946201e-05 -2.319832e-04 -6.938387e-04 -4.412478e-05 -4.860927e-04 1.315680e-03 -9.365405e-04 -4.231212e-04 2.471485e-04 -2.932212e-04
<VARIANCE> 39
 8.975014e+01 5.484237e+01 3.303328e+01 4.558641e+01 4.748297e+01 5.002078e+01 9.481474e+01 4.729189e+01 3.321279e+01 5.181567e+01 3.966083e+01 2.784256e+01 7.606396e+01 2.211436e+00 2.785441e+00 1.626260e+00 1.902343e+00 2.248548e+00 2.452049e+00 4.360876e+00 2.359010e+00 2.040265e+00 2.571942e+00 1.964578e+00 1.676181e+00 2.222835e+00 2.912704e-01 4.665184e-01 2.795431e-01 3.127733e-01 3.728060e-01 3.948886e-01 6.864723e-01 4.205315e-01 3.711796e-01 4.366302e-01 3.409353e-01 2.969837e-01 3.289974e-01
<GCONST> 1.202872e+02
<STATE> 3
<MEAN> 39
 -7.391330e+00 -2.793995e-01 2.593855e-01 6.215729e+00 3.197216e+00 4.507828e+00 -2.881577e+00 1.071307e+00 3.293610e+00 -1.702413e+00 2.116229e-01 1.528084e+00 7.316100e+01 -8.549295e-03 6.045978e-03 9.986501e-03 -5.830497e-03 -9.514267e-03 -1.506619e-03 -1.506659e-03 -3.180315e-03 6.676455e-03 -5.438070e-03 4.050421e-03 -4.468870e-03 -5.404587e-04 -3.875157e-05 3.997293e-04 3.423740e-04 6.946201e-05 -2.319832e-04 -6.938387e-04 -4.412478e-05 -4.860927e-04 1.315680e-03 -9.365405e-04 -4.231212e-04 2.471485e-04 -2.932212e-04
<VARIANCE> 39
 8.975014e+01 5.484237e+01 3.303328e+01 4.558641e+01 4.748297e+01 5.002078e+01 9.481474e+01 4.729189e+01 3.321279e+01 5.181567e+01 3.966083e+01 2.784256e+01 7.606396e+01 2.211436e+00 2.785441e+00 1.626260e+00 1.902343e+00 2.248548e+00 2.452049e+00 4.360876e+00 2.359010e+00 2.040265e+00 2.571942e+00 1.964578e+00 1.676181e+00 2.222835e+00 2.912704e-01 4.665184e-01 2.795431e-01 3.127733e-01 3.728060e-01 3.948886e-01 6.864723e-01 4.205315e-01 3.711796e-01 4.366302e-01 3.409353e-01 2.969837e-01 3.289974e-01
<GCONST> 1.202872e+02
<STATE> 4
<MEAN> 39
 -7.391330e+00 -2.793995e-01 2.593855e-01 6.215729e+00 3.197216e+00 4.507828e+00 -2.881577e+00 1.071307e+00 3.293610e+00 -1.702413e+00 2.116229e-01 1.528084e+00 7.316100e+01 -8.549295e-03 6.045978e-03 9.986501e-03 -5.830497e-03 -9.514267e-03 -1.506619e-03 -1.506659e-03 -3.180315e-03 6.676455e-03 -5.438070e-03 4.050421e-03 -4.468870e-03 -5.404587e-04 -3.875157e-05 3.997293e-04 3.423740e-04 6.946201e-05 -2.319832e-04 -6.938387e-04 -4.412478e-05 -4.860927e-04 1.315680e-03 -9.365405e-04 -4.231212e-04 2.471485e-04 -2.932212e-04
<VARIANCE> 39
 8.975014e+01 5.484237e+01 3.303328e+01 4.558641e+01 4.748297e+01 5.002078e+01 9.481474e+01 4.729189e+01 3.321279e+01 5.181567e+01 3.966083e+01 2.784256e+01 7.606396e+01 2.211436e+00 2.785441e+00 1.626260e+00 1.902343e+00 2.248548e+00 2.452049e+00 4.360876e+00 2.359010e+00 2.040265e+00 2.571942e+00 1.964578e+00 1.676181e+00 2.222835e+00 2.912704e-01 4.665184e-01 2.795431e-01 3.127733e-01 3.728060e-01 3.948886e-01 6.864723e-01 4.205315e-01 3.711796e-01 4.366302e-01 3.409353e-01 2.969837e-01 3.289974e-01
<GCONST> 1.202872e+02
<TRANSP> 5
 0.000000e+00 1.000000e+00 0.000000e+00 0.000000e+00 0.000000e+00
 0.000000e+00 6.000000e-01 4.000000e-01 0.000000e+00 0.000000e+00
 0.000000e+00 0.000000e+00 6.000000e-01 4.000000e-01 0.000000e+00
 0.000000e+00 0.000000e+00 0.000000e+00 7.000000e-01 3.000000e-01
 0.000000e+00 0.000000e+00 0.000000e+00 0.000000e+00 0.000000e+00
<ENDHMM>
~h "eh"
<BEGINHMM>
<NUMSTATES> 5
<STATE> 2
<MEAN> 39
 1.360229e+00 -2.351405e+00 -1.487796e-01 3.822357e+00 4.175308e+00 6.490201e+00 -1.113317e+01 -4.671077e+00 -3.190138e-01 -1.051731e+01 6.955927e-01 2.986572e+00 8.208401e+01 5.213509e-01 5.118170e-01 -2.552142e-01 -2.786753e-01 3.642920e-01 2.911781e-01 -5.547725e-01 -2.470556e-01 -6.097037e-02 -2.688168e-01 -1.900236e-01 2.375757e-01 2.087491e-02 -2.970820e-01 1.650842e-01 7.874370e-02 9.392065e-02 2.915649e-02 1.898663e-02 4.192073e-01 3.134751e-01 1.323530e-01 2.679347e-01 -4.693325e-02 -1.105746e-01 -3.470851e-01
<VARIANCE> 39
 2.629250e+01 2.755586e+01 2.719023e+01 2.882142e+01 4.122805e+01 3.117791e+01 8.615758e+01 5.081955e+01 2.744040e+01 5.020374e+01 4.287856e+01 3.370943e+01 2.096715e+01 2.155180e+00 2.671023e+00 1.641088e+00 2.143728e+00 1.851535e+00 2.458645e+00 6.811650e+00 3.440561e+00 2.499869e+00 3.740138e+00 2.833165e+00 2.535892e+00 2.014248e+00 2.501718e-01 4.103277e-01 2.544768e-01 3.062816e-01 3.980720e-01 3.273396e-01 9.357810e-01 5.406570e-01 4.828000e-01 5.776103e-01 4.833555e-01 4.127691e-01 2.384591e-01
<GCONST> 1.187330e+02
<STATE> 3
<MEAN> 39
 1.542431e+00 -8.382677e-01 -5.528394e-01 3.823283e+00 5.429415e+00 7.121297e+00 -1.109640e+01 -4.020942e+00 2.738202e-01 -1.002897e+01 -1.756836e-01 2.940462e+00 8.104243e+01 -1.251977e-01 6.766859e-01 2.480478e-02 7.448343e-02 3.281536e-01 2.775216e-01 4.140684e-01 2.716069e-01 1.438516e-01 3.210379e-01 -2.829362e-01 -1.437156e-01 -6.018910e-01 -2.056898e-01 6.268154e-02 1.475076e-01 1.208380e-01 -4.281952e-02 3.791884e-02 3.040940e-01 9.131394e-02 7.348692e-02 1.868229e-01 -2.803354e-02 -1.429880e-01 -1.906262e-01
<VARIANCE> 39
 2.188498e+01 2.493501e+01 2.856670e+01 2.979669e+01 4.045383e+01 3.853274e+01 8.135244e+01 4.491193e+01 3.307961e+01 5.026850e+01 4.407299e+01 3.726794e+01 2.298516e+01 1.654905e+00 2.196198e+00 1.716374e+00 1.830212e+00 1.733399e+00 2.568023e+00 5.827213e+00 2.648216e+00 2.251198e+00 3.338747e+00 2.889338e+00 2.510528e+00 1.488459e+00 1.904929e-01 3.794689e-01 2.730458e-01 3.149103e-01 3.214402e-01 4.219130e-01 8.396685e-01 4.600433e-01 3.849996e-01 5.498590e-01 5.116513e-01 4.525760e-01 2.068997e-01
<GCONST> 1.166765e+02
<STATE> 4
<MEAN> 39
 8.563094e-01 3.121271e+00 1.389069e+00 5.085723e+00 3.882803e+00 5.981379e+00 -8.815351e+00 -2.679442e+00 3.499724e+00 -6.297055e+00 -3.187356e+00 6.768405e-02 7.813614e+01 -3.455729e-01 4.927557e-01 2.109529e-01 2.113116e-01 9.616628e-02 2.233274e-01 6.694579e-01 2.332982e-01 1.433588e-01 4.597286e-01 -1.779746e-01 -3.209838e-01 -6.040968e-01 -7.845078e-02 -6.091477e-02 4.447963e-02 2.661413e-02 -5.013908e-02 -4.004143e-04 7.519900e-02 -5.795232e-03 5.288152e-03 7.633122e-02 4.780950e-02 -2.814048e-02 -1.348969e-02
<VARIANCE> 39
 2.293625e+01 3.463208e+01 2.686974e+01 2.565091e+01 6.456099e+01 8.882236e+01 6.493951e+01 3.539949e+01 5.353001e+01 6.739190e+01 4.942525e+01 4.008480e+01 2.727739e+01 1.571656e+00 1.774251e+00 1.408568e+00 1.763419e+00 2.311873e+00 3.921436e+00 4.484190e+00 2.201360e+00 2.731094e+00 3.271768e+00 3.037321e+00 2.820559e+00 1.413204e+00 1.719896e-01 3.360554e-01 2.255045e-01 3.372356e-01 3.536225e-01 5.783618e-01 6.841192e-01 4.040621e-01 4.365072e-01 5.357968e-01 4.160614e-01 4.392028e-01 1.991511e-01
<GCONST> 1.184198e+02
<TRANSP> 5
 0.000000e+00 1.000000e+00 0.000000e+00 0.000000e+00 0.000000e+00
 0.000000e+00 5.696030e-01 4.303970e-01 0.000000e+00 0.000000e+00
 0.000000e+00 0.000000e+00 5.458986e-01 4.541014e-01 0.000000e+00
 0.000000e+00 0.000000e+00 0.000000e+00 7.391888e-01 2.608111e-01
 0.000000e+00 0.000000e+00 0.000000e+00 0.000000e+00 0.000000e+00
<ENDHMM>
~h "er"
<BEGINHMM>
<NUMSTATES> 5
<STATE> 2
<MEAN> 39
 -2.436259e+00 2.369088e-01 -1.180006e+00 3.469484e+00 -2.410498e+00 -6.690598e-02 -2.911497e+00 4.160800e+00 2.958402e+00 -8.073866e+00 -3.400899e+00 7.281393e-02 7.777470e+01 5.552127e-01 4.784497e-01 -1.606628e-02 3.033168e-02 -1.286487e-01 -7.687370e-01 -4.169368e-01 2.545328e-01 -2.398209e-01 -1.079394e-01 -1.745730e-01 2.437473e-01 1.039604e-01 -4.150921e-02 -1.302424e-01 -2.645523e-02 1.249257e-01 1.756118e-01 7.764981e-02 -3.960513e-02 -9.615635e-02 -6.720020e-02 6.535237e-02 5.264403e-02 4.132634e-02 -4.330360e-02
<VARIANCE> 39
 8.163998e+01 6.916562e+01 1.679247e+01 1.953769e+01 2.620022e+01 6.164715e+01 6.583364e+01 2.500387e+01 1.356266e+01 3.954092e+01 4.217570e+01 2.083829e+01 3.429533e+01 5.068737e+00 5.362404e+00 1.564426e+00 1.395130e+00 1.658497e+00 3.882771e+00 4.524704e+00 1.657084e+00 1.179722e+00 3.284777e+00 2.782128e+00 1.633876e+00 2.256523e+00 5.690192e-01 9.125535e-01 3.015248e-01 2.625536e-01 2.925802e-01 6.295570e-01 9.344187e-01 2.214644e-01 2.477087e-01 5.029319e-01 4.058346e-01 3.543820e-01 3.239771e-01
<GCONST> 1.175359e+02
<STATE> 3
<MEAN> 39
